9.814441970253984932e-03,9.226503028307048160e-03,1.255605212309399143e-02,1.969597243732491235e-04,-7.927187363621160127e-04,-2.395745924308584698e-02,3.849994339559337925e-03,2.820625352233901983e-02,-1.748156179254813924e-01,-4.182291617494270086e-02
-4.134320336525415095e-04,-2.200564797267253857e-03,-4.667986719146631838e-03,1.207651313935540881e-03,5.332723020512982956e-03,-6.656656398361750215e-03,2.654279618115155254e-03,-8.332310538171201070e-03,-2.582391529231190530e-01,-3.021650203315963748e-02
-2.409491512783426114e-03,1.572553277376891826e-03,6.428427134846333331e-03,-1.445674268969710744e-03,1.184302220051761025e-03,-6.088898602835857328e-03,6.068428786601769674e-03,1.355359918565032448e-02,-1.951045648242527852e-01,-3.392016756623661422e-02
-1.663836704286537210e-03,-1.825922641079742031e-03,-1.708306234163689541e-02,-1.818254979084275511e-03,2.954039919397308603e-03,-5.826235934348560248e-03,-5.820635842706286915e-03,-3.184154983552399398e-02,-2.256460979285612178e-01,4.577372309681808533e-03
4.140540549593559852e-04,-4.802303215404441742e-04,-3.640825110755781593e-03,-3.988340533519515833e-04,3.982689886078427405e-04,-3.919740908871503782e-03,6.614653594530291603e-04,-6.585347833855840355e-03,-1.461601211187093519e-01,-2.025060616143390876e-02
-4.446765525387480142e-03,2.707857434196815800e-03,-6.533091859893602055e-03,-2.997801591056029231e-03,-3.791396225325204504e-04,-8.832029961228648682e-03,-5.391113743274116195e-04,1.043750953958199300e-02,-1.580077757980703490e-01,-9.523736323397990339e-03
3.256087394719303640e-03,7.757491921964629680e-03,1.994605069197488700e-02,-2.389668577179463252e-03,-1.707664691529374792e-03,-1.062165242039547763e-02,7.606754830853886852e-03,2.059574576633984785e-02,-1.118004008740192123e-02,-4.354595962564725836e-02
-1.023524574833283539e-02,-5.052313659033984619e-03,-4.394720553377489194e-03,8.147460861432354300e-04,-3.775831376922809371e-04,-8.990109751700420260e-03,-3.579658798837528130e-03,-3.848863513981588130e-02,-1.181870426031688959e-01,1.601215945329442433e-02
8.330232701820564252e-05,1.373989081881491544e-03,-2.604347801090690917e-02,-1.721057356582717576e-03,-1.925054388920656792e-03,-8.028700866045093004e-03,-1.196361125576105022e-02,-4.481471744508373767e-02,-2.487495972029751257e-01,2.883061023394531755e-02
-3.814739437240595443e-03,-2.850342847992592878e-03,-2.380665457672096266e-02,-1.614645491189010528e-03,3.977061655234062805e-03,-2.594860208038037366e-03,-4.609444519488896212e-03,-2.408540602687744142e-02,-2.141788374336550671e-01,-1.658904741271831351e-03
-2.049657875433517538e-04,3.017032194400261734e-03,-5.879134638711280315e-03,-1.060374791896564594e-03,1.142836036149970976e-03,-7.959531561403278624e-03,-5.151640520580509121e-03,-3.802685063826691941e-02,-1.386520548401040109e-01,5.558558059690746171e-03
4.801546672362241690e-05,-1.720234503443403675e-03,-1.406055707733500255e-02,6.161749724216483010e-03,5.856265143812242752e-03,-8.575574841064786263e-03,-4.138236680010924304e-03,-4.044057805592358307e-02,-1.301237065424294403e-01,1.436100448521482158e-02
-6.399963043441835031e-03,-4.404564649434289901e-03,-1.646103140442305851e-02,2.134933017228305471e-03,6.766153046729206019e-03,-4.751679606662503191e-03,-8.455229739292437902e-03,-5.824312225183206349e-02,-2.198230474905403797e-01,2.027813660526132239e-02
6.557322838696900968e-03,8.860300420102539985e-04,-1.317493703724953967e-02,2.748879354691567863e-03,5.213377193474909646e-03,-6.304619670517467092e-03,-6.538323364845896081e-03,-4.348082634252040113e-02,-1.972638038886310452e-01,7.583570507290137395e-03
3.615167908901467837e-03,4.624469636205749516e-03,1.621585437687438633e-03,-2.309422214666993593e-03,-2.720846459815991127e-03,-1.257388476022309499e-02,-1.461115196670995271e-03,-3.678974338544360734e-02,-1.355091627085007466e-01,3.811964556236788551e-04
-5.288790928832315559e-03,1.948398114989303943e-03,-9.252886179585553122e-03,1.569134781176272021e-04,1.926161699148927790e-03,-8.520179958131056386e-03,-5.734829479825324754e-04,-1.472369857427305653e-02,-2.154460572320411327e-01,-1.933682659695401887e-02
7.903954137555600085e-03,2.057376714267445186e-03,-1.297348736138996539e-02,2.627465779316971901e-03,5.431916420686159694e-03,-9.076943710175608068e-03,-4.469885059871890262e-03,-1.768954620649384329e-02,-2.139146915490022505e-01,-1.606012943643415902e-02
-2.010407618319642094e-03,-1.380399382911874336e-03,-1.063183019551284386e-02,-1.221121182050507407e-03,9.501963466448442794e-04,-6.739546822147958124e-03,-3.712092014744847873e-03,-8.115521290292939532e-03,-1.575200717749942192e-01,-1.966746145385667166e-04
-2.161320709221607045e-02,-1.266727016374133430e-02,-3.447267844288556121e-02,1.849875117343137117e-03,4.097336288212741900e-03,2.433065036092427105e-03,-6.947082760767007807e-03,-6.043502578432171507e-02,-2.596223581844825379e-01,5.831385218356758410e-02
9.662523241348794367e-03,1.426041819137615838e-02,8.423911010219392245e-03,-5.509459961474949541e-03,-6.301166066741943975e-03,-7.325726452223513263e-03,9.457179267517524862e-04,-2.104303074547598379e-02,-3.747627140400508483e-02,-9.517459702687464454e-03
-3.486455477977139488e-03,2.538540068686302026e-03,-5.050484973414535658e-03,-1.272254345459829152e-03,-1.754664815710194666e-03,-7.166817704042882826e-03,6.879519273270406909e-04,-1.627256656681204047e-02,-1.507274111310994424e-01,-2.330327096767322026e-02
-1.524900175199362870e-02,-1.921550731312068796e-03,-2.321568231500568610e-02,-3.986992901318805148e-03,-3.005106424006625827e-03,-6.522915511654363632e-04,-6.072010306794131847e-03,-2.605596654815888272e-02,-1.191884033699404377e-01,5.345236616811620267e-02
7.268347494696918501e-03,2.187875686471242413e-03,-8.309306629777028080e-03,1.621604798878328738e-04,4.781457720274558988e-03,-7.021520374479277293e-03,-1.442595268472633523e-03,-3.650110280321946891e-03,-1.705815019520067199e-01,-2.506998049654579966e-02
-1.146321969983219672e-03,-1.987990466411543745e-03,-1.097607993796431355e-02,-2.489579295808869164e-03,1.379744175431212331e-03,-4.384111273025919145e-03,-1.281185741666352254e-04,-8.567604700977188986e-03,-2.236967783688038058e-01,-1.711655294564426097e-02
1.453381669879600909e-03,3.330345462363180475e-03,3.552867921052957345e-02,1.101576496445448496e-03,-2.574293537148631631e-03,-2.197626637043221393e-02,1.124936250508216593e-03,-3.391603336335975716e-02,-6.068494671876686897e-02,-1.709241817434405813e-02
9.391713025918433516e-03,2.667263043932141357e-03,1.342221089747946960e-02,5.305487535853025370e-03,4.308231286106630614e-03,-1.315924546390789297e-02,-7.274229323532811981e-04,-2.393703475845309139e-02,-1.184820557901861554e-01,-1.728325421343299140e-02
6.761585824368196614e-03,3.282471077157068408e-03,-9.906070140082490205e-03,8.796862469808620520e-04,7.404112404991830890e-03,-9.892819040299951489e-03,8.561779688641580222e-04,4.991149587287809809e-03,-2.137540728014278302e-01,-3.709229962970800321e-02
1.072734821874285092e-03,-9.612870193474358851e-04,-6.800146222492536516e-03,5.962067451481389965e-04,3.107240626261789651e-03,-9.220478994140508464e-03,2.703762168159562843e-03,-1.613535797413565009e-02,-2.041312986043290756e-01,-2.192802249256296104e-02
