5.845023304644631759e-04,6.936172911567872615e-04,7.781553582606729651e-04,8.500064172644004878e-04,9.436439194555060672e-04,9.506253301996833239e-04,9.580615803926902487e-04,9.670566931987908954e-04,8.564610367975885067e-04,6.832630539623215163e-04,4.811868046395061040e-04,2.520620787300100873e-04,-3.679321778609028639e-06,-2.524951240285601417e-04,-5.225284711628616239e-04,-7.970715626001908258e-04,-1.077818397364626148e-03,-1.395519327765754655e-03,-1.780637972228003895e-03,-2.041166379705870119e-03,-2.295782266246170194e-03,-2.473240176561332642e-03,-2.480496561463081326e-03,-2.330440238222992577e-03,-2.068455583537209732e-03,-1.794012498647138765e-03,-1.598278523183422001e-03,-1.374673607697018875e-03,-1.166070164428638627e-03,-9.436234042473676644e-04,-7.110252106889505559e-04,-4.607561516940739056e-04,-2.219632167486275528e-04,-3.306571492518769052e-05,1.247397370448618419e-04,2.412939159594797676e-04,3.355120828736222940e-04,3.918466791276842666e-04,4.077237137957796711e-04,4.068588082457573907e-04,3.954405337840660424e-04,3.882431064818102156e-04,3.743294002745359695e-04,3.654547247341566676e-04,3.615676759086910259e-04,3.499386089330321949e-04,3.645247612375327210e-04,3.909380152700136775e-04,4.279598915123961869e-04,4.772221639277478603e-04,5.252521873323879155e-04,5.573671677153839172e-04,5.640516573807721973e-04,5.612704597416835230e-04,5.635513049103554536e-04,5.524834191069995281e-04,5.440293646778916357e-04,5.130012557622930887e-04,4.811019951369067981e-04,4.551154525104773537e-04,4.541013686814730408e-04,4.928927502679637329e-04,5.769541707942502356e-04,6.246096692089066421e-04,6.514531771035443663e-04,7.007023441469769623e-04,5.699785850989557865e-04,5.308605834739779780e-04,5.711727031005704941e-04,7.725632681518561709e-04,8.829960443695313108e-04,9.448385710922285567e-04,9.909793846507616681e-04,9.837117712195992108e-04,9.702126270170198215e-04,9.660805542973012212e-04,9.322403332187989946e-04,9.390884047925433754e-04,9.320261349036250247e-04,9.255964622930848819e-04,9.203842403471912620e-04,8.900370442296059699e-04,8.653205775206913603e-04,8.444286840956825944e-04,8.250314354746502050e-04,8.202641954716240408e-04,8.224909246155061695e-04,8.346751919540671165e-04,8.564475821008365889e-04,8.776013776446873202e-04,8.792312345456395955e-04,8.881810795526078137e-04,8.895712560231234080e-04,8.849059258902635056e-04,8.694927898621639855e-04,8.629788830884012633e-04,8.657363316457873095e-04,8.517279013382898518e-04,8.417479216396821099e-04,8.419525469171604097e-04,8.322115076372953906e-04,8.134683303079856325e-04,8.181895885486931618e-04,8.178497542155794718e-04,8.112502788323514274e-04,8.252588651915331551e-04,8.321944273042204037e-04,8.388226408325867838e-04,8.261916504392131152e-04,8.313810571810922867e-04,8.139495186475820309e-04,7.980335458686308630e-04,7.968960345694363519e-04,7.952630724473204330e-04,7.772295255610610831e-04,7.401488190390917996e-04,7.322954914442408739e-04,7.073928192209125079e-04,6.649303762483275157e-04,6.275276833646115451e-04,5.770701534860833834e-04,5.053079652319934865e-04,4.460744935200421871e-04,3.997274262168046917e-04,3.292620128302385868e-04,2.633863170374666483e-04,2.209975648335802561e-04,1.822485218554486999e-04,1.521298292163997072e-04,1.293510742120891806e-04,1.057850805884604021e-04,9.005592975846730985e-05,7.173685765932557733e-05,5.982774727310870278e-05,6.093697017475204576e-05,6.749710937117008741e-05,8.424139419428957796e-05,9.543226271646925633e-05,1.194554072894895024e-04,1.460072682214400670e-04,1.667641495026082280e-04,2.000758777219618413e-04,2.381520514784540063e-04,2.858801546963100904e-04,3.368062829590478895e-04,3.960764342924969102e-04,4.615966367798627701e-04,5.234689969662394051e-04,5.610867652787877424e-04,6.215671546537896190e-04,6.624024149190188256e-04,6.873646503681222998e-04,7.446493063995346558e-04,7.427879582623084405e-04,7.540826543913828730e-04,7.669417750785318885e-04,7.943839293733969938e-04,8.019563240226594428e-04,8.081846635850940862e-04,8.390664302697887307e-04,8.424874666334628264e-04,8.401000497340689512e-04,8.296799022709397614e-04,8.372015783813301169e-04,8.326667140630119798e-04,8.242738628553078614e-04,8.291796129329491710e-04,8.220134961993006339e-04,8.181661104274983625e-04,8.134315820016516096e-04,8.185707046855641511e-04,8.174200957126980926e-04,8.217087737579038733e-04,8.226011598196714472e-04,8.216628766833175427e-04,8.305359126932958073e-04,8.376938479384875768e-04,8.261322854386626531e-04,8.429227558394870997e-04,8.456328265512457658e-04,8.278464661119794461e-04,8.331231075791751270e-04,8.320171562035215797e-04,8.324197305752002035e-04,8.093073844473037395e-04,8.171760608108577300e-04,8.036383105220048844e-04,7.926861372911416913e-04,8.090436955542977104e-04,7.919371854146705324e-04,7.852790888243043037e-04,7.825421470348495768e-04,7.854471597818437787e-04,7.669893491935408751e-04,7.454759494727174630e-04,7.453755412767541560e-04,7.397381669732759017e-04,7.427679635315148545e-04,7.210361420789298788e-04,7.136069847147305306e-04,6.998033284628459331e-04,6.757529351284571493e-04,6.497102719638809523e-04,6.399426335651328722e-04,5.821549698740867331e-04,5.219512779247322638e-04,4.883137694936854440e-04,4.437032995366192939e-04,3.935754919201803290e-04,3.484151309004406916e-04,3.112436342027402928e-04,2.855511781033974179e-04,2.638774477011645333e-04,2.644478823962948238e-04,2.559590886430106768e-04,2.581659167393301514e-04,2.659194937811992917e-04,2.586163085335308962e-04,2.739452330923672330e-04,2.841374863629917173e-04,3.063096452052177553e-04,3.492914338639570228e-04,3.791738283263623179e-04,4.086255297028353853e-04,4.517599621803164694e-04,5.018025231846410953e-04,5.573092999916068324e-04,5.928589031614336967e-04,6.189574996668281530e-04,6.470554162766067223e-04,6.502928092257337454e-04,6.483254564940653646e-04,6.533825062454381343e-04,6.502354636058067230e-04,6.627128482948488417e-04,6.589599771927652679e-04,6.575421876835529445e-04,6.587151034259196682e-04,6.657591752864466328e-04,6.412715064307502070e-04,6.129641952875274904e-04,5.638085230915849738e-04,5.149228726973023498e-04,4.651133815401058960e-04,4.178334942717158371e-04,3.672092747469553982e-04,3.076621978186713248e-04,2.607452789715530503e-04,2.158736003475655494e-04,1.733466461890622776e-04,1.404561580255953880e-04,1.030461178270514628e-04,7.409200826103930822e-05,3.973754213036909588e-05,1.889368989904870687e-05,1.923186622838407220e-06,-8.879403305396251839e-06,-1.354507661230548709e-05,-1.464973505201076599e-05,-1.138039633506335326e-05,-5.024415445087901409e-06,6.212407477255414243e-06,2.596027339301432482e-05,6.323488993266422067e-05,1.098751262017323878e-04,1.707024427653226490e-04,2.511047678070737121e-04,3.739012804267968521e-04,4.570875368577467985e-04,5.628930507250275508e-04,6.880642556753448864e-04,7.426861590468414494e-04,7.663164794706523765e-04,7.875984368650216193e-04,8.265772982064216847e-04,8.125911244644645455e-04,8.237537647667609719e-04,8.234608304467503541e-04,8.184347726821724137e-04,8.204691931762503809e-04,8.255681296997178110e-04,8.226974851831809045e-04,8.362579422601383768e-04,8.251727169893900531e-04,8.149677756214337163e-04,8.180795979052910179e-04,8.112568188089459929e-04,7.978969671733087592e-04,7.594120079353351141e-04,7.588897413726775542e-04,7.365274494178509742e-04,7.123889062309600624e-04,7.108962515079165221e-04,7.151849771749248545e-04,7.204040776890017258e-04,7.359575731417848741e-04,7.337326050353108753e-04,7.430646041303160714e-04,7.543541263011303019e-04,7.672462055119130082e-04,7.672812192647025060e-04,7.604297482619404389e-04,7.624257707559648628e-04,7.624424297198546460e-04,7.276953227324036181e-04,6.886168942793679734e-04,6.348854539350803515e-04,5.821158360506828054e-04,4.728006987504016151e-04,4.010942846978051584e-04,3.351468348422851793e-04,3.113790257457409627e-04,2.429034303980889017e-04,1.906023821810320766e-04,1.725900214236934392e-04,1.441240362169821630e-04,1.255029429554809428e-04,1.035743999921696164e-04,8.112019654704458605e-05,5.341976607684223270e-05,2.636388789936908143e-05,-1.748393182491155128e-06,-2.993101010573077507e-05,-5.816710992027581718e-05,-8.030360058509555170e-05,-1.031275861238231185e-04,-1.128792282382365527e-04,-1.236180268686764541e-04,-1.257702032868335577e-04,-1.105123266078276176e-04,-9.836110577073677594e-05,-8.203472316144760229e-05,-7.337842556127572723e-05,-7.753199068622539732e-05,-8.058210642069542557e-05,-8.744348632464743270e-05,-1.105012175478063663e-04,-8.575870731925874758e-05,-5.853408074396856454e-05,-2.644158125883135332e-05,1.262626646432267554e-05,4.698756840119342479e-05,7.442665002747785724e-05,1.017687960093019629e-04,1.126212573178811865e-04,1.126929367579162161e-04,1.026475134172801748e-04,9.664350904570698393e-05,8.949392375744104258e-05,8.202783891642846420e-05,7.401257690065736765e-05,7.081686032697172620e-05,7.357132866210811255e-05,8.401373194372739920e-05,9.051912492817418829e-05,9.847348326611597160e-05,1.053812447535175286e-04,1.133202971848439733e-04,1.132405497822155417e-04,1.134361668246296884e-04,1.091687176058432060e-04,9.717923694027074744e-05,8.413233267126712077e-05,7.543190437389162830e-05,6.276162628156700272e-05,5.136475814002557626e-05,4.144126732064405336e-05,3.464594258208092750e-05,3.396356444747872678e-05,3.866627148910668684e-05,4.628275547435765474e-05,5.508615314780270850e-05,6.929243109640060184e-05,9.607774256034564558e-05,1.298383742880388620e-04,1.759848442945156899e-04,2.210755354066108313e-04,2.895083813534963689e-04,3.731799594058427612e-04,4.330190816177855373e-04,5.145437229525168720e-04,5.848067864980524468e-04,6.396216203501564916e-04,6.755635888549692443e-04,7.083639513258886645e-04,7.322207964431503690e-04,7.385710052021465886e-04,7.642371731641500873e-04,7.624701665405544688e-04,7.731741481569239655e-04,7.710475339949147662e-04,7.979184338831003462e-04,8.170415433434111835e-04,8.181767283204695752e-04,8.537252533149026395e-04,8.683349021493709519e-04,8.761522072182827310e-04,8.749892667564082571e-04,8.764920029890994023e-04,8.739257641302798901e-04,8.511660979337011762e-04,8.620047699187809468e-04,8.541608115457151448e-04,8.357542006202022759e-04,8.197099706722591047e-04,8.070203824152170956e-04,7.982220758804887571e-04,7.951099872954055930e-04,7.899203225662962098e-04,7.811863880870708460e-04,7.725773248250780625e-04,7.727945359382593082e-04,8.524597761546747832e-04,9.426565820136617070e-04,1.016736496538812526e-03,1.063974573972019085e-03,1.026479040571808129e-03,9.146683832852045646e-04,7.288262541493032917e-04,2.598019516207807533e-04,1.696521444314042632e-04,-3.409772971663584083e-06,-1.522801169482238849e-03,-5.514997255503160077e-03,-8.624473994638410385e-03,-9.974984947387613779e-03,-1.040654194068527279e-02,-8.735147674920992755e-03,-6.400313854703029194e-03,-5.619541786875244249e-03,-5.719251030485640770e-03,-5.712578496158770593e-03,-5.802015700367781775e-03,-5.850106655954601283e-03,-5.847305389938096259e-03,-6.231464611974135356e-03,-6.639895362489250247e-03,-6.686239862257000247e-03,-6.696226902449703942e-03,-6.764594188418104545e-03,-6.409992941397999258e-03,-6.101419244737572509e-03,-5.157455596747987855e-03,-2.642224308175808532e-03,-4.104333492185740020e-03,-5.895278507772589056e-03,-8.230303252796680735e-03,-1.062710408443327988e-02,-1.029481564164231797e-02,-8.130984031197826395e-03,-4.549549390100395517e-03,-2.508499836114316209e-03,-7.679503037587649857e-04,-4.978440425437829489e-04,-5.557683037404183377e-04,-2.874074205981069557e-04,-1.308012848710879243e-04,-1.611169708936706360e-05,-1.365258054144112034e-06,-8.866494336445375024e-05,-1.421179560874761248e-04,-1.312164071240356545e-04,-1.152918274633877579e-04,-2.772011589109319167e-04,-3.752844333327466186e-04,-3.000289260835340040e-04,-2.193375081434482217e-04,-9.194923454875273110e-05,1.575110908491089942e-05,1.339146275208553526e-04,1.905471050792628403e-04,2.237958929327409530e-04,2.718227237807828802e-04,2.597397872666628183e-04,2.165739256927850273e-04,1.632042029095636543e-04,9.626751663935914725e-05,3.133613818651705851e-05,2.997504907013758490e-05,1.369372661274964305e-04,3.160638342910216292e-04,4.905843944019725247e-04,6.386700425644061376e-04,7.909594992177355509e-04,6.839344585420423098e-04,5.982922372058218762e-04,5.577641615491283310e-04,5.257270031761923038e-04,6.738899093374401978e-04,8.189413730205008859e-04,9.166986518207743007e-04,1.033575942161169079e-03,1.067308609880252739e-03,1.089115945027836676e-03,1.092884365145117831e-03,1.127542471174749431e-03,1.078605327508565899e-03,9.336793424324157323e-04,8.079514418099970107e-04,6.252743380474913570e-04
8.489385053289951561e-04,1.464116475349872860e-03,2.417458547007574152e-03,3.245282079134031734e-03,3.892966655465752730e-03,4.575077650301980978e-03,4.793947268496107951e-03,4.891661088903227934e-03,4.688590903720718343e-03,4.888905523376534633e-03,4.898023988396274161e-03,5.010521108489269203e-03,5.144425394948881104e-03,5.892024476132183206e-03,6.421929077021062970e-03,6.648888698246321373e-03,6.833225087021015456e-03,6.749078125142939782e-03,6.611878322276637521e-03,6.453050718917484677e-03,6.159741869576968419e-03,5.886852677203082383e-03,5.810379457436293769e-03,5.554672855825530317e-03,5.359705362514479571e-03,5.341979065071095385e-03,5.353768237056674706e-03,5.315699684174230409e-03,5.097165623040177465e-03,5.116287800738774511e-03,4.879916046446390772e-03,4.425317426088094287e-03,4.430243979631320016e-03,4.471202691265415211e-03,4.399977582495305690e-03,3.963914642480002165e-03,3.786052958612165162e-03,3.256975583339141809e-03,2.195688294710522372e-03,1.836202197021303238e-03,1.673312060606866897e-03,1.816646272722161363e-03,2.580352113272219462e-03,3.045815836843846283e-03,3.345625536623558598e-03,3.910184758509358330e-03,3.984367277609368596e-03,4.092877958811167588e-03,4.224696555910276152e-03,4.548019403117819007e-03,4.604955905389357222e-03,4.614242536856340803e-03,4.182865205924386071e-03,3.870663184257041364e-03,3.726584214347641866e-03,3.603527140054824975e-03,3.222962387545894904e-03,2.875450728517312329e-03,2.914751321928598943e-03,2.783228089065859293e-03,2.726512259550273581e-03,2.704361648858381265e-03,2.564470977651884046e-03,2.342169258098710221e-03,1.859003141912802604e-03,1.338800126414868607e-03,6.306673263696177577e-04,6.762249682460424072e-05,-3.093292610997010021e-04,-5.888354084493882534e-04,-6.480250950447837737e-04,-4.296391369565111793e-04,-4.100182772477890206e-04,-4.222528551172556729e-04,-7.251182610773656374e-04,-8.398923573055013360e-04,-9.582808167807115810e-04,-9.536744757021051525e-04,-9.605296356094395437e-04,-8.391207252944497732e-04,-7.229309531925836663e-04,-6.472468694814041690e-04,-5.451889728017608565e-04,-5.000452046954118393e-04,-4.674988127970060802e-04,-4.342332614530426617e-04,-3.668667702063312564e-04,-3.004966075175370677e-04,-2.260236452054340569e-04,-1.729851625796326837e-04,-1.244643227131901478e-04,-9.681355024044932382e-05,-8.578788198170367817e-05,-8.156574728643044487e-05,-8.240548623399300489e-05,-9.125252881397120908e-05,-9.787907448959690701e-05,-1.181740534446040184e-04,-1.217308973790255417e-04,-1.476112347298591055e-04,-1.554806240153176311e-04,-1.677685561050481567e-04,-1.846482184725652999e-04,-1.862992558092061064e-04,-2.023452706909759969e-04,-2.177217802506142385e-04,-2.324050045766037529e-04,-2.442483766848626875e-04,-2.607984269973111723e-04,-2.793648834312028022e-04,-3.022161345514216076e-04,-3.273464135940028566e-04,-3.431408371867694239e-04,-3.494618449251547646e-04,-3.646513555024893873e-04,-3.758139026015044578e-04,-3.763206111644865071e-04,-3.808117705876076092e-04,-3.819414293527859713e-04,-3.803759969531159439e-04,-3.752897566355894738e-04,-3.865325421693575642e-04,-3.911372215357319308e-04,-4.002494420121237165e-04,-4.198879885001163153e-04,-4.389943957867246884e-04,-4.468429358427034905e-04,-4.758201561876916402e-04,-5.074788290561942561e-04,-5.405847362624989797e-04,-5.824946300712272040e-04,-5.994407827772195831e-04,-6.613831843818627305e-04,-7.432158776138239305e-04,-8.618650282155609259e-04,-1.005397688012159285e-03,-1.150012488280946011e-03,-1.323785112401129269e-03,-1.495610986888982943e-03,-1.607864714728123338e-03,-1.615845554147319696e-03,-1.582454853532501470e-03,-1.491418195851354662e-03,-1.280074631884676930e-03,-1.095215130088308692e-03,-8.589990557783745879e-04,-6.331234672279849015e-04,-4.445068009342822784e-04,-2.820982699890581778e-04,-1.597414076706793061e-04,-7.669071957682333787e-05,-2.557009620662876122e-05,1.456749264187265713e-05,4.199543745127653750e-05,5.896681356556821013e-05,7.242198405722417886e-05,8.320523808086146308e-05,8.693331739665686553e-05,8.769795924935733895e-05,7.236692330914633396e-05,7.349699050866494567e-05,6.556352447161350040e-05,6.033693923141393616e-05,7.051521360307778290e-05,2.912675940537196560e-05,1.199705844377897809e-05,-1.202425567052083520e-05,-5.115169787594995275e-05,-1.182570881109807948e-04,-2.127439597696256378e-04,-3.458672913060501647e-04,-5.463131400944184731e-04,-7.625836547772539553e-04,-9.452894255410701366e-04,-1.172284111035524524e-03,-1.396541542496405929e-03,-1.397093863910303397e-03,-1.716787931581737533e-03,-1.488573612452810668e-03,-1.289166943730553350e-03,-1.172047664306729480e-03,-9.900302219403242249e-04,-8.812441170005429290e-04,-7.754348109677561404e-04,-7.034252629607836088e-04,-6.424954815450864467e-04,-6.086653915223860052e-04,-5.766899811825160075e-04,-5.504748404659598644e-04,-5.334189587181081783e-04,-5.086058611358176829e-04,-4.773074381692425368e-04,-4.612078627623746627e-04,-4.534185875230139920e-04,-4.363930383110141724e-04,-4.260175920988815861e-04,-4.140103988558044247e-04,-4.113666076652413997e-04,-4.109915885024230994e-04,-4.160683960600076135e-04,-4.234769641741665007e-04,-4.193540833508931196e-04,-4.244572470412064937e-04,-4.347774334348436954e-04,-4.442516425688586897e-04,-4.456550276513166083e-04,-4.404825634704732581e-04,-4.395167487945593823e-04,-4.454890133998080405e-04,-4.586075221898884796e-04,-4.643161337560385710e-04,-4.510607439214854835e-04,-4.450352928943621220e-04,-4.426254429944252527e-04,-4.569696436192615058e-04,-4.842581084406620464e-04,-5.070475003869339813e-04,-5.250579890224427171e-04,-5.498436447522367897e-04,-5.822076856964059641e-04,-6.029226709072327490e-04,-6.505049727632240212e-04,-7.213583480103728665e-04,-8.085616934697250702e-04,-9.247145645228454450e-04,-1.065367309745830120e-03,-1.237474594702790611e-03,-1.391538123082678921e-03,-1.527177658732312192e-03,-1.679123295821928616e-03,-1.828725056896161839e-03,-1.925571210224158447e-03,-1.901487757386959238e-03,-1.944163844950350844e-03,-1.984887936242762854e-03,-1.979697945394944935e-03,-2.000993780893822651e-03,-1.956211082559330267e-03,-1.967001063244554898e-03,-1.999446381317511196e-03,-2.028221611462399567e-03,-2.075951580935493646e-03,-2.149817646553219865e-03,-2.177443909872237276e-03,-2.185822600277213812e-03,-2.123838694424650883e-03,-2.124566747569587438e-03,-2.120432538864440268e-03,-2.078610851103682589e-03,-2.149038034803742170e-03,-2.193866750738301431e-03,-2.124670100757998243e-03,-2.083147526833112329e-03,-2.088313335222000827e-03,-1.984828279830272348e-03,-1.867161349482290974e-03,-1.740598231633883834e-03,-1.575792869897031916e-03,-1.426062051615398880e-03,-1.325202939285721618e-03,-1.100033301457377117e-03,-9.394540894651315322e-04,-8.315114800757950368e-04,-6.993388591496220831e-04,-5.960496137092773788e-04,-5.164767961700407906e-04,-4.490645131427419977e-04,-3.765445388508394694e-04,-3.302813892265084230e-04,-2.925947233764142948e-04,-2.720185434742766598e-04,-2.437614114032679786e-04,-2.191168787157621214e-04,-2.026312873885106859e-04,-1.901102370545995634e-04,-1.797159343693239067e-04,-1.728152914232289913e-04,-1.663391929972896934e-04,-1.633225805835594247e-04,-1.703321272732591873e-04,-1.598699175412640876e-04,-1.705256511831173410e-04,-1.736340417393565302e-04,-1.739212186843517183e-04,-1.609776178535847284e-04,-1.443423658447455515e-04,-1.302450440072480111e-04,-1.147118995814264060e-04,-1.021564386251161297e-04,-8.945202442981020868e-05,-7.841767513084440958e-05,-6.503794327572213357e-05,-5.832386286578575708e-05,-4.534523536105132069e-05,-3.789208552851602786e-05,-2.843088601793346712e-05,-1.797283685415350626e-05,-7.746304202853064301e-06,1.529928152075041410e-06,9.559166773365868636e-06,1.817447128204579401e-05,2.614102343650959195e-05,3.343216123544748660e-05,4.150772337480984159e-05,5.118788303832722962e-05,7.110211489700359814e-05,8.062498283122918150e-05,8.779967342629333067e-05,1.005716787766037411e-04,1.097270231558719698e-04,1.116261287613176125e-04,1.039439437922609139e-04,1.018680329310277179e-04,9.865943441819304677e-05,1.085804616580407283e-04,1.146657841617484345e-04,7.696835368760040585e-05,1.699026317774530802e-05,-1.077074542923619251e-04,-2.758763917774826203e-04,-5.162212265002244765e-04,-7.475205461745331164e-04,-9.717730255052905823e-04,-1.148298495285914782e-03,-1.236132909498655237e-03,-1.307027890254332594e-03,-1.266022842490807697e-03,-1.138033109015053595e-03,-9.891642752315030120e-04,-8.625784693826785794e-04,-7.738909301160464167e-04,-7.248068711442152891e-04,-7.069893695302772443e-04,-6.899980961304429507e-04,-7.201805785581471978e-04,-7.866981667302257175e-04,-8.799125573361240302e-04,-9.917920545347413269e-04,-1.152101984703822381e-03,-1.227348732095619654e-03,-1.244187934995010349e-03,-1.227118053860854060e-03,-9.756382060020549587e-04,-7.809849776033642296e-04,-5.974945142896259231e-04,-3.812293795911215750e-04,-1.453802563301600267e-04,-1.562901071022576677e-06,8.372438246717982095e-05,9.292892626617389837e-05,8.974438158168749854e-05,1.104806186746100767e-04,9.014183411692897269e-05,6.575043005922453208e-05,-4.724223626850011836e-05,-2.284127843616665402e-04,-4.838924495656045052e-04,-7.927759598534512902e-04,-1.070811790499836234e-03,-1.295589339657326772e-03,-1.495399743507761555e-03,-1.671824466233556242e-03,-1.634787951540402637e-03,-1.538804027798878604e-03,-1.431493371838855107e-03,-1.341260652355959334e-03,-1.350708262053825848e-03,-1.391756225847461028e-03,-1.368964123493945180e-03,-1.423368071519888478e-03,-1.464942061968748602e-03,-1.470444068064119016e-03,-1.516239646208802569e-03,-1.499092284292122441e-03,-1.436647337888523899e-03,-1.417102915000643991e-03,-1.299428343286679506e-03,-1.188591522371788747e-03,-1.125203741213140962e-03,-9.767379535208964465e-04,-8.526499374925198410e-04,-7.251485431546054973e-04,-6.795523920733730506e-04,-6.194015922791173533e-04,-5.735857684289965858e-04,-5.517966296423184409e-04,-5.257594134496162237e-04,-4.948413006375072809e-04,-4.677385020298133233e-04,-4.501146217806808103e-04,-4.238898674016581972e-04,-4.045785656505396471e-04,-3.910025608270316735e-04,-3.830627784853847572e-04,-3.826838123157540314e-04,-3.981332147041257395e-04,-4.135625623045045764e-04,-4.245845518205127725e-04,-4.403646664073874984e-04,-4.667797847956520326e-04,-4.865324168976476664e-04,-5.232896489758701378e-04,-5.616171852025239304e-04,-6.324735438660709268e-04,-7.460661142236554725e-04,-9.180600979160235446e-04,-1.093032934403643294e-03,-1.205428272780206334e-03,-1.370239171983573092e-03,-1.415080932012897398e-03,-1.443593440019105096e-03,-1.260819586184174163e-03,-1.100615816273151385e-03,-8.799952284407338383e-04,-6.031947383562427222e-04,-3.724348088405975729e-04,-1.599370476414429252e-04,7.546786076395776521e-05,2.144016317287706903e-04,2.988372950007245170e-04,4.238022817137585821e-04,4.123869432362189946e-04,8.205668816931341964e-04,1.294618686209963836e-03,3.367433690220550391e-03,3.852313031287473051e-03,3.638335885748095883e-03,8.469312057107933290e-04,-3.809841361116545638e-04,-1.534350758207728496e-02,-3.653833460296771612e-02,-4.182054214459600405e-02,-4.118075906742542369e-02,-3.582942806121029028e-02,-3.137564405996791372e-02,-2.435468368991695193e-02,-1.953736039769234448e-02,-1.903878827430109319e-02,-2.142656170689456047e-02,-2.563670613527888054e-02,-2.605103631746260098e-02,-2.888404359626382811e-02,-3.352140545766599949e-02,-3.557968229747038302e-02,-3.614718121257989858e-02,-3.654615064791781609e-02,-3.652246648769591486e-02,-3.189254014826737454e-02,-2.696773092755732487e-02,-1.905472458296841171e-02,-1.197021360016949608e-02,-2.628444537422803748e-02,-4.188301977820966387e-02,-6.155592703752655465e-02,-6.266921975651500165e-02,-5.283946014572382666e-02,-3.614984623274059006e-02,-1.407620456472322493e-02,-5.595218384877054599e-03,-2.589539975231539698e-03,-3.252212925639835599e-04,3.590741270535208109e-03,6.739179480679079529e-03,8.998792709089554684e-03,7.310410285213874045e-03,5.442651478841182590e-03,3.560578910858225657e-03,3.060534368795787049e-03,4.882853562099250325e-03,6.668024618731220599e-03,7.623203674420170155e-03,5.779436382443730973e-03,4.118626711899206483e-03,3.598268604924517115e-03,3.752298238155056705e-03,4.591791184855027567e-03,4.878260651088653192e-03,5.093514458134598341e-03,4.116043081359606337e-03,3.151034756383405168e-03,2.741923408143148895e-03,1.988139073115425051e-03,1.798014890469835795e-03,2.270845747298108445e-03,2.627552173295063208e-03,3.092817298185056817e-03,3.855436762714195900e-03,3.935394684566807799e-03,4.281885830042534737e-03,4.594872959284498036e-03,4.465574688392101067e-03,4.586315371625264946e-03,5.098513318426283435e-03,5.636374985768495029e-03,5.880461535472240354e-03,5.821360772582313478e-03,5.127995072427933218e-03,4.163594798935008924e-03,3.077999194361918153e-03,2.036595386819892075e-03
6.432995194612224719e-04,8.407028145302641213e-04,9.666700870455071813e-04,1.114460973389514668e-03,1.258990646817383487e-03,1.099940349866652348e-03,8.836499277700392025e-04,6.023469522697449605e-04,3.476274179544811211e-04,9.509459703716797616e-05,-1.523177494678703452e-04,-4.373298311270949084e-04,-7.596360802249639901e-04,-1.043369069073644961e-03,-1.310187234572660975e-03,-1.597847460190742180e-03,-1.853302897687658830e-03,-1.967453587362286063e-03,-1.995432611732197124e-03,-1.856174721486683913e-03,-1.712436629125784144e-03,-1.518010724295167655e-03,-1.320055659394531481e-03,-1.120002926003820431e-03,-9.895025850238418300e-04,-9.133773102579890524e-04,-8.548602026253437338e-04,-8.116548604632769972e-04,-7.779728254794596740e-04,-7.398805464350738902e-04,-7.215140415064426284e-04,-6.909218033945062429e-04,-6.139678629243780971e-04,-4.847726241921767459e-04,-2.903846862099116778e-04,-3.963236278828865730e-05,1.694796326911279447e-04,3.381965760886070202e-04,4.286835378485355269e-04,4.378815498097659567e-04,4.108628702552756767e-04,3.292541133234797393e-04,1.146255877973726458e-04,-1.431140897894555056e-04,-4.340613849537931974e-04,-7.850147777988058335e-04,-1.049342611564169732e-03,-1.220013819719404377e-03,-1.305558834372496507e-03,-1.301228393955387820e-03,-1.240388517492114302e-03,-1.154301426320925548e-03,-9.922495677576728592e-04,-8.265400569897345031e-04,-6.750306496022319977e-04,-4.649787553393201767e-04,-2.447531213393373470e-04,-9.856106725289781091e-07,2.783625047239299028e-04,5.869389414709110615e-04,8.218673634135994490e-04,1.029460349304340498e-03,1.155016002227056676e-03,1.120714349382219638e-03,1.106868426003442376e-03,1.037421882132243730e-03,9.385102016641380098e-04,1.021734484772851038e-03,1.147506219663522791e-03,1.214097032797770929e-03,1.360287354292037502e-03,1.406692219336804980e-03,1.352858061183181103e-03,1.323604223557390408e-03,1.305540090668299473e-03,1.283855562177079607e-03,1.307756141307883126e-03,1.287571668607017349e-03,1.225818107677839565e-03,1.246472313545546502e-03,1.241887389806163589e-03,1.267960965284713323e-03,1.345192059296408541e-03,1.360451738351854852e-03,1.364523312948588132e-03,1.351430828020431987e-03,1.310036172908545220e-03,1.279859880937692096e-03,1.252204376874985897e-03,1.202440970358485336e-03,1.169012636189892523e-03,1.140446697984881085e-03,1.142398355856060312e-03,1.125904849398918876e-03,1.096594410060382782e-03,1.070486096443009228e-03,1.035649442115514586e-03,1.008544384084258212e-03,9.913747831317857098e-04,9.960798406037643053e-04,1.009149573437438793e-03,1.031606847177399212e-03,1.063558902801985985e-03,1.103732271729622374e-03,1.121126818758490327e-03,1.158723554469375970e-03,1.190781506000928571e-03,1.212446661283347795e-03,1.241740884908445423e-03,1.270076547793341911e-03,1.299247128546965292e-03,1.317080694015615797e-03,1.347598586162469672e-03,1.375405231601772166e-03,1.377424829819019411e-03,1.383586813526671176e-03,1.396954043459909230e-03,1.399868400588771215e-03,1.393786924514514797e-03,1.381458731982300415e-03,1.393886656855365018e-03,1.389527660799811781e-03,1.368395814429779591e-03,1.356056509062931363e-03,1.351227271519614501e-03,1.347589269012576920e-03,1.330532976401156047e-03,1.325917857789082627e-03,1.324404701606168942e-03,1.304695504165214164e-03,1.297191788017833984e-03,1.304646229731166833e-03,1.304183205799374278e-03,1.309006546872835356e-03,1.303460122118613174e-03,1.321890135574558785e-03,1.315530109027522772e-03,1.298779484212379733e-03,1.296285611600521415e-03,1.296477289287449337e-03,1.275056878629293559e-03,1.217737541764908962e-03,1.218366391000571137e-03,1.181656947477913080e-03,1.104640665167641719e-03,1.041661996289514579e-03,9.562315198279004377e-04,8.692213180923131144e-04,7.244323244406286654e-04,5.881335934013426185e-04,4.783554119173540910e-04,3.423704692483715405e-04,2.401876008710072160e-04,1.635224821666520748e-04,1.059545484039655045e-04,6.162765097458062136e-05,3.510441705806755972e-05,2.400465123336722301e-05,2.008777675041737625e-05,2.666914313087736407e-05,3.372004405473935114e-05,5.781604985572961488e-05,1.019237217898001223e-04,1.283668917970568933e-04,1.764001878706020557e-04,2.284636611033196959e-04,2.994107666564157686e-04,3.872247970442627618e-04,4.804072131222713736e-04,5.290666325255716533e-04,5.829048963511033413e-04,6.589251908151796131e-04,7.383859437948451588e-04,8.458041569921901032e-04,9.095238720760889404e-04,9.436017032235244090e-04,9.797622270197904604e-04,1.034239826233387212e-03,1.093527587809778020e-03,1.092329809661154050e-03,1.125416987496919265e-03,1.149423805194294814e-03,1.149371177537505690e-03,1.175919536610533448e-03,1.172068832285957452e-03,1.185477698414795717e-03,1.175178417636949359e-03,1.168426452592818228e-03,1.166464678772886942e-03,1.170158046658182228e-03,1.165657361422945890e-03,1.188925975949789698e-03,1.166678103391110112e-03,1.163027063295009062e-03,1.150143881336487036e-03,1.145973856370566257e-03,1.117316309309341954e-03,1.131459793202073492e-03,1.030743812509852565e-03,9.937128669643391886e-04,1.073682647888615652e-03,1.029565628133412552e-03,1.007000575092429056e-03,9.819130186004235584e-04,9.755952410465542441e-04,9.558743354449440689e-04,9.316997603794142978e-04,8.483230358619978356e-04,8.279127142447842858e-04,7.762696628708554321e-04,7.074673635754649085e-04,6.737843726447483635e-04,6.502133278586968599e-04,6.280240760397695632e-04,5.701975277958275939e-04,5.425124362645269852e-04,5.258297230299364966e-04,4.981120542413911001e-04,4.764087585211794571e-04,4.561958736119527493e-04,4.258996966797285919e-04,4.008183930436490564e-04,3.709610482116894163e-04,3.412154983943557524e-04,3.151568613440731362e-04,2.742392599521299864e-04,2.643282799081134323e-04,2.493789702752024378e-04,2.304661479704263566e-04,2.141527931880203703e-04,2.089497398532128144e-04,2.103061206363628533e-04,2.094596449025030646e-04,2.056237703808781151e-04,2.205144846972043255e-04,2.154501386769176654e-04,2.093163880961322436e-04,2.234259067027592836e-04,2.362300912626669723e-04,2.471115757340474586e-04,2.562193986270300066e-04,2.627222185345252296e-04,2.626243966076502977e-04,2.595973348254346593e-04,2.614720255490265511e-04,2.657120758675551105e-04,2.781418903059079684e-04,2.850668469705047964e-04,2.835584076222428694e-04,2.935209878094230396e-04,2.845759853717533955e-04,2.917114814494551722e-04,2.932376854538501043e-04,2.981046841935256105e-04,3.018968012417895075e-04,2.975305337094924052e-04,3.036414857898318657e-04,3.051892722452184833e-04,3.102461089347984891e-04,3.257195877502660759e-04,3.190551305366238826e-04,3.296305504019521782e-04,3.470497627079539133e-04,3.692930502992089470e-04,3.887839351275389557e-04,4.156032511790184059e-04,4.669576810948123258e-04,4.720183432978105817e-04,5.119077793948754920e-04,5.452008235280357204e-04,5.555450942827938740e-04,5.802153015403535867e-04,6.046199197553099244e-04,6.133114018407316527e-04,6.382851957769084027e-04,6.326795779506566575e-04,6.498648170410311828e-04,6.591241927957760616e-04,6.663194278732085044e-04,6.644492671403815463e-04,6.523924483527351577e-04,6.453291766230761237e-04,6.330778377564351975e-04,6.131042926942517060e-04,5.810978964055097534e-04,5.550915194906624710e-04,5.234304766845434762e-04,4.620107834910542103e-04,3.815604284548107191e-04,3.477099712000764433e-04,2.928076812576217301e-04,2.236532934312798792e-04,1.856046566882955592e-04,1.401196228220298622e-04,1.197303330053344828e-04,9.385971037622543758e-05,8.157204994301260018e-05,8.570161265533284944e-05,8.747037940018114062e-05,1.018937640660506314e-04,1.256519343295621309e-04,1.504657235267540161e-04,1.936001609403495242e-04,2.431947273509998942e-04,2.830582115935172702e-04,3.532919999178138482e-04,4.281434043730404475e-04,4.789991616109798333e-04,5.339967524491008718e-04,6.095430414492089078e-04,7.094798127466052070e-04,7.643616913624181296e-04,8.302258936196955756e-04,9.342823607140532827e-04,9.804865372669497106e-04,1.041109078337664395e-03,1.083147383177439013e-03,1.110919046548039871e-03,1.152595986453020796e-03,1.163348725141322886e-03,1.172604350857312438e-03,1.175433133411585415e-03,1.185659421949117288e-03,1.193594498839368329e-03,1.186704263931030257e-03,1.157194326458781944e-03,1.138925957989557957e-03,1.065678114153716235e-03,9.279927168465902133e-04,8.180148747495622191e-04,7.038819185353375855e-04,5.826530168288868421e-04,4.143170271317841622e-04,3.163015989156683677e-04,2.371955545913183392e-04,1.399140024945414547e-04,1.218776880663799536e-04,1.380167877080523784e-04,1.727600928903317581e-04,2.713716632750841221e-04,3.877792104585974235e-04,4.750015590662796678e-04,6.410541101225695430e-04,8.025429491526838051e-04,9.029410344624633602e-04,9.951145874880803870e-04,1.109960224816434896e-03,1.196910474256627057e-03,1.180723775607904567e-03,1.218554064832128329e-03,1.255313960948429208e-03,1.227450050761996325e-03,1.216922564224529350e-03,1.205948984018873201e-03,1.140533182625259098e-03,1.113501610600508337e-03,1.061003402611208728e-03,9.522491518920842609e-04,8.749488214204190553e-04,7.791011215736602441e-04,7.147876331016481859e-04,5.973060604258663810e-04,4.947116352534357926e-04,4.452373412757606010e-04,3.511663236837423308e-04,2.954010567750893902e-04,2.676278078767924725e-04,2.470358339574516482e-04,2.451271387325614491e-04,2.619697976393523800e-04,2.856859283924916676e-04,3.407267618667104156e-04,4.756446104477735494e-04,5.906045254474828320e-04,7.094221095628837478e-04,8.204830736926184117e-04,9.715132643014443578e-04,1.064848467092254381e-03,1.139131207234435166e-03,1.251331636778130717e-03,1.276555080094574166e-03,1.307511395289878654e-03,1.308692045902421592e-03,1.337688594151401544e-03,1.361019649784036244e-03,1.372741703470704237e-03,1.360703705177010100e-03,1.324679235514119539e-03,1.286118079631371532e-03,1.239369990008591313e-03,1.164580714060667712e-03,9.944907403693326823e-04,9.298898655214294165e-04,8.305423395256153907e-04,7.315449684751916320e-04,6.868824382737811866e-04,6.428113436075553544e-04,6.071135748664737049e-04,5.853222781935073921e-04,5.778468824300013809e-04,5.558880839201318447e-04,5.308290036601526077e-04,5.148433028258828223e-04,4.722258810302824741e-04,4.461619701775235364e-04,3.899804608053116634e-04,3.410186850354096437e-04,3.238464111432326075e-04,2.790181275749833100e-04,2.572741688948901426e-04,2.506442679404480484e-04,2.255972321940800593e-04,2.022109254601719606e-04,1.839175734794449700e-04,1.736470376740337869e-04,1.589056608497635946e-04,1.291430317728181208e-04,1.142505658471737354e-04,1.010212746285416897e-04,8.804125926246928759e-05,6.809530296101096495e-05,5.284975905618611241e-05,5.163032706063984070e-05,4.971669080068269166e-05,6.885955476610374133e-05,1.018445093613262390e-04,9.120259147349107389e-05,1.437596878884178620e-04,3.521292674156320263e-04,3.494263111060991189e-04,2.802053493002066567e-04,9.556470067941378707e-06,-1.211437245411009110e-03,-4.161088320802312952e-03,-6.563989588753962358e-03,-7.810500239830484200e-03,-7.656759400228100622e-03,-7.164400321687044645e-03,-5.720167105501546695e-03,-4.938539879396929878e-03,-4.590851793792944530e-03,-4.760682534883653449e-03,-5.672349877285681741e-03,-6.245583702532820844e-03,-6.579228687527684423e-03,-7.190093504564958223e-03,-7.445282397002157826e-03,-7.582305355672534081e-03,-7.390100066520695343e-03,-6.394833714666764077e-03,-5.276884271055957108e-03,-3.681974670956163209e-03,-2.638040092936537722e-03,-4.609126789907792669e-03,-7.474528457742112691e-03,-9.963181024319750848e-03,-1.100936988130663159e-02,-9.688513160242585853e-03,-7.638883749303266961e-03,-4.986802951387594822e-03,-1.100435065990506547e-03,-1.346982079144991924e-04,-7.206933210891952504e-05,2.506124947080367346e-04,5.861573782981891259e-04,7.115820619261552758e-04,8.279692612910611758e-04,7.969991026055163724e-04,6.179953846679137140e-04,4.986429354502997825e-04,3.655849212007724171e-04,3.432415104581216158e-04,3.163529317510057194e-04,5.436493002715345234e-04,8.329746181403218036e-04,8.672590883780414289e-04,9.062354284679823664e-04,8.005920370787050506e-04,8.454998752657190506e-04,1.104966137101781078e-03,1.257869544442398284e-03,1.320017688876444105e-03,1.378107854364471691e-03,1.446966413413075091e-03,1.467205083095171657e-03,1.467665246163609187e-03,1.372165732888077326e-03,1.267210725939499003e-03,1.174678374634886661e-03,1.220289875503904669e-03,1.313132808549896365e-03,1.371415257370400993e-03,1.444158541446066008e-03,1.540140303158569817e-03,1.666043446367167702e-03,1.658899736788089010e-03,1.630428285312771628e-03,1.228674540369265305e-03,9.987801277174474055e-04,6.851520475623895353e-04
1.149470928925017241e-04,4.444781609948753043e-04,7.992040959589227474e-04,1.243282617819798210e-03,1.772864705682124144e-03,2.275665501217707595e-03,2.317238091819637073e-03,2.693309301010947572e-03,2.672961699461366171e-03,2.477530624271994698e-03,2.321046087160681236e-03,2.354022127351631296e-03,2.718053807937652767e-03,2.652739923564669065e-03,2.470399765926122732e-03,2.640896681915891157e-03,2.702760055754248238e-03,2.756568311810710104e-03,2.928430729476344443e-03,3.021698370205776370e-03,3.124912308987719180e-03,3.187229794454032698e-03,3.146711976714048568e-03,3.160424525504856429e-03,3.205195454590200211e-03,3.172548132163103239e-03,3.258075852901385402e-03,3.312415604455135228e-03,3.307118887071011648e-03,3.267872788615468725e-03,3.155535438338040889e-03,2.854559712207844786e-03,2.526188849256458951e-03,2.259726697513613804e-03,1.937784180025358674e-03,2.040697793950448525e-03,2.341601176515191365e-03,2.240816587895844061e-03,2.190725837617107756e-03,1.882622678347871392e-03,1.519393065629810790e-03,5.274125701501964757e-04,5.307980157921645282e-05,2.693633060826961312e-05,1.677045701050190122e-04,7.694625327272816128e-04,1.188137946758626275e-03,1.529743436512886025e-03,1.626447372869932462e-03,1.908058732178760566e-03,1.894010680154778643e-03,1.996039425672532178e-03,2.059785335843961323e-03,1.854268976063979920e-03,1.663937999747393910e-03,1.716539654121167387e-03,1.654398362325120494e-03,1.655553287782027521e-03,1.952694567374063141e-03,1.844319469863983305e-03,1.570495045511732714e-03,1.586896054821512313e-03,1.469297002924721063e-03,1.397171471506221873e-03,1.396723704700759657e-03,1.419060227330652766e-03,1.491701059457357882e-03,1.532201860942381151e-03,1.519787592939040623e-03,1.464882707928673615e-03,1.344993518733385296e-03,9.652237276830207989e-04,4.731766835505740103e-04,8.082526344039586729e-05,-4.347198007371897398e-04,-7.837831886205029247e-04,-1.031645702718831780e-03,-1.156965303671067709e-03,-1.230543730146764839e-03,-1.207834971273805168e-03,-1.231137773742636138e-03,-1.232448236202011212e-03,-1.171152123702390952e-03,-1.140687880721042140e-03,-1.108025706794703606e-03,-1.070537038618959904e-03,-1.088766106048869465e-03,-1.205827840038316496e-03,-1.300610531148430581e-03,-1.494853100996621853e-03,-1.678314731193665922e-03,-1.743723934946576730e-03,-1.806182779735308799e-03,-1.801984700399399250e-03,-1.777064648552971167e-03,-1.703840870079207336e-03,-1.624754499279601559e-03,-1.553683352702992177e-03,-1.469853198165366193e-03,-1.424142472146876486e-03,-1.401060101301470446e-03,-1.398978504628684482e-03,-1.422946698818762859e-03,-1.459787511953637186e-03,-1.495877548658594959e-03,-1.532496674613080187e-03,-1.567471309886455224e-03,-1.576925283195352223e-03,-1.575535095704497582e-03,-1.552114481903236988e-03,-1.507061289295483913e-03,-1.467067566032096261e-03,-1.432635618009170777e-03,-1.402096427107662416e-03,-1.364563985226526074e-03,-1.370447243111670450e-03,-1.385119305894701690e-03,-1.405572909203385438e-03,-1.439060036503415777e-03,-1.476159458972237278e-03,-1.514856458978584494e-03,-1.551996420072697912e-03,-1.595462434026293170e-03,-1.611791568004658937e-03,-1.622168824474063027e-03,-1.662677334271495241e-03,-1.675412395419831032e-03,-1.659112743452911560e-03,-1.686315815662503765e-03,-1.690452251206203465e-03,-1.667362824693902068e-03,-1.664128796976228029e-03,-1.673072289788409038e-03,-1.683165018446046695e-03,-1.686517299918895282e-03,-1.694438495946918016e-03,-1.699949114133534733e-03,-1.712801506620204245e-03,-1.698440015703219386e-03,-1.684741781406287782e-03,-1.716832682384331499e-03,-1.690489065100000141e-03,-1.687461834323417120e-03,-1.703044986863097229e-03,-1.704150520786523694e-03,-1.770064042544047074e-03,-1.768848091167529854e-03,-1.750971660098874037e-03,-1.768796687343766102e-03,-1.747898445989495234e-03,-1.769428311470712693e-03,-1.773427515145181450e-03,-1.771905181377326621e-03,-1.825808636596605670e-03,-1.840048903183993468e-03,-1.845555860235108866e-03,-1.873084673454707486e-03,-1.901942099120825696e-03,-1.922201754802270717e-03,-1.915449882073598682e-03,-1.937664714077762165e-03,-1.988174011832504699e-03,-2.052347018773686103e-03,-2.096815168375953074e-03,-2.151179582825697885e-03,-2.286110616358459548e-03,-2.365519406016062740e-03,-2.530104973320402174e-03,-2.609282850850267507e-03,-2.598671736157284751e-03,-2.622296026099165886e-03,-2.547735054604095307e-03,-2.385283961173752763e-03,-2.238052125650748410e-03,-2.073101258206466995e-03,-1.821537880416091619e-03,-1.632213893378728397e-03,-1.368333572171272390e-03,-1.150243235012679685e-03,-9.748662313793223996e-04,-7.900253758510641109e-04,-6.313555048536092238e-04,-5.301805261614994571e-04,-4.456300531147488466e-04,-3.732966250674430212e-04,-3.242060953575712375e-04,-2.581243029505325367e-04,-1.943155681370201484e-04,-1.523398022818632644e-04,-1.060270517528647633e-04,-5.873966043890279320e-05,-1.361050628189469865e-05,2.807323356696249709e-05,5.976954482853894299e-05,8.004915434905920122e-05,9.846352215827291424e-05,1.111852522842921443e-04,1.236526736099389069e-04,1.279031352885939517e-04,1.276246042483840588e-04,1.289987504599635819e-04,1.262740762679260068e-04,1.249914382611847180e-04,1.122319256439570492e-04,1.026543319335464417e-04,9.836292821960909011e-05,7.610838402808083037e-05,5.579038964853424916e-05,3.743398677273107762e-05,1.432146469366291567e-05,-7.373805259148183483e-06,-3.015632880794214077e-05,-5.301705044416870987e-05,-7.790213674314401667e-05,-1.038196038957552101e-04,-1.276565425556912368e-04,-1.635323874270075547e-04,-2.025755515694062825e-04,-2.326784107052072266e-04,-2.674153807628004264e-04,-3.019523464129194798e-04,-3.294530055602369004e-04,-3.485905458708738608e-04,-3.684846881472271128e-04,-4.010196729938631291e-04,-4.237197348485003279e-04,-4.369805380967941265e-04,-4.834117647436278497e-04,-5.048799414145909922e-04,-5.331825127221489092e-04,-5.590702350017484742e-04,-5.910581937522670429e-04,-6.443406447102595445e-04,-6.484200992358512281e-04,-6.421786148560128683e-04,-6.415337946895459517e-04,-6.335991129345559022e-04,-6.160528151013816437e-04,-5.804836443244324774e-04,-5.539426193921475738e-04,-5.218140171951938383e-04,-4.858140671185368509e-04,-4.528246810948414417e-04,-4.153496860218968117e-04,-3.836623185415861752e-04,-3.579519542964442369e-04,-3.232868261523370195e-04,-2.932754433806229744e-04,-2.680891169912383125e-04,-2.305290141000017529e-04,-2.129979947576014939e-04,-1.948506434568116432e-04,-1.617840219603614753e-04,-1.490322867524482623e-04,-1.385610714142825723e-04,-1.240774037465840424e-04,-1.172757361223080656e-04,-1.145885909500852612e-04,-1.147283221568359878e-04,-1.129599029255164193e-04,-1.146432489434732913e-04,-1.169025440144361465e-04,-1.145213941822902803e-04,-1.053769568967760520e-04,-9.629299333661691935e-05,-8.604357699936987633e-05,-6.930939967002149418e-05,-5.154007744756880272e-05,-3.607897512725356413e-05,-2.275894675366140101e-05,-9.322315912621296762e-06,3.954075735546101346e-06,1.520929842493614633e-05,2.398876365984211017e-05,3.651664168921179069e-05,4.794868555281093982e-05,5.255118459041821266e-05,5.903043530081006883e-05,7.026608701938645552e-05,7.648480644192927553e-05,7.886723324324691666e-05,8.657818597002709434e-05,9.750165919111991630e-05,9.694389170161972545e-05,1.003628366998146290e-04,1.153473678564853361e-04,1.180948557306728703e-04,1.352467337892265917e-04,1.464324287220424557e-04,1.286616700421014674e-04,1.359051362984239572e-04,1.403852016228422878e-04,1.405222221213229291e-04,1.474186320713799807e-04,1.529692265180918054e-04,1.509768005301676127e-04,1.557173770378119553e-04,1.510887015824143303e-04,1.561526657170746516e-04,1.583781417522424654e-04,1.403789052045996215e-04,1.352884950087542926e-04,1.310035460423373285e-04,1.285420451802893771e-04,1.248804175270337637e-04,1.157169213718299208e-04,1.053899747978068630e-04,8.722976650814773995e-05,7.061791973658710720e-05,5.949944082108884070e-05,4.420723845637972209e-05,3.021332908190202485e-05,1.523903626978453153e-05,4.150122010494841187e-06,-5.107236002258172189e-06,-1.177390553597321746e-05,-1.516427984979158350e-05,-1.811540143521626068e-05,-1.844989159421522509e-05,-2.184071716276779487e-05,-2.834407295696934193e-05,-2.755072894519905167e-05,-3.530456080218915074e-05,-4.684112316627072855e-05,-6.399169672160151827e-05,-9.175214659339822598e-05,-1.332678087969017767e-04,-1.964317753773944829e-04,-3.209222860830894704e-04,-5.027248200084969429e-04,-7.136223601492113627e-04,-9.450311540398429865e-04,-1.268218326165228933e-03,-1.442765804994384886e-03,-1.896253747063736264e-03,-2.356344798835749085e-03,-2.143355715012875730e-03,-2.287872953051646105e-03,-2.257569641418984835e-03,-2.218001494572773187e-03,-2.109051309903136381e-03,-2.025004564859055750e-03,-1.926102114418498396e-03,-1.922835963104759915e-03,-1.903565830624549034e-03,-1.890435003577502866e-03,-1.898679327429878688e-03,-1.851239023063344603e-03,-1.837885555534367029e-03,-1.872936493614961581e-03,-1.900358518788444707e-03,-1.882223551729025890e-03,-1.882538258848574526e-03,-1.850541653019025824e-03,-1.794977513695549757e-03,-1.789946606896506733e-03,-1.767850883784444129e-03,-1.742381850151196281e-03,-1.751370068191551721e-03,-1.749339178778210047e-03,-1.774413235297383649e-03,-1.821280448851023614e-03,-1.824830584822836150e-03,-1.867898943860347950e-03,-1.892587691868794072e-03,-1.885602291366806878e-03,-1.897406381747488791e-03,-1.857272332690365147e-03,-1.883693179358445933e-03,-1.907427047495466061e-03,-1.909357633691963251e-03,-1.899023284718260370e-03,-1.794408438423685101e-03,-1.807909453934172057e-03,-1.871279212974204459e-03,-1.860745013031644577e-03,-1.878919061943546374e-03,-1.891920156193775421e-03,-1.862304428353876414e-03,-1.890785170523944002e-03,-1.911734487846579542e-03,-1.882515238896977691e-03,-1.868936213443763393e-03,-1.837770107561154716e-03,-1.810691504961558802e-03,-1.771880606015777257e-03,-1.742031127266199320e-03,-1.742211805839493461e-03,-1.725624844844839958e-03,-1.730662644522168274e-03,-1.710062211173615093e-03,-1.683594167061422051e-03,-1.667598113231474281e-03,-1.695714343982872860e-03,-1.696047185611717625e-03,-1.689731618889015645e-03,-1.713745942237912719e-03,-1.698187421312043069e-03,-1.727441849526261102e-03,-1.775647609650096454e-03,-1.788721051044114959e-03,-1.801847941696556538e-03,-1.801597117596143811e-03,-1.744219439699458678e-03,-1.640401988662721451e-03,-1.521185257823789213e-03,-1.397823518921684346e-03,-1.372788564301280620e-03,-1.423012223071256971e-03,-1.523900770246590592e-03,-1.418049461754541723e-03,-5.130335354010628728e-04,7.269065793073477885e-04,1.712405103131541895e-03,3.110729126712449139e-03,4.001427599226141038e-03,4.282957248946742991e-03,1.611367223917460146e-03,1.561636484154962576e-03,7.405512661742103767e-04,-8.728062189459796782e-03,-1.694280282176519395e-02,-1.842631531532598621e-02,-1.683536310756052895e-02,-1.215760132598779977e-02,-8.579329957949745691e-03,-7.408927805505422827e-03,-8.479929283886373376e-03,-1.084023810409527264e-02,-1.222496437893638363e-02,-1.446782372571848649e-02,-1.778200483188807982e-02,-2.064744451995908017e-02,-2.327561590681458126e-02,-2.688920911405483921e-02,-2.908004322579552103e-02,-3.077796149985602761e-02,-3.211877391924936737e-02,-2.966053327511293525e-02,-2.195347260719663837e-02,-1.585389617186560088e-02,-1.296608851412485441e-02,-1.681931566420169846e-02,-3.508087956439334687e-02,-5.098452491661111668e-02,-5.288958752115811152e-02,-4.137871957647736715e-02,-2.556977166986169892e-02,-1.509265634921078819e-02,-7.459348715811114569e-03,-3.487018266532206610e-03,-1.010722032657850305e-03,9.161214648671110522e-04,1.125294067731831419e-03,1.018883337660608616e-03,9.358817261495941831e-04,6.271953240834062578e-04,4.376430828216260603e-04,1.476487907008753057e-04,5.603620271313577744e-05,4.318602026605347996e-05,1.643741634726053613e-04,4.387195835144040712e-04,5.637828699534648200e-04,6.839313015118772413e-04,8.343898515376267037e-04,1.233459204573124617e-03,1.415209582034857765e-03,1.439307671286866068e-03,1.088104432624440289e-03,8.748776081294653293e-04,6.936953019317196757e-04,5.488146900419015560e-04,1.706443825913062529e-04,-1.447717382982024407e-04,-3.539012158837723373e-04,-5.301078726626650426e-04,-6.326404030648180273e-04,-6.467235043920914429e-04,-6.276644174354114323e-04,-5.205396091040939699e-04,-3.726807030073517844e-04,-3.611092580037933257e-04,-4.076589468550908396e-04,-4.665675778527819347e-04,-3.887135830905118585e-04,-2.624681348088890088e-04,-4.753852364515939033e-05,3.892680978332251508e-04,7.332328634065144726e-04,8.523558702050311421e-04,1.251339602020771309e-03,1.768801229974856833e-03,1.967663560376774201e-03,2.132457186568491921e-03,2.009332353801425181e-03,2.058043614720000448e-03,1.627120529375182274e-03,1.247859084550821240e-03,5.629052394309769355e-04
-2.062704016121371005e-03,-2.194440669654518228e-03,-2.185842252705834463e-03,-2.320753599347287130e-03,-2.355258473242257278e-03,-1.686512702520250560e-03,-1.186783562513675028e-03,-4.077186103245714825e-04,1.918818848797507464e-04,5.798816146831533083e-04,1.502889609854162053e-03,2.384043313297177450e-03,2.889727631747523572e-03,3.174344592276187680e-03,3.485768845616128968e-03,3.894065761275716884e-03,4.056028664575580048e-03,4.186738486411724011e-03,4.064061912780163842e-03,3.907814058858250644e-03,3.633751256834705581e-03,3.333065446749931392e-03,2.900598355401632494e-03,2.583734392109013952e-03,2.282432409370587379e-03,1.961758919675890642e-03,1.838337433740615690e-03,1.764990642002700703e-03,1.791134918844930046e-03,1.717801648581345668e-03,1.512599289936771528e-03,1.332598981547242515e-03,1.337834345032865328e-03,1.398229868440218357e-03,1.041798451620188542e-03,7.615292758621368917e-04,3.136391178242917696e-04,-1.023176249890164757e-03,-1.746651928862847205e-03,-2.117709584940920958e-03,-2.044935124357073579e-03,-2.030712570530947628e-03,-2.077811266105412166e-03,-1.878674622659057009e-03,-1.437973104043520703e-03,-8.827064035253433770e-04,-7.281747381245841843e-04,-1.373033102522753103e-04,5.011696650955335371e-04,6.139671684963926047e-04,5.560848785710303640e-04,2.957962749124333382e-04,-1.330002951037985556e-04,-4.113926417764594032e-04,-8.189282132038599657e-04,-1.466056647338728714e-03,-1.814838733581077652e-03,-2.146015325275958327e-03,-2.503087916064543859e-03,-2.735398137082008935e-03,-2.874463342834338887e-03,-2.964773967082918495e-03,-3.085588978418597229e-03,-3.096380575602917466e-03,-3.141073713700535171e-03,-3.139016321534462799e-03,-3.153368283337328569e-03,-3.300525576856336470e-03,-3.548791383829840666e-03,-3.859858041953636611e-03,-4.017700514169409223e-03,-4.239474354347004016e-03,-4.387585017091066679e-03,-4.461255438396905491e-03,-4.339449335236012992e-03,-4.377610696496356778e-03,-4.441529832922785914e-03,-4.563091217642640911e-03,-4.651235730011773345e-03,-4.646910406582506134e-03,-4.592999888288391147e-03,-4.575889501634742076e-03,-4.544863072916070432e-03,-4.345827111375670862e-03,-4.232295492665246774e-03,-4.103903189724026311e-03,-3.917453141110164780e-03,-3.779825481316482442e-03,-3.661291426996030659e-03,-3.455500234610086371e-03,-3.369862381687865286e-03,-3.366250963820691111e-03,-3.382320548274090483e-03,-3.497742379296864615e-03,-3.640974660842329156e-03,-3.777826342498619063e-03,-3.939060985535176342e-03,-4.068816893717144834e-03,-4.259771891822953030e-03,-4.389554631902312098e-03,-4.493911259600983678e-03,-4.634134171574385598e-03,-4.745729519102769196e-03,-4.845506542126276454e-03,-4.854266839212925157e-03,-4.988815180418669330e-03,-5.060985883242283614e-03,-5.109049822641286744e-03,-5.195651648308212585e-03,-5.229501743826962812e-03,-4.933248511240811290e-03,-5.105083394286259735e-03,-5.237897847124368955e-03,-5.227263880452626826e-03,-5.280670809676551829e-03,-5.233457983619763283e-03,-5.296564252855786789e-03,-5.313540448039339413e-03,-5.275863444734614147e-03,-5.209049057392435740e-03,-5.200147514754935307e-03,-5.190927702388519437e-03,-5.098342415630903457e-03,-5.064405051219626752e-03,-5.109453750474075157e-03,-4.983242031366549689e-03,-4.894718596130861847e-03,-4.895553733819756233e-03,-4.873773372725621715e-03,-4.679829005000987405e-03,-4.501013003677725548e-03,-4.562809533694625955e-03,-4.371438337255026049e-03,-4.396197099905670667e-03,-4.501639413583295203e-03,-4.483655963005554225e-03,-4.611502775456684938e-03,-4.485619983243757831e-03,-4.484736092665506796e-03,-4.261973417154341949e-03,-3.895345303255107802e-03,-3.678673313033439807e-03,-3.326866548246477234e-03,-3.004231145194134062e-03,-2.550700420197898975e-03,-2.234984156544234796e-03,-1.889381451880593147e-03,-1.623625778364221018e-03,-1.386076997235958065e-03,-1.139071268131129459e-03,-1.011102638902739359e-03,-8.685574923853841460e-04,-7.512926066802864955e-04,-6.509657617537707242e-04,-5.667212293782724090e-04,-4.919563857396620993e-04,-3.885824748315745052e-04,-3.459196283197687517e-04,-2.779989424249728084e-04,-2.330359645062608906e-04,-2.032456027342820909e-04,-1.741477942866345230e-04,-2.217605905471115827e-04,-1.393591866087501589e-04,-1.208187648207739408e-04,-1.464457392418377587e-04,-1.368222489403889857e-04,-1.543729780171188210e-04,-1.682968067350266983e-04,-2.048947484051191347e-04,-2.624032428285372545e-04,-2.964006746022446659e-04,-3.511372702136658511e-04,-4.396629022834278294e-04,-5.445136831799413796e-04,-6.643117774893680287e-04,-8.316216108599412422e-04,-1.082473417036867091e-03,-1.283810865236405339e-03,-1.554389398244877167e-03,-1.913513327899864962e-03,-2.357633518266057712e-03,-2.768781094411192512e-03,-3.155396366687024910e-03,-3.596533687848083895e-03,-3.781350925365273719e-03,-4.075630769107775088e-03,-4.284259388156573187e-03,-4.486467954008590935e-03,-4.731550481182351942e-03,-4.554317365307851244e-03,-4.665069118574028187e-03,-4.788159004161779593e-03,-4.683648456041139205e-03,-4.683625891906767480e-03,-4.608068478607997738e-03,-4.671431487708667049e-03,-4.645423858041373283e-03,-4.670325703294437789e-03,-4.801181198689535162e-03,-4.877993265262448898e-03,-4.837984437908199320e-03,-4.917084684617894011e-03,-4.967526918095137994e-03,-5.061747700724968622e-03,-5.040658541987774917e-03,-5.053567617253049149e-03,-5.183071941854820730e-03,-5.148334523629603289e-03,-5.179063851237598014e-03,-5.230924534927842116e-03,-5.199666573093835766e-03,-5.209548517509265952e-03,-5.278548809980201061e-03,-5.274857535185678743e-03,-5.336876115307071129e-03,-5.390971202618147565e-03,-5.369922183028180349e-03,-5.398144044561865168e-03,-5.391282243280399143e-03,-5.352698334040290572e-03,-5.250825642484380565e-03,-5.212821418847630485e-03,-5.190211453244194910e-03,-5.193061089457884361e-03,-5.200153892738599085e-03,-5.105438908518655609e-03,-5.113585393393140464e-03,-5.114944706329261313e-03,-5.102897465775492296e-03,-5.106508901883667628e-03,-5.046007391749173822e-03,-5.037009043682465041e-03,-4.951554947083307984e-03,-4.948869706480599553e-03,-4.864655064978090464e-03,-4.740812632761812195e-03,-4.643977564853238489e-03,-4.689479890008684676e-03,-4.749252205842114001e-03,-4.600169517826957835e-03,-4.507615541723878835e-03,-4.612619811411954214e-03,-4.583024071166349502e-03,-4.419488811035453268e-03,-4.458805712312227144e-03,-4.532774981729880380e-03,-4.498010377302740469e-03,-4.285333185603437678e-03,-4.029690955651681755e-03,-3.830268738878916772e-03,-3.368861050541783336e-03,-3.050487120593858414e-03,-2.618796869176811745e-03,-2.222876064921225879e-03,-1.887193226947766903e-03,-1.645856393479668998e-03,-1.452045941755903628e-03,-1.166447010620647734e-03,-9.784111200545281620e-04,-8.894529532853703412e-04,-7.840669320020373246e-04,-6.702305693498821935e-04,-5.612430705022992093e-04,-4.863920695808812461e-04,-4.351119334966383487e-04,-3.935209779989381411e-04,-3.663629632042692333e-04,-3.289016585979227130e-04,-3.090274569515961034e-04,-2.939229623915630440e-04,-2.981216957940873726e-04,-2.871730202865304814e-04,-2.896899445342901750e-04,-3.129382817431781766e-04,-3.488034723567735558e-04,-3.972717795602317818e-04,-4.294699377579868542e-04,-4.582226003059040984e-04,-4.748385469078154723e-04,-4.779419349611137486e-04,-5.033838598596003392e-04,-5.803754846558768993e-04,-6.441575518408320560e-04,-6.804155013375534720e-04,-7.747419859516324180e-04,-8.506274762013365685e-04,-8.905702908615486385e-04,-9.499448867301185694e-04,-1.004969967920396482e-03,-1.086562308581538478e-03,-1.175509014420387122e-03,-1.270620686660550985e-03,-1.355753665025611092e-03,-1.479393333980545547e-03,-1.561100600402966871e-03,-1.734436997473956304e-03,-1.679398500363201308e-03,-2.044740312443937662e-03,-2.468355716940894007e-03,-2.121447731851518019e-03,-2.336775926065570719e-03,-2.435246816029314719e-03,-2.691279743389391691e-03,-2.937662071011026225e-03,-3.126734873725077468e-03,-3.227724133923874118e-03,-3.494769207194749205e-03,-3.690413226445341238e-03,-3.949656584009143302e-03,-4.354937198060576317e-03,-4.539055254906300234e-03,-4.610929432906009373e-03,-4.682545600388243225e-03,-4.866261918078735628e-03,-4.874661671008196674e-03,-4.835572556965287046e-03,-4.777223735501788526e-03,-4.493079783949771935e-03,-4.394459893781960634e-03,-4.120200651332932111e-03,-3.752412065323007528e-03,-3.521337336218645191e-03,-3.179857885460702499e-03,-2.809510415631143957e-03,-2.329066651724165816e-03,-1.990240011346323078e-03,-1.719714226314284812e-03,-1.377770900300366108e-03,-1.093151727981253292e-03,-9.125632687984089027e-04,-7.450917103583484498e-04,-5.524342869416257098e-04,-3.946194373701635482e-04,-2.774938660805093059e-04,-1.596610320356399979e-04,-7.662735291842108693e-05,-2.281863047224359306e-05,1.198287049265824982e-05,2.582372306360875675e-05,2.213816011261056867e-05,7.077744234264404048e-06,-2.892614924232642069e-05,-1.073686443118491464e-04,-2.637122070724176289e-04,-4.908494585024689725e-04,-7.599359646047645477e-04,-1.184302925722218207e-03,-1.806630895274532501e-03,-2.251603282107273330e-03,-2.796057729660040517e-03,-3.488715932784318408e-03,-3.989903618186230010e-03,-4.255288925581629002e-03,-4.415913723314925793e-03,-4.718807593257503229e-03,-4.780499095104083149e-03,-4.843882060319419473e-03,-5.040117487913160603e-03,-5.101724755286043099e-03,-5.121160374910709717e-03,-5.162790771586932802e-03,-5.204011810904373737e-03,-5.316694416334978926e-03,-5.278524793106498594e-03,-5.297870985377412141e-03,-5.338194795756335924e-03,-5.384323983897189303e-03,-5.350847507746907608e-03,-5.278200954865289521e-03,-5.297247411628559950e-03,-5.287933078587830557e-03,-5.303485345401693501e-03,-5.195013009402409468e-03,-5.264097433514554683e-03,-5.245330068354424856e-03,-5.209853586723137489e-03,-5.192674669102977439e-03,-5.158259918243323500e-03,-5.096638704926253344e-03,-5.222486777151784908e-03,-5.112780392811360625e-03,-5.019061208546202885e-03,-5.075895866560431458e-03,-5.062196877408159726e-03,-5.252561217944905388e-03,-5.173003416102057994e-03,-5.421688779570502797e-03,-5.576868305832431011e-03,-5.208494335766636861e-03,-5.303357673430289694e-03,-5.291213683643959491e-03,-5.217395551530896146e-03,-5.198226742852161963e-03,-5.202005950269815958e-03,-4.645819498666566190e-03,-4.870793242613644450e-03,-4.970114579012440727e-03,-4.873183607346160025e-03,-4.798562802904741097e-03,-4.671258991648826603e-03,-4.617601743268491717e-03,-4.317782488214180932e-03,-4.249843154528512926e-03,-4.167146673361423088e-03,-4.094129108425890833e-03,-4.047427171472758878e-03,-4.337864704720679684e-03,-5.122608701044280635e-03,-5.953615177746405043e-03,-7.079921888985578164e-03,-5.914838794696748898e-03,-5.244906740907165181e-03,-5.317622243235625365e-03,-1.692046697485393662e-03,-2.173608068501952859e-03,-1.955019727854330307e-03,2.932622885644489783e-03,9.275571828090956733e-03,8.357843497700981339e-03,1.266663751631011067e-02,1.695413379326209460e-02,2.021186748183645410e-02,2.385012270139987706e-02,1.838404298427183392e-02,6.896433230620960253e-03,3.118264864459456640e-03,-1.418325529531979040e-03,-5.556814155812106470e-03,-9.204528686525737316e-03,-1.219925984700074954e-02,-1.608227983472182085e-02,-1.910675430372195394e-02,-2.188711292627443933e-02,-2.300621755597469925e-02,-2.366773677938047854e-02,-1.981597462784080027e-02,-1.451776456489118142e-02,-1.115483855537431450e-02,-9.517398666691025133e-03,-1.483331984383966760e-02,-2.285100383790667627e-02,-3.294082182247127372e-02,-3.392289972691276551e-02,-2.734414098314442293e-02,-1.830301546267025167e-02,-9.408025479586162865e-03,-4.928223971786304877e-03,-2.812069722619423007e-03,-1.923425593266268451e-03,-1.584448555279934683e-03,-2.072368454829835900e-03,-2.530825202480652472e-03,-2.888948773088778448e-03,-2.669995712643524147e-03,-2.837362480228381324e-03,-3.568355249323555342e-03,-3.949866057941846427e-03,-3.992101416415515421e-03,-3.898063441662621195e-03,-3.564352958182452451e-03,-3.268502620859657475e-03,-3.065322921703589418e-03,-2.762707887899592488e-03,-2.371407223291287659e-03,-1.898550090126963335e-03,-1.542702216880643398e-03,-1.718893509248344215e-03,-2.118952802174077932e-03,-2.648963495087921019e-03,-3.015353938737705755e-03,-3.329212000507992316e-03,-3.598298739321066815e-03,-3.744696460720856480e-03,-3.776135400954399798e-03,-3.852326543728427834e-03,-3.989873653239945327e-03,-4.287291857109985782e-03,-4.293985600972943448e-03,-4.319294562309181421e-03,-4.394499864365671547e-03,-4.374379345010383398e-03,-4.316508393083435743e-03,-4.174888005903491101e-03,-2.808544131289348808e-03,-2.763125368826466720e-03,-3.132788129174035249e-03,-3.029784742693462495e-03,-2.718852397497399914e-03,-2.341556206944572002e-03,-2.151327485324433606e-03,-1.845891869844377411e-03,-1.697685422333879233e-03,-1.534878240203220749e-03,-1.373800688460105656e-03,-1.330601358188264255e-03,-1.461376664146532165e-03,-1.312234016794593724e-03,-1.533669061691788488e-03,-1.331837207964564184e-03
8.620505989253080589e-04,1.465596438981845882e-03,2.104171392456756929e-03,2.826387726230510707e-03,3.656659108912547421e-03,3.877233628814122628e-03,3.921199238162190702e-03,4.185948874052393062e-03,4.152967028852432192e-03,4.202896607707873843e-03,4.182641648674383268e-03,4.537522735701637194e-03,4.776747676988112729e-03,4.588322766569977347e-03,4.866123657034929044e-03,4.814733125429590185e-03,4.605029438418727604e-03,4.396774443765731621e-03,4.315018400081838644e-03,4.343907322207444036e-03,4.235677737633138790e-03,4.263310708002164898e-03,4.205384089693429278e-03,4.301018139372909249e-03,4.395956504584797898e-03,4.429159966702471765e-03,4.544843397584560560e-03,4.657734859688907048e-03,4.787296516193325843e-03,4.886903284376427521e-03,4.896283753672988140e-03,4.928342318252529851e-03,4.891705696984964200e-03,4.732846965452655076e-03,4.627509061224202060e-03,4.557960290665214777e-03,4.419291051478803529e-03,4.875634915168884469e-03,5.415553686081676747e-03,5.797127954966710753e-03,4.928785138058995423e-03,4.030324724684387211e-03,3.173882709229879518e-03,1.932836822630378372e-03,1.634447510267755376e-03,1.913184504634918119e-03,2.180094080296642641e-03,3.243385635518989535e-03,4.061623726871628308e-03,4.099297652641296918e-03,4.535619866975828217e-03,4.555525964441093333e-03,4.384627454262168128e-03,4.459134059944034126e-03,4.373356720951563324e-03,4.299482249155166420e-03,4.381714116380746281e-03,4.058402250751553218e-03,3.730812068343714819e-03,3.880898249144001250e-03,3.810835366225295145e-03,3.844729649534740085e-03,3.871961662809004449e-03,3.840163727642736599e-03,3.886624865486282450e-03,3.997496802257268118e-03,3.930555530481627015e-03,3.835313627439968821e-03,3.664031049496927275e-03,3.266687658612575824e-03,2.950156656515819792e-03,2.562078730923752264e-03,1.783495255503820967e-03,1.419175852999882701e-03,1.153317015856889860e-03,9.556161507822867824e-04,7.016164612397154336e-04,6.350479433008802445e-04,6.361840289141823881e-04,5.901993648127756018e-04,6.060326444876616443e-04,5.956450070004284556e-04,5.895179068376815669e-04,6.281854456570778273e-04,6.298901764165503424e-04,5.881944525079354190e-04,6.562233757101815484e-04,7.868100428010675780e-04,8.969900718773512549e-04,1.016328150666392059e-03,1.145894886546721834e-03,1.282266868358685310e-03,1.358508380117132456e-03,1.444890810663681689e-03,1.479520091221855817e-03,1.478918048597487218e-03,1.491062779404775775e-03,1.463190328252159242e-03,1.380884767554287464e-03,1.335706934865911119e-03,1.264166800523842905e-03,1.164300948276024601e-03,1.125371275616273087e-03,1.095528593408218957e-03,1.046419795092943562e-03,9.490993798437998745e-04,9.102180582524047091e-04,8.750686415108852164e-04,8.029138424729256656e-04,7.759912187014061241e-04,7.194113938594272643e-04,6.660080387612482772e-04,6.025316057943698629e-04,5.672433285518582897e-04,5.412595900513285331e-04,4.863244468840760776e-04,4.415349840955362800e-04,4.178051907810861215e-04,4.099654784469793371e-04,3.779212391861691642e-04,3.717556588382021823e-04,3.596906162053317355e-04,3.242012449170151439e-04,3.202158671346450091e-04,2.922937752848928181e-04,2.893950775106723223e-04,2.826283988408235864e-04,2.422146370329195878e-04,2.305161479297424573e-04,2.072126296650830346e-04,1.873680907609657316e-04,1.912322406128031207e-04,1.915672957885785981e-04,1.702566402371766198e-04,1.634042439532385740e-04,1.535702685691560181e-04,1.325609014337515278e-04,1.206572315600684225e-04,9.858789371985965703e-05,9.024143616147155581e-05,7.243979220638038601e-05,5.167422640962007665e-05,5.837261433833698622e-05,5.250720184707142330e-05,4.585550990195097173e-05,3.335305852499668159e-05,1.135048204341357927e-05,-1.732171802151161779e-05,-4.486816645426916906e-05,-7.776785849593586923e-05,-1.151602380743134391e-04,-1.670966677384652026e-04,-2.282464993586403039e-04,-3.059564617996036258e-04,-4.103978701843349159e-04,-5.356472712282793003e-04,-7.007172160344276582e-04,-9.102268465680286597e-04,-1.062458470060433351e-03,-1.224973897453806877e-03,-1.373492179967052357e-03,-1.431941875898699217e-03,-1.433271911423410119e-03,-1.348756480997401414e-03,-1.238566783014078245e-03,-1.075962546630496479e-03,-8.844372689767785291e-04,-6.692643771770467919e-04,-4.855790070882205073e-04,-3.493262480805767070e-04,-2.312350110469756624e-04,-1.502648880473693069e-04,-9.541143712557061563e-05,-5.125284456430355992e-05,-2.134055043293901400e-05,3.091234598362105821e-06,2.356764272057116814e-05,3.770036641991189044e-05,5.126321553419173154e-05,6.011023160293061236e-05,6.730577793539224522e-05,7.484394080377066447e-05,8.212843373378845202e-05,7.979785645359587746e-05,8.135812869944358816e-05,8.172823639427454466e-05,7.319028751105403614e-05,6.968898090864265610e-05,6.318573182657457265e-05,4.830914562765014448e-05,3.933753504864017899e-05,2.595198578823038236e-05,7.926057663528970874e-06,-1.221975291129857854e-05,-3.313895474522281573e-05,-5.608872214379173447e-05,-8.015358668197597989e-05,-1.140399639720334867e-04,-1.662351746188830840e-04,-2.397776894929816351e-04,-3.302859551023615520e-04,-4.762996725744195669e-04,-6.298275445848965049e-04,-8.159639590332602027e-04,-1.088243815442258662e-03,-1.302626629731900828e-03,-1.635807389939592307e-03,-1.832103765733792420e-03,-1.981405594810913516e-03,-2.016203686100616257e-03,-2.180500115399260606e-03,-2.141736252505772355e-03,-1.695646842185536025e-03,-1.908629338847290732e-03,-1.697773663725559183e-03,-1.620444519615190683e-03,-1.632633411710369010e-03,-1.511657958331101125e-03,-1.356866342281177768e-03,-1.537188792632083112e-03,-1.303959808269324018e-03,-1.133975858435012484e-03,-1.159728745795231405e-03,-1.138128296320319597e-03,-1.155732078733457714e-03,-1.185248714624681336e-03,-1.198794550391783570e-03,-1.229771037264609313e-03,-1.270883341371155080e-03,-1.338828528856645566e-03,-1.371574518478809769e-03,-1.420783531945670570e-03,-1.519589727370616872e-03,-1.568026789197581559e-03,-1.634207468209409762e-03,-1.629200352287994485e-03,-1.641156721196276912e-03,-1.660858647982312421e-03,-1.642778236137323574e-03,-1.743803108383425431e-03,-1.733182036551174409e-03,-1.708927268305704536e-03,-1.743504083318021206e-03,-1.751240654618015005e-03,-1.823025886360619702e-03,-1.795399804614485105e-03,-1.768454649271336814e-03,-1.710295435755854057e-03,-1.769363196331862802e-03,-1.835275008912078468e-03,-1.836516712972466065e-03,-1.839286174814918490e-03,-1.890269373757840193e-03,-1.882733413801547647e-03,-1.911964383333553206e-03,-1.890090340537861667e-03,-1.836225758890911190e-03,-1.865922304168236932e-03,-1.848199157618263949e-03,-1.851176693209376136e-03,-1.906593172122924684e-03,-2.014341556977161229e-03,-1.986761384955928762e-03,-2.006054529730304497e-03,-2.110048145301925224e-03,-2.071371110663808648e-03,-1.998082157090750547e-03,-1.982359528716254749e-03,-1.968644647003923390e-03,-1.788732099927236750e-03,-1.649569914462811282e-03,-1.509224952282713387e-03,-1.296750573801159091e-03,-1.052130380428688413e-03,-7.965965388780593638e-04,-6.147351600151616455e-04,-4.378948522043294897e-04,-3.024500588916425453e-04,-2.074144856430698970e-04,-1.389138984122091592e-04,-9.409301945547780550e-05,-6.232955692534388760e-05,-3.671119797234720979e-05,-1.430441366602490533e-05,4.683899384622273227e-06,2.147192768160912778e-05,3.807311026482271688e-05,4.980065699235826674e-05,5.351114733913593088e-05,5.708619551520928979e-05,5.324085456450668787e-05,5.516378982339664722e-05,4.782593694097486161e-05,3.453387822949355291e-05,2.035649807546016139e-05,4.698857818617083939e-06,-1.176955838467245243e-05,-2.592571130022099061e-05,-3.337496294721251056e-05,-3.321394574231134378e-05,-2.734298112905465166e-05,-1.353249033401683342e-05,1.925855784391772399e-06,1.804573947717392617e-05,2.995810238864629813e-05,4.213541746341734599e-05,4.993961740284666597e-05,5.691921261529526483e-05,6.344015597320257704e-05,6.193934439674298061e-05,5.764298261864623493e-05,5.487963972263723686e-05,5.551842640714212536e-05,5.312758569690543246e-05,4.646678688697907059e-05,4.175450814950198942e-05,4.448666787093862111e-05,4.659897178377035313e-05,4.283755651959593339e-05,4.789119465174665192e-05,5.157581142227182157e-05,5.508408805669971856e-05,5.882210723467485512e-05,5.423365316023005838e-05,5.464258973738092811e-05,5.330651220079554487e-05,4.421695964273854269e-05,3.941998894581897028e-05,3.621796830572884818e-05,2.909275629354735195e-05,1.991903918846793113e-05,1.083793495939723759e-05,3.826891187688176209e-06,-1.710771873297840002e-06,-5.216957957417452609e-06,-7.447783419318900459e-06,-8.066311774915838176e-06,-7.697008924064130487e-06,-6.240380374264638251e-06,-4.352866622061626427e-06,-1.969261195677291237e-06,1.316530598344029892e-06,5.713974819883527444e-06,1.095455894966853956e-05,1.551414704689675804e-05,1.924431494781451263e-05,2.342063109773710787e-05,2.670702721607794641e-05,2.847766485725615885e-05,3.110481448183517896e-05,3.132014720117113856e-05,2.821517691526701261e-05,2.845654421096841389e-05,2.671341347593475822e-05,2.120485081766676299e-05,1.803783811532887812e-05,1.415153847591528588e-05,8.517625437719171031e-06,1.488677522046895792e-06,-7.985093330011136100e-06,-2.071957428528668635e-05,-3.694172576722847852e-05,-5.883239307064616315e-05,-9.591310099071756684e-05,-1.384645970358502909e-04,-2.051717762215452966e-04,-2.806130916606357109e-04,-3.785041970329547237e-04,-5.224619708160556895e-04,-6.262355526334829718e-04,-8.163336842300633741e-04,-9.947990640652275025e-04,-1.171002468208038510e-03,-1.347592660512766114e-03,-1.487330865058918844e-03,-1.662463625564343040e-03,-1.698738467320178632e-03,-1.799633207236848477e-03,-1.848680982470491145e-03,-1.819162769021479562e-03,-1.792779199166754257e-03,-1.650213636582431934e-03,-1.489836374457299177e-03,-1.258698411838780895e-03,-1.075890723981881960e-03,-9.777065185674416528e-04,-8.088242983657045184e-04,-6.301645343454619812e-04,-5.090696295931767612e-04,-4.277212421593892680e-04,-3.610223408887483412e-04,-3.070955306191341483e-04,-2.527092308852366522e-04,-2.035186734999998282e-04,-1.647535514762117148e-04,-1.363230548798768634e-04,-1.028595260023268718e-04,-6.995885943389871890e-05,-3.961674460185003483e-05,-1.261679949102944796e-05,7.529729567265534120e-06,1.635435554148624270e-05,1.243863958405509042e-05,-2.722333388859463322e-06,-1.879003326211171459e-05,-3.983522846013827951e-05,-1.020866587897086014e-04,-1.026440149587251106e-04,4.192479393844733451e-05,3.950696019020469296e-04,7.591315104341942810e-04,5.970597682392445081e-04,6.850250339643054569e-04,5.995586912383908483e-05,2.704844774950118471e-05,-1.290102782112454230e-03,-8.053762949406522917e-03,-2.007565499529056358e-02,-2.340005383607685410e-02,-2.326387791309339481e-02,-2.048825899756355831e-02,-1.770854138123500662e-02,-1.745446280400922423e-02,-1.730400819194508749e-02,-1.686317854611879205e-02,-1.861106430347007901e-02,-2.121324039690890284e-02,-2.485388847218953506e-02,-2.800221933377134223e-02,-3.023897720925534938e-02,-3.135602666829244434e-02,-3.220396189040032608e-02,-3.164287576295139737e-02,-2.741722905023834256e-02,-2.330379703134043828e-02,-1.491166708470982941e-02,-1.457358133723463470e-02,-2.534650589053981037e-02,-4.464804149579871401e-02,-5.875999747549778829e-02,-5.261877918277285682e-02,-4.153611479580992388e-02,-2.237513860550709513e-02,-9.091692134595845062e-03,-3.264685575253466199e-03,-5.690792507035644663e-04,2.112349472029890346e-03,3.858189184739991250e-03,4.621820888627229534e-03,2.816880651620562968e-03,9.028492862630014236e-04,3.784445973073867356e-04,1.480350747161692394e-03,2.823656278859320960e-03,3.068364827644814302e-03,3.281552618824571960e-03,3.272800860986021382e-03,3.495559722323217811e-03,3.456211629444453856e-03,3.582984368365619253e-03,3.526522666671660835e-03,3.274913116245694884e-03,2.964307841336127295e-03,2.583652368299770973e-03,1.932267679997828761e-03,1.688418354551496792e-03,1.683453021205908243e-03,1.499955796758766250e-03,1.197445537688877036e-03,7.725374824001173630e-04,4.285709048126811306e-04,6.450262179161601200e-05,8.530461623933646427e-05,2.461976106972745709e-04,5.907843776674184030e-04,8.433760255907008473e-04,8.348032769545686094e-04,1.075291000343979323e-03,3.652161285474977547e-04,7.673543143462870769e-05,1.392772329596117130e-04,4.781095241798968614e-04,9.860337151368205131e-04,1.202751982610970839e-03,1.737049451283218752e-03,2.295343487514619855e-03,3.061804394038488038e-03,3.572692584721700454e-03,4.585727055331109865e-03,5.500396568397892400e-03,5.199302930045885188e-03,5.047202154942802277e-03,5.080499493365799209e-03,5.147394497517428745e-03,5.424059552859402528e-03,5.610585597628031662e-03,5.434533714664213297e-03,4.443073028282219089e-03,3.255266116389476765e-03,2.020747164520103091e-03
7.559071402121500484e-04,9.123784304409180822e-04,1.022797195980662674e-03,1.253271636506158790e-03,1.349735320287993737e-03,1.252374252691556807e-03,1.114658752180764647e-03,9.555712645342369664e-04,8.135999699813262990e-04,6.438574725899783935e-04,5.011608495959675317e-04,3.196825509608955656e-04,1.374009957638629999e-04,-6.204267219600034572e-05,-2.475961128793366752e-04,-4.460277826213099252e-04,-5.939324499578481397e-04,-7.440390865451764575e-04,-8.502687580658851822e-04,-8.945075326916864487e-04,-9.021316314610670559e-04,-8.838932618407441440e-04,-8.318277650488248992e-04,-7.506921180425702540e-04,-6.610485396754986432e-04,-5.205639088135765149e-04,-3.927763818289638003e-04,-2.814938595029596461e-04,-1.757220512444278456e-04,-1.076989203756952376e-04,-5.930748520851854576e-05,-3.317620306973708734e-05,-2.362621041373309561e-05,-1.427135011257347576e-05,1.486582283593177348e-05,4.672450675895425948e-05,9.971466203621746048e-05,2.578080104887617643e-04,4.895079116149699547e-04,7.263484206240085296e-04,8.531955664797155180e-04,9.341332418050702930e-04,8.872383438807825108e-04,8.795550307447764799e-04,9.297508500097801396e-04,9.651068144514405060e-04,8.676301159893843153e-04,7.537860020804701237e-04,5.342904056437833022e-04,2.255438219460212336e-04,-7.067405032426710045e-05,-2.542633768341217562e-04,-2.936547044019497104e-04,-2.308572572427380453e-04,-9.657997124165133829e-05,6.330539871529499709e-05,2.231091220091081470e-04,3.590411291209007595e-04,4.768769265107993894e-04,5.936647772024283235e-04,6.717526518249354595e-04,7.331973844814789832e-04,7.714681261068045580e-04,7.976519332348082489e-04,8.278939642667873045e-04,8.567891295677263928e-04,8.933805579396304113e-04,9.447844126262975499e-04,1.049347449305682673e-03,1.158631018389627088e-03,1.227096019239676695e-03,1.338143010542959055e-03,1.346767301301090430e-03,1.321709601396558542e-03,1.347998804485473021e-03,1.305841925405234073e-03,1.188812860604325896e-03,9.735614061057935907e-04,1.004054267184223198e-03,1.052232364038318104e-03,1.200986277539632576e-03,1.260030151898358999e-03,1.279249799999014397e-03,1.300716455003402949e-03,1.308607417458198044e-03,1.325011551087005310e-03,1.301414329224445318e-03,1.360112899756706116e-03,1.402292697604823595e-03,1.407400329933109102e-03,1.403299630136715373e-03,1.437129546689474820e-03,1.462688697936373374e-03,1.414236037908234416e-03,1.390251843928439835e-03,1.374786863773018192e-03,1.356356528565780956e-03,1.348676755946504003e-03,1.350460647255092564e-03,1.340680386153110483e-03,1.344909028176994410e-03,1.351640306880759175e-03,1.362434927261423935e-03,1.386049263839396169e-03,1.395813900412254827e-03,1.414215474579315649e-03,1.407126931116496919e-03,1.393187843932980514e-03,1.400963049866800871e-03,1.389297398865129568e-03,1.382538702007777643e-03,1.371940819557037131e-03,1.373725366980900649e-03,1.356169356264106925e-03,1.327300815043291980e-03,1.324817007501147108e-03,1.325655532687614307e-03,1.297362169556697279e-03,1.308947651740549742e-03,1.317153228954882124e-03,1.323475299034814010e-03,1.332541214175118199e-03,1.334092246532900044e-03,1.342759242043662250e-03,1.331323235498567837e-03,1.339489139777847197e-03,1.338339507635827926e-03,1.327371362824012087e-03,1.327192612614274672e-03,1.316677119940091100e-03,1.330983442112471625e-03,1.310817579303647298e-03,1.299300630643758329e-03,1.306719057026447606e-03,1.290639139881606190e-03,1.271751980252465572e-03,1.224704688152637375e-03,1.218871392261508492e-03,1.197976836587265077e-03,1.165184221585816417e-03,1.131026687200321424e-03,1.115803382020682730e-03,1.115519766451275206e-03,1.037201258337494157e-03,9.767980356446546216e-04,9.319932473871781180e-04,8.503854572210346307e-04,7.762151649086182492e-04,7.064645681283802416e-04,6.414833953771641520e-04,5.376675488014389997e-04,4.537828826850267010e-04,4.173379255704449866e-04,3.315157995305778658e-04,2.566301686692751488e-04,2.208298951326530008e-04,1.774018596376124681e-04,1.389560995587952653e-04,1.039915438573943554e-04,8.227200087533958323e-05,6.348138958607269595e-05,4.815210105434773323e-05,4.543149015581885922e-05,4.121140324791616722e-05,4.758293725347398194e-05,5.476059590504529713e-05,5.817708204986945760e-05,7.101295468444186959e-05,9.408234093433605870e-05,1.099949859945104487e-04,1.341151998963246170e-04,1.736363132547197872e-04,2.215751787371465894e-04,2.821296631713047587e-04,3.105304386832678765e-04,3.647424329640855216e-04,4.399227702182831757e-04,4.895092016995885144e-04,5.666664356191185347e-04,6.543400059714196476e-04,7.587525307688050081e-04,8.202501925091937145e-04,8.883842476278319602e-04,1.002724264165715971e-03,1.057183694079618383e-03,1.109013965167956247e-03,1.137887867206494302e-03,1.170238070805928055e-03,1.210103296783303795e-03,1.209934477835027588e-03,1.232767498335370212e-03,1.270598079135462893e-03,1.290402590528912184e-03,1.291068593403874249e-03,1.305952973252919643e-03,1.331675026630970912e-03,1.322095389012599822e-03,1.318296099110684988e-03,1.327524054079810790e-03,1.319911991025190297e-03,1.317646673374732067e-03,1.324065464762095483e-03,1.335154062282200519e-03,1.324396279883772228e-03,1.314624886622604459e-03,1.317373393724836309e-03,1.309696379609609756e-03,1.291185436047087142e-03,1.286802701607650101e-03,1.284441584528176611e-03,1.270289361865524057e-03,1.277567397557979011e-03,1.281335048995359835e-03,1.268140205858829615e-03,1.267580413262537177e-03,1.283152257214114668e-03,1.284514265409527744e-03,1.260063400264075425e-03,1.256918783632196990e-03,1.249492400234884348e-03,1.252749657325668772e-03,1.255834441833010226e-03,1.248617155940122403e-03,1.243579889933552713e-03,1.252780943932041901e-03,1.203676555102757258e-03,1.187047665652982706e-03,1.152107408216634845e-03,1.129488125668733339e-03,1.122549264087566948e-03,1.118067005774051742e-03,1.099757792261479329e-03,1.023439375602172314e-03,9.924210040328312020e-04,9.420309672735309708e-04,8.611329518215452136e-04,8.049851072342511333e-04,7.565261352225103675e-04,7.039166452927061654e-04,6.469353005579289804e-04,6.089739995092965756e-04,5.954643862008839657e-04,5.672240639942817322e-04,5.677204150285140166e-04,5.384287405283325317e-04,6.066824714972522551e-04,5.582035144492958345e-04,5.122000223806441946e-04,5.124688790631058092e-04,4.938839856751529086e-04,5.222510465512747143e-04,5.000374116988460724e-04,4.972234985267173909e-04,4.848863542437968589e-04,4.707622291902907184e-04,4.777243418678988533e-04,4.784003686165177625e-04,5.142208418450574430e-04,5.265089896079402660e-04,5.221807247206168697e-04,5.333901451949415876e-04,5.422159601308221494e-04,5.341605222365540181e-04,5.373737587311075165e-04,5.386409148498637854e-04,5.367787301519305783e-04,5.307914703140702078e-04,5.330633258624737931e-04,5.429544248568372172e-04,5.372808447348559639e-04,5.255774358091194233e-04,5.269004880878229392e-04,5.064130996285617393e-04,4.824750700250368804e-04,4.484595236929538671e-04,4.119632002935796271e-04,3.907335673477034727e-04,3.556641595084616709e-04,3.357045938400879262e-04,3.030392024140734141e-04,2.911191405737745741e-04,2.766524118199856176e-04,2.514577453257562604e-04,2.297892596739868132e-04,2.109493038135433767e-04,2.013921112917995597e-04,1.952177390666704371e-04,1.873685152515980736e-04,1.700195460399402190e-04,1.625735411646757377e-04,1.594023318675323185e-04,1.677977108365500422e-04,1.930705578507155653e-04,2.081287853391644376e-04,2.275077648167833123e-04,2.455582600960457712e-04,2.636942574043024353e-04,2.886761335616929813e-04,3.050687867697023667e-04,3.238173726821818340e-04,3.530063265277731915e-04,3.765520535186387893e-04,3.924881816305092171e-04,4.066337630599789672e-04,4.210313503868961344e-04,4.218463008752518228e-04,4.352320713517861565e-04,4.385990626158688902e-04,4.214514093950822750e-04,4.282775182160625835e-04,4.421637328106436840e-04,4.230813997815156824e-04,4.156090180818982813e-04,4.066900558722629498e-04,3.869439072653860267e-04,3.838430541680507187e-04,3.650652189162151545e-04,3.424606796555399076e-04,3.196461282482906583e-04,3.003286014252962719e-04,2.668052920457234379e-04,2.426202307390300738e-04,2.236901538141289358e-04,1.953713396686037197e-04,1.809556411856614818e-04,1.663535969709551430e-04,1.483414475574067117e-04,1.288385762247892807e-04,1.123528100434579403e-04,9.762450320153470674e-05,8.756511762191545526e-05,8.655784794761539429e-05,7.846790231912086240e-05,7.477509693006948181e-05,7.655098129388614560e-05,7.311479074480098264e-05,7.335790639819489889e-05,6.957694893483687643e-05,6.929970019490298242e-05,7.460183803743611710e-05,8.064162849227541035e-05,9.743581817285644183e-05,9.726489165207791946e-05,9.868971020816363101e-05,1.117915393034881664e-04,1.303946140122670683e-04,1.428980911304808738e-04,1.488025218246416461e-04,1.647320280879902476e-04,1.822128290767972695e-04,1.981276585194428961e-04,2.073150995720069334e-04,2.222452699844548339e-04,2.452663038554743708e-04,2.563299287138472182e-04,2.737010258262157869e-04,2.969568009497206853e-04,3.136489401006521942e-04,3.287149343021160039e-04,3.434577952069436165e-04,3.527067191552905965e-04,3.531285437148880789e-04,3.614982586017387377e-04,3.583737813126613709e-04,3.527965491696931745e-04,3.709343881866281967e-04,3.883190865611321025e-04,3.870083563986522813e-04,3.926910150976494472e-04,3.987593007979588016e-04,3.872670792495632960e-04,3.680277696587000999e-04,3.535535766136122665e-04,3.470161951636419333e-04,3.389544921657188588e-04,3.296630430579081551e-04,3.184018140138968186e-04,3.047593606268215777e-04,2.880818909081882414e-04,2.717028379818060379e-04,2.643355198479140468e-04,2.408785549361461146e-04,2.171351252801215095e-04,2.097520672525597565e-04,1.841760849449842943e-04,1.510823040778029776e-04,1.381594959289485453e-04,1.415126620172438906e-04,1.468990423774734150e-04,1.630802957621286457e-04,1.927978995463173215e-04,2.277559217955323512e-04,2.877629826141123648e-04,3.857491541993628148e-04,4.314285756472679479e-04,5.022700367051482259e-04,5.537812003242472509e-04,4.990972781025193074e-04,5.286603569516236650e-04,8.879002612560679469e-04,1.590041134727435742e-03,1.700086437281200140e-03,1.434112510074499539e-03,1.085754471033989780e-03,3.603675757248661648e-04,4.506232437752095846e-04,-6.055174792310081584e-05,-1.076903933606361205e-03,-2.387326235088603477e-03,-3.636392502171167506e-03,-5.121355971595731998e-03,-6.709448477894694972e-03,-7.328180950406226919e-03,-6.731225274021464776e-03,-6.275994343782967388e-03,-5.756328176665722642e-03,-5.375299505031655434e-03,-5.607885975547564558e-03,-5.932613316340778001e-03,-5.751369632269564929e-03,-5.635168918670223522e-03,-5.564122567297651901e-03,-5.755429529334662314e-03,-6.240863682197164350e-03,-6.632335653209669134e-03,-6.928136659178709550e-03,-6.898591730118052746e-03,-6.563291227273805421e-03,-6.341288094640616137e-03,-5.280450557698625029e-03,-4.124286694586718448e-03,-4.705493028194761458e-03,-6.300970839861393460e-03,-9.255249202143382009e-03,-1.082085669673585673e-02,-9.458622372126905542e-03,-7.156372826195062271e-03,-3.667321982839894402e-03,-1.998096521929607593e-03,-5.787983665652067337e-04,1.318025365179716340e-04,4.126177113984638429e-04,7.807264224286335555e-04,1.111771805086883558e-03,1.056967263840980333e-03,9.262925256941601871e-04,9.593342036437286710e-04,1.176156464275744402e-03,1.394869272184272703e-03,1.450735207521224469e-03,1.404625712831265427e-03,1.343707972042716692e-03,1.277531673336908084e-03,1.232939299567012859e-03,1.280067793771800426e-03,1.331203289225060121e-03,1.313318908340053515e-03,1.337479061906228332e-03,1.266970030027961746e-03,1.063846281595723971e-03,1.117398719187514579e-03,1.256394722934357213e-03,1.415167523838688516e-03,1.645874046791425413e-03,1.680940015896569559e-03,1.704155093767465746e-03,1.270620608215650670e-03,7.708034795131970792e-04,4.107699682857359445e-04,6.260516454053181379e-04,1.218024347799882487e-03,1.459441789438560219e-03,1.523175043139876964e-03,1.527043999247013973e-03,1.492501459603583517e-03,1.336072502518804777e-03,1.245693207071654068e-03,1.197116765558657505e-03,1.213701695980999584e-03,1.250986209146390899e-03,1.315145042356038367e-03,1.342509550451963501e-03,1.328729945559530045e-03,1.146041322749256561e-03,1.064195377895015178e-03,1.070183379510849988e-03,1.119771730850346913e-03,1.095061352740423714e-03,1.043215896655060428e-03,8.207306546681355499e-04,5.215439486205144604e-04,2.707942951108204205e-04,6.471307429459712836e-05,-8.484405319139388539e-06,9.769397975863988823e-05,3.362374327965778455e-04,5.593718048743649869e-04,5.082443494837197767e-04,5.389553862456907376e-04,3.950804959216686583e-04
