-3.963202828196190426e-04,-9.157115939877076951e-04,-1.143683901357313380e-03,-1.945084505358942546e-03,-3.989113367160078243e-03,-6.387257067253818317e-03,-7.850830990142013133e-03,-8.442374606623307895e-03,-9.522274589339839793e-03,-1.037012962758265301e-02,-1.088535873525975362e-02,-1.071312295478081024e-02,-1.055686784720122166e-02,-1.056583483767480069e-02,-1.147567933754834076e-02,-1.287548324935576874e-02,-1.357775639822739536e-02,-1.383013012286495903e-02,-1.360253645057519015e-02,-1.358261933597312149e-02,-1.393054466945547673e-02,-1.420767953674481610e-02,-1.445722805497892324e-02,-1.489151885180999522e-02,-1.479232583571337897e-02,-1.426991521286999527e-02,-1.372106366379389868e-02,-1.317310481493973347e-02,-1.316886010224411173e-02,-1.309805219663758534e-02,-1.333278624615962145e-02,-1.364168900381139762e-02,-1.342610051842908422e-02,-1.321671026467201825e-02,-1.262867518901211739e-02,-1.234011646287386417e-02,-1.174763303443274697e-02,-1.055393048792664656e-02,-1.013991885575378331e-02,-9.437778192773129890e-03,-8.281431950752354137e-03,-7.665055509110349843e-03,-7.140037747622255022e-03,-5.950966287913327969e-03,-4.972317621746315426e-03,-4.362451192974553700e-03,-4.127812060559172061e-03,-4.271402520325943454e-03,-4.184954730869933429e-03,-3.605287821035438843e-03,-3.210869932535406843e-03,-3.330261818657665688e-03,-3.034995565126458184e-03,-2.299452674306861222e-03,-1.844923637238865457e-03,-1.425257419072595072e-03,4.522904650833440508e-05,1.458986848906537086e-03,2.184812446153196804e-03,3.083143498205699780e-03,3.157471423415477828e-03,2.863147011451128154e-03,3.050150368941088354e-03,2.934609997348976325e-03,2.776313922267064239e-03,3.304116735801908289e-03,4.298670591530112314e-03,5.571673728485261774e-03,5.945706447594505117e-03,5.442676630004812666e-03,5.652937685655422435e-03,5.862526065263705746e-03,6.402342707439400565e-03,6.522252492514343629e-03,6.143648052231870556e-03,5.988145509692573143e-03,5.519409192177981288e-03,5.195163923965348714e-03,5.036032431311767733e-03,5.244481241859063649e-03,5.655242249592528497e-03,6.202308968877500057e-03,6.297301570984493134e-03,5.848919091877733019e-03,5.259781110439007597e-03,4.598055687222719901e-03,4.303532553041548858e-03,3.952721719846289533e-03,4.358384096428044238e-03,5.584249756214442958e-03,5.589081401747112224e-03,5.674194625221199058e-03,5.364855331636836019e-03,4.714944502976930497e-03,4.574706314231605578e-03,4.080698718721497038e-03,4.519136763998517214e-03,4.798873980683894709e-03,4.793869325233462639e-03,4.979031541931135466e-03,4.183015271090209306e-03,3.884701379038273377e-03,3.935250053731713903e-03,3.410537098881290252e-03,3.208520397385675876e-03,2.946092902607854325e-03,3.016392388182800692e-03,2.875039687441736155e-03,2.342457974842964644e-03,2.592320067881676796e-03,3.448393846225999548e-03,4.108039652698793412e-03,4.236698751974704406e-03,4.491670679091748671e-03,4.532690215825584644e-03,4.732756024276495166e-03,5.034466241773561702e-03,5.318585055397125061e-03,5.442950325068121077e-03,5.600751581179484045e-03,6.304924665588666592e-03,6.264043310373060107e-03,6.445283321548343075e-03,6.999289706047482316e-03,6.865564562508627566e-03,6.442818678988785665e-03,6.018760984513102721e-03,5.482977791956020718e-03,5.197383339325208421e-03,4.910029918456210174e-03,4.309793162972005813e-03,3.941183496920490012e-03,4.009843724944204407e-03,3.853723833737137359e-03,3.424461916914619923e-03,3.300341756238641192e-03,3.654565982557334784e-03,3.829188505104057401e-03,3.441965307280760687e-03,3.698673982885482617e-03,3.941633640032506970e-03,3.714205037227299305e-03,4.042239764023699763e-03,4.570450686462894548e-03,4.878346228847639174e-03,5.806734527269811173e-03,6.556970274298942573e-03,6.563449023751893527e-03,6.438642164854096149e-03,6.113088077793247567e-03,6.797983319855149809e-03,7.560796148274566940e-03,8.185828814606827333e-03,8.624748010871968046e-03,8.718184584555711478e-03,9.151151453591093235e-03,9.649671374646926619e-03,8.894301022018344036e-03,8.178409711957148817e-03,8.244174894016577729e-03,8.237570652487371040e-03,8.046378674187939714e-03,6.691617627247345608e-03,6.334727442119317785e-03,6.179789624219929854e-03,5.777537192528754348e-03,5.280232712751590542e-03,5.036674834409942715e-03,4.885870353955153005e-03,4.773156818360534473e-03,4.019209114359095260e-03,2.706335410217901132e-03,1.369999099724906718e-03,1.541904329801132016e-04,-1.063671786571627901e-03,-1.711616228680623705e-03,-1.843111426257568013e-03,-2.584006650660064693e-03,-2.655428457033243757e-03,-2.631084029055213644e-03,-2.694023744251919459e-03,-1.530523918294361772e-03,-4.247959077978015583e-04,1.690847477812020135e-04,-2.923188152050080601e-04,-8.410699485203248452e-05,4.858859666526466818e-04,-6.992352769456824609e-05,-1.233111940996896999e-03,-1.471390256899989283e-03,-8.233985282882197898e-05,4.312405828259450015e-04,1.425550175832219482e-03,1.872966373368607513e-03,2.238791099625500082e-03,3.359675811736255371e-03,3.812127715189629965e-03,4.356396241571585878e-03,5.043317217461661811e-03,6.214206050269802106e-03,6.800059187614296285e-03,7.338439995468443340e-03,7.653817675881052773e-03,8.358166514187304053e-03,9.204575861183618771e-03,1.000726373472387090e-02,1.181249961138852722e-02,1.427612322564947647e-02,1.599871034051976448e-02,1.554910395122883864e-02,1.390895315625801341e-02,1.145214235574155102e-02,1.037266883275806718e-02,1.141773953522192721e-02,1.340285578164018311e-02,1.517456073208778462e-02,1.518161725780601753e-02,1.472203564488497318e-02,1.557242384308338973e-02,1.726735533957847457e-02,1.804901201996231969e-02,1.534545882499249898e-02,1.164435534793688970e-02,8.801364910360837818e-03,7.840777323304747720e-03,7.529638007377274962e-03,7.457332406695806916e-03,7.618736472032424517e-03,8.365032831551467984e-03,8.889634089677741352e-03,9.498273765982574030e-03,1.072682496068020318e-02,1.005059886060433692e-02,7.280138356275789487e-03,6.488196784776691442e-03,5.655941200360318881e-03,3.784190047148116784e-03,2.852612480768291960e-03,2.751934319295897165e-04,-3.072332944254268627e-03,-6.401183243058379373e-03,-8.553940344630044448e-03,-1.137355707321488496e-02,-1.436439850642609595e-02,-1.767851793940868749e-02,-1.984866898947485608e-02,-2.125919956926054094e-02,-2.261794325264693956e-02,-2.303674741795556230e-02,-2.249033661795735509e-02,-2.106129383059405710e-02,-1.907636405038720673e-02,-1.699416961909205881e-02,-1.449105003519097178e-02,-1.161709580832316450e-02,-8.453252523072796523e-03,-4.945510047141023040e-03,-1.322515122533885184e-03,1.996124576443111722e-03,5.362906285004313302e-03,8.569894460751494025e-03,1.133644735839826195e-02,1.380637690669747272e-02,1.584356747054024156e-02,1.744029566535420378e-02,1.879675573947121175e-02,1.987751473969962684e-02,2.066514596503183851e-02,2.144038744275257938e-02,2.205949999349324231e-02,2.255864157616013776e-02,2.300525635724525939e-02,2.335094523820092569e-02,2.360395420324437957e-02,2.367669006233158804e-02,2.356045698787636103e-02,2.324043196310333209e-02,2.287995784917818895e-02,2.198239112068035156e-02,2.054798253897186996e-02,1.856977543444949391e-02,1.639493073623383285e-02,1.496727096726203042e-02,1.095734531925207818e-02,8.567723589904450987e-03,7.307434540145127215e-03
-4.587477958194754947e-04,-9.374505714876430612e-04,-1.525255916328859896e-03,-2.909842461218789880e-03,-5.230239327584226480e-03,-7.608014561513859464e-03,-9.665608247258953775e-03,-1.054911068096894312e-02,-1.155919145434951105e-02,-1.267260207455500783e-02,-1.347676391549433757e-02,-1.387063718700123557e-02,-1.407227943202933769e-02,-1.435290706689002459e-02,-1.450543298287445063e-02,-1.481601988214286021e-02,-1.492128330156247684e-02,-1.489903098439913226e-02,-1.491045693246643815e-02,-1.479984821079385893e-02,-1.507159740704730466e-02,-1.529787068513215748e-02,-1.551842882082212806e-02,-1.610620260196129333e-02,-1.635873623997351201e-02,-1.625459647793187426e-02,-1.623928364744116337e-02,-1.648356433060035875e-02,-1.691570584439753416e-02,-1.748209174714154129e-02,-1.766681547454509310e-02,-1.744134322573940785e-02,-1.678899724084855286e-02,-1.615788105588196466e-02,-1.581529641742762324e-02,-1.511371351816299946e-02,-1.432708117984683380e-02,-1.320959342313160131e-02,-1.194106692577154641e-02,-1.106004575772754316e-02,-1.038809014893288599e-02,-9.771448659188101959e-03,-8.748094957220670445e-03,-7.636861946596882472e-03,-7.091016296557485499e-03,-7.035419986962800770e-03,-6.596498130928098343e-03,-5.899420318488578230e-03,-5.646304142696061991e-03,-5.424557651455338449e-03,-5.140004359402557295e-03,-4.253708190792588467e-03,-3.063949862859953899e-03,-2.294540056928123101e-03,-1.711416623410672369e-03,-5.804842862129867224e-04,1.016292719807174172e-03,1.707779106630191853e-03,2.816222055196548890e-03,3.364199036954331964e-03,3.131146041888744659e-03,3.459861385149812490e-03,4.139786390612319733e-03,4.903303700894062755e-03,5.187377941909306588e-03,5.323017612278602151e-03,5.425388812218368689e-03,5.851450661625339812e-03,6.152427190538877454e-03,6.293850612896379620e-03,6.547380624724782536e-03,6.575190736041802014e-03,7.177693775918651993e-03,7.947435397358995623e-03,8.161383345518719024e-03,7.598073482026775592e-03,6.675206308694510426e-03,6.118671809811220691e-03,5.638404072050192707e-03,5.394689822847430205e-03,5.532847174441392346e-03,5.880705267757858380e-03,6.558017545557795307e-03,6.072356163255791806e-03,5.311243694013082460e-03,5.442426462428072605e-03,5.166262534528016058e-03,4.902105214191990017e-03,5.352594398266213860e-03,5.715513262508904561e-03,5.613316937059566365e-03,5.250224987811828378e-03,5.150659382133384104e-03,4.845293856410865484e-03,4.385406128140588965e-03,4.197996434428342104e-03,3.981893753084182926e-03,3.993903537769349053e-03,3.720115549437789070e-03,3.336785524147236996e-03,2.814185964330101746e-03,2.292632989902022508e-03,2.201855954948865168e-03,2.266710149205391437e-03,2.501076259496612646e-03,2.384231327406669161e-03,2.080629837482533048e-03,2.162669348974912645e-03,2.201695766021874012e-03,2.512901359113172469e-03,3.073519668000734839e-03,3.418635851050975515e-03,3.609308052184290183e-03,3.745693960152970178e-03,4.054483811359965544e-03,4.446181957420834024e-03,4.947079222326772503e-03,5.241471199866799477e-03,5.512735623926056164e-03,5.520803046651848525e-03,5.080457766670343558e-03,5.104778837416791212e-03,5.298461812112374714e-03,5.481606446547542845e-03,5.527171232581283219e-03,5.254969862937041228e-03,4.900100238767599557e-03,4.716381648430614283e-03,4.385608488754673059e-03,3.934638422191112650e-03,3.497468717940834058e-03,3.095859612760164508e-03,2.796198228622319166e-03,2.450803963129931373e-03,2.605553478328507047e-03,2.720821568356142535e-03,2.704366607941716648e-03,2.776215691287878349e-03,2.530975382778267394e-03,2.647342545333147574e-03,3.074492598624870010e-03,3.400665960793708247e-03,4.030298281802795375e-03,4.797656993752416263e-03,5.193154091555241859e-03,5.836812205455201713e-03,6.163765820408726066e-03,6.168128695440269760e-03,6.202463932452616062e-03,6.422699773311869864e-03,6.947244817834671501e-03,7.229067007534033772e-03,7.752589113201921629e-03,8.064883268544808040e-03,8.345431259102659843e-03,8.852715727839405649e-03,8.822806247600348956e-03,8.261536121761097612e-03,7.471264241629193247e-03,6.965523232844903455e-03,6.748059641310351874e-03,6.148542931665552762e-03,5.841928514329238625e-03,5.644351204794981029e-03,5.411704205984597255e-03,5.038727699735021451e-03,4.626712590446929903e-03,4.535374658858137321e-03,4.382951677637319902e-03,3.937508741393948991e-03,3.006203132511279120e-03,1.805674177631368333e-03,4.069963095908741136e-04,-9.976549814697996919e-04,-2.179174806626151158e-03,-3.140749490220225929e-03,-3.024517696392906886e-03,-2.956618066698296458e-03,-3.390094748315516070e-03,-3.314017491208968297e-03,-3.122527485512450497e-03,-2.172184783164756751e-03,-1.725968997374743592e-03,-1.156485262020540312e-03,-5.711146157845564371e-04,-4.482111512806700201e-04,-7.451192354352668013e-04,-9.692538824395301915e-04,-8.876071658831057552e-04,-6.911609760294678759e-04,3.713732655707256041e-04,7.981717716575655085e-04,1.709103514418673685e-03,2.641304120941672610e-03,3.051235201175370865e-03,3.858538733063659153e-03,4.322306631857990127e-03,5.098567050196391344e-03,5.824826333645518293e-03,7.068484138447673343e-03,7.973165201945124625e-03,8.939323402634806459e-03,9.545834532317540311e-03,1.032117110815034509e-02,1.263569621572837101e-02,1.485579561370836514e-02,1.714112742566016589e-02,1.901878435845423890e-02,1.942227917643275792e-02,1.862888185480379710e-02,1.754912671416121450e-02,1.610077684408684970e-02,1.440003882872801025e-02,1.285894652822233350e-02,1.161276158107129794e-02,1.210691755037155218e-02,1.296054005933979826e-02,1.457787561342303341e-02,1.685489366636231529e-02,1.917813888399294217e-02,1.901551099333313039e-02,1.669011277924413797e-02,1.362749943131632939e-02,1.087276969696965648e-02,9.021455212557403375e-03,8.221236570052045320e-03,7.626655089109340112e-03,7.432976017251484956e-03,7.823699721567857479e-03,8.330046825949764117e-03,9.856408717084234536e-03,1.114065529647515623e-02,1.150447881211602054e-02,9.735590604075873220e-03,8.248546049750567211e-03,6.552008451215134491e-03,4.205545164178551600e-03,2.804893697797557293e-03,7.129082100393413328e-04,-2.125131953788964630e-03,-4.227819839383227703e-03,-5.816094207575344018e-03,-8.280548601694174074e-03,-1.081488729964398716e-02,-1.248055431132831516e-02,-1.294571446810529637e-02,-1.340821957339968611e-02,-1.352636061471075395e-02,-1.365878742127199681e-02,-1.361095983254929746e-02,-1.321341644440710006e-02,-1.379636978970027149e-02,-1.467769164051167287e-02,-1.568489411906197339e-02,-1.652830097740196763e-02,-1.708536979185959134e-02,-1.622818820257086736e-02,-1.380419022096267267e-02,-1.040205617329569877e-02,-6.304888108584246441e-03,-2.381868077571955462e-03,1.791368641371000577e-03,5.740909177978831095e-03,9.154192686545015514e-03,1.195714153202194832e-02,1.420055824274093180e-02,1.604036802338517503e-02,1.739343281472053790e-02,1.846757649560474765e-02,1.923738580568087539e-02,1.971517309917250257e-02,2.005532336757960901e-02,2.015651829536177150e-02,2.018735858436401104e-02,2.015562883526955326e-02,2.003184414939607194e-02,1.974695698933240373e-02,1.945334241374377729e-02,1.863299329832070195e-02,1.754063309451635647e-02,1.576310305283910168e-02,1.396863064915252958e-02,1.265813734352920494e-02,9.057470876588279152e-03,6.880021289150273223e-03,5.903356260944340149e-03
-4.709440760501312491e-04,-1.012725079188971263e-03,-1.401925985370529575e-03,-2.615962136591696175e-03,-4.868158306542840624e-03,-6.902297928966488749e-03,-8.752471100348522409e-03,-1.024284748580542304e-02,-1.159828273609261537e-02,-1.275716109237213895e-02,-1.327345787082615837e-02,-1.406728359148073232e-02,-1.445370793697219221e-02,-1.411648909583504072e-02,-1.450081429415373512e-02,-1.447823420053285202e-02,-1.437061180689342722e-02,-1.455740367247949398e-02,-1.442036316789901268e-02,-1.432555198523877658e-02,-1.436084132596813882e-02,-1.437238010302004446e-02,-1.460708500413184299e-02,-1.513609839469266805e-02,-1.575041484328381855e-02,-1.598289184104465313e-02,-1.574898829892679153e-02,-1.567472826140565642e-02,-1.621753340647902331e-02,-1.668370547462297293e-02,-1.664929911805694204e-02,-1.650988422493850777e-02,-1.620118411708613287e-02,-1.568659131568265336e-02,-1.489266382104810320e-02,-1.422716022746593062e-02,-1.355716939320101774e-02,-1.242231614278226440e-02,-1.131187944204980686e-02,-1.021312337057712037e-02,-9.496961747475518925e-03,-8.817461426775329014e-03,-8.048143787102944244e-03,-7.261205916608112071e-03,-5.983802327714788337e-03,-5.593482731526846358e-03,-6.120162089484272594e-03,-5.733198410806460144e-03,-5.188281244327564573e-03,-5.100848997789376137e-03,-4.638372886696692614e-03,-3.734479815494675010e-03,-2.836494124266389881e-03,-2.264642524763815605e-03,-1.274854489109356493e-03,-2.055889553660400330e-04,7.322983681407847171e-04,2.100358027999754511e-03,2.715399625233194929e-03,2.653885598624677097e-03,2.851112949729083836e-03,3.414541927785314391e-03,3.837850442887490426e-03,3.589590730509502857e-03,3.676804082107171853e-03,4.158294733510030372e-03,5.246657596248853299e-03,5.968311555075302144e-03,5.534979413925140458e-03,5.538205724332308580e-03,5.904874035889015778e-03,5.852225769448056447e-03,5.792796287962280986e-03,6.275902956338402436e-03,6.587962740772904113e-03,6.310551140545772250e-03,5.879709972359528289e-03,5.723785746293586288e-03,5.634473079981837211e-03,6.235812031123825171e-03,6.629635859206925268e-03,6.227908652791887267e-03,5.839800309261590321e-03,5.700850485323256771e-03,5.354190762930977066e-03,4.870097488587517114e-03,4.690511656124080921e-03,5.196845236528944284e-03,5.420130088367413647e-03,4.921878270381349445e-03,5.205974063770544766e-03,5.765737086391993331e-03,5.658015029515412429e-03,4.870530222544809489e-03,4.902477446498859290e-03,5.377344124649477419e-03,4.946091004751309271e-03,4.145614808509992186e-03,4.037312400889590987e-03,3.777969958388561166e-03,3.279447366628839271e-03,3.157506525273558184e-03,2.891172219702753399e-03,2.854336428175598128e-03,2.993130732984672186e-03,3.220694570716373540e-03,3.403451172078978716e-03,2.863387214463371331e-03,2.279314114032907849e-03,2.553834185281252198e-03,3.551576893306534945e-03,4.406099500955207131e-03,4.183371112556739935e-03,3.963543005918141772e-03,4.408753473388968280e-03,4.546640424559567420e-03,4.650016042990205017e-03,5.202947609422637655e-03,5.527972745576579562e-03,5.747599419887997572e-03,5.610445147054611906e-03,5.333793630984126795e-03,5.666504902035694562e-03,6.027029458980359515e-03,6.215093118566545997e-03,5.993699709263490723e-03,5.166555978682914850e-03,4.697241594424653166e-03,4.597989536299153766e-03,4.372154475521701500e-03,4.144871471908674956e-03,4.024286846640507016e-03,3.943732563526546747e-03,3.435559377884585090e-03,3.300521348630167974e-03,3.284577407456852876e-03,3.122369407602812452e-03,2.725552672687875464e-03,2.444186309920806568e-03,2.724617276044288914e-03,3.085097526347830091e-03,3.721847261443266257e-03,4.378818982769617889e-03,4.802538233727767468e-03,5.620191492185687247e-03,5.922737005670159621e-03,6.041294430729910077e-03,6.874581683053213217e-03,6.545019228560603614e-03,5.907746847269011205e-03,6.603864699255480863e-03,6.764264276082318332e-03,6.951390020512665351e-03,7.678240645230103092e-03,7.946965608099005457e-03,7.751102728290687471e-03,7.742953167612292437e-03,7.854312169800106713e-03,7.652357412462710944e-03,7.392355057827523779e-03,6.802507674803668844e-03,6.300101761454730658e-03,6.380242080505251281e-03,6.054143306474656962e-03,5.607692257051187686e-03,5.694499007424308132e-03,5.369135030508436629e-03,4.826822447568074326e-03,4.344639619083833643e-03,3.930088058681996746e-03,3.333987183665425812e-03,2.119991797970356348e-03,6.428914372269345975e-04,-1.302777657460197018e-06,-8.954107361448462735e-04,-1.853879258646213939e-03,-2.257610512090759726e-03,-2.311764567894053404e-03,-2.342392921988439153e-03,-2.689815794742341729e-03,-2.379517276603077512e-03,-1.567749966122694008e-03,-1.359109578151422408e-03,-4.715355245746354973e-04,-5.337964667443069103e-05,-3.110862376364978508e-04,-1.586556893296130622e-04,1.436997909660448392e-04,-1.553889205347919308e-04,-3.260881176237075802e-04,8.039018126281928045e-04,9.350316339609891867e-04,1.173418566200036582e-03,1.968953912364467245e-03,2.748514695655231849e-03,4.059132448450030600e-03,4.826354078398212982e-03,4.919616252554010610e-03,5.387577345152427637e-03,6.395301852133454881e-03,6.726440946552016652e-03,7.373398340056127979e-03,8.052137312060879751e-03,8.768641134775915016e-03,9.567243740665325527e-03,1.068278082349868874e-02,1.266220402601658454e-02,1.467393662258459353e-02,1.591273085508970384e-02,1.633711587360915304e-02,1.682951153596995084e-02,1.634068629167798395e-02,1.493271755433223970e-02,1.371271155999336834e-02,1.327257975172341578e-02,1.279932386850918084e-02,1.391363713432518419e-02,1.577506726401689541e-02,1.760252902383075899e-02,1.991163281269467400e-02,1.799005743534987448e-02,1.535963543906197770e-02,1.289033800486018982e-02,9.539220156168138481e-03,8.446914147256370103e-03,8.251114264557338207e-03,7.479095845224739865e-03,7.336086050406756369e-03,7.915691451944484314e-03,8.853822554996474900e-03,1.004217859693737162e-02,1.128772515390121141e-02,1.183494006433659027e-02,1.043278850851220990e-02,8.501622074814453589e-03,7.197695478679517513e-03,5.032984968945381291e-03,3.617287759675595279e-03,1.719390492594580471e-03,-5.637761134390629298e-04,-3.079235516775172179e-03,-5.438291060023048643e-03,-7.917834673779079735e-03,-1.019829137983597513e-02,-1.290277379237556726e-02,-1.486558420908999645e-02,-1.575934850665157427e-02,-1.657557797821247736e-02,-1.726454209693810415e-02,-1.753264461112071654e-02,-1.746786243408798497e-02,-1.733973049138271341e-02,-1.735566545747210809e-02,-1.734739529104709424e-02,-1.687941561439421784e-02,-1.543411843052644103e-02,-1.290024512230773801e-02,-9.468811744867444355e-03,-5.113283187521538813e-03,-1.107111972300196118e-03,2.950869061741008634e-03,6.851035412127743501e-03,1.013758967340520380e-02,1.326879275083373347e-02,1.566034012557170063e-02,1.749477638925271694e-02,1.902681698822895201e-02,2.024631526211298493e-02,2.117424826346317804e-02,2.198840672118191134e-02,2.266377659848086215e-02,2.322602084218061691e-02,2.365911643404641426e-02,2.392983031368136129e-02,2.404673708204908833e-02,2.402737048163480077e-02,2.376445217100328633e-02,2.342857313198147898e-02,2.256603034678331121e-02,2.113321964778934817e-02,1.910337931928961230e-02,1.695487199655012697e-02,1.554540556797723121e-02,1.146061867153902632e-02,8.960574165708947228e-03,7.611737039897949024e-03
-4.944824070813824647e-04,-9.290721478189214620e-04,-1.542092609559089084e-03,-2.979357258078425136e-03,-5.274903562709902169e-03,-7.297095490429109620e-03,-8.850003432649543311e-03,-1.026503658285820783e-02,-1.161614020879731674e-02,-1.232541798560360738e-02,-1.262400961133718254e-02,-1.294103031239915436e-02,-1.318040123719416840e-02,-1.327421845640558429e-02,-1.357581331486809595e-02,-1.404375815879877268e-02,-1.453343410658713628e-02,-1.465224019814674941e-02,-1.464458390569862295e-02,-1.464391541566740715e-02,-1.458435793753101208e-02,-1.490610290394388422e-02,-1.539846773743131295e-02,-1.596345694028517698e-02,-1.627041880241076807e-02,-1.637303694088438483e-02,-1.634737187589281604e-02,-1.609774970929244917e-02,-1.606925422792670685e-02,-1.642297358484219941e-02,-1.677710173083693870e-02,-1.644315257359985072e-02,-1.587995541565724589e-02,-1.554137905119987520e-02,-1.498160730449659903e-02,-1.436327713898187183e-02,-1.354736496957396549e-02,-1.253372998436612547e-02,-1.153120448190786060e-02,-1.074428782181477415e-02,-9.893011277631249753e-03,-9.073402948686439679e-03,-8.263604730125015049e-03,-7.485670497057520835e-03,-6.836153276596527127e-03,-6.273261953598590311e-03,-5.870486610491005251e-03,-5.718561404136831249e-03,-5.491119397294471662e-03,-5.065137301729411359e-03,-4.822438830349104651e-03,-4.247322653693077522e-03,-3.582081041876399030e-03,-2.350683598083307818e-03,-9.276210828219178363e-04,2.466395754435166707e-04,1.876128082255591138e-03,3.129131781037896957e-03,3.256841173644302399e-03,3.669983857644131854e-03,4.260367810395558098e-03,5.034093849292513821e-03,6.072062486870333578e-03,6.073864293567511445e-03,5.979488281390713499e-03,5.899663797196458455e-03,6.171457109620885270e-03,6.983797090805517541e-03,7.450294669682796730e-03,7.523174654296603536e-03,7.561043456595135763e-03,8.452796120731463289e-03,9.460402841103634358e-03,9.478092336679216218e-03,8.594638250704233345e-03,7.955571270501223674e-03,7.139935546561544319e-03,5.461094610246809353e-03,5.527787532516747863e-03,6.145397043097235341e-03,5.876416767675156708e-03,6.298379988826357384e-03,6.796894092098340612e-03,6.253105741963300816e-03,5.583848323317988464e-03,5.446265045356533246e-03,5.531060107030106969e-03,5.432953516708980204e-03,5.647533241305822266e-03,5.849308501287503806e-03,5.852352600828262912e-03,6.165114522411756399e-03,6.018447305262047964e-03,5.501496728215814723e-03,5.440866462255727551e-03,5.152214493610031767e-03,4.465019847306090500e-03,4.440698031028116576e-03,4.259575395182324184e-03,3.630400159826133871e-03,2.957197250528808587e-03,2.613868606885109535e-03,2.602026648246109474e-03,2.445695819760242661e-03,2.425626145952100403e-03,2.315584420395428410e-03,1.890641328130133504e-03,1.624676978402870035e-03,1.709373054005798673e-03,2.250213984290068761e-03,3.389372132778446095e-03,3.649674977986184978e-03,3.805943586411672259e-03,4.463438826212692140e-03,4.822115214981715671e-03,4.965651660494700345e-03,5.256334988633819434e-03,5.637566653965184194e-03,5.723182682112080630e-03,5.712005384687164969e-03,5.985048822452483479e-03,6.019701890813317774e-03,6.535961186650658325e-03,6.969688796114678446e-03,6.525393215711255274e-03,5.838984767073916726e-03,5.080543246740094367e-03,4.591504020872808414e-03,4.177226269736576854e-03,4.150345126022275677e-03,4.190101982784255781e-03,3.598953253733451572e-03,2.852516334559826276e-03,2.460356142201557302e-03,2.297867519421189098e-03,2.199870294905336733e-03,2.308764166006986411e-03,2.142299761179509467e-03,1.929866639955347962e-03,2.143775565782238875e-03,2.667644042806439214e-03,3.383990823328013754e-03,4.145407519447441916e-03,4.869351393533509660e-03,5.692712328741141026e-03,6.542952015909146712e-03,7.136980428109461309e-03,7.834594722507182835e-03,8.078949634649595229e-03,7.990510566651629412e-03,8.304354531880140527e-03,8.276182239888057318e-03,8.618113744477783403e-03,8.384214907318058435e-03,7.962168082032119315e-03,8.129413688572798002e-03,8.171889968119624287e-03,7.793026380864657293e-03,7.003297412187759960e-03,6.741645724021991769e-03,6.307889624678910713e-03,5.857152202788387663e-03,5.391056881048350569e-03,5.050109362897820843e-03,4.670768882893516598e-03,4.329925835444491458e-03,4.167831505882992928e-03,4.268905271861750915e-03,3.745127103355938829e-03,2.304214180140482134e-03,8.165365161463196712e-04,-5.320941532694507250e-04,-1.942368485178338350e-03,-3.242072637544892236e-03,-4.271242447576010723e-03,-4.952707636769877048e-03,-4.828596174056265164e-03,-4.698919277590192338e-03,-4.924182041770916625e-03,-4.975690917106404335e-03,-4.934997817336673163e-03,-3.783671700627648949e-03,-2.992819828330165605e-03,-2.598722104877231390e-03,-2.272132534681461057e-03,-2.049864051986663004e-03,-1.984791319943432931e-03,-2.314767815824402084e-03,-2.637757927125645909e-03,-2.489225388105759627e-03,-1.040282936216518602e-03,-1.111559668958009755e-04,1.001514268890450060e-03,2.169224345093257334e-03,2.773726151821653135e-03,3.723145354216908162e-03,4.136368841476811484e-03,5.192096071188149337e-03,6.649248984587022987e-03,7.964366354738782253e-03,9.027792267330560227e-03,1.001840063121080260e-02,1.147471053022667414e-02,1.356341829814724717e-02,1.550277405532447111e-02,1.740402190936669868e-02,1.983745625503870874e-02,2.135158204496579240e-02,1.996675137152440979e-02,1.831380204930647612e-02,1.678910137746314479e-02,1.463363978563126354e-02,1.281087285773082132e-02,1.177708289311742845e-02,1.242644748302881852e-02,1.381481479773105127e-02,1.445795358516609695e-02,1.585251102524642616e-02,1.627612521727174466e-02,1.660870151203142422e-02,1.569975263134607349e-02,1.275126937845725422e-02,9.884190292907815353e-03,8.094034811388916076e-03,6.950265323061627538e-03,6.332220443365878249e-03,6.675676820522712454e-03,6.940079357234605652e-03,6.863402917170345965e-03,7.629515790333798314e-03,8.245904146547692465e-03,9.045591641825152449e-03,8.677678187097734308e-03,7.546712551489240250e-03,5.887667430904748589e-03,4.306070607539786224e-03,2.179738216812998619e-03,-3.509749810135834552e-04,-2.860777379597114704e-03,-5.490921216980758184e-03,-8.368774187750756613e-03,-1.042264507946602178e-02,-1.321783427191627544e-02,-1.608835430165856187e-02,-1.859343067514715106e-02,-2.049773645340043429e-02,-2.218799091118538874e-02,-2.328043056301402555e-02,-2.376715213287235867e-02,-2.376016649139652687e-02,-2.287058992727735232e-02,-2.213998745476587759e-02,-2.122710616893266899e-02,-2.035276138575282945e-02,-1.910552407024762936e-02,-1.743018351773169966e-02,-1.523775324946758866e-02,-1.263567507245310327e-02,-9.888294871584490942e-03,-6.897287960651725044e-03,-4.095133960348592249e-03,-1.559616560819149797e-03,7.278166218511278275e-04,2.509439782288408124e-03,4.097425223228296116e-03,5.264396016060751866e-03,6.218203766430014344e-03,6.897702073694486624e-03,7.409693947013584053e-03,7.726647237027184888e-03,7.951081826191306809e-03,8.081252256883136864e-03,8.218944115899566583e-03,8.282452048064046710e-03,8.310234763961551682e-03,8.187372627731379082e-03,7.880653698228469450e-03,7.502459421344405063e-03,6.747591460363361847e-03,5.686921038515925855e-03,4.179600331438495901e-03,3.076683298262030287e-03,2.312300660528911721e-03,1.169437718534264644e-04,-8.464078530593965345e-04,-7.803012782478752161e-04
-4.170246015536162700e-04,-9.435508015223509088e-04,-1.483634282256080005e-03,-2.657590229889319859e-03,-4.724162231726699093e-03,-6.905406326019753946e-03,-8.951477957042933836e-03,-1.021807791436635769e-02,-1.125952913514673658e-02,-1.226601377478703236e-02,-1.325170307492944642e-02,-1.352803029756757293e-02,-1.343157997284716298e-02,-1.357434216978967330e-02,-1.352688812334039946e-02,-1.353837117068213032e-02,-1.363618762983239904e-02,-1.378023931310811724e-02,-1.386787887793001876e-02,-1.381998681803857203e-02,-1.392479325148769827e-02,-1.408502349675423530e-02,-1.446797927233087373e-02,-1.495010233317054828e-02,-1.542452778113441968e-02,-1.600836977089329510e-02,-1.600660461258919531e-02,-1.581515294916460354e-02,-1.611348814186450498e-02,-1.664640360716493003e-02,-1.665543092966752237e-02,-1.627550536309700299e-02,-1.593794800854906463e-02,-1.563257046898035990e-02,-1.518863382480505585e-02,-1.436588373981599435e-02,-1.356592859113008032e-02,-1.258049209328953623e-02,-1.144967917846745169e-02,-1.039949763234508315e-02,-9.839800260200351825e-03,-9.107293176924532996e-03,-8.325237636210989361e-03,-7.775768000566861404e-03,-7.106250462261015644e-03,-6.524325065864038271e-03,-6.243435704071738715e-03,-6.168226721847466093e-03,-5.899132184505247525e-03,-5.596055859158575833e-03,-5.056577764652551814e-03,-4.358555654084225219e-03,-3.404687942843836416e-03,-2.498016869780287329e-03,-1.635320984874363490e-03,-6.245786938576826635e-04,9.141417904267859149e-04,2.097560553597065374e-03,2.659876068744575391e-03,3.355389313566132983e-03,4.174925259473705880e-03,4.602927845291573429e-03,4.571373970693260250e-03,4.916452668401273540e-03,4.907399422218936685e-03,5.388567304339188756e-03,6.285970863669810248e-03,6.468773028424379748e-03,6.678525049333463789e-03,6.785750283859301631e-03,7.062990709834260708e-03,7.306446878255931816e-03,7.863335310142908693e-03,8.447371997742064709e-03,8.056548783498674107e-03,7.245493237651050300e-03,6.201050634224252595e-03,5.402166778381602141e-03,5.497538473064948056e-03,5.946326117896448722e-03,6.479693781157308020e-03,6.403852657131306643e-03,5.961540062076294173e-03,5.529176943684975878e-03,4.975948944990948343e-03,4.721169068741502828e-03,4.420909875073745880e-03,4.849995216563989138e-03,5.402822954920971990e-03,5.195122393663529660e-03,5.498244356680849140e-03,5.396179432615835596e-03,5.034882063835885435e-03,5.332829105677727721e-03,5.070592116929699064e-03,4.577920627736757619e-03,4.644987898920383169e-03,4.548151243952154761e-03,4.164197058192871219e-03,3.484289887600766980e-03,2.946189766147863567e-03,2.709848059498650742e-03,2.553127666974451017e-03,2.197389719281822584e-03,2.582858561428913718e-03,3.322985881489028126e-03,2.869147141247467992e-03,2.458064002300866784e-03,2.545270967157307451e-03,2.944449112336084470e-03,3.173219871053839427e-03,3.548510631489307406e-03,4.148751679487996252e-03,4.157673196502549226e-03,4.473448591727394175e-03,5.056351632606959599e-03,5.364177153469599363e-03,5.441055812508520731e-03,5.463272255789099890e-03,5.770014006464532427e-03,5.881295307527077514e-03,6.298574601310296187e-03,6.609570333837249886e-03,6.377442881539817365e-03,6.007212260885641704e-03,5.675095543354703037e-03,5.290722530420926238e-03,4.998480150140986907e-03,4.857297991928369307e-03,4.547663298126645298e-03,4.088552640428190152e-03,3.592236998744681095e-03,3.123458385103885376e-03,3.059330503465796259e-03,2.895776199568737049e-03,2.697659101710971497e-03,2.712016149933200223e-03,2.654162666300440444e-03,2.427494011790675733e-03,2.629416640835558969e-03,3.393726452623407192e-03,3.405846419785300838e-03,3.757441289055152463e-03,4.757412135595519981e-03,5.654976786434635222e-03,6.401643706141489296e-03,6.976296262615505617e-03,7.086476749256853148e-03,6.704809416154477140e-03,6.352924879622162679e-03,6.994532432977219535e-03,7.997737924478758725e-03,8.215487564406296489e-03,8.055017191613939379e-03,7.824704194012493605e-03,7.819345977428334565e-03,8.075877353256750643e-03,8.051323675948631256e-03,7.425504772269651312e-03,6.648035876653581380e-03,6.124555574266731667e-03,5.990925784554599481e-03,5.601077567419839726e-03,5.121793849111170617e-03,4.755189878200431590e-03,4.745719684745860513e-03,4.643391649454633487e-03,4.354021861506666806e-03,3.882808062538595142e-03,3.207464606777815641e-03,1.994019164308673958e-03,5.830092377883396926e-04,-9.039991531713830776e-04,-2.228163033567157753e-03,-3.190612730412717077e-03,-3.815841500292979725e-03,-4.036059126354798847e-03,-4.348233230433233218e-03,-4.189020996188510919e-03,-4.274088410755101479e-03,-4.368275204544608270e-03,-3.328976664684648885e-03,-2.562207703882385910e-03,-2.249283291812403593e-03,-2.182627486340859430e-03,-1.474578921944502989e-03,-1.663560215439019397e-03,-2.426307533661990843e-03,-2.551386936390299606e-03,-2.361344009464886370e-03,-1.011963751354915840e-03,-2.099446328793093917e-04,2.173822817909445960e-04,1.009719623930099711e-03,2.046662569526022570e-03,3.379983636906066114e-03,3.638707016156577951e-03,4.034827204039270233e-03,5.107821545094002290e-03,6.707944640702718717e-03,7.908266867345047080e-03,8.708209959788907814e-03,9.702840956575002271e-03,1.103548078542961226e-02,1.238132295903524721e-02,1.411579480104786441e-02,1.557616269462392365e-02,1.737413657190476149e-02,1.879107624360235734e-02,1.924020010468868724e-02,1.754483824395584868e-02,1.558377908325611107e-02,1.434361006936532394e-02,1.231198976448853906e-02,1.251898079929794627e-02,1.490576275620723173e-02,1.593961977801415172e-02,1.734953737924652475e-02,1.816862521802853347e-02,1.848720133852788799e-02,1.717905484207437813e-02,1.436107480970888646e-02,1.204650590643228242e-02,9.732544972230314576e-03,8.742791742224653023e-03,7.934358582488025557e-03,7.157573732537215322e-03,7.418495333620599673e-03,7.575021847632992800e-03,8.364110150654741407e-03,9.308551399201295262e-03,9.314728597964370277e-03,7.939725413174872695e-03,5.206623742346342884e-03,5.066119373719652451e-03,5.461361581829844367e-03,4.342146684872669714e-03,3.308330815480249685e-03,1.028398049840859117e-03,-2.159943304495708268e-03,-5.421016285952347594e-03,-7.246759412134831657e-03,-9.061474160838930633e-03,-1.165486885221364566e-02,-1.426281400936019357e-02,-1.599532465193283931e-02,-1.743076767212430392e-02,-1.892677284299581347e-02,-1.991123377114612653e-02,-2.018809009156784934e-02,-2.023076303040813664e-02,-1.992841643150029818e-02,-1.970292651339438511e-02,-1.946566260401527346e-02,-1.845183399972433885e-02,-1.707699420448618305e-02,-1.456388500267513132e-02,-1.150936804270429395e-02,-8.036371857006525260e-03,-4.643456000852514906e-03,-1.163234135163314321e-03,1.997614369978401201e-03,4.815211077414068876e-03,7.082637546332406532e-03,9.014994980415476367e-03,1.051032468028452287e-02,1.167044789418220964e-02,1.260051270458579196e-02,1.338392558850543673e-02,1.400140200947968920e-02,1.453048128853022015e-02,1.492523083817333049e-02,1.519337094239849202e-02,1.534429925848264029e-02,1.535707621462528184e-02,1.524496557516091463e-02,1.486133005544450561e-02,1.444537427073479090e-02,1.358075182860635048e-02,1.242651686658544780e-02,1.067910112042628167e-02,9.143789235893002437e-03,8.069125453483750460e-03,4.995744783313518962e-03,3.440733953313819451e-03,2.906087913244819951e-03
-5.135137368177222338e-04,-1.126041561735555141e-03,-1.776656008198170813e-03,-3.178403197459735412e-03,-5.830878616426287027e-03,-7.894902831354662712e-03,-9.556149126527850590e-03,-1.138513356072543524e-02,-1.231143658681247040e-02,-1.282344946076881959e-02,-1.338076040267883147e-02,-1.328509943439410736e-02,-1.367231230619750555e-02,-1.456368085322336074e-02,-1.472666616219349758e-02,-1.529223192015783175e-02,-1.602059167992311850e-02,-1.646520414530757911e-02,-1.651815124381024111e-02,-1.597929022180687858e-02,-1.602735539449873237e-02,-1.636095998672165014e-02,-1.660364428803458303e-02,-1.700879416997528801e-02,-1.724111705653851023e-02,-1.695569592114122559e-02,-1.631413063281259707e-02,-1.576538669426816308e-02,-1.593856885335196566e-02,-1.667044387657687018e-02,-1.689608489516296677e-02,-1.675011743527143881e-02,-1.646490226139566901e-02,-1.588062266073915832e-02,-1.529028914481459986e-02,-1.447828222388764310e-02,-1.357390791351226027e-02,-1.262132904774716964e-02,-1.142096718805454651e-02,-1.026160819677027734e-02,-9.381744371341099384e-03,-8.612847888170179628e-03,-7.713143902084769292e-03,-6.647477138716398337e-03,-5.400549978975166705e-03,-4.860781316680399568e-03,-4.967626978139251179e-03,-4.514477330417201659e-03,-4.073294505259907571e-03,-3.809356827735069576e-03,-3.815080253312708690e-03,-3.280759366650403894e-03,-2.213457493808009512e-03,-1.711280378268569165e-03,-4.457609475544116310e-04,8.830371282541720759e-04,1.566770263413398397e-03,2.466524716234079744e-03,3.362072831969091079e-03,4.026414048246600152e-03,4.120565493439413973e-03,4.362200508022121004e-03,4.736967047917488467e-03,4.971560313760808002e-03,5.957529583643674659e-03,6.347050477795508801e-03,6.153306740310674622e-03,6.270566066750660542e-03,6.655862739439627820e-03,6.594353845802885042e-03,6.476958095511056203e-03,6.853274828275485869e-03,7.557806454787176047e-03,8.615985509242470725e-03,7.784861623422593621e-03,6.862705844931655218e-03,6.770088223931109393e-03,6.084822465487671125e-03,5.620273907547372605e-03,5.852246195009659646e-03,6.134897187114655634e-03,5.670500202561499885e-03,5.722464350734013036e-03,6.065932799948964282e-03,5.748812909243081713e-03,5.713438596167478602e-03,5.665969493605536519e-03,5.126345279268049691e-03,4.967073471289909677e-03,5.397914572151467014e-03,5.953442201910393548e-03,6.222515144096115759e-03,5.958881994880426379e-03,5.520990333939641490e-03,5.160902036132384609e-03,4.886785420304100812e-03,4.514228153832064612e-03,4.233618349235776339e-03,3.861728553708485348e-03,3.494674079161475249e-03,3.336868338509149309e-03,3.314692743290729039e-03,3.378617391760590106e-03,3.508583409879158840e-03,3.074873730821023592e-03,2.811273345508336768e-03,2.801220901955906763e-03,2.422924769032135627e-03,2.592745610422686389e-03,2.831074687997298719e-03,3.335409413397686425e-03,3.946906289625096501e-03,4.441406360436175003e-03,5.133294160755385617e-03,5.117656504967106265e-03,5.268202046526878311e-03,5.391727526762609898e-03,5.378358400275608416e-03,5.784275643476001830e-03,6.251272646029305997e-03,6.428546915736152098e-03,6.692606125805311730e-03,6.980604212839031618e-03,6.820930066234473857e-03,6.595009370478863500e-03,5.905386484824159433e-03,5.319569615026296938e-03,5.135617313218365614e-03,4.869032598544461091e-03,4.716119391655348297e-03,4.431798430018579586e-03,4.020923667658491893e-03,3.348596086312181485e-03,2.944017738003562503e-03,3.080435808016818676e-03,2.801837224177969321e-03,2.446082266814530570e-03,2.644584356485388255e-03,2.799680834331829456e-03,2.751256174925855152e-03,2.971965159401263479e-03,3.139740324839052164e-03,3.922683682891954515e-03,5.367486152890057691e-03,5.886287046865125959e-03,6.032389179611068186e-03,6.325470752200991302e-03,6.560224509171212921e-03,6.553028692086375860e-03,6.834294268682263376e-03,7.558575202948118917e-03,7.545130055757747096e-03,7.898941413643107215e-03,8.392115839339334485e-03,8.646248680587935442e-03,8.870665138859456719e-03,8.669915843065405942e-03,7.940462727641359186e-03,7.574660259264664845e-03,7.100330585401963199e-03,6.530731656751558208e-03,6.364421464808631135e-03,5.879431645127873064e-03,5.721164989723040439e-03,5.380097861136734320e-03,4.831851257111528103e-03,4.811839316897849154e-03,4.828482156896766672e-03,3.953788255649260189e-03,3.233346019755686026e-03,2.109013182459784121e-03,8.256410833875614010e-04,-6.308091561827346844e-04,-2.369826308823534244e-03,-3.259148526779278091e-03,-3.735637359673553946e-03,-4.419290876839238567e-03,-4.656627235749933452e-03,-4.329566855198038224e-03,-4.529224713353091972e-03,-4.806191767142071677e-03,-3.556110030928642373e-03,-2.563357484737705319e-03,-2.129982803993177472e-03,-1.791622489985764295e-03,-1.329839257495731529e-03,-1.402021317539059756e-03,-2.111945000168027539e-03,-2.398889323789264033e-03,-2.009781771534646915e-03,-1.690941660614834162e-03,-9.959422944893501009e-04,1.435271450686501906e-04,1.254850691277194404e-03,2.115642391591930800e-03,3.045240659928433354e-03,3.941354117964333825e-03,4.778056059199740739e-03,5.115425967374693204e-03,6.711468420090251595e-03,8.004593877930668219e-03,7.877094123147394475e-03,8.626942318750423916e-03,1.033680855530676179e-02,1.200318431997243404e-02,1.330311921412377293e-02,1.464955152528880922e-02,1.562915490744295685e-02,1.584837342654235245e-02,1.508848862505049286e-02,1.496063892908722562e-02,1.591666349813975270e-02,1.534505799563098960e-02,1.416366379820519113e-02,1.379092415071346035e-02,1.390574399631910527e-02,1.467224278339670542e-02,1.699353804672201762e-02,1.942076283558814842e-02,1.890660983184856009e-02,1.609898762639925401e-02,1.333597551256026151e-02,1.055780974561155473e-02,8.367309101045560665e-03,7.391026288371231601e-03,7.113813784439718992e-03,6.606811511401590974e-03,7.236050003250444999e-03,7.996598253069127013e-03,8.548473790575208606e-03,9.159912042060293705e-03,8.960306199833035015e-03,7.800803722341969476e-03,5.752762770262979941e-03,5.243124918365355165e-03,4.558376326950592736e-03,3.464395871807493706e-03,1.390510141962162478e-03,-1.721222043944403571e-03,-4.973453525838083221e-03,-8.163177365992533782e-03,-9.704117759239815066e-03,-1.230267130842888079e-02,-1.510969841937833021e-02,-1.795754159281672327e-02,-2.021411365833351154e-02,-2.201186049078299872e-02,-2.353256057631763695e-02,-2.422440246390458740e-02,-2.391006641913655945e-02,-2.308577747760423571e-02,-2.170511227011158797e-02,-2.009362361624516743e-02,-1.838899597625126558e-02,-1.642657099179693422e-02,-1.427501782265596514e-02,-1.173053315634792551e-02,-9.152935077854503290e-03,-6.245404490068389054e-03,-3.501196347702950455e-03,-9.971278791518455031e-04,1.307441300821782747e-03,3.387584506302098245e-03,5.214460903296385362e-03,6.708510302844338143e-03,8.045833997714007396e-03,9.058609518758024837e-03,1.001433101853265242e-02,1.079094206901460087e-02,1.151597127335217061e-02,1.210175707182825980e-02,1.246532099196851276e-02,1.269278585923253565e-02,1.271338625575826192e-02,1.255444026274429858e-02,1.218585736361996880e-02,1.158923390415093381e-02,1.093115128654527715e-02,9.859720762424036000e-03,8.499009349299237182e-03,6.772095228205847126e-03,5.348589468193544645e-03,4.479952905736804721e-03,1.839201788193378781e-03,6.406556701126956506e-04,4.772754961929459843e-04
4.379945419668606395e-04,8.856102790266240712e-04,1.475229023726977408e-03,2.882598757317477063e-03,5.313245654403368594e-03,7.830116237255543149e-03,9.438612265824491629e-03,1.064680371162912871e-02,1.195770186274279674e-02,1.303268749262914521e-02,1.368750633084597941e-02,1.355734108763791655e-02,1.329922743513600562e-02,1.372980731848690711e-02,1.471233048697437318e-02,1.549192910553758538e-02,1.533077654270264406e-02,1.517164806093247720e-02,1.572253104102576404e-02,1.600296598650331747e-02,1.626336895056921736e-02,1.650917418306825299e-02,1.689692129808492010e-02,1.710339845682697785e-02,1.689564819346280750e-02,1.648070621523981677e-02,1.610776647144252297e-02,1.588757784509730805e-02,1.579900137686793618e-02,1.653062023073853179e-02,1.717212018158311912e-02,1.718202652478507259e-02,1.687133741579014551e-02,1.633306325786310423e-02,1.536845869529386566e-02,1.464456513273527070e-02,1.415405978452315312e-02,1.310178161845299179e-02,1.176504651437655126e-02,1.071412466283740324e-02,9.640134056706909857e-03,8.522899666325189916e-03,7.776749957389227259e-03,6.872751847138248299e-03,5.960283449562938339e-03,5.299582599593745044e-03,5.127140949818263620e-03,5.140312078703483147e-03,4.876068360390732777e-03,4.747799318385788683e-03,4.375681389962775801e-03,3.685693637517930242e-03,3.060269334644550795e-03,2.503873818730485527e-03,1.422624041556611171e-03,3.514303013174917517e-04,-3.217182800412169124e-04,-1.655644721334186345e-03,-3.102319744838709457e-03,-3.322597740971055397e-03,-3.689657340626783123e-03,-3.858501242162629217e-03,-4.244153004981839235e-03,-4.512068111443670419e-03,-4.223595767932504172e-03,-4.657953380288207441e-03,-4.675091155567563314e-03,-5.152335301109070044e-03,-5.494072913836117039e-03,-5.950140347731308621e-03,-6.075456049834495817e-03,-5.806750954769977768e-03,-6.347224899767273110e-03,-6.924473571207910398e-03,-6.804260745798805868e-03,-6.443720445469198858e-03,-5.764103378389721921e-03,-5.671831430213406140e-03,-5.969607249091666602e-03,-5.810786447420814883e-03,-6.831334245161410808e-03,-6.663052543374517293e-03,-6.044276182056954050e-03,-6.400423744768363871e-03,-5.896264073486966531e-03,-5.123227059932592906e-03,-5.494269645898931971e-03,-5.614849850384399932e-03,-6.116721599414511393e-03,-5.770858646256330805e-03,-5.395211433692179842e-03,-5.405192419036220289e-03,-5.303690036892173137e-03,-5.859117422602064945e-03,-5.833638476864138819e-03,-5.371420724848055724e-03,-5.523105660545062599e-03,-6.315468877883785061e-03,-5.766353455971148963e-03,-4.697589651011719637e-03,-4.678856907707929988e-03,-4.061396649907716289e-03,-3.210922969842962185e-03,-3.312278048175894794e-03,-3.687409633943447215e-03,-3.848058904337249304e-03,-3.624704032389917865e-03,-3.371184789628561048e-03,-3.079318670211003608e-03,-2.974393705804988328e-03,-3.537879175879703880e-03,-4.569267351694303141e-03,-5.368712383912814176e-03,-5.157033346482749712e-03,-4.910257054059877571e-03,-5.446798268698849720e-03,-5.936074837893520577e-03,-5.572098945690994419e-03,-5.775382668071498207e-03,-6.693187225963172400e-03,-6.920513414643311538e-03,-6.945631547984076372e-03,-7.554404590981863947e-03,-7.574847012426713308e-03,-7.283365304991206747e-03,-7.366631900653334251e-03,-6.788077339297317672e-03,-6.370476460193368572e-03,-6.001455482373972521e-03,-5.444090111447260662e-03,-5.066994313113343425e-03,-4.695363109375192204e-03,-4.462759611922799061e-03,-4.206958780996409263e-03,-3.799212824725427869e-03,-3.869738845990582446e-03,-3.870140714935513346e-03,-3.109092307864215823e-03,-3.274350774496389421e-03,-3.787517596377595105e-03,-3.942853625258861683e-03,-3.677355013465756061e-03,-3.929106931698992181e-03,-5.412119018884266504e-03,-6.692478557304041425e-03,-6.944075539873547850e-03,-6.448057684009422981e-03,-6.920736726425135571e-03,-7.188349523353216794e-03,-7.181572126364782135e-03,-8.118672474408590925e-03,-7.985863907892354341e-03,-8.091264260533709979e-03,-8.987605202475849528e-03,-9.207448030559691951e-03,-9.710430284289507663e-03,-9.627310819267214867e-03,-8.930553986159913207e-03,-9.092864240100292927e-03,-9.180010800966500323e-03,-8.307558264475748203e-03,-7.014750354837447771e-03,-6.270719078590605497e-03,-6.192344601701705621e-03,-6.033402730743404364e-03,-6.367192360907463454e-03,-6.175433405984824889e-03,-5.629979841359111087e-03,-5.159614863122221999e-03,-4.577452282840894886e-03,-3.216930656871647577e-03,-2.326490665484686957e-03,-1.115072702606805357e-03,3.598693563724202548e-04,1.161768406417737660e-03,2.573407414307653934e-03,3.217045979533819048e-03,2.939663320168565616e-03,3.357396070883881568e-03,3.517647409294373615e-03,2.701117488690390079e-03,8.368901014122600646e-04,1.791602753600879069e-04,1.377198284884493000e-04,-3.796038235507058115e-05,-6.622044701324158577e-04,-5.709736984447355427e-04,-1.210181063660595275e-04,7.060533268885158193e-04,1.033627921615605299e-03,-4.613463800208784374e-04,-1.076240137252900677e-03,-1.372510658422698053e-03,-2.140955403210188270e-03,-2.668616874154726860e-03,-3.569254896414657784e-03,-4.601209269074654253e-03,-5.959442623920755897e-03,-5.999127516142791633e-03,-6.325730387251389704e-03,-7.789463937228948906e-03,-8.381412899765287861e-03,-8.358605380358456391e-03,-8.886262887673097161e-03,-9.539094583920595602e-03,-1.069360403513710395e-02,-1.291916353375494736e-02,-1.483832202535004426e-02,-1.577863054337512450e-02,-1.701254929196330951e-02,-1.682031913397007833e-02,-1.555946031394557331e-02,-1.418384703928896214e-02,-1.252336460431297156e-02,-1.364536074591117185e-02,-1.603870523195840767e-02,-1.771075321089084914e-02,-2.115975060607737032e-02,-2.131087151311092040e-02,-1.967207247557614322e-02,-1.732710124725273318e-02,-1.375013202510255717e-02,-1.108437643257453517e-02,-1.057894209260227571e-02,-1.228811260033067787e-02,-2.050287268944356658e-02,-3.863324177731750769e-02,-8.461312694010048041e-02,-1.052780265693494116e-01,2.570793294211852140e-02,4.473852808765496070e-01,1.358362310432651210e+00,2.465730902572038197e+00,3.170463633611555920e+00,3.036395601045101866e+00,1.888905559879461071e+00,4.721968942581041828e-01,-1.705976364462274686e-01,-2.069901573362238067e-01,9.185341344470929204e-02,4.411276438925080812e-01,4.670851320707415377e-01,3.377590692304243136e-01,1.740684196956664431e-01,7.102768414601300095e-02,2.401232408520027201e-02,1.986859978385126929e-02,2.214542322406223840e-02,2.272803008458550503e-02,2.485416167533427423e-02,2.585650240451445661e-02,2.676837564547608281e-02,2.780500511878457315e-02,2.852812944943894022e-02,2.889656695918230156e-02,2.969835351586607580e-02,2.902597250240332438e-02,2.748800493437561152e-02,2.530211007395756495e-02,2.283835164423378070e-02,2.015880437493685826e-02,1.765373070846871714e-02,1.521660981494399149e-02,1.320028042805986186e-02,1.157116962982198370e-02,1.024425667340988187e-02,9.143950936526949388e-03,8.287603243395580757e-03,7.496732053488128732e-03,6.837916488335304792e-03,6.338551787704483666e-03,5.905912754112657009e-03,5.686220958179251730e-03,5.652633965664168210e-03,5.753180719611002830e-03,6.001468943747360896e-03,6.437832827110883359e-03,6.979655566611353730e-03,7.795415435724887578e-03,8.918901375400788492e-03,1.086859310403992356e-02,1.123026267218425918e-02,1.124886594003206113e-02,1.232591104606095556e-02,1.166533279372353703e-02,9.641170605184583992e-03
-5.544484943128948984e-04,-1.236376340437448599e-03,-1.824898734502502368e-03,-3.408231948765852188e-03,-6.216640511440816620e-03,-8.630378871061343896e-03,-1.058644138557833340e-02,-1.192454905202718421e-02,-1.349684641487200291e-02,-1.448403307620062426e-02,-1.471965871476553153e-02,-1.483691203788065766e-02,-1.489970517594565828e-02,-1.496133422128415394e-02,-1.555311244340635418e-02,-1.621475380218544149e-02,-1.606676987559442493e-02,-1.586784978363959403e-02,-1.574859353702920753e-02,-1.578942450101861877e-02,-1.586465024972591453e-02,-1.588064881374621345e-02,-1.637851448137383342e-02,-1.699937362071892236e-02,-1.717363127425421479e-02,-1.727449767708960637e-02,-1.709570733907488094e-02,-1.704820153442592606e-02,-1.744319150832211729e-02,-1.795076344433152102e-02,-1.803436429700454313e-02,-1.772315851224584918e-02,-1.736901267640563948e-02,-1.692029900427178407e-02,-1.646141554289533293e-02,-1.566002365831190013e-02,-1.480037889537580940e-02,-1.375672429214867820e-02,-1.250409720351905452e-02,-1.139921890356077050e-02,-1.032885409614391417e-02,-9.748379734283801890e-03,-8.907213939324689841e-03,-7.786816975833337970e-03,-6.968885143997472116e-03,-6.490933788557723405e-03,-6.608136580913102909e-03,-6.423487074953012840e-03,-6.082826162790813326e-03,-5.423541775998894088e-03,-4.902486103262953046e-03,-4.496716075584062007e-03,-3.880441936891551417e-03,-2.402112246312770177e-03,-1.117710520679227873e-03,2.269594308978881104e-05,1.641729733280828610e-03,2.513316413388418796e-03,2.793330883148043096e-03,3.236766291341721443e-03,3.387216136263345410e-03,3.646374707950337211e-03,4.314548809574940587e-03,4.795623469156029724e-03,5.880203210041200224e-03,6.145373925406595952e-03,5.927849533179473454e-03,5.803183428675400685e-03,6.055993263647133605e-03,6.860894941326110136e-03,7.286160048586553042e-03,7.794741733650246453e-03,8.250988467206855567e-03,8.224957143108894281e-03,7.488104339258470910e-03,6.773123525370234981e-03,6.599164475561436830e-03,5.540572650587691911e-03,5.215871526988028264e-03,5.969344969664835097e-03,6.521398962509447443e-03,6.474834557793253051e-03,6.156206765327206995e-03,5.665861496999567704e-03,4.559207714692378212e-03,4.292235870544317336e-03,4.483206802158844553e-03,4.773851650082833013e-03,4.973677844676167685e-03,5.352514531132621448e-03,5.469265890756762685e-03,5.415943130218534192e-03,5.551596494029258262e-03,5.049536646841933617e-03,4.690522528345829681e-03,4.456084961779663636e-03,4.371970025641040702e-03,4.399797915529695021e-03,3.982830268031602693e-03,3.406811608568294323e-03,3.120952938185158655e-03,2.565224514395128986e-03,2.408232632095486797e-03,2.696748607713302538e-03,2.407702420683761543e-03,2.469676092725071187e-03,2.740647483395850393e-03,2.482306807035940342e-03,2.339548034333027195e-03,2.870644990029971085e-03,3.305049124159989589e-03,3.519680405635871104e-03,3.930746449383307195e-03,4.672325662902750663e-03,5.020961768161966328e-03,4.870947181352029351e-03,5.054624367576980755e-03,5.572557897060431698e-03,5.981525645405976616e-03,6.044016640392098003e-03,6.079400649088967899e-03,5.860301547340816819e-03,5.957074573620544863e-03,6.480036957651637460e-03,6.653345631390862082e-03,6.227827505387010902e-03,5.461630914498158927e-03,4.842204659143887167e-03,4.517461421986221533e-03,4.278076427225638995e-03,3.902003793312856187e-03,3.658397032781781060e-03,3.426300745935353595e-03,3.017873990733408850e-03,2.805439506425114801e-03,2.812701206037475626e-03,2.400969605995770251e-03,2.425706988010662996e-03,2.943690388017660645e-03,2.963863749391927593e-03,3.185700042619487877e-03,3.595815153955261769e-03,4.041773671888989998e-03,4.872288632852983352e-03,6.137116282522506010e-03,6.943074498796822022e-03,6.887339514987183241e-03,6.906086243383530859e-03,7.187811409037439016e-03,7.240901664534573311e-03,7.943768375909515678e-03,8.581165688289083687e-03,8.720382983970613802e-03,8.607360416559864391e-03,8.547264983320866302e-03,8.355208431461529084e-03,8.097630131341678611e-03,7.984053793412848946e-03,7.841480107091658089e-03,7.261928986448191320e-03,6.397414068455104137e-03,5.850723551493903878e-03,5.230079767859975581e-03,5.210012701322428059e-03,5.110137997490474607e-03,4.945091258253366158e-03,4.631501258258662393e-03,4.096401790935969879e-03,3.564922981551723030e-03,2.788881106880709577e-03,1.633610782976536004e-03,3.579138635020806167e-04,-1.114674733675093078e-03,-2.382416085390678950e-03,-3.271099572450572156e-03,-4.149609987674485016e-03,-4.617879799596472448e-03,-4.304709704709774355e-03,-4.103957372874375564e-03,-4.508479497436867003e-03,-4.347084645936404382e-03,-3.066598982304706567e-03,-2.303908464705976735e-03,-1.756746738435162629e-03,-1.543119439168536737e-03,-1.323789269534459767e-03,-1.756894922346043022e-03,-2.260782790654910276e-03,-2.392350752271101867e-03,-2.237491994827464203e-03,-1.621003505527839408e-03,-8.953925952859230486e-04,6.768233922716505001e-04,1.926911855107885443e-03,2.684927918830779837e-03,3.891380220399361361e-03,4.409625617469785722e-03,4.890099742460197671e-03,5.804400033861841640e-03,7.369712554398755687e-03,8.860775582181857832e-03,1.032770495011796179e-02,1.161899511487943758e-02,1.233068103541183624e-02,1.365408219027488927e-02,1.519096752141765004e-02,1.749543772176149689e-02,1.994079330783077308e-02,2.019891167982269461e-02,2.016267126391746781e-02,1.910029150569839823e-02,1.715618616785513986e-02,1.533460710510232625e-02,1.401278990199460520e-02,1.345568492266105594e-02,1.387297658031190831e-02,1.411696076232617919e-02,1.498793786430774148e-02,1.641722298612867045e-02,1.678112185692342759e-02,1.576502911567528517e-02,1.317025132457403519e-02,1.026638934911961766e-02,8.272519250153863649e-03,7.358324768610336256e-03,6.826859752533689235e-03,6.502847171530561424e-03,6.648037695748298254e-03,7.474797725382384406e-03,9.031289644901749694e-03,9.334777040579408589e-03,7.783895229163094627e-03,4.985132902923397266e-03,3.319925452528097072e-03,3.282970244817229061e-03,3.976406183287906591e-03,4.172572350245355548e-03,2.563240118368428390e-03,-8.582440450756836144e-04,-4.205851618241777251e-03,-7.403429214452518677e-03,-8.732069958854001696e-03,-1.095196009368733410e-02,-1.339532552051120665e-02,-1.557613535645219205e-02,-1.718327466368484505e-02,-1.863587923247335409e-02,-1.980626200405105272e-02,-2.058625090353007406e-02,-2.081854234367591650e-02,-2.073619741682916975e-02,-2.072929180828797513e-02,-2.087421533268614404e-02,-2.082617601068927765e-02,-2.025250966521294216e-02,-1.969945329497240633e-02,-1.795597253178605329e-02,-1.539375610349557125e-02,-1.267392470844032684e-02,-9.556857353402758645e-03,-6.340256304643591447e-03,-3.559425175095866801e-03,-8.002649835559976811e-04,1.370757409475241483e-03,3.119326239486922871e-03,4.518360042274521468e-03,5.668416069898640601e-03,6.467013180102244504e-03,7.067036447382755472e-03,7.532098674102157866e-03,7.824594081758144345e-03,8.023503031815874126e-03,8.197768059548016933e-03,8.292025807071664451e-03,8.369818292930958359e-03,8.290574400920609419e-03,8.026709447742958956e-03,7.666970844515034675e-03,6.917280277772674263e-03,5.845257477994441307e-03,4.271005790816541185e-03,3.166990955558180495e-03,2.388462121906278959e-03,1.567464276847640211e-04,-8.160521753618763321e-04,-7.681750607150525162e-04
-4.541148347937096728e-04,-9.927331089958166960e-04,-1.596899744233086765e-03,-3.031279628899192276e-03,-5.413970803322495917e-03,-7.296314406109688337e-03,-8.923916284016340447e-03,-1.028565958964762668e-02,-1.124555579139077145e-02,-1.194336515306608677e-02,-1.235602485487128158e-02,-1.271670183206410204e-02,-1.271780310965344926e-02,-1.306852319353846159e-02,-1.369826081617297846e-02,-1.394555790092265497e-02,-1.410694188302304315e-02,-1.414952958104507240e-02,-1.412807875622618635e-02,-1.409742547016976100e-02,-1.399192088607574894e-02,-1.417594063049771452e-02,-1.454197523229542287e-02,-1.495651554215970958e-02,-1.558089776930459726e-02,-1.568813043373389407e-02,-1.530047503419525862e-02,-1.491613228810949147e-02,-1.506852734662482603e-02,-1.560749929188060339e-02,-1.582985048053296706e-02,-1.570004631875865017e-02,-1.549206133175196065e-02,-1.521820064297545010e-02,-1.469400646444474386e-02,-1.397065078590472957e-02,-1.334817209412633883e-02,-1.255078304806989641e-02,-1.134713206946288792e-02,-1.040281806080087593e-02,-9.725133374786372464e-03,-8.945244097413438192e-03,-8.318201928504926485e-03,-7.432683684179816792e-03,-6.175265926423428517e-03,-5.335279732129904508e-03,-5.261156068705657822e-03,-5.371232390591075198e-03,-5.278233358411054538e-03,-5.034687830005078052e-03,-4.558764683952025096e-03,-3.864862012882633053e-03,-2.936962106781824695e-03,-1.943786140273178571e-03,-5.829921173375579146e-04,1.046522556718139504e-03,2.295836287660627840e-03,3.352930244510830046e-03,4.075150172889967573e-03,4.458848506610557823e-03,4.659339534522872334e-03,4.880622265042705923e-03,5.066506923712087856e-03,5.718671486413071971e-03,6.601890908271124125e-03,6.616755958292279936e-03,6.691377814829210270e-03,7.411461928634717998e-03,8.351985617337480752e-03,9.482138268330978295e-03,1.052553288938777240e-02,1.081177700126211352e-02,1.000771931578258236e-02,9.099115706326431005e-03,8.142004799215389610e-03,7.098263192325692320e-03,6.377288187302218928e-03,6.485781422060877058e-03,6.917679161404529861e-03,7.352344769804614391e-03,7.594949259039081128e-03,7.262896857094759337e-03,6.489569341423869799e-03,6.270542346179977522e-03,5.759812529768935756e-03,4.693645979514854405e-03,4.614529433398627777e-03,5.228006906120418601e-03,5.569290723652239872e-03,5.961820747492951704e-03,6.345136755546009789e-03,6.120189919913250447e-03,5.521653593395326430e-03,4.895875103449291721e-03,4.706826914629366060e-03,4.687723264409465219e-03,4.592075085535463411e-03,4.406006201619733567e-03,4.144702888684043997e-03,3.589074853963328694e-03,3.079776569620234442e-03,2.858515669519485700e-03,2.534556046080522953e-03,2.308833828273064437e-03,2.302025062206608866e-03,2.271757224794917606e-03,2.329848903215249803e-03,2.497855526784609204e-03,2.617407416571259672e-03,2.786239835411535339e-03,3.247995305508063774e-03,4.131865684602575341e-03,4.641636013770331429e-03,4.715117532151116148e-03,5.113250134113143074e-03,5.316049510032563701e-03,5.731054419664429259e-03,6.253693923977923959e-03,6.522818819991989779e-03,6.960633899737058219e-03,7.106690244247111828e-03,6.953212116747956202e-03,6.712190345349026976e-03,6.712355723140559297e-03,6.391153746368810618e-03,5.909468785133002201e-03,5.308462765448831826e-03,4.442053672368310828e-03,4.369972410684271925e-03,4.548894537912835309e-03,3.922482665562871014e-03,3.157826561959836166e-03,2.739757856601750686e-03,2.903816079115317198e-03,2.590194834538321784e-03,1.994982430924288619e-03,1.914771683870949677e-03,1.936479549254235258e-03,2.042852110800398753e-03,2.319932002141439614e-03,2.723596492737516590e-03,3.451917526001584396e-03,4.587071241102012344e-03,5.207266658521242202e-03,5.992987240625654785e-03,6.985825533548267394e-03,7.345430522874133762e-03,7.534489721837601961e-03,7.743746418954295004e-03,7.977361462899955000e-03,8.885303621484900646e-03,9.291348200893676315e-03,8.855355707691794573e-03,8.345529209748053096e-03,7.881275371015057304e-03,7.935677279385917535e-03,8.336980745549359140e-03,8.332553644435990170e-03,7.985767687123194666e-03,6.797237776768471837e-03,5.690913349484806247e-03,5.331537631866190355e-03,5.000103615853174546e-03,4.866223886562310794e-03,4.674803130136212515e-03,4.509111585635258712e-03,4.252007537884237506e-03,3.864715047402670668e-03,3.054318765437108972e-03,1.606158112632966647e-03,1.939708893273275610e-04,-8.739576648071603528e-04,-2.553140041268333552e-03,-4.176687559130396604e-03,-5.147838043806043061e-03,-5.756390691364889935e-03,-5.912737971849664487e-03,-5.609069502252126554e-03,-5.522456121628961483e-03,-5.701646044886460318e-03,-5.866743391013848688e-03,-5.005511933122173962e-03,-4.168742961638747385e-03,-3.627367325837545144e-03,-3.341318106067274561e-03,-3.180966227416198201e-03,-3.496867006640140552e-03,-4.009643157832986499e-03,-4.399077701752769111e-03,-4.333777011089733761e-03,-3.150350617219369910e-03,-2.385050377694818667e-03,-1.542951290424003077e-03,-7.459770582903752292e-04,6.506198718832917598e-04,2.233072545573951909e-03,2.903256357636649354e-03,4.045292188888658866e-03,5.189990962175925968e-03,7.433696726066883753e-03,9.085291627389942629e-03,1.049476126719772924e-02,1.249194511423413340e-02,1.427402529891537257e-02,1.560764925848469840e-02,1.676349367241151966e-02,1.820215341699189457e-02,1.997145585225455419e-02,2.183896930754055873e-02,2.214226534473795124e-02,2.006316905061220762e-02,1.788732953039957885e-02,1.541230481608872604e-02,1.315186216616320673e-02,1.254220769902899754e-02,1.418986119689657176e-02,1.619962240379154220e-02,1.726191344740688263e-02,1.689181211086788342e-02,1.495792237103262673e-02,1.221233969126668019e-02,9.508546768650734740e-03,7.736122809338669658e-03,6.457026649609461967e-03,5.367758830902740960e-03,5.002810130258513073e-03,4.727752641912268128e-03,5.274690997692363034e-03,5.926804093206330601e-03,6.830284081045620570e-03,7.706365104119121921e-03,7.908467474827688207e-03,7.315997013057563142e-03,6.804031552435024256e-03,5.165005425920922953e-03,3.844550025674880588e-03,2.104701529402412587e-03,-4.936779816631074475e-04,-3.320402426309042830e-03,-5.855056244769911780e-03,-8.264987294437795007e-03,-1.024067242505437986e-02,-1.320347916161499977e-02,-1.612127063411486483e-02,-1.899487666301585831e-02,-2.128043926836268099e-02,-2.322645233640269896e-02,-2.492486642631265917e-02,-2.555345353193007665e-02,-2.542127600578858101e-02,-2.476219331975809679e-02,-2.340431678602999249e-02,-2.191193591022339709e-02,-2.028525766060862087e-02,-1.840219741491394903e-02,-1.655623551588880638e-02,-1.437768398727033541e-02,-1.206665599534274304e-02,-9.966113809862646097e-03,-7.821586415584464574e-03,-5.917887482024590529e-03,-4.182570075288783926e-03,-2.763158964011789166e-03,-1.664183465995515681e-03,-7.170704059635530205e-04,1.660993039128922852e-05,6.223665562842104924e-04,1.116678740570455075e-03,1.500391439854336555e-03,1.804595069658572297e-03,2.008933558476478243e-03,2.146381195407814219e-03,2.268315094026377311e-03,2.376727920591713891e-03,2.429081927681159356e-03,2.320482472803950952e-03,1.997634719601447308e-03,1.516948303915830604e-03,8.106940674608661447e-04,-1.542749476612138859e-04,-1.486875620489564592e-03,-2.211714684440460078e-03,-2.611473782456625106e-03,-4.178498787877337264e-03,-4.495529195976052071e-03,-3.890699717509226579e-03
-4.632874524040987729e-04,-1.025788688211090463e-03,-1.721803413668649948e-03,-3.155162439660107350e-03,-5.842629584107044208e-03,-8.046391243395132134e-03,-9.931497099237655488e-03,-1.142426032524544374e-02,-1.261468774879831098e-02,-1.357069401535188416e-02,-1.406831006937729091e-02,-1.436550104164280653e-02,-1.456950684750355982e-02,-1.466420235127968361e-02,-1.449991262584249610e-02,-1.422719398688445519e-02,-1.414111782620238074e-02,-1.412460175163080846e-02,-1.422964040281296180e-02,-1.423813633088562292e-02,-1.438394868589523701e-02,-1.458039238762344134e-02,-1.498397510411300648e-02,-1.557254860732099760e-02,-1.610201926533827432e-02,-1.633014097703652107e-02,-1.624429755145364446e-02,-1.622865423983868571e-02,-1.660899007586149473e-02,-1.679777603132976554e-02,-1.685084669333988816e-02,-1.661957648050881378e-02,-1.588178558275409394e-02,-1.540586971506940732e-02,-1.494057018857233680e-02,-1.415886049890020294e-02,-1.324299000006983612e-02,-1.249039091780709126e-02,-1.161775773582208147e-02,-1.073587827983736413e-02,-1.000434245927281536e-02,-9.265657056586752705e-03,-8.648106487735259321e-03,-7.896093818407489209e-03,-7.322734973725570674e-03,-6.715536709124865847e-03,-6.308388015986328423e-03,-6.156322127058469311e-03,-6.043348351991721830e-03,-5.861151165257857953e-03,-5.142749898463730776e-03,-3.694424389672610123e-03,-2.258120180565699291e-03,-1.380805966140954272e-03,-2.520641464345027387e-04,8.028410484317100243e-04,1.678358283913462638e-03,2.744834944523281018e-03,3.824335202169887923e-03,4.382777786017885355e-03,4.572100674019979535e-03,5.174664833510186912e-03,5.303872145263370183e-03,5.773308227945913446e-03,6.503629362661616370e-03,6.510116863337129904e-03,7.001909912491322691e-03,7.047467816954634118e-03,7.241686809488911448e-03,7.804424571402291712e-03,8.764864616555045548e-03,1.037019624935993020e-02,1.115481481587995982e-02,1.082664934904306424e-02,9.524691047768880925e-03,8.162289018694630569e-03,7.307396407955675174e-03,6.789456163622290333e-03,6.245335121612316867e-03,6.369365780137497234e-03,6.996496872751899881e-03,7.366113619693277249e-03,6.737247267182805421e-03,6.143237333142261350e-03,6.083669791229187954e-03,5.573131577001860619e-03,5.472779186104725913e-03,5.427900097283301466e-03,5.415492403158445045e-03,6.093914889605904321e-03,6.290468955286825786e-03,6.020599887795411581e-03,5.876153346494663102e-03,5.674697908342365114e-03,5.196493781027586301e-03,4.647100667198237993e-03,4.198150761796685948e-03,3.887385674010558883e-03,3.956022516437202909e-03,3.653798337261912176e-03,2.908783301352653623e-03,2.654207651448057832e-03,2.647757968325455125e-03,2.706889699675932293e-03,2.980663676560350427e-03,2.948898481852482104e-03,2.620847825972451393e-03,2.192122782210829436e-03,2.408160085303971687e-03,3.117671113867731027e-03,3.596143870583446474e-03,3.958473125064808015e-03,4.179066334446254923e-03,4.623612297199222732e-03,4.849412509752662817e-03,4.894786214084620619e-03,5.222568961475416126e-03,5.312888564156545250e-03,5.263412434271223447e-03,5.502774025164543399e-03,5.881148878574924722e-03,5.877768536338105233e-03,5.817907877894008990e-03,6.110251189170028303e-03,6.116427207208685775e-03,5.524228118397451516e-03,4.866968868300990299e-03,4.577049613331830337e-03,4.488449159057487058e-03,4.026198911737353947e-03,3.651740881010070126e-03,3.568684031697061127e-03,3.049143860372277581e-03,2.526376905151092415e-03,2.295981948262021313e-03,2.347558751244131162e-03,2.437049097310815381e-03,2.602524514306021105e-03,2.587613825584742823e-03,2.521857245275631147e-03,3.124113274182237221e-03,3.503996525031417755e-03,3.958587228499692648e-03,4.684559653690619462e-03,5.444204485036833845e-03,5.901123033464502309e-03,6.230509811423467006e-03,7.177752493024632321e-03,7.084876781336584342e-03,6.674366467992216313e-03,7.220657002103092123e-03,7.537778435101913019e-03,7.320803655891641205e-03,7.368268211293682070e-03,8.016592084868623749e-03,8.444624734187559240e-03,8.525903165569123990e-03,8.076750714651291865e-03,7.209666444576466778e-03,6.729416134980069873e-03,6.228510339240519826e-03,5.919355319787113733e-03,5.454862472021938455e-03,5.149092708523543734e-03,4.831831822196232945e-03,4.720234424867165123e-03,4.471607668712623308e-03,3.972050505572646655e-03,3.716053482200629230e-03,2.979404530871888283e-03,1.579203077009838771e-03,4.174269560576102339e-04,-1.255771982195522975e-03,-2.569358525477552415e-03,-3.499972523881623044e-03,-4.234102512624086413e-03,-4.311615390127720472e-03,-4.493794534261804675e-03,-4.416683555713377465e-03,-4.368444569672314502e-03,-4.392228564432995759e-03,-3.471319666272811282e-03,-2.821899957000872754e-03,-2.704860914910246859e-03,-2.563492610317669781e-03,-2.286107324955737995e-03,-2.203758008843011932e-03,-2.283755817499381283e-03,-2.612077598087469282e-03,-2.578890775287600527e-03,-1.553462243353548279e-03,-7.545786874482136950e-04,3.947203992830192881e-04,1.125217948337757685e-03,2.337523886812585810e-03,3.576452174581688879e-03,3.354530796067281204e-03,4.080913786024005681e-03,5.469121637830538785e-03,6.843457488301674975e-03,7.558322618250199430e-03,8.462833307602446453e-03,9.989896669102740073e-03,1.093785131249429450e-02,1.166551597272612317e-02,1.304509134713940748e-02,1.499565926760062368e-02,1.728921071989068456e-02,1.947005420486161431e-02,1.963770357459019775e-02,1.757336235298097640e-02,1.460308872897481992e-02,1.289434241595363226e-02,1.135616712224081851e-02,1.129841337558617868e-02,1.352155926864035372e-02,1.472164092321108508e-02,1.481833746786697346e-02,1.467786069419561683e-02,1.592009639234544596e-02,1.558822328286140792e-02,1.333257317370067051e-02,1.066068334575962819e-02,8.390646946987923710e-03,7.500922814414671264e-03,6.902949594614533196e-03,6.454645622411604201e-03,6.745068287713983611e-03,6.820077348417197781e-03,7.952759630376119576e-03,9.447930918618173066e-03,1.038803601507898820e-02,1.066706953689886342e-02,9.400447861103819469e-03,7.914902001888471719e-03,5.856706461750359888e-03,3.986489455335064970e-03,2.300972204491878378e-03,9.842012957479925748e-06,-2.502670545304389125e-03,-5.526457278201571399e-03,-7.435571230221855663e-03,-9.340467783514348754e-03,-1.157890005315149497e-02,-1.386942349339278027e-02,-1.535182850657182754e-02,-1.643024535005950526e-02,-1.720969705484896514e-02,-1.766222207041194189e-02,-1.802231209093817579e-02,-1.812769236353984140e-02,-1.821796631826696003e-02,-1.858102955158371164e-02,-1.872607850148136008e-02,-1.848818706913407314e-02,-1.776477985966025755e-02,-1.576946389793871042e-02,-1.294150682479997677e-02,-9.435762284763943644e-03,-5.924386364379753168e-03,-2.334183565813846822e-03,1.148309927729654518e-03,4.155181134224410211e-03,6.811132198157544317e-03,8.826546173547637417e-03,1.055796829174208105e-02,1.185866520357176795e-02,1.293268682380156048e-02,1.376640242996285575e-02,1.448806272272531483e-02,1.504898785366448957e-02,1.550863760591476674e-02,1.585918743548950932e-02,1.605115675853435731e-02,1.612882828517851058e-02,1.608028339616764807e-02,1.571378620016784453e-02,1.527389192062394985e-02,1.442410789438478350e-02,1.314609996367049893e-02,1.130931451710875772e-02,9.587676339686497518e-03,8.418647086081107109e-03,5.259186560355674951e-03,3.586648727656504936e-03,2.994139001624180219e-03
-4.948869333759696584e-04,-1.018922062683513992e-03,-1.668644962060509976e-03,-3.124555144763848259e-03,-5.526291214349921509e-03,-7.715096013393573857e-03,-9.315656012009175188e-03,-1.046084354403836042e-02,-1.178682634263185716e-02,-1.256262444353019835e-02,-1.291246904660074170e-02,-1.310140943134652410e-02,-1.331366593812533146e-02,-1.355968764452720847e-02,-1.370880701268082334e-02,-1.396075735776056669e-02,-1.414754745453807201e-02,-1.426101306492641441e-02,-1.430161882985670277e-02,-1.429336697358523159e-02,-1.455296770169642144e-02,-1.490344014528896012e-02,-1.502100222198711477e-02,-1.519742763740939036e-02,-1.560202733242801315e-02,-1.580799709246524451e-02,-1.559671716688930572e-02,-1.542290387750644073e-02,-1.532714521409100916e-02,-1.539669432669279157e-02,-1.555209897656027393e-02,-1.539893395031551038e-02,-1.519153185434361959e-02,-1.493289102060060998e-02,-1.443235542459864705e-02,-1.391226061996711331e-02,-1.314422005861583947e-02,-1.215684584657339591e-02,-1.126169405036880553e-02,-1.039615171170131178e-02,-9.585991958894460666e-03,-8.747025866879644743e-03,-8.000194001884333370e-03,-7.044064991120832162e-03,-5.975025356697074783e-03,-5.475590838905389397e-03,-5.369003368821576375e-03,-5.316961592797787677e-03,-4.744970836442930807e-03,-4.275230331098152023e-03,-4.512242613660625429e-03,-4.263823667995747177e-03,-3.306363573626901718e-03,-2.327013223795669668e-03,-1.324944926439664558e-03,3.417708831290226855e-04,1.531459627764259184e-03,2.730214059233143468e-03,3.891295169868820743e-03,3.793853101485364192e-03,4.008826042691432910e-03,4.605958071909921001e-03,4.796318704461744950e-03,4.975933297160722336e-03,5.798410870287120517e-03,6.172932202119620418e-03,6.012663794447849208e-03,6.193486969259891749e-03,6.535808658233518628e-03,6.794708222979214084e-03,7.170927472539466441e-03,7.876559076320330255e-03,8.115278616645345972e-03,8.011751831300062757e-03,7.203525278584961208e-03,6.248331993775660051e-03,5.826205625773244086e-03,5.645133120914907522e-03,5.773240124514460170e-03,6.096121258767821759e-03,6.671925509577568067e-03,6.946442579565306925e-03,6.547281330529767900e-03,5.944634307272331566e-03,5.542078207852618559e-03,5.201547049703750605e-03,4.936657641937803806e-03,5.060958214730693246e-03,5.387748994768265520e-03,5.493597109945320446e-03,5.335039888040987721e-03,5.736180690327606288e-03,5.999293008428144627e-03,5.528637313574009948e-03,5.233480915370599187e-03,5.011167820095454618e-03,4.718316214355617634e-03,4.554835286740408461e-03,4.161085072029911680e-03,3.598208003522660337e-03,3.269761805532547284e-03,3.016093307259539065e-03,2.733255310297069262e-03,2.360587226086400398e-03,2.307084296878157085e-03,2.809570110177493380e-03,3.066044481664069281e-03,2.869878798808085402e-03,2.689355507373905954e-03,2.579814102658989968e-03,2.993663250467900900e-03,3.783485682787301151e-03,4.338680807541572815e-03,4.503987178107259071e-03,4.767663944709081905e-03,5.009206923539495301e-03,5.144085445691847641e-03,5.476704352594022329e-03,5.752120060109311081e-03,5.840253749452045673e-03,5.857018266464907724e-03,6.216617361830443014e-03,6.539456797317725646e-03,6.672799277970266688e-03,6.511837065797954245e-03,5.840652126578246145e-03,5.145764181090805266e-03,4.793631597786390287e-03,4.592234748491492470e-03,4.417234046760685519e-03,4.095969214660627467e-03,3.480111320118224605e-03,2.990773936315792216e-03,2.725067394481036232e-03,2.414941931334955213e-03,2.215642430417664923e-03,2.141827344348849142e-03,2.265216117176284752e-03,2.251381534851015255e-03,2.306178258678481720e-03,2.584696348201356245e-03,2.943146024609849098e-03,3.894025882403906198e-03,4.851030035008266350e-03,5.890784323582913540e-03,6.678892535857756246e-03,6.985096364225225167e-03,7.090086249972608369e-03,6.859241057985507317e-03,6.820275033921222377e-03,7.643902524807991497e-03,8.471103444610071642e-03,9.107483572409234146e-03,9.721047639037689106e-03,9.350202660295641247e-03,8.599005574685642667e-03,8.125200323848417658e-03,7.837376016802321751e-03,7.063394782270740122e-03,6.266521544226304370e-03,6.076800667817652997e-03,5.916405324748565293e-03,5.398560795958962967e-03,5.141879052195123465e-03,5.030745963357164535e-03,4.764376678911446880e-03,4.385837072184366192e-03,4.192129596250478846e-03,3.647276871091647676e-03,2.770405529790542255e-03,1.249209414666890275e-03,-1.597441430084204478e-04,-1.701660701707371917e-03,-3.059534963477238568e-03,-4.061091447859922939e-03,-4.659144480041966727e-03,-4.688960878445219173e-03,-4.637718803167443886e-03,-4.567149873073208730e-03,-4.744435495140303730e-03,-5.050575807156367641e-03,-4.037489543170620469e-03,-2.783607060726465098e-03,-2.206225378591119852e-03,-2.094369581917946560e-03,-1.947402506848009297e-03,-2.174748909962403391e-03,-2.556623542944247776e-03,-2.912712755553688651e-03,-3.035333936054908800e-03,-2.065948120850209357e-03,-1.211023836913828044e-03,1.644468970764533270e-04,9.471033372316521376e-04,1.770196707048810698e-03,3.163534552912898590e-03,3.833315018158311559e-03,4.809099103003445022e-03,5.791603304355836743e-03,7.063700834444183903e-03,7.973167150519886240e-03,9.274352510519232387e-03,1.051726807596590867e-02,1.156276398168949553e-02,1.325277123831249820e-02,1.515260861192269624e-02,1.716870799421400112e-02,1.936823913629139027e-02,2.011170100477857256e-02,2.017361721599917820e-02,1.918067644780988359e-02,1.624540713191867380e-02,1.484854007445440653e-02,1.432024599315325983e-02,1.467438052740131608e-02,1.719441486426758620e-02,1.802288923769469753e-02,1.809018717563321346e-02,1.798428558508007036e-02,1.714388515182314540e-02,1.458543738699377874e-02,1.178785113854236878e-02,9.999284188526712247e-03,8.087518596616154187e-03,7.080012233534202504e-03,6.878468094870182452e-03,6.153017623290736940e-03,6.283847270924209673e-03,7.192287025418156628e-03,8.053488659927540705e-03,8.358141303822992293e-03,7.773023419679959620e-03,5.732943722801522521e-03,4.236593260807519981e-03,3.838384633630362829e-03,3.790358368759766394e-03,3.330168473597271746e-03,1.304388373121912132e-03,-2.485153116728275411e-03,-5.853097456014095222e-03,-8.786404689672806106e-03,-1.031457236887470957e-02,-1.280388901396233882e-02,-1.540989251299795110e-02,-1.782610548983570159e-02,-1.983732136087654890e-02,-2.173244114279450356e-02,-2.288718356916143865e-02,-2.346808763487862742e-02,-2.349589172322143205e-02,-2.282271350505907931e-02,-2.216562671499167081e-02,-2.127749680907675689e-02,-2.023690237600462086e-02,-1.889648010598174444e-02,-1.713820707972292870e-02,-1.493013242584899022e-02,-1.228442413444359380e-02,-9.540098621850526261e-03,-6.567150536742268584e-03,-3.781453848008888095e-03,-1.160663346407983824e-03,1.076133178347157739e-03,2.952820131338815789e-03,4.572572588370319921e-03,5.851225830564089556e-03,6.944116649522436881e-03,7.826559826390829325e-03,8.573945434898460477e-03,9.209021150452830276e-03,9.797900949243291621e-03,1.033010613593294061e-02,1.071593623990147771e-02,1.093871930638940469e-02,1.099808991602690099e-02,1.087821225763292363e-02,1.051436057950682311e-02,1.003800025384097086e-02,9.111463725808640821e-03,7.818463107847520299e-03,6.061693558317223993e-03,4.676494227871971082e-03,3.744648116544189390e-03,1.181751372588857969e-03,1.197096999337423115e-05,-1.145276993821853673e-04
-3.740606058652348872e-04,-9.815311879062967558e-04,-1.753135618791853978e-03,-3.185755526762083355e-03,-5.334148628238433859e-03,-7.410001387405907095e-03,-9.375451342763171936e-03,-1.060172802388363415e-02,-1.169159179397001244e-02,-1.281921479067380139e-02,-1.351808025097447907e-02,-1.374446857970911505e-02,-1.364761113940472781e-02,-1.366115820074719454e-02,-1.374045724213448713e-02,-1.367118034417517947e-02,-1.364123852594426728e-02,-1.366662310039722279e-02,-1.357612407160648828e-02,-1.328320802599010364e-02,-1.319758452378920824e-02,-1.359761912465400069e-02,-1.421375161593761705e-02,-1.469308439483783812e-02,-1.496774092864664764e-02,-1.486962206934234337e-02,-1.482784181852811814e-02,-1.488570479180528934e-02,-1.510413754820539960e-02,-1.555670356340837536e-02,-1.574991797967248072e-02,-1.566907155553268552e-02,-1.536608184204971313e-02,-1.488952527181972019e-02,-1.448961434516690162e-02,-1.389185725471978224e-02,-1.312317426884129085e-02,-1.258687414219671237e-02,-1.170899435535994321e-02,-1.055151440898224012e-02,-9.755748350725628945e-03,-9.490074390067177595e-03,-9.015853523491131408e-03,-8.135397070201671674e-03,-7.431510571759399920e-03,-7.085494511635227581e-03,-6.765951296302439265e-03,-6.599909527257424510e-03,-6.535744157156984924e-03,-5.925622200818891211e-03,-5.290194915954208113e-03,-5.051487809732861829e-03,-4.206500177117749456e-03,-2.768193987755716585e-03,-1.675618220035376667e-03,-4.548879841673079353e-04,1.181673139449347740e-03,2.492695706650162931e-03,3.566583674636681928e-03,4.314711754740750520e-03,4.471520140093888408e-03,4.594714557703357197e-03,4.951133517962332670e-03,4.873210745512337842e-03,5.222362420306754169e-03,6.214842737923069807e-03,6.513931019710132546e-03,6.573846141102920523e-03,6.867730963908782495e-03,7.155856830958398813e-03,8.154498616223566573e-03,8.293626020684041408e-03,8.585240305149543713e-03,8.811861241381384324e-03,7.749223619124903650e-03,7.086630064538624457e-03,6.612344661073070451e-03,5.703542223047999155e-03,5.650126454518854084e-03,6.475926021030305006e-03,6.594621062360103356e-03,6.367748949889487711e-03,5.860812151853827222e-03,5.176113227409787597e-03,5.060039075038369298e-03,4.679658474010333323e-03,4.267359528364342812e-03,4.725577644734614557e-03,4.921966885092520817e-03,5.091345136634567968e-03,5.402494899342127552e-03,5.027134281298222505e-03,4.411299399572406015e-03,4.010003846841535095e-03,3.869511343317552730e-03,3.692671665064984655e-03,3.261495287593056680e-03,2.900080957847214931e-03,2.553970663663314000e-03,2.335094124826080260e-03,2.160896236285099383e-03,1.660081324416888202e-03,1.482926831096495956e-03,1.672710309332040230e-03,1.825618123111474997e-03,2.052447232588227536e-03,2.022026035389155266e-03,1.812361836879469333e-03,2.036231464093752469e-03,2.541116953783945000e-03,3.146819769385654497e-03,3.652294812364502864e-03,3.834598841749301164e-03,4.140013946094635473e-03,4.416613504860476998e-03,4.454952424695192079e-03,4.531199527705323526e-03,4.952067500128055390e-03,5.114191851648805867e-03,5.009471411554796035e-03,5.291854025051510695e-03,5.295483179901650135e-03,5.082876345242414579e-03,5.369122001717819073e-03,5.575874419220164420e-03,5.359729182122061932e-03,4.814181319245929881e-03,4.149911040991341449e-03,3.566255369801384772e-03,3.363867435760641966e-03,3.295797368363585344e-03,2.935661651121695189e-03,2.574405569488279547e-03,2.620197498099829502e-03,2.818643042258351349e-03,2.758700671111328617e-03,2.617805352164036606e-03,2.536983006577067483e-03,2.550306207958047498e-03,2.618317886671693313e-03,3.139714981447303682e-03,3.881951088873476959e-03,4.421053906082344012e-03,5.230025900439368158e-03,5.989438557033805940e-03,6.418992228902800461e-03,6.643562946995900526e-03,6.895641830959792391e-03,6.848369155045035822e-03,6.894309781397375998e-03,7.633140526259660046e-03,8.056420884880422309e-03,8.575713367477883625e-03,9.017719593340561141e-03,9.021820194687810851e-03,8.941023590688351730e-03,8.727673071805880714e-03,8.038232323641902530e-03,7.451970104481621740e-03,7.060328825756262243e-03,6.422068460578832412e-03,5.958791411023775519e-03,5.683595863340156797e-03,5.467500676644926859e-03,5.092164643710917621e-03,4.824222874532655900e-03,4.729486071169525761e-03,4.542860630081919926e-03,3.796847588661264594e-03,2.749336392813793439e-03,1.743737442843552388e-03,8.897980620123613045e-04,-7.435675233629905232e-04,-2.146004814642369155e-03,-2.971896584891965936e-03,-3.595454804548442723e-03,-3.935643436254542861e-03,-3.858285623270643790e-03,-3.653891243447719272e-03,-3.799009958062793922e-03,-3.969611074396570127e-03,-3.393357952076481946e-03,-2.767791033209976350e-03,-2.383295049798919447e-03,-1.717836547062691734e-03,-1.202083775422850337e-03,-1.673960630298997835e-03,-2.253183047618196027e-03,-2.151190765488623317e-03,-1.410697666188217908e-03,-1.390702833281143422e-04,6.154907379889034986e-04,1.292042006556886518e-03,1.953417465143999533e-03,2.832624619240036584e-03,3.651659361737568527e-03,4.562915938529353045e-03,5.839281379192530659e-03,6.664829416055414665e-03,7.748020619678319502e-03,9.066992941886205595e-03,1.047952879697515959e-02,1.186906754011182209e-02,1.335720275206028762e-02,1.469300782476554504e-02,1.647008223908153976e-02,1.864842534738044011e-02,1.975529219753670296e-02,2.067522384948791356e-02,2.120587114748327673e-02,1.986659484885140020e-02,1.711843900037394312e-02,1.489714251750248047e-02,1.314886853106282845e-02,1.217723475414930236e-02,1.263808029415255940e-02,1.317310848676952507e-02,1.513730907022866820e-02,1.607939081209608378e-02,1.647355561053082812e-02,1.780189247119179016e-02,1.643440632324431189e-02,1.316754605803691427e-02,1.061847663598897845e-02,8.523979948289399367e-03,7.596691082094630607e-03,6.919436631260879669e-03,6.822414388071339555e-03,7.303214784893158860e-03,8.214435735727720900e-03,8.490062728910998877e-03,6.849555894098999925e-03,4.315161101938233545e-03,2.197112809255284075e-03,3.275673179941202776e-03,4.564600143693856547e-03,4.260573268141117954e-03,2.386722378906329031e-03,-6.715608609571008334e-04,-3.319811910399197638e-03,-6.247926749391770861e-03,-8.230203581555942463e-03,-1.048115776480210495e-02,-1.295131877996683924e-02,-1.587414003104356541e-02,-1.796456483038776086e-02,-1.950949990333405298e-02,-2.109610861504968016e-02,-2.215169359608669050e-02,-2.234638297067892410e-02,-2.223065248347098205e-02,-2.160615345571003168e-02,-2.102006608687021286e-02,-2.010349442701241454e-02,-1.872239219223163775e-02,-1.694942352535342561e-02,-1.449724911096032451e-02,-1.166351835195597597e-02,-8.757997813179738827e-03,-5.627298177168562135e-03,-2.827953859822534156e-03,-1.779493566566323147e-04,1.972255808336770798e-03,3.800514932936224863e-03,5.258951141829667358e-03,6.474100524927389744e-03,7.472075582780459205e-03,8.338368510908430661e-03,9.051394525635988661e-03,9.709332694705825190e-03,1.029578485757828323e-02,1.078153213296896389e-02,1.108649264015341106e-02,1.125782041890018709e-02,1.123555112327069561e-02,1.108820107903487999e-02,1.068432181836301460e-02,1.014217442196919602e-02,9.236426073911596299e-03,7.940415811527245724e-03,6.261296804222413886e-03,4.886546140829044031e-03,3.974842952776729173e-03,1.417675893164100590e-03,2.693619427256599853e-04,1.180610963039605541e-04
-5.155081700646720055e-04,-1.071108736445140850e-03,-1.743297325656042486e-03,-3.237770161376942249e-03,-5.735393910079966337e-03,-7.961293375526930227e-03,-9.964309039162210987e-03,-1.133140253985536264e-02,-1.272600849345527883e-02,-1.367822683869865732e-02,-1.408081044498356998e-02,-1.447015213264259137e-02,-1.450417003056037046e-02,-1.465210402540757448e-02,-1.499766424978973486e-02,-1.498778440177933775e-02,-1.489549472583746696e-02,-1.473050933478950615e-02,-1.466762729360574641e-02,-1.457352065397814547e-02,-1.454257950226223693e-02,-1.489145141774206142e-02,-1.523662787278710733e-02,-1.567559854331273747e-02,-1.617623376435329066e-02,-1.648154492143964409e-02,-1.627492106595156834e-02,-1.615388137056820647e-02,-1.634035682889659058e-02,-1.660018367188466348e-02,-1.685719225593935652e-02,-1.636210252240826585e-02,-1.570522774257301218e-02,-1.543835446465859247e-02,-1.514094957934167957e-02,-1.463840697284897983e-02,-1.390739532934952977e-02,-1.314765043403805234e-02,-1.214794361412717405e-02,-1.120513288153641117e-02,-1.058062136031525692e-02,-9.905361643137473512e-03,-9.149560913717979041e-03,-8.328005288660929664e-03,-7.144287857196588917e-03,-6.821419760306367784e-03,-7.055383384320124476e-03,-6.703386990603277772e-03,-6.134113178881697714e-03,-6.027191238221919940e-03,-5.675540540800695644e-03,-4.453351586782297589e-03,-3.058688608946417541e-03,-1.921183265664845293e-03,-7.348926297788133111e-04,3.280497311564783145e-04,1.980351479167139980e-03,2.840373408763761758e-03,3.473993346743290203e-03,4.308412278296847552e-03,4.887928421555657287e-03,5.272466347770897975e-03,5.289474208314054113e-03,5.606422165787088713e-03,5.910615298995238430e-03,6.300938549810692485e-03,6.235487688539455980e-03,5.989430289009793108e-03,6.539432659113215800e-03,6.985959204365721313e-03,7.236122038535561241e-03,7.814314745788517036e-03,8.053585424063681997e-03,8.360445937564102079e-03,8.216844907119446456e-03,7.525256264651825761e-03,6.833134132458499287e-03,6.108495641570199988e-03,5.831174495028936845e-03,6.177315011668798803e-03,6.323498095853986520e-03,6.367348238182240529e-03,6.447127918168095786e-03,5.876254399742213315e-03,5.483299647971754884e-03,5.135074615072184046e-03,4.571549597659533247e-03,4.736778290971362104e-03,5.287707166441799576e-03,5.908214861424654005e-03,5.797901235955631172e-03,5.298568117053946425e-03,4.973891770887125217e-03,4.539582922880381829e-03,4.371709800667883221e-03,4.089203867778850969e-03,4.020272802018077032e-03,3.947768655325473511e-03,3.351217931342026154e-03,3.144920414787177529e-03,2.569142619486567032e-03,1.986144979554047268e-03,1.925666596027224026e-03,2.309292050250370820e-03,2.523809624413651115e-03,2.263974255318755915e-03,2.062832620980589986e-03,1.818847922453923315e-03,2.203224679782898095e-03,2.675876150706326100e-03,2.868117267945921849e-03,3.225932603747295145e-03,3.601765745106569154e-03,4.112041659323841490e-03,4.438449580387619602e-03,4.674368204407666934e-03,4.559987583145472603e-03,4.456544962133063108e-03,4.887215449970980057e-03,5.138300475635725409e-03,5.577459273996328119e-03,5.696945507510499038e-03,5.393124823703782274e-03,5.555741812592530915e-03,5.631781565290665606e-03,5.227961309146314170e-03,4.701832862228103559e-03,4.089796258220748312e-03,3.901467900469900510e-03,3.907568051637171254e-03,3.411794512919352068e-03,2.936466365716389453e-03,2.505236199766603528e-03,2.183595693130940211e-03,2.225613710172319373e-03,1.877460392145237789e-03,1.758178612241896501e-03,1.944612198829130537e-03,2.151954426377681619e-03,2.500371284355089752e-03,2.729268438846549783e-03,3.202247150767206525e-03,3.927096744851464073e-03,4.594071487144195561e-03,5.737582973216908723e-03,7.130223968146639883e-03,7.817943284689854097e-03,7.715556134176175529e-03,7.695486935185421803e-03,7.700547595718466171e-03,7.826470565688222261e-03,7.763303026413065355e-03,7.700224415807352396e-03,8.586556218641084801e-03,9.139094204512275554e-03,9.121734456896322257e-03,8.811901891605774043e-03,8.174918830195845865e-03,7.259907599221200776e-03,6.337782305634372115e-03,5.990613442345332773e-03,5.802899435859295955e-03,5.111936987149964286e-03,4.895177276893670874e-03,4.835689912527623563e-03,4.724263061299189929e-03,4.445891512876988701e-03,3.823985872761282746e-03,3.246805334213155592e-03,2.691629303744832308e-03,1.477758585840555560e-03,2.995575330778648825e-04,-1.185934219166170488e-03,-2.456857661332326366e-03,-3.466808306114093751e-03,-4.342834965211025966e-03,-4.210842630002673524e-03,-4.087426494867104666e-03,-4.192477647687298768e-03,-4.450931941362911218e-03,-4.665044219646750576e-03,-3.625882926661064699e-03,-2.667177651364150727e-03,-2.454655636367643074e-03,-2.322376931933863107e-03,-2.345767588799021162e-03,-2.755635448434749606e-03,-2.759483820607385503e-03,-2.593086686667581391e-03,-2.857476384200625594e-03,-1.965235236517247699e-03,-2.807268632346011732e-04,9.456145581075295955e-04,1.812617835885982267e-03,2.781154258338226770e-03,3.731599864077553372e-03,4.296564403946168294e-03,5.210714108270702270e-03,6.120312922663163901e-03,7.811173734071215520e-03,8.886758003661185748e-03,1.000302386324802319e-02,1.186810034913895508e-02,1.359220252642248487e-02,1.521237733544046622e-02,1.686406077368586207e-02,1.827772693705159365e-02,2.045067870252218964e-02,2.140518461489077096e-02,2.174398786512869025e-02,2.075937158161849858e-02,1.853430447625764588e-02,1.659877347968938613e-02,1.438683099731983064e-02,1.387439156350844978e-02,1.411067474840645153e-02,1.491200242242448314e-02,1.622825529039090969e-02,1.766279624903632425e-02,1.884133343401453442e-02,1.765656345728519247e-02,1.426107588403309652e-02,1.169839186699891259e-02,9.295622323446786628e-03,7.556592647166969316e-03,7.209817252119503535e-03,6.925446711555240109e-03,6.295803317069360340e-03,6.696937092272118794e-03,8.057726494607392667e-03,8.795222665822194363e-03,9.825941057137277043e-03,9.567783844030047086e-03,8.642875421446604561e-03,6.788178402734055920e-03,5.018729129648883194e-03,3.319061909288823376e-03,1.258992312346499803e-03,-1.409369574013785882e-03,-4.063206172636391056e-03,-6.787778252010981048e-03,-8.522170133484921820e-03,-1.075932601579638118e-02,-1.284106834878853166e-02,-1.451598525009008440e-02,-1.551134738798208047e-02,-1.667261250658697014e-02,-1.740464237572131659e-02,-1.754093833789064846e-02,-1.756144473999694464e-02,-1.749975385575530673e-02,-1.773304711348096599e-02,-1.839411442279030931e-02,-1.915847912249888166e-02,-1.953287425330904603e-02,-1.995568011292691082e-02,-1.892679622822881352e-02,-1.694671601076378625e-02,-1.416035754101084218e-02,-1.113997673636711247e-02,-7.781276633889029973e-03,-4.625475694295913716e-03,-1.650880536430304225e-03,8.604252267245324345e-04,2.928031375278598337e-03,4.603416557573839461e-03,5.981857634208270248e-03,7.009381345824593212e-03,7.871921503922107641e-03,8.564204235890802291e-03,9.200519709995087780e-03,9.745305055457063534e-03,1.017902502172077055e-02,1.050454828657048159e-02,1.061403320450537979e-02,1.055021986757905851e-02,1.015560974027068797e-02,9.649792437128030739e-03,8.746468420091484466e-03,7.477850568741061486e-03,5.776404992823586972e-03,4.390913996927804826e-03,3.500276355967663847e-03,9.946436935510953765e-04,-1.358020947001107345e-04,-2.374855087592336964e-04
