-3.895567783091834907e-02,-6.599578379205175982e-02,-3.165518159312569885e-02,-1.882768106823243552e-03,1.841157112880817404e-02,2.049964428083873857e-02,-3.394385096903503041e-02,-9.324567512515061218e-02,-8.218519134570229090e-02,-3.092530942069337055e-02,-3.856922876492138719e-02,-2.522027279364407945e-02,3.164868240715327380e-02,5.634987426419822004e-02,8.140650911768455844e-02,1.554413395035509349e-01,-2.388200168528818029e-02,-2.407333790959539366e-01,-2.612920905244588837e-02,-4.472114364071861498e-02,-1.181901721511341985e-01,-1.111145790988006671e-01,-5.708030027911004112e-02,1.604871308347624592e-01,1.567243481834245389e-01,1.445447287673529702e-01,3.142391754691264416e-01,1.945403317525556397e-01,2.435830913307380496e-01,4.421379680814530033e-01,2.330281100631663438e-01,-2.710021272438561390e-01,-4.651167259622379091e-01,-2.300566633050676324e-01,1.475705952766065143e-01,4.742752105298390641e-01,6.179503086843987636e-02,2.868417655424357685e-02,-6.066411031647873237e-02,-4.306943304739924150e-01,-9.185775483331348745e-02,-1.106597128263568791e-01,-2.119951123617894451e-01,-1.292452289875594407e-01,-9.466982538544206627e-02,-4.461903356015834571e-02,3.227872180815011087e-03,4.939410474660295425e-03,1.841052744798623089e-02,1.419125305475732457e-01,1.285620431421573007e-01,4.358200077977292253e-02,1.539248776330265078e-01,7.196338010659461548e-02,1.108662923958584484e-02,1.601736084941567800e-02,5.020749037228878966e-04,1.284955944275814610e-02,1.038371460522194076e-02,1.281574559720142191e-02,7.172905882990937565e-03,-3.300972981738605622e-02,-2.239282574782447063e-02,2.613110289904583758e-02,6.087704887001620102e-02,6.816794986821833602e-02,1.960675746621685228e-02,5.453174769228125163e-02,1.327146095187113350e-01,7.706678527138270673e-02,-2.432963730489226192e-02,-4.309351846886616717e-03,1.041681799491791793e-01,5.011064073544963665e-02,-1.440932998545757689e-02,-5.595446878746663383e-02,-1.069168636626269403e-01,-4.731598355256953076e-02,2.865373656006054218e-02,1.225782042739795123e-02,-4.654341764446210533e-02,-8.851022227039563595e-02,-1.265488067046731113e-01,1.785181665007919694e-01,2.859726001082853464e-01,8.447452148315277853e-02,-7.504922135202846123e-02,-1.857378735912932344e-01,-2.332592029974227543e-01,-2.672378184160009371e-02,-1.361122276115619978e-01,-2.854959208896085121e-01,-7.901869568888635065e-02,-1.191523199575301034e-01,5.657612104696429361e-02,1.619930388169901203e-01,2.811614667185273822e-02,-9.096271800166834398e-02,-2.249931866808276351e-02,2.616162924905195836e-02,-2.189685409039823089e-02,-8.850895254076661389e-02,3.197751011371016694e-02,7.521329207272571538e-02,-1.068936777395117776e-01,-7.384017526948502552e-02,3.374783304444407741e-03,-6.213706065199237072e-02,-8.398014175130233405e-02,-1.165686224209719485e-01,1.699134233752082682e-02,6.687575950949288528e-02,9.805432814724540647e-02,2.047284022319551811e-01,1.329119014146888100e-01,1.298137325937679387e-01,5.364334168979002088e-02,1.083977171637872348e-02,4.968172899878647852e-02,6.847229997622400477e-02,2.645554958083301197e-02,2.578119186814030808e-02,7.733970348392814331e-02,1.580902067452931090e-02,7.235917374462003115e-02,5.589177705843789701e-02,1.997574050888025268e-02,1.374232269901195722e-02,-1.058909545721944262e-01,-1.068074219675525932e-01,-7.355785684015592185e-02,-7.079159248942937244e-02,6.370001510914950760e-02,1.614095115370842437e-01,1.786809452145387000e-01,1.800718151836318559e-01,8.042421507522032331e-02,3.880694982054949671e-02,-5.928200692382800535e-02,-9.222248462239571176e-02,1.308803137630199787e-01,-9.520113423671079655e-02,-4.570285079571818621e-01,-4.679938136135073923e-01,-9.231065622480223720e-02,2.032886963869839358e-01,5.775299027318119005e-02,-8.014066210772308185e-02,-1.352628430636516055e-01,-1.812172539055815351e-02,-6.428560191291350645e-02,-9.708454384682695115e-02,-1.827564280051688916e-01,-2.280636903574972119e-01,-3.721723350934740826e-01,-4.625298530965260557e-01,-4.062267571399222899e-01,-3.637938040913474280e-01,-2.193382205993907597e-01,-3.065896378139558176e-01,-3.288571264410803940e-01,-2.722617097690619437e-01,-2.612332717992775777e-01,-3.361316305844514463e-01,-4.388626304720030791e-01,-2.954081704612077086e-01,-1.416751736776447335e-01,-1.187305031811937139e-01,-7.314606601372646011e-02,1.240433662457266113e-02,1.296464452240858878e-01,5.653814123187641399e-02,7.401899378457503162e-03,7.076945307344936027e-04,-1.419072164247334655e-03,-3.140397432321504726e-04,-1.387049802831975993e-02,-4.511192762154976610e-02,-7.003071515998363084e-02,-6.969717845162484715e-02,-4.810628263551137290e-02,-3.220301199270812070e-02,-1.060955445618188067e-02,3.714730812594935639e-03,-4.178841266845778092e-03,-6.524648423200128449e-04,1.264933020216036947e-03,-2.746678997247407059e-04,-1.299689259968436414e-02,7.694472091234832133e-03,-2.602993359699569019e-04,8.657995951396298476e-03,3.888893857395780279e-02,5.819465811716151987e-02,2.464830396192541767e-02,-3.389350840476491183e-02,-6.729717023698580936e-02,-4.610576857629831993e-02,-4.167719060210893500e-02,-4.778693300083469014e-02,-1.800229911205537131e-02,8.790424375117318612e-02,1.258160519162227209e-01,4.341818313522954192e-02,2.183259641663806011e-02,3.698829786263793662e-02,5.907672923406954990e-02,-7.468569190034106409e-02,-2.030281640666413076e-02,2.024182125623005465e-02,-1.310262807716774114e-01,-1.229821062280695015e-01,-5.502724780747840494e-02,-1.429011505121147441e-01,-3.629486604399679295e-01,-6.122372394142633345e-01,-3.459448970224372477e-01,-7.330308485947946429e-02,-2.141649275204617758e-02,-8.248721155451993470e-02,6.272375840552990578e-02,1.683002171412827375e-01,9.728094205010984208e-02,2.412515672761116753e-02,7.752739223324751905e-02,1.015420932698413159e-01,-1.458662785969839885e-03,1.763350415363319074e-02,9.080351004521335090e-02,8.966625966958016725e-02,6.927578921000707157e-02,7.933723539674357450e-02,8.450530478189141603e-02,1.121644247394469607e-01,1.070331289060596214e-01,2.809942862227190336e-02,-2.426800712122240480e-02,-2.900843683306135110e-02,-2.872716995267227125e-03,2.207269036812313165e-02,5.449505005635247451e-02,9.188214570014062443e-02,1.163458007836695174e-01,1.742855107243390100e-01,2.270462163127694999e-01,2.477852866913785590e-01,2.404501212979828773e-01,1.804597551085266871e-01,1.226520419288513325e-01,5.693234492321899015e-02,2.513808755149124843e-02,2.595296182111573105e-02,1.059871758555567221e-02,-2.278279714607853862e-02,-7.995964977035871502e-02,-1.583242970919587767e-01,-2.572132300280335349e-01,-2.524084939611465073e-01,-1.653837867298832698e-01,-1.058923287658418422e-01,-8.860962251915864563e-02,-8.670414652295366231e-02,-7.942860446408270270e-02,-6.839725718507716490e-02,-6.393555085400690063e-02,-5.815810760769908605e-02,-5.537484583475523608e-02,-5.309977518300663946e-02,-4.571358197233807430e-02,-4.110960135336672733e-02,-4.302914853353349833e-02,-4.381651440011551796e-02,-4.019663470625205182e-02,-3.993746127423401099e-02,-3.761754928712862656e-02,-3.814732350040493658e-02,-3.169426590665313376e-02,-2.038603313536910613e-02,-1.400626671504250249e-02,-1.203157082986047385e-02,-1.082155328145385786e-02,-7.181880891768632758e-03,-6.052100500193644678e-03,-4.721822949469580734e-03,6.610638621120266609e-04,4.125701010580937016e-03
-4.033723877145459907e-02,-6.882410247151167504e-02,-3.879939407140310659e-02,-2.525720641812871040e-03,2.223623771625651141e-02,2.305242807939013316e-02,-3.908976115314859862e-02,-1.061912839749491744e-01,-9.125299852370742648e-02,-3.428660864966739941e-02,-4.321184153188675769e-02,-2.945736252574325531e-02,3.793888682106105054e-02,6.850037808908841785e-02,9.340385644347654059e-02,1.657453552382375794e-01,-2.453999830285012382e-02,-2.450667587652446966e-01,-2.710336198777014288e-02,-4.643816878366797268e-02,-1.226825154198909890e-01,-1.146576877764213520e-01,-5.849109502389968074e-02,1.640023558365706069e-01,1.619642330872148039e-01,1.521455012687653041e-01,3.395874260880160644e-01,2.189609904999038903e-01,2.785574390599339090e-01,5.178814837563546769e-01,2.707910205421053540e-01,-3.057516491846692941e-01,-5.155400335157032110e-01,-2.512640302681616866e-01,1.649121453626707090e-01,5.215223607019960905e-01,6.772359474240603749e-02,3.240875594035675517e-02,-6.557586281924562832e-02,-4.685612979512172038e-01,-1.079198971447701966e-01,-1.320933919923416855e-01,-2.489116719133153688e-01,-1.606750974082718775e-01,-1.316289252159186518e-01,-6.991002198382258170e-02,5.107116379744010629e-03,7.001573380697776773e-03,2.558384202291885678e-02,2.137607678362711816e-01,2.023314213375678183e-01,5.546061195836349961e-02,1.592180946666637564e-01,7.251680635061037716e-02,1.041220686303908141e-02,6.759182353243608707e-03,1.181853108138850375e-02,1.548868527487199699e-02,1.389414953495621621e-02,1.420545313587717740e-02,7.197472145040057986e-03,-4.152916425780889265e-02,-3.210381824826266661e-02,4.734303222554197416e-02,1.251172412119129773e-01,1.203061238061284843e-01,2.650963174295796129e-02,5.911092515430687450e-02,1.446455684319666868e-01,9.664211426801887217e-02,-2.998137458368395694e-02,-4.934777884770743216e-03,1.144476811068243921e-01,6.024144819768712661e-02,-1.907567008688326390e-02,-6.994161581962526908e-02,-1.316387872049176455e-01,-5.841430506825159852e-02,3.413090031939414182e-02,1.344191684976916122e-02,-4.756045588630655047e-02,-8.660382669990938920e-02,-1.345364129590101154e-01,1.889977295144376346e-01,2.935763641608697960e-01,1.053091793223519396e-01,-9.514099560120263532e-02,-2.468152799050227220e-01,-2.983172685767684351e-01,-2.690213461981691076e-02,-1.317953621502498673e-01,-2.430916340330493142e-01,-7.087789449699540001e-02,-1.143284643164133169e-01,5.044109214794410823e-02,1.596333807173191122e-01,2.326896912924537528e-02,-7.225064769265071574e-02,-1.699500622333292507e-02,1.696461589095381653e-02,-1.477000472180278919e-02,-5.201140546404336290e-02,1.772213878662866685e-02,4.819748058963143483e-02,-7.953329301617850788e-02,-5.687605623098773017e-02,2.167133713503823205e-03,-4.413980962669620395e-02,-7.626236777249353893e-02,-1.117763861160024491e-01,1.475717862951894319e-02,5.255721009280280714e-02,7.979620239897847189e-02,1.649102726152494036e-01,1.181515116768692558e-01,1.234221602793913047e-01,5.378322826193823042e-02,1.092348748505665018e-02,5.190360490463201415e-02,6.707213090998143112e-02,1.938637831654388063e-02,1.961242031030745875e-02,6.098076770865178131e-02,1.164067565653441501e-02,5.444013760210329733e-02,4.116919942579957276e-02,1.453086561315275471e-02,1.076181634358991564e-02,-8.256522669184870877e-02,-8.137655308033020507e-02,-5.827232023974614206e-02,-5.485280586669027958e-02,4.375686916841533408e-02,9.929620451437917716e-02,1.315281242900395164e-01,1.423310056260244649e-01,5.697035421420938023e-02,2.663959682031354428e-02,-4.203494189831890465e-02,-6.444753126837399204e-02,1.010262673554017387e-01,-8.732375906327811965e-02,-4.630640636609777427e-01,-4.929605364194497019e-01,-9.898267023203313753e-02,2.005655579996307725e-01,5.313247312548322748e-02,-7.293230331154181012e-02,-1.275828533374932794e-01,-1.949180484140075262e-02,-6.738304912569531568e-02,-9.498041887472381817e-02,-1.824112789437804527e-01,-2.176720539146226596e-01,-3.607091923853347204e-01,-4.465212054164524602e-01,-3.558086574295309945e-01,-3.450035497144899321e-01,-2.058974470574322924e-01,-2.732851606093428809e-01,-2.665022439687408928e-01,-2.059947668512437380e-01,-2.298889038573095345e-01,-3.016511366389091342e-01,-3.677743705982773337e-01,-2.372103695881695451e-01,-1.146698816236754737e-01,-1.007167326936234120e-01,-6.271318624168337186e-02,9.168102874258420021e-03,8.949786863856251662e-02,3.684615279066937032e-02,2.211184630114804671e-03,-4.583346980574639143e-03,-2.913478448008739643e-03,-5.777476858419387795e-04,-2.345152117913760006e-02,-5.343463854437043720e-02,-8.975946238474034888e-02,-8.975115559641982932e-02,-5.648630995252923448e-02,-4.544440525714063539e-02,-4.181029860785662189e-02,-2.427469234268527648e-02,-8.000798324057924529e-03,-3.371315039044735055e-03,-1.816396909346230980e-03,-3.641386976818694002e-03,-9.327228978276704344e-03,3.614889163604648528e-03,1.168489852825641039e-03,1.610263013389145667e-02,4.696458264015309497e-02,8.549810140062821806e-02,3.477355871444122448e-02,-3.978300599104564461e-02,-7.855484313824770415e-02,-5.588900342385842712e-02,-4.957758467845435613e-02,-5.494790301842968072e-02,-2.120288413529471810e-02,1.068746413937821382e-01,1.552817913691099116e-01,4.986345530015040550e-02,2.660545902218074826e-02,4.863367773784012249e-02,7.680020198668674469e-02,-8.917747310201633304e-02,-2.222414614830270016e-02,2.156514877109548534e-02,-1.502149749655588007e-01,-1.591031315950714731e-01,-7.097515317120049738e-02,-1.564793963633581420e-01,-3.207487061242542126e-01,-5.230750324353126146e-01,-3.094172239116110834e-01,-7.403771490272621769e-02,-2.402303190606249958e-02,-8.878877093122920783e-02,6.129908926642502198e-02,1.679987715049973129e-01,1.126855335064101959e-01,3.054541532740922757e-02,9.170876791647795956e-02,1.106306414491184248e-01,-1.470655652893964552e-03,1.716446444049884654e-02,8.679632486602827102e-02,8.315720045135639726e-02,7.118630169478662451e-02,7.548333283978282682e-02,8.475050771862585597e-02,1.175509497693987826e-01,1.023252251199220225e-01,3.203107558324093385e-02,-3.037906782851431189e-02,-3.120287483346614529e-02,-7.507071217855981228e-03,1.599885115562277305e-02,4.039623143526525212e-02,6.916975209804455960e-02,9.630155724345752788e-02,1.515712050122398902e-01,1.942352193817841743e-01,2.069467159303420289e-01,1.952178899652789457e-01,1.397421843489911331e-01,9.163000401355940461e-02,4.054668615053862168e-02,1.714484717189875690e-02,1.782727022939907188e-02,7.470795998055826913e-03,-1.691132622819481804e-02,-6.327497328569094137e-02,-1.349736529953515785e-01,-2.306451329357806501e-01,-2.342977722714892075e-01,-1.567881052059328928e-01,-1.018414938021162536e-01,-8.610369956921568035e-02,-8.455546845258819777e-02,-7.759062804035224414e-02,-6.698343346154707334e-02,-6.274040151778956242e-02,-5.710470250812918480e-02,-5.442582177200171178e-02,-5.227797357505634124e-02,-4.499614078775309584e-02,-4.047627772055860385e-02,-4.244078677093904989e-02,-4.322722408769008595e-02,-3.962082747696123869e-02,-3.934439057948581342e-02,-3.709373900494066650e-02,-3.761496375383774349e-02,-3.121955283668014294e-02,-2.008106135452874391e-02,-1.380042651102447206e-02,-1.185619579923087065e-02,-1.065332859533308675e-02,-7.065402460218915201e-03,-5.954344851254876787e-03,-4.645641760562691652e-03,6.502127342520500584e-04,4.059441989776559762e-03
-4.275039234358418705e-02,-7.403688420173333562e-02,-3.739354736235819127e-02,-2.304838134500195729e-03,2.100555443152972435e-02,2.131830998136276939e-02,-3.633880554409892050e-02,-1.039011798027041633e-01,-9.260133862490098344e-02,-3.477067000847036682e-02,-4.295210569224555686e-02,-2.993620760296351532e-02,3.862244616337416614e-02,6.749921554995051698e-02,9.353437385940714666e-02,1.636241801859663614e-01,-2.396220405485191551e-02,-2.430366199352367584e-01,-2.678974274067567538e-02,-4.595329611684646071e-02,-1.197623106150992323e-01,-1.105225660032994883e-01,-5.653759939744498753e-02,1.587450724267867319e-01,1.596946317771428536e-01,1.525212048524853536e-01,3.356956782959654717e-01,2.129501340776233098e-01,2.728366701692875873e-01,5.067897304060960950e-01,2.619405283559397279e-01,-2.962607118701478526e-01,-5.102443696511609339e-01,-2.503156851831714325e-01,1.603334154791477284e-01,5.080446476624306262e-01,6.620596237129632022e-02,3.147953373782434727e-02,-6.373954536373248325e-02,-4.427887026444817797e-01,-1.006609079240998045e-01,-1.220275599325837956e-01,-2.321074084028849072e-01,-1.541933566478181639e-01,-1.138415169129428084e-01,-5.733116847927570425e-02,4.781067813206537655e-03,6.789834591509471412e-03,2.357541193803847079e-02,2.024971796187776119e-01,1.837477561408312476e-01,4.862427763239186157e-02,1.462953844971533468e-01,7.136323606275934983e-02,7.814963242720697131e-03,2.409106011890517485e-03,8.359023889464434545e-03,1.912195833348299609e-02,1.318456285236407899e-02,1.057679464786422975e-02,6.334111890502950801e-03,-4.073543508326753215e-02,-2.971470014227970552e-02,3.381826215068741565e-02,8.578507070682066249e-02,9.053273283997834153e-02,2.566802415779908739e-02,5.921174962339099956e-02,1.202175128459464643e-01,7.888774610827910261e-02,-2.607399243198851163e-02,-4.418852705324039648e-03,9.301009957025070662e-02,4.800362950965837011e-02,-1.616377688130535631e-02,-6.026131629962857422e-02,-1.170394469844198704e-01,-5.332950154786964686e-02,3.276751798755900974e-02,1.508240395539474366e-02,-5.554943385144914259e-02,-8.836196003068237659e-02,-1.179594170231876016e-01,1.748572056582710366e-01,2.948611223770644107e-01,9.067689232609300876e-02,-8.264770291901801791e-02,-2.574767574725215225e-01,-2.999079639513479445e-01,-2.328940814538526735e-02,-1.284342455034385155e-01,-2.957802575577506143e-01,-8.259018231843325009e-02,-1.164184589140144360e-01,5.723728449194961238e-02,2.158233667843789672e-01,3.027440962786440842e-02,-7.631382151322843588e-02,-1.885097144630406771e-02,1.980427904394448796e-02,-1.783563159691463687e-02,-7.465483273747548776e-02,2.377464116084868420e-02,6.230746196700846090e-02,-9.751468122954817797e-02,-7.904299363550361390e-02,3.749291291904590425e-03,-6.001601439345304045e-02,-7.888270751179032869e-02,-1.121936752534654219e-01,1.749012594827449585e-02,7.051499127022767266e-02,9.359601952170822081e-02,1.734146140281434267e-01,1.282813895834318541e-01,1.283329316060552172e-01,5.030501633252403015e-02,1.069021959468861686e-02,5.193206242854924576e-02,7.175092760889917320e-02,2.231064644497113628e-02,2.074412883317090783e-02,6.621566411982167388e-02,1.301827553872948393e-02,6.261182960379593765e-02,4.920739222445265348e-02,1.554982406631928021e-02,1.092812685384524259e-02,-8.838181621630990248e-02,-9.357691080573074527e-02,-7.124714675732236879e-02,-7.245194966935203373e-02,6.228508681964900484e-02,1.420948256546814281e-01,1.710075018409574210e-01,1.774206622641022746e-01,6.868515124540754135e-02,2.736578247853406129e-02,-4.200240333587100527e-02,-6.781898911425600363e-02,1.030152920300413111e-01,-9.728060970341972924e-02,-5.105877249589334532e-01,-4.972891596177964613e-01,-1.078288737748573228e-01,2.084099074274931851e-01,5.348127005903876435e-02,-8.672631177651894674e-02,-1.394209685848659952e-01,-1.773233692200671882e-02,-6.419338499709478785e-02,-8.754426118064802254e-02,-1.519001019170440614e-01,-2.040299626867622951e-01,-3.611580503829426303e-01,-3.980990483461499529e-01,-3.180128925085491387e-01,-3.292737045443710486e-01,-2.158715364435175310e-01,-2.896233199924546087e-01,-2.633654529165336267e-01,-2.111285530523275278e-01,-2.570256294611102943e-01,-3.305021621851792490e-01,-3.908578817136270089e-01,-2.777024326159822087e-01,-1.383702690316968853e-01,-1.102458331785478446e-01,-6.169630608064698152e-02,9.332678507595826983e-03,1.019853953934494878e-01,4.251968434414375025e-02,3.385985294623892767e-03,-6.045322136079688222e-06,-1.232338096747376526e-03,-3.380339308382785887e-04,-1.661055550696521887e-02,-4.026041033763821247e-02,-6.157385339577817196e-02,-7.153402229150572500e-02,-4.239068469861893146e-02,-3.259799673497102562e-02,-3.350107531285990287e-02,-1.025323278405683783e-02,-7.774335343486162529e-04,-2.424036736315741524e-03,-3.970594293038321289e-04,5.557952439500844040e-04,-1.665359488613690677e-03,1.711525715367889474e-03,2.565186339682196982e-03,1.909549188923978166e-02,3.165685446976385792e-02,6.223090111116813539e-02,3.115140266347217121e-02,-4.207167085618064573e-02,-8.694658072474172050e-02,-5.214926043205862782e-02,-4.497928873725632465e-02,-4.944110351612442111e-02,-1.791150862530415874e-02,8.859366156970556461e-02,1.331188078317580292e-01,4.436008953329392129e-02,2.170631055781436364e-02,3.900955010212366070e-02,6.451997816603369240e-02,-7.917460949207950904e-02,-2.009741528554606291e-02,1.979265335935746425e-02,-1.450415961596910053e-01,-1.559718671845664595e-01,-7.123552713632248790e-02,-1.608736506841488556e-01,-3.574527398262748457e-01,-5.351591513961795332e-01,-3.217585287074720690e-01,-7.833055304659673757e-02,-2.459018862661088364e-02,-9.221549470057031905e-02,5.782624053369256334e-02,1.623648565095940077e-01,1.122751652913858006e-01,2.697739795177413191e-02,8.262811818235246686e-02,1.083262991382679952e-01,-1.457189977751087787e-03,1.667545367710370624e-02,8.554646472680625668e-02,8.849939173655713143e-02,7.313320489356199550e-02,7.555266841801901168e-02,8.466079932713764522e-02,1.230673749206517009e-01,1.156072483751157398e-01,3.654022084143911803e-02,-3.643935864643126771e-02,-4.160942697033855747e-02,-1.924134350286137510e-02,4.463175885391890661e-03,2.972157960522106568e-02,6.163281663153195172e-02,8.832355947543447938e-02,1.435817295786362691e-01,1.953933266564273907e-01,2.176506415661425831e-01,2.110772835487130794e-01,1.553379762704174549e-01,1.043341239426957001e-01,4.729498922187651971e-02,2.064081104167567876e-02,2.119495083518547346e-02,8.679098171172371090e-03,-1.930461413603957316e-02,-7.051170043566733214e-02,-1.450223225900992563e-01,-2.422789427361544679e-01,-2.433742740365781310e-01,-1.615485139914017432e-01,-1.042595654401560629e-01,-8.785691058829891986e-02,-8.621004122829155347e-02,-7.903710724378137931e-02,-6.819225274516529933e-02,-6.385982513848899311e-02,-5.814318685558052952e-02,-5.540317491125533456e-02,-5.317842946231542134e-02,-4.575783970775078313e-02,-4.113050312342639986e-02,-4.313413501905220826e-02,-4.395660983288080664e-02,-4.029226346871377790e-02,-4.000604768110965770e-02,-3.769536168412031957e-02,-3.821458917235385361e-02,-3.173249783175163125e-02,-2.042492215440244036e-02,-1.404350060860207888e-02,-1.206531997664830012e-02,-1.083940348930590054e-02,-7.189765585596614474e-03,-6.061453664135316687e-03,-4.730992907393558565e-03,6.625106791600235195e-04,4.135342416084979156e-03
-4.298234808323239675e-02,-7.073192510281921253e-02,-4.033009520468332221e-02,-2.573585917470249708e-03,2.244748837136808367e-02,2.233082640162471072e-02,-3.652909657297941787e-02,-1.045452001068869485e-01,-9.266684898514751523e-02,-3.407706291396139092e-02,-4.161065166136517640e-02,-2.829081441208964112e-02,3.648848213010019020e-02,6.533906498572425448e-02,8.986310540273072245e-02,1.611146669318178348e-01,-2.434250297839888125e-02,-2.443658775025038810e-01,-2.700132832861269414e-02,-4.640705147650606155e-02,-1.201075028047988019e-01,-1.127067355298833895e-01,-5.853660453179611312e-02,1.636290576062900959e-01,1.622384131112503403e-01,1.539662186360237772e-01,3.439007798908721991e-01,2.165566479309916359e-01,2.699892286400065733e-01,4.996928882201254196e-01,2.639343205517242774e-01,-2.957916829912325407e-01,-5.016568066275791660e-01,-2.478025707079473117e-01,1.606293197913482018e-01,5.088963990441132124e-01,6.582872042046272743e-02,3.161595786831489230e-02,-6.477671131071907618e-02,-4.630447558119828444e-01,-1.042304162186786093e-01,-1.248810878326497703e-01,-2.381004663141204347e-01,-1.581233076573494434e-01,-1.275118396986006375e-01,-6.335123237269030261e-02,4.636895504478271909e-03,6.736416030434542318e-03,2.446031672781499508e-02,2.001229280754369677e-01,1.903986591318686250e-01,5.549607932192236054e-02,1.822529572887090221e-01,7.534503007814545572e-02,5.819028326922222327e-03,-2.972434333086172720e-03,2.267489310804398500e-02,3.056153611428396796e-02,1.697094815866196163e-02,1.573208360743026321e-02,1.043468579362100308e-02,-6.442304524422769185e-02,-4.970302569505723883e-02,6.110522720144194453e-02,1.503844135552824812e-01,1.376740938320318020e-01,3.175225477104434008e-02,7.442751162706354173e-02,1.805330935897312139e-01,1.153798461309348128e-01,-3.277340946703159730e-02,-6.115175477962912776e-03,1.469973636288506580e-01,6.797255400481762300e-02,-1.957177179231061812e-02,-7.672789611187293135e-02,-1.450145013232276570e-01,-4.979377908841837314e-02,3.123776779130211026e-02,1.507562107899818211e-02,-5.007182067708265683e-02,-9.265339304789453612e-02,-1.409439266628288168e-01,1.945117074728719975e-01,3.075765840132317908e-01,1.016171414568523557e-01,-1.004588712458708427e-01,-2.732117708629973607e-01,-3.160120355677685788e-01,-2.897346787853366176e-02,-1.489948418622493997e-01,-3.133605608727482172e-01,-8.990917290059496914e-02,-1.406858469729717342e-01,6.892020481353829109e-02,2.138620055838013623e-01,2.827188138952413735e-02,-8.479801472705283949e-02,-1.983921266892506308e-02,1.820477814338712988e-02,-1.475173691229138100e-02,-5.655011198187864796e-02,2.004753520306654102e-02,5.056453162119754069e-02,-7.571598169779204801e-02,-5.517689635969116185e-02,1.999704196345266152e-03,-3.358357266528439605e-02,-5.999529867093911922e-02,-1.017219141617630718e-01,1.683705562505316902e-02,5.708782970442021626e-02,8.377676249419131749e-02,1.965938147935348268e-01,1.413547328882004961e-01,1.397961290285086311e-01,5.758904551838339714e-02,1.212708964431234195e-02,5.606715955775339738e-02,7.326738667126637961e-02,2.462082128705476991e-02,2.422093980012576461e-02,7.836450491728867707e-02,1.587699036034686401e-02,7.016542540902179215e-02,5.061898057867950801e-02,1.595427850393408425e-02,1.083297900530822561e-02,-7.685418344738906282e-02,-8.392316662045640197e-02,-6.831822702609793851e-02,-6.074594982250858949e-02,4.214848261977155452e-02,9.598152178106508781e-02,1.115883396594780641e-01,1.132076727196523053e-01,4.903511106723516116e-02,2.074495318483544903e-02,-3.215298048289184224e-02,-5.219026195902857351e-02,8.829837706651098850e-02,-8.824507564249196856e-02,-4.721934756499127084e-01,-5.062108840103154428e-01,-1.112452277679625567e-01,2.319030353577578585e-01,6.307735461946833988e-02,-9.800278257488430345e-02,-1.782362313907688012e-01,-2.488668821563902456e-02,-7.978250587928739646e-02,-1.060767845597641451e-01,-1.943534364678198567e-01,-2.189812364586068427e-01,-3.462421538470504823e-01,-4.135834128147011235e-01,-3.384197559879894568e-01,-3.269372631069685231e-01,-1.944117348384142852e-01,-2.632044256701882023e-01,-2.464493994623155326e-01,-1.955459419278047228e-01,-2.107898927272079947e-01,-2.615452654775243246e-01,-3.031415806801298074e-01,-1.963185464694343629e-01,-9.766294735674087291e-02,-8.775694360758744261e-02,-4.979844971937873871e-02,4.825450051290144232e-03,2.177217960742969249e-02,-9.928468203200736808e-03,-1.021509335275801698e-02,-1.517464369734670276e-02,-5.909458431760622292e-03,-9.411652689100365914e-04,-3.772084608772305336e-02,-8.793496413556384228e-02,-1.394335768672743947e-01,-1.406047976544067823e-01,-9.240623758512926667e-02,-8.184413013639207923e-02,-7.491927201824177818e-02,-5.506725592710154382e-02,-3.093837571627310393e-02,-1.495344060797606199e-02,-4.704884138028317397e-03,-8.262428622807455394e-03,-2.597543286668891477e-02,1.231081540905984081e-02,-3.119911172120185677e-03,-2.136567279030529391e-03,2.608771006916343893e-02,6.797635345384112071e-02,3.124176830299738722e-02,-3.747214801206691370e-02,-7.364407565752265072e-02,-5.706187192203517056e-02,-5.811058668904795638e-02,-6.252854939626600883e-02,-2.388318678178743756e-02,1.163776956406025881e-01,1.796288273249855572e-01,6.209178596148400703e-02,3.006903441491892356e-02,5.244129663546460984e-02,8.366895564311856159e-02,-9.678692058317474312e-02,-2.282759167804708500e-02,2.172165769833437829e-02,-1.537944900773640655e-01,-1.551963218197354999e-01,-6.583276736004112228e-02,-1.443292831663717524e-01,-3.447903324211581966e-01,-5.787735253687855685e-01,-3.215643473383064110e-01,-7.734604883898034411e-02,-2.255527199409214714e-02,-7.897017881321963251e-02,5.547153066074658745e-02,1.459516613477086500e-01,9.144108668245500005e-02,2.361626764589000449e-02,6.838300411903745768e-02,7.998344397801503136e-02,-1.269042773981926900e-03,1.588090450925138189e-02,7.666994240564174723e-02,7.659972018285071682e-02,6.344114473268025467e-02,6.939913584955845205e-02,7.574378521320981883e-02,9.436810812119776626e-02,7.612560181026901962e-02,2.164413819830702732e-02,-1.293523411362034956e-02,3.101531603001274600e-03,2.789192563715389012e-02,4.020001187110287810e-02,7.731067788829203147e-02,1.120047614397588764e-01,1.287152322242751112e-01,1.877987931073746009e-01,2.351141594077266750e-01,2.500905558911726279e-01,2.382011119389628728e-01,1.737812788498257488e-01,1.163455652902107840e-01,5.338242042706065754e-02,2.340442634104357780e-02,2.394372504627396633e-02,9.691055019935850348e-03,-2.091100387963186480e-02,-7.361978196802897167e-02,-1.459944639972539648e-01,-2.370370078967048988e-01,-2.326769683848661507e-01,-1.522702078114218927e-01,-9.736693133172481807e-02,-8.154535091959927429e-02,-7.967787857133666607e-02,-7.283496706953397626e-02,-6.271722037579501030e-02,-5.860511896602928900e-02,-5.325813261196601228e-02,-5.069488239693788895e-02,-4.861648126240647461e-02,-4.180259577455179565e-02,-3.756884150525795912e-02,-3.937649372486166227e-02,-4.007841245601308916e-02,-3.671330616722069673e-02,-3.644358901809837542e-02,-3.433044998006506976e-02,-3.479749303734856747e-02,-2.886828944312264458e-02,-1.856029603127781757e-02,-1.275436485988847880e-02,-1.095280345932098977e-02,-9.837628188033655657e-03,-6.524225747480223367e-03,-5.496944963010519554e-03,-4.286837765896295109e-03,6.001660172736127292e-04,3.746198879038836142e-03
-3.915575661219385106e-02,-7.052891159082945449e-02,-3.805308909490059260e-02,-2.351129425544894441e-03,2.059990324741592382e-02,2.144726646874206555e-02,-3.699020267414195734e-02,-1.041528396018519681e-01,-9.085015869651978659e-02,-3.392177774354893094e-02,-4.337544424242477381e-02,-2.933030976432811701e-02,3.700777229862891454e-02,6.661333423533294384e-02,9.006354286290985112e-02,1.575347761128308988e-01,-2.336008416323227810e-02,-2.359432181899113468e-01,-2.629058333969226668e-02,-4.517954337458147951e-02,-1.179612552253334473e-01,-1.095739995661896421e-01,-5.648697006991020009e-02,1.578118268510854683e-01,1.573945660199558838e-01,1.527668571956868615e-01,3.411116939732359299e-01,2.146290284576396201e-01,2.715941502292376630e-01,5.066017345866001831e-01,2.623538755184804394e-01,-2.934465385966560924e-01,-5.032789018653667235e-01,-2.494621746066802426e-01,1.629654064666150315e-01,5.108504169197379818e-01,6.593269523376668606e-02,3.170523542429767166e-02,-6.414561242086283532e-02,-4.474271233299121908e-01,-1.032422545440680739e-01,-1.247753404177081304e-01,-2.379176272592014030e-01,-1.625451112715432800e-01,-1.314395855651477596e-01,-6.559461618264555982e-02,4.907898030938765387e-03,7.310342986138127809e-03,2.660741129525726056e-02,2.223332482715504876e-01,2.017838038270175771e-01,5.691477386427704760e-02,1.755837380394691949e-01,7.893511331042950274e-02,1.004937172428899995e-02,7.356219473578492173e-03,1.072491685359380081e-02,1.972322004479936872e-02,1.323071483171966468e-02,1.398260202811495850e-02,9.843988916061521474e-03,-5.689661190086858777e-02,-3.602695014544451263e-02,4.813304034823760041e-02,1.208551834663754154e-01,1.267172727591362180e-01,3.234166209372860840e-02,6.757779887700161858e-02,1.563399063002257894e-01,1.047680398745386293e-01,-3.212806807088056799e-02,-5.446940931652703710e-03,1.215906420176252611e-01,6.247861070044870985e-02,-1.920622316725888526e-02,-6.855966099408089542e-02,-1.238184914664767766e-01,-5.106314456441323618e-02,3.252283210339552977e-02,1.459461824424771771e-02,-5.444549247545510395e-02,-9.017029238750000342e-02,-1.188423615597415522e-01,1.669818829156388684e-01,2.682183349717234266e-01,8.709386199705874965e-02,-7.686733737653864140e-02,-2.350586155368158681e-01,-3.019616571150702811e-01,-2.525561956793448762e-02,-1.374418781589323291e-01,-2.665561706470269687e-01,-7.201249264704127906e-02,-1.320954754773198125e-01,6.010503023185524707e-02,1.752472885683337978e-01,2.805899150610801501e-02,-8.487283698315635505e-02,-1.969168296580040001e-02,1.807767786732764753e-02,-1.557378834030475126e-02,-6.214729329481166742e-02,2.053658916161530193e-02,4.666921029705183022e-02,-8.266360777491793543e-02,-8.091161149935537089e-02,3.057797114290231912e-03,-5.085407444318884584e-02,-8.950032413542088894e-02,-1.319336477140822250e-01,1.537524659409089493e-02,5.515046972381468932e-02,9.309794126668925751e-02,1.840778415500610443e-01,1.298747112146466376e-01,1.428026754428582679e-01,5.995989729279209424e-02,1.165771320875087433e-02,5.241365129484089336e-02,7.246648621408542656e-02,2.335306451244376080e-02,2.502743071084396684e-02,7.783685692950791102e-02,1.400088831813784719e-02,6.225510919253717662e-02,4.787709953460535239e-02,1.712275942833043144e-02,1.231034757852985870e-02,-9.670677905143329478e-02,-9.702560465234480458e-02,-6.802275917944053396e-02,-6.253316214480443558e-02,4.784914679613236355e-02,1.243930880666145045e-01,1.465073930708510053e-01,1.417801167076806479e-01,5.799764868889410729e-02,2.580485763586419512e-02,-4.032829429792657294e-02,-6.434357601594314913e-02,1.138164119377084171e-01,-8.867849706664657217e-02,-4.310401151620137372e-01,-4.915588030415737331e-01,-1.084620080520367624e-01,2.214068338877609732e-01,6.232556521288048351e-02,-9.067903663564998162e-02,-1.488801642372011569e-01,-1.959913936363433251e-02,-6.816168711651945933e-02,-1.067989337039274150e-01,-1.855348779493456723e-01,-2.103692700364607759e-01,-3.411942277508759336e-01,-3.944770918085332978e-01,-3.334006131138015361e-01,-3.351312619508169943e-01,-2.049035332005184062e-01,-2.537880890793300925e-01,-2.363247664835593786e-01,-2.018744630578329091e-01,-2.209903293216019526e-01,-2.682793534028165561e-01,-3.127050470578694452e-01,-2.195664128479047628e-01,-1.154615803822986592e-01,-9.399520296275623576e-02,-5.197440597466341378e-02,7.139597845728008589e-03,5.730714518787513589e-02,1.130232786188960052e-02,-4.700324157942179816e-03,-1.015162751372504849e-02,-4.417415870372633398e-03,-7.326418839665462500e-04,-3.135046275962985463e-02,-7.883958259289651493e-02,-1.181307745075975968e-01,-1.206506818715822604e-01,-8.128036211395617272e-02,-7.109020030835333515e-02,-6.347601436800366648e-02,-4.744348161491122873e-02,-2.948907572222401671e-02,-1.084946500666437129e-02,-3.987967509333834037e-03,-8.605794712562451695e-03,-2.489838034254245047e-02,1.171422612166787489e-02,-3.077677802047963217e-03,-4.038007934573601375e-03,5.582608386964606380e-03,3.030130239610922746e-02,2.229772155284690319e-02,-3.389443311784173102e-02,-6.251955461823006932e-02,-4.161303841025140032e-02,-4.261313332031894247e-02,-5.275719241796986841e-02,-2.133312000342570819e-02,1.049303839487124301e-01,1.576257185924635484e-01,5.384085043957509420e-02,2.658317328238832961e-02,4.731090104288614845e-02,7.127977604734696271e-02,-8.222949716699710920e-02,-2.175593365482238542e-02,2.244185324969383277e-02,-1.478820571563722874e-01,-1.522395551163174821e-01,-7.198875182113968763e-02,-1.523378116660128456e-01,-3.397786338879667523e-01,-5.936834690712706752e-01,-3.459017456070671015e-01,-8.178381399818525355e-02,-2.458274562502888588e-02,-8.593902114940527026e-02,5.751971025437415536e-02,1.539659574020554589e-01,1.057329489403238260e-01,2.837998123678359824e-02,9.080649734125491312e-02,1.062995884311344758e-01,-1.330010560355985314e-03,1.612242356567630819e-02,7.902568157158690321e-02,8.181569922223466684e-02,6.978525920594828846e-02,7.525799221051526766e-02,9.366154127312112387e-02,1.241671959476675774e-01,1.038883601687574931e-01,3.270174467668508778e-02,-3.201770977523658163e-02,-3.309228299035988502e-02,-9.207828920817517221e-03,1.412308005376052694e-02,4.581116552618323678e-02,7.771142674602359024e-02,9.948976528129224728e-02,1.557646152975505072e-01,2.038289228544458986e-01,2.236111123800245404e-01,2.194916806333224168e-01,1.638621917482952495e-01,1.106593978291414287e-01,5.069412809016405480e-02,2.223790375414498241e-02,2.283537933013276774e-02,9.322246250558273092e-03,-2.042831092286162206e-02,-7.265076152344523974e-02,-1.458404613981007791e-01,-2.395907710236162280e-01,-2.370038100648076407e-01,-1.560785348397969730e-01,-1.003273741782969297e-01,-8.422893258614268241e-02,-8.242492268661402721e-02,-7.550539021432621511e-02,-6.510658246856086684e-02,-6.087689043156638280e-02,-5.537091111195323323e-02,-5.274590753554549150e-02,-5.066149252443461620e-02,-4.358455196353720751e-02,-3.914692514476333929e-02,-4.103877974557459257e-02,-4.179068996758886212e-02,-3.829830203866078225e-02,-3.803116261254337743e-02,-3.582596629297851026e-02,-3.631769722339422968e-02,-3.015065193080136360e-02,-1.939538654525679168e-02,-1.333465157838299199e-02,-1.145301402778343275e-02,-1.028658796128201561e-02,-6.822410532247502254e-03,-5.751894109162552712e-03,-4.486930950340006427e-03,6.278199522137347830e-04,3.920769859548202743e-03
-4.457077013661280701e-02,-8.014998672425746595e-02,-4.433249070248605067e-02,-2.680213285334325478e-03,2.392561887840428947e-02,2.337218470293491931e-02,-3.846294504688076848e-02,-1.115116009105693029e-01,-9.538895111837657204e-02,-3.441226469561035201e-02,-4.283392368032052505e-02,-2.839389495436984642e-02,3.683582699522842258e-02,6.885308374029944223e-02,9.362760058507185734e-02,1.676054625917677010e-01,-2.550339012944155201e-02,-2.600269484768508721e-01,-2.880571303792332435e-02,-4.825504797198765933e-02,-1.256984050772661510e-01,-1.181110975001782165e-01,-6.055608894470065201e-02,1.686374755292202599e-01,1.670365635318722397e-01,1.564660924815453324e-01,3.399441696356207410e-01,2.108981520576033997e-01,2.666240704690381325e-01,5.029828150613039339e-01,2.635696024671295712e-01,-2.984127267263474437e-01,-5.137748122275225260e-01,-2.517619114377815381e-01,1.633080325123208165e-01,5.130549499076222375e-01,6.607932638073379938e-02,3.188379053626324428e-02,-6.447378384358808112e-02,-4.476857112426888552e-01,-1.004248327459617840e-01,-1.205834467972869556e-01,-2.255252024257991539e-01,-1.430219717458791340e-01,-1.034467700856212674e-01,-4.975204803895260514e-02,3.862713501953598735e-03,5.230244862734909767e-03,1.819738592885401102e-02,1.489050702849073760e-01,1.466334209903146224e-01,4.208350466941079143e-02,1.135699530801195234e-01,5.506591127956800280e-02,2.833940592188494926e-03,-1.076977194970761033e-02,1.866064883748575279e-02,2.304622370123489417e-02,1.677672524554053857e-02,1.720852238804591178e-02,9.966156273278769726e-03,-5.554536914533766273e-02,-3.892157963293923356e-02,5.068641419506777351e-02,1.562533065151629763e-01,1.565668056368422767e-01,3.155968012972986542e-02,6.342970556231994350e-02,1.577298358460185734e-01,1.016755460394646038e-01,-2.850202276750716385e-02,-5.020508905640021224e-03,1.188380918406203995e-01,6.598729719941794081e-02,-1.797398859291357912e-02,-6.301272955069908699e-02,-1.357694995244050629e-01,-5.794444161849063302e-02,3.404238705447893559e-02,1.466341599055569905e-02,-5.324378507354277090e-02,-8.297899005180171816e-02,-1.166736393181872916e-01,1.888975664270909627e-01,3.212852275328403340e-01,1.091765771378174765e-01,-1.036917514495870191e-01,-2.537887988898341884e-01,-2.702806895827381539e-01,-2.582217508196098590e-02,-1.482070489063638252e-01,-3.065673482671589234e-01,-8.540645948751986183e-02,-1.352201819672372574e-01,6.241504607184995140e-02,1.926485119161205350e-01,2.785973496497962804e-02,-7.937014801797845354e-02,-1.821804824106782600e-02,1.831692544579255344e-02,-1.784764989264582200e-02,-7.645444866129057215e-02,2.730391927675170083e-02,7.553544673594300707e-02,-9.873932727065808101e-02,-6.816562249175874000e-02,3.032220457988096633e-03,-5.159919656481237737e-02,-9.358106655608572355e-02,-1.286216897177971663e-01,1.644558187700088936e-02,6.345467939459811801e-02,1.036632991904998802e-01,2.363085723313554931e-01,1.516188652406365300e-01,1.527732443936715701e-01,6.116021433122512119e-02,1.124648664843874886e-02,5.506530877984669448e-02,8.019226837597845381e-02,2.593479364101185583e-02,2.664224130985569719e-02,8.280007469197808723e-02,1.508181439310374468e-02,7.159559479978272467e-02,5.167582421561375816e-02,1.739872199958822016e-02,1.269708393789593937e-02,-9.521923616766124476e-02,-1.007991216545871954e-01,-7.393211611258863891e-02,-6.983134723450312720e-02,5.090776423631010461e-02,1.182002544778111702e-01,1.567541622088898245e-01,1.478251388562925872e-01,5.202599399648461659e-02,2.587597891166929648e-02,-4.735336993042806725e-02,-6.834821585390390974e-02,9.865749149092488401e-02,-8.086980616261543742e-02,-4.452312789092581213e-01,-5.522476871503687601e-01,-1.126689764217213563e-01,2.095048656900519168e-01,5.582626936332157203e-02,-8.253232289100428942e-02,-1.436837532782084537e-01,-2.186158744327094949e-02,-7.497086519100450153e-02,-9.743473671947598669e-02,-1.765782598063161679e-01,-2.187357647316097720e-01,-3.740713496987380648e-01,-4.403178544404240391e-01,-3.496561597127845200e-01,-3.273848068189216809e-01,-2.118805900334479464e-01,-2.802039634091042508e-01,-2.567972386354887004e-01,-2.167678040310415943e-01,-2.370748199538636469e-01,-3.144319936733033227e-01,-3.775252538456950191e-01,-2.341249485227761828e-01,-1.224312527462957378e-01,-1.069974773565459253e-01,-5.364490945895115243e-02,7.013065877312787272e-03,6.098271910063431805e-02,1.622447691067364917e-02,-3.258252357981292723e-03,-1.052638675908181866e-02,-4.433733179660094559e-03,-7.235792564956059153e-04,-3.433332070303957151e-02,-8.467343991108547407e-02,-1.233039332375315683e-01,-1.289724620357872165e-01,-8.917187678679519558e-02,-7.607453157976613867e-02,-6.391817183249647039e-02,-4.488383177504116223e-02,-2.411294549402670170e-02,-9.704893122773958561e-03,-3.296839248578000824e-03,-7.502445010816401541e-03,-2.354833686978377930e-02,1.011765574002441992e-02,-5.130239556054474147e-03,-1.895791780102903598e-02,3.693528667499051867e-03,3.844936993513689560e-02,2.324978811213041993e-02,-2.977668578675237918e-02,-6.958611414988671862e-02,-5.136081661267968140e-02,-4.280911208810424945e-02,-5.161825534186874342e-02,-2.162422251070325943e-02,9.616832986080377232e-02,1.425324531195389932e-01,5.122490079254914119e-02,2.580317238965372864e-02,4.464989465420540066e-02,6.836974888688907015e-02,-7.949272176236017728e-02,-2.030026483994216979e-02,1.910299613526413379e-02,-1.324064420710052981e-01,-1.571157965976921478e-01,-7.372767794534727803e-02,-1.638507579864846020e-01,-3.639413157049961600e-01,-5.628968521494311927e-01,-3.240671294297747251e-01,-8.168386433243740585e-02,-2.722798838727160872e-02,-8.806629915555554133e-02,5.546456406348935358e-02,1.488725656165432176e-01,9.709943303192597464e-02,2.412467391064558944e-02,6.903777111445161263e-02,9.011477646085287729e-02,-1.251935540056421485e-03,1.621387977715097253e-02,8.842695433288280671e-02,8.584020290959984423e-02,7.128334359877543103e-02,7.331081805504933990e-02,7.983448786507207906e-02,1.115668841814619616e-01,9.264118727299457123e-02,2.500511403245920042e-02,-2.120839183394858385e-02,-1.226634574585245760e-02,1.572398631039910455e-02,3.308639225061707489e-02,6.959454379391552536e-02,1.033837652774535348e-01,1.216535893464442131e-01,1.801534469442237496e-01,2.289866076900376746e-01,2.475360683995089239e-01,2.400429730519534066e-01,1.780645210073048268e-01,1.203869735683261860e-01,5.565282116671532026e-02,2.462216211468406385e-02,2.535364836628721530e-02,1.026240631020111822e-02,-2.197261797104938311e-02,-7.651653457364630817e-02,-1.506049168094035495e-01,-2.435632914432560581e-01,-2.375252860978950553e-01,-1.548749597883765372e-01,-9.902229345776608627e-02,-8.291986835856053617e-02,-8.097433833531245129e-02,-7.400945873043797418e-02,-6.377051904982493358e-02,-5.957309115569291852e-02,-5.410563133229986943e-02,-5.151075980014090810e-02,-4.943014622077311626e-02,-4.254100114959542822e-02,-3.821261602309591887e-02,-4.001734873021546568e-02,-4.070995377197091092e-02,-3.727894012390919887e-02,-3.703665971284657299e-02,-3.490929829914958538e-02,-3.537021218708511633e-02,-2.935733948500757196e-02,-1.888368892639712485e-02,-1.297917327383308478e-02,-1.114987437002848414e-02,-1.001342568960680857e-02,-6.638912203159946616e-03,-5.592890322154124225e-03,-4.363254081929439365e-03,6.111157917504981369e-04,3.814304126429093889e-03
-3.902621407923241581e-02,-6.282448576314332567e-02,-3.618027273137111588e-02,-2.324734914347655491e-03,2.084672639098055294e-02,2.196808428228682469e-02,-3.573953713688951539e-02,-1.000965412028605728e-01,-8.818281149125799245e-02,-3.309180528099959356e-02,-4.134341920156454908e-02,-2.729686627620753897e-02,3.416069582401985716e-02,6.226284040522035712e-02,8.911263026112976882e-02,1.614899517487581315e-01,-2.346148115298102299e-02,-2.319481949922886088e-01,-2.643665257806503480e-02,-4.610191609135113472e-02,-1.212290746211559800e-01,-1.132337168838332964e-01,-5.851384977784789693e-02,1.615292550609622180e-01,1.564958648300616151e-01,1.454117370374760632e-01,3.197135673632776620e-01,2.018259042781819501e-01,2.508595987296551866e-01,4.738434630394380287e-01,2.533818106374499668e-01,-2.882872209285877174e-01,-4.955023864606786788e-01,-2.423495864692535029e-01,1.539527840734355446e-01,4.849070718941357327e-01,6.433508223703852946e-02,3.081981606758452813e-02,-6.147119563962060579e-02,-4.280761278571292294e-01,-9.386632888993047541e-02,-1.089727110973659346e-01,-2.054264500184013464e-01,-1.321452114239607678e-01,-1.008044300704186991e-01,-4.849763472534807801e-02,3.604997950684101296e-03,5.399790730494466798e-03,1.938999847498693724e-02,1.668834064686678664e-01,1.549713392154663805e-01,4.293324358800864465e-02,1.394856373620647350e-01,7.006591869854059129e-02,7.812230021336515756e-03,3.691555381389724933e-03,3.217402965489623862e-03,1.314881336319957857e-02,1.360762266312362002e-02,1.231543482193704978e-02,7.666886936086765754e-03,-4.170044855076351920e-02,-2.919870097276977897e-02,3.780125497463096562e-02,8.591170759063838924e-02,8.680939336489428004e-02,1.864952452110555867e-02,4.182865848113838381e-02,1.031352261456986996e-01,7.505520661289002970e-02,-2.313828908699774520e-02,-3.680562690497644375e-03,8.862341689538517919e-02,4.759638196558997614e-02,-1.431122867077532640e-02,-5.184021285205608898e-02,-9.606789847635055501e-02,-4.425966864420249197e-02,2.950133217016471035e-02,1.207603933997009570e-02,-5.057219262917835717e-02,-8.562085972480255880e-02,-1.075334369369893850e-01,1.786709152089956398e-01,2.917813473623567244e-01,8.546190858881697050e-02,-8.762894657249253871e-02,-2.458196555407426709e-01,-2.987206725910710459e-01,-2.396777864619669893e-02,-1.120865419315589251e-01,-2.247833428662981692e-01,-6.605168978747114061e-02,-1.297545169615028082e-01,6.270303751107668411e-02,1.841336605607118981e-01,2.929123590519145531e-02,-1.059109035145223143e-01,-2.423019532586932756e-02,2.167667171368838075e-02,-2.253190083683428990e-02,-8.541494929355783472e-02,2.353930692515604495e-02,6.554275910309922959e-02,-1.094803691336609791e-01,-8.635716698984492734e-02,3.549197611275836835e-03,-6.427035549335291531e-02,-9.800769382233776028e-02,-1.173988081786614401e-01,1.516799578629851250e-02,6.520422669997716358e-02,1.126571693954139253e-01,2.094358076704154470e-01,1.272250857357107856e-01,1.363448692184880962e-01,5.731649232619786399e-02,9.704846564960612626e-03,4.469582487246709368e-02,7.104943634195380608e-02,2.430063492034338982e-02,2.484851530472469844e-02,8.240919010558357682e-02,1.509464540522236463e-02,6.792400476039819890e-02,5.632848930510493679e-02,1.990110750866090975e-02,1.435582809739125928e-02,-1.086961767953609909e-01,-1.055916552993436675e-01,-7.675800090241459428e-02,-7.421346981091407613e-02,6.166940944018570875e-02,1.545211864819158731e-01,1.754328776131076906e-01,1.885564882563378064e-01,7.623819231420181364e-02,2.744626181694509448e-02,-4.994181257315847416e-02,-8.445182950319041204e-02,1.179594351645398137e-01,-8.361480851559453809e-02,-3.848757218712993700e-01,-4.872301798432271402e-01,-1.163794003963591756e-01,2.129351646219742877e-01,4.805059907762413568e-02,-7.324890274537329549e-02,-1.327659742428823897e-01,-1.915343636996482898e-02,-6.952783610328540365e-02,-9.038735246876479501e-02,-1.607531753416570619e-01,-2.165060632113867123e-01,-3.676837551173953722e-01,-4.460009243668501266e-01,-3.485875680040864122e-01,-3.183154651266941748e-01,-2.169528273427974441e-01,-3.205722030531069078e-01,-2.877336171816881061e-01,-2.035695570595831005e-01,-2.153358379669364220e-01,-2.913618103132044612e-01,-3.722151092048162080e-01,-2.708665350612060596e-01,-1.376291456237474231e-01,-1.106299711694875704e-01,-6.595979422938708092e-02,9.683058559669206408e-03,8.649673897742342354e-02,4.210201404667198583e-02,5.457985883794496187e-03,-1.486458736037335427e-03,-1.417531932249172476e-03,-4.174200588903601429e-04,-2.165179402279221454e-02,-4.749982928589999848e-02,-7.858484999432457929e-02,-8.186816020450932152e-02,-4.288530375085000679e-02,-1.578857463209696471e-02,-4.041152373590771278e-03,-2.705504301223485893e-03,4.896236878698803164e-04,4.614281419933808671e-03,1.300955298378762360e-03,4.273555163156707499e-04,-6.747923322208376588e-03,4.885686667517448629e-03,1.316589535112001105e-03,1.945672809358708899e-02,3.284113571934881015e-02,6.023630084373362420e-02,2.642549487258798874e-02,-3.160299411347626541e-02,-7.270408691766791498e-02,-5.719156859764899098e-02,-4.390140551443710154e-02,-4.187659853675890914e-02,-1.816779342164313513e-02,8.929994284566966645e-02,1.229220469745560262e-01,4.015564970752358992e-02,1.969873683151411245e-02,3.596530934387680289e-02,6.044321624701467360e-02,-7.364046586941883077e-02,-1.824752941212247348e-02,1.900629143225473702e-02,-1.358078718538650032e-01,-1.410135359603893190e-01,-6.500515011376049868e-02,-1.379136718580172838e-01,-3.312563252711387407e-01,-5.598851178853381239e-01,-3.302593575353902078e-01,-8.730603303075444577e-02,-2.543273640569326116e-02,-8.083656423370995381e-02,5.491768617879627667e-02,1.385194672117061043e-01,9.246700722001598149e-02,2.568586256884803493e-02,8.055620694401918747e-02,1.025726617828385395e-01,-1.478294833984635046e-03,2.005690711238221693e-02,9.831481386593689253e-02,9.618325676489933307e-02,8.693741573596928951e-02,9.188119709263829760e-02,9.739341035903055499e-02,1.375902084821134519e-01,1.318490539712996734e-01,4.642475880367922386e-02,-4.323435395541779663e-02,-4.156697945166226704e-02,-2.062393457010228831e-02,5.995946255107719933e-03,4.204011370651462159e-02,7.945510845568760916e-02,1.042822741654574198e-01,1.592555761442050188e-01,2.079078297811875475e-01,2.294469740479716802e-01,2.255601283003332291e-01,1.683708677035363754e-01,1.129056689418613951e-01,5.117664209935061936e-02,2.248827933377199606e-02,2.352305310201933258e-02,9.709193156134747135e-03,-2.110966850492637312e-02,-7.504754081456990744e-02,-1.521834434507240708e-01,-2.511947122494062601e-01,-2.489977588258180385e-01,-1.640634469346683166e-01,-1.053895054579316870e-01,-8.849741701393731841e-02,-8.672227882734492854e-02,-7.953163004837253414e-02,-6.860579618429785143e-02,-6.416931284538825164e-02,-5.838191888947739244e-02,-5.561847589265613706e-02,-5.336286018621185651e-02,-4.589294226848431718e-02,-4.127054498282621553e-02,-4.329161474733027315e-02,-4.405223052508568798e-02,-4.035533775884810742e-02,-4.010892729142311736e-02,-3.779784630454839645e-02,-3.833374550552051674e-02,-3.184878660392622546e-02,-2.048223228771472310e-02,-1.407722187069376796e-02,-1.210449309345560179e-02,-1.087943122812563487e-02,-7.211986086384561054e-03,-6.080763421950382067e-03,-4.744865407842651164e-03,6.643192004700196199e-04,4.146009503025622871e-03
-4.495804126918335336e-02,-8.258740982162525446e-02,-4.477265545233252014e-02,-2.793580536027054275e-03,2.474534630968655904e-02,2.465592573536233914e-02,-4.075279455476790019e-02,-1.132869464027392581e-01,-9.980063388602365693e-02,-3.705425445704161463e-02,-4.501058939249198004e-02,-3.011510028825794064e-02,3.860325583933393867e-02,6.894915142739971303e-02,9.637778899218091277e-02,1.740832048667805276e-01,-2.545040357897902436e-02,-2.526072744195598796e-01,-2.779343173522971083e-02,-4.800889613921429516e-02,-1.254440529374875324e-01,-1.157677123304860639e-01,-6.005548435783981259e-02,1.682486232060114162e-01,1.654371800583316343e-01,1.570151977192899562e-01,3.488627583257367659e-01,2.215311497977066058e-01,2.813272230929617646e-01,5.231453667022401000e-01,2.718851747958895837e-01,-3.051998505035924403e-01,-5.226009186684261731e-01,-2.573334388120991356e-01,1.681515188857074239e-01,5.310920379903121269e-01,6.902327990870553431e-02,3.332660946534828778e-02,-6.770645267140029677e-02,-4.761950286263100796e-01,-1.065137663023087156e-01,-1.308508598667773581e-01,-2.492434909389092124e-01,-1.612960004488111776e-01,-1.283764907704543490e-01,-6.504917039360501307e-02,5.146545910018588028e-03,7.535888021787829488e-03,2.715422953744474344e-02,2.183833965266876176e-01,1.969921506097031538e-01,5.888173473497922833e-02,1.972894410745281435e-01,7.634766593581036875e-02,6.978597499161185054e-03,-2.671327644145868622e-04,1.946806342887011029e-02,2.342166803700343816e-02,1.372107961237276769e-02,1.363447245977289328e-02,8.175253638130276432e-03,-4.564222629908530615e-02,-3.403776635512507920e-02,4.590158424979998847e-02,1.426657916858676545e-01,1.417305541701729954e-01,2.979951567805005572e-02,5.972460479684255780e-02,1.437797106821285531e-01,1.077383140475303425e-01,-3.239573808178412145e-02,-5.663947578228065161e-03,1.279966899465011243e-01,6.153696321269115643e-02,-1.758755147500174615e-02,-6.540027703653318591e-02,-1.387311423195092541e-01,-5.331555247670486525e-02,3.025485347253178275e-02,1.426419526550092194e-02,-5.480057325014445202e-02,-8.986676339281143844e-02,-1.234247943779459844e-01,1.705326643620784233e-01,2.398124219292643300e-01,7.740798944533522352e-02,-7.811530192046847731e-02,-2.371369813972504514e-01,-2.760291967865500795e-01,-2.580288305959316242e-02,-1.341887331355164914e-01,-2.620394283402911473e-01,-7.973941526847524996e-02,-1.227480980644265335e-01,5.495059190231481316e-02,1.722048357845026023e-01,2.635954295401039121e-02,-8.216947633872073720e-02,-1.856089895959698102e-02,1.740432677246841683e-02,-1.654438590355562441e-02,-5.884660562015776863e-02,1.948346845689074777e-02,5.815088106842433713e-02,-7.698841880392086334e-02,-5.921640850654715654e-02,2.885950744838535007e-03,-5.099901600657314599e-02,-8.232408703606676481e-02,-1.306905653361662145e-01,1.623372549570200815e-02,5.475028425429363105e-02,8.765160802099197790e-02,2.104973594035817741e-01,1.509298612920030869e-01,1.379652345165443550e-01,5.552865168474235141e-02,1.193275543478653639e-02,5.892166811068204335e-02,7.730565056894922460e-02,2.483468161500916246e-02,2.377106051659588076e-02,7.152818300204863422e-02,1.447164774924667233e-02,7.028214038229078919e-02,5.336556467771777501e-02,1.729946780342022511e-02,1.150218554001857484e-02,-8.563926209689426416e-02,-8.802707517528078618e-02,-6.362407631356130355e-02,-6.338421563161199257e-02,5.285929207671898750e-02,1.217627985315851286e-01,1.411839126467291095e-01,1.477808709967828316e-01,5.095623262422432909e-02,2.352804100384034772e-02,-4.960178459557791630e-02,-7.412954546068267758e-02,1.078057599083985518e-01,-9.496429192842958944e-02,-4.641494493085511208e-01,-4.997928846449459783e-01,-1.190629898453176433e-01,2.464540041437926488e-01,6.106169743969814406e-02,-8.694087464583245828e-02,-1.609957093535482053e-01,-2.297103172016966635e-02,-7.756632516041829517e-02,-1.099645189934102540e-01,-1.918856206788926433e-01,-2.232769916810549704e-01,-3.767990252226627867e-01,-4.273108282003642566e-01,-3.295795882160326706e-01,-3.285003753362166767e-01,-2.203649008471919024e-01,-2.847641520724126796e-01,-2.473243677444302568e-01,-1.938151079922827147e-01,-2.022749295173778272e-01,-2.764699026290832196e-01,-3.482517800068111180e-01,-2.345210744310540218e-01,-1.123803744027922491e-01,-8.448734513170867710e-02,-4.534138391366109716e-02,5.910430152551566368e-03,4.545872062775478673e-02,6.836647925012512284e-03,-5.727677097990447816e-03,-1.089596977176791187e-02,-4.589433859870348936e-03,-7.928658431784703147e-04,-3.589525358977047748e-02,-8.002382650773687267e-02,-1.171845728253703561e-01,-1.262338398362943259e-01,-7.962145459309885598e-02,-6.456354766239014165e-02,-5.660727891330424866e-02,-3.656916790907148440e-02,-2.056460492100118526e-02,-9.683027678996479135e-03,-4.133196739304128772e-03,-8.090121275948585627e-03,-2.386835567088799875e-02,1.135162674471549421e-02,-4.871647526534244807e-03,-1.683385725729039453e-02,1.760100225601244489e-02,6.003245018747067202e-02,3.001107435517778518e-02,-3.963227775952362503e-02,-7.874030466027637232e-02,-5.297969238383053864e-02,-4.969286630656336717e-02,-5.820911116547432956e-02,-2.352619506203752417e-02,1.215756084019114641e-01,1.829076156952259002e-01,5.819665338957585865e-02,2.782746042079829035e-02,4.865840253587663811e-02,7.706805160051984072e-02,-9.285343711414859036e-02,-2.294623953061839319e-02,2.291901461322704003e-02,-1.597781571299340120e-01,-1.634752685893059998e-01,-7.353704700659724480e-02,-1.658062011592364715e-01,-3.638686823929209169e-01,-5.766913387170669036e-01,-3.240239780144045789e-01,-7.493726189445694408e-02,-2.326831154564772131e-02,-7.941168934279797809e-02,5.537748159777389906e-02,1.492675633468482366e-01,9.075450909193340243e-02,2.346659438656025290e-02,7.324698751354261073e-02,8.727738147086595843e-02,-1.186646437260309959e-03,1.423319954007112691e-02,7.761449319787822043e-02,8.685625117781040072e-02,7.864639806392588472e-02,8.372848868503468545e-02,8.799197093106642109e-02,1.130390855562076191e-01,9.579520533011230687e-02,2.920543022906544120e-02,-2.772677878013370123e-02,-2.013394397492409074e-02,6.657375127396072088e-03,2.574181095414146761e-02,6.010047694265128332e-02,9.251115139269301679e-02,1.138536961639036310e-01,1.703599536340714982e-01,2.158123714970063556e-01,2.337875259647010373e-01,2.249978759605782697e-01,1.651725256977871759e-01,1.105560129662128827e-01,5.034947522645935591e-02,2.204443171534228169e-02,2.269899710163012299e-02,9.255739751162313581e-03,-2.002011720057681604e-02,-7.086735155628581806e-02,-1.423272771049178820e-01,-2.327807360185193686e-01,-2.294212666647798826e-01,-1.508331032724124221e-01,-9.673981462185934910e-02,-8.114328119255619087e-02,-7.938776170107635088e-02,-7.263715794769751155e-02,-6.259704535929494496e-02,-5.854256294016667306e-02,-5.321337035561034962e-02,-5.063822424393767813e-02,-4.858935909712759627e-02,-4.180492512904720320e-02,-3.755630044322215422e-02,-3.935024710348198479e-02,-4.005395134870486790e-02,-3.670109824009792215e-02,-3.644964075988152419e-02,-3.434563288679515908e-02,-3.480710241905555363e-02,-2.887625442751816374e-02,-1.856643640270413259e-02,-1.275717496506278796e-02,-1.095702210266946870e-02,-9.846823749654405600e-03,-6.531035255786207458e-03,-5.502979262327727973e-03,-4.291305181295155570e-03,6.007250147694296900e-04,3.750711877359877346e-03
-4.228376793166031128e-02,-7.460179136553095336e-02,-4.178884633077708383e-02,-2.641872634512647689e-03,2.302195285594769991e-02,2.241152820340400892e-02,-3.693171678998714846e-02,-1.048586309476437634e-01,-9.032900911426006152e-02,-3.317855078998861729e-02,-4.111719766381252694e-02,-2.804360090226065694e-02,3.571626349072119094e-02,6.486284373681287796e-02,9.116641502752341475e-02,1.611538270866289813e-01,-2.393185721231428850e-02,-2.397859809752835303e-01,-2.652015907279652376e-02,-4.563469204650205668e-02,-1.178437687607690187e-01,-1.098789760093266121e-01,-5.674694313376860838e-02,1.582940037318644744e-01,1.597250962242579286e-01,1.520009998904114923e-01,3.325174175991241765e-01,2.072066571306786231e-01,2.603596991046199793e-01,4.877081547272613116e-01,2.557646354568022251e-01,-2.889769692799337708e-01,-4.981740727346819497e-01,-2.463563444533372060e-01,1.595547199207254241e-01,5.014310486987776372e-01,6.553212560046103863e-02,3.191455284019738270e-02,-6.408358441568838548e-02,-4.519147010662230013e-01,-1.031738830443887645e-01,-1.240020624459473308e-01,-2.397189305409964666e-01,-1.567914097625454639e-01,-1.166774041267111678e-01,-5.494890319531423734e-02,4.185224627044118427e-03,6.304422449567723824e-03,2.345438675361167027e-02,1.973536913576100227e-01,1.792343279490382912e-01,5.058828288946413260e-02,1.501774673437258067e-01,6.254435292759913390e-02,3.714652852706350119e-03,-1.283838121523670113e-02,2.808168724677851183e-02,3.258012314204687676e-02,2.092848038840347882e-02,1.950449109828803276e-02,1.177587091089730975e-02,-6.369200835991808973e-02,-4.176516855217619201e-02,5.810488619214548150e-02,1.680990451883423720e-01,1.596353246725454866e-01,3.523753347818146114e-02,7.737523803422392821e-02,1.912774417810423899e-01,1.326139397658470664e-01,-4.176385512591044430e-02,-7.152612033694875915e-03,1.444498566930222383e-01,6.676100755560089584e-02,-1.992613015333015089e-02,-7.068625424424039572e-02,-1.343541460202184457e-01,-6.275026371557701488e-02,4.195018994721677608e-02,1.788722024360727206e-02,-6.270604273481517055e-02,-1.011020058731296745e-01,-1.314633713597190556e-01,1.992744622762062934e-01,3.216998126309740802e-01,8.627709538325334382e-02,-7.993190158465796058e-02,-2.635542145294809679e-01,-3.159891148851377563e-01,-2.879550881505904547e-02,-1.557650625440478720e-01,-3.029314310407215105e-01,-7.956458725164428092e-02,-1.203618837600787944e-01,5.679110057202086531e-02,1.888596708255849410e-01,2.867354062769346054e-02,-8.361387119567550985e-02,-1.942031142737671995e-02,1.835430787992769347e-02,-1.601510015955403057e-02,-6.561499868861313256e-02,2.016078980399362008e-02,4.852552832595636439e-02,-7.225112948392015122e-02,-5.384184217510099707e-02,2.436869855870921371e-03,-5.202177267214408429e-02,-9.459775837493289430e-02,-1.284943067179400433e-01,1.617661638422144069e-02,6.650013415903992253e-02,1.071559458930410741e-01,2.135468357306924136e-01,1.529842076241417215e-01,1.546277938734907098e-01,6.608241668281439329e-02,1.368811301954025485e-02,6.446431815363859452e-02,8.916816799621128664e-02,2.896327336992536583e-02,2.816957538151439872e-02,8.164497839648604538e-02,1.525572662492774047e-02,7.251205392087380075e-02,5.420606778630310957e-02,1.714712415348795121e-02,1.004047671686865949e-02,-8.016569798243813882e-02,-9.408920332546458209e-02,-6.191642368185414774e-02,-5.166858121699335893e-02,3.974084516109054749e-02,1.144786352482196623e-01,1.266374093199764683e-01,1.025489558799109746e-01,4.040624192652695484e-02,1.875168584977141700e-02,-3.425009083265895954e-02,-5.688006141528351156e-02,9.090683196063924221e-02,-9.023691945513687140e-02,-5.297594901356968977e-01,-5.396232708162905789e-01,-1.158973184594205147e-01,2.497360274776602163e-01,6.672652094423671409e-02,-9.577132873402384450e-02,-1.699963981565604798e-01,-2.454976370638561889e-02,-8.410331459627715112e-02,-1.175322463260801836e-01,-1.973044609426908291e-01,-2.246884541112879607e-01,-3.575326588638021996e-01,-4.128230020498976360e-01,-3.374159274131519060e-01,-3.535924400688854052e-01,-2.305880148040204414e-01,-2.592874954077305505e-01,-2.091352759209737788e-01,-1.660885779425707309e-01,-1.877883159826685133e-01,-2.413061810507803884e-01,-2.954262528783824227e-01,-1.998509720001320489e-01,-9.635382385660969107e-02,-7.832874572857806417e-02,-3.874540449072239046e-02,3.194196551505197254e-03,5.099564286812919775e-03,-1.657536236362582016e-02,-1.348338018358091923e-02,-1.932805279229519307e-02,-7.096504557868971511e-03,-1.098444369000680992e-03,-4.618715645185687835e-02,-1.041299850168724422e-01,-1.552478199362748446e-01,-1.617784324940220730e-01,-1.096995851890602419e-01,-1.075110850845117233e-01,-1.041684054241237833e-01,-7.718291841422632305e-02,-4.611581112729423032e-02,-2.398470986668226404e-02,-8.661634149331151264e-03,-1.543524218745906396e-02,-4.622723197886146468e-02,2.209703265608872411e-02,-9.519315084127545623e-03,-4.449687971264849884e-02,-3.812781118153313331e-02,-2.150530338655960022e-02,6.751066319529634534e-03,-2.106866274231751143e-02,-4.890319159065480148e-02,-4.160930613181647308e-02,-4.328392829387823354e-02,-5.856357627589355713e-02,-2.416305066085063999e-02,1.195817525526307601e-01,1.885980748501884796e-01,6.411955825076670612e-02,3.069489227408930820e-02,5.292343019717680314e-02,8.076800813058720996e-02,-9.368153889710145732e-02,-2.544422335142072777e-02,2.576289633988496086e-02,-1.690029771693127292e-01,-1.753120297200385369e-01,-7.539686104318291116e-02,-1.608077368693369980e-01,-3.437250438440547229e-01,-5.781414329923709738e-01,-3.542299687735047109e-01,-8.156892221682736366e-02,-2.506356352722607234e-02,-8.060075747359424225e-02,4.875921420339910523e-02,1.142271067979467591e-01,6.905944640109566712e-02,1.738768738142714571e-02,4.635187443136654789e-02,5.519982597741297792e-02,-7.782415736120514580e-04,1.124538110479274787e-02,6.374546916862078305e-02,6.849594145616211271e-02,6.446614984356198452e-02,6.667193643893555566e-02,6.917713095627303632e-02,8.668668094826004200e-02,7.002845018782911934e-02,2.034055024781616927e-02,-1.281735460035898951e-02,4.286607095347634740e-03,3.145024849086774238e-02,4.246162483167749413e-02,7.666276720770662245e-02,1.096752138084918643e-01,1.267764754387944170e-01,1.855814653338389852e-01,2.349916083733729066e-01,2.523958250909666967e-01,2.445991558051404668e-01,1.820518813052212082e-01,1.232441552347147556e-01,5.718221824940489251e-02,2.544916024133087387e-02,2.622764715457880091e-02,1.057680067098200338e-02,-2.240719683888111463e-02,-7.685672260206399820e-02,-1.489493888685064216e-01,-2.375597079519206622e-01,-2.290407301000944862e-01,-1.484079893628339475e-01,-9.444603638577483973e-02,-7.881501695921365458e-02,-7.679937524922260395e-02,-7.010272857416784131e-02,-6.035260019819092825e-02,-5.638931868152716881e-02,-5.121100542130042899e-02,-4.871467994958054992e-02,-4.673691520857955334e-02,-4.018835310923560972e-02,-3.609108636203900433e-02,-3.783013028190897881e-02,-3.848844048097845028e-02,-3.523411233084464828e-02,-3.498310200109941426e-02,-3.296778410103987783e-02,-3.341950770056634212e-02,-2.771655269953045286e-02,-1.782549825059533480e-02,-1.225205855998100224e-02,-1.052009118443420453e-02,-9.451955515351630893e-03,-6.268689988418841598e-03,-5.280917047454477403e-03,-4.118486743497120836e-03,5.765894758323909233e-04,3.599116161030356878e-03
-4.059496737106371017e-02,-7.265992298997667187e-02,-4.248859542027660918e-02,-2.651155107869475162e-03,2.384324048409194874e-02,2.382200711697624387e-02,-3.941694305581171925e-02,-1.111993139779904327e-01,-9.646547211287556656e-02,-3.579055444954712395e-02,-4.418596117495538628e-02,-2.996107878031600835e-02,3.875677843165580699e-02,6.954614348295144743e-02,9.352505118684067975e-02,1.611032452199979148e-01,-2.367125972322130581e-02,-2.374996579595841095e-01,-2.649438214837780345e-02,-4.568810234983967933e-02,-1.194643552513585671e-01,-1.113982520403949822e-01,-5.754677273504855278e-02,1.613892682246070298e-01,1.610350674502054880e-01,1.536916660171515070e-01,3.420846309212485781e-01,2.179039088532269408e-01,2.767713166461122087e-01,5.073537178645837198e-01,2.642504095583730894e-01,-2.982471871220244153e-01,-5.013705545267930219e-01,-2.455502511310955482e-01,1.600375111669472550e-01,5.016314607885853372e-01,6.430308998679115651e-02,3.145378702692293998e-02,-6.506304989274529216e-02,-4.631471135274569662e-01,-1.053398405530977661e-01,-1.274140688811738753e-01,-2.470257209209096305e-01,-1.655181411244786294e-01,-1.352305861283603639e-01,-6.732951459583610965e-02,4.947327561213341052e-03,7.271633883909918786e-03,2.705133363165677582e-02,2.281712159603863088e-01,2.005693295092650930e-01,4.801542122463130918e-02,1.172412440979188203e-01,4.474127751945582848e-02,1.604127630376069600e-03,-9.919098209632234639e-03,2.040524107958409383e-02,2.643623820488583478e-02,1.998573006010864045e-02,1.932902094677075092e-02,1.124116740539573417e-02,-6.656689766911727535e-02,-4.378441733475704756e-02,5.912471485962530332e-02,1.657510728014923995e-01,1.526759539563352086e-01,3.557393478675381637e-02,7.317077828407002327e-02,1.682883926982956524e-01,1.146285876575847129e-01,-3.654045653206403760e-02,-7.161162334978381401e-03,1.622824052438211762e-01,7.433017398585589630e-02,-2.105821186458730482e-02,-7.533859046278842952e-02,-1.539446337301497159e-01,-6.859932950346078750e-02,3.817377845091340927e-02,1.570487821213064142e-02,-6.021640372757646603e-02,-1.073220154258245490e-01,-1.355706254608581851e-01,1.862357323808531140e-01,3.375406080838418421e-01,1.085478090289305197e-01,-1.036599078828524811e-01,-2.777999398083878524e-01,-3.042445571051008435e-01,-3.036918663963437959e-02,-1.560549863476098087e-01,-2.941835107226890567e-01,-8.513291905302243501e-02,-1.438619804953104597e-01,6.464799378022059728e-02,1.822091167205547035e-01,2.478646499773366069e-02,-6.942854738092039957e-02,-1.808215468354172628e-02,1.878420587248182116e-02,-1.523967971897767851e-02,-6.075687078290812476e-02,2.140438415573189812e-02,5.791122942871390622e-02,-9.544473072591609653e-02,-7.091587991147192682e-02,2.769982692769817033e-03,-4.478490165527986705e-02,-8.450071591284262496e-02,-1.423614836334200495e-01,1.786409851700208537e-02,6.346912652346169137e-02,9.678575332629911487e-02,2.173358200067504187e-01,1.491870865984009364e-01,1.427648274942905360e-01,5.899422869796252383e-02,1.116594572927156158e-02,4.796989948314982904e-02,6.625247400181265289e-02,2.324583228585645409e-02,2.290696311225495080e-02,6.657420600994239102e-02,1.310809262355982184e-02,6.343458797169920782e-02,4.585142657506514202e-02,1.493198593048284534e-02,1.067320990963981954e-02,-8.435786429125026464e-02,-8.251250605887046341e-02,-5.957389398476518189e-02,-6.223127902118213983e-02,4.691433389428673051e-02,1.010645285618391592e-01,1.137475135377932212e-01,1.214759251458660400e-01,5.128181217230354250e-02,2.511048939050386161e-02,-4.323886870889118161e-02,-6.245348051720060051e-02,1.048922589765321628e-01,-9.178586815129591292e-02,-4.526971091579872208e-01,-4.806799414799448611e-01,-1.045153639282990210e-01,2.042410819591053694e-01,5.435534683675365825e-02,-9.059130426241956968e-02,-1.556431402647136808e-01,-2.053891808408758388e-02,-7.137738021329460836e-02,-1.014965783440436586e-01,-1.703017241249677183e-01,-1.944279269657282205e-01,-3.535274644236089392e-01,-4.276710227731658764e-01,-3.436655698306891327e-01,-3.319063146146838394e-01,-1.971313452820577794e-01,-2.644033626896143407e-01,-2.479047038499145317e-01,-2.014864294911671849e-01,-2.155231127874435160e-01,-2.698462766563930471e-01,-3.207847965506575583e-01,-2.180436903197542076e-01,-1.084821819893258266e-01,-8.163374862758492057e-02,-4.838843962534473964e-02,6.411513562355368630e-03,4.376819224159791966e-02,8.031142572705884247e-03,-6.469283667296190678e-03,-1.177903506538482796e-02,-4.875673014380289133e-03,-8.053710247916900065e-04,-3.368418406528495002e-02,-8.236125220194635832e-02,-1.244210997096939358e-01,-1.235799484893824185e-01,-8.208233703814976634e-02,-7.466387178597005958e-02,-7.026132388600633827e-02,-5.737741787255128817e-02,-3.516484359881016236e-02,-1.677079537732740697e-02,-5.263813081035489082e-03,-8.283238688853214113e-03,-2.586761291219501907e-02,1.264791951732025660e-02,-4.619711662510031513e-03,-1.433292709008958561e-02,1.022823323307429748e-02,3.398660864494930378e-02,2.576926820460725964e-02,-3.620898994912775254e-02,-5.716336245639341840e-02,-4.222699821279737864e-02,-4.651613694198452470e-02,-5.434486037155981247e-02,-2.022975115108754593e-02,1.017362467175264296e-01,1.643187824556814614e-01,5.461411857423056904e-02,2.527760035954922102e-02,4.470861604954214780e-02,6.922777561594763152e-02,-8.233048518930843884e-02,-2.232238146709829979e-02,2.260345189814374697e-02,-1.487012496695217512e-01,-1.438054992737807791e-01,-6.714858579092547464e-02,-1.473503330119153576e-01,-3.165117629198652693e-01,-5.682882283012025137e-01,-3.418670882699587632e-01,-7.433256641668239961e-02,-2.047867455271420306e-02,-7.614049769183107996e-02,5.524163295125778667e-02,1.503797937979703125e-01,9.533169302874397455e-02,2.408773841277872876e-02,7.608210377055078799e-02,9.160066080394584087e-02,-1.224081661545735203e-03,1.517874477952141712e-02,7.480686150415050140e-02,8.010905564672478330e-02,7.086485038782372459e-02,7.273879953460088421e-02,8.271113695212727046e-02,1.097482824832467230e-01,9.441705667758870657e-02,3.022950579091130199e-02,-2.928605630208595476e-02,-2.441028469366164286e-02,-1.005945950083652707e-04,1.951852595129476703e-02,5.239962930716336731e-02,8.444262261964277649e-02,1.041055291569633751e-01,1.571162983082978470e-01,2.034081643031646069e-01,2.222819481567198663e-01,2.147416177629783984e-01,1.566483102199094091e-01,1.035916326543907667e-01,4.745008301054361860e-02,2.084945735803152636e-02,2.143506039240843791e-02,8.822691749413641080e-03,-1.940705058345705211e-02,-6.997049220863917063e-02,-1.427122836028009434e-01,-2.363500306812784668e-01,-2.351011272413805753e-01,-1.555486025410372231e-01,-1.002369789768748770e-01,-8.427568487998489399e-02,-8.255638189345072819e-02,-7.563726296221717771e-02,-6.527977587469330212e-02,-6.109748273329244223e-02,-5.552608693398619621e-02,-5.287622128744597083e-02,-5.076184453596650770e-02,-4.368005549784884090e-02,-3.927442594212735005e-02,-4.117220007092128875e-02,-4.190187681898988742e-02,-3.837968821947927017e-02,-3.811992149202950153e-02,-3.592655305006533378e-02,-3.642147854582970801e-02,-3.021915079660283596e-02,-1.943734575000328341e-02,-1.336134757753891511e-02,-1.147410724452582395e-02,-1.030714274608133911e-02,-6.835312758511471153e-03,-5.758833553377341874e-03,-4.491868619991378972e-03,6.286420073546420718e-04,3.923231494996043400e-03
-4.327331010752795415e-02,-7.556137697189251046e-02,-4.293651948462358370e-02,-2.677549619066714112e-03,2.328219369252532145e-02,2.334334282188664858e-02,-3.784630039872682178e-02,-1.050874125832326755e-01,-9.271573731368970561e-02,-3.428410980784466627e-02,-4.212042183220597591e-02,-2.844034112894377672e-02,3.675561144074024345e-02,6.635395148016219602e-02,9.073570755495244389e-02,1.605321596290018304e-01,-2.386225215284305812e-02,-2.403249344980118440e-01,-2.665736749340035308e-02,-4.581628707784995980e-02,-1.207094695356082242e-01,-1.137719106070161773e-01,-5.789378273275890691e-02,1.590094920065687756e-01,1.589634850463814419e-01,1.519142990633991497e-01,3.363767341595743088e-01,2.125563193465083711e-01,2.642943455814445453e-01,4.827262655106196454e-01,2.526523744682604433e-01,-2.855558174572573882e-01,-4.921150699347102697e-01,-2.435824350797408111e-01,1.577637201363541741e-01,5.022326970580083261e-01,6.500158745052544984e-02,3.116221388528628983e-02,-6.406843804233185169e-02,-4.539726298720701547e-01,-1.022399025582033383e-01,-1.219251171243590642e-01,-2.317485021098956710e-01,-1.500028698526487958e-01,-1.134754602547857760e-01,-5.619323640193445851e-02,4.201531369323975584e-03,6.199133691506993928e-03,2.146016610334009964e-02,1.719270633121081360e-01,1.777769587677353047e-01,5.489165633460667271e-02,1.682645773181787596e-01,7.453285909666777787e-02,8.205813900658638985e-03,-4.057302164559561768e-03,1.780637536356569767e-02,2.563302599511205204e-02,2.007611101967999787e-02,1.595292704755498642e-02,9.640819289385012605e-03,-5.883671438250497043e-02,-3.878873431829575613e-02,4.924243143390537314e-02,1.469589896487374370e-01,1.486137829748273576e-01,3.116163882090412438e-02,6.604240893047638727e-02,1.582959736055281064e-01,1.044899621112687499e-01,-3.092071965308148401e-02,-5.595146153900127511e-03,1.255485979154855047e-01,6.086521468639276289e-02,-1.721286413432372014e-02,-5.880658832103692613e-02,-1.177502412552448724e-01,-5.400052528705952259e-02,3.424397485677271868e-02,1.481825936886578196e-02,-5.573817659593029161e-02,-9.952482251995947715e-02,-1.327014667713114493e-01,1.828452118741682453e-01,3.054079850383784045e-01,9.829162168497533603e-02,-8.882687122583952932e-02,-2.509595663213383676e-01,-3.019433205689656119e-01,-2.666984292191863087e-02,-1.329950468546441666e-01,-2.900729936812962984e-01,-8.928478712619866697e-02,-1.378573601898008816e-01,6.310663114773949756e-02,1.988505636305750446e-01,2.921939867852148265e-02,-8.683773449126598598e-02,-1.953625730673385144e-02,1.845196948910575105e-02,-1.724865803340333570e-02,-6.961089761921880614e-02,2.223246649757536914e-02,5.047220680917794550e-02,-7.408212466245762962e-02,-6.790456558430886524e-02,3.279975056384684760e-03,-5.985678281677733747e-02,-9.520567719444975041e-02,-1.152947924224007742e-01,1.441728730473943593e-02,5.939214675816057581e-02,9.781240442337904573e-02,2.019890421414998749e-01,1.403592235065352911e-01,1.419936755422228913e-01,5.713328604138438738e-02,1.181528600288916757e-02,5.646337585229334322e-02,7.458690299826122028e-02,2.364576318163557830e-02,2.510667773910803952e-02,7.791909978574694529e-02,1.477421688636818171e-02,6.990404962381376042e-02,5.053634118431020450e-02,1.662802727223724672e-02,1.164688955966862102e-02,-8.889470517069252009e-02,-9.270452861632891284e-02,-6.713635563946830642e-02,-5.843686507905716809e-02,4.414378568670190156e-02,1.063732001269125371e-01,1.172282507381806060e-01,1.136552699658066462e-01,4.514433435602761835e-02,2.195307906726158206e-02,-3.754299335238638069e-02,-5.593501366591224072e-02,8.498644865678252336e-02,-7.559532795719313414e-02,-4.414070696650043146e-01,-4.981443051376328035e-01,-1.131864110340355112e-01,2.346062135684498229e-01,6.200734012210669388e-02,-8.926959698744836580e-02,-1.531811578346538583e-01,-2.193306357130542575e-02,-7.610870294263863411e-02,-1.081443074519576192e-01,-1.953198538397074024e-01,-2.436102330673095839e-01,-3.918185043733874440e-01,-4.247494445715523925e-01,-3.322348767043127316e-01,-3.380600406540400504e-01,-2.045321807704626738e-01,-2.457790689898638747e-01,-2.335093923513126557e-01,-1.938227665495195484e-01,-2.086573762227241224e-01,-2.682793534028165561e-01,-3.359863870912125905e-01,-2.225101007901528483e-01,-1.072002913703266475e-01,-8.676738998115741952e-02,-4.813392085413351756e-02,5.932079309938223348e-03,3.409330417796498092e-02,-3.008498234073297712e-03,-8.781934525732911986e-03,-1.407779999443096834e-02,-5.611629412710055290e-03,-8.819989618743550620e-04,-3.640588549504789051e-02,-8.616248103023720073e-02,-1.303105419560803002e-01,-1.349036217164569229e-01,-9.403054212702391390e-02,-8.610432271365624224e-02,-6.949658613295275900e-02,-4.657986967268702705e-02,-2.831891185325293922e-02,-1.416544365337994542e-02,-5.214136540690509150e-03,-9.399906832868546239e-03,-2.918135598169357969e-02,1.498951830629556038e-02,-6.149631301769351716e-03,-2.286022765768567708e-02,4.223844865109018312e-03,2.839169217151666161e-02,1.901981555721200465e-02,-3.108607950353264870e-02,-6.651094019488135167e-02,-5.178163100621803461e-02,-4.969863038796881738e-02,-5.513837152038536527e-02,-2.105854489058102061e-02,1.098009472422289412e-01,1.677466066609327178e-01,5.481154873627026164e-02,2.756188868827198421e-02,4.929506608531709910e-02,7.685921969820930233e-02,-8.999547608273807120e-02,-2.280080022746646881e-02,2.370155924942150133e-02,-1.642302903535723946e-01,-1.589674111562260628e-01,-7.328597211165818748e-02,-1.732764335045807180e-01,-3.829470323646836372e-01,-6.461099544091858382e-01,-3.724398660597051380e-01,-8.385277207916592979e-02,-2.508291533133927276e-02,-8.305916837692826904e-02,5.477487093502293042e-02,1.413156353551811850e-01,9.137795311091277684e-02,2.263735624817685838e-02,6.713224188127414616e-02,8.529509182032714298e-02,-1.098310313546582706e-03,1.335857952584608432e-02,7.596911867733405210e-02,7.911761479750996362e-02,6.906351004503155644e-02,7.872477112232402485e-02,8.315369835013576572e-02,1.045003175826827307e-01,9.050921905550003699e-02,2.569385504758298772e-02,-2.072461898001953795e-02,-1.030981128035434423e-02,2.007772575341451940e-02,3.653270274920995125e-02,7.222851824856400815e-02,1.073637570489133081e-01,1.247724589578697307e-01,1.827078085393367968e-01,2.293542607930990351e-01,2.466222679959869379e-01,2.375225315289137551e-01,1.736685619509447109e-01,1.164019570336263382e-01,5.347289180378313883e-02,2.354668519310438093e-02,2.418191372703914696e-02,9.796105058754464232e-03,-2.103982547259627273e-02,-7.372802361343459843e-02,-1.462350930584309094e-01,-2.376194451010881781e-01,-2.329024715343093743e-01,-1.525037372990109275e-01,-9.762116783572433176e-02,-8.181651422388415418e-02,-7.998612774598824748e-02,-7.313580177566025853e-02,-6.300705423911867609e-02,-5.891460667292854753e-02,-5.355953180476080017e-02,-5.099233770018898881e-02,-4.895279611186468399e-02,-4.210774121344995624e-02,-3.782802345399791794e-02,-3.964552159400336340e-02,-4.035860332154367347e-02,-3.698391521844217322e-02,-3.673608987095038081e-02,-3.461512948125417682e-02,-3.506847760148566057e-02,-2.910245998435093129e-02,-1.872710945502606764e-02,-1.287168675091582108e-02,-1.105284557301347906e-02,-9.932288381188430701e-03,-6.588378483626068649e-03,-5.551555371831251237e-03,-4.331511919884903188e-03,6.063149897275994056e-04,3.783738819618406163e-03
-3.881664003376079919e-02,-7.233585794288741044e-02,-4.250975718709615325e-02,-2.679607906637141313e-03,2.268120586129210997e-02,2.264254057756949490e-02,-3.785562423533121029e-02,-1.058652701442349686e-01,-9.210854427319573046e-02,-3.475317811571126264e-02,-4.364620452347689472e-02,-2.941900697512736529e-02,3.734859245358346236e-02,6.668675739618816489e-02,9.097250343814081153e-02,1.587911644130222955e-01,-2.343715550935959041e-02,-2.355299399280883221e-01,-2.598663043925482363e-02,-4.405281819286788886e-02,-1.140296978647552389e-01,-1.077732930673735712e-01,-5.645340680783657306e-02,1.577807186652287752e-01,1.560998270175658065e-01,1.463943464102822056e-01,3.260636025106402602e-01,2.082658114864666954e-01,2.629482823130572244e-01,4.893531181478504299e-01,2.558132645347481748e-01,-2.900529767080335386e-01,-4.957409298780003359e-01,-2.423021692150039985e-01,1.574678158241537285e-01,4.975430541565090126e-01,6.433641524746550044e-02,3.176375067634631261e-02,-6.577853571987374304e-02,-4.561921761234027373e-01,-1.030474602713968013e-01,-1.290333261724678215e-01,-2.530357083742672542e-01,-1.665773286642222017e-01,-1.351695766853341918e-01,-7.037370690510140470e-02,5.300554031550577111e-03,7.839625443938513794e-03,2.957914305051452530e-02,2.391005859533145428e-01,2.136768196004994180e-01,6.602101945801618077e-02,2.144045665051936833e-01,8.763540510758632829e-02,1.032132725201504939e-02,5.303517731238698713e-03,1.375127975951480515e-02,2.369246529629859960e-02,1.860838192621536505e-02,1.924951730832585167e-02,1.103379274287297727e-02,-5.934385023027257539e-02,-3.985079764957703136e-02,4.746723671114224524e-02,1.261510964273429292e-01,1.460592218421265243e-01,3.379000066177368505e-02,6.822958540549035888e-02,1.607673489643778320e-01,1.092284968998919747e-01,-3.635712090815749337e-02,-5.972670456571159588e-03,1.306933192395487719e-01,6.623920289677984186e-02,-1.841786906619068132e-02,-6.825901231128959912e-02,-1.375028399392239364e-01,-5.476258506964059442e-02,3.344874573324141398e-02,1.582716378373722615e-02,-5.501307857036962651e-02,-8.934726184420986594e-02,-1.156344941652970165e-01,1.571158188119915478e-01,2.822504459854803249e-01,9.053312876350830263e-02,-7.780141533408514720e-02,-2.341998895226243271e-01,-2.654169207284761689e-01,-2.295514432925705589e-02,-1.237794688503886659e-01,-2.277073603703025639e-01,-5.821654029847514455e-02,-9.104436111735104975e-02,4.341470946342992909e-02,1.354611100849444361e-01,1.846059417622617285e-02,-5.001542506362856300e-02,-1.119563437233375702e-02,1.147033263394142168e-02,-1.097991498001483178e-02,-3.617186252438547855e-02,1.126294943635231319e-02,3.360623157513101950e-02,-5.502842442772586801e-02,-4.680246556544378350e-02,2.052706423862944371e-03,-3.660284833071237448e-02,-7.105662615709060215e-02,-1.143591862510364432e-01,1.528912236951939299e-02,5.712828166523822859e-02,8.576907551426721232e-02,1.862645586033998546e-01,1.320303816568784150e-01,1.265564435201570470e-01,4.930866294122322746e-02,1.021181990262294212e-02,4.657912921170759279e-02,5.827910668688008472e-02,2.017687616718886676e-02,2.012600201271114858e-02,5.704235137954214580e-02,1.114061296801955279e-02,5.452890673670224980e-02,4.268761431421114194e-02,1.419591475993466079e-02,9.208924165592026478e-03,-6.459267420033233675e-02,-6.869916934923547824e-02,-5.559795742256501416e-02,-5.218884787685307280e-02,3.981851088556413037e-02,1.050340091118905361e-01,1.397274009572621878e-01,1.418342218693036949e-01,5.488947623300741846e-02,2.432066890656299496e-02,-4.251651262254781821e-02,-6.464126605699509198e-02,1.053529407478101670e-01,-1.022542981773249121e-01,-5.147263917272507650e-01,-5.428587182985579185e-01,-1.158619657840450207e-01,2.285953489396115867e-01,5.977142671138608448e-02,-8.684169891957199683e-02,-1.501443805862399672e-01,-2.200718696334117222e-02,-7.488162301440573487e-02,-1.039103371272743215e-01,-1.887102493141191439e-01,-2.306411434909660940e-01,-3.826341791915650603e-01,-4.412783733012284326e-01,-3.545457763192514378e-01,-3.330909891463246231e-01,-2.098032008511949709e-01,-2.815720200080967794e-01,-2.529015465222635983e-01,-2.004857113455556505e-01,-2.254607605208033272e-01,-2.944997480037871984e-01,-3.488660908574226505e-01,-2.275398095704878887e-01,-1.166111970072281206e-01,-9.659742806267059001e-02,-4.972675429086853560e-02,5.777172232326896993e-03,4.865128643018343940e-02,1.753006761718692644e-02,-3.866813622669465229e-03,-9.715788722854333190e-03,-4.063162510795334352e-03,-6.807547124967688271e-04,-3.014396972853322296e-02,-6.991504279532090305e-02,-1.025611879483319389e-01,-1.074447732764584884e-01,-7.349469184735589466e-02,-7.190132968978606154e-02,-6.907667558491244197e-02,-5.025501827126335752e-02,-2.347109011037274914e-02,-8.884098002511619380e-03,-3.914402796582525622e-03,-7.926554156828934106e-03,-2.123938401450493202e-02,7.094483434683939403e-03,-4.308868733846076449e-04,1.222950265958255324e-02,3.413807481402188898e-02,6.162248530632176424e-02,3.165701993224420696e-02,-3.690344946982124230e-02,-8.357022993909148101e-02,-6.560319112037234224e-02,-5.780148782368068477e-02,-5.996464966316081280e-02,-2.373774571077820819e-02,1.215756084019114641e-01,1.825553491761091607e-01,6.097301504325906840e-02,2.926117634744379581e-02,5.224658885092699212e-02,8.238418546151234090e-02,-9.172742066537731276e-02,-2.334938707268863559e-02,2.466224412800169241e-02,-1.688961259719454211e-01,-1.629614697851055061e-01,-7.036141453912722610e-02,-1.576878163015755785e-01,-3.411102446093461360e-01,-5.386170685142123160e-01,-3.100644951421632767e-01,-7.900021580710739344e-02,-2.356752020924411314e-02,-7.531768261398050224e-02,5.883639713599187610e-02,1.708261236798122584e-01,1.120936562732019470e-01,2.844033335748107766e-02,8.188643521409572079e-02,9.852368247423096137e-02,-1.301169414797564376e-03,1.492901332859672588e-02,7.691366946957052531e-02,8.040275709925437386e-02,7.644475986717991223e-02,8.484363590166649205e-02,8.766304016227631501e-02,1.179060101009550970e-01,9.803354072548617348e-02,2.640468396698188516e-02,-2.292172970986617805e-02,-1.770456389440397751e-02,5.383343062471855449e-03,2.088889856216757587e-02,5.162942695546927918e-02,8.834607608780523091e-02,1.097273800040621111e-01,1.659235242247814046e-01,2.164047014963829674e-01,2.356358949627341548e-01,2.288754783037161844e-01,1.704843095575556688e-01,1.153493111565358220e-01,5.321009399520831157e-02,2.354668519310438093e-02,2.426066966180827691e-02,9.892086029473629721e-03,-2.136110342131473244e-02,-7.475889642682155556e-02,-1.482178765225286299e-01,-2.405764339848802391e-01,-2.352843485503031962e-01,-1.536264752201120520e-01,-9.811269174345671473e-02,-8.213442982201124565e-02,-8.023091385527039709e-02,-7.333361089749672324e-02,-6.317317852663346944e-02,-5.904630356948142172e-02,-5.367292952086180624e-02,-5.109148946793935775e-02,-4.904501147381290505e-02,-4.222653829271564435e-02,-3.792417159627241297e-02,-3.972644867659070461e-02,-4.043421038049636873e-02,-3.703274692693327153e-02,-3.678652105247658816e-02,-3.468914615156334924e-02,-3.516841517123834443e-02,-2.917733083766881758e-02,-1.876088149787080370e-02,-1.289135748713597478e-02,-1.107273346308487727e-02,-9.950138589040473380e-03,-6.599130338846042297e-03,-5.558796531011900646e-03,-4.335509081031252432e-03,6.068411050177800617e-04,3.788251817939447368e-03
-4.268053432842698613e-02,-7.594596778653150970e-02,-4.297108370376217373e-02,-2.696074207200556318e-03,2.357519866320444482e-02,2.355937960396937980e-02,-3.934743809203354592e-02,-1.104226003251660843e-01,-9.698662169513530551e-02,-3.601188043956028706e-02,-4.414186340931171987e-02,-3.003419404867754827e-02,3.842670485816378906e-02,6.895601340504972643e-02,9.543619906296729738e-02,1.669364766137436951e-01,-2.448701175238759617e-02,-2.433749764069046972e-01,-2.690734995833609852e-02,-4.616229295599366678e-02,-1.197610994144336222e-01,-1.127515850068152997e-01,-5.813839633770227083e-02,1.614514845963204437e-01,1.613244796977985340e-01,1.548476770439822792e-01,3.427981180164578201e-01,2.173028232109988911e-01,2.736391309639030767e-01,5.042047878880272505e-01,2.646637567209138009e-01,-2.944949560907019759e-01,-4.953592604102856622e-01,-2.451234958428499255e-01,1.607227632583588528e-01,5.105497987850263764e-01,6.638791829457824090e-02,3.243349953265160790e-02,-6.686691083392296009e-02,-4.758071467571451940e-01,-1.102767788412629540e-01,-1.339390148437450967e-01,-2.553448979197264213e-01,-1.694286128229341715e-01,-1.302278118002140883e-01,-6.742023555869501583e-02,5.456374013335884426e-03,7.889431155472142673e-03,2.812782079840042346e-02,2.409062324652518350e-01,2.246777487842139820e-01,5.787978171444122660e-02,1.587789450233863531e-01,6.231795128231996245e-02,4.610124508698784651e-03,-3.989505815728978250e-03,2.461653295875398592e-02,2.765987463417548739e-02,1.760601862458622754e-02,1.858738852147918258e-02,1.227649149427668257e-02,-6.955933502250101486e-02,-4.366275899397828453e-02,5.837948794602364211e-02,1.584725660037064054e-01,1.586892614214633068e-01,3.247058235569645623e-02,6.038829972719162581e-02,1.524768486471018147e-01,1.054845386274800151e-01,-3.161039493646809750e-02,-5.712741297552601828e-03,1.240449474801916530e-01,6.202278134331766501e-02,-1.925657935540376481e-02,-7.063259323239744203e-02,-1.386080003296075724e-01,-5.897226791484274505e-02,3.529964615246286574e-02,1.535333141832027036e-02,-5.412571609901403041e-02,-9.097114196579368650e-02,-1.293406871945587122e-01,1.782352057790375921e-01,3.012894693382368039e-01,9.808150570888998776e-02,-8.269774280960087709e-02,-2.341169208256010104e-01,-2.935589348626082562e-01,-2.826281276886178848e-02,-1.375458508333131935e-01,-2.474273848849292967e-01,-6.921167645903494869e-02,-1.070134832248093304e-01,5.123712482327152234e-02,1.547902243056538951e-01,2.350126030745557093e-02,-7.111367471403429175e-02,-1.507795123596931616e-02,1.601089654008102520e-02,-1.326819848723333542e-02,-4.439539747091406779e-02,1.519891452831167132e-02,4.842731044082913827e-02,-7.942576311988591709e-02,-5.303806169690006289e-02,2.141659774696877145e-03,-3.687027572230876932e-02,-7.656982096857102571e-02,-1.197707674863457139e-01,1.369697560832324433e-02,4.978769548965530228e-02,8.003609315037535366e-02,1.835689328540112963e-01,1.308930185210827879e-01,1.338161531548061611e-01,5.031855374273191961e-02,9.064696645189884716e-03,4.427188073411036234e-02,6.064241951134845265e-02,2.129450782457765340e-02,2.159451040569690394e-02,6.002619613005717031e-02,1.166009556676800112e-02,5.693964629020904084e-02,4.267081768933932151e-02,1.410178997958930203e-02,9.264427077238620439e-03,-7.138721597543302988e-02,-7.999002223887664853e-02,-5.535855270578619869e-02,-5.002107012743761683e-02,3.771730001253344178e-02,8.436163510099857488e-02,1.084612602495043654e-01,9.594812616189855869e-02,3.666308824022489893e-02,1.865716941745147739e-02,-3.581031490203574058e-02,-6.159821230401960057e-02,9.084457766722330019e-02,-8.313401862978370138e-02,-4.516522986748090496e-01,-4.712645248285514121e-01,-1.110298978361299593e-01,2.576288516202712708e-01,7.073212716325608107e-02,-9.422552246221410632e-02,-1.632384058991492859e-01,-2.442462031723435442e-02,-7.872647345620212289e-02,-1.034354993338519046e-01,-1.730404819270848216e-01,-2.274500110400046460e-01,-3.970666901915717029e-01,-4.425990867348345015e-01,-3.553553154925075397e-01,-3.448390115850954452e-01,-2.083549263739775947e-01,-2.501248381862220538e-01,-2.305839031631535530e-01,-1.890565910958032503e-01,-1.889572733300272367e-01,-2.423126121744874906e-01,-3.064578180686002296e-01,-2.118655798236779852e-01,-1.052823184563157211e-01,-7.643283887006904753e-02,-4.112808256487814756e-02,5.672079235304287349e-03,4.071993983798754407e-02,5.750705151585914013e-03,-6.186547638406147097e-03,-1.129712780374511616e-02,-4.818181186330077609e-03,-8.173992260117024207e-04,-3.269462615734539113e-02,-7.557611698495120267e-02,-1.186613548901549187e-01,-1.252473306241012885e-01,-8.685551266564718598e-02,-7.755102216393935932e-02,-6.619848076887442645e-02,-5.168477582005675391e-02,-3.178366929278051561e-02,-1.732920517225998089e-02,-6.588249367063653793e-03,-1.016613346467332840e-02,-2.638836035198468405e-02,1.426545267544377348e-02,-5.804509120800912907e-03,-5.420210629915205025e-03,2.507818586708104869e-02,5.578922037325857730e-02,3.123316205161403084e-02,-3.785220508664084715e-02,-7.671924961252800379e-02,-5.756106416270705128e-02,-5.306197188804911286e-02,-6.124240276611099543e-02,-2.347110374726129808e-02,1.151178961736441381e-01,1.821624365201712781e-01,6.136787536733845361e-02,3.019532027374261657e-02,5.300378579079550317e-02,8.091328249741194800e-02,-9.567100293663458044e-02,-2.455245078209446208e-02,2.502106947337866608e-02,-1.744612925014933924e-01,-1.756804137683332379e-01,-7.743335741324422483e-02,-1.655095889925830843e-01,-3.709141136642191139e-01,-5.886639119644490048e-01,-3.387601863633084576e-01,-8.022959669580605191e-02,-2.459912022850928651e-02,-8.890918289384149020e-02,5.951912366720107234e-02,1.569908084420229277e-01,1.037679165260723818e-01,2.605038937786081921e-02,7.118004290222890162e-02,8.968611326471395695e-02,-1.296670066612805100e-03,1.388902555239912920e-02,7.167223656095247919e-02,7.966453452938267177e-02,6.598242959338704305e-02,7.363438408681816094e-02,8.135354996093906166e-02,1.027336759329878918e-01,8.681781551709627509e-02,2.709703936644159913e-02,-2.216660055065726789e-02,-1.176487273451388982e-02,1.384525556800013900e-02,3.065993605463012556e-02,6.391856402043862018e-02,9.728574991293023611e-02,1.147605340151768571e-01,1.684016097444848425e-01,2.112575580535241970e-01,2.246287537384921706e-01,2.150518259504294594e-01,1.565919517704688901e-01,1.030277152202351276e-01,4.638165913305907634e-02,2.015902772936308679e-02,2.063405490951263424e-02,8.451615713011201292e-03,-1.858600693673210028e-02,-6.694488050134847490e-02,-1.374184442569089670e-01,-2.279718955105342892e-01,-2.268702622867036223e-01,-1.500247319692195880e-01,-9.662117091999290752e-02,-8.123678578024062791e-02,-7.955095244059777471e-02,-7.284320911627716055e-02,-6.280204979920681052e-02,-5.876315524189273942e-02,-5.341032428357526257e-02,-5.085352522533847369e-02,-4.882803415158180199e-02,-4.201922574262453858e-02,-3.775904761280098748e-02,-3.958209225900247846e-02,-4.029633868475909764e-02,-3.691473696474645988e-02,-3.666548621681368914e-02,-3.455819358101635402e-02,-3.502619632197490757e-02,-2.905467007797781290e-02,-1.868515025027957591e-02,-1.284288317287916870e-02,-1.103054702960009313e-02,-9.911733596389108933e-03,-6.576551442884096509e-03,-5.541900492923718113e-03,-4.320931199203389972e-03,6.047695260626936332e-04,3.775123095550963863e-03
