-4.432890189998489258e-04,-1.965887460145095621e-04,-2.740662874621700631e-04,-1.557391192251410250e-04,2.840349667699585334e-04,2.840349667699585334e-04,8.309049328999380032e-04,1.251011588078603616e-03,1.673969195588604535e-03,1.673969195588604535e-03,2.680454521777393944e-03,2.617543463856178681e-03,2.617543463856178681e-03,2.513009007021559191e-03,1.869714558854587358e-03,1.947227098937806891e-03,3.484104548088617914e-03,5.058299067748432340e-03,4.970257827885557478e-03,4.209289573396459393e-03,4.363202918185889352e-03,5.724131342228128139e-03,5.291645979412725603e-03,5.635341527264345340e-03,6.015226728054833688e-03,6.222410214448713395e-03,5.534730791002730188e-03,4.815495561111445867e-03,4.738580694140342477e-03,2.852109548266656275e-03,3.273610183168871278e-03,3.161803293719699093e-03,2.839109378037072817e-03,1.045271222042392679e-03,1.401899929283407023e-03,-1.489754851287190297e-03,-2.381794233042072197e-03,-2.813512716889367965e-03,-4.335866074140585884e-03,-4.262016600053420562e-03,-4.228181929912601909e-03,-5.892876891951611545e-03,-6.888087062681004687e-03,-6.642381902618030819e-03,-4.934348940072161467e-03,-4.979933038960875948e-03,-4.028054626644832908e-03,-3.326724995790825753e-03,-3.642218596885177587e-03,-3.485332069377214750e-03,-3.017479523811019294e-03,-3.965729736466435881e-03,-2.699554188604903673e-03,-2.692034783708786069e-03,-2.470271639886450696e-03,-2.107507209122748415e-03,-1.672575680275157749e-03,2.264614349827729581e-04,1.587992768297468923e-04,1.434404478716335470e-03,5.978366669268125226e-04,2.079898371551211402e-03,3.821258002608619170e-03,3.087433932827977293e-03,2.158013530316645057e-03,1.749497416102559558e-03,3.264757744333569682e-03,2.428624713082489645e-03,2.226935784009692436e-03,3.847563476688967837e-03,2.523112893379180627e-03,1.673159112598498685e-03,1.981183608347120151e-03,5.922148733836917790e-03,3.326527917150951669e-03,5.018930703962139021e-03,5.311207995686541977e-03,6.589169097046785294e-03,5.459550038436520973e-03,5.543569865481588234e-03,5.659576565321416779e-03,5.813443761459553133e-03,4.058427397366136391e-03,3.153356877320288854e-03,3.384307390539414637e-03,4.075410969751812502e-03,4.157115990129422317e-03,4.428688446324586733e-03,5.712303424244159072e-03,7.083171104460960800e-03,7.857676305776672282e-03,8.397022562855136277e-03,8.913622310670336196e-03,1.099547692999610325e-02,1.235638728757025399e-02,1.348907899943775288e-02,1.415089834613115528e-02,1.528069301905900755e-02,1.528069301905900755e-02,1.537783202303956952e-02,1.537215987890430159e-02,1.512375650694962499e-02,1.545286698940120766e-02,1.639731722038342138e-02,1.624444280226252160e-02,1.562222238369601231e-02,1.541456038860305501e-02,1.485190190830074954e-02,1.438397653367352175e-02,1.438487362191098393e-02,1.407330516997550712e-02,1.345653594751989798e-02,1.363673846340879292e-02,1.469082630422779111e-02,1.447287772876005088e-02,1.427012424995757235e-02,1.449570179876955196e-02,1.492982911895276987e-02,1.544238000288341260e-02,1.575731443806702506e-02,1.596484206619447344e-02,1.623904167917852165e-02,1.584843958819825982e-02,1.604039743875218874e-02,1.636970417724948126e-02,1.570426915177183455e-02,1.565922844021319302e-02,1.603450935658208218e-02,1.721399380253822026e-02,1.787876235040520081e-02,1.684199909943653525e-02,1.864570451685735111e-02,1.849452993368506590e-02,1.838141854880679521e-02,1.783516878268308001e-02,1.758128126969483312e-02,1.858739693170281121e-02,1.823665139573438926e-02,1.794201282227185501e-02,1.827992988848123335e-02,1.786685375886322077e-02,1.835096458038410622e-02,1.781902033579069872e-02,1.738032750478580787e-02,1.835192440608221162e-02,1.745255847169841293e-02,1.644862733205394723e-02,1.514539121720677103e-02,1.243526261055976322e-02,1.232850541377189697e-02,1.221061710459928583e-02,1.171171433876233743e-02,1.227963250573661964e-02,1.130333400543193263e-02,1.158516539820445175e-02,1.019147218405101231e-02,1.001832725329584312e-02,8.862750366913346028e-03,8.546150805269381312e-03,8.464077571234773431e-03,7.766517556107072409e-03,6.429392082917353458e-03,6.832233966363095504e-03,6.228237535868275283e-03,6.481747776585242669e-03,6.363918038631447525e-03,6.173138610098106473e-03,6.035018471966128138e-03,5.717205081026249455e-03,6.137883150118857677e-03,5.611509471496928074e-03,4.624342709402502923e-03,4.696697455860602416e-03,5.137211849544839892e-03,4.086545484460371580e-03,2.535308953414377835e-03,1.874458326445553819e-03,1.724958529895508292e-03,1.249587051931751354e-03,6.417860909486978842e-04,1.438281210882046872e-03,1.390677502857206498e-03,-1.471713949731546373e-03,-1.170861766483716378e-03,-4.467374753179269471e-03,-8.944369771260379104e-03,-1.013809591127166551e-02,-8.272097861635969995e-03,-6.925726352654968700e-03,-6.933336934000655476e-03,-7.024510407769139937e-03,-7.068734202558132722e-03,-5.679244621319033508e-03,-6.988262207762199231e-03,-6.428360944000409243e-03,-3.304861737645109574e-03,-3.797510763564154648e-03,-3.355793322106331768e-03,-4.340954606946808084e-03,-5.626433480364268457e-03,-5.510081040625517713e-03,-5.719482641039005423e-03,-6.413174553276962224e-03,-8.455942053644589784e-03,-9.655430566814025839e-03,-1.099306131243171086e-02,-1.239217446746705004e-02,-1.381495836741941999e-02,-1.401251886680023387e-02,-1.326968471024478693e-02,-1.367296872214737724e-02,-1.196982151719159712e-02,-1.207618765127295782e-02,-1.214612396542376349e-02,-1.203681574480823524e-02,-1.199390188067998853e-02,-1.163305226898208450e-02,-1.138386823098081618e-02,-1.159297941650946906e-02,-1.127665011831207112e-02,-1.125096812637814761e-02,-1.141332177073382803e-02,-1.152520050170284180e-02,-1.168880554053021437e-02,-1.243735204271705780e-02,-1.349800499120351258e-02,-1.252737673453331591e-02,-1.288721471298388821e-02,-1.309456491653487875e-02,-1.331752668245073448e-02,-1.588295225380430623e-02,-1.773838138575963355e-02,-1.765285004291783019e-02,-1.670811616521412218e-02,-1.676341771407484360e-02,-1.701281067335607897e-02,-1.605621966671231041e-02,-1.696148427868173977e-02,-1.329284400253502585e-02,-1.243419067901219838e-02,-1.244484497420048769e-02,-1.064805990979921999e-02,-9.629742051168963327e-03,-8.958124978525961249e-03,-9.386265176116041428e-03,-9.190121542905374183e-03,-8.337103150429722720e-03,-6.824719308287593295e-03,-6.051031788046861391e-03,-5.703115661365882987e-03,-5.019294396859219631e-03,-4.737173625500519340e-03,-3.811181220817121823e-03,-3.638357321330974465e-03,-3.177704301641159478e-03,-5.206677556739307267e-03,-3.964597928814696422e-03,-2.114437836596704499e-03,-2.091384333339631023e-03,-1.960207819316353312e-03,-1.928524671545745047e-03,-1.242235993893387033e-03,-8.706301104908419032e-05,5.150579443024729930e-04,1.085693086791489998e-03,1.214612582002599873e-03,1.512228193808863282e-03,9.643228821507858917e-04,1.607213406172016074e-03,1.984639527442415979e-03,2.350754357464664244e-03,2.026256510780283671e-03,2.696068414748820172e-03,2.677249752323151294e-03,1.460622413023306490e-03,7.545362488448726463e-04,9.802566073778369235e-04,1.067573842866318019e-03,7.587316063570754545e-04,4.632792227345620571e-04,3.316979606384299608e-04,4.591075967259561309e-04,1.503039127290084574e-03,1.479089941039556013e-03,1.625887302477871648e-03,1.252029765243685682e-03,1.211444102503459169e-03,2.200055009715429655e-03,1.840879781964328051e-03,1.023913864878616634e-03,5.025690212551253916e-04,2.991436739265648142e-04,4.186420323886971872e-04,2.056078114932750412e-04,2.039588913055432207e-05,-6.674732760448523657e-04,-9.093636323859525779e-04,-2.214028633609550940e-03,-1.738054767341058043e-03,-1.749935112788686582e-03,-9.469872482928460731e-04,-1.640764700987736024e-03,-1.812092396387565956e-03,-4.277854808327865351e-04,2.518910838070670443e-04,6.639625827378653781e-04,2.995611231310571845e-03,5.906653587990110151e-03,1.116896435172910242e-02,1.274215265562975152e-02,1.227832100139487383e-02,9.642357825372222663e-03,9.468440515008705663e-03,1.080967026265980749e-02,1.163041453199748984e-02,1.230730265075946281e-02,1.153621434066633492e-02,1.111284262006952822e-02,1.057323582384117090e-02,1.198075846839278223e-02,1.101148779422706642e-02,1.039599223372540682e-02,7.998699440486915779e-03,6.204801166680273990e-03,7.346604783640803792e-03,6.793644465112543690e-03,5.356413309544527136e-03,1.961577628033066463e-03,1.852267162071244769e-03,6.665979817766450087e-04,-4.395999420335105958e-04,-1.896503659424211754e-03,-1.654345553493477821e-03,-1.593169750236294712e-03,-2.627908045782888745e-03,-3.633923546140673325e-03,-3.844648894953239977e-03,-4.708159167717241959e-03,-5.471223172411965666e-03,-5.615188650327764854e-03,-5.071481041116984029e-03,-5.962741147643457057e-03,-5.818712360149035784e-03,-5.676659250695209082e-03,-5.476873824570242973e-03,-5.417576592606849345e-03,-5.353779410063690819e-03,-5.681894718687084504e-03,-5.667471325085558613e-03,-5.968487274614037857e-03,-4.974891823902792727e-03,-5.745205923698083056e-03,-4.458026869442099395e-03,-4.321865736232850981e-03,-4.517362858266046367e-03,-4.343130907743787857e-03,-4.436140677150276698e-03,-3.895649079150969793e-03,-3.421963958444148787e-03,-4.384318021582005176e-04,-6.169354895894139197e-04,2.042617358105509049e-04,5.485884276494664303e-04,6.456711465543593653e-05,-1.362873272955860294e-03,-8.092644269965842182e-04,-7.374985132130534946e-04,-6.745974018288782015e-04,-1.003470273101275331e-03,4.301412586960075279e-04,9.471704344561161565e-04,1.560127062348457688e-03,1.651851926974668219e-03,1.938145058760401551e-03,1.877338605456239061e-03,1.833849559721311209e-03,2.692144569675769279e-03,2.358942650596081072e-03,3.363051194486333436e-03,4.218062909386012527e-03,4.109983436464343179e-03,4.952117881874273063e-03,4.674828784795905141e-03,4.275127727212775335e-03,4.458513062279062002e-03,4.852550580858760142e-03,5.299002237118205852e-03,4.253596847586661560e-03,3.105271540685146121e-03,1.990144632046821679e-03,2.304016095868186096e-03,2.082684870517153165e-03,2.728975599030771405e-03,2.442276360922171225e-03,1.734160503095650424e-03,-7.265588700191066493e-04,-1.046427287958269156e-03,-7.630242969792230649e-04,-1.156600271387411491e-03,-1.577381652874868846e-03,7.466311619761356166e-04,-1.501431700831603808e-04,-1.991047225821567304e-04,9.271011455376078434e-04,1.213308987518471474e-03,2.592924027956223197e-03,1.680338834173927169e-03,1.929794022966423118e-03,1.081977719510575061e-03,1.548873797381777667e-03,3.547339178816218824e-03,1.811635389015674733e-03,-2.548158337450997396e-04,-6.436940642850607752e-04,-1.254081360481978241e-03,-9.531104903912250917e-04,-2.118097312920882991e-03,-2.884034091986077339e-03,-3.095949930586473081e-03,-3.095949930586473081e-03,-3.017697151987486573e-03,-4.106926569929257760e-03,-4.404384319634946018e-03,-4.101963792363761546e-03,-9.163334276322547718e-04,-2.274184374763693877e-03,-5.244868373488651217e-03,-6.404187031201841879e-03,-6.156467588824651033e-03,-9.495691776300522677e-03,-1.228954665417538936e-02,-1.227893159047466903e-02,-1.264783074499405136e-02,-1.316874776239786507e-02,-1.509904716830409027e-02,-1.324673306779437093e-02,-1.442174117001999642e-02,-1.420739915275105736e-02,-1.383539102926271275e-02,-1.321973875327262307e-02,-1.208833359481287055e-02,-1.099853638165710495e-02,-1.270497328941256818e-02,-1.274428642233358007e-02,-1.207929616761274985e-02,-1.444751208120327417e-02,-1.401497677562706275e-02,-1.523663770999210063e-02,-1.570828828696019600e-02,-1.577828851372325286e-02,-1.764780490526134810e-02,-1.730333556529286762e-02,-1.769965036439153164e-02,-1.959591390319693691e-02,-1.960358500605777210e-02,-1.800702641040425808e-02,-1.789122752249782192e-02,-1.820155292055448265e-02,-1.751506960018845566e-02,-1.680732457577164066e-02,-1.361215893477894269e-02,-1.034226473460447999e-02,-7.809392480203907957e-03,-6.993523595180730842e-03,-7.111173172816912837e-03,-6.788651087520867003e-03,-5.907201517677344513e-03,-6.424179202809366870e-03,-6.003595178140745670e-03,-4.761463360351788840e-03,-5.917078844829627357e-03,-6.652043490427882177e-03,-5.244856425454984608e-03,-4.664069202322811136e-03,-5.546653593139453699e-03,-5.461110764949647818e-03,-5.467636375415549886e-03,-5.549287148660039110e-03,-5.576882027891160755e-03,-5.156506483230067876e-03,-4.725256128619246924e-03,-4.361099115886252209e-03,-3.874370482656337451e-03,-5.158338039773762568e-03,-4.843900423298987817e-03,-4.320197422752753390e-03,-4.255286069228093361e-03,-3.833046820949636505e-03,-3.250905179408292590e-03,-2.882513036137884527e-03,-2.356343098121856452e-03,-7.259583596030886980e-04,-4.316805439813438438e-04,-3.350472751575313008e-04,-3.350472751575313008e-04,-3.350472751575313008e-04,-3.350472751575313008e-04,2.710692602010925274e-04,-2.604197727046277284e-04,-1.235733164262449381e-04
3.219691789165789360e-03,3.298804194692535330e-03,3.644813833987541139e-03,3.790240063665091703e-03,4.000717680855529063e-03,4.056259036944794005e-03,4.056259036944794005e-03,4.306522226564225841e-03,4.837904731982766576e-03,4.947983459518162652e-03,4.947983459518162652e-03,5.081546505114113016e-03,5.198941710154168436e-03,4.949044569617132641e-03,5.138937523549476014e-03,4.999390529439906236e-03,4.440066249979245094e-03,1.680372254508650555e-03,1.329437927919979289e-03,9.991789322889904536e-04,1.425644943650473517e-03,1.323110029058352033e-03,1.713997882429286850e-03,1.728904310816121830e-03,2.807701593593301369e-03,4.021401899086966304e-03,5.534010834535904588e-03,5.276466566554951013e-03,7.733351497638712643e-03,9.241120221346679070e-03,1.381364062897647363e-02,1.511798058770777442e-02,1.544367315798081397e-02,1.561647692619241683e-02,1.705093243074097542e-02,1.790921098180976029e-02,2.093419471404705037e-02,2.278612196007009233e-02,2.282362664792082080e-02,2.327740252658662759e-02,2.433616735544217105e-02,2.527180767571896719e-02,2.530939380167362626e-02,2.714099859758120625e-02,2.709571558941600844e-02,2.702058008777422429e-02,2.730376576355368623e-02,2.787685566892047356e-02,2.723983256792760627e-02,2.686788972871180861e-02,2.297208576855674575e-02,2.221141738351991093e-02,2.255635070874769874e-02,2.111891239740375584e-02,1.721655531763874314e-02,1.874815876613376148e-02,2.139330992667398679e-02,2.220557146826970807e-02,2.175040033462188882e-02,2.191240383864926505e-02,2.157328440027809352e-02,2.029824228988448553e-02,2.048285903580004952e-02,1.900441086264252621e-02,1.919327279744870510e-02,2.333320076830012677e-02,2.523327156912863814e-02,2.663305796439955492e-02,2.781993407839454535e-02,2.921269684892320584e-02,3.134989343392650951e-02,3.167008798941912950e-02,3.151125002785927498e-02,3.212641584531220756e-02,3.205578088713774421e-02,3.275874349097810528e-02,3.133358876649693786e-02,3.108158539290267058e-02,2.973716226051732053e-02,2.933284297202118709e-02,2.846822878833556170e-02,2.758135308098502367e-02,2.667937361001880905e-02,2.614819641648827991e-02,2.381403650279809506e-02,2.348778093346841692e-02,2.334557349501378137e-02,2.219011233547440315e-02,2.156717714019586521e-02,2.057812137543525710e-02,1.974865598617256413e-02,1.800254988350118157e-02,1.677129645817972831e-02,1.333729663356014207e-02,1.284353781505103397e-02,1.101145787249982640e-02,9.952330349842742133e-03,1.005756181209835169e-02,9.737699159886504044e-03,1.167304844957172197e-02,1.079213138331110503e-02,1.161772719236861540e-02,1.179848073181064341e-02,1.477709334972874926e-02,1.470736054558520814e-02,1.456097090674079650e-02,1.379042685854025077e-02,1.365954472534765783e-02,9.188179831686007701e-03,8.801471233630894092e-03,8.230250149281730793e-03,5.046748735510402789e-03,2.241626928167763169e-03,2.240059914034900693e-03,3.108118215448946436e-03,2.712926773898111012e-03,1.969002430129786034e-03,2.186651275199106518e-03,1.993029313325123120e-03,2.292404082977957461e-03,2.108742013991029944e-03,1.369935692290597321e-03,1.059752416238379010e-03,1.970796442429630611e-03,1.794096693200432184e-03,8.151204389095341668e-04,7.927824584910454905e-04,1.101276549856775120e-03,1.075069796557132432e-03,1.986407018586267437e-03,1.237873035282631429e-03,1.721940438198603634e-03,2.516985365961841355e-03,2.265453465079053565e-03,2.467617005394432371e-03,1.456107359556829076e-03,2.684766414774674564e-03,3.453664778337995570e-03,3.652183698376462815e-03,3.910407658070116053e-03,4.652270234709869612e-03,3.914545537137324380e-03,4.564640615298829265e-03,5.030887419221360263e-03,6.087207840227940037e-03,5.661202207716627480e-03,6.573642150531071315e-03,7.334985239144293373e-03,7.101779117864298954e-03,6.730980833330785576e-03,6.835387119782340357e-03,6.885482856598606344e-03,7.337482894369825800e-03,8.192028413474111356e-03,8.892567205303235009e-03,9.899126184491546451e-03,9.668102114992818685e-03,9.743033143625262626e-03,1.004688672682789614e-02,1.082874076382852636e-02,1.364804466573399898e-02,1.464314471021767317e-02,1.465741090066815383e-02,1.628151530449650081e-02,1.592887555169350544e-02,1.602706033163475013e-02,1.522099593934961477e-02,1.555288541965646996e-02,1.626730750008844803e-02,1.719929304628757191e-02,1.820370478346703194e-02,1.906043294218267778e-02,2.044293399887449347e-02,2.189459459227192928e-02,2.628355454254722307e-02,2.764766032640213894e-02,2.778370685770641113e-02,2.768980691959126508e-02,2.794472410624763634e-02,2.758076990078636020e-02,2.482868491839321928e-02,2.485815976363391772e-02,2.493817528346196910e-02,2.521535549702938472e-02,2.493914055130017071e-02,2.495163756640167430e-02,2.481210520465660513e-02,2.562531383038248178e-02,2.649289297642833108e-02,2.691750834450493124e-02,2.600544039914243211e-02,2.691153868987155098e-02,2.555743985424828793e-02,2.689103126320023865e-02,2.817801027551062806e-02,2.861655191212655533e-02,3.322626291769868734e-02,3.305841980081006271e-02,3.266680328233535768e-02,3.170243822253598909e-02,3.528085701781979999e-02,3.532717088216213996e-02,3.359949228651252368e-02,3.358415028644988476e-02,3.115219706037058306e-02,2.909294387105643143e-02,2.738072751334663657e-02,2.648633128796255148e-02,2.609120726028309883e-02,2.256107916988760176e-02,2.191262724598124281e-02,2.014204914798057786e-02,1.850977956448548664e-02,1.439042138867098301e-02,1.346820200041989359e-02,1.438711740038308741e-02,1.400134931770559595e-02,1.592776968643937544e-02,1.586135894984898667e-02,1.589581629488123760e-02,1.544443187634887173e-02,1.525719396221186276e-02,1.520593802378538729e-02,1.522198230917664978e-02,1.569563766263702351e-02,1.643278631696337352e-02,1.675063048042725947e-02,1.668846317893371567e-02,1.258170096280329317e-02,1.114514675539281935e-02,1.111225483085172792e-02,1.046801307549123997e-02,1.218825006219308518e-02,1.204035924026149000e-02,1.089515591901792611e-02,1.079693688790268197e-02,9.916963883965226531e-03,9.905175531069256717e-03,1.020978330656155744e-02,7.396503231824861843e-03,9.595926592851102693e-03,8.733531538771802452e-03,8.901824137658456704e-03,8.746552031910624636e-03,8.762571429177933025e-03,8.486102697109995305e-03,1.220652342646171007e-02,1.310102998845320485e-02,1.461464359956378412e-02,1.404757061493451878e-02,1.367246868035671553e-02,1.460032283937967752e-02,1.414717046609664276e-02,9.720933154512997193e-03,8.747451254478058255e-03,1.054481467418349507e-02,1.254842480497455302e-02,1.218737349124235890e-02,1.280907274437436370e-02,1.367036152064516653e-02,1.305912050610561273e-02,1.319416820808386875e-02,1.164320434750721472e-02,1.025499771529075205e-02,9.819667836751175966e-03,7.481212482905916748e-03,8.670903670272534294e-03,7.650772129545793492e-03,7.005697883500861846e-03,7.132833849127335167e-03,8.482981060331341167e-03,8.314383457222148874e-03,8.332638691524776528e-03,7.565077304021632434e-03,5.761360786593896013e-03,5.617185002867398393e-03,7.647498418085738742e-03,6.896583665676071090e-03,6.589476243751337184e-03,6.260210507270616564e-03,5.350776704466276776e-03,4.144656857318835749e-03,4.691325275303593820e-03,5.312310136966500416e-03,5.185176102687744266e-03,4.955341618375796141e-03,8.594385251715592339e-03,8.594612857032061376e-03,8.587937882419759139e-03,1.143982185261259790e-02,1.111356342819664125e-02,1.177164426080643499e-02,9.455387722550504664e-03,8.649562217452069768e-03,9.038711488806423777e-03,8.941510470723702808e-03,5.824453930422206563e-03,2.727739125951216329e-03,2.777181188356667163e-03,1.916443954619461050e-03,1.793460437432001404e-03,5.471424128812359122e-03,5.587715637544581407e-03,5.720124690811120155e-03,5.420994338944133337e-03,4.358711896509136381e-03,3.907358217090369651e-03,4.815259565339935141e-03,4.960152631902487591e-03,4.541115078269625238e-03,5.145082694396695133e-03,5.094746329504718473e-03,4.887661976425903415e-03,5.222910762695572376e-03,5.445899523090812558e-03,4.492141485289491594e-03,3.084884811272223422e-03,3.136974885438429013e-03,3.149211719895943923e-03,4.230336501238943052e-03,4.319923071352957215e-03,5.400051855231560380e-03,5.507189790699291640e-03,6.500610855904348680e-03,6.625193257209507740e-03,8.217205499167861554e-03,8.595080211752486807e-03,8.746576080116965843e-03,9.161005281166109335e-03,9.673968667343612465e-03,1.028117720335655454e-02,1.155717436658918081e-02,1.173145496413439091e-02,1.670296436634329321e-02,1.649429135650289785e-02,1.688199682136745650e-02,1.765795143030469277e-02,1.889371568171306637e-02,1.988857368839323445e-02,2.053602775324695276e-02,2.115539711083816790e-02,2.098261978572997510e-02,1.909241666697404291e-02,1.808044844709483928e-02,1.838447942420514195e-02,1.977135143032102832e-02,2.083102410838974516e-02,2.124534175969573085e-02,2.190224276489276603e-02,2.344325504582444805e-02,2.415883195628778374e-02,2.552745860216021692e-02,2.559285263425259416e-02,2.552480729356583836e-02,2.534191522961343201e-02,2.481372485932280617e-02,2.410033241497813034e-02,2.276481509220010246e-02,2.231377575169689320e-02,2.151835709244374201e-02,2.154027643634964795e-02,2.162614829534528771e-02,2.147662688302436756e-02,1.814872180838641991e-02,1.818986325882102767e-02,1.707155707780836848e-02,1.742928128792630565e-02,1.670982254798960079e-02,1.508029606497104935e-02,1.650570398809127551e-02,1.631907237879944364e-02,1.495860845005031817e-02,1.516759445961023654e-02,1.509471139247833653e-02,1.434737115424651252e-02,1.638717635886671048e-02,1.624772328684714190e-02,1.544513840044076450e-02,1.477610094460131418e-02,1.357446894551368917e-02,1.337732151704168655e-02,1.334093067934080321e-02,1.349007485661135770e-02,1.326804663391223209e-02,1.291531111967308791e-02,1.352066956891598455e-02,1.312581415635909882e-02,1.352385296355969324e-02,1.432759740283222859e-02,1.413756198064186620e-02,1.478245828082661723e-02,1.461160145928085304e-02,1.404430061681476681e-02,1.439290967978411502e-02,1.511947254147822349e-02,1.378169621034931215e-02,1.370422944360477104e-02,1.391194074215633576e-02,1.383363673033737896e-02,1.305599439285770776e-02,1.298668946936014194e-02,1.282465498589822721e-02,1.282465498589822721e-02,1.269374735118746454e-02,1.179161645731100459e-02,1.132143340680469810e-02,1.088114379719737693e-02,1.040496879925667008e-02,1.059777982825521082e-02,9.376451255562023857e-03,9.140523379413199867e-03,8.546928797916871975e-03,7.784706113841304183e-03,7.101365943100608133e-03,3.138677384166991061e-03,3.214210050763680049e-03,3.280544363396087348e-03,3.299709861149310343e-03,2.870217374825001326e-03,1.331581636254130412e-03,-5.515740818736405591e-04,1.368909358251454295e-04,1.585662770103766833e-03,-3.099052273931113613e-04,4.590205845845788573e-04,1.861796062185206617e-04,-2.829803903849556490e-04,-3.896794066553017520e-04,3.542297858280999247e-04,2.580508623792790446e-03,2.007417353477464368e-03,-1.921805437258812879e-04,1.536044777285578648e-03,5.359382124243036206e-03,6.279095394302826663e-03,6.877388851050338613e-03,9.248646514343050046e-03,1.065088765078794041e-02,1.105350205855885892e-02,8.675438247127097158e-03,4.199430861483060759e-03,3.059816158911060451e-03,4.995264787962595474e-03,3.713330387429861559e-03,2.047326666936817325e-03,1.651552770454668088e-03,1.650716792624692866e-03,5.046528203921220399e-04,2.314172763157294060e-03,1.412504718250305342e-03,9.019227374845893361e-04,1.065812808112833344e-03,-1.228219697535969102e-03,-4.261731926862034545e-03,-4.356528409603882199e-03,-4.086609430923623227e-04,-1.356215901841311289e-03,-5.896785285644408608e-04,-1.263141915418393608e-03,-2.442034791369822582e-03,-3.278970367134480344e-03,-3.823954202628270568e-03,-2.568775044841949302e-03,-7.154755363394263955e-03,-4.043986942395927202e-03,-4.280278282483171610e-03,-6.878884494523821239e-03,-8.814587993545858896e-03,-7.444512764348070431e-03,-7.254359803817144077e-03,-3.742066130237232946e-03,-4.379807269044991465e-03,-2.011693222951866766e-03,-2.690891231808031480e-03,-3.425224622370081403e-03,-3.320867779649883198e-04,-2.095881966453843562e-04,3.271655196487036326e-03,5.562941366771601871e-03,3.713659321333708570e-03,3.744446748289787137e-03,1.222972178994731051e-03,1.158724945918216016e-03,-2.817916893961047232e-05,-1.995649837183559078e-04,3.479145076551046429e-04,3.123789498272441833e-04,1.602603893213392543e-03,1.777837401139842474e-03,3.257163587526274145e-04,3.257163587526274145e-04,3.257163587526274145e-04,7.238127705607935595e-04,5.653255692091705602e-04,3.694856515317332044e-04,-4.838124004587154186e-04,-4.670770016188674077e-04,-5.150643051691800468e-04,-6.342560069641135648e-04,-4.408320724249571959e-04
4.222508864610374866e-04,3.768163095566637007e-04,1.538894042934051132e-03,1.538894042934051132e-03,1.973748474447577575e-03,2.927890244387222965e-03,2.956018760275267582e-03,3.188269924071611416e-03,3.188269924071611416e-03,3.049371808074106266e-03,3.138942781942400621e-03,3.449720053585886900e-03,3.449720053585886900e-03,3.439987935573836971e-03,3.655190674076818236e-03,3.655190674076818236e-03,4.074959184802162682e-03,4.060029306486128732e-03,4.060029306486128732e-03,5.255296424819582736e-03,5.567156811590074847e-03,5.441585309663226136e-03,5.147597354459722274e-03,5.400747428904821394e-03,5.400747428904821394e-03,5.230669393479510550e-03,5.755834686323452534e-03,2.947581730435378747e-03,2.947581730435378747e-03,6.219289929367823391e-03,8.568218361707107683e-03,8.412713472201752141e-03,1.082010846090741309e-02,1.188039325076393864e-02,1.328417480116892042e-02,1.303258193202872298e-02,1.687799490743257733e-02,1.622805458514286689e-02,1.552688752182940571e-02,1.541084048975892816e-02,1.421616966588414889e-02,1.332666758776417971e-02,1.376611951402093546e-02,1.407051518629307170e-02,1.452422298009322689e-02,1.449388237089561417e-02,1.609770280694703889e-02,1.417833282045216463e-02,1.467054638590326726e-02,1.507083724875772461e-02,1.386199479799987526e-02,1.209811253864202969e-02,1.081615876648739892e-02,1.006115726092980667e-02,9.857097184984731086e-03,7.403989365352668835e-03,7.270373095204871010e-03,6.135163856978552259e-03,6.560863947666277160e-03,6.161566556823467808e-03,6.305788329946703311e-03,7.135808977843586046e-03,7.524273685291262698e-03,7.508396058675365428e-03,8.743760558073004202e-03,9.102343125153858350e-03,9.918139693175533761e-03,1.043490003165917918e-02,9.375431775838815110e-03,9.894925393643184616e-03,9.643046928482605640e-03,9.319893652026366160e-03,1.183827073442436824e-02,1.246720228986777750e-02,1.447811671329251627e-02,1.189749891772188574e-02,1.182225540218707037e-02,1.228262287924756190e-02,1.355663369791543400e-02,1.430567909612233402e-02,1.405245026444061976e-02,1.363544260526909982e-02,1.411907336853595284e-02,1.388281640460125622e-02,1.335727921392518974e-02,1.280017071882367033e-02,1.399079682838942976e-02,1.320989736776182616e-02,1.338958572674509018e-02,1.351520115788793636e-02,1.324960884803095922e-02,1.431134562897489089e-02,1.404389010264449865e-02,1.263145815545646533e-02,1.265371316085660280e-02,1.244383646434715773e-02,1.248482790617251245e-02,1.284263202275202562e-02,1.199156185199557606e-02,1.128323051134360287e-02,1.265916172967076342e-02,1.101641229933135110e-02,1.048679985786782343e-02,1.002642103864797435e-02,9.196803741315557473e-03,5.515359072514515286e-03,4.116088395522265499e-03,3.172409070938657458e-03,2.157341339044451488e-03,1.822544027409178820e-03,1.111537076811836954e-03,4.039102525613031433e-04,1.234206620863783190e-03,2.213032485982015241e-03,2.113264173563092398e-03,1.598503126305988488e-03,2.953443051195117630e-03,5.058382333586831058e-03,6.098183337973019438e-03,8.708744537063767624e-03,8.167778074344300351e-03,8.124606878211470054e-03,7.942541303230221325e-03,8.143446268704515600e-03,9.309700185245394291e-03,9.415365619080561313e-03,1.037585917069818592e-02,9.958647067580362472e-03,9.815784413255743135e-03,9.687537316992050201e-03,9.678007480298359000e-03,9.542270451368543502e-03,9.636447013091560196e-03,1.002978957850298933e-02,1.020775971272468510e-02,1.079726754279367214e-02,1.175702930411805583e-02,1.270077547821840853e-02,1.390531406202746324e-02,1.471930044486890847e-02,1.646208752132105602e-02,1.706295913993223848e-02,1.840897650001768054e-02,1.939868361092507779e-02,2.036604254359347319e-02,2.055809096417283641e-02,2.087188534815175370e-02,2.311184814581975291e-02,2.412659070119291607e-02,2.529367754752425909e-02,2.574274266484141704e-02,2.592581506374872641e-02,2.600603200438905693e-02,2.668322072275007562e-02,2.837409863972841645e-02,2.880258952086239138e-02,2.904700242130454912e-02,2.971643095448240485e-02,3.033427612623813135e-02,3.204572313384852766e-02,3.312959247912657113e-02,3.403414971272148565e-02,3.403395363736465978e-02,3.484777568557206884e-02,3.513859316104751135e-02,3.577410502766501660e-02,3.627634821145080818e-02,3.683990111122134592e-02,3.805695971069319311e-02,3.834185843688557582e-02,3.912567699906061708e-02,3.970362898292009723e-02,3.922720770283168873e-02,3.893743051223439583e-02,3.864569955127528794e-02,3.873434714210645391e-02,3.783099604642197605e-02,3.736707029921206014e-02,3.662319150982581289e-02,3.424943181621062371e-02,3.379243060961331646e-02,3.330429361907961960e-02,3.295829255105086480e-02,3.209923279821663006e-02,3.376693176003593005e-02,3.317908941060365019e-02,3.173467556286292679e-02,3.124936427660434876e-02,2.992572757572853348e-02,3.011031208100593826e-02,2.989528187514240570e-02,3.098473498881428728e-02,3.136428012482822547e-02,3.099835719963870556e-02,3.093437539754317206e-02,3.111131960760100956e-02,3.140418963430265109e-02,3.111196078897706524e-02,3.105000664459777598e-02,2.940403739665743005e-02,2.802224197894369329e-02,2.674482900997137910e-02,2.538988323787962423e-02,2.315876073973432980e-02,2.232999038799978603e-02,2.152150424833421463e-02,2.168523962921061962e-02,2.046118508679395723e-02,2.036703297433671220e-02,1.935288745424706969e-02,2.007803014035352066e-02,2.016966554516351484e-02,2.133009475457209314e-02,2.084965571879590987e-02,2.112004931781633066e-02,2.134212055162697935e-02,2.162642123425591659e-02,2.130450092189146993e-02,2.137953172412985353e-02,2.214738039807024467e-02,2.155355569580309771e-02,2.437855216899988825e-02,2.424264219027069678e-02,2.488453276080934695e-02,2.307494640858077581e-02,2.332398204358002505e-02,2.372896029027765294e-02,2.237284264421659369e-02,2.261979963930877899e-02,2.183633128782018831e-02,1.857468702222721951e-02,1.779569448791562189e-02,1.694392149115442336e-02,1.743650135321720557e-02,1.725892238465290621e-02,1.926712240146868579e-02,1.720603836521697808e-02,1.504999029383152602e-02,1.476879327509474961e-02,1.228958960475343143e-02,1.166806532766955298e-02,1.095453480470032909e-02,1.264237252037789597e-02,1.678729920365323869e-02,1.676864597788034830e-02,1.719413809301151286e-02,2.272482481156649914e-02,2.345472097945959858e-02,2.379788461943317321e-02,2.547806596599065318e-02,2.683645485483479587e-02,2.221330804411141002e-02,2.171672522316043033e-02,2.176395464307954997e-02,2.124482599941790451e-02,2.037920872437918099e-02,2.010876216596618749e-02,1.737164247300369141e-02,1.561081219032796688e-02,1.513766589704572570e-02,1.661515732738172782e-02,1.872235787587263334e-02,1.801832016340715326e-02,1.732570301861853859e-02,1.771233918039404748e-02,1.977225892849689831e-02,2.203752149661720658e-02,2.204913378575287450e-02,2.188588050146781858e-02,2.257415777966694306e-02,2.271572583264458087e-02,1.873728851016295133e-02,2.071424953231633045e-02,2.040028300784319654e-02,2.080513144613865828e-02,2.073216990583126584e-02,2.076034633666235668e-02,2.088308952019568218e-02,2.092999876177966193e-02,2.102200475091307863e-02,2.123398856395779244e-02,2.112704391549367899e-02,2.199113151500012298e-02,2.194967135718416465e-02,2.242080254405011755e-02,2.178584207083507016e-02,2.195620070632586796e-02,2.105006962369124213e-02,2.064375070207189605e-02,2.067558230614664413e-02,2.060512219074384782e-02,1.977455521340898414e-02,1.946520806342012799e-02,2.046104999809852942e-02,2.074809232955362320e-02,1.997418503226661146e-02,1.911269908556532948e-02,1.824939952330156129e-02,1.808163573870735091e-02,1.787933793764237556e-02,1.742172044152527632e-02,1.715881751249399151e-02,1.666122754920040111e-02,1.584307358179599945e-02,1.490095028196303413e-02,1.430465562888674595e-02,1.370559224060561611e-02,1.385051763589622946e-02,1.365610590973977655e-02,1.340785774330073739e-02,1.344521487128507754e-02,1.295552027057933660e-02,1.408402753216306084e-02,1.350834893725494194e-02,1.421469627081798325e-02,1.308127740861114545e-02,1.302772505751929009e-02,1.324251469175263644e-02,1.256605857483359019e-02,1.217716720280502714e-02,1.247107759026285477e-02,1.234046200728483415e-02,1.417425148831150290e-02,1.435829308954061044e-02,1.498465246896509527e-02,1.591685589975182225e-02,1.700408805185104830e-02,1.829191337141702206e-02,1.801116580831120528e-02,1.747623960673167637e-02,1.847993097071055218e-02,1.766015642210898642e-02,1.748946296332305056e-02,1.773418517857442908e-02,1.828368173013285303e-02,1.840348830978972075e-02,1.918811335880240762e-02,1.984409011078688834e-02,2.032804969105796167e-02,2.027141344691564540e-02,2.243078416570532668e-02,2.241280362595791248e-02,2.431187139217439938e-02,2.830760575321909084e-02,2.892537482844914978e-02,2.883705777012004687e-02,2.751377450477190609e-02,2.743264972269482752e-02,2.638159015364897192e-02,2.516926635611325611e-02,2.138366645531328616e-02,1.953917646040856382e-02,1.684070848910942594e-02,1.689042928358212153e-02,1.585316673714166555e-02,1.569750891849176072e-02,1.655808286676496363e-02,1.543385792621393242e-02,1.508654434933836413e-02,1.499677407359859688e-02,1.542383981592188036e-02,1.552418810205460215e-02,1.543398953372834836e-02,1.536259691082096299e-02,1.480881280532017619e-02,1.470298439888560044e-02,1.341909255941800203e-02,1.219779383714738111e-02,1.202285909996243796e-02,1.161486173508871622e-02,1.098294734136293083e-02,1.043640443027786871e-02,1.035658238845884108e-02,1.053904787599186862e-02,1.065868671008744079e-02,1.044970111950003361e-02,9.416468917231553618e-03,9.014666641232784924e-03,7.091440683904112231e-03,7.827402980082087333e-03,7.673067791055005783e-03,7.687252048754564943e-03,8.000316391137862054e-03,7.610599977028678458e-03,7.622195696759135643e-03,8.163752424640189145e-03,8.656877978329147183e-03,9.381882563823494212e-03,7.867485341574973617e-03,6.864914105725190493e-03,4.063984727943332001e-03,4.012210660544430346e-03,4.439369348285007039e-03,4.162285809424450152e-03,4.456312660181756952e-03,4.305390956123226684e-03,4.386754213218591741e-03,3.901107164139202676e-03,4.126207356970906619e-03,3.550578623588914861e-03,3.393553885491221254e-03,2.550609018871288769e-03,5.101229343793048376e-03,5.132916979555784097e-03,4.989241939619328686e-03,2.955884509885942264e-03,2.278431111840705132e-03,1.599010242176545412e-03,1.773418113305204324e-03,2.935594684195143387e-03,3.037353734460523230e-03,4.075573563872865804e-03,3.909199299004231451e-03,3.428641096676657632e-03,3.474603154771568544e-03,1.504436398068378878e-03,1.531829869722982178e-03,1.255435082096071318e-03,1.969384864597582135e-03,6.206878170509687407e-04,-2.302093999433667184e-04,-2.737512671263703148e-04,6.244017936482044616e-05,8.173329370190756532e-04,7.546460610268505495e-04,-1.524772443680927911e-03,-1.453162473357615505e-03,-1.211100532241966539e-03,2.880697599770229780e-03,2.838424245952157927e-03,2.229823697368385396e-03,3.391767495584785408e-03,2.986791497898887843e-03,5.835093532220591780e-03,5.016495111611863136e-03,3.729661629950637661e-03,4.543709263407660209e-03,1.348983362812120621e-03,4.594493240277499561e-04,-7.025699547518842163e-04,-1.255814786204297907e-03,1.210693193546060788e-03,2.254468243000757894e-03,2.552223029277586055e-05,-1.601757684256110417e-04,8.261328715119511858e-04,7.558333472569027291e-04,-1.239440332538348710e-04,-1.271216342780661637e-04,-4.657251074203769053e-04,-1.080035770480185751e-03,-2.009783748106948580e-03,-6.826302036139281692e-04,-4.365387466730346949e-04,-1.024102188366942529e-03,-2.741147420700055289e-03,-2.806595774267544013e-03,-3.112100487134968670e-03,-4.492025612746644407e-03,-4.782688622150558719e-03,-9.726568990602597886e-03,-1.039149494738056227e-02,-1.158798136719469372e-02,-1.103545993779000457e-02,-1.034729635671738021e-02,-1.118883298307957706e-02,-1.189027843416899134e-02,-9.340188895959418772e-03,-1.036050992477025902e-02,-9.298596318817726677e-03,-7.165084830831125635e-03,-7.232750770145449613e-03,-6.336581077955888257e-03,-4.159659065709277008e-03,-2.506727527369461295e-03,-3.251470947262108824e-03,-6.054801735094710209e-03,-6.002904214726230599e-03,-5.676973363719685535e-03,-4.003543946580868408e-03,-5.363979517708473803e-03,-8.116990213617503169e-03,-9.773477831232314783e-03,-9.083927836764947583e-03,-9.078505879223172301e-03,-9.578756619249442425e-03,-7.646428314027089307e-03,-7.618190777609458106e-03,-7.785198832363643406e-03,-6.751023058794105094e-03,-5.752380658691905353e-03,-3.169340951926459191e-03,-2.949745304230752714e-03,-2.771879711823515158e-03,-2.732847867019709987e-03,-2.071581631411438616e-03,-1.624791296741977340e-03,-1.068241270980768796e-03,-1.309067120016357225e-03,-1.162752761817416845e-03
2.115675306952613088e-03,2.125658122836593215e-03,2.177427882426455699e-03,2.636155320662967368e-03,3.112173119371039725e-03,3.112173119371039725e-03,3.821562520486366382e-03,4.716448160607579140e-03,4.629837418546977820e-03,4.796043456514565567e-03,5.019899508437999577e-03,5.302107724686457024e-03,8.139604599627500367e-03,8.458258375639701385e-03,8.796190944391999236e-03,8.853723721157247609e-03,9.046694129883549318e-03,9.290629135051251333e-03,9.178800185743645271e-03,7.260235534337343768e-03,5.456688927680003465e-03,5.911577749750620420e-03,5.979836235122759462e-03,5.814409141885772646e-03,5.635142919680143775e-03,5.661084823371778998e-03,5.294363555771351530e-03,5.414951310986134726e-03,8.828807007257459538e-03,1.248221681609231089e-02,1.291411417161021473e-02,1.161712399297008640e-02,1.263101877908028893e-02,1.538378596230613980e-02,1.605048991065171488e-02,2.020042598483925630e-02,1.927889315905570097e-02,1.940206617638324041e-02,2.052578586306328876e-02,2.364281332596487525e-02,2.463542201598778805e-02,2.517685460527969640e-02,2.697221331210060066e-02,2.722957407510926200e-02,2.904181750416880495e-02,2.919990385062472965e-02,2.974356690718454876e-02,2.883316682331713704e-02,2.889368041136171697e-02,2.980464001439321262e-02,3.045530339566173209e-02,3.003371492935680981e-02,2.860332423460932097e-02,2.829046559453513715e-02,2.774985969725414850e-02,2.691355144078684536e-02,2.523964473612712311e-02,2.517771782098258970e-02,2.423413188956361625e-02,2.529986029591120567e-02,2.661475927474707404e-02,2.674361154277449942e-02,2.654492766269581430e-02,2.657275907424104175e-02,2.580721378246774583e-02,2.741089900317654135e-02,2.795992841557709899e-02,2.897448634714708260e-02,3.001661172082868007e-02,3.079887779012611265e-02,3.066717819326658656e-02,3.060049857618450317e-02,3.039141481591865757e-02,3.070953734686993758e-02,3.039496492925063478e-02,3.040965729461058906e-02,3.069078693695936888e-02,3.031378123770448255e-02,3.104888065268882405e-02,3.312302971971785304e-02,3.398312327628938423e-02,3.443195906629138714e-02,3.473522609669229405e-02,3.375413458875832495e-02,3.415708643163380132e-02,3.481997861739632300e-02,3.620761385281477673e-02,3.644735439838851787e-02,3.713360045623834843e-02,3.790485606504539334e-02,3.868644077609462162e-02,3.806846465625769033e-02,3.667183370348298804e-02,3.514508943552610565e-02,3.478910480953546769e-02,3.498796957587089335e-02,3.523319810179741107e-02,3.409449970845236655e-02,3.435520215297750007e-02,3.471692648171297718e-02,3.273250233446516749e-02,3.288117785315244901e-02,3.258188169462915285e-02,3.224776918001417969e-02,3.357375765753900509e-02,3.248539135821319063e-02,3.188858709343780212e-02,3.076008574572849583e-02,3.010567451822133631e-02,2.911372119560437510e-02,2.711537341674627108e-02,2.680994649748105058e-02,2.290994885954118418e-02,2.241987507909209976e-02,2.169932436664582381e-02,2.106412894349005485e-02,1.992895683983941443e-02,1.855229014062166268e-02,1.785752186916373177e-02,1.770155346616295033e-02,1.607630188413594272e-02,1.664016832757130374e-02,1.642767499215736990e-02,1.635949981624440150e-02,1.638763100652336144e-02,1.657209057860242057e-02,1.434070584000784153e-02,1.385832996680684201e-02,1.360267451180092839e-02,1.232450577116490573e-02,1.170946600432739779e-02,1.184246246741665551e-02,1.055928776364061829e-02,9.940512678075013112e-03,9.433330285823483125e-03,8.955573791577995518e-03,6.999561903063404936e-03,6.321198354499383068e-03,5.364301344043103173e-03,6.578357216526506748e-03,5.573809044617726929e-03,4.062650089095343198e-03,4.210419628187386624e-03,1.690038817317022265e-03,2.820911158896396639e-03,2.347356766766145464e-03,2.399400277125268363e-03,6.712750820987107257e-03,6.776840946120553551e-03,6.099998001600145936e-03,5.370618356574343583e-03,5.596813235398966774e-03,7.030774255700596165e-03,6.619728984863682865e-03,7.353808800248847963e-03,6.269894219086699985e-03,4.403105918892048429e-03,4.537567368620596883e-03,4.921287077571558435e-03,5.069284423787003176e-03,5.588377724225003160e-03,6.417962045134027738e-03,6.648278673743623045e-03,6.574996632627525504e-03,6.726926601069271872e-03,7.726292529474107842e-03,9.782244481902358998e-03,8.521038470054012950e-03,8.873353617223040529e-03,9.466495502442462753e-03,8.916798630920560673e-03,7.500194095672136838e-03,8.783082002181483508e-03,9.286417806804296918e-03,1.049048317223694356e-02,1.135358825867365321e-02,1.145702021458684314e-02,1.177978380371341033e-02,1.292102589684535410e-02,1.369243310624360110e-02,1.298441491999851455e-02,1.337229895499262092e-02,1.340505279192033203e-02,1.479801162257296347e-02,1.635213239175574082e-02,1.772334450426562430e-02,1.742811747985318835e-02,1.772567936946342626e-02,1.958419134502592182e-02,2.114142131727764565e-02,2.116911777043632009e-02,2.196476745756743842e-02,2.281688913737398711e-02,2.641551649705183025e-02,2.751962543201785100e-02,2.834261321778088275e-02,2.943965916999839380e-02,3.027131300200768677e-02,3.064057836838100096e-02,3.187894383574653434e-02,3.290491115377493225e-02,3.340878750281806031e-02,3.383469788474971485e-02,3.375518533214973832e-02,3.462985528151384801e-02,3.615256305297059186e-02,3.663295204153799167e-02,3.693691998913239266e-02,3.732325817335587631e-02,3.765219116038039104e-02,3.860546065181577613e-02,3.842902679777129155e-02,3.988429114280644949e-02,4.093539567127914974e-02,4.062624780169536015e-02,3.965429074924906039e-02,3.948911808663144868e-02,3.943628281456281609e-02,3.919499935961270193e-02,3.686384262115701554e-02,3.647281016597984232e-02,3.621711662205514409e-02,3.583967934065705047e-02,3.540254635695693625e-02,3.780514970389160095e-02,3.624018911285471073e-02,3.566010119862098732e-02,3.494539121164703249e-02,3.632007423652885286e-02,3.372044009650768809e-02,3.178760019509799251e-02,3.149886308654062383e-02,3.128676016911453861e-02,3.097180776186944304e-02,3.072377525305603971e-02,3.053592527938705017e-02,3.056148747818207903e-02,3.002381541825495381e-02,2.991622898221321311e-02,2.985509151158049351e-02,3.092424623350441618e-02,3.034661122838103881e-02,2.915098780875545123e-02,2.819346789163017925e-02,2.774127213847995405e-02,2.753403162081103153e-02,2.649835161032560241e-02,2.575758910796722978e-02,2.441337790566059859e-02,2.486064524603968234e-02,2.410760554931382083e-02,2.489987280492667043e-02,2.382169284002283796e-02,2.440823726299837584e-02,2.317868006445506987e-02,2.287216555964609668e-02,2.082646511986228563e-02,1.820340385990093859e-02,1.775495077161916291e-02,1.615475216165578390e-02,1.562489457581464104e-02,1.503510252165694491e-02,1.222746182428181144e-02,1.189168149566265098e-02,1.233990310692205557e-02,1.281838708655261283e-02,1.315642536261603553e-02,1.381861377768039273e-02,1.190060440582069168e-02,1.189470971786093720e-02,1.133951954953280050e-02,1.239155987657934027e-02,1.235393364615846278e-02,1.547092574934122965e-02,1.577942537685169191e-02,1.568389908135478863e-02,1.303603517938130459e-02,1.201124995119346416e-02,1.227533640537544282e-02,1.164798307234084403e-02,1.136793983493617627e-02,1.323303000501689294e-02,1.022072260778365133e-02,1.305040485970276540e-02,1.320556101090285435e-02,1.341736797415121404e-02,1.491557564687923977e-02,2.075392783371447780e-02,1.792466885649508790e-02,1.792889368742774103e-02,1.911336575599020121e-02,1.882756711572630692e-02,1.700925890296644399e-02,1.567949254444064161e-02,1.552445136985198572e-02,9.891457539535294247e-03,9.372422280768904698e-03,1.066558427504749051e-02,9.624482326797885803e-03,5.252297392111689861e-03,5.075730833147235749e-03,5.238917237141045569e-03,5.457334668765833827e-03,5.838418053097474067e-03,6.633049851340261545e-03,6.599522186011696524e-03,7.133305798029019977e-03,7.230970211907415852e-03,8.009470849134382037e-03,8.562132761848728277e-03,9.487114967155759609e-03,1.039400055181473152e-02,9.619131701410993038e-03,1.111550264226167026e-02,9.651119381747010409e-03,9.406333597836836688e-03,9.433717552355195754e-03,1.246030233985301328e-02,1.258686571949403817e-02,1.313656072955800627e-02,1.328849796608968375e-02,1.264551484982540455e-02,1.303769279884479243e-02,1.020733612591403702e-02,1.065957928388887137e-02,1.055310091175746569e-02,1.146611251915208469e-02,1.080509859443565951e-02,1.157252090591028362e-02,1.203503568917185622e-02,1.175979473681472258e-02,1.742825708971115772e-02,1.710930814306207276e-02,1.753869936046244249e-02,1.870141988264199112e-02,1.896963385722379505e-02,1.957045140406952002e-02,1.985524093948362948e-02,1.750520901056120890e-02,1.496765553103620618e-02,1.035567685626419959e-02,9.723560077083158448e-03,1.098558868947727141e-02,1.147178769118767198e-02,1.262991017808178656e-02,1.242971678577319862e-02,1.202440376722696547e-02,1.061983444863385563e-02,9.863456859367009458e-03,1.072025083476217666e-02,1.227260511760694221e-02,1.230243287824159780e-02,1.196944699381330933e-02,1.111838255850820627e-02,1.083006422737289691e-02,9.873480838859742537e-03,9.266252507385160792e-03,1.076718820907100228e-02,1.064945693867883590e-02,1.177433120715578284e-02,1.013167882520944231e-02,1.028872613577279035e-02,1.086595396829097282e-02,1.115926266098997942e-02,1.258238230819120826e-02,1.289406418253981855e-02,1.393160374749383666e-02,1.387177291931761085e-02,1.350514106531394525e-02,1.226862498189758809e-02,1.159869870557873016e-02,1.185745338139980280e-02,1.196068293065792251e-02,1.278918951058524885e-02,1.077335568359116119e-02,1.126723435141652879e-02,1.129291119169347976e-02,1.007323316232041840e-02,1.142890789849179689e-02,1.177953132735060082e-02,1.222696675939683592e-02,1.206819180001535846e-02,1.208639681070475952e-02,1.221410413916135598e-02,1.280489972914030869e-02,1.367730193745609474e-02,1.291267812257366684e-02,1.334769058107547826e-02,1.283184109466163278e-02,1.332068507286612857e-02,1.328745465742960444e-02,1.181805319126162657e-02,1.148730740162996235e-02,1.082313557675191641e-02,1.025321545392256402e-02,1.049507235591618307e-02,1.000302564547133309e-02,9.830188393622495829e-03,6.915457107065738941e-03,7.213988123313397859e-03,8.734504317919611349e-03,8.073976228917064193e-03,7.487869685780190743e-03,7.091090756848488809e-03,7.090744271612900093e-03,2.401094811349180434e-03,2.507930910825939639e-03,1.951874569479563693e-03,1.134499962567771985e-03,2.023533453978192923e-04,4.642607167181310554e-04,7.008294872661786131e-04,1.016121231625652507e-03,1.951966441420082852e-03,2.320611110524223655e-03,2.903577190463674088e-04,2.238138566270607963e-04,4.252250449570103049e-05,-8.760473345509677088e-05,-1.098045825175618774e-03,-5.868697455364680184e-04,-1.257634210077264491e-03,-3.248743886780182388e-03,-2.727560227132185423e-03,-1.105737486870120257e-03,-1.300781699138758808e-03,1.311159994978505512e-03,-1.707334489080996210e-03,2.076676590437610001e-04,-1.438343926243364039e-03,4.653702507769123635e-04,1.148377399234665631e-03,4.153930916344968777e-04,9.870735778144939382e-04,3.009533545622175045e-03,3.083215777603409875e-03,3.293483032558687344e-03,2.950199354189472593e-03,4.559709386655586352e-03,3.585682371775257907e-03,2.892602408443491462e-03,1.874679598114205054e-03,2.911999986773500769e-03,2.538203055876787732e-03,2.486179650186398030e-03,2.204098674466286895e-03,1.004914281937763047e-03,-3.012007422148916549e-04,-1.289731056504064138e-03,-2.844276576444775776e-03,-3.376618079011173973e-03,-4.710042763216342777e-03,-8.218259853043113905e-03,-6.766071747059212473e-03,-6.433039958293528503e-03,-7.145474765952044595e-03,-7.520668991692666672e-03,-7.650834379839596862e-03,-8.000569538237974065e-03,-6.525834595708449037e-03,-4.462017275403103514e-03,-3.553226621226268384e-03,-4.299489655062637902e-03,-4.449469707381656022e-03,-2.331067746507757121e-03,-1.503147469660371174e-03,-1.028978097206207981e-03,-1.028978097206207981e-03,-1.869663169900463847e-03,-1.956290813232942211e-03,-1.787393329265828763e-03,-1.826403568983702048e-03,-1.997099347266435669e-03,-1.941792708597134438e-03,-1.508469297048597004e-03,-8.126110307683939932e-04,7.741877614509869729e-04,7.904796523449368227e-04,1.144236779218505448e-04,-2.089073380296501206e-03,-2.922891113910832533e-03,-3.128526065944817712e-03,-3.531209511115733935e-03,-3.439117184078719497e-03,-3.287461055850721386e-03,-3.505129753099630457e-03,-3.437885241960120675e-03,-2.576621608288354442e-03,-6.873939823371383469e-05,-1.854977027598812969e-05,8.258978974281840904e-04,1.729507641475011050e-03,1.311356092229891326e-03,1.216005394131940229e-03,1.310091798893637215e-03,9.283502698455159277e-04,2.758137184342855566e-04,7.032046295953408395e-04,7.986878362775863159e-04,5.498395195388904163e-04
6.212391868503197145e-04,6.894693872800197482e-04,7.521099276794850335e-04,8.504695927549483885e-04,1.097689331309007138e-03,8.883717309850899455e-04,1.531749818936669347e-03,1.531749818936669347e-03,1.293014150289782454e-03,1.093596619563105528e-03,1.093596619563105528e-03,4.064754114684248710e-04,7.897312556471534082e-04,8.466994448587758125e-04,8.369740961461629575e-04,7.958738897896166630e-04,9.499916046610625041e-04,9.499916046610625041e-04,-1.065180754611171282e-03,-1.819682409755743425e-03,-2.407658320162752233e-03,-2.565581655080934748e-03,-8.321528227229646902e-04,6.732194194924783718e-04,5.712547146331464851e-04,1.114590626738507818e-03,2.054355097748085564e-03,1.443709602809137944e-03,2.419617454437823952e-03,8.710602668286061920e-04,2.601339804102373483e-03,4.292346709822611114e-03,7.640493843461538398e-03,6.808067121051419868e-03,5.881649829426601264e-03,7.060469440704280134e-03,8.072461621086841205e-03,1.067389721030160415e-02,1.077586191516093778e-02,1.347703065780420789e-02,1.284067017072271395e-02,1.233056219251596301e-02,1.325508673925740975e-02,1.491570614008911125e-02,1.729615960993526741e-02,1.661269522224098280e-02,1.577202322657333261e-02,1.711014981233318494e-02,1.816452071721894393e-02,2.019837535377681445e-02,1.971321522209866506e-02,1.904233312711017465e-02,1.892342033484456509e-02,1.622823510036918923e-02,1.238635573503600422e-02,1.323082412448928213e-02,1.191696732189428433e-02,9.768486362132367332e-03,8.773329178227921854e-03,7.797117845420085611e-03,4.900269159183876649e-03,5.153025945385886208e-03,4.407139542124800802e-03,4.211522759326068698e-03,4.830057897563353950e-03,5.053884718306452320e-03,6.575862581949594443e-03,6.766293384799136612e-03,8.115046562620574153e-03,8.756600527444813320e-03,8.462777988003001781e-03,8.347462728220369360e-03,8.695221669594240671e-03,8.624999498771808090e-03,9.661554998198294136e-03,1.076917966314439382e-02,9.550693932427729502e-03,9.769534598312517443e-03,8.996210190431822365e-03,8.661661734028188245e-03,8.638648206458562559e-03,8.910984271063215542e-03,9.637598644111700433e-03,9.786462471396150525e-03,9.521024311450103014e-03,1.044553752438388827e-02,9.888594572151281764e-03,9.247527635724632836e-03,9.197095702451986085e-03,7.256932429892956962e-03,8.042164856935350020e-03,7.279385393098702223e-03,5.962530482271605203e-03,6.242035562246887881e-03,6.449958467958625402e-03,6.175607697437551780e-03,5.762826213369357312e-03,5.643474069553178207e-03,5.810934329544310481e-03,5.702946648578913202e-03,4.870252911339722698e-03,4.920765241869004547e-03,4.664721385452564109e-03,4.091588654779329884e-03,3.263300736912751101e-03,3.483754088510962812e-03,2.496395150942338700e-03,1.603197032346626678e-03,1.646760088359135480e-03,1.071215749010117312e-03,1.386092705335382775e-03,1.026977653080077962e-03,8.763747844100187867e-04,1.031976006263876991e-03,3.916992793548449391e-04,-8.614410993247119831e-04,-1.245313832614190113e-03,-2.188574244119651565e-03,-1.651343089171703003e-03,6.689619390002035822e-04,7.017741071660061648e-04,8.619528613414314784e-04,9.276174405554589138e-04,9.276174405554589138e-04,7.637986004517559107e-04,7.679075469753593930e-04,1.087094098846610405e-03,1.273967559413185461e-03,1.284820972703186546e-03,4.974285104348692395e-04,7.235370165090145413e-04,1.111607649433586685e-04,-4.536597302864329171e-04,-7.496131936420435829e-04,-3.306400863153515597e-04,-4.815509484007343254e-05,5.923026543040794045e-04,1.481339276690788690e-03,1.352940749485281955e-03,1.323963984713785822e-03,2.045232649186130326e-03,1.273457549261307852e-03,1.412981318025392265e-03,2.469771215446266675e-03,2.913461409916135326e-03,2.886813314345708110e-03,2.728795161967933862e-03,2.352952584751139171e-03,2.667534448155753878e-03,2.795764175964839549e-03,2.708246408014663813e-03,3.697382200513607380e-03,3.416129063330860041e-03,2.765485392240571438e-03,2.858298960541869570e-03,3.575097930769708873e-03,4.054042280235130996e-03,3.877160654798077026e-03,3.718377150454873527e-03,6.725282110925494446e-03,7.300527950617374112e-03,7.455397751705839827e-03,8.614171651229813459e-03,1.242827942996807371e-02,1.308924357254077735e-02,1.055684832971676840e-02,1.056762779223988612e-02,9.650823943444396605e-03,1.014052277980256184e-02,1.016783668260330328e-02,6.486509920538978055e-03,6.566416760899568446e-03,6.456348729625249749e-03,6.902928845266232023e-03,6.583111443816036003e-03,7.246873455749838940e-03,7.347396491829334166e-03,7.615224511270903517e-03,7.455479813374771281e-03,8.253223868367066257e-03,8.305166586021681813e-03,9.260848504649274102e-03,9.506019576468568294e-03,9.994519896335905124e-03,1.014539263254457535e-02,1.113454900044261002e-02,1.130871330238590079e-02,1.247049522834161629e-02,1.328541729186616914e-02,1.352702823419587620e-02,1.365633984980861755e-02,1.429005273106241126e-02,1.455399142449877690e-02,1.466435035423257170e-02,1.528494675762198142e-02,1.549148494879704942e-02,2.102518258875549564e-02,2.101983830505319353e-02,2.024984285860485789e-02,2.026777587241914216e-02,2.006111246868983941e-02,2.012126442283864933e-02,1.973451179024603847e-02,2.038642987996794678e-02,1.764496940795883331e-02,1.474449771874121635e-02,1.435544543285646561e-02,1.452316267675574611e-02,1.464306540335371699e-02,2.124335382873882364e-02,2.110954266752406924e-02,2.097366260024183596e-02,2.155801730627071588e-02,2.103063995279548862e-02,2.130362611601921766e-02,2.123148179003834721e-02,2.078974560249150297e-02,1.763457676988996331e-02,1.886887313572164007e-02,1.662661693377436023e-02,1.572758117056589217e-02,1.521246041232318484e-02,1.400467911671031927e-02,1.444843114742034272e-02,1.482413068546696057e-02,1.522701106473863843e-02,1.516685236265594323e-02,1.522576914068661004e-02,1.537816220071342756e-02,1.545565920409541598e-02,1.532993273565917518e-02,1.509474755449084597e-02,1.510274327130857464e-02,1.604894798872919318e-02,1.598599198511681599e-02,1.573170111314153852e-02,1.541813620483527270e-02,1.529043871904938248e-02,1.501543535787870989e-02,1.497138752021753318e-02,1.480408827725200084e-02,1.362543784504367979e-02,1.340030763147378665e-02,1.341303508812904249e-02,1.293697849692169652e-02,1.309013173406084821e-02,1.246347158997972160e-02,1.204427602053155175e-02,1.201646774437108503e-02,1.182494457215314647e-02,1.154928725612944587e-02,1.148156259061508186e-02,1.147774721882637711e-02,1.163784912514797057e-02,1.151543843868282554e-02,1.160765816080741933e-02,1.192459122076017924e-02,1.174899384833736661e-02,1.174899384833736661e-02,1.152476330824439912e-02,1.098668060273231759e-02,1.106781910169410757e-02,1.106781910169410757e-02,1.146609685875145390e-02,1.161565487353460012e-02,1.012218248482553776e-02,1.008201665894024532e-02,9.921350935567934543e-03,1.024402802320768802e-02,1.085709186056731286e-02,1.148555571228010962e-02,1.051106395862560529e-02,1.051823386772632145e-02,8.300648023268084388e-03,7.029404745074786104e-03,6.496440298332838495e-03,7.602811165780890001e-03,5.917862920588578754e-03,6.172388151435885539e-03,8.387673300519668182e-03,9.252001628024059121e-03,9.821857041163549809e-03,1.072985337401500053e-02,1.651982227936750827e-02,1.674321020355240899e-02,1.831447809718020694e-02,2.063882044249843589e-02,2.041031081092995608e-02,2.033389509821222768e-02,2.127408558137880434e-02,2.144733774922674002e-02,2.266419480280282978e-02,2.388208398314052572e-02,2.368357139071740336e-02,2.513699416090622168e-02,2.922741514243810262e-02,3.633627876313510335e-02,3.663593661013570674e-02,3.784377193339116124e-02,3.755821761450556240e-02,3.791052984796210862e-02,3.671016128121288441e-02,3.184026856425294094e-02,2.756968454984740080e-02,2.642750123455092637e-02,2.717001118932801940e-02,2.797127212388811346e-02,2.752607046333108154e-02,2.772592088952147149e-02,2.954096675484197548e-02,3.012913687636349647e-02,2.991503761767168659e-02,2.770136576490515520e-02,2.792975927115011123e-02,2.781725907000168890e-02,2.759437401494498759e-02,2.865709299613871178e-02,2.787631765074114962e-02,2.810935539689039461e-02,2.615271420455768034e-02,2.587816044452828992e-02,2.590171508638048833e-02,2.718931925866208479e-02,2.666539409816882575e-02,2.417267147518603956e-02,2.444859912781384426e-02,2.282646008985233371e-02,2.249024145111008094e-02,2.141427764723585064e-02,2.122370826593201337e-02,2.155639347216990742e-02,2.128464120532779641e-02,2.142377321972186582e-02,2.038724732520489843e-02,2.052974232370699537e-02,1.916249370794038606e-02,2.118846836673075884e-02,1.955698705942414753e-02,1.902491750902405437e-02,1.841327362013888205e-02,1.814625527889198245e-02,1.982628003695749777e-02,1.934737057545262220e-02,1.914503725563726846e-02,1.923203035576940764e-02,1.865941265305555083e-02,1.863865728391092547e-02,1.707552061811012933e-02,1.726608094896553772e-02,1.769815983083587729e-02,1.624441799104142312e-02,1.591335837789129362e-02,1.465340324879883631e-02,1.420991348938189028e-02,1.354936101502344017e-02,1.340514720431910597e-02,1.441534164882718114e-02,1.449241929614551033e-02,1.454311130590289422e-02,1.457167934004671705e-02,1.347160842757912959e-02,1.420730792167911212e-02,1.430051263007574812e-02,1.426157775011945884e-02,1.422658416205765594e-02,1.443522151561846961e-02,1.490570127770682665e-02,1.613412499585398577e-02,1.539511625640309703e-02,1.572002365574685229e-02,1.444896617664944913e-02,1.331668364280399162e-02,1.356686580733169542e-02,1.259695334362400873e-02,1.544314982544068952e-02,1.812275894481974597e-02,2.261123816439357739e-02,2.151988413356646992e-02,2.187318194217661299e-02,2.181165282404487135e-02,2.108613430944671421e-02,2.052776932128703297e-02,2.206307330972575101e-02,2.435771192109141212e-02,1.706468068999765844e-02,1.752646065262973563e-02,1.692687696986804394e-02,1.809611635780711270e-02,1.959874798660200465e-02,1.939282934455972829e-02,1.798404420734742160e-02,1.301135185286173869e-02,1.276225713281465592e-02,1.057777069050157628e-02,8.309649848953271078e-03,5.634379100754738877e-03,4.511100646771743460e-03,4.619906585662715386e-03,2.810854193442530874e-03,2.218780836246415488e-03,3.184246130262372021e-03,2.582073923905045618e-03,-1.909626971410330418e-03,-2.141311129812024320e-03,-1.849931267070743530e-03,-1.345045105979980008e-03,-4.117945452800555323e-03,-3.760410366526769060e-03,-4.645619000988099496e-03,-2.656943257694599752e-03,-1.470983939549065211e-03,-3.883763600305580998e-03,-6.519484178163343323e-03,-6.434607934962712460e-03,-7.387550287417039493e-03,-7.291267777331184377e-03,-7.464187758450285815e-03,-7.328795616730374163e-03,-7.087931442480524015e-03,-5.320940463086900989e-03,-2.507563502765171922e-03,-1.004601267743659640e-03,-1.996868212897435959e-03,1.486822668533553226e-03,3.809017121739569859e-03,5.718457009151620141e-03,5.119592566405151146e-03,6.831150430699300252e-03,6.507032869734233685e-03,5.034199591923773504e-03,3.178080743396043302e-03,6.165579500262908380e-03,6.188440079878391141e-03,5.458073211523965795e-03,5.917467104219729240e-03,5.533585821464202803e-03,5.966578554110662028e-03,6.584625081655953033e-03,8.347468404576872253e-03,8.609687194425107507e-03,8.995679988700835961e-03,9.195494563450199929e-03,9.279586074625060729e-03,6.370106755874879560e-03,6.995111810009177825e-03,6.433609599850238780e-03,4.886305713327321332e-03,4.964297746885459189e-03,4.829096184405148005e-03,3.005538976057284782e-03,2.014625337492951477e-03,2.066963178921368827e-03,2.053979715681191875e-03,1.459164265415261157e-03,1.294178596034522514e-03,7.958518565793377139e-04,5.878759124602176995e-04,7.881773815393220946e-04,2.235481673054959088e-03,2.318175078341051971e-03,1.809967898847172907e-03,1.917916949987397320e-03,1.708042927844414475e-03,1.575220772548907881e-03,1.588090941968278453e-03,1.416235748542345792e-03,3.861636150515489934e-04,3.638919272394678002e-04,3.501990179199328842e-04,3.501990179199328842e-04,1.797422378296667826e-04,-2.339283652567967706e-03,-3.927327358366993620e-03,-2.798601732467128136e-03,-4.356691242810492300e-05,5.349330574562223117e-04,-1.181724707032116980e-03,-1.557083764796680534e-03,2.054804829635490434e-03,-1.901591019875670122e-03,-1.270225249975454659e-03,5.210626323464706295e-04,5.099176979431803858e-05,-7.905906918211094377e-05,-3.636476344104085101e-03,1.101930512780507009e-04,-1.970974801938923590e-03,-8.563757843167125279e-04,-3.597485018569972692e-04,-3.388894532064516294e-04,7.393531009389906123e-05,5.959507887529812619e-04,1.515608145648709233e-04,1.854429624724920986e-03,1.919412732891516687e-03,3.485605522242333706e-03,3.192196335976556915e-03,3.575828148343187206e-03,3.288686262961393412e-03,3.135195159728776122e-03
6.037827883180634832e-05,2.213325040054772469e-04,3.922674197304057767e-04,3.922674197304057767e-04,1.588152502767626153e-03,1.588152502767626153e-03,1.846521767065245796e-03,1.703199478062650957e-03,2.138152622906161916e-03,2.138152622906161916e-03,2.138152622906161916e-03,2.802759966344119027e-03,2.549363586457003856e-03,2.291916303367416870e-03,2.629091958130661683e-03,2.911692921549401038e-03,2.642318361344668000e-03,2.727037427418799870e-03,2.327724919248651356e-03,2.705551038452192001e-03,2.913478928279572295e-03,3.233422452070389922e-03,5.483183841667974446e-04,6.265074865904444752e-04,1.886698287833902133e-03,1.694126736151873192e-03,2.492525670337030017e-03,2.778768851808831406e-03,1.795129517023146860e-03,4.872878298702966633e-03,6.102218395195351669e-03,8.784903944886792229e-03,8.473186785782311353e-03,7.523660014157526436e-03,8.494465029716794652e-03,6.957321659707774338e-03,8.015783210993051439e-03,6.307324834926071426e-03,4.715792153407479328e-03,4.738721021015157055e-03,4.697380774063891241e-03,7.715123325896075697e-03,7.813989014113870146e-03,7.331932893044445891e-03,8.281938867607707006e-03,9.027818408316774443e-03,9.481297444939206648e-03,9.580760192282622781e-03,9.463154936338214959e-03,9.953170700736247573e-03,1.049183957895229342e-02,1.262668420537120875e-02,1.394360436623949887e-02,1.533132130714082164e-02,1.312987986443675537e-02,1.401355365082351118e-02,1.479690686214618286e-02,1.349223611959747895e-02,1.392439265368942622e-02,1.433649117479121951e-02,1.507345250969242823e-02,1.641422402518404738e-02,1.622141055470493684e-02,1.686500993177305133e-02,1.718414405115468654e-02,1.748347236023670495e-02,1.743216151085773616e-02,1.765333393625400163e-02,1.831127114159624911e-02,1.889554759031161074e-02,1.891221887844202892e-02,2.131797928421103050e-02,2.104440458719096865e-02,2.131366690460371333e-02,2.182216615620332159e-02,2.197032604910833381e-02,2.141163287936363735e-02,2.201806898882520402e-02,2.283477248334035009e-02,2.277986754051792434e-02,2.275326144980513096e-02,2.167721420631779985e-02,2.100076968701345900e-02,2.231691712090108290e-02,2.296758260952036154e-02,2.063926874078282278e-02,2.017939817542147365e-02,1.981786721392363171e-02,1.872698737601399127e-02,1.809792638219180280e-02,1.656289163393032809e-02,1.695650526366092661e-02,1.556089143097529222e-02,1.397250588079926130e-02,1.267468803827492309e-02,1.186222590293051389e-02,1.208933842326225840e-02,1.135480684719748952e-02,1.094409741984894713e-02,1.023360553331799719e-02,9.017364804951669491e-03,8.943058824269507073e-03,8.355245281633965140e-03,8.652985898613565693e-03,7.327395946833613685e-03,6.599055863786382203e-03,5.819637049070869664e-03,6.157920594432732958e-03,4.323850708137228285e-03,3.333491916995771475e-03,2.389753175948000630e-03,2.283093676408236641e-03,2.124758875841354765e-03,1.703862945329844784e-03,1.244319541883984106e-03,2.540274152366994373e-03,2.482366461480830719e-03,3.242752492516759368e-03,3.422386950104816788e-03,2.506699077592982640e-03,5.344618360193344533e-03,4.883557088773621442e-03,4.816825123601559816e-03,5.177340329054752957e-03,5.294113533944958157e-03,5.287246882346447428e-03,3.891198488523542592e-03,4.767921650537575683e-03,2.104626266313303073e-03,2.288909205532923576e-03,2.112177129483664047e-03,2.151301879093702558e-04,1.603596054784180549e-03,1.893238061839316432e-03,1.488885671060631447e-03,1.080921166016356140e-03,-3.789662977282515612e-04,-2.117366983657220647e-03,1.780769005418337192e-03,2.174297038560406119e-03,3.710042192684047738e-03,4.041921572324083493e-03,3.577822034905821756e-03,3.304529837165142390e-03,4.806036592818078122e-03,5.515111185208283230e-03,2.759683306842613572e-03,4.098151399277201110e-03,5.035815056343995351e-03,7.410785429387100123e-03,8.612783941589981923e-03,9.727903732907293433e-03,1.027246957743721198e-02,9.824102626958260837e-03,1.008991044596480036e-02,1.073845330204729887e-02,1.085384551987616381e-02,1.158201317288349089e-02,1.225101760120231656e-02,1.230454000375091200e-02,1.365973584493030552e-02,1.390670762611521602e-02,1.431679721623342616e-02,1.373321985567946615e-02,1.408580475347617073e-02,1.394922550334640535e-02,1.431778167516964927e-02,1.504122404810583069e-02,1.507103637405449517e-02,1.505366955072108721e-02,1.527503746289704534e-02,1.513604185509121250e-02,1.582598729111527394e-02,1.580194186343445231e-02,1.663592771197831138e-02,1.688078343906962084e-02,1.592827854571327029e-02,1.537108706126908211e-02,1.595581580037461200e-02,1.572209197750641316e-02,1.562576236391869169e-02,1.732474711114871321e-02,1.786906373279595339e-02,1.924967360182554266e-02,2.014571020173222191e-02,1.953328157666993012e-02,1.996511604193086306e-02,1.994625452457693751e-02,2.514994091296299597e-02,2.452468295497725603e-02,2.496118781813140564e-02,2.630972915079504357e-02,2.749510081992233290e-02,2.769405474737082068e-02,3.012109878364541138e-02,3.050021767212070592e-02,3.065282641951090972e-02,3.104309069673345106e-02,3.078302004907796513e-02,3.125459654384259850e-02,3.000002834974606347e-02,3.038845234149055094e-02,3.173306140086661759e-02,3.345607700546983365e-02,3.293758945639527896e-02,3.286075131631601559e-02,3.329654066975287069e-02,3.367532834445940981e-02,3.272306052905144674e-02,3.297050022368456373e-02,3.393897144862517701e-02,3.553873942411123199e-02,3.544588798344671526e-02,3.531535431451262447e-02,3.557366876634839026e-02,3.462333994940523796e-02,3.637014800112330082e-02,4.353952773798421688e-02,4.406663025682250323e-02,4.412204428087879854e-02,4.514700738763934018e-02,4.463618322674593741e-02,4.188659545209639373e-02,3.621169853722985832e-02,3.100817314720414122e-02,2.958124729781167958e-02,2.942261461798514888e-02,3.008375539840886168e-02,2.800590199874853845e-02,2.836508741295506661e-02,3.208483886296539800e-02,3.209532327430705823e-02,3.111338239195658717e-02,3.085333828964732794e-02,2.966362193171361711e-02,2.991474631073949564e-02,3.102223270140225253e-02,2.704050694612255071e-02,2.492407223802412669e-02,2.575157720502836006e-02,2.459450214002147431e-02,2.392583178057697615e-02,2.126434799674109186e-02,2.080734585265507294e-02,1.983048558829449831e-02,1.834441893279871102e-02,1.811692859277123924e-02,1.784485607619435560e-02,1.772782672584431382e-02,1.702160022003048820e-02,1.774225020691662033e-02,1.604154715491501113e-02,1.736609361270265856e-02,1.816578429323932597e-02,1.696621045226914815e-02,1.613500387617807993e-02,1.626036801182859440e-02,1.629978518846813412e-02,1.640042024699575260e-02,1.675993708274424801e-02,1.594829904814522997e-02,1.563119477177948857e-02,1.641179658703677616e-02,1.599528975597663133e-02,1.783049757068741123e-02,1.915632048847563940e-02,1.931082434893059002e-02,1.776647555790750177e-02,1.769697036988435515e-02,1.585806980162923069e-02,1.503935620735908849e-02,1.487802337682500239e-02,1.475837908033423088e-02,1.437146614361766925e-02,1.316747912749426097e-02,1.329202143309482498e-02,1.265119551963047630e-02,1.278578638322547083e-02,1.613973630619221569e-02,1.794045488128427970e-02,1.889844340208317666e-02,1.950127162622587035e-02,2.161886777244514599e-02,2.171731522501120157e-02,2.115070615365145443e-02,2.250734157618152972e-02,2.167832811485634684e-02,2.240820268325991252e-02,2.458197797585009656e-02,2.481946327183752465e-02,2.519202845524769890e-02,2.668806425579018510e-02,2.656099350171073001e-02,2.648424063655049551e-02,2.622621508931308534e-02,2.617998452273968477e-02,2.584730705719024205e-02,2.584730705719024205e-02,2.449720290189620620e-02,2.435844224426175070e-02,2.354320757543385337e-02,2.297822039160538760e-02,2.142784485477492590e-02,1.988167184508521368e-02,1.887646375170690463e-02,1.721338283528976026e-02,1.436164435169403480e-02,1.254523526115582446e-02,9.958203947303994469e-03,9.134504875362645104e-03,9.254135775919491991e-03,9.786296376732978031e-03,9.603259274574751231e-03,9.162534487924235693e-03,7.231546979271446206e-03,7.293433274706309123e-03,7.072548814717402599e-03,6.488584725236328822e-03,6.596873798206748588e-03,6.196800900341134684e-03,7.835483544660029609e-03,8.627347832579852771e-03,5.766581560123414454e-03,6.204777013999290304e-03,6.172513680140076335e-03,7.082013073423509310e-03,6.122028913849955623e-03,5.629231468090437236e-03,8.290921724290786776e-03,9.078790766697326931e-03,9.445064321812985525e-03,9.958137257913991097e-03,1.137834782642817115e-02,1.188422051710688251e-02,1.317532749522888451e-02,1.825865296777927013e-02,1.752321601448758245e-02,1.999502810963041735e-02,1.913016023512959310e-02,1.896404799727264417e-02,1.737964468406527629e-02,1.531178743535520879e-02,1.249203561301606702e-02,9.705440224475524180e-03,1.000559686250406845e-02,9.140462735716503584e-03,8.754522281821310037e-03,7.305854067247371381e-03,6.369802687088832807e-03,5.492248184575330636e-03,4.620165409779053434e-03,4.615991314548100952e-03,3.940306669458648429e-03,4.037298291251483796e-03,3.886994884531191300e-03,2.594609166654622285e-03,2.177691860178013281e-03,2.399836418756625105e-03,2.704881491676999154e-03,3.013750419401756316e-03,2.797708078901671967e-03,2.847244770431142571e-03,3.869255692672995180e-03,5.985703143880758206e-03,8.239889855276530395e-03,7.914596564489327982e-03,8.301902157433815876e-03,8.124510295971682644e-03,8.690612221184446096e-03,8.586672679565258287e-03,9.755053327795835255e-03,9.683257742381580491e-03,9.238831542021826160e-03,5.911549960117823237e-03,6.410759065762554505e-03,6.601726556678915239e-03,6.896802143486640592e-03,6.534441878582847307e-03,6.067374631334308127e-03,6.969032422416462057e-03,8.038740625346535787e-03,6.800167419487253284e-03,7.394510415202959659e-03,6.044231066582453696e-03,5.603550318939175962e-03,5.708548913324986741e-03,5.048127506407307057e-03,5.410527405590478782e-03,3.751548354876870894e-03,4.073409013057533411e-03,4.440676491577888810e-03,4.290840677747080438e-03,5.234619640150450261e-03,5.318775219818184033e-03,4.895827466013499656e-03,4.508574482611129447e-03,4.080659093181410006e-03,4.717195281204335407e-03,3.315425036080016027e-03,3.090189229743236718e-03,5.207028383957977222e-03,2.580649989101373252e-03,2.532458286792116983e-03,3.870272780456358950e-03,5.508147667288940813e-03,8.456339365481410977e-03,7.498366681813407181e-03,6.516573423309577826e-03,8.506266872089171885e-03,8.058488137321576789e-03,7.759094132192957335e-03,3.529107151287089270e-03,7.098006509289013976e-04,5.160021001718911784e-04,6.968788400720357570e-04,1.035813675340464118e-03,8.746258756878264734e-04,1.079588431606926663e-03,5.692835301903441739e-04,1.868629597222651447e-03,2.604111534268843675e-03,5.568952632052024928e-04,2.346304310726139708e-03,-5.197295266726237230e-04,2.529554125417607553e-03,2.409889748598713528e-03,2.379372152829476762e-03,7.528105565965156464e-04,9.420299430471276280e-04,3.560578843269779749e-04,3.492620849432382388e-04,9.034514153281286535e-04,1.430592866069466205e-03,1.969878456073619836e-03,1.436006755884391842e-03,1.564937432798616792e-03,3.739081381239124039e-03,4.484661375471070063e-03,3.307585714163167011e-03,3.031264637671068820e-03,2.776592231108654819e-03,3.845083614799385888e-03,3.365176116664524934e-03,2.889918731990970876e-03,2.059403627131052832e-03,1.502540132895302527e-03,2.590207444160708833e-04,-2.170684279757752536e-03,-7.486083423321383302e-04,-1.981671158190014426e-03,-1.168396694991074170e-03,-1.531800863341226246e-03,-1.738558438791064538e-03,-9.372078440297159242e-04,-3.574298775912696565e-04,1.247396784380163911e-04,1.442603078211516458e-03,9.779802897434233030e-04,1.809806339767815186e-04,-5.638193398443381264e-04,-1.134319841518180287e-04,-1.496650377712395842e-03,-1.705656368754353280e-03,-1.584772266998281907e-03,-2.078584868416489401e-03,-1.799684718893870394e-03,-1.973582053807795660e-03,-2.480573196997984571e-03,-5.256519249678085794e-03,-3.402476999501740252e-03,-3.050366409332529779e-03,-1.107711506727830425e-03,-2.304382072060220422e-03,-2.921328673683060671e-03,-1.863680167581314214e-03,-1.437278502404396464e-03,-1.289198141861513502e-03,-1.144579778111417482e-03,-7.162409506204191201e-04,1.124775060044355289e-03,4.148725138096433728e-04,1.667912548084547709e-03,1.979797214891087717e-03,2.027723476176356097e-03,2.027723476176356097e-03,2.027723476176356097e-03,1.527057513518548498e-03,6.455588505134095528e-04,2.087639954911656495e-04,3.551779898089394870e-04,3.551779898089394870e-04,5.076485497618407356e-04,5.272124770972715134e-04,3.756073064622217805e-04,2.101342477266548948e-04,2.361665843297047415e-04,3.207443309832055012e-04,3.808983879227000502e-04,3.869565017418761144e-04,2.585369337256097086e-04
-4.272550695934850288e-04,-2.599279545126611515e-04,-1.633710316520176141e-04,7.171166488913571064e-05,7.171166488913571064e-05,7.171166488913571064e-05,7.171166488913571064e-05,3.096813674831252203e-04,4.221954310353041211e-04,7.014241589315038878e-04,1.380814950644650629e-03,1.309517677668959419e-03,1.309517677668959419e-03,1.628171453681160653e-03,1.971682576769381596e-03,2.172702193601522714e-03,2.910469235299588137e-03,3.230709553711690225e-03,3.484520795310555325e-03,3.484520795310555325e-03,1.979052636137576017e-03,2.160881196305289645e-03,1.643188688778619063e-03,2.525886606538628974e-03,2.800794513904635540e-03,1.856768801425029815e-03,1.857627924309489557e-03,6.891676644260404691e-05,9.756364116137192320e-04,9.477707835314025343e-04,-1.221353996756098775e-03,1.132773098175378964e-03,1.391672171090206286e-03,3.061322469838651493e-03,7.352670678191915339e-03,6.457079025958835893e-03,3.978952652526673330e-03,5.857497428259636658e-03,6.940611839017799857e-03,1.136889610092205703e-02,1.230012560060287329e-02,1.351441314494430078e-02,1.241271681531066519e-02,1.201824146617273305e-02,1.186282643794222581e-02,1.274589886690103042e-02,1.374286462870536948e-02,1.485610164029906380e-02,1.569485818640219132e-02,1.617627142559653272e-02,1.792315578222735198e-02,1.795510654809624393e-02,1.626005196264762240e-02,1.894254434089917560e-02,1.799745530022195047e-02,1.801349816035112059e-02,1.508671881936750336e-02,1.275614412865726591e-02,1.145678590152117773e-02,8.799231337252935020e-03,9.576000093503974839e-03,1.195845010013941480e-02,1.076011004658820013e-02,8.984622985276273163e-03,8.465380320135010295e-03,8.243598107518561313e-03,8.414885493587117779e-03,9.163332659668272859e-03,1.001960219134834587e-02,1.437076238035659564e-02,1.800099962322604386e-02,2.042375131642627448e-02,2.104802318439457157e-02,2.178651131454741388e-02,2.360651992838502453e-02,2.627240754833505901e-02,2.628401776703947687e-02,2.710867441704312500e-02,2.765268802442140753e-02,2.779353744383594726e-02,2.774945525274051181e-02,2.768456150910911587e-02,2.776268691428071186e-02,2.778733351977271879e-02,2.693621611157814497e-02,2.552176592241894859e-02,2.510092826465819965e-02,2.404162137374921820e-02,2.217941171550684432e-02,2.198551331239301590e-02,2.041718254454541470e-02,1.922056962045211662e-02,1.907173167944728465e-02,1.795823132418640500e-02,1.753890315263873650e-02,1.750137048660282621e-02,1.684439212768506361e-02,1.387219584541074004e-02,1.231711230843497012e-02,1.093575346652602212e-02,9.497082651817168389e-03,9.550470347368516036e-03,8.971485638574010907e-03,1.014993744519614854e-02,1.037608494879461302e-02,8.547009790874991741e-03,8.894169679144645416e-03,8.240737773119689510e-03,6.721761880377517991e-03,5.972703908133460138e-03,6.592450560283043617e-03,6.701044822486443286e-03,6.305172884703060324e-03,6.403608595075172168e-03,6.344306193257396274e-03,5.130165297538414812e-03,4.786992835321282960e-03,4.931182934958177819e-03,5.157969242194488518e-03,4.955166565274088386e-03,4.623304252631523295e-03,4.279191767201772495e-03,3.568070723158502273e-03,2.979321922214055608e-03,2.780914975884574755e-03,2.068045488764483006e-03,1.495164895710792211e-03,1.987190231685424541e-03,2.520826912855126441e-03,2.521865315459660001e-03,2.207396977795113031e-03,3.289265992861347375e-03,3.501779923473370259e-03,3.701215180250923883e-03,4.185807927466152212e-03,4.741146119496181081e-03,5.295083678214193915e-03,5.325962524389635938e-03,5.816044362683277756e-03,6.169771935620015600e-03,6.281561907627851958e-03,6.739417967811355513e-03,6.692803029191926427e-03,8.096697181180641592e-03,7.980146895557748213e-03,8.571924324122352085e-03,8.380498662980637517e-03,7.932063707318887102e-03,7.556432298811942283e-03,8.026226853830921784e-03,8.736555385250220629e-03,8.547432542627717705e-03,8.239940990443393384e-03,8.794112134152660964e-03,8.887895430010546091e-03,9.494342082281642670e-03,9.657236992758664804e-03,9.411332112147275525e-03,9.708701426083456848e-03,9.732471271279043851e-03,1.217753707394828890e-02,1.485018991208593778e-02,1.520299531553796768e-02,1.648290582429321610e-02,1.664634995373450929e-02,1.726536876358570130e-02,1.752953590005710410e-02,1.773298545318247044e-02,1.771002491440408153e-02,1.881832929179542979e-02,1.715655094379765419e-02,1.763479385596286239e-02,1.826000760014034885e-02,1.876263191380368733e-02,1.934419582943672222e-02,1.933646685430335729e-02,2.011745804405662072e-02,2.007098621603754102e-02,1.950432257026673069e-02,2.010185273817639839e-02,2.028234122753954510e-02,2.031379422797837189e-02,2.140283432563325205e-02,2.174809629231192268e-02,2.260442827272364508e-02,2.278190782349161572e-02,2.299301623845387624e-02,2.326952519955889295e-02,2.378394759195531435e-02,2.456043043248284236e-02,2.506830448638476191e-02,2.489011513394080027e-02,2.494652404060306722e-02,2.508324552593379705e-02,2.499776430601429594e-02,2.543722891229389244e-02,2.566623430313517279e-02,2.640159361772674226e-02,2.719380894350040614e-02,2.795118388437495272e-02,2.796048771429827592e-02,2.795538950432016265e-02,2.625797633931123767e-02,2.612938046722326768e-02,2.610898054929042256e-02,2.636010334047630271e-02,2.637193639326804173e-02,2.475839080453060004e-02,2.464194647986936784e-02,2.131434782058830649e-02,2.149398142789090901e-02,2.210511611808114660e-02,2.183318090404157141e-02,2.357925635501832706e-02,2.347180899912068575e-02,2.376364162088494617e-02,2.282525065002747114e-02,2.245062064285349018e-02,2.426986153276282365e-02,2.406914486706929202e-02,2.368721081027975323e-02,2.304456385738828939e-02,2.219810103993821032e-02,2.147718655231844326e-02,2.080195107766913062e-02,1.809958231549710361e-02,1.686035185656606025e-02,1.658538184243563834e-02,1.644799028086723833e-02,1.649286125236480369e-02,1.538619638508760892e-02,1.327644964870688428e-02,1.296383028300262738e-02,1.313207530765514615e-02,1.260468454201862064e-02,1.241538973634501684e-02,1.280977200692584063e-02,1.344895939467634187e-02,1.390314473311373041e-02,1.463970968375152663e-02,1.656215775866615864e-02,1.814210501874739465e-02,1.869478302735646386e-02,1.886625636844802348e-02,1.873191907173430912e-02,1.931705445651356323e-02,1.853941646345486430e-02,1.920003061110778925e-02,1.695436647393023730e-02,1.670171721849202096e-02,1.537978072111391946e-02,1.565732789426488997e-02,1.706633856986951303e-02,1.753377313730150253e-02,1.744281189789637782e-02,1.675774840673522822e-02,1.871085791842868121e-02,1.898799885995331588e-02,1.897688361628201842e-02,1.989497083733011290e-02,2.031423910780872852e-02,2.183079855303475536e-02,2.200348126623855732e-02,2.244768985805734723e-02,2.318699027200455884e-02,2.696237117595245633e-02,2.864190393066227969e-02,2.987787587791987040e-02,3.120278706759513701e-02,3.044321804249779800e-02,3.115069561222938432e-02,3.168943892416521690e-02,2.722759739969735776e-02,2.335488188264569012e-02,2.409134382640920613e-02,2.345483872975586900e-02,2.623786908347327043e-02,2.624176293678404798e-02,2.591197081283486137e-02,2.378990278826252636e-02,2.415585367430415908e-02,2.503985668062169018e-02,2.452923855762257840e-02,2.506013937329724592e-02,2.518491633157663584e-02,2.500822022116876500e-02,2.536749806471954444e-02,2.594980903173878944e-02,2.662246125433700289e-02,2.742537952315857522e-02,2.782161089849760974e-02,2.714097708079356991e-02,2.674961848435494088e-02,2.725563694867342776e-02,2.760166710784480240e-02,2.759497017090901949e-02,2.738736123483403312e-02,3.052476054789251408e-02,3.066273793233200914e-02,3.144580058583271859e-02,3.317436594165555641e-02,3.373108169706522802e-02,3.480061477738808501e-02,3.423244649355766667e-02,3.486512859978614653e-02,3.479965317192841578e-02,3.566134972867127106e-02,3.274092715849439422e-02,3.112665850256942507e-02,3.082693672256762996e-02,2.921717924465752625e-02,2.887524615969939631e-02,3.024853320324967856e-02,2.921880859575514203e-02,2.842143874309606758e-02,2.842143874309606758e-02,2.687236544486074075e-02,2.680489930086618622e-02,2.474102358128220380e-02,2.400973293401346964e-02,2.258303930305902152e-02,2.055768135773544322e-02,2.210800430246499804e-02,2.219897969148548755e-02,2.153431185659354305e-02,2.170103077158261687e-02,2.299938994040620632e-02,2.307579056368002507e-02,2.270745542245259860e-02,2.089649414787438791e-02,1.974057903126269151e-02,1.866451235147142257e-02,2.035908393754071524e-02,1.983279883337623478e-02,1.993946537776161709e-02,1.871404809958623558e-02,1.968456223177485545e-02,1.923269974673365995e-02,1.894748034489727659e-02,2.060315337195824797e-02,2.117761462039500706e-02,2.338029968234805328e-02,2.548472842287098986e-02,2.520462733062121471e-02,2.543349238834550705e-02,2.457299998364372712e-02,2.247088165661582232e-02,2.278710291365408994e-02,2.294822037304600562e-02,2.329121203847010768e-02,2.270665271192653240e-02,2.188130792180589118e-02,2.169455533814539788e-02,2.196678086192960233e-02,2.176979935167846700e-02,2.231376497639746964e-02,2.277332617150983757e-02,2.304729236637699519e-02,2.424244706058941573e-02,2.575986758442713048e-02,2.549204662658956927e-02,2.523848281676100563e-02,2.603447360337732622e-02,2.522139811975704360e-02,2.258652639911290158e-02,2.271429561549196882e-02,2.093297369002111372e-02,1.941062721816114861e-02,1.877648855850719972e-02,1.799599291377871474e-02,1.587014682938022586e-02,1.441401333204373088e-02,1.434396175826136051e-02,1.490670164774943358e-02,1.911197704955579224e-02,1.875849581349185724e-02,2.105767687802833493e-02,2.220195864545191494e-02,2.255948112724387444e-02,2.178881630635589456e-02,2.133958632994466947e-02,2.190957562333325365e-02,2.216465735515123214e-02,1.897284632190758547e-02,1.776821988159163479e-02,1.646071257218563455e-02,1.505147079357130151e-02,1.461996480652841442e-02,1.438013455253714032e-02,1.388499738531190353e-02,8.785573192099126183e-03,7.489935500680298085e-03,7.255440783862172373e-03,7.292031734697610075e-03,6.083088493167825538e-03,5.760590938363842686e-03,5.599904935251922081e-03,4.424173292403142492e-03,4.696590067457526163e-03,8.338288816354261224e-03,7.165891469610314798e-03,6.404552784689845207e-03,7.972260727767225066e-03,9.003775071277272599e-03,1.002318733146768080e-02,8.871759269469660023e-03,9.652715501076783444e-03,8.823493498509761210e-03,6.641975022166846966e-03,6.448451815064002411e-03,5.990554329539545322e-03,8.148493053044764470e-03,7.688275903767209998e-03,6.833196454216683077e-03,5.737249308224452726e-03,5.909912286107924483e-03,4.273937715449525367e-03,3.727221995341443994e-03,3.451686132781494384e-03,4.845683223505176107e-03,5.394162018765116286e-03,1.775623965299485355e-03,1.201518791807869215e-03,-4.813305049921422067e-04,-9.646090079753667388e-04,-1.520813418623148607e-04,3.003817725881023626e-05,-2.918524108829522790e-04,1.036203928979126995e-03,1.262244186881991692e-03,4.140076455840782134e-03,4.381365357857502224e-03,3.921789930577181463e-03,4.213418611057378332e-03,6.311872409263273066e-03,6.635569210866601973e-03,7.334950609852163364e-03,6.315409863972864732e-03,5.870447914097401063e-03,4.132575758017511050e-03,1.437552030558544337e-03,4.747280017396555106e-04,4.217712145249580789e-03,4.412932641815463242e-03,3.115989969566747200e-03,1.597416278359996885e-03,1.611408024083100035e-03,-4.331830679635997709e-04,-4.125700152739265620e-04,3.272250734304877088e-04,-8.221600240342493652e-04,-1.415548032273955190e-03,-2.060590872663825481e-03,-3.192162301777585250e-03,-3.555992704131024761e-03,-3.827564109469462020e-03,-4.036715685594605141e-03,-4.920880440770643814e-03,-4.433476804939356919e-03,-3.667953088311712382e-03,-1.042442934868409010e-03,-1.214906406828047784e-03,-2.778472738440696758e-03,-2.706865692127384624e-03,-1.702113878947983730e-03,1.181046592411021980e-04,7.282460368126852717e-04,2.707020254086672361e-03,2.001892603609811781e-03,2.199433845441845208e-03,1.299650142650346247e-03,9.464730614983361302e-04,6.109172973458739352e-04,1.528103993478211430e-03,5.703190724873990168e-04,-1.917874528827786433e-03,-3.032445212666392241e-03,-1.710087710576730161e-03,-1.942034998988304006e-03,-3.119977064354060182e-03,-1.674985486726442065e-03,-6.261262730906210416e-04,-9.776598278988459130e-04,-5.403304461833286724e-04,-1.256240549246326202e-05,1.645239832207914289e-04,1.993929176811503126e-04,9.470785076421341271e-04,2.968319533947996140e-03,2.846137087550601637e-03,2.599540926539962819e-03,2.496283983001257398e-03,1.929451354173085820e-03,1.929451354173085820e-03,1.413431499134258813e-03,1.096457096431013682e-03,6.125276697214801763e-04,5.887694216860394399e-04,-2.687071794619698894e-04,-5.648929690994724346e-04
