-5.657666888192244947e+00,7.514590680890989915e+00,1.511394560512387963e+00,-9.533877874235670902e+00,2.100094701656001561e+01,2.931709968088353158e+00,1.339129958063988290e+01,-8.102071925046379519e+00,8.312532457837033206e+00,1.016448720080499513e+01,-2.891021249039547047e+00,-7.833684138439201305e+00,1.119589279429716377e+01,1.290731175777628437e+01,2.034049283480913672e+01,9.179463048283219351e+00,-1.924518994556586193e+01,-8.902579754260566247e+00,3.419809561844778756e+01,7.205636704504746604e+01,6.078858163291866390e+01,6.825861806895346717e+01,5.576401521832699615e+01,6.692174602366289093e+01,2.371816562017655983e+01,6.400953814257188412e+01,5.559893669414640982e+01,4.724052864214184666e+01,5.499938308082095517e+01,5.279696133843293637e+01,5.110037757833610073e+01,4.673153038812956339e+01,-4.731679617872658561e+00,-1.375703827535585955e+00,-1.505987513920267418e+01,-1.617441293644546585e+00,9.427997780174862896e+00,-9.626276573000676962e+00,1.226884670209394201e+01,-3.493918738094138554e+00,-9.085552644603406947e+00,-1.673138318926581647e+01,1.056394458596529518e+01,1.740550388506285906e-01,-4.147623905264222977e+00,-5.302898577881899556e+00,9.230801271959700571e+00,6.761834082086661368e+00,-4.680219274988480116e+00,7.524123792355114304e+00
-1.443660404158241928e+00,-2.597953551938273709e+00,-2.855940215213640165e+00,-1.217582067297416248e+00,3.425135057232494340e+00,-2.656033356865061279e+01,-1.298304039378395558e+00,-3.058529986176221183e+00,-1.166228750113531376e+01,-2.078095369735309106e+01,9.795687933806139114e+00,-1.196381489376487117e+01,-2.359867167036020064e+01,1.185826189523078078e+01,-7.814192280876131491e+00,2.210331903863402303e+01,2.022875148589173122e+01,-3.348006328521502262e+00,3.936772063224008633e+01,6.094543806600990621e+01,6.375812309617384699e+01,3.306731372443837813e+01,5.331262807994026076e+01,4.179442446799049549e+01,2.501398047146160408e+01,2.240382322600419229e+01,5.693768053071089952e+01,4.933545180430808585e+01,5.707231592963854894e+01,6.890626889148603595e+01,3.643279815086400930e+01,5.002180425515946638e+01,7.132532402608150690e+00,-5.646469615552981658e+00,1.241729238382375478e+00,5.819393802292205820e+00,-4.481347054055251355e+00,-1.034801839385958822e+01,-1.021081404398932690e+01,-5.036004816843873577e+00,6.410096193931072994e-01,7.850390714488407085e+00,3.730159814215269432e+00,9.864020585496879434e+00,1.169793871391196394e+00,5.671648627084232785e+00,4.118182315494286705e+00,-7.785606022434309992e+00,-1.769436755338382294e+00,1.210429318041348790e+00
6.269913938470020875e-01,-3.708528154572222402e+00,-4.208060832378431648e+00,5.711928473533940398e+00,9.330324569851205396e+00,6.936704212442029061e+00,-2.411683560656188607e+00,8.913112712441122909e+00,-8.873220244051029937e+00,-5.016005964623122537e+00,1.027806758853852287e+01,2.788743570240481251e+00,-1.143211953199686626e+01,1.132333219723699358e+01,-1.068429739586541061e+01,4.579862785360658606e+00,6.057939041786165824e+00,5.605165919532629104e+00,3.292801201424300928e+01,4.586346766222758475e+01,3.911676393333085144e+01,4.951815100649881884e+01,1.939577331718576758e+01,3.368193393029184790e+01,1.829416054593714591e+01,2.915872885365278577e+01,2.631955715053470257e+01,3.988613557514801045e+01,2.885528196607796758e+01,5.359444727533624331e+01,4.040332156539150787e+01,2.087516675767184182e+01,-2.159520473108499594e+00,6.735138360220211062e+00,-2.523344575928645739e+01,-2.706904407969424042e+01,-6.846587831798119694e+00,-2.799317767601552376e+01,-2.045908931533796249e+01,1.376115824857681691e+00,-2.913832534265769425e+01,2.408042164333228641e+01,-1.759221099055210757e+01,-3.866909004623851587e+01,1.251351717287935017e+01,-1.921597894504443715e+01,1.080525567882640203e+01,-1.075933683595939883e+00,4.727267006281173245e+00,-4.001567389167669520e-01
-1.039806821503996126e+01,-1.464282529784560616e+01,-1.772456304835852370e+00,-8.241118763704896821e+00,1.160598079556423379e+01,-5.099474780295139453e+00,-7.097445430940062749e+00,-1.710826478145904161e+01,9.435929652279792634e+00,-1.192121883574446528e+01,-1.736775208395994641e+00,-2.301786645733365777e+00,6.529818988624578324e+00,1.446470168867732475e+01,3.579885128672573580e-01,1.278005853739206055e+00,1.094784417355472783e+01,-2.162864830845686814e+00,3.419047416595838484e+01,2.860592014989072496e+01,4.312578924977410111e+01,4.507899671411986020e+01,3.320818060650113068e+01,4.401603731218911264e+01,1.944430500122978600e+01,4.945182683113119282e+01,3.961185116957179275e+01,1.689760514067742392e+01,3.622124196009974639e+01,5.931709600814171068e+01,3.650932986313307538e+01,4.454298614964734782e+01,4.011960414124328800e+00,-2.110899558898051254e+01,5.359514249673567043e+00,5.580017412506260932e+00,-2.163416197033529187e+01,4.620223808064792159e+00,-2.617871934047901750e+00,-1.047371147431355531e+01,-1.183641635896755062e+01,-4.974152238484076172e+00,-6.437738060424256226e+00,-1.900740381208914087e+01,-2.121671104040090405e+00,-3.449234742425841205e+01,-1.147786483876340391e+01,-3.523948270149489748e+00,1.413678723471308407e+00,-5.256192737498241563e+00
-2.448329728707673958e+00,-4.376098498119207925e+00,-4.341751615477980053e+00,-1.157773235240268228e+01,-2.721843523659903119e-01,-2.332844658222349565e+01,6.415618228156686698e+00,-2.422795784224400506e-01,-3.008756516350684862e+00,-1.223056434537547510e+01,1.478740412402298432e+01,3.887492446846795513e+00,1.341813601008606760e+01,-8.583541610974538827e+00,-1.357693344455852724e+01,6.392553339562686787e+00,-2.604364927854550871e+00,-1.940091518749720123e+01,6.558073934725904053e+01,3.573227665316160540e+01,4.595823139068034635e+01,4.928015158774555715e+01,6.276890227618113016e+01,3.432710630930820628e+01,3.281782114033816811e+01,4.038249561793187326e+01,5.958112774626172126e+01,7.215358272988541444e+01,4.668432677735523129e+01,4.729325011383036070e+01,5.257675123050932342e+01,5.325755884397893425e+01,-6.410727068788976801e+00,-3.732370792152541839e+01,-1.566227988401178450e+01,1.342267036261758939e+01,1.998896891656093544e+01,-3.146618692433857589e+01,5.698807744082510673e+00,7.718580789684277299e+00,8.615434111452666244e+00,1.025329937551732051e+01,-7.411910884804260746e+00,8.455425936035942058e+00,6.960908504976118572e+00,4.111626545566126723e+00,-1.110437711575763409e+01,-2.170854879971394702e+00,1.159945016909898818e+01,-7.048017541556629517e+00
-4.932230597270709005e+00,-8.284898373935764004e-01,3.179173846190528341e-01,-2.067618076020652840e+00,-1.306444161190012210e+01,9.799341252174350814e+00,-3.370573624281559155e+00,-2.686656870762541782e+00,-5.877590041989936509e+00,5.153191215638006639e+00,-8.744443118909448032e+00,-1.514841269232073628e+00,-1.045181065098470619e+01,1.096005514773201739e+01,-2.325636443107681472e+01,-2.108699047008564520e+01,8.665996583559961053e+00,-2.718212775210446708e+01,3.458188773684801731e+01,2.967236392663957290e+01,4.837586011810935105e+01,6.942434009469734235e+01,5.361262694887492586e+01,7.011189849025753063e+01,2.690865296319406497e+01,5.205593045471308500e+01,7.290271153108092506e+01,2.786505846422144828e+01,5.146069383015012022e+01,1.057183038675151749e+02,2.977241393655303270e+01,3.458834587273386063e+01,-1.279130399995455636e-01,-1.684337728673355272e+01,3.305014001224203213e+01,2.224419673185441937e+01,6.179754642273338483e+00,-1.687371242613870947e-01,5.786035225600731913e+00,-2.240375160511033670e+01,7.803304563482343914e-01,1.239972277412018897e+01,-1.977480350158387878e+01,5.779773288983331980e+00,1.217622724440089321e+01,-1.643076452127526821e+01,5.510219711480339733e+00,-3.319126669690504183e+00,-2.958044871200336878e+00,-1.564413359090575550e+00
-1.301379297594007223e-01,5.022620744321892872e+00,-5.164039530532108735e+00,-8.826050837198595289e+00,9.671365863822639852e+00,-8.217737438730649657e+00,3.406255725577165716e+00,-1.100181927739723164e+01,4.984052884251413129e-01,-1.856214267298325993e+01,-8.950688173392171265e+00,2.686870007152184492e+00,1.747445949724344860e+00,5.939195821102377870e+00,-5.459543876865772916e+00,1.165219242808493050e+01,-1.860403823426547143e-01,2.835434635204444476e+01,8.109522151729329664e+01,6.806492209562675555e+01,7.301328089014150180e+01,3.280839824494881185e+01,6.400115875476792837e+01,4.904979936421364783e+01,5.254327741301894150e+01,5.747990761578159180e+01,5.112593186540565426e+01,1.194213036431125730e+01,7.497994958030686519e+01,4.431389993750992318e+01,3.804211063834598150e+01,4.629438596073060808e+01,-1.714417816476319345e+01,1.885584123539711854e+01,-5.590818740403061327e+01,-8.430688302114440091e+00,1.029569218015760797e-02,3.792849952129364599e+00,-1.127428240915040547e+01,5.038948035791669611e+00,-1.545320407847558108e+01,9.858947734508914706e+00,1.014285538342292092e+01,-2.004050629977151221e+00,-2.049919561513939570e+01,3.981070925341799960e+00,1.024846536396288776e+01,-3.379131725688182986e+00,5.510018933987034906e+00,2.109130020902889147e+00
-4.164101662404202209e+00,3.771765548077707475e+00,7.260103562544977684e+00,5.076130920926741119e+00,1.186387451175960450e+01,1.694578705503787930e+01,8.284468319688052418e+00,8.269108686714179979e-02,1.853150240183530428e+01,-1.697467077864662777e+00,-3.100231632914437263e+00,-3.671126810950101849e+00,-5.426791850279037988e+00,-1.852930071312119154e+01,-2.639766112240744533e+01,-2.700629571753808023e+01,5.438578044429165814e+00,-1.111437032379963608e+00,3.782204871837360827e+01,3.438104861872624696e+01,5.266184549118023028e+01,5.066827600122937980e+01,6.383966964619936135e+01,3.216775318264978267e+01,7.511966927032317187e+01,6.185521922981285314e+01,5.715176233976585962e+01,5.608426284270955620e+01,5.046043098739637145e+01,4.854480136090023024e+01,4.619084097005601564e+01,5.295247665776675206e+01,-1.537752985411213835e+01,4.106824913631841767e+00,8.650585802592178908e+00,-1.860435156503618792e+00,-9.120006553305698205e+00,-2.692698466833078896e+01,2.592615688877532776e+01,-1.539744244337072665e+01,2.109201802733196462e+00,2.528571811555543292e+01,-3.731979541282096413e+00,-2.810095049659391364e+01,-1.961679512373194711e+01,1.885040654711014696e+01,2.772168020234776264e+00,-5.379266450620422191e+00,9.002927646202904199e+00,2.857907956506143154e+00
-4.276334008461176950e+00,-1.885568478593770969e-01,2.739677032461127926e+00,2.058627533668706544e+00,1.001193713708506516e+00,-1.677929705765537349e+01,-4.287982191449633440e+00,-9.799612843489191150e+00,1.886634204254479030e+01,-2.811130651909548561e+01,-2.086014674738236963e+01,-5.619943691409912567e+00,4.510601504684450092e+00,-2.236119579607884233e+01,-2.250007070520990737e+01,4.684240444088806576e+00,1.000023448933256098e+01,-3.782969176169378667e+00,4.680125479453774773e+01,4.036393405728674111e+01,1.531948074895731970e+01,6.566684072472031630e+01,5.928309617783713747e+01,4.004332825625955650e+01,9.153802469336443437e+01,2.756996747886868704e+01,3.293971304895063668e+01,4.937836109467291124e+01,4.512424698336844386e+01,3.279101068943786856e+01,5.927013756238645925e+01,4.940123031516546348e+01,2.431024826711485076e+01,5.126919002757732713e+00,2.067870283273860466e+01,-1.611277098783124018e+01,-3.097757276618392197e+01,1.805725823100592820e+01,-1.391177731648179083e+01,1.144327130723142361e+01,-2.543358779079028054e+01,-2.509239513853752612e+01,-5.863195325256705281e+00,-8.801022801870239221e+00,-3.314428629025234940e+00,-5.375567923896006128e+00,5.400487701746626179e+00,-1.531882481778915661e+01,2.963476028251144534e+00,-2.052257546582635150e+00
-2.572383935218145457e-01,2.328174445345802202e+00,-2.893816503856688538e+00,-4.550457297479056251e+00,-5.676634783628990100e+00,4.901559728381794656e+00,7.954429349355937262e+00,-9.754397929069966722e+00,3.420838193146646500e+00,-2.949720316779732698e+01,-7.203673608805671869e+00,-9.486445389220532487e-01,1.300198955902251008e+01,1.685226278994260696e+01,2.386990540792430338e+00,1.800298644144659121e+01,-1.425643882129505968e+01,2.160794333073114526e+00,5.931882640502279713e+01,3.471142875977366771e+01,3.890224360817727955e+01,6.232504706198544397e+01,7.410340032734136173e+01,3.521468353711930632e+01,6.032042901669157686e+01,7.323758287089582097e+01,6.736091583583359466e+01,3.632017290165335766e+01,2.049520276185575796e+01,5.628265070002888137e+01,8.086109303916860824e+01,7.044540924105757540e+01,3.458185041826774775e+00,-7.009607632404917688e+00,-1.826956799795441810e+01,-2.559071374601291637e+01,1.029313750509283842e+01,-1.377704173610126581e+01,-5.131849436766112937e+00,-1.093455024303254808e+00,3.665459385347654031e+00,9.461523587576794014e+00,6.957665293701813525e+00,1.557413901942444445e+00,-8.079332577458141484e-01,1.017694062013324441e+01,2.312064559579375622e+00,-4.282831385492254839e+00,-3.348019437208519467e+00,1.070315627120229252e+01
-2.854207021722014570e+00,1.958062439566536916e+00,-8.094524668078048255e-03,5.955811099506915784e-01,-4.378726870977672547e+00,1.113697400387194136e+01,3.586449820097674213e+00,-5.552520721201561926e+00,4.717476855399663549e+00,-1.006418394168373354e+01,-1.060419068903924966e+01,-1.008481533560896004e+01,1.387473675588506516e+01,1.530850788204305246e+01,-1.235500272696257618e+01,-3.517817581764620893e+00,2.389070495193022392e+00,1.888646423289638721e+00,4.766851666667486853e+01,4.173117106121704012e+01,5.845866291998601127e+01,4.444564632767219337e+01,5.143344137276892525e+01,4.457867831964088623e+01,5.645595139213972402e+01,3.492025396406553028e+01,5.748477494831918477e+01,4.634708186693654852e+01,7.896746738921574149e+01,5.511769753506996494e+01,9.446261322617681344e+01,5.984277466180216010e+01,-2.812717288036897401e+01,-2.976023881821278083e-01,-2.033140303956365358e+01,-1.240703767230178123e+01,-3.761016135502288915e-02,5.426468677884452063e+01,1.752105509228120894e+01,2.135185252752722818e+01,2.141853576822429872e+01,1.816883771152168237e+01,5.403564419472139235e+01,3.478050662116807956e+01,2.299709976380705001e+01,-5.544739045986601944e+00,1.631425398070079469e+00,9.098569285855028221e-01,8.111818012860533500e+00,9.808533469067460819e-01
-2.997555158793335561e+00,-3.125399547764271979e+00,1.318064856161475618e+00,-2.017369669024863033e+00,-1.517918269394929176e+01,2.067056980180844938e+00,5.544028495871359929e+00,-6.860173870407847652e+00,9.825554036550732562e+00,-1.571107953713145911e+01,-1.046076282890969722e+01,-5.381170243038497780e+00,6.243482284590857745e+00,-5.235926767048434627e+00,1.901621934824796512e+01,-4.558377991049176181e+00,2.382213290433660546e+01,1.201360520234376139e+01,8.837500827482756449e+00,6.047068299032757466e+01,6.735204349926118539e+01,5.976124143965375168e+01,3.788019889576552401e+01,2.464883918580104449e+01,4.806294532972733435e+01,7.475670008089845453e+01,5.361579334398490460e+01,4.140075938028327585e+01,3.068934331574018870e+01,2.446463059662790940e+01,6.553409841716594997e+01,5.019537117687521288e+01,1.636194045849072509e+01,-4.652580041416383594e+00,-2.509347770906861896e+01,-1.507999791024607106e+01,3.125666776386869472e+01,-1.749898408289946516e+01,-1.065555429293858936e+01,-1.489947944333636976e+00,9.969266098273159571e+00,1.225593699070246734e+00,3.349321661892912250e+00,-7.706887729975501422e+00,1.130602214559150021e+01,-1.017028502110312793e+01,6.528593775470973526e+00,1.073129337993417171e-01,4.922300487448850070e+00,2.370670683783162591e+00
-1.649280247990761783e+00,-1.617607491480311310e+01,-6.803601710128261537e+00,-8.140544577705690621e-01,-6.589298948452734450e+00,-2.200405913721787954e+00,2.258823568184691766e+00,-1.668681896352059368e+01,1.798239277132747915e+01,-3.077178727798781654e+00,9.377138825159267554e+00,1.072085558086647872e+01,-1.169158679431559200e+01,-1.166850351450583645e+01,-4.917963924341927751e+00,7.113341402020483706e+00,9.115014545721777495e+00,3.980267109435338568e+01,4.114294629583132235e+01,2.317113583903628893e+01,4.102935368060631305e+01,8.038838010329476447e+01,4.453489292878241201e+01,4.179479846109450136e+01,3.224051227917674112e+01,4.515472919564921028e+01,3.897379695529803456e+01,8.266773399910215403e+01,4.194429276575364440e+01,6.501019438324256328e+01,3.166646392497101203e+01,3.302112281272081873e+01,1.985504294905219069e+01,-3.552347056632855882e+00,1.611443868476764862e+01,7.061603976403780791e+00,-2.155745346699114862e+01,2.371089810265252673e+00,1.045490434480473496e+01,-3.338880446518844192e+00,7.379839319134473552e-01,-1.229284713159292508e+01,8.350143198763647634e-01,6.730302604382745635e+00,-1.955761896897869168e+00,8.809854596691749862e+00,3.527796717243390390e+00,-9.967309951632431719e+00,6.596512857676052555e+00,-1.981204343936794787e+00
-2.377636555030783472e-01,-3.408751716185714375e+00,-5.090636686977130232e+00,4.138150821635086518e-01,1.733679320851037531e+01,-7.492408374102851987e+00,2.304959349275366165e+01,-1.351788183276805455e+01,1.293901970320046679e+01,6.193299446208607506e+00,3.188928125540149594e+01,-3.946194992157896309e+01,-8.142648805225046971e+00,-1.723355344744246409e+01,1.358286742150830051e+01,1.285372269613826290e+01,3.767530886878180496e+01,-7.998091271687368220e+00,4.873396949098869158e+01,7.641495727597705923e+01,3.252258887343358396e+01,5.095129001751891451e+01,7.628231247805183557e+01,6.832031402170375145e+01,7.099458909658916639e+01,4.754063807390207330e+01,5.482442657895332871e+01,5.191409040662918528e+01,4.991640598886752400e+01,7.097962423935652509e+01,7.285613731598550658e+01,3.921275600237733983e+01,-3.216282983000768780e+01,-4.790997168472156953e-01,-4.397510318624218684e+01,8.486214584181599463e+00,9.836649672709336656e+00,8.073994818284191410e-01,-1.064360028465454455e+01,8.060513304118096300e+00,-1.367187897729706059e+01,1.208521654337072881e+01,-1.120974440034558661e+01,9.946238897545473634e+00,4.798639452353307355e+00,-8.828203594069616855e+00,-1.013805807774488343e+01,-1.303847466696300472e+01,6.244488445074205529e+00,-2.187070899646948341e+00
-1.072864701079839334e+00,-2.914694864987931844e+00,1.075872323682030451e+00,9.867291708931249516e-01,1.667674872603874370e+00,-6.244655421724230049e-01,1.295146310711143611e+00,-4.896014083119236027e+00,1.210870618413955846e+01,-9.179338578872528132e+00,-2.226201439599024923e+01,2.088926456182711888e+00,2.021420782029139662e+00,-5.154176363166699026e+00,-1.700535778221774308e+01,-2.479223138582404395e+00,9.529488337905256401e+00,7.092533000607486038e+00,6.558793705137411223e+01,6.465328158291137584e+01,4.960276901879780809e+01,4.603601872169979004e+01,6.402974210604207883e+01,6.292297044068115497e+01,5.057837779998147454e+01,4.162765325216702195e+01,4.838480452406318477e+01,3.404141952598433107e+01,6.692627287635271216e+01,3.405613722954959854e+01,3.922283771004966724e+01,7.146226771022188018e+01,-6.449134800864973371e+00,-2.155959897386211210e+01,-1.888370297019850241e+01,-2.004302461161835680e+01,-1.578373817075858909e+01,4.973192016058336939e+00,-1.676574491954403445e+00,4.256980488882957658e+00,-3.505569205374927577e+01,-9.462749318704849699e+00,1.394853193721462548e+00,4.939826241998003020e+00,-9.594963077144946340e+00,-3.087029610641952804e+00,-1.130100794224341598e+01,-4.261958053553291492e+00,-3.523193491211739303e+00,-1.842466258213107277e+00
5.612024024613273099e+00,1.790846828430536331e+00,-2.600658782467409336e-01,9.239483856634155501e+00,1.917883250285693286e+00,-6.471235497985905027e+00,-1.792207055385807574e-02,1.281652203237765075e+00,8.738911726046286077e+00,4.130997612582684830e+00,-3.580136089195992799e+00,-3.512936889794973538e+00,2.148655074955364341e+01,5.279118409623957398e-01,2.486400629633144632e+01,6.945066277554294842e+00,-7.604854829364405155e+00,2.877489622884247567e+01,3.300234110395762599e+01,1.755461098127918262e+01,4.019879911060029087e+01,1.902945315286381955e+01,3.097319039968137844e+01,4.575090459161779677e+01,3.142086299391015203e+01,3.932624284797984870e+01,5.845253658248785911e+01,5.367264245143763191e+01,1.947427045800824885e+01,3.683751503473055067e+01,2.692184192394272912e+01,3.618721707719021197e+01,1.298298126396330510e+01,8.780676492050316639e+00,2.864709106548971373e+00,5.648034749106550123e+00,-1.250225367962541512e+01,-1.068332781600718207e+01,1.187733215491456207e+01,1.835556652753384910e+01,-1.699204144612825829e+01,-1.112609062247870284e+01,1.571138661275246706e+00,-2.386594762324426711e+01,1.211456994045418867e+01,-6.428369714062575312e-03,1.159667865737941561e+01,9.337804835568281447e+00,9.369481779888280570e+00,7.168071842930047843e+00
1.256092471179718117e+00,-3.947035964263113428e+00,-7.375686894960589157e+00,6.339864646311793583e-01,-8.548421649712031334e-01,5.888590652234032774e+00,1.678289945932370353e+00,5.197536676778597986e+00,-5.219129721450836534e+00,1.148559682124138881e+01,2.218704255629941613e-01,-1.673389439532185463e+01,-2.614681387618158226e+01,-2.892900429545673191e+01,-1.758925149120728548e+01,-1.039504739205611727e+01,1.674167417334470898e+01,-2.724146400959246250e+01,3.758445670635237690e+01,5.222389642053136782e+01,4.484140539195887243e+01,6.259386177321862021e+01,8.867562568980218884e+01,4.163692677277115450e+01,4.534680461820557440e+01,6.942572800324539628e+01,4.375922608561811700e+01,4.255304460549842815e+01,7.581940613509833327e+01,4.749721496074123195e+01,4.210144153848427351e+01,7.515912598312890225e+01,-1.605042086144466040e+01,7.226136618524984456e+00,-4.058755671171661028e+00,-3.950057137200487567e+00,1.311772195150261133e+01,1.538765484654761551e+01,-9.638169685616785332e-01,2.493657267942896993e+00,-1.283730111153070474e+01,-5.947886438362538719e+00,1.032958608292875269e+01,3.166300069742750356e+00,-4.616648720966137098e+00,6.909339072994215236e+00,-7.443667636254581943e+00,3.777715867732732935e+00,-3.729177886865601366e+00,-5.253092611387651267e+00
-3.510677806873479412e+00,2.566748589001516923e+00,4.566879645073020910e+00,-9.547693684902698763e+00,-5.343968134574994977e+00,-2.272132770970052729e+00,2.224038863950644185e+01,-1.716442143298117839e+00,3.661299858122085027e+00,-9.233470876589311871e+00,2.700723325806453801e+01,1.134101296598858077e+01,1.153290055400023917e+01,4.703379870709129662e+00,2.116595686886668304e+01,-1.154256344384768340e+01,8.553133500151577806e+00,1.209347737958043956e+00,5.632871081082362252e+01,6.671630347153777052e+01,4.743159875607818066e+01,4.792750292733229145e+01,7.374701637262197096e+01,5.422390187063961520e+01,3.591306876990345387e+01,4.690643469297899060e+01,1.625439000268179868e+01,2.810544211927719971e+01,6.342664497660400968e+01,3.967278136704066327e+01,5.489367241070475245e+01,4.067285586348757676e+01,4.507739904238965423e+00,-2.177954416380756264e+00,1.384846592216405936e+00,-1.723351880505023814e+01,-1.171910248418567235e+01,-1.459375308717724584e+00,2.877002187398617128e+00,-3.011523495604951695e+00,-1.752124084399101633e+01,6.820837349596085009e-01,-1.009122139621083880e+00,1.084253728086265944e+01,-1.600247577642912367e+00,-1.728758363997952685e+01,-1.443401266124677562e+00,-8.090582354240735685e-02,-5.680829818715813495e+00,2.242017112691472303e+00
-2.954935537766971265e+00,-1.946495927103362167e+00,-4.950565916063201399e+00,-6.387190566609191045e+00,-2.127467789109029450e+00,-1.651127665089466290e-01,-8.968525578868121739e-01,1.133881797653458001e+01,-8.432201225372422115e+00,2.222160821423321764e+01,4.514594144563782940e+00,-1.669361114281600678e+01,8.839858893421233432e+00,1.012346353058828186e+01,5.132765274839397485e+00,1.414123918224336940e+01,-1.493420520855480227e+01,-1.835255665824121252e+00,8.313019768897556006e+00,3.574614899417679226e+01,2.624514576133225674e+01,4.347282079582217307e+01,2.570481880141137054e+01,5.544396102925706771e+01,3.734507073870669558e+01,4.304188113887421707e+01,4.619396214999682826e+01,3.485651479778901063e+01,2.912756574294142098e+01,3.794427365534239271e+01,2.489033975351873806e+01,4.522991735810071390e+01,-4.024829045759403812e-01,8.700993931865831144e+00,6.699678531363947975e+00,-1.061995973887520428e+01,3.350903327231216089e+00,4.779106308225235189e+00,1.597142457257420878e+00,2.198597821855373668e-01,-8.595683481314567942e+00,1.211205089135858159e+01,-2.985766258055043476e+00,1.896352695510442832e+00,-2.258207785504302834e+01,-6.361092594806847522e+00,-8.799502196965638845e+00,-4.322728369451238173e+00,-1.489624184136797602e+01,5.321369290770938676e+00
7.282226821845654285e-01,8.235908113456741120e+00,5.421649433293488363e-01,-9.443965445122804780e+00,6.451879608554935253e+00,-1.419495707133760476e+01,-4.680658552165203545e+00,6.038550983192748411e+00,-1.096001003842214416e+01,1.698878581097258689e+01,-6.170260816227593814e+00,-1.222164645482597578e+01,-1.611040551121339348e+01,-2.495367507590760425e+01,4.223265015229745956e+00,4.417179569007129381e+00,-2.841350442741782167e+00,-5.041068273937704625e+00,5.612528055556956019e+01,2.771607070598801315e+01,4.039546614428954285e+01,3.752922826573090020e+01,5.700005370707420127e+01,2.271232241200337043e+01,2.877660944141233301e+01,3.851168825636273851e+01,2.767082720254385109e+01,2.590210720295338476e+01,3.223248480529625937e+01,1.706110136059932714e+01,1.915483743506237602e+01,2.891876776127743653e+01,2.718772192240438645e+00,5.644511343364343681e+00,-2.060042507391543154e+00,2.001194533013272103e+00,-1.064945451266024357e+01,5.867627022857647923e+00,-1.247071651669010706e+01,-1.244469919673952418e+01,-4.017897460914073848e-01,5.540893889688942586e+00,-1.191929693512710209e+01,-6.562690320299838120e+00,1.447385079547266606e+01,2.066264597888463950e+00,-7.246354345891499626e+00,-8.113517468770290009e+00,-2.164907572860073515e+01,8.437194514063753203e+00
2.868935218454570890e+00,-1.776682877290380658e+00,1.093131325376051777e+01,-2.635253372659107640e+00,-3.893954705281491790e+00,1.032551246648713139e+01,8.592009364869806376e+00,-3.118477915574524140e+00,1.483196901308857951e+00,6.686283100532212309e+00,-5.963275814052357404e+00,2.453478411393878034e+01,-4.663948388463996508e+00,-4.187779204026178981e+00,4.638028841351164999e+00,1.713974408171637975e+01,-1.205515182905346272e+01,-5.200263353661213728e+00,1.916602084611548662e+01,2.307832296157821261e+01,3.017731883505579304e+01,3.236834686831003438e+01,4.165839365445290809e+01,4.034757880326693424e+01,4.690038042722027711e+01,4.558234774326221839e+01,4.519802372406347502e+01,4.715155796159295676e+01,3.179045476728044406e+01,2.747371935408500221e+01,2.869138885785581650e+01,5.268851624484594254e+01,3.936547925131555381e+00,3.903279743259866041e+00,-5.418488649085866804e+00,-4.056275177885843575e-01,-9.052160839211389032e+00,9.395361900561823632e+00,-7.799611661558934372e+00,2.049370314828558293e+01,-1.431471372557482269e+01,-3.661586400847762768e-01,-2.058359842031032017e+01,1.333863508167110723e+01,-5.830038286909007716e+00,1.038359555287350133e+01,3.830753642723203178e+00,-5.567802679351590456e+00,5.407245947512436146e+00,1.511463179903396181e+00
-9.847683847426217385e-01,3.468574498235059422e-02,-7.141046016948441988e+00,-8.759568442655545795e+00,-6.039580024895917276e+00,7.274765599196288512e+00,-1.692976130678630753e+01,-2.559093752822672041e+00,-2.555486183988035620e+00,-2.107019407979240455e+01,-2.038755499448515707e+01,1.415703267588904346e+01,1.053265999006359266e+01,6.560497000695876046e+00,9.033532875687416919e+00,1.472860704757916039e+01,4.433626738021111180e+00,-9.795505335538662095e+00,5.066569419471452562e+01,3.622434133470081719e+01,4.827230626681546966e+01,6.327319280741736662e+01,3.887172082810640461e+01,1.697715240738542164e+01,3.426717784117261090e+01,2.134704236759014506e+01,4.615502707650229297e+01,2.959430980628589936e+01,2.890472121775341918e+01,4.000845970032600718e+01,3.297925674133365703e+01,4.923757802361487279e+01,4.483708297886453420e-01,-2.699494601367191748e+01,-7.148555214218364817e+00,5.951863048364129938e+00,-7.990726655347052620e+00,-7.264932184232361090e-01,-8.934578287844155753e+00,3.083931495085248642e+01,-4.052275817595439866e-01,7.960640849231360505e+00,5.194589544541235782e+00,-7.719910994167386242e+00,-4.787795478014721162e+00,2.087179381859282312e+00,-3.016281572478279327e-01,-6.048710402028332211e+00,-3.708633214597314876e+00,-9.733961439758209266e+00
1.758835779985701508e+00,4.762866566242668909e-01,-2.609082430497734251e+00,4.773230671556812688e+00,1.080288965969929471e+01,1.162960363504217831e+01,-3.156562802318266137e+00,-2.197867395555456937e+01,7.563566288915117397e+00,-1.186802601948087243e+01,-2.144161602908327424e+01,-1.089928349891461146e+01,1.593646787230309414e+01,6.266869606650612212e+00,1.497150556244094233e+01,-3.758888526277554210e+00,3.397798262539691638e+00,6.452764137754312124e+00,7.443590803535828115e+01,6.536834744232623962e+01,4.917095316775804292e+01,7.345437549519508025e+01,3.650175450870516869e+01,4.809643301167479734e+01,3.502784702577519482e+01,2.346922638349190038e+01,5.356609431554335998e+01,5.417311871819038771e+01,4.769421920405885373e+01,5.724137449127785260e+01,6.500149036237058908e+01,5.142382895910709806e+01,-2.076752468113412675e+01,6.184567619272624661e+00,2.676037644527067827e-01,-4.574863761479108781e+00,1.296732568441481659e+00,1.323002626510387891e+01,-6.792709897667974950e+00,-2.630039038572545174e+00,1.555284959084326957e+00,-1.640490599187291565e+01,1.882755636661870513e+00,-6.747248947089878435e+00,-3.844756760305005905e+00,-6.870158010007914484e+00,2.975335296765611925e+00,8.511668728335155976e+00,-5.041079833302062774e+00,-2.568049803395558328e+00
-8.759456953827586823e-01,-3.000372974230740009e-01,2.151287679567134958e+00,-8.840596923821248510e+00,-3.309394225612094953e+00,5.631632536546106849e+00,6.675001177600339730e+00,6.695227619840403710e-01,-3.440917831835862728e+01,2.076119042358352473e+01,3.313647972860522373e+00,-8.872031056359535484e+00,-1.266970042556971165e+01,1.575512790154379417e+01,-1.705359635556273901e+00,1.385899555575977082e+01,2.436518629399615321e+01,1.977258277539295728e+00,6.485041629706999800e+01,6.166956212070297738e+01,4.541075461231410060e+01,2.451243515654956084e+01,5.017411893505527587e+01,4.856807151264307265e+01,1.345999871108509893e+01,2.192987858488834974e+01,5.008822384442183306e+01,4.420461960250290900e+01,7.501370805897170158e+01,6.927196400248799080e+01,5.617840510262163178e+01,6.975211385975140388e+01,-1.961887924292112473e+01,-1.468024273301437610e+01,1.018959111748871571e+01,5.768123168551696267e+00,-1.687307449509733104e+01,1.377681728005643436e+01,8.800257193564495761e-01,-4.572509156794198049e+01,8.816859336992413532e+00,-1.733013215410226593e+01,4.468590842821017262e+00,-8.803305125518287255e+00,-9.422699983243054689e+00,4.773548444366776167e+00,-9.533907685355870854e+00,2.436708840612490157e+00,3.120382487268881455e+00,9.154998997416448347e-02
3.302225962477756571e+00,-1.423282476332564661e-01,-9.678068944817043828e+00,-7.872576968529300778e+00,-2.162276092221652402e+00,-1.327345501275077222e+00,-7.583550539407341695e+00,3.296265755698793765e+00,7.442387163114558390e+00,2.894774751538590429e+00,4.444160955812339608e+00,-1.109042928680834095e+01,1.641391068235555695e+00,-3.972654050448047514e+01,-4.214483112471979070e-02,-1.613226059805558776e+01,-5.877397929145328881e+00,-2.083997131620845877e+01,5.285123134189394278e+01,4.554286434999816890e+01,6.475416673109758392e+01,3.148248923353688156e+01,5.147481392061146721e+01,4.961145620280102975e+01,4.670563766998060373e+01,3.898581883103449996e+01,5.123103557086412252e+01,3.715357205739945101e+01,5.882225876305344059e+01,4.142114262197783603e+01,6.861536380538753122e+01,4.515762664138774340e+01,2.990178393376871746e+00,7.116959464650586931e+00,-1.092735671968927136e+01,9.419694845525494742e+00,-1.400703107514203261e+01,-1.242513794233115121e+01,6.982534301026735335e+00,-2.102052315058204712e+01,-1.967232698531472579e+01,1.226484068414018136e+00,-9.995479850174126213e+00,1.705589225805865539e+01,-1.966113915439166604e+01,-2.520769580362232531e+00,-4.481031123357714030e+00,4.518175137922175288e+00,-5.244315804202853926e+00,3.250536642127448861e+00
-1.663026323542730056e+00,7.640594077076278134e-01,2.648468950839628189e+00,-6.113394334149340636e+00,-5.049009391054354090e+00,-1.086028190505091295e+01,-1.461304648862473776e+01,7.962368078936127525e+00,-3.620827598654021529e+01,-1.233261748134651192e+01,7.873502186549957926e+00,1.511250999115434812e+00,-2.528313618487201353e+01,-1.936017717692497975e+00,-2.155484342141092136e-01,1.566771988927565573e+01,4.219570754582477434e+00,2.863020033431181499e+00,6.101191543121142047e+01,5.660912238367657778e+01,7.472488308695817238e+01,1.002695734284982763e+02,3.775373776798577552e+01,5.716439080760910940e+01,3.406217051334390788e+01,2.360450590096374057e+01,2.151202835348465925e+01,3.101884012076629205e+01,3.466356921808240799e+01,3.774198471629187424e+01,2.802876296312110327e+01,8.864483503377815055e+01,4.221155024076399798e+01,8.105209453532880914e+00,1.423730325705536615e+01,-1.685103370400274914e+00,-2.425941168423045580e-01,-1.311442003937924383e+01,-4.486868807572256657e+01,1.711652826084426238e+01,7.726870086483080158e+00,-2.569886672663487559e+01,1.293160881405602147e+01,1.811495643628335728e+01,-9.655259866226651999e-01,1.606221054136202975e+00,6.043250397537649476e-01,-1.369602882454042048e+00,3.918102021540954549e-01,1.046794219742865550e+01
7.162073268440568574e-01,-8.257303445989107038e-01,3.190443149029173142e+00,1.728692042575404431e+00,-3.342260158122730029e+00,1.096159008277562386e+01,9.092524167931703261e+00,9.401096885375368473e+00,-6.202878091384553372e+00,-7.127968838649129779e+00,6.090101721667717793e-01,-2.136293483676021232e+00,5.264194453976219101e+00,-5.643718189818724973e+00,2.833426805100384271e+01,-6.159622522172855774e+00,2.357586423219557403e+01,-4.047425427312334456e+00,5.887737700120625561e+01,3.534105963891183677e+01,1.504994414506080602e+01,4.319871586692556065e+01,3.961452601453088818e+01,5.421476213284715584e+01,3.118026856305254313e+01,2.782323179683585934e+01,2.256517490657978797e+01,4.368756351046716446e+01,2.651833715398020530e+01,3.305261043177372926e+01,3.594652095971677142e+01,2.354266603150118797e+01,-7.390632535241992151e-01,1.612200122437846384e+00,-1.102892529194744142e+01,-1.608037378335327006e+01,2.166615800880396492e+01,6.419185801257127011e+00,-9.112380758294258420e-01,-7.419573189156268178e+00,-2.290897694122037365e+01,1.410768494617176572e+01,-1.305607368908406585e+01,-1.733518624938787056e+01,2.910697717958404596e+01,1.905275223085158010e-01,6.793010208556474971e+00,4.882410339873976213e+00,7.308077179995627226e+00,2.788815377485486913e+00
-1.138287368085779461e+00,-9.754595731067983166e+00,9.006017784654400060e+00,-3.773653062212293907e+00,2.345815145877321584e+01,1.145300255682513857e+01,5.208351636473963486e-01,-4.286533727240145808e+00,-4.157378693243690471e+00,-7.576336413659539915e+00,-3.422682277827559183e+00,-8.556775010894924094e+00,-9.506805763287115241e+00,-3.460970416882537926e+00,1.296766956616623112e+00,-4.934128218969039636e+00,6.341737576315289004e+00,8.231847450836491831e+00,3.485596374514228302e+01,5.607902658597203782e+01,4.704290787019763087e+01,3.685942247054543230e+01,3.176315691003036079e+01,4.843247484994680008e+01,4.280887639449400695e+01,3.213980355452341797e+01,1.548421301245187642e+01,1.540732355412321297e+01,3.452293263851095872e+01,3.138179303583837410e+01,3.495218686738200375e+01,6.090189845765959831e+01,-1.307829438576755265e+00,-4.204094065163081484e-01,1.722146513061922946e+01,-3.995351246799028644e+00,1.046104675971517928e+01,8.574158553578799413e+00,2.370520231117362098e+00,8.656042992679065406e+00,2.171168836512349820e+00,1.006668388260874636e+01,-9.659275106831193725e+00,-3.526734697468946678e+01,6.211088163975071463e-01,-2.719838240835930954e+00,8.508037478621677252e-01,-1.544138840327989826e+01,8.587406639403781128e+00,-8.402980888088213973e+00
1.302276558478996371e+00,5.585430829844528766e+00,-2.074137141722080635e+00,9.903391556480359292e-02,1.154337484904988997e+01,-4.359798587617201626e+00,-5.759095441209800548e+00,-1.639190775840382130e+01,6.452348447057016934e+00,-7.888924329407904779e+00,2.773079344809341151e+00,1.119430318260847379e+01,1.089682459165931405e+01,-1.542974062257693291e+01,-6.600041514444915158e+00,-1.563844857033831737e+01,3.498121201989698559e+00,3.326548937033285469e+00,5.419501743348077838e+01,6.294230340078806307e+01,4.594924732605533535e+01,4.967111067862460771e+01,4.988450039894041055e+01,4.088390372786925298e+01,6.786438003429775279e+01,4.935497913616168830e+01,5.058335075922401103e+01,3.997282650757690448e+01,5.152250741110384524e+01,4.517482105460457120e+01,5.831606142589923536e+01,5.046707942225472010e+01,2.572301636973002292e-01,-6.303944203661445478e+00,9.561594134500868591e+00,-6.894996811660045744e+00,-3.103353365913230277e+01,-5.979964760144496516e+00,-4.783181902855480061e+00,6.718291420792031232e+00,-1.121791430443513349e+01,6.465176359099342740e+00,-6.508920997676534981e+00,-2.645372241750373110e+00,-2.959791184222732685e+00,7.239419684479999617e+00,-8.166042197437828776e+00,-7.625662640692752348e+00,-3.058923420665449644e+00,2.103196269425110732e+00
-2.977278616863781591e-01,1.995414662072219902e-01,-1.953706559681815724e+00,-5.846824101777027494e+00,-4.919657520561377950e+00,5.976375976024351111e+00,3.496524545316055832e+00,-6.487465636664165203e+00,-3.260810498115679135e+00,7.050375526016003036e+00,1.262714122932110783e+01,-2.068521330671774194e+01,2.240004555416952670e+01,-2.597847467811236299e+01,-1.423058496934613615e+01,-1.853170659823053867e+01,1.119625182215311732e+01,-1.026769496458805220e+00,6.250947906508301344e+01,3.168292733080996015e+01,5.764941196004748747e+01,4.186587551565332888e+01,7.479571256605451879e+01,6.263381514281092421e+01,4.987857724119108127e+01,1.538028618338238651e+01,5.147057674510007530e+01,4.440849377577252710e+01,4.901667576748025112e+01,5.665723852284658335e+01,6.044994135765864485e+01,4.827124219208675271e+01,-1.168306514179746003e+01,-1.993705847277226795e+01,3.015757979206226480e+01,-8.311062900361495309e+00,3.075251038918696889e+00,-2.487181112357860968e+01,1.146977279142217299e+01,-7.826173166706121620e+00,1.608069924454694766e+00,-1.918320723428252883e+00,1.193626703322495430e+01,5.237723351541605510e+00,-9.145714651604249568e+00,1.530231341047533355e+01,1.475133501112312473e+01,-3.920652350293515553e+00,-1.111026268444306275e+01,-1.277610622778076133e+00
2.683974642472748862e+00,-3.121220188370828819e+00,-1.635856427974400618e-01,3.475170236592400208e+00,6.325933839627093214e+00,-3.512657959431433330e+00,-7.574378102998265305e+00,-1.811289726295814972e+01,-8.746123803248737616e+00,-1.007556421935013447e+01,2.214893406188719993e+01,9.539056203966453040e+00,1.824698733967280617e+01,1.570591873402845451e+01,1.619253947581043462e+01,-3.728479279490393594e+01,-1.637108494272512260e+01,-1.523046510662098108e+01,6.501482806459229380e+01,5.418871634478383470e+01,4.022319462396319523e+01,5.531755103806912643e+01,5.715423591357630073e+01,4.411560464500114165e+01,5.724597241100772038e+01,2.871410069366925555e+01,8.178057014630002186e+01,4.207791998061096450e+01,3.145562295238536521e+01,3.462514543387491983e+01,4.132250797036054024e+01,3.830873593720110648e+01,1.864895162257863248e+01,-1.450201439560437011e+00,-2.401638245404969840e+00,-1.018907212029831122e+01,-2.104984666021993789e+01,4.026915359440374154e+00,-1.882094671847986955e+00,-1.702152227992118583e+01,-1.809269497663828119e+01,2.177382450172151263e+00,7.136998098295728177e+00,1.352901266779437428e+01,9.907994636962541790e+00,4.451598655085314604e+00,-6.935848812731570945e+00,1.298692555248896596e+01,2.620471605403419946e-01,-3.792377979112199871e+00
-4.668916054588335918e+00,-3.733391153112287864e+00,-6.572541102502972521e+00,-1.313225910400226759e+01,1.115266861191078762e+00,1.194206975843129470e+01,2.499107328781266091e+01,2.807568121611962120e+00,-1.017587906211005411e+01,1.418090882437024547e+01,-3.433469560338655135e+00,-7.920240328193242085e-01,6.456562833184039008e+00,-2.592227057149663061e+00,4.581351170611213774e+00,3.599979401096781384e+00,1.495942074182541992e+00,1.165220756384167089e+01,4.792407411851320376e+01,5.163247946196631233e+01,2.904805467893939408e+01,3.992453645833789011e+01,2.297209471897211586e+01,3.763511799516999190e+01,5.538803096401749571e+01,3.299859040948738453e+01,1.627304102733203806e+01,6.089587567267913926e+01,2.003048947655351597e+01,2.915018491695255420e+01,3.400556388688261933e+01,6.531747872564447732e+01,1.613347746334276467e+00,-8.449667290635321848e+00,4.138978303084877908e+00,2.608880744796387319e+00,2.067746560608133066e+01,-4.678367932277849306e+00,1.386563651445473511e+01,-5.862642996728957279e-01,-4.698259092798813819e-01,-6.419534461029677175e+00,-9.118314323104840469e+00,1.185496866021852291e+01,-3.730622088184571084e+00,1.720628970692201776e+01,-3.073199029979934327e+00,2.048624733125579667e+01,5.938762192823389796e+00,4.233983305111434170e+00
2.723013162231793682e+00,6.278686138135125105e+00,9.662627041456011145e-01,1.644879346389417307e+01,8.562828842764020010e+00,-1.910095826026674048e+00,4.973623922417448107e+00,4.125060531642732897e+00,4.512820164957336289e+00,1.078422871420822915e+01,-1.139913505718870956e+00,2.232739185250049374e+01,6.615243476718017490e+00,-1.097267870433730197e+00,3.004087343772931629e+00,-1.124928637916341501e+01,1.029284242837310970e+01,1.739075065900994588e+01,3.299220480466166805e+01,6.055782152273121710e+01,2.994898822151345286e+01,2.415831411928772710e+01,2.981315377640713749e+01,4.256941168601453285e+01,2.652986438415912573e+01,1.909150341141290852e+01,5.236242218246781022e+01,4.322499197330078857e+01,4.664567801391284974e+01,4.899248270657927407e+01,3.375140663214045134e+01,4.663689977977610113e+01,1.098803631679103887e+01,2.898056904830142333e+00,7.497177704338066739e+00,-3.378345029536349742e+00,-2.174339550894350026e+01,1.438623332414844747e+00,-1.284397670706736605e+01,-3.519891509983799693e+01,1.223492408649590324e+01,-3.537628864574072907e+01,4.518701627534515097e+00,2.513666427169615858e+01,-2.719900445711425263e+01,-2.164893190403657286e+01,-4.074683946126870637e+01,8.484911453544260240e+00,-9.009048184174325513e+00,-4.670111474236412263e+00
4.220525520922209672e+00,1.132973496768473032e+00,-2.466139481484814322e+00,1.040833291159441387e+01,-1.184382325623768395e+01,2.449296126435204712e+01,-1.208886815759800015e+01,9.980867785650787027e+00,-2.631306076086488144e+00,2.088862482986170477e+01,9.222406069862651989e+00,1.248731530369642906e+00,2.281412296907467763e+01,-1.310602561769286822e+01,4.744213460090726642e+00,1.623893346837711249e+01,-4.061196640581219697e+01,2.572238272479238219e+01,4.147947414997680227e+01,6.034648401230811743e+01,6.746067068638323860e+01,8.071172903185189540e+00,6.187871104565938651e+01,4.417329525006330471e+01,2.030340269391394870e+01,4.872678822800633469e+01,4.247121458259043436e+01,1.755933596218604720e+01,5.114387867772176577e+01,6.776283516134404294e+01,5.299090703555243209e+01,5.370547670648559091e+01,-1.037555368781237597e+01,-1.369826848062529745e+00,-8.536842164439860881e+00,1.624629305565827053e+01,7.149433678754560262e+00,-2.707202314302685409e+01,-6.667535479120891395e+00,1.278036267591985720e+01,-1.136348827687505825e+01,-1.229093382804488677e+01,-2.724997000976630002e+00,-4.074727732091687926e+00,5.758085005913851084e+00,6.321464221251764659e-01,6.826544784101581165e+00,2.343876760346155219e+00,3.466858428717915608e+00,-1.923068305934301891e+00
5.641307770644968578e+00,3.907493515819394414e+00,8.138297732788553063e+00,-4.150828655662737177e+00,-2.095667827402642125e+00,9.150287681500476111e+00,-2.146842672480176351e+00,7.279601225652167606e+00,-2.079299640674516336e+00,-1.178409773832403928e+01,5.368017119733242914e+00,1.167806744908182104e+01,9.128364304900346227e+00,-7.196872098933555506e+00,9.170488579780979421e+00,1.199153120868269617e+01,-6.662326685424948991e+00,5.509884930993452556e+00,4.693885551085897845e+01,5.491665338957203346e+01,2.012478173245512991e+01,5.795336407071927454e+01,4.984631906712202465e+01,9.590445234204704406e+00,4.856840954974578750e+01,4.891074453611182093e+01,2.409950817026532377e+01,1.383151289483201118e+01,3.860494136816578248e+01,4.063195712136176496e+01,2.879681622648573480e+01,5.087514299672903206e+01,2.566810642475148008e+00,-1.647492123038633949e+01,-8.959675109482555300e+00,1.846149598587767215e+01,3.262540986790020980e+01,1.710813887146374412e+01,9.566310459726201643e+00,-4.600797362553690562e+01,-8.312834191230035197e-01,-3.400967686323069472e+01,-2.980328125643529091e+01,1.632363028215486267e+01,-4.924354579566013257e+01,-2.114863205091477028e+01,-2.081307236268214211e+01,1.198358137468255080e+01,2.678478383214810066e+01,-9.527835663629511842e+00
-8.692287672875590454e-01,5.721419983920629448e+00,2.296036071120114208e+00,-1.075870296960409966e+01,-6.478868155016209940e+00,-8.913454824083348882e+00,2.053709383683213208e+00,-3.812354516235617385e+00,-7.026914445623404504e+00,2.739944512304185675e+00,-3.036060940165058675e+00,6.487169252415980303e+00,-1.882808874298004698e+00,1.984114912888054860e+01,-1.108270377596516987e+01,2.241689320851119049e+00,1.740133771613895775e+01,1.198228281581021726e+01,4.058370652219687713e+01,3.066969094203985691e+01,2.921545963766810416e+01,4.162105954085339476e+01,2.457352799697200041e+01,4.579336155036509837e+01,4.471286151187471347e+01,4.604158661939860053e+01,4.640581574322108338e+01,5.033525753283784354e+01,2.502657021119819447e+01,4.322676202926238176e+01,2.194418173961465612e+01,7.185759350658322830e+01,-9.743288179198476229e+00,4.531334279072529170e-01,7.862943997305463228e-02,2.120805722040838059e+00,1.471130389864353516e+00,2.016097774608548576e+01,8.729305704796301413e+00,7.271907812311021679e+00,-8.092391624717198084e+00,-4.065355128286106456e+00,-3.082709400937627020e+00,3.130772946790246980e+00,1.513310420955367386e+00,-6.360779070560645287e+00,1.926789522442728941e-01,1.770026209595017264e+01,5.745953974279749410e+00,-4.216669952128979659e+00
1.099773934597786385e+00,-3.476328390564368043e+00,7.812697694825364358e+00,7.884338819030613621e+00,9.120185524662035803e+00,4.455227174700657322e+00,2.125179659873143834e+00,1.584402007371778431e+01,-1.148854756594437454e+01,4.992607486204367007e+00,1.719663837273409968e+01,1.304101261702649950e+01,1.492089821387215665e+01,-7.595594762590316407e-01,1.132785513452567017e+01,-2.931816400306156201e+00,-1.922630718144387574e+00,-5.027469216620130688e+00,3.429587000200675106e+01,2.358460910992170767e+01,2.135258180538337314e+01,4.112625765826560098e+01,2.870612213665644674e+01,2.277185382731658336e+01,4.305358642210106268e+01,2.558153617894553022e+01,4.983329133580210168e+01,2.723562340265602444e+01,4.320850158025386634e+01,4.712910273087243951e+01,6.519038700077419435e+01,5.389681227226711968e+01,1.425284539613569201e+01,-7.458964416801570962e+00,1.501083213003728289e+01,2.116240340444714096e+00,-3.974635229922520274e+00,-9.360103948680748687e+00,1.351585414791587425e+01,-6.908640114349189787e+00,2.456363035604418243e+01,1.161823020553700125e+01,2.046614664129855043e+01,1.078523216688500952e+01,-8.696018190610844911e+00,3.579979001999955557e-01,5.467680525591720908e+00,1.313441925246721276e+01,-4.956488019206584994e+00,-4.363677323511462092e+00
1.053241990475803219e-01,-1.878818215475368092e+00,3.671870254110004783e+00,-3.527653566417127795e+00,6.694167100997916897e+00,2.455340118588890164e+01,-2.109335896181243175e+00,6.586339983456766412e+00,-1.478154710695935670e+01,-2.908767780564014416e+00,-8.323746990568441362e+00,-6.586031062350557796e+00,-8.184769511225294281e+00,-2.260256855672330545e+01,1.584491212439780661e+01,1.830029982541029554e+01,-1.365213642881259126e+01,-4.115031631882291485e+00,4.103342620527148199e+01,3.968437666286080656e+01,3.392263146968662824e+01,2.166617168944878813e+01,5.857357596260161614e+01,4.955800053117526716e+01,1.971655697300517218e+01,4.581360207599142598e+01,3.002070682618862207e+01,4.468359618778327302e+01,4.111241706169966648e+01,4.314781045215610078e+01,4.020728219794374070e+01,3.344182524764359954e+01,2.469493129742754256e+00,-2.027738388393810354e+01,7.853873834451725600e+00,-8.620541766148631879e+00,-7.595492276376949903e+00,6.344792184381543798e+00,-2.547806339424713240e+00,5.094673609637570877e+00,1.073637365799914534e+01,-1.492363945274725268e+01,1.537167567389900924e+01,6.412343943646328981e+00,3.839091397498586300e+00,1.025357060509091234e+01,-8.287443641904122416e+00,-7.275105612474126460e+00,1.418131833566584232e+00,5.126234531082607404e+00
5.690578520912684013e+00,-3.849783464916328057e+00,-1.482951532288662611e+00,-6.357414029087815166e+00,-1.409218599218106938e-01,1.025845308839519809e+01,1.616057068499052818e+01,-6.664594570049473532e+00,-8.806780254044175749e+00,8.877571381731268474e+00,6.582645543445677649e-01,-7.971979384406289171e-01,-4.624295739402358940e+00,3.084152138566423673e+00,5.290321835832591191e+00,-6.922237227209741661e+00,-6.578816413923070705e+00,-1.123621162554545094e+01,3.888511286667910127e+01,3.659405552071356738e+01,3.251655568825905362e+01,2.113265369500141588e+01,4.796657166368093073e+01,3.346058252542815836e+01,2.002815668778926295e+01,3.513518454660619739e+01,5.688989982708247339e+01,6.152385985483168440e+01,3.569957873534675485e+01,4.100409076801036434e+01,2.138324286767802462e+01,4.404968544685466725e+01,-1.112934195450092822e+01,-3.185879320851375818e-01,-7.762930827823364410e+00,-1.659730794945855337e+01,3.239829048842205239e+00,1.611521656045195883e+01,1.297927449357126939e+01,-7.678942654951562474e+00,-1.286451337584263044e+01,9.655463157686300590e+00,-8.872602812503615155e+00,-1.176537133405440416e+00,1.136681121261394312e+00,1.866418533422056925e+01,1.941461619926134086e+00,-9.607800382141093110e+00,1.492843762772248439e+01,-3.057337404873466724e+00
8.487888870398826446e-01,-8.143939143054742757e+00,-3.322685974861536717e+00,4.440833566646317010e+00,-3.304184211679356498e+00,-6.762740021771173282e+00,3.882197495248081331e+00,2.080684202175504982e+00,-2.885715789685725952e+01,-1.904195069973537713e+01,-8.757310268351652383e+00,7.908213774887292935e+00,3.081171121578669414e+01,1.220085229411218819e+01,-2.168765741551702675e+01,4.491420858335427369e+00,-8.482217003767511532e-01,2.151029387907940560e+01,4.747715474839813510e+01,5.783092199905713215e+01,5.220746110104274607e+01,5.915459222513009507e+01,5.449274189047463324e+01,4.006507700741056510e+01,5.547241564916578938e+01,6.645576259719248924e+01,5.094288311063927210e+01,3.489814108391338010e+01,4.619568278066835632e+01,1.274897062392894753e+01,7.292186961289287694e+01,6.263261850118531271e+01,1.026371027555651061e+01,-7.076189233198608264e+00,2.568989078265041925e+01,-3.369848852598207856e+01,5.771632469570653790e+00,1.070418667299109572e+01,6.185322692453712357e+00,-1.044110337429220259e+01,-9.135618268431329625e+00,-1.516441400211641755e+00,-1.639861333542378219e+01,3.886339032939428950e+00,-1.317441605882479161e+00,-5.524511454649544184e+00,-1.179937285504087008e+01,1.816048525670589830e+00,3.783661783061449846e+00,-2.102391464191053050e+00
-5.789229996999405436e-01,3.443716294032499903e+00,5.604404159461879864e+00,-1.638863130655022360e+01,2.448767665135893334e-01,6.970054629145530534e+00,-5.138996836106401567e+00,-6.962629765174648711e+00,7.916850890932168205e+00,-4.999061113493207031e+00,-5.497653743263558823e+00,2.454501101464618529e+01,2.319706389191205176e+01,-8.088188707218836315e-01,-6.003786486891559804e+00,3.417055432391497050e+01,3.706903267061779861e+00,5.511067763307954337e+00,6.648352725750929437e+01,8.730975343863525495e+01,2.824196043544202794e+01,7.207731416404013203e+01,7.369640827695614860e+01,2.701993734942084302e+01,4.063494490802593617e+01,4.936843908338063613e+01,5.550863606105087911e+01,5.398539098756194221e+01,6.125177820542418061e+01,5.501545623287621112e+01,3.231181097446383887e+01,3.265912005589110123e+01,-3.098306739568085000e+00,1.195898971013054002e+01,-5.592565286717097628e+00,-2.874534661403978930e+01,-6.622525011537621964e+00,-3.295893889918505515e+00,2.371379567180000336e+01,-3.802431149266077171e+00,1.161723824199446042e+01,-1.587701763634453833e+01,6.286591032191239492e+00,-1.057088298413585470e+01,-1.745054617861238455e+01,-9.092031569193954610e+00,3.328494899743678737e+00,-5.281013154541367882e+00,-1.033104515087182307e+01,-6.061551751405010791e+00
2.848335958495539444e+00,-3.822552036240492446e-01,3.696948068924440278e+00,-5.276601715284847671e+00,-3.463260298698060069e+00,-7.352366753884910011e+00,-2.145057498891544956e+00,-9.333897670508344291e+00,1.828021824148394714e+01,-9.662443308053854096e+00,-1.942801105005163453e+00,-1.614105272204429298e+01,-5.585408852821969639e+00,3.184609931974901542e+01,9.651793596045667556e+00,-3.396042935912718441e+00,-1.797517874372778479e+01,1.868510855394917058e+01,5.089907970812026861e+01,6.418836899360145765e+01,4.830669466745588636e+01,4.326999912360266620e+01,3.998389275476800719e+01,5.884972795687089331e+01,8.037300161632666118e+01,3.251971163447976920e+01,2.899714848740507378e+01,3.440459644199265199e+01,2.266789636614355175e+01,6.857457597118413162e+01,6.875153738844338136e+01,5.912131464135431713e+01,-1.502427390549408237e+01,2.092514218146806826e+00,1.327468776213786583e+01,-1.000663415571231418e+01,8.711554676155314425e+00,-2.011523259454809676e+01,3.986654649935244876e+00,-4.140872211347759180e-01,5.058872050681703314e+00,8.239561350686908980e+00,8.254423040147155888e+00,1.572394643272298431e+01,1.901654589674809159e+01,-1.923252571186794313e+01,7.239891370224979639e+00,4.884758506985694915e+00,1.434157407481896840e+01,-5.184630452038555326e+00
-2.551917048323621540e+00,1.042231409835446376e+00,-6.039740899866751889e+00,6.215438968039360690e-01,-3.703445859188810640e+00,-3.809773419447164411e+00,3.010088523664065235e-02,1.688031734832510233e+00,4.827625019255298966e+00,1.145168025198701400e+01,1.330599262680613570e+01,-1.140722928302172789e+01,1.476581248259070733e+01,-2.527719847365785366e+00,7.401056942623101875e+00,1.190805335226166406e+01,5.502826202066486871e+00,1.121386796335752578e+01,5.394872461186597690e+01,2.180895785847159729e+01,3.607287278556398746e+01,3.170112718180185496e+01,3.074428621426244845e+01,3.726814463576667436e+01,2.778948318835364262e+01,3.375441432284091547e+01,3.198145321100495764e+01,3.221785559996821036e+01,6.557889382269502221e+01,5.305429804600048271e+01,4.395896675232978623e+01,1.352847155211534158e+01,8.732910946762217463e+00,1.931661692548655651e+01,-2.045289422524480116e+01,-1.157039629964800476e+01,-1.506667423899011560e+01,4.400919228322521248e-01,-1.013667674217606951e+01,1.628338597176335512e+01,-5.824727535035256754e-01,-4.173151226039576223e+00,-1.062343339701875777e+01,2.550620593097668376e+01,4.742821618360192337e-01,5.300617570087574393e+00,7.667445144557071046e+00,6.324357969784712985e+00,1.769896858561871067e+00,1.580385719223282026e-01
-2.495494479363731699e+00,-1.728093813345218832e+00,-3.140136785000917197e+00,-1.138236611410939458e+00,-5.491206125092720214e+00,-2.110457590658730176e+00,-1.726965061119749834e+01,-5.551379109415933044e+00,-2.220767555800962523e+00,8.454275353296667461e-01,-3.537707360543941082e+00,-8.659926280599606230e+00,-3.621059864833301134e+01,2.849621909821229693e+01,2.718920513695947783e+00,-9.544871862816719954e+00,-1.526204509583544322e+01,1.834282602989543065e+01,5.044372001375234049e+01,5.902673921964046144e+01,5.055031921171717357e+01,2.976084953395407950e+01,3.053325104544396495e+01,6.827590605918433653e+01,4.420457150519117562e+01,4.472458335504631322e+01,5.003073203935856128e+01,4.624680519681898261e+01,5.866897930471073863e+01,4.694310578484008545e+01,4.321080919245692087e+01,3.917614148003845997e+01,-2.942069111532103598e+00,-5.734824457883285653e+00,2.233039616987700882e+01,5.554836507123260603e+00,2.422891072546464297e+00,-9.241847355542748943e+00,-2.094250183129403453e+01,-2.043157215318468189e+01,-9.018688587971654513e+00,-1.258567584585085442e+01,-1.446297137049217696e+01,-2.658588527383446198e+00,7.465003670557543103e+00,1.985533270863691024e+00,-2.799777195203013491e+00,-1.420224719195496199e+00,-3.915990267224374932e+00,8.101757132816254980e+00
1.092813430936902819e+01,1.717935266986964971e+00,7.709370632400729839e+00,-1.000614537055983178e+01,-9.274786688284546443e+00,-2.692386337592625267e+01,2.967046131073733406e+01,6.851058694085514844e+01,1.643310612101253554e+01,-3.326796750233186994e+00,7.488588341740812782e-01,-1.795346530456881418e+00,3.222793441991825603e+01,4.672694251829376100e+01,-1.122583484974997781e+01,2.876309680670813052e+01,1.850907964350870216e+01,-5.044200573378331498e+00,4.471579078016579700e+01,5.362645255382849285e+01,6.456650365617812248e+00,5.495982377294208732e+01,6.902758062954472962e+01,3.584364357459553219e+01,5.655363919760147695e+01,2.921187645258406818e+01,3.744051571053064720e+01,4.817555679606716268e+01,2.818635953544627526e+01,4.999258109328557964e+01,3.194911066593558857e+01,7.556178630872281587e+01,2.981913535888690703e+01,1.443028324408212981e+01,-9.611078177165003567e+00,-1.510417677228957167e+01,-1.615317706311792634e+01,-3.680856037569101602e+01,7.797881092560845495e+00,-7.027563395487559816e+00,-1.231756384222095058e+01,-7.130363278211345524e+00,3.367408237726565723e+00,5.824574911227035301e+00,-4.607157019470399462e+00,2.024817614992200088e-01,-1.217524159500613123e+01,-4.849835595104117658e+00,5.130450467096789868e-01,1.824113107386221566e+00
3.182178918774764664e+00,2.454372707210269233e+00,5.407769164669445239e+00,7.273836806611589267e+00,8.503177002050678057e-01,7.763837056903646783e+00,-8.616260726663792724e+00,6.961337101687622209e+00,-1.568183362798197500e+01,-3.430395307349219269e+00,2.080187353410841666e+01,1.181000601243885129e+01,1.775426911768649418e+01,-2.223704010724071622e+01,-3.519180625487525305e+00,-1.831105633943806765e+01,-1.397735985210054377e+00,-3.024204727092726586e+01,6.499980164244766456e+01,5.555021097419729159e+01,3.634383014250884258e+01,5.324965640019126312e+01,3.756709810140198869e+01,4.705662966011070125e+01,7.706803873607411504e+01,6.968242007376032632e+01,5.675118256895041213e+01,5.969807552208563095e+01,4.086878075771601715e+01,4.919927356349018055e+01,6.658204826028625689e+01,7.387864353607139378e+01,2.882541987261954830e+01,-8.955182637478882768e+00,-4.074829232067703089e+00,-8.901219044133314995e+00,2.435932793698770471e+00,9.463648271193896733e+00,5.817985891162800627e+00,1.058580096999998943e-01,-7.657512157598168834e+00,1.941723617975880600e+01,4.875473352946965377e+00,-3.990053233773899422e+01,1.212696569605064667e+01,9.359783115658684594e+00,-5.973434702791197815e+00,1.193322486653915604e+01,-8.246894458277830964e+00,5.910401862013484831e+00
-9.951797199553602535e-01,3.149388305863557669e+00,1.495163710131690804e+00,2.448379988783485572e+01,-3.852802386645144406e-01,1.303429717084656403e+01,-1.543441998138934235e+00,8.684379698244288903e+00,2.304604820080502492e+01,1.168750182484267519e+01,2.894888409184658329e+01,2.037642100189490435e+00,3.074955938142026923e+01,4.233455226748565003e+00,9.664287384609952625e+00,2.198928789457273769e+00,6.429185075693998108e+00,-3.742317826676756454e+01,4.242555015017931197e+01,3.541580027699627209e+01,3.485483900275237801e+01,4.116441258343876086e+01,5.161487661192588661e+01,3.317934257986316027e+01,4.939294480908790774e+01,6.305650033950494304e+01,6.768969230014400296e+01,5.439206505632577660e+01,5.075501835265952622e+01,5.049738092257232580e+01,4.649141375517140773e+01,5.745300621105285899e+01,6.186139946508264487e+00,-6.315140178673141591e+00,6.239657635295480453e+00,5.859269978694643388e-01,-1.786223635082912864e+01,-6.552429690701670140e+00,5.464025386224462544e+00,1.474037000395974495e+01,6.129044485312813428e+00,4.520337770880644257e+00,5.688024142052465315e+00,1.245131939403082422e+00,-9.589911148034246935e+00,1.109706294660818848e+01,5.199779718430153963e+00,-4.288021875153336659e-01,4.662544435149773570e+00,-1.553459807975750895e+00
-1.826549842921816769e+00,3.049096242395143097e+00,1.659287055030823410e+00,9.092043548181520940e-01,-4.486360129097048954e+00,-3.267947671039424851e+00,-1.361113479371497625e+01,-5.068608409610042109e+00,-2.520221027996088026e+01,-9.429048996516108616e+00,2.489128396185177650e+01,2.431520520841885613e+01,3.561315943300448872e+00,2.796950354561064955e+01,1.125146030092612293e+01,-3.246147507230512819e+00,-5.709391622277524192e+01,-6.167445745537889046e+00,3.395737839863950569e+01,6.725825575609674445e+01,8.966188399726634373e+01,7.989427222852776822e+01,6.847853822012720570e+01,5.631370274012523680e+01,2.439164070076756374e+01,6.998001986212294412e+01,5.106226393828703891e+01,5.026657152928142835e+01,4.028879010427380791e+01,5.840903716228245912e+01,4.180190619337357560e+01,4.273538414908382066e+01,4.234024046205388636e+00,4.814420179378911868e+00,-2.701599371612450895e+00,1.560719287153273882e+01,1.403303311346977544e+01,4.615430830263366602e+01,2.859534462181208880e+01,2.698218796546894893e+01,1.793014793718977540e+00,-1.965520866828077118e+01,-1.019189788359907922e+01,4.501054472452424626e+00,1.961801681998025515e+00,-8.611860918490307881e+00,-8.535008430360377929e+00,1.051792913458884149e+00,4.888728770722095440e+00,1.747925857341976030e+00
4.961551411109664578e+00,2.569749160841415137e+00,-7.146328710016048191e+00,-7.018320981102802669e+00,3.472065749343713481e+00,-4.365670604320252224e+00,-4.206813882138016325e+00,-9.937963801584988488e+00,-1.708590541869705604e+01,7.382833542156918227e+00,1.089521041596923112e+01,-3.467488040107404856e+01,-1.599220707166055711e+01,-5.695189280320132497e+00,5.788854768322603483e+00,-7.761411900714396239e+00,-9.428870786544413463e+00,9.870328422159934334e+00,7.999793927499523249e+01,3.587840452220700627e+01,3.182613597591671706e+01,5.356867300246315011e+01,6.008941084698845714e+01,5.607671822535909456e+01,4.775420515238611330e+01,4.639520689652582774e+01,2.831014315264181747e+01,4.448415677402520174e+01,6.251843880104116380e+01,4.009302200789507964e+01,5.636559457837022791e+01,5.609628994265603552e+01,2.827489886180014977e+01,6.373922155134130740e+00,-2.362264243573711653e+01,-2.270867727938816572e+01,1.269048284859387721e+01,1.340288167715391943e+01,2.307724513651723264e+00,-1.394174907719197343e+01,1.155705467352767890e+01,-1.395781786920988488e+01,4.772959398569521561e+00,-8.859901759080313965e+00,-1.459822987855057796e+01,3.998025745953754928e+00,7.175183142480674903e+00,5.643865017202687184e+00,-2.114694268797496335e+00,-1.240043248917731322e+00
-3.989854661317171036e+00,1.232108818470640133e+00,7.151967363482195417e+00,8.309979796286793841e-01,-5.528987502318543967e+00,-5.208102290670221457e+00,-9.190978001642392314e+00,1.724778589445545407e+00,6.021579762444760675e+00,1.546064944981175415e+01,4.694835590269165415e+00,1.694390168858028511e+00,-5.025757661394428588e+00,-1.279723530169737167e+01,2.611815322907326120e+01,2.307013751129263923e+01,-3.830393754241197435e+00,1.184520711328275944e+01,5.804368914539589497e+01,6.065456282024211276e+01,6.384426848758074158e+01,5.288260694326164923e+01,6.061375642982410028e+01,4.856535495947222358e+01,3.716266371600112706e+01,6.388386676875259695e+01,3.223113123559037518e+01,4.045055331329277948e+01,8.261281883903680523e+01,2.740198318064954819e+01,3.361704256251096012e+01,6.359873712637016752e+01,1.815588513474067245e+00,1.063650646031781655e+01,-2.457422552901063553e-02,1.221746877169732670e+01,6.397743332432317409e+00,-4.228246065662056630e+00,-5.894512779407375724e+00,-5.382387346279378981e+00,-9.662813164439997493e+00,1.126629212038598116e+00,-1.918476659899642334e+00,3.854167529301883999e+00,5.813769734216977625e+00,1.827817393848209404e+00,8.609289313113226427e+00,-1.393231284200188647e+01,3.065530561185423775e+00,1.250030130433301467e+00
1.523679294407766838e+00,-2.178926259666122967e+00,-5.641127800393486602e+00,-2.821013218564992542e+00,6.813950894013022896e+00,1.264527468924392828e+00,-9.640425811526027289e+00,-2.481798276569514794e+00,8.192794727471035543e+00,-1.906688743892128457e+01,-1.535811967096029518e+00,-2.326537898511296021e+01,5.293721188483486273e+00,1.399788656574389201e+01,1.389750345397901476e+01,1.281398082541164563e+01,3.613675671447112436e-01,3.647989253668733944e+00,4.823225330502754105e+01,5.688692554709792404e+01,5.647090136793620729e+01,3.027341776079410707e+01,3.073904546633947632e+01,4.682725927371350849e+01,6.338346511012331774e+01,3.403687383228948704e+01,1.356490969580997330e+01,5.284659750561224456e+01,5.155191545768831674e+01,3.200148643418248895e+01,1.650408597270541122e+01,5.611108111495016715e+01,1.499180244893350356e+01,-1.086787853182687869e+01,-7.177313712261137013e+00,-2.524377659881500868e+00,1.704610855120957069e+01,-1.051457666926895484e+01,-7.280001727866718397e+00,-1.025305733182952483e+00,1.512155225081634313e+01,-1.779631579109157613e+01,-5.197619358473525075e+00,-6.118462235138149907e+00,-7.688244230071372698e+00,1.873470530818526569e+01,-5.987208116248955214e+00,-6.469952187012755207e-01,-8.424243286678195775e-02,-4.493907801720332884e+00
-5.289576180108278791e+00,2.170078876022304648e+00,-3.332424470260309413e+00,-3.887045387530901674e+00,-1.675667077625638868e+01,-2.933021773952175781e+00,-8.336783464473791483e+00,-8.156939684361191878e-01,-1.562022316847116166e+01,5.607804953505691081e+00,2.274657782899503822e+00,1.588480573445163735e+01,-2.585488576033321095e+01,-1.680667023055017850e+01,-2.985401222803311327e+01,-2.496681410600761097e+01,1.210728500861687529e+01,-2.558075833377372277e+01,6.014163548291814010e+01,3.433009160922105707e+01,2.454465808512153657e+01,5.450961662485931924e+01,5.532506079950164235e+01,3.360850411914967850e+01,4.265097156009213819e+01,5.156679134131250208e+01,6.765945503220777368e+01,5.685981647437831299e+01,7.194601979170798245e+01,5.650848390039297442e+01,4.304406450490977676e+01,7.859844503299071050e+01,-1.638117862582694073e+01,-8.352821040523471297e+00,7.295449287509932823e+00,1.617865127592513375e+01,2.967455249345331669e+00,-6.443776787762239167e+00,-2.162365864222648426e+01,3.202250957804080311e+00,-6.415969141203922810e+00,1.468757162126445337e+01,1.421261328453259765e+01,2.363523768949843049e-02,1.230499318793965635e+01,-2.378967693758706403e+01,1.338231671201136486e+01,-1.148880533512742375e+01,6.671630506469233168e+00,-1.670248305194030003e+00
-6.133364990162325725e+00,5.140798831016947901e+00,-3.086211582589094560e-01,-3.657543531471614262e+00,-5.203242229151679332e+00,3.332469612330425934e-01,-9.636492320694159730e+00,-1.555258046027755725e+01,1.661806337002199818e+00,2.463863688349174197e+01,-3.793180620158356664e+00,-4.582263414411638536e+00,1.954031867858836335e+01,1.338990365553504702e+01,-1.690870251086402931e-01,5.035681560771731569e+00,1.303455866821085429e+01,8.795688357072446451e+00,1.467695248394130303e+01,2.198080627860719005e+01,3.220050685344035202e+01,4.655202434142309897e+01,2.973433309335236885e+01,4.316307952845252061e+01,1.957323592230578058e+01,3.500389961220794532e+01,1.583883067083064766e+01,3.803535788651338123e+01,6.069534790939692925e+01,4.074468859018569589e+01,2.306896045169233034e+01,1.940043873270572661e+01,9.647945390181947189e+00,-1.100352382139795893e+01,1.215757638427304599e+01,9.098648367204756227e+00,1.161756314800339673e+01,-6.243097882734208959e+00,-6.652687796156084410e+00,2.323803320968133335e+01,-1.233761791799610069e-01,-9.062411834172563019e+00,-1.847157262929328692e-01,1.007678216681781791e+01,1.564403805879897291e+01,1.242907596263592929e+01,1.238156967754207294e+01,-1.353481121924108166e+01,-8.017881053438177474e+00,-4.029081008855028401e+00
2.387024654341149077e+00,1.697610329110477601e+00,6.034111836158062125e+00,4.435252810994788852e+00,1.724818068887775979e+01,2.549890462997059259e+01,3.898579736556934705e+01,1.090198839140228415e+01,-7.770932617203196280e+00,-1.216741962259061793e+01,2.303777472040556873e+01,-1.619164018631288116e+01,1.604188699554584829e+01,1.313180378138318449e+00,-6.671797372546445004e+00,-5.711787169611509007e+00,-1.334343016570232265e+01,9.140090564008998442e+00,3.388101031993296886e+01,5.823225580281387437e+01,5.549241305214059850e+01,4.717523576892555326e+01,3.469600888772340852e+01,5.976384587692376016e+01,6.631167154532859342e+01,4.335571388824748595e+01,5.291024550300848972e+01,3.112655390161425473e+01,3.173194977900291391e+01,2.146793978666779523e+01,6.322117768654735670e+01,6.305450523071969826e+01,3.293651368602655616e+00,-1.339814336712709064e+01,1.268787686923487712e+01,-5.208603039291926251e+00,-1.595815146854632971e+01,2.429230189356498926e+01,-2.056931544001396617e+01,6.291186970018780578e+00,-1.165588517763223741e+01,1.904541908732130029e+00,4.405645622751484858e+00,2.138026996078577380e+00,-8.254617222986814440e+00,1.052273980899788697e+01,-1.735063717819059770e+00,-1.586287521966737835e+00,1.091169543280851606e+01,4.506307988827082944e+00
2.112479613245892285e+00,3.089688147113363925e+00,-1.361750094068260530e+00,5.078113310408577163e+00,1.454425401269074491e+00,3.529662954361499239e+00,4.867406072211238666e+00,-3.469719993831256843e+00,-2.937928809500346183e+00,3.075882856231670459e+00,-2.493538110610665370e+01,-1.372393048907650348e+00,3.851005557443477612e-01,-7.687535413121187489e+00,3.106313933429738494e+00,1.998880921092739982e+01,-5.884990152041497780e+00,1.113800265515119747e+01,6.835266376391648180e+01,5.741493812950484710e+01,2.279143064678131481e+01,4.993968344092148470e+01,3.412677446737296805e+01,2.448541836566566943e+01,4.293444734382241990e+01,5.143150625691497879e+01,7.059053835049618897e+01,6.056012301314289914e+01,4.619647387907767921e+01,3.521302280961180742e+01,8.309625353866059072e+01,5.705643475749252502e+01,1.669639274107587923e+01,1.408808717999589177e+01,8.298152637316036362e+00,-1.755657922170246366e+01,2.533228535034544748e+01,-6.968729203630356750e+00,-1.802021083210164321e+01,2.751036891820691821e+01,-1.101413600478854704e+01,-5.298313309316605491e+00,1.114867375840605668e+01,-7.343431092812156002e-01,-3.264885633607264737e+01,-8.734652500769810146e+00,4.760939681810332225e+00,-1.407067307749205742e+00,8.075175212947530712e-01,2.367412249906617472e+00
-1.291693579724253471e+00,7.647904581844400695e+00,-5.190715518158846464e+00,6.233431992942232824e+00,5.815437175350928634e+00,1.122233553954066654e+00,-1.743003260490628037e+01,1.904223714735586981e+01,7.282951226409885237e+00,-1.888985167323502745e+00,-2.824990543104438601e+01,3.472933197705459918e+01,3.001062214322558219e+01,5.095632894131949087e+01,-1.872000042925509433e+01,-4.465563248133978647e+00,-1.586125060580356028e+01,-1.024955639476015001e+01,7.572320792156452285e+01,5.966381788443460010e+01,3.664783584803849692e+01,6.646272839485702377e+01,1.707987577909113242e+01,3.843564427391195437e+01,3.924492950442192551e+01,5.448691701922076902e+01,4.634775460832619132e+01,2.657707830648269720e+01,4.254952192319134241e+01,5.756645155586456752e+01,6.899428571943357724e+01,5.720172460809838810e+01,-1.346750472698655621e+01,3.549923127374475573e+00,1.362498832366481771e+01,-9.954699517732125358e+00,-6.747963051186340877e+00,-3.821611051902926715e+00,-1.905783612050904097e+01,1.083463546282492640e+00,8.943811154708514621e+00,-2.461011923622165920e+00,1.412899564979865730e+01,9.725538971681592315e+00,8.723168548998279093e+00,-6.541393787492621570e+00,-1.445186076803530728e+00,7.046131142845676876e-02,-5.137546013124788757e+00,3.525703295353059263e-01
-4.217248455926666750e+00,-1.277701119613346092e+00,5.043997881650702730e+00,6.082526282267516571e+00,1.621760796086004763e+00,-7.412234214505616370e-01,-2.318437106318488539e+00,-9.033442211990799109e+00,1.200210975908241773e+00,-1.123240620889201224e+01,2.237311439093915499e+00,7.983162068041226078e+00,-1.082973540696120374e+01,3.160081800132962915e+00,-5.002417590180803231e-01,2.683530045740380121e+00,-3.144359791300348483e+00,-6.179333537625158357e+00,5.108910825875084782e+01,5.813197950098557953e+01,5.097982130317319616e+01,5.031148615975403970e+01,4.875969246761757603e+01,4.870734743825586577e+01,5.338559176795551764e+01,5.931043603121702290e+01,6.451879381706503125e+01,3.186546222451250543e+01,6.519149608940341523e+01,3.354303458084909551e+01,4.834974573847043189e+01,5.492684058710849371e+01,-1.964440910469633650e+01,1.051709418502628246e+01,-2.304155623873011649e+01,-2.636690609293659548e+01,2.101044114666189344e+01,-2.688138221918987725e+01,-2.042873813801401539e+01,1.351632680206259174e+01,2.617635141686219580e+00,9.246193781220901187e+00,-9.578648512188879138e+00,-3.082792915375639264e+00,-1.077941633352347139e+01,1.398791991106989707e+00,-4.806080262093082922e+00,1.876770376532784779e+00,-7.193988490532439162e-01,-5.051377576165382521e+00
-2.069283476871845551e+00,-6.843291010844658739e-01,-1.087978937526773926e+01,-1.047076170228198988e+00,-2.651005471429777938e+00,6.302701940531742153e+00,6.808484540034759114e+00,8.944713168916566204e+00,5.709256934230079850e+00,-8.066862539744251492e+00,-8.625031491437360032e+00,4.246975466637278984e+00,-5.165186956915833960e+00,6.981051047318708180e-01,-1.408874872671118439e+01,-3.323484008652324206e+01,-2.169433948332159900e+01,-3.031664880010093555e+01,3.638056603900363939e+01,9.413050021905793585e+01,5.018136525366052325e+01,3.495415619051448175e+01,6.698200642820559381e+01,7.983564877479028610e+01,8.052002824086245880e+01,3.210500759574744478e+01,3.879978573015435472e+01,3.469861793239283543e+01,7.641374111118430790e+01,5.543456798324068302e+01,4.686721691473272955e+01,5.694001578691909060e+01,6.300501356625649585e+00,-1.447154434250034427e+00,-3.843370439285089191e+01,-1.461679086149924700e+01,-2.870293926758646030e+00,-1.568574500830908880e+00,-9.625113286905456533e+00,-1.534044345287984612e+00,-2.214766068636493390e+00,-2.232257754902924329e+00,-7.327605474666579966e+00,6.377529744505006981e+00,-1.087035845111477350e+01,2.964054334131474455e+00,-4.007304231865286503e+00,-1.914338648293425260e+00,-3.501021470012162684e+00,1.322384310257137097e+00
-7.863928493315210932e-01,-1.353914691290081240e-01,-5.175900596495994321e+00,-8.731963415175759025e+00,6.781353973905656085e-01,-6.134028462786209168e+00,1.209854159677271390e+01,7.276621164341437797e+00,5.288845421610127495e+00,5.290532598615087068e+00,4.815293911361274937e+00,2.312307833819013059e+00,1.801583142279689742e+00,-2.257521947659351991e+00,1.653861449958900920e+01,2.589464155776745713e+01,-4.337578055522603115e+00,-8.725161155634317822e+00,4.095527724608106723e+01,6.110393069895226148e+01,4.478040625855802404e+01,3.234221876721903755e+01,3.090681414589499809e+01,5.393186506513808354e+01,3.713190161023661773e+01,3.514977329647867776e+01,5.921179947248521103e+01,6.254073590237275937e+01,5.056598532906077281e+01,2.352714421093448749e+01,3.240217878785428951e+01,2.291159502077565335e+01,1.140786412284036011e+01,1.413260438013254650e+01,-5.169637646886886095e+00,-4.115664221809279155e+00,2.092536811619127235e+01,-4.114925004466075009e+00,1.202407323765549485e+01,-2.001766092344908543e+01,3.261955071159719832e+00,5.475052144934612564e+00,1.486199140505429783e+00,-9.299771433787933361e+00,-1.474268586418586935e+01,1.117444183553787695e+01,1.528352207611397162e+01,1.279240546656775557e+01,8.732087902696925141e+00,2.518366921636206790e+00
3.129643546654570785e-01,-2.926664060506098064e+00,7.850490131223278212e+00,3.082919602921670776e+00,6.338830052276962945e+00,1.445631639794642043e+00,-1.492537867452095313e+01,-1.046352917676779981e+01,-1.171918342623035159e+01,1.779897296556351804e+01,-5.319174710771799930e+00,-9.256294457584083091e+00,-7.255720310275008522e+00,1.736090975380247814e-01,4.615502784724223595e+00,2.519640690696949736e+00,8.404873325125242545e+00,1.113615459773861893e+01,5.312021163721120587e+01,2.872550515041598729e+01,2.270696083612720173e+01,2.938119241363638068e+01,4.432633756242244516e+01,4.098747620385186252e+01,4.069141403062101148e+01,4.271136519834271184e+01,3.425097478401771411e+01,2.262181438655198917e+01,3.946800347088333893e+01,3.533807040824345336e+01,3.308269351921119750e+01,3.699914346059335202e+01,-3.962730500914850573e+00,4.535940482646470123e-02,2.566042259472397546e+01,5.311387788694886147e+00,-1.072818617797247076e-01,-2.099979431712641542e+01,-4.871710655400085521e+00,-4.282362017790981135e+00,1.129431996898671642e+01,-2.125902149913249062e+01,8.425288441435924369e+00,-5.051501307425103171e+00,1.097896559466737365e+01,1.241540754011572112e+01,5.692513483227588544e+00,-5.570033340503099950e+00,1.428417829296067643e+00,-8.546507722945313468e-01
-3.430234080717670775e+00,-2.293877028780385352e+00,8.983510097719586973e-01,5.437783571448456810e-01,-5.835405040845538238e+00,8.542815312592127341e+00,5.807422512686693850e+00,1.590254515944593772e+00,-2.105475895383834128e+01,-1.307100654888877678e+01,-6.390532127737069690e-01,1.302717611929793406e+00,6.503370146015247322e+00,-1.346233095241465705e+01,-2.093530592227924458e+01,-3.853746530666434911e+00,2.624953460292900775e+00,1.307166585901677003e+01,4.667328656913978335e+01,4.932134870505907998e+01,3.316327270302431884e+01,7.920854877047278642e+00,4.533832438293553224e+01,6.840877758522407248e+01,9.909114605257795461e+01,6.255946417280502203e+01,5.029812025473518133e+01,2.582143126140051947e+01,5.912220724775831115e+01,5.413522942236502900e+01,4.954955307191127645e+01,4.715844584999378242e+01,-8.021429613313317830e+00,-1.492629006901875321e+01,9.717100703516128313e-01,-8.345912794547666991e+00,-3.845676262645233656e+00,8.264728146416485899e+00,-2.989580073203656596e+00,-2.085363139942929767e+00,-2.193706211015593155e+00,1.429052149405915628e+01,1.373368185878841885e+01,-6.217843139159137777e+00,-3.927087955186425283e+00,-2.283960981625328401e-02,-4.724377510690561444e+00,2.761803558999307295e+00,-3.244121876574233010e+00,-3.147223477124695634e+00
1.240366881943157085e-01,1.220663099215835601e+01,-2.670771355332020036e+00,2.641283973710563338e+00,6.695942057361190081e+00,-6.927370966750101111e+00,-4.346355562656841087e+00,-1.306474310608380929e+00,-7.408828082150042960e+00,-1.389521296416676144e+01,7.108205899029712782e+00,1.918335159438261428e+01,7.129279565776363015e+00,1.702947018427813042e+00,3.333438426580480840e+00,9.819127780828704743e+00,1.333151293094304890e+01,-4.524523630849381028e+00,5.069032719560665612e+01,3.188454394326996422e+01,4.147032215699096014e+01,6.043361423499733576e+01,3.796601388996685245e+01,3.444730253292492961e+01,3.371482228084339994e+01,4.363617913413538218e+01,2.972541909198323751e+01,3.032950799037835310e+01,6.760796801693201985e+01,2.859104575290351136e+01,4.239818961452767354e+01,2.089304810163364934e+01,-3.674338891162618914e+00,-2.221228969589599256e+00,6.530997746855334185e+00,-1.567511750327478559e+01,-1.230208875467559437e+01,-1.752906324232567759e+00,5.073039977818584845e+00,6.779628236054980661e+00,4.015158806612483033e+00,-2.357123535041427331e+01,-1.760850274518553249e+01,-1.991668121894912602e+01,2.176934103828615241e-01,1.937359883307647834e+01,-1.674515153862142114e+01,-9.634750770055857672e+00,-8.757689984300974784e-01,3.538644121486815841e-01
-1.729821218440556585e+00,-2.828083679490478453e-01,3.029649636969359960e+00,4.879806756276003021e+00,-3.753412417500083365e+00,3.317806041942362949e+00,-8.482546589670624471e+00,-2.849490488150257406e+00,-3.577311228364642215e+00,-5.976740833844803369e+00,1.238880228090199864e+01,1.055712452703821391e+01,-5.950095957102353950e+00,4.441772150367615524e+00,9.536342816696935287e+00,-1.189448334179730615e+00,-1.976623636318329602e+00,-1.495161574660840431e+00,3.807962453806091219e+01,4.481898913560421249e+01,8.616933307066181769e+00,5.010420912930165827e+01,3.651168310398308847e+01,2.772013337375436848e+01,3.119998320460154417e+01,3.273798791479224235e+01,3.871183682229347056e+01,6.275444411496933839e+01,3.012812193354332280e+01,3.229748892762531653e+01,2.089616647787149972e+01,1.403588130588891580e+01,-3.049624526457535567e-01,4.465223318341281278e+00,-5.974903571744743402e+00,2.463893785255126812e+00,3.049459420081075400e+00,-1.129012394025053290e+01,5.987510877800599651e+00,-1.423789916464304195e+00,-7.122360440396589887e+00,-6.038129815613981322e+00,1.274551018704950023e+00,3.225501956934293091e+00,-9.863426928612319955e+00,1.122324384170527622e+01,1.270297597231103737e+01,-5.554891894118430429e+00,2.719347825252644402e+00,7.304599590240326457e+00
-9.498973007485937980e-01,3.854757712775114253e+00,2.130330782181505178e+00,-4.955634334234073179e+00,-3.190309884492938508e+00,1.054267470324371381e+01,1.123705092381415582e+01,-6.671674994036311368e+00,-6.196770243634036390e+00,2.934982533078537514e+00,5.245770741908970969e+00,-9.165443171520669452e+00,-3.084374351581936846e+00,-2.881175612381592366e+00,-2.039991284351913947e+01,-1.943305176902820008e+01,-4.046939478716018890e+00,1.892197517755764125e+01,5.755883999443970112e+01,4.674423468235046641e+01,2.799267855694609253e+01,8.456058714080493033e+00,3.016154026982357195e+01,4.247985386250309148e+01,3.080200327158727092e+01,2.511259315087045607e+01,2.914904964909192842e+01,3.456657271437236290e+01,4.774610437028318444e+01,4.937474443768343946e+01,4.645708302171274084e+01,4.462814745551913376e+01,-5.337427106152963674e+00,-4.514534381465132640e+00,-8.460224288937125081e+00,-1.059605914699737816e+01,2.406523573195227783e+01,-1.465063279424299658e+01,7.570849590771008941e+00,-1.054566311014032820e+01,1.634038493844036921e+01,-1.239605556023443000e+01,-8.389821729496505398e+00,-6.536252721697818124e+00,-1.934110932511473147e+00,-4.454718930906687469e+00,6.849691556575622897e+00,4.042879501487295357e+00,-2.318997614661052697e+00,-3.893747099851196047e+00
4.934134424062596835e+00,1.004021342340002576e+01,-1.209573408046243514e+01,1.096943418643852253e+00,5.591362902073673702e+00,-2.143501100673704585e+01,-1.655423426431885048e+01,-1.427997721025759681e+01,-6.978720148914814736e+00,1.726591019836393315e+01,-9.044776066878535303e+00,1.311017883981293330e+01,1.249631063940927334e+01,-6.162102616922494391e+00,-1.640194067565534297e+01,-1.872997067825470907e+01,-1.954795875920706250e+00,4.035492909786617233e+00,4.613291694570698809e+01,4.201302876559328325e+01,4.906642102064725464e+01,4.463035696397160734e+01,1.698371369043200474e+01,4.832573370690461445e+01,4.647083612782636663e+01,4.026707336234139945e+01,2.928288664687959653e+01,4.095949737771741894e+01,5.258371527610918150e+01,6.450605568556076719e+01,3.055896239164878736e+01,3.619824367530417675e+01,-2.954035707510773712e+00,2.455875990147245336e+00,-7.528234913056692790e+00,-2.259981877033331443e+01,-1.552463458648382932e+01,-3.010675598682349907e+00,2.028324228991050049e+01,-4.696339770138607150e+00,1.204825672086042765e+01,-2.147849464706656164e+01,-1.745351432790598523e+01,-1.538352334862568682e+01,8.537232604463531160e+00,-4.904468700259008607e+00,-1.156800376294871135e+01,8.024106452018946456e-01,-1.849961889668258053e+01,-1.174557691480610622e+01
4.883347689486726706e-01,3.977972724892890444e+00,5.209556224668746793e+00,-4.692245416444983164e+00,6.478716674911959572e+00,-9.189951819703985336e+00,6.297089527901073680e+00,-3.145023887982459909e-01,1.692661712792429540e+01,2.072936248373035539e+01,8.621382096702744136e+00,1.415031923247377321e+01,9.531545277244093839e+00,-4.299662675817494950e+00,-7.560897855707200854e+00,-9.315483937607869080e+00,-1.530025151946245998e+00,-8.442275221434558219e+00,4.094799328012133799e+01,3.700053142204441770e+01,5.205645509304036977e+01,2.557582902315529338e+01,2.337167014831528888e+01,3.549569129532090983e+01,2.212069499647174098e+01,5.062233976435659599e+01,2.396936604913225466e+01,1.337019371763891940e+01,5.269923664602784896e+01,3.679421945530538096e+01,2.875767982850301863e+01,2.373772093747438205e+01,3.589666027802260739e+00,-5.071259540842113722e+00,2.059461135563513423e+01,-6.378595828841947757e+00,2.219491216553107193e+01,5.185980369800538448e+00,-1.640781225654767184e+01,9.180136257987129511e+00,-5.361586186332080395e+00,-1.884581401527180233e+00,-1.410147882064492464e+01,-2.633792037877959658e+01,-1.679447209147026854e+01,1.817030126546957902e+01,-1.035714425258263205e+01,2.400555275327647919e+01,-1.592407299136606547e+01,6.192468373465863651e-01
-2.788162100830705370e+00,-5.500668216768780816e+00,-2.341373568339118361e+00,1.211300783189158636e+01,1.249757136544432790e+01,-2.301640372625894493e+00,-1.686681295541547598e+01,-1.764559002396409326e+01,2.328695353572205917e+00,1.264111132900051260e+01,-3.366281020325290640e+00,-1.191438954822088014e+01,-2.875769872161160645e+00,-3.470257109369107584e-01,1.641055415187745226e+01,-5.235239634407449216e+00,-7.950662682257196856e-01,4.283601397019459966e+00,3.276037005483555475e+01,2.385258064919575816e+01,4.225484252614691627e+01,4.784734941214461657e+01,3.766747778719992823e+01,4.647306017134538081e+01,4.956697858114991107e+01,2.461426029503718382e+01,3.122098519079168710e+01,5.025198425383382528e+01,4.967186664382492722e+01,2.016696992047110371e+01,2.470971121041377572e+01,6.651023303646407214e+01,-2.513298549379200608e+00,5.254886218789103225e+00,-5.102315816588425257e+00,4.578245684018822814e+00,8.119290359038366489e+00,-5.555228270087262388e-01,-5.624596347239746441e-01,-3.673114943558737355e+00,8.147404691763210138e+00,-7.174260960050331981e+00,1.671832640419694371e+01,-7.988738023105706354e+00,-1.229494855790533414e+01,-2.712490960243161275e+00,-3.610676751891454206e+00,4.161098725607014437e+00,1.524944595014476256e+01,-1.426653255936499054e+00
2.007373886164030008e-01,1.137428786812942461e+00,1.541930220129985152e+00,-2.348863022455000227e+00,-1.081977447594358033e+01,2.517067317105167401e+00,-2.017837102443140296e+01,5.656869134108817754e+00,1.200647104355862460e+01,-1.620233346758815074e+01,-2.440605367568434403e+01,-3.426308247016789932e-01,-3.120649458637996254e+00,7.690965938345855513e+00,-3.291282371751910318e+01,9.646522820042456203e+00,1.283709516431736652e+01,3.987483936435373799e+00,5.043153425119876232e+01,4.750144877113930875e+01,5.603328489368037424e+01,5.391039665768233391e+01,7.250361097353732021e+01,5.539706902811845879e+01,5.543151475722265786e+01,3.755819304547821957e+01,5.083629336614422556e+01,5.794518801606415082e+01,6.736941034560456387e+01,7.111530091558852007e+01,3.343135977644251966e+01,6.086889363973450884e+01,-6.242799732186990802e+00,1.108038324320784618e+01,-7.388212168469999064e+00,6.764482140484583184e+00,2.219698831063199052e+01,1.953662155940925516e+01,-2.352711735234276347e+00,7.497588894761313405e+00,-7.288780159434061545e+00,-4.804795109156552613e+00,-1.061663647904403485e+00,-1.138810479525229979e+01,-2.438143056156975852e-02,5.170259161498046652e+00,-2.437645128000994976e+00,-4.290459940530615413e+00,9.890874704821740693e+00,-2.707533655734120082e+00
3.121005850498826395e-01,5.906776147247203568e+00,2.440236861906502241e+00,-3.344992908161344758e+00,2.222416170217379250e+00,-4.037602984058377587e+00,-3.617035206792277968e+00,1.127365992698580399e+01,2.012831095786308921e+01,2.352012084895431698e+01,1.259841126307019188e+01,1.395289815731199923e+01,-2.586676264449617069e+00,-8.016535028416884145e+00,-1.492454736851124286e+00,-2.064500083772669914e+00,1.367073290357511262e+01,-5.532360146644930587e+00,3.389091272821219292e+01,4.681216899159974787e+01,5.007105784491549372e+01,2.396624775768405868e+01,3.016747225376343522e+01,3.195302382055420054e+01,3.381357795665974209e+01,1.964398935687595582e+01,4.800106196699676531e+01,5.984921064205143892e+01,3.903798923614585448e+01,5.264885031169897900e+01,3.652488147683445163e+01,4.023265328261181395e+01,1.786782300215494779e+00,-1.363015083336154731e+01,8.387346765018195427e+00,2.015455336910062911e+01,1.458132988597325230e+01,-1.116511631260122250e+01,-7.342833709010418985e+00,-1.144234240477647013e+01,-1.210208853903872495e+01,-1.153409099808373739e+01,1.068292341318886063e+00,2.309023731743733876e+01,-1.460745735124753253e+00,-2.247879948669099548e+01,5.400398500592449302e+00,1.950014830859128168e+01,-5.178108396026976479e+00,-1.061494499994128660e+01
1.173831053997729246e-01,1.650334711485986761e+00,-1.163236952257043733e+01,-4.032425454187661407e-01,3.950448099477258612e+00,-2.502852179248252540e+00,3.346692778506958010e+00,-4.878522178370254814e+00,-3.635664712840213753e+00,2.099191995120823861e+01,-1.638018259894613848e+01,-3.087326870221340780e-01,1.437775712717537679e+01,1.119421430396090322e+01,-6.878304925020072957e+00,-1.157244092965284210e+01,-1.718534138628369945e+01,-4.374717381829714924e+00,4.581765197857306049e+01,3.137162857304923946e+01,3.792995131553188060e+01,4.087896315987745055e+01,3.378367252078898275e+01,2.673683369549474165e+01,3.135149234573794175e+01,2.519981953030413280e+01,3.061297817450004644e+01,5.157616190925238442e+01,4.363265037433751559e+01,4.271492526622218833e+01,2.875854785423716464e+01,1.544215245926469215e+01,4.927562794114086209e-02,-1.026975701064425373e+00,-1.015483036938993600e+01,-1.510270927050268241e+01,-2.433954281035714207e+00,3.389774035852766154e+00,-2.113547168390814246e+00,-8.353088274378000833e+00,2.407226090070692237e+01,6.927509905045113880e-01,-7.540881147232928683e+00,2.585381937011676712e+01,1.584039418869435112e+00,-7.623298842922290319e+00,8.399578439458517565e+00,4.370748258816022691e+00,5.761819765801427629e+00,6.287596133736724768e-01
1.937520661424721791e+00,3.044826020004262279e+00,9.937449672494881980e+00,1.240051855275624781e+01,9.198182221074359788e+00,1.612416455088614953e+01,-9.206851567540530468e+00,1.588185239888550981e+01,6.906976924082555147e-01,1.054020275481355107e+01,-6.188965087190280379e+00,-7.563652923023166608e+00,-1.171878592931767216e+01,-1.230112395603059383e+01,1.165339875494948219e+00,-1.609579050425009328e+01,-3.197623362234438549e+00,-1.188220088231775051e+01,4.700976653238596015e+01,4.059909986269597226e+01,2.719072237428817118e+01,3.623162703621856195e+01,2.303206806816741548e+01,3.586837563725104161e+01,4.654717327241105096e+01,3.844380214255182437e+01,4.197881831037764044e+01,5.128084626470693053e+01,3.160272397952819645e+01,3.642366628123889427e+01,4.931924127487032194e+01,2.873104843977039380e+01,-1.673236766740283654e+00,-4.549663293442630874e+00,-6.687868065125945449e+00,1.695206248844035457e+01,-1.081155962773412416e+00,-1.056655334366726962e+01,1.706537071161770669e+01,-7.567372924556147851e+00,-5.776984284865137376e+00,2.685827018733300164e+01,-5.397508016036466572e+00,-9.624308470364002943e+00,-1.105778539229659962e+01,1.666441992647209958e+01,-1.246766848885197732e+01,1.262463714250707447e+01,6.190567326375445489e+00,2.669361789167989496e+00
-1.545482011449980930e-01,-2.638269166219598283e+00,2.382218618299863699e+00,9.364600262551324050e+00,4.621173266836044569e+00,-1.771657870760367404e+00,-6.754496938409658036e+00,9.356801382082522878e+00,9.131124528484773961e+00,1.212575883862439952e+01,-1.251431454161836854e+01,1.390189608611582983e+01,-1.122646095842824465e+01,-5.446372939906598099e+00,8.047627229877916122e+00,-5.554539861441431192e+00,4.126376378695696401e-01,-1.768501497531322464e+00,3.592012483803369349e+01,4.110640586967759447e+01,3.803112351916068690e+01,3.898445918794381981e+01,2.404867122968606452e+01,2.951508067227179311e+01,6.143193902538111928e+01,3.985548765510615965e+01,3.189135944317425952e+01,3.662809805282071096e+01,1.473808448373748803e+01,4.369366223181073394e+01,4.592189682645899040e+01,2.298510992778356865e+01,-5.206493023071234738e+00,-8.656553943860309630e+00,-8.038480325874241217e+00,7.109617298983481604e+00,3.353454952532921585e+00,4.583014504085983098e+00,2.151068229537627374e+01,-1.710365371734741791e+00,9.528500302995132287e+00,-9.924841884311613072e+00,8.961428495719621523e+00,-2.030812983480794642e+01,1.416359398344421194e+01,9.917883235994239044e+00,-8.963912563803984046e-01,1.128630123276545838e+01,3.492991355765826977e+00,1.553027237150891526e+00
-6.722464191553839008e+00,3.323309839730022031e+00,2.809360116724769069e-02,3.162347605350945834e-01,1.949182329045137507e+01,-1.954598281954951000e+00,-6.972321285392565571e+00,-1.090581468892716366e+01,1.403841415214199095e+01,-6.643747567896014061e+00,-2.028329525184261684e+01,7.781736442346532279e+00,1.400407798265663573e+01,-6.984440926100642377e-01,4.825060033142927196e+00,1.364460330815668243e+01,-1.037435972401229023e+01,1.348160994820884007e+01,3.774032171307915462e+01,3.157223730306486686e+01,4.349516362947592540e+01,5.304142282574043321e+01,1.850583060468369112e+01,2.577392938261167643e+01,4.539060336265125528e+01,4.940008731600398306e+01,3.213256101087878136e+01,2.185535510077311017e+01,4.774803124644134300e+01,4.973500715354916224e+01,4.367056287721386099e+01,3.276075533427355424e+01,-1.242309071490681482e+01,-8.266991456875526723e+00,-1.146916194055731708e+01,1.612720749950482979e+00,4.698001230482454105e+00,-1.757293159839982688e-01,3.283622256645716675e+01,8.824528904075458868e+00,3.714936278821218352e+00,-4.059829556348137913e+00,-2.043630613902545523e+00,1.885381944471897242e+01,1.047578295018479544e+01,7.364596394940262636e-01,-5.944888133850253276e+00,-4.760094889975623467e-01,-3.063319734136422667e+00,3.505379644757799618e+00
1.259098739371588227e+00,-4.156424207391024694e+00,-7.056171367002305850e+00,2.031643870552624165e+01,-1.089081723029088522e+01,-1.604118642822657748e+01,3.237862777097073597e+00,1.251859925973203858e+01,-2.521205655494029418e+00,2.456626748119906001e+00,1.343149093964292007e+01,2.781224438095990514e+00,-1.322769379655669431e+00,1.251106756806232134e+01,1.543499106659304410e+01,-1.347284394039427013e+01,1.917608532395082221e+00,-6.280059915111126934e+00,5.936841833781702604e+01,3.359814490370676054e+01,3.143386992138464464e+01,2.420460255356131185e+01,4.018583571794871290e+01,2.631979354194751153e+01,1.547175846046942382e+01,2.227696306777111346e+01,3.177684179724368718e+01,2.723203372664426425e+01,3.574622300709258838e+01,1.491526107385073807e+01,1.759973020759078821e+01,6.217435849089483213e+01,-1.258454853694049191e+00,-1.105480737296775295e+01,1.771165604932680537e+01,-1.198706175027266063e+01,1.374244160292549566e+01,-8.502837921368215035e+00,-9.655911699070689025e+00,-1.884602658248611107e+01,1.579437619955317018e+01,1.767768330312496872e+01,-3.097650921270704849e+00,-6.227495449570547237e+00,-2.704089159454214908e-01,2.261067693723317618e+00,4.174939025484098565e+00,1.292436595077596229e+00,5.061680161123532917e-01,-6.633956186545375999e+00
4.322590827777614830e-01,-1.348103734429517253e+01,-4.252644518471214496e+00,7.090447706979961850e+00,-5.136738617191094036e+00,6.192269356991721985e+00,1.557167057038989810e+01,1.052511616684639506e+01,3.159376245331721123e+00,1.201658886939260817e+01,2.041349989022533151e+01,9.173805760264340137e+00,-3.589583466971229342e+01,-4.014377421631395748e+01,1.325040035998663868e+01,-3.622841974028769396e+00,-1.185498244817171098e+01,-1.586870604786788164e+01,6.528576082663118996e+01,6.944017831650444350e+01,5.964046993243296413e+01,4.089813334537387135e+01,3.578713248478290154e+01,4.454950594962490129e+01,8.977481322211869497e+01,9.358369595621236670e+01,3.540604494838264316e+01,5.312394173789896001e+01,7.141788361422935338e+01,5.376802864854573727e+01,7.172937789871581060e+01,6.304332401012040066e+01,-1.542915697963709754e+01,-1.719672675638861392e+00,-9.839734869160542630e+00,3.525796849096901298e+01,2.757883275725784955e+01,-7.530497784053154398e+00,-1.254803697672392460e+01,2.772326980328935875e+01,-1.038272423065106764e+01,6.482018086352576702e+00,9.702283123835167444e+00,-1.929553097121494032e+00,8.686126809633286427e+00,6.689365275432712643e+00,-2.111731238248416354e+00,8.232934949999387575e-01,1.781307123018902816e+00,-2.664595640513731656e+00
3.271010293869055729e+00,-4.120520046427447625e+00,1.003696092157383424e-01,-3.958983730822129843e+00,-8.367396777339781266e+00,-2.371101857244133804e+00,3.073712253135767902e+00,-2.694657215291070274e-01,-1.157802070161097951e+01,-7.983789143752010986e+00,-7.406798877926729752e+00,4.601784563862218569e+00,-1.022784461557872326e+01,9.023615816117057653e-01,-1.312617260791431839e+01,2.770762873097182943e+00,1.289509232675149342e+01,7.602380515235910075e+00,3.150530773184852151e+01,5.739618011730922120e+01,6.713421365103538108e+01,4.201488572065777305e+01,5.805650471808126412e+01,3.882501625160345782e+01,7.754257823583672860e+01,3.191458168582488852e+01,5.110399465913850747e+01,3.684842765301088008e+01,5.347292589349543590e+01,4.516854493838194173e+01,8.892660472724482190e+01,7.285683013380491957e+01,-1.788814993409414456e+01,2.503356192425029292e+01,-3.574767164746766035e+00,4.722662550321921060e+00,-3.023575778087453259e+01,2.729439181427236960e+01,5.270013375755119078e+00,2.271575763538857123e-02,-8.314208508309842927e+00,5.055505740014939242e+00,-3.235920141741284173e+00,-1.046467232262631697e+01,1.199550129040938806e+01,-9.349879498635033315e+00,1.613844118952014739e+01,1.813303872836008246e+00,-6.856638756836098025e+00,4.121391435739399256e+00
6.703945457436460975e-01,1.109934909479840970e+00,-6.025205454463112176e+00,-5.307250424713643611e+00,7.330031896847083450e-01,-8.022417721189629702e-01,-8.117530450283915400e+00,-3.242833944248552314e+00,-2.229147235589182330e+01,-5.269705651997345086e+00,5.223073761502012857e+00,-1.758496067277175001e+01,-1.070382784811029886e+01,3.502393857865524041e+00,2.035485272582715055e+01,-1.047298416420455514e+00,9.816952536693676734e+00,1.722076803061913708e+01,4.926296507084652632e+01,3.583454666866950333e+01,8.636666417703250431e+01,7.327709005669549924e+01,6.080277568527329635e+01,5.240840470451906441e+01,7.036784664415667123e+01,1.112091645034937493e+01,4.254422421852392233e+01,3.785259202865202610e+01,5.046085683870258976e+01,6.592804976453595600e+01,4.175207506912457944e+01,4.497580154116671025e+01,6.354218008388285988e+00,-1.835139844410655385e+01,-2.365136249045188777e+01,1.146598869145999089e+01,2.067835904336036368e+00,1.131504047204204166e+00,-1.013221696738532129e+00,1.090358878883036553e+01,1.105777154215852143e+01,9.782320174225459297e+00,-1.597348276702459602e+00,9.503421066941614370e+00,7.041184222155739469e+00,1.223332602944618053e+01,-7.903381037869086967e+00,-1.937471974045383050e+01,-3.200242657857289563e-01,3.670782448491996863e+00
2.939870547613330776e-01,-3.262906358859385403e+00,1.783838286420812125e+01,-2.857433266505258729e+01,-4.134432369789210782e+01,-5.472825254687175622e+00,-2.948832810986143027e+00,-1.408422628372928997e+01,-9.109795018022213142e+00,-3.053581215194344978e+01,1.334396983598002961e+01,-7.203093105553151076e+00,-3.693246942862399518e+00,4.797933587283689683e+00,5.211991430213433141e+00,6.566685194910781398e+00,4.202768269089262709e+00,-6.788651615827025587e+00,2.543361367842641485e+01,5.775701785737550153e+01,2.333430214912423040e+01,4.866500695025046497e+01,5.580663474802162938e+01,4.741137347478584019e+01,5.233299749698783643e+01,4.401715716442048176e+01,4.646229416910433940e+01,3.010798528863485757e+01,4.623420520420417290e+01,5.587077141591600338e+01,3.741011700243472404e+01,1.386279357106918120e+01,7.574219883651293728e+00,2.777104219131716345e+00,-1.388263740391179546e+01,1.011983372734336228e+01,-1.492837809384245062e+01,2.211357060552942233e+00,-1.980997526565458244e+01,5.085326036393495563e+00,6.975584031464880042e+00,2.807028700301755464e+01,-2.208265462319736727e+01,-2.015218816208419028e+01,-4.019781913402727724e+00,-3.616554919439943117e+00,-1.816630405377710478e+00,2.432342911241322181e+00,-1.366472510791567885e+01,-6.983634010081725407e-02
