5.737507014543247880e-04,1.020489103903681090e-03,1.278342508091875451e-03,1.933859826240698484e-03,-1.135715455554223445e-04,-6.262899500681245318e-03,3.862562884627072083e-05,9.884806601172752092e-04,-1.179138526053262080e-03,-1.817565013305015445e-03,-2.074923334634698208e-03,7.666740032015035818e-04,1.231377030687083379e-03,1.335347326243731649e-03,-2.370917485807416594e-03,9.410095906359530174e-05,-3.629134600388081271e-03,9.095774587760589378e-03,4.745860231516844246e-02,6.613500855095617859e-02,7.281103589789891806e-02,6.859564953364849504e-02,3.276407126687779642e-02,4.883580087777034812e-02,7.096062569871595949e-02,8.906419918718833095e-02,7.597080468514574858e-02,6.705294932960689791e-02,9.699716948205616696e-02,1.155221944331861206e-01,6.104571044021782356e-02,5.922165394373477693e-02,-4.169956446613210850e-05,-1.070906759258853376e-04,1.951908159248948204e-04,2.520183021404408252e-03,-2.726135481283875790e-03,-1.014750281858539140e-02,6.566655754493915496e-04,1.584233954829443588e-03,2.328981872896502924e-05,4.759007781962913903e-04,-2.659319079747457602e-03,1.599187913547442692e-05,-1.904738486808594741e-03,3.565666146613078770e-03,-2.008652257589506324e-05,-1.640125292625532456e-04,2.146368883818946895e-05,-5.734726913079365692e-04
-1.360707086696015880e-03,1.118715017808471872e-03,5.157603646977832607e-03,-4.179572603204293260e-03,2.484090517397868794e-04,1.725619557122827323e-03,1.586296162994914772e-04,-2.079023257455584785e-03,-5.198205044907449083e-04,5.844061364206259502e-05,-7.720631760452929511e-04,-2.642664439588184727e-03,-4.010707978183212347e-04,1.370133228518023022e-03,2.894328951734055546e-03,-3.165378910531691653e-03,-4.565956369830280795e-04,-2.980072149876609230e-03,7.011600247809604558e-02,9.604967550416372568e-02,9.840082257601791282e-02,7.004612014916149210e-02,6.866096491557074910e-02,1.093971581824813855e-01,6.224281250084075928e-02,1.157455595523538272e-01,3.936333700598519669e-02,5.627340602462392594e-02,6.728687529499197129e-02,9.311802802709118199e-02,8.531137489832002485e-02,6.338494170913525072e-02,-9.071633734852784046e-04,1.397730257406825912e-03,6.734064675611258941e-05,4.634944605805905440e-04,4.211199043287802268e-04,3.366091799682673254e-03,-2.583541451119975105e-03,-1.810552731790499720e-03,-8.923360065567468474e-05,-1.885128057811527071e-03,-3.484677002567344601e-03,1.011331509638782480e-04,2.557965937976486564e-03,5.107146969981018157e-03,-3.394341503949159251e-04,-2.650919126195506147e-03,7.269685183187365143e-07,1.384794329121460943e-03
-1.872145796205224770e-03,1.107156501161516538e-04,-1.689915781478567138e-03,5.246076452323861217e-03,9.593396376064668900e-04,1.708987105862323547e-04,-1.531983119387969291e-04,9.350469112459326932e-04,1.342804601515378048e-03,3.129963506100025207e-04,-3.013029132796766173e-03,2.676407316806165074e-03,-5.798999623502120370e-04,-2.854992540515341351e-04,-1.157562704934687230e-03,-1.790933506173823754e-03,-3.270134673106086121e-03,3.934407232427310046e-03,2.922513393378219429e-02,6.020034510237427805e-02,8.627068698541971725e-02,3.516739796136559432e-02,8.145412879189063704e-02,2.068773244158297886e-02,9.470415961101701086e-02,6.773614828540754085e-02,8.069173992252502703e-02,7.963296538597418317e-02,7.138612932007561140e-02,8.485401214103945045e-02,8.728477446485510827e-02,8.363292814334832848e-02,-1.420989071306893439e-03,2.041328191331470004e-03,-1.384382524217912976e-03,5.007075593800496341e-04,-1.318054277313535994e-03,5.079089676424324712e-03,-1.424594282275540554e-06,7.380129709707384036e-03,5.418917960959847405e-05,3.969939478050720015e-04,-7.104985849381523309e-04,-2.143650523146808703e-06,1.160733265987940821e-03,2.339148348488514183e-03,4.449852695791810362e-05,1.895400690677121174e-03,-2.158944238186252584e-05,1.623890990306668712e-03
-2.430612179462472190e-03,-1.507121550884153628e-05,6.241901432353490035e-03,-5.082630188718941823e-03,-3.215790139682974985e-04,-2.125490317449969043e-04,-7.292916494116434328e-05,1.248261804865485750e-03,9.736114106034326424e-04,7.539646852240290817e-04,3.439142573507088674e-03,7.147054028260116376e-04,-3.019474214379721730e-03,1.145330691722196923e-04,-6.244027873981162699e-03,-1.657690112147886918e-04,1.685393583094222465e-04,1.926889733444755223e-03,9.774081768474490728e-02,9.639513570597664505e-02,8.033597693435858000e-02,4.627041235427935273e-02,4.785715848774941411e-02,1.042721692802670852e-01,4.150953808847707149e-02,7.138115296209662786e-02,9.973427911402060753e-02,9.357883800473686120e-02,3.200745426819662232e-02,7.103537057735942462e-02,1.186436344619982708e-01,5.765517942858434941e-02,1.933678429766986248e-04,2.313768574357508937e-03,2.946464825612497406e-03,3.644138196153206091e-04,-1.739877491433027652e-03,-6.508137463052266446e-03,4.269434281766480710e-03,2.485459186488549622e-03,3.809273527304661127e-06,-1.198690787512208741e-03,1.149313814198927577e-03,-8.707094530082628203e-05,-4.019070176916955607e-04,2.291994045248700942e-03,1.374360177270805491e-04,6.609874058486522441e-04,4.773878975560996496e-06,8.030769526048343225e-04
1.533840378780698937e-03,-9.613084676567627265e-04,-4.419571343595794788e-03,1.522234828009322262e-03,1.946426559409166141e-03,-7.029322974665863817e-03,-1.441310342103343872e-04,1.156867724186448230e-03,-6.684264514747822149e-04,5.046333275131453929e-04,-3.291515772473868357e-03,2.854013971254362823e-03,-2.330107181329588162e-03,5.767231106488764688e-04,1.616975789418678147e-05,-1.522077739504676397e-03,2.610056387467854597e-03,-1.426992894379952017e-03,5.863616038629471811e-02,7.001643574914873103e-02,8.208689591711830491e-02,7.280010209641495089e-02,4.954167669159168647e-02,7.342771985740523255e-02,6.818935785550497841e-02,9.811605033676167043e-02,7.356046185160455830e-02,1.056944511719429547e-01,6.778113097304237777e-02,7.311245580462340243e-02,8.665153152493049182e-02,5.464960217526182440e-02,-1.490473008077965785e-03,-2.759399069487615801e-03,-2.608457463987624587e-03,-4.805275407378570675e-04,1.022186207009296438e-03,3.856637827167605243e-03,4.116138026663247219e-03,-5.928108684799409528e-03,3.970032592681297147e-06,2.495466407720714833e-03,2.586820751608133462e-03,-5.792035864181501137e-05,-2.345963429744887200e-03,-3.850209594776601613e-04,2.595867400454265959e-04,-2.959823602212083033e-05,1.421276186913324565e-06,1.109534051670123386e-03
1.777475947325988636e-03,-4.851319240272533953e-04,-1.180562478842009464e-03,-2.539228921057053471e-04,-1.619929579648174498e-03,-3.521691892969378533e-03,1.151391242099105284e-04,-1.044561531351534227e-03,-1.101755632627997349e-03,2.246066347660651203e-04,-2.214770513239463536e-03,9.065394676223474625e-04,3.427392080093613082e-04,-1.228058966090658831e-03,6.053000963469890028e-03,7.300164461143697275e-04,3.974716273701302607e-03,7.069404228048408768e-03,4.970955089181305214e-02,7.697593585071133004e-02,7.681274616251111687e-02,6.222194131518191118e-02,5.866492371583939547e-02,5.342239775033011395e-02,7.617861739233010299e-02,6.871892969699650022e-02,1.007504315782431076e-01,5.943000524989124067e-02,5.844590723279455974e-02,6.885921283892748601e-02,4.608900598974483009e-02,5.593178644650820958e-02,-3.839198193255269472e-04,4.068101307606966665e-04,-7.107444128893550001e-04,-1.166625403095782087e-04,-3.793028074897557278e-03,1.094557761200071894e-02,3.472025426808536650e-04,-1.710255014333216406e-03,5.395638923552329337e-06,-4.488327898149769256e-03,-5.409429289752082023e-03,-1.423126170585217943e-05,-5.414934564845179247e-04,1.189350189614715378e-02,2.150109663049303216e-04,-1.153376632515949567e-03,-4.036173895168350615e-06,5.700697293497125487e-04
1.484129250700250754e-03,1.172098642014150283e-03,-9.192239223493167601e-04,8.535446532373177145e-03,9.108833557879979399e-04,4.818365516993491546e-04,-2.339604162142439134e-04,-8.098048813780211455e-04,2.863734298662485092e-03,8.153966226587687537e-04,-3.400684139440375651e-03,1.694187177690024797e-03,-4.336401004586211872e-04,5.542334772505435594e-04,4.306946298609958673e-03,8.513075584564969069e-04,1.864273616989874181e-03,5.732394884518657785e-04,5.042990628878074588e-02,5.544137122602764423e-02,6.280503118157348963e-02,6.412997901629820252e-02,4.402724094798501214e-02,8.331869814504908045e-02,2.922889502834844638e-02,7.235114835468436922e-02,8.355486314838542206e-02,4.557557746636634044e-02,3.784234229395455618e-02,1.214616400046110989e-01,7.288276517529737597e-02,4.051290908100868560e-02,-1.188770872393859210e-03,-1.230278215781419744e-05,7.734423997138223155e-04,-1.858757876671031774e-04,-2.997361066472182829e-03,-3.594030885984487392e-03,-2.674615973114936700e-03,3.447339860972104594e-03,-7.573267744518789348e-04,-1.669856719488674258e-04,2.836703826701667940e-03,-6.000094644171304791e-05,-1.691019115606329616e-03,-4.309198590254261461e-03,-4.541026580241530261e-04,-1.899405991236057705e-03,7.720214634670737800e-07,2.149397356975631286e-03
8.529525569093556825e-04,1.102898386931629908e-03,-9.075743893833927711e-03,-2.602994503331437694e-03,-8.070534456982057315e-04,6.490448089141528584e-03,1.357268510106905950e-04,9.813957690687250771e-04,1.009297005056384629e-04,1.333345594074817220e-03,1.273171185600598283e-02,3.811309243277820336e-03,-1.096136844343397225e-03,-2.730478573642309377e-04,3.540984795997190529e-04,-5.617057743845746019e-04,-7.705011106094847642e-03,-1.365274779182247458e-03,5.980053574404585459e-02,7.087111931154291278e-02,6.730569808256563202e-02,5.748416100942360663e-02,3.800597173355332870e-02,8.536817264698683128e-02,4.334804218447243368e-02,6.522735202843929492e-02,7.274844687673870380e-02,5.687088584788151102e-02,7.338697031235068280e-02,1.381353081321867182e-01,6.469533841472580038e-02,4.659662726457262927e-02,-2.259323914606129260e-03,-1.044207444991247097e-03,1.955559176526716365e-03,-6.420469095753121623e-04,3.353242915807460450e-03,-1.149645367670512229e-04,-3.501142202016688590e-03,2.656556180262118188e-03,2.183787895225915664e-04,3.219582214611102240e-03,2.366428732003829360e-03,1.532976777616740878e-04,-3.044808203364368724e-03,1.713627671361269865e-03,-7.713827028715134957e-05,1.014936886025665950e-03,-8.231876149582300950e-06,1.250085255779553308e-03
-2.055213684146846992e-03,-2.731413394764057733e-04,2.933282870338262995e-03,4.090799668887834875e-03,-3.108338038378380321e-04,-1.141985508733201621e-02,9.362848443705637936e-05,1.106045514946499449e-03,-6.074027672246076802e-04,7.903182675200790376e-04,3.277266353105930813e-03,-7.811325274436685222e-04,-1.791971743104399687e-03,6.793865176195993403e-04,-1.062472231372138531e-03,-1.433887938930773526e-04,2.692376062297438272e-03,-8.158434578697730359e-04,6.547398773851600962e-02,1.025782885033059977e-01,7.444889313215775906e-02,6.881369697041211930e-02,6.209185677518456320e-02,3.419543581595156645e-02,5.905836724600287135e-02,3.569598100866594459e-02,5.785292328477997792e-02,7.808625258121019985e-02,8.984770001551088681e-02,7.049666102435836468e-02,4.446820642820581426e-02,6.966284765683534996e-02,2.284409988764648548e-03,-7.520739175907548103e-04,2.362523560903105266e-03,-3.898565615407737352e-04,2.162601838031914803e-03,-4.404463596694342328e-03,4.845404140626174971e-03,1.369151114944856243e-03,4.562445526015621294e-04,1.827772996013470562e-03,-7.948540422724121365e-04,-6.924326046026630467e-06,-5.873601585100155387e-04,7.531867292478323060e-03,-1.139367953245236750e-04,9.379013654160696812e-04,6.877214272133599208e-06,1.981624260136916754e-03
9.378030935272015740e-04,-3.278811680003453793e-04,3.969410127703782917e-03,-1.647360462630604889e-03,-9.832164050493791014e-04,1.826835532906824315e-03,3.276598380329105373e-04,-1.563480084841053358e-03,8.944924837025037103e-04,-5.969556384488093701e-04,-1.905570759147748447e-03,2.219937561602694422e-03,1.494786079626404763e-03,3.438878254339178546e-04,-3.238448577313427301e-06,-1.890333947246841629e-03,-3.876290110335742396e-03,-3.459237199158962314e-03,3.851155957955027659e-02,6.039654799449454409e-02,5.887705373809840048e-02,7.364053526010318207e-02,7.593108747524771052e-02,5.825937722182612799e-02,4.314806508489201636e-02,6.947573154977727816e-02,4.260966053644226620e-02,8.273492135154071614e-02,6.852979220321556153e-02,7.345369849536657891e-02,9.723386102142342335e-02,1.223358705190842610e-01,1.770372556947282276e-04,8.142018699495994112e-04,-1.369575763400769511e-03,2.622513605921389054e-04,-2.840393486685112000e-03,-1.094581962802865471e-04,8.659536239143410166e-04,-5.942457490523056149e-03,-1.119412030933809979e-04,-1.122941146964538542e-03,-2.837446861087180271e-03,-1.747427710977335455e-04,-5.087155916696249397e-04,-1.022442764108597371e-02,1.391553166195042338e-04,5.509937078151131091e-04,-2.484491858477399626e-06,3.423713304766679878e-03
-1.760768515657458368e-03,-9.110318105207330756e-04,-4.069221363054564312e-03,1.156054741733590673e-03,-1.192745891872902834e-03,-4.321507718426831519e-03,2.399879193905009778e-04,-5.920681671965529998e-04,-3.018788603669186367e-03,1.587852207931012688e-04,-3.754513936697499634e-03,8.137121156772461747e-04,5.991295457448775688e-03,1.375726290456335708e-03,-3.842844830723622478e-03,-5.325398900509113959e-04,-7.121342478245068020e-05,-8.981809809519103113e-03,2.731056438071191930e-02,9.923845181447808750e-02,5.890314469742642667e-02,8.139018662732003251e-02,6.058682782764273494e-02,7.299225683195910419e-02,8.836221177144418237e-02,4.248118551546180288e-02,8.145649826199596877e-02,9.088472718118480176e-02,8.980719406463330556e-02,9.455035229108302297e-02,1.275959228528582845e-01,5.900895051420249060e-02,-7.886182016966958482e-04,-8.142466650885236664e-04,1.852321659509372984e-03,-7.131558238041558443e-05,-8.304530607444919415e-05,7.362212386914651283e-03,-2.943618723411297342e-05,-1.209201128232826293e-02,6.668919066357568894e-04,-1.457774913009623639e-03,2.355696870034714797e-04,1.596424581648115849e-05,-1.277357534880173371e-03,1.328892128411562337e-03,-2.372100302565404242e-04,2.946294986692792918e-04,-2.234751615631304524e-05,-4.657695000223439213e-03
-3.732821256648774651e-05,-5.532183710541798555e-04,1.998433648320221707e-03,-4.278032578351863985e-03,2.797445842433922284e-04,6.802241895299851286e-04,5.927115302394175833e-04,-1.215099872160873770e-03,-6.636875928907044579e-04,2.100287033086461195e-04,1.857297040557122489e-03,-3.463774729166097161e-04,5.313830101938408525e-03,-7.887754993398839989e-05,1.102028073493681098e-03,-2.402524512895151329e-03,6.145931069222769320e-03,-5.391919038935420218e-03,5.258803977419655717e-02,7.406167592069132222e-02,1.121616403706417880e-01,1.044962873421315525e-01,7.459808718702633235e-02,9.672762549285524036e-02,4.003090404164739990e-02,9.222743336902027023e-02,8.383520196368032806e-02,7.863578722975395063e-02,8.244594582706100960e-02,9.310955406207781226e-02,8.300370741879041503e-02,5.778358482566015031e-02,7.669568729721990658e-05,-5.179212917427169702e-04,1.523945592838211755e-03,1.096067227994006752e-03,-2.458235275035242431e-03,9.110700319600220642e-03,-2.948666212398211826e-03,-5.053434930974909887e-03,1.476326416654918981e-04,-2.708501781588391541e-03,-1.980692125177311701e-03,4.355973892774383653e-05,2.764750533613283181e-03,-2.831115825932344586e-03,-1.870170533613254378e-04,-1.252194349823625293e-04,2.329587283246903574e-06,4.548683318700226345e-03
-6.612540753787422322e-03,7.509986921316719709e-04,-3.840133610311471848e-03,6.651669358795228798e-05,-2.685825268012200081e-04,-3.240373485277905485e-03,-3.095793049331382950e-04,6.132039644172741126e-04,-2.461333659516606702e-03,5.736830840149313672e-04,4.932315850298672234e-03,1.971684870612546434e-04,-1.711086746604322320e-03,-1.121239316735694099e-03,9.553435748551773396e-04,1.359529736436073527e-03,-1.713340787698660250e-03,-3.863204204081767401e-03,5.921596971306868074e-02,5.800824415040205240e-02,7.364358971760361083e-02,7.097716912108774368e-02,4.696653747092111031e-02,5.518110710094029786e-02,7.464826839895026545e-02,8.885975393350670215e-02,7.715040576700028796e-02,6.270957424679667047e-02,4.784140209027246821e-02,6.535298077961643193e-02,5.291144078723649530e-02,7.502713204343378073e-02,-5.905155962360228005e-04,-2.059063901506406717e-03,2.175576057951402386e-04,-2.225161748483596522e-03,1.902349634478743209e-03,-6.257778239035478342e-03,-6.161224159534833995e-03,1.159433055297416030e-03,4.580456611216785303e-04,1.104993294549703282e-03,1.521774886871418361e-04,-8.615597762186188633e-05,5.376069028939924705e-04,-3.097458340100132500e-03,-2.379332271860836801e-04,-1.514254616697355976e-03,-8.518206851786087656e-07,3.097690256706551147e-03
6.287756834701555084e-04,1.038023954985262858e-03,-1.662963816292520661e-04,-1.484213743363552206e-03,3.853965318610101296e-04,-1.765286203481750572e-03,3.165342568947809355e-04,-5.195094860194668894e-04,1.706001588837590625e-03,6.915653108077179922e-04,-1.248973439571304626e-02,3.175694886346065401e-04,-1.746336261700757444e-03,1.640317585276926610e-03,5.495108514821726549e-04,3.378662667194032819e-03,5.849104568054779366e-03,-3.141213164347852506e-03,3.951912192493143433e-02,6.079064244082902496e-02,8.599706778292917631e-02,7.336051469195330188e-02,8.823456941081200822e-02,8.864858209171497250e-02,5.882690999651845470e-02,7.550989183105596969e-02,8.905612903833085015e-02,7.990204062467062829e-02,8.129161964656027306e-02,7.819174345020037109e-02,5.431426260410225637e-02,1.005397705536668490e-01,3.014413605456238172e-03,-1.253605089471627240e-03,-9.184349713600055420e-04,-1.135106340243015495e-03,-7.878317214648451272e-04,-9.950553459240093004e-03,-6.719499469903412493e-03,3.321143552760246354e-04,1.081219414203716414e-05,1.807663783179037833e-03,8.636393771342256798e-04,2.712577696213909514e-05,-4.398427390999389876e-03,1.069895370203228493e-03,-2.019162814027149688e-04,3.339193184813222192e-04,-1.613868552859020554e-06,4.635373687848048409e-03
-3.552102553654646559e-03,1.600131459564987924e-03,5.645770011119284788e-03,-2.920186468103457502e-05,1.253662264178623861e-03,8.134955565999751653e-05,5.342628401457802855e-04,4.157400003808508419e-04,2.172852638570562170e-03,2.013953438511527160e-05,-5.443440151932502080e-03,5.793187873364549940e-03,-8.518106943067379892e-05,9.205318231437714465e-05,1.225537957637295918e-03,-1.116625073178478464e-03,-3.484641497433287397e-03,7.681806525964183889e-03,2.570393289543012466e-02,9.134615604236918929e-02,4.874605685433745089e-02,9.639643240284986869e-02,8.106519213977871063e-02,7.516527344640494546e-02,3.340337581297329883e-02,3.474844479526781327e-02,7.136210240549673012e-02,4.104155827050994659e-02,6.517694375561217113e-02,4.253395024728891249e-02,7.046574698583160656e-02,5.285594102755964557e-02,-2.109917834007543961e-04,-3.742710058043995178e-03,1.882436126348246887e-03,-9.007729391986583401e-05,4.175333745157458996e-03,-2.510423638312479604e-03,1.774640580899802074e-03,-1.260887871438079065e-03,-6.956144574890735319e-04,2.994168325978827441e-03,8.791718302725051422e-04,1.356243117305588242e-05,2.060030760389779374e-03,7.041371091292092203e-03,-4.177106176447385603e-06,-1.600946203840458194e-03,-1.498557141705990567e-05,2.716314946772996428e-03
3.640041658669492756e-03,1.775609089940555099e-04,-7.782054976660675132e-03,-6.585297912717691729e-03,1.783725770697002584e-04,-1.445925467603640952e-03,5.502877220653289679e-04,1.433301938784074889e-03,5.874885283135674241e-04,8.103382846305490217e-04,-3.613323538261443979e-03,2.763340206220190535e-04,-3.414923657129577579e-03,-7.446598094794822239e-05,1.099899295776459850e-03,-2.865932704541963361e-04,3.088622435800891537e-03,-5.493851132284237500e-03,8.404965117732698943e-02,7.290371774209018774e-02,5.574717520477274341e-02,6.473298005351096895e-02,7.124528292724630063e-02,7.210889452629487550e-02,7.513400026088579153e-02,1.064316474754053304e-01,8.455628872872589241e-02,5.222229006753361519e-02,4.764272216213439465e-02,5.542772700020386079e-02,1.206233187209886787e-01,6.124465284075922972e-02,3.003175389266591905e-03,-1.389761306800079256e-03,6.322895033645278655e-04,-7.883739266144143033e-04,-1.234719637572791878e-03,7.310326210640678314e-03,-1.223723001099615969e-03,-1.983585805401433862e-03,7.285133950209649597e-06,-5.295649661371277118e-05,3.777302053440768914e-03,-6.190063957640072482e-05,1.646803858818924032e-03,-8.131288290287889617e-04,-4.467102935481814330e-05,3.506655618565848623e-04,6.290695335595581358e-06,-2.446732944246428950e-03
-3.425199826278177147e-04,-1.501554089047241961e-04,-5.472376566374143915e-03,-3.522948886632413026e-03,-4.934844886824764094e-04,1.738233587355394192e-03,-1.349161896743132367e-04,5.223889056873269338e-04,6.400232983711326862e-04,7.258981877000657713e-04,4.946530533046683380e-03,-2.878400183202399140e-03,1.549920620203547577e-03,9.690259708063118449e-04,-1.800489017288643342e-03,7.207034460342808544e-04,-3.913813303991682015e-03,-1.040000993302227488e-03,5.010256111817609076e-02,1.189061378527480339e-01,5.983794387510254359e-02,5.158532799017279818e-02,1.031870825475627446e-01,5.299748258677906831e-02,5.433116537917238864e-02,6.300057275357054398e-02,6.920325953226058591e-02,1.102965674846324018e-01,4.101719105407464899e-02,9.733352138407430632e-02,1.020625430732528122e-01,6.555379697341343070e-02,3.246496337512266156e-03,1.289928911660902016e-03,8.285321610646504287e-04,1.758041024433881089e-04,2.162419606660085400e-04,-5.190119386681896554e-03,2.558130142393873208e-03,2.248892390899636176e-03,-1.548611364126366459e-04,-4.097624427605793887e-03,5.303300026206465324e-03,6.558126799966226513e-05,3.697750117783646200e-03,4.322840439086741461e-03,-9.459086410907181341e-05,1.016828801505062193e-03,-2.451730263211047522e-06,-1.189741690375749209e-03
-1.478937800610822693e-03,-3.750546668989367810e-04,-3.961217596446825473e-03,-1.696682142703553973e-03,-1.330778017280192160e-03,-6.382762169776823834e-03,-3.268236402599536817e-04,-2.188135734184867051e-04,8.107891644787975716e-04,6.518742648934931945e-04,-8.306162999462721533e-03,-1.746200274528203608e-03,3.757808038541862478e-03,1.215156879984290953e-03,1.733798148426062176e-03,-2.090659563978185687e-03,-3.201464534566563977e-03,3.948744153352832728e-03,3.521839239801075744e-02,8.019509884350270457e-02,5.914062688978653781e-02,5.906987320230168426e-02,8.791244758783640922e-02,4.888120222243341750e-02,5.935906799370998382e-02,8.124706886912946846e-02,6.848008989208603792e-02,5.619512483266993902e-02,7.113727520283615047e-02,8.778916166680833522e-02,7.627071374309329910e-02,5.351427110995229247e-02,1.149406254635384561e-03,2.625173354642444060e-03,-1.911673433738720522e-03,-2.430981900246697420e-04,-6.917288628087718723e-05,-1.685220518515969821e-03,1.628007664851733888e-03,-6.670022950494135933e-04,-9.136668015745778079e-04,-1.348720588820358007e-03,1.551948270840052251e-03,2.780254213863396896e-05,-4.109886112455906986e-04,-1.343827749426561476e-02,-1.122752429368601275e-04,1.583527321516718352e-03,-2.272961121265307642e-06,-4.141426998733708934e-04
7.744953246638561738e-04,-8.297158956327973850e-04,-1.360778886514896202e-03,8.330655873984812651e-03,-2.965635856355194216e-04,1.672773535130593929e-03,3.172087583069660779e-04,-2.594319325665537276e-04,-7.559310549263625271e-05,-4.053046145219841830e-04,3.501503368984055110e-03,7.691302171655974929e-04,-1.786072733921670059e-03,-1.229826299733332337e-04,-1.940642359106378115e-03,-2.592270172786606888e-03,-2.151573249598247013e-04,-3.366599541230212624e-03,8.214161244711147558e-02,5.438729970870401220e-02,8.955625837269104439e-02,6.016237075397829620e-02,8.110768845395265048e-02,9.577194209649345091e-02,5.729456600345883555e-02,9.255048316483133197e-02,7.013573043256596251e-02,3.210226550493039399e-02,8.064557683734485671e-02,7.716213899436923096e-02,8.768455889669359016e-02,6.917148942708549464e-02,9.244781667334302927e-04,-1.625008787497490229e-03,-2.584563939235462416e-04,7.147085597314338252e-04,-1.406937078499244029e-03,-4.852114725140066302e-03,-1.166470401084652433e-03,-7.562759600294226281e-03,-1.979094581929180334e-04,1.123246628327278932e-03,-1.706774981819876146e-03,-1.011026455644905452e-04,-2.550404429715380939e-03,-1.605027410903186015e-03,3.648706019469142377e-04,4.983913358736161842e-04,5.539475631115563540e-06,-2.244328591120333099e-03
-2.266479386495874430e-03,1.692905018429625638e-03,-5.760945788514368338e-03,-1.428490907173849637e-03,-7.069236902270096970e-04,9.909610617884292462e-04,-1.046440453878664080e-04,1.127224253223636959e-03,-2.465063065170503952e-03,-2.757336103187138726e-04,-5.699645781631250754e-03,6.297299248518838446e-03,-4.888516923653311690e-03,-3.188488311010151508e-04,2.109619891475767849e-03,1.682201247014116982e-03,-3.049836126202199946e-03,1.111368869423915925e-02,6.180504698675710895e-02,8.678093833498852494e-02,6.434435974345434350e-02,6.923131088686952650e-02,7.366233020602389048e-02,4.797853602683239960e-02,6.339232422859882032e-02,4.063000544733133546e-02,4.141337947495999511e-02,7.392648636345820756e-02,6.414911932863257005e-02,7.186177903452689586e-02,8.769606907707205856e-02,3.312776759715301000e-02,2.990332363836838755e-03,3.394561336240892483e-04,4.052312109195850575e-04,-1.034865038296569955e-03,6.641651392398341619e-04,6.930207505685635587e-03,4.979959114696764187e-03,-9.939402617905922568e-03,1.109711385195666583e-03,2.073233007752917079e-03,4.898156431423661850e-04,9.451380014086861505e-07,-1.260366816695216189e-03,3.068235050739698787e-03,3.577046091263579443e-04,6.632661453963360591e-04,-1.039721930516931786e-05,4.139798793186758551e-03
-3.454959743707952820e-04,5.994334474376782898e-04,1.699575474649119965e-03,6.275979275995995262e-03,1.264109755910612773e-03,-3.003996123922522948e-03,-1.623319877120911134e-04,9.157925186561785688e-04,-3.685967691090232738e-04,-1.391297902649458323e-03,-2.707115519107790129e-03,1.478490349895213119e-03,-1.808147547627495183e-03,-3.908491329652742327e-04,-4.815932381394914981e-03,-8.224367188271757998e-04,8.007128169295734408e-05,2.541510624782713709e-03,7.660231347126729429e-02,7.330215546191173881e-02,9.329787883706357199e-02,8.324613218105891832e-02,5.879041742394538334e-02,7.458441204864219021e-02,8.339535913936220457e-02,4.952208073261759463e-02,6.651239915265164115e-02,3.238030754069091272e-02,6.621830993367554263e-02,8.567915863586147984e-02,5.821793294278274772e-02,7.995193703596117918e-02,-6.758454331055154321e-04,3.237711618709481647e-04,-2.075499842827132919e-04,8.165612238461437648e-07,1.071292527485106106e-03,5.420211783028983099e-03,-5.802470990791583870e-03,-8.282115340091537664e-04,-1.342440601088233253e-04,2.052096467799574466e-03,9.250092514805683232e-04,-1.165046596000318216e-05,-6.815755141689713078e-04,1.597817471873615993e-03,-1.641544812763630692e-04,4.668515471735932253e-04,1.422289245294699973e-05,-5.533988227750219827e-03
3.700439916177274591e-04,-1.381322584206620078e-03,1.825443923660324602e-03,-1.354940225224104131e-03,5.367331804756000262e-04,8.171531145001364321e-03,-3.045906889454255391e-04,-4.114573158287830493e-04,-1.243708114263969975e-04,1.139558133982019857e-03,-1.374042191958274768e-02,-4.520165994690019621e-04,6.592582016328482446e-04,9.356860113505854285e-04,3.633293148007719908e-03,1.960909951985549248e-03,4.049272709338680269e-03,-3.697428061152039595e-03,3.414568133744995404e-02,7.499217775677764763e-02,1.183922809464685727e-01,5.516738553584733806e-02,6.859915780595363111e-02,9.687967106641433290e-02,8.728161470515999332e-02,7.638949886490496721e-02,7.366363784584432917e-02,8.667755481026041819e-02,8.686135143729946384e-02,8.831114299735423612e-02,8.693164624436369725e-02,9.288796705787340235e-02,-2.167357135753813103e-04,-2.915870375114816039e-03,-2.640952529486586316e-03,5.572768712681488908e-05,-3.627483765521947296e-04,1.535017218122685384e-05,-9.566793325160702702e-03,-1.559812654255764630e-03,4.572243908457190691e-04,-7.228648703239194152e-04,-2.491667681835662293e-04,-4.593439300496073930e-05,-3.367290944592418820e-03,-1.436083157765205521e-03,2.626548501079021191e-04,1.615332331909267571e-03,-1.876400122995440999e-05,-7.198189817895980780e-04
-2.848739426941472933e-03,5.462656296075416550e-04,-6.686314886650352590e-03,-1.484198815548413682e-03,2.154424836866784799e-04,-8.293256262683316874e-04,9.282719923641679076e-05,-1.450658488644837715e-04,-1.406585419624812672e-03,-3.415708437091064019e-04,1.219420920566364813e-03,9.080379349151644847e-04,-1.343560769637155159e-03,1.642795362258447911e-03,7.592919121807064492e-03,4.968938334587133824e-04,-1.513961720272483883e-03,3.382207219722635407e-03,7.076862285769376648e-02,5.263613352326122069e-02,7.527619463671557376e-02,6.547448318842839787e-02,6.317130265859774441e-02,7.207377867594592924e-02,6.956051051547433584e-02,5.478547414650388608e-02,7.765464937105381882e-02,7.548756922565309779e-02,7.523092048480264915e-02,6.866159147874167923e-02,4.585299786992853843e-02,7.381472041101835857e-02,-1.498548858965552486e-03,1.829589766117218014e-03,-2.418959175976102220e-03,-1.869354762954430907e-03,-1.539484024627201355e-03,-2.059438519130314497e-03,-8.734111700723109876e-04,1.255422720114674449e-03,6.749072691933458721e-04,4.747631067645555376e-04,-1.882878871371927677e-03,1.470077496194440434e-04,-2.033864093738773065e-03,1.163981096767920456e-02,-1.216263244688443206e-04,1.879872764494813471e-03,1.022436020936468143e-05,7.274977725450256470e-03
-2.825089619667744880e-03,1.755146181101382768e-03,-2.037761907054632705e-03,-2.949412917750664307e-03,-9.341664434589830226e-04,-5.279693525430244685e-03,2.042187066493284507e-04,-1.035331705966895631e-03,1.522541786771138559e-03,-9.204824525707048166e-05,6.818883862504904712e-03,-1.572975388893311979e-03,-3.405223028348509928e-03,-2.065376455312564839e-03,2.971163788736063630e-03,4.097356375107481449e-03,-5.270234520261607609e-03,6.403096373187462317e-03,6.139941668238690226e-02,5.755269352485471029e-02,3.626165124349122609e-02,7.817767971756223178e-02,3.527238484577160244e-02,6.228980697097390856e-02,5.078205251809360388e-02,7.584006856372098315e-02,5.891723826175537110e-02,3.738263239033876029e-02,8.650948457441080819e-02,7.130781960741336412e-02,1.165602734586186628e-01,6.229914749060054546e-02,-1.348802490040783850e-03,4.918805149727501934e-04,4.370534187693493481e-04,2.267211548359588952e-03,1.137483767301192966e-03,-6.908735585197222761e-04,4.044973007297483140e-04,3.896269750377978017e-03,3.426855532786147801e-04,2.401732186418766447e-03,-2.597671152071209973e-03,1.111862985627985371e-04,-1.076255007841473999e-05,-5.499042485694199262e-03,1.828673621596279663e-04,-7.567417712759792921e-04,2.047108781551660870e-05,1.461809458227757499e-03
-7.653661296808140103e-04,-4.055438059419192977e-05,-5.315718045445181998e-03,-1.890369446033156623e-03,-7.818560253863291777e-05,3.776907755294239399e-03,2.520342002490474258e-04,-4.047826434571909194e-04,-1.446530888213284514e-03,9.115682938502173496e-04,7.144844772983639574e-04,1.077729645665099004e-03,-3.173163959354680010e-03,3.818301350544051000e-04,-5.396922782258727590e-03,-7.964408981328662939e-04,-2.780818533514381550e-03,8.168419233142869273e-03,6.374019885898815629e-02,3.682435362614078223e-02,5.783161622000024954e-02,6.856244586413050290e-02,8.945402979837341340e-02,8.476864941496470296e-02,7.908821938634218174e-02,4.461112315243312421e-02,1.110547450748847059e-01,5.437498609707657610e-02,6.141240406684185527e-02,4.507947320679888542e-02,7.602795390028574407e-02,4.962654168126873905e-02,-2.958017196606673501e-03,-4.921982511791446555e-04,1.283225447874325985e-03,2.727852713782035984e-04,-4.715336703362311846e-04,-7.768833480962670027e-03,5.971530540109835396e-03,-2.456924647545239739e-03,2.087842580941276385e-04,-1.611361615165520260e-03,2.670134420898143818e-03,-4.576099276591623658e-05,2.229252490229894149e-03,8.796435853895501200e-03,-1.478419729722220606e-04,4.602068911341195175e-04,1.305109549452832180e-05,6.666033428929031210e-03
1.406211292225714856e-03,4.916835150298757640e-04,-4.137570249319082877e-03,6.050416822955062904e-03,-7.983893795405928992e-04,6.558795080810502463e-03,-3.474680227250671768e-05,1.927422584789444329e-07,-2.284759719494432488e-04,6.349166922958886022e-04,9.201874485133678533e-03,1.477422159593976643e-03,2.444848596158847014e-03,-1.494017492036294132e-03,2.790839173565280024e-03,-4.028914707316510351e-04,-5.510042760269829448e-03,-7.702493930862602421e-04,7.064333894273797099e-02,5.029647586918643831e-02,1.022857449280058090e-01,4.922525156194704210e-02,5.030644150133403020e-02,2.003398719812198719e-02,5.257595404200377659e-02,9.458277848826814049e-02,9.683904293894350646e-02,5.415794780823070254e-02,7.951684801329315933e-02,8.777380101121590172e-02,1.110770942303907355e-01,7.958467722477752249e-02,5.396908005913611138e-04,-1.929568115010526488e-04,-3.802946333525319207e-04,1.507825978594733714e-05,2.094455014977632690e-03,2.628753892920110413e-03,-1.419876044470642484e-03,4.113703938729902643e-03,7.120897013433946611e-04,2.258471180846940030e-03,1.656050581756589790e-03,-1.479901758056500309e-06,-1.946546507329872076e-03,-8.215441812688675446e-03,-8.269749959773239710e-06,-3.473912666263425948e-04,7.782050750006106962e-06,-1.706185667364610442e-03
-7.965513696522808417e-04,5.308719383305544577e-04,-6.113127466166956916e-03,7.371214604290519598e-03,-1.498152527683640264e-03,5.118693079760235640e-04,2.944411877601846197e-04,-2.513714665842015214e-04,1.261920213435505740e-03,1.931611386836935601e-04,4.095395385854260807e-03,-2.948656533863070524e-03,-4.300579533952768839e-03,1.497571727866886396e-03,-6.706169882800878945e-03,-3.941104027146021503e-04,2.827724546125575528e-03,1.634465245086095175e-03,5.745126343209666642e-02,6.969347932629235687e-02,1.283510387120277707e-01,5.898670528914276567e-02,8.072307119081510718e-02,1.820815886383923832e-02,6.536722406125393403e-02,3.934672774259640599e-02,4.969166508749500027e-02,6.003550239726987425e-02,5.549088756315542770e-02,4.208050522180649400e-02,1.017346485677900758e-01,6.355191653203909330e-02,1.636073778315768105e-04,-2.891895500281346527e-03,1.597322972375598421e-03,-1.061692983825748013e-03,-2.976353406235512401e-03,-6.548816996331192734e-03,1.825557114029703653e-03,-5.086849160391155276e-03,-3.432976805542135184e-04,-1.781364152233904210e-03,3.324548697195448595e-03,3.771220249739008621e-05,5.115428379757726990e-03,-2.985310274519536577e-03,2.140982402349039056e-04,3.399453888785304773e-04,1.236162946011224889e-05,6.193133247157256438e-03
-1.916114572828283300e-03,9.616234391389324575e-04,-1.327934470476866032e-03,1.656966425781502238e-03,7.062250680166061228e-04,-5.190831055811959138e-03,3.460765050882207714e-04,1.728946468781346725e-03,-5.144170479338721269e-04,-1.413511359827999603e-06,5.987679807381964328e-04,2.644847548527848227e-03,3.006564007394591648e-03,-1.656110116255223030e-03,3.303864696574847280e-04,-1.930798358743746144e-03,3.763932805004490800e-03,-8.964458326139238681e-03,5.548483896552068584e-02,9.028628098011176606e-02,9.812069845652378330e-02,1.171330930496586181e-01,5.357242655954856658e-02,1.032451981777059019e-01,9.868951987767626832e-02,4.115104441879278985e-02,6.223969682846224732e-02,8.043822704469767715e-02,4.915937332974688878e-02,8.980761640290185754e-02,8.080743116520627822e-02,2.786725533007998815e-02,2.454989938297663936e-04,-4.572391983728149915e-04,-1.264142233590353007e-03,1.515372414244887543e-04,2.346645410510354076e-03,-3.460163913511695583e-03,4.734298457021337073e-03,4.490884857976287347e-04,3.376408145668962474e-04,-3.295519279102979669e-03,-3.712367537724694036e-03,2.157972886599667935e-05,-1.589366728781743112e-03,-4.216898540176162655e-03,3.352119837514214423e-04,-7.799247106929092354e-04,-1.250285163660396210e-05,8.377012976422197306e-04
2.039603213690274752e-03,-6.917324642579473766e-05,8.362635567285179108e-03,-6.990501960264594930e-03,1.000413335798095186e-03,1.388363260273029138e-03,3.723896398993649837e-05,1.514675425374576053e-04,-1.180942317060542897e-03,-1.771132155768154963e-04,4.397980280675552363e-03,9.849382540300422625e-05,-4.237562321384145264e-03,7.237056595024062965e-04,-1.667505596752253414e-03,7.130236546613503241e-04,-6.642535775796991511e-03,-4.006022284189286395e-03,8.397389625704969329e-02,1.108077561839083958e-01,9.087033210809142281e-02,1.538107546600090726e-02,5.062476632299944129e-02,6.110766129386589751e-02,7.664404736060217993e-02,1.353161266442574617e-01,7.870113537948265903e-02,7.328916988776849883e-02,7.525168495863258922e-02,5.778538368709678491e-02,9.035323768406908207e-02,4.399459973662336182e-02,1.524698663786795390e-03,1.581074925615505705e-04,1.396140225291732893e-03,-1.692156123625616849e-04,-3.693773636814314844e-03,3.496755379776236329e-03,4.364585491351136680e-03,1.058447748031370213e-02,-1.604816945452695203e-04,-1.787051909699781654e-03,1.269302575122274171e-03,5.236012927358470951e-05,2.808480609301829286e-04,-1.414917587509093803e-03,-3.132438238094756018e-04,-1.962613880805885627e-04,-4.351344283856016889e-05,2.393252677987152757e-03
4.478660179381394697e-04,1.560753068980188975e-03,-4.672104021538824384e-03,5.706830454063883907e-04,2.278843685251304987e-04,-1.287894767350016142e-03,2.149437285979932498e-05,2.566134719480928474e-04,-2.116812733584739429e-03,-7.885621187415857675e-05,-8.510374936722873984e-03,7.992705785953973250e-04,-2.876929924228981833e-03,1.088976027351109621e-03,7.061706391319497265e-04,-3.635792056909461513e-04,-9.894584120017737607e-04,-2.777998022404262312e-03,6.772082071459842312e-02,7.541269592768704011e-02,6.510799001116644724e-02,6.232764293357273555e-02,4.980775053674012937e-02,1.149252320037611602e-01,6.425462521448425945e-02,6.928830169989703969e-02,4.639194331407216904e-02,7.722711893907825698e-02,7.163819189642986474e-02,4.600707199318342794e-02,6.532203322946134039e-02,7.924250056964424194e-02,1.346984833985243513e-04,1.114516371696935675e-03,2.725938535269367691e-03,4.817160124550911920e-04,1.221197371276893815e-03,-3.657360507811463143e-03,1.040434856202897447e-03,5.145054898351019042e-03,-5.083389204720439609e-04,-2.033592118061056022e-03,1.812456216130471859e-03,-1.059838845514377167e-04,1.699261545646822301e-03,-9.315937002706721828e-03,1.919594069868816786e-04,-1.651153391340782952e-03,-1.479792901033597330e-06,-4.187298049697921014e-03
-1.740539849223087182e-03,-4.999959453233473105e-04,-4.974658104372671821e-03,-3.324790317629041769e-03,1.800487095838834185e-03,4.030844302495213347e-03,2.721947041846289596e-05,-2.552311964360395500e-04,-3.260552417825186670e-03,1.269339973153437145e-03,1.322653783957088288e-03,-9.188962838424234074e-04,3.382127716515348319e-03,-1.121285872323257542e-03,8.278486688744795185e-04,-3.435577839984089760e-04,-6.377001256235872127e-03,2.300124493987724603e-03,6.429597102500796135e-02,5.736715170114214946e-02,9.588572402928594030e-02,6.351057763811984724e-02,1.241735579425743696e-01,8.921522392619754549e-02,8.261288862410205713e-02,7.468289947397109552e-02,6.964917410565212019e-02,8.427212242227172245e-02,6.940741648284569354e-02,1.060239314496023988e-01,7.543737250566671937e-02,7.015188480386336245e-02,1.586374171709158530e-05,2.918820157417816984e-03,-6.167632615038180473e-04,-8.036208681457622082e-04,-1.462530893027220395e-03,-2.617133767184004912e-03,2.041263171793142837e-03,-7.648161109946947055e-03,3.282771410745645478e-04,-2.523817581650910410e-03,-5.015108204017191488e-04,7.304328198376942220e-05,2.304236838340942978e-03,1.014338000143769807e-03,1.674585199222957223e-04,-9.379586293672552725e-04,7.432146165846588918e-07,5.460265123486629513e-03
2.902642345086439875e-03,-1.677255896709234698e-04,1.529180525530235207e-03,-1.509871943805045054e-03,3.835134843623155950e-04,-3.169165173373087851e-03,5.774671980110510566e-05,-9.486126175097761050e-04,3.771154784247413082e-04,8.429805916559922211e-04,-3.982586585927356745e-03,2.465667131057487291e-03,-3.228391002086264481e-03,9.081346258802324095e-04,4.319225961523540471e-04,1.403661511151903197e-03,-3.451908644849603029e-03,4.185256523037756598e-04,5.536863764327008830e-02,6.785560819029330670e-02,6.970964869164096578e-02,8.150005685708514025e-02,5.816490441693281110e-02,6.640561309173700910e-02,7.767542982825224873e-02,1.202654119248792036e-01,8.365747819874873314e-02,7.276428417415459204e-02,6.721984247954067293e-02,5.049619165889056988e-02,8.505154606249824834e-02,6.711161507780392943e-02,1.011312006797440943e-04,9.058443868088347957e-04,-1.535861150580736267e-04,-9.069818979428914923e-06,4.370325158373452906e-04,-4.867723355339362984e-03,-1.405787964681924759e-03,9.249590663787546005e-03,-7.429976381715721343e-04,-6.135546817817959914e-05,-4.693838496875761546e-03,6.688469942422638626e-05,-3.879495616201177163e-04,5.500812147730172602e-03,-1.221952918716707310e-04,2.195669266799438798e-03,-2.378394011665139595e-05,-5.890075041902710293e-03
-6.045259551765762513e-04,6.020083971671721023e-04,-4.847581979551578851e-03,1.939492333414354194e-03,-2.013573419469479389e-03,2.505633962663310777e-03,1.270451147200171238e-04,1.602303091657735455e-03,1.976609930857338958e-03,-2.606917501906665471e-04,-2.317581064157542975e-03,-4.338928166328166226e-03,1.655269903993531952e-03,-7.394780007932680223e-04,3.236521036891985142e-03,-8.359846907327972507e-04,3.268220822156483584e-03,6.482907814668968129e-03,4.824366814291663336e-02,6.726606101009532934e-02,7.435253476748848733e-02,9.689403654312622738e-02,7.033357842372502111e-02,8.683698264322879667e-02,4.776723017240816493e-02,7.865581861124987251e-02,5.941590045902205020e-02,4.994731787087493269e-02,7.626743920348952321e-02,7.878453773330548748e-02,8.788299247427983074e-02,6.261019639215786858e-02,1.872809663098858393e-03,1.654692845329038139e-04,-2.984693624587663884e-04,1.046233348631125986e-04,-1.301657344484296892e-03,1.628114234077534866e-03,5.075857218132509042e-03,2.221708861632825174e-03,8.156440175242732913e-04,1.993693601065069619e-03,1.357004856408024988e-03,4.814059178370448818e-05,5.805295486656246364e-04,5.370794841621532797e-03,-1.060563575684185614e-04,6.290030546429977495e-04,3.095172200145032774e-05,5.885069933906113401e-04
3.264408249962448202e-03,-6.525725975048204952e-04,1.960229317523363469e-03,-8.059980576770157251e-03,4.076936878985866594e-04,-5.444850919323473027e-04,1.785002532071023414e-04,3.293469308445208217e-04,2.689659531968952889e-03,-3.084439379135933495e-04,7.648918335626117386e-03,-3.693341077916169769e-03,3.386269226787308895e-03,-1.194027467236841541e-04,-2.790561196168898830e-03,1.384385455319505536e-03,-5.066177941199883489e-03,2.889617631284429385e-03,6.078814915953086040e-02,8.390380534867407369e-02,8.706684928508656718e-02,5.974075601836752875e-02,5.460674146118109362e-02,1.167262901305856082e-01,8.909991579203241363e-02,7.008010846961361395e-02,7.178003365503414501e-02,7.571327905776480127e-02,5.777279737734729304e-02,5.970442249904752557e-02,3.126384160469304618e-02,4.221497390235592895e-02,2.294854264316591720e-05,2.803730135193472240e-03,8.815365277134608584e-04,-1.007282225521826877e-03,9.063739116397929833e-04,6.928895466320990522e-03,-7.371843997825909892e-03,-5.417583371670541903e-04,6.403518666262229819e-04,5.528038229431020498e-04,2.825944445906873864e-03,-4.324276827754174576e-06,-7.152637394810547854e-04,1.741635806892332956e-03,-8.958062190516392898e-05,7.968508637553771076e-04,1.219817638987949650e-05,-4.944194829323697235e-03
-3.590137153266262067e-04,2.602625668410839602e-03,3.993607305419717875e-03,-2.108400265779861952e-03,-7.170410594135668073e-04,2.721097048531527333e-03,2.293635378853151518e-04,-6.398314930051774742e-04,-9.170441772307018997e-04,4.958117524207542558e-04,3.058352503748554014e-03,-7.409745131660417077e-05,4.296125389617337122e-03,5.578848088840574187e-04,7.126887328440419112e-04,-5.794093409149910293e-04,-3.704309886109870189e-03,2.069664888745211245e-03,4.991365819029634082e-02,1.015795040857870868e-01,4.104571577378555297e-02,7.998727795623880588e-02,6.864930132037082300e-02,9.205748601153847244e-02,6.310926720126733280e-02,8.195595869583403859e-02,5.112060778040109638e-02,7.055055112798599981e-02,5.163569612048066887e-02,1.126429086499436266e-01,9.495217936046128349e-02,6.030378578067045747e-02,4.516769477495159420e-04,-2.087247772994186429e-03,-4.367958876892723708e-04,-7.274027819517015902e-05,-3.100528057902984455e-03,-3.548863495458913237e-03,4.445068232856088514e-04,-2.946099567993234501e-05,1.510745981433292027e-04,-2.317245447895889109e-03,-9.492560838945629477e-04,1.049061970293793280e-05,2.049185559790836324e-05,-4.152558199356921366e-03,1.861703719749411255e-04,7.364117504389893452e-04,7.506830369181392326e-06,-4.021195093355788355e-03
3.587868213931528008e-03,1.384117040292795388e-03,-6.330212995443861013e-03,-4.608438406632172941e-05,-9.561483042716378139e-04,-5.436436104169918571e-03,-1.551219113668131131e-05,3.967910532334607875e-04,-7.993495896169022655e-04,5.988725797102904813e-04,9.545473233642307173e-04,-1.449570972442797579e-03,-6.804692367181426529e-04,-1.050480377880011040e-03,-3.843916960789012325e-03,-1.574040448963407812e-04,1.616152068825661573e-03,4.176775892520361196e-03,7.345733129667426919e-02,6.243271439952285257e-02,6.484898433988367517e-02,7.201663069931409089e-02,4.986088509132206859e-02,3.253668986037743655e-02,7.596911840892679735e-02,1.154484849108269456e-01,7.226595532784949039e-02,5.299222132067606811e-02,7.876981694172419113e-02,8.714582361690495493e-02,5.394448180100495233e-02,7.298460576269064082e-02,-2.894685243819698404e-04,-1.171156908853952404e-03,5.648858450778377824e-04,2.199697349100800808e-03,-1.403785343842253557e-03,1.143044081519610251e-03,3.181612331839779508e-03,-2.674401743362997755e-03,-6.079866565040337829e-04,3.064355315664141037e-03,6.479676900595003706e-04,-3.081151997460904499e-05,2.791642642599093723e-03,-6.052900228559297954e-04,8.907049325997932912e-05,4.327293361101290105e-04,1.074997974264860784e-05,1.773308703113025400e-03
8.958456307531533066e-04,7.200910147031086995e-04,4.654472222479908404e-03,-1.938376094757590781e-03,3.286700256760296439e-04,3.159262254134786053e-03,-3.460962489703350181e-04,-7.793503737621905198e-04,-7.484680944227866100e-04,9.919934269487312663e-05,-5.418404990065798209e-05,2.114526038200057086e-03,1.640335703916594645e-03,1.905500432446211078e-03,4.379373083242687689e-03,-2.462005905651137600e-03,5.102035278354835265e-04,-2.665929958337818432e-03,5.070808685134865768e-02,8.395387596395688379e-02,9.502526496583767190e-02,3.824241503606921194e-02,6.309915728030665583e-02,8.539259651431350961e-02,5.527887105697692344e-02,5.982888398307477373e-02,8.361483438318383088e-02,5.758643770956960173e-02,6.786928501422334614e-02,7.595789221317449103e-02,4.490242185354863247e-02,8.080211218411746665e-02,1.933006543328002948e-03,-2.027304245133036004e-03,-1.268585220079943661e-03,8.704799008993355583e-04,-2.548068449184785842e-03,5.182162760608998234e-03,-1.758472623622933477e-04,-1.139166095148976638e-03,1.278915690165316867e-04,3.926764993918675783e-03,-2.176387528894908018e-03,4.589166983284542485e-05,-6.812589652245760628e-05,-3.926170634810193899e-05,3.504745157177856479e-05,-1.533641465019502156e-03,1.933957147495681599e-05,3.282736146251483654e-03
9.658584165956699561e-04,-1.445410878011575391e-03,2.256630961328768246e-03,-2.531445067040782328e-04,-7.336843368428883170e-05,-1.811921189563458221e-03,-3.714438615570872840e-04,-5.460498800578668073e-04,-3.434140547064929187e-04,-2.620493250582457668e-04,8.093648156044205497e-03,5.564847609220024624e-03,-5.201165547334274039e-03,-1.604528336954507079e-03,1.530669344448796652e-03,-1.391647450786994734e-04,5.079651912976990147e-03,6.220467944137155966e-03,7.178680600353060104e-02,6.906176958541716815e-02,1.415499220206830056e-01,7.052015231753810953e-02,2.460746696718141627e-02,6.196350262669280545e-02,4.304697526024472282e-02,1.041173836657357660e-01,9.616841914082292775e-02,7.092587164389010934e-02,9.578510683488997146e-02,9.017360137494857819e-02,4.265067693832697709e-02,4.147062555940046746e-02,2.485669391835423838e-04,-1.038077062928735020e-04,-3.425435254213213634e-04,2.718828172556361409e-04,1.268579387910115201e-03,-1.165073134417954001e-02,1.608905992416994170e-03,-2.569728594124766601e-03,-9.846507183714540382e-05,-3.775056801948843428e-04,2.734552472031169263e-03,1.172572313827223649e-05,1.151658398607712007e-03,1.155672602768873132e-02,5.042176009712149182e-05,4.351443538471218438e-04,-4.824998392630800322e-06,6.832709765442831693e-03
4.125093194621831921e-04,-7.599517595927880037e-04,-4.305320600341598115e-03,-4.445219803882070539e-03,7.479235837427220760e-04,4.409394706799920315e-03,-1.325297158379822786e-04,8.090489282349283030e-04,2.270785146506421948e-04,6.270221975390879261e-04,-1.585707169825461421e-02,4.985066209230325576e-03,3.241156855364798767e-03,-9.174821920165454137e-04,7.975981384471052911e-04,3.076162219623897534e-03,4.057524323734909392e-03,-3.770232067363510700e-03,4.861505448466597185e-02,9.673981587956033412e-02,9.351128863026789140e-02,5.797659802530916173e-02,4.857619795310885030e-02,8.501267199986398126e-02,8.611454284768080281e-02,5.961483506711871827e-02,7.076427496753812107e-02,4.954528584528212348e-02,5.749307646938166955e-02,6.815296950434482359e-02,3.873476734160227752e-02,6.063619109303976934e-02,-5.715414990010282779e-04,2.140931692719427390e-03,8.360760587173679320e-04,8.612934949627157875e-05,2.110945351981791725e-04,-1.559728212180793360e-03,9.150088097218383315e-04,1.388510438689589998e-03,3.737430974820414305e-04,2.704722356870229122e-04,-4.989713835158150756e-03,-6.149868302931542547e-05,1.869461496841951040e-03,-3.251089046100488419e-03,-4.512322850566838025e-04,2.981576484951817523e-03,-1.219004974740655412e-05,-2.526677635792322178e-03
2.825968374219277844e-03,-1.376310925149029597e-03,-7.379252949597449492e-04,-1.948944889896306798e-03,5.700362432393799202e-04,-2.256915933034475165e-03,1.427155968877480137e-04,-9.207175012342804681e-04,1.893168751061964986e-03,1.092116379487970525e-03,-6.870296802482438701e-03,3.310905830008341625e-04,2.310287644644886795e-03,-3.068345488825583518e-04,-3.437923574901458751e-03,-7.121027593189149752e-04,8.186908089132681390e-04,-7.297248811206850060e-03,4.105940790721789024e-02,8.846524348561893292e-02,9.390221116334313001e-02,4.762918314355925331e-02,7.641769118089047907e-02,1.158039315101120070e-01,5.844498110310782091e-02,8.024037432181212182e-02,8.557326941135791343e-02,1.950469363383111610e-02,7.466335273407588569e-02,7.578204713167617512e-02,8.544281618976887205e-02,5.107380235745556663e-02,-1.821343638485710924e-03,-1.402924837792345102e-03,-2.715585731157955322e-03,1.099055013578935001e-04,-9.837728791211148259e-04,2.636398554551846150e-03,-2.960842197893847564e-03,-4.728964369446744462e-04,4.043079120036297512e-04,-1.560573675984387601e-03,1.228846368435965349e-03,7.733487007331075081e-05,6.092444497345104147e-03,1.199266993412561461e-02,3.370514205910192561e-05,1.273376831011965946e-03,-2.907212072456602392e-05,4.886957461741373368e-03
5.456003136575233829e-04,-1.465868714492909878e-03,5.206014749819461856e-03,-1.589577141250854767e-03,-7.823586471659470590e-04,-7.741155937436354668e-03,-1.669338415617702717e-04,-1.767154531285367589e-04,9.050800399632285284e-04,3.995348656407828232e-05,1.377847658178290701e-03,-6.460656924466695854e-04,2.824119485012798522e-03,4.789910547831725818e-04,-1.041521673658519272e-03,1.329805923906062209e-03,-2.177678782944197922e-03,2.049188765379631599e-03,7.617405696987386565e-02,8.887931046385405542e-02,8.245215989870594009e-02,6.693715461820474999e-02,4.222655390483871091e-02,1.107551688592058048e-01,7.189093153113038093e-02,6.528748389143286535e-02,7.983942978530059187e-02,4.934874239642444982e-02,7.931977916046592525e-02,1.031505814214714878e-01,1.038167864834398935e-01,4.880918604973549790e-02,6.343393246419615737e-04,-3.889910012505713049e-04,6.103205048321161310e-04,-4.442211669032275815e-05,9.264787582576643416e-04,-5.185320313528955609e-03,-3.372658162476194123e-03,2.310608912391498636e-04,-6.631750561801376962e-04,4.476128687386273126e-03,-4.739493981569620727e-03,5.053384116502517877e-05,2.421538840526844079e-04,8.608248427743363934e-03,-2.695823476031096482e-05,-8.526211554874531208e-04,1.171671587755367355e-06,1.038364972191216156e-03
8.246801347050752721e-04,-1.721640336270861826e-03,-2.216336464880702250e-03,1.310536827566312736e-03,-3.215434314722959153e-04,-3.563214045286449815e-03,5.054290597667975785e-04,-1.005404267307421096e-03,-4.167095516123778265e-03,-1.447685402831597710e-03,1.109448632365407465e-02,-5.237609927181694543e-04,4.800283957356271214e-04,-1.175800115471860221e-03,-3.371261945292627557e-03,1.417040568707997631e-03,1.354624943867528859e-03,3.183987697915893148e-03,7.067009730566359282e-02,4.916013831600492962e-02,7.871252387645787107e-02,7.083216356801626257e-02,2.583895968925062001e-02,8.059281591302598635e-02,8.944168788061172826e-02,1.082280727956728972e-01,6.247520326551452008e-02,4.279549510571056120e-02,9.198130116500129183e-02,7.893340392225557667e-02,1.043321297934501901e-01,2.924286218882910307e-02,-2.272688675048879781e-03,-9.499271443559543148e-04,1.313722366007052380e-03,-5.475730686332698949e-06,-1.609621621982044960e-03,-1.425051025200609490e-03,2.717570715588444284e-03,5.215032688962894201e-03,-3.803939581379313828e-04,-1.872635144636674047e-03,1.659108397934528495e-03,4.551207422786340590e-05,2.215375112690107738e-04,-2.828050925038969824e-03,-1.939808790381039811e-04,3.217611781170667752e-04,-8.043428502593267157e-06,1.986386332714099902e-03
-6.854699605627424851e-04,2.186812481661206797e-03,-3.460746360287915609e-03,5.620168792803841712e-03,-1.145634790729128201e-03,-1.625214023595275298e-03,-4.862770089008764752e-04,-1.179849101936961001e-03,-1.306943874176675735e-04,4.716913496605290947e-04,3.308481502419344245e-03,2.383366913027102751e-03,3.733466149511338161e-03,3.803134791250054877e-05,2.768285407826246401e-03,3.895708655543041730e-04,1.626860849703215279e-03,3.448877888304543570e-03,6.661939800185960603e-02,7.224972092797644907e-02,8.197001864069797250e-02,7.081185836802723899e-02,5.581108557200106096e-02,8.320094606504135903e-02,7.448181156823861782e-02,4.130403670041157826e-02,5.068236572757478520e-02,5.865045899986713607e-02,5.747609999437582051e-02,6.320111091549743265e-02,6.504945747453597105e-02,5.431694973012927280e-02,1.222657583118619891e-04,1.495943113562925352e-03,-1.999501723535833126e-03,6.361654424255472123e-04,4.004481046844851622e-03,5.332490622725535694e-03,3.684180239569362185e-03,-1.427834548211179744e-04,6.039434917055737330e-04,3.225181580326634979e-04,1.280612501072011990e-03,-3.198839801564961954e-05,-3.892818069778241057e-03,-9.824149094892267991e-04,2.198154467016107821e-04,2.874987098669481728e-04,1.781227640918489627e-05,1.078491744115786131e-03
6.928420056944833419e-04,1.179674995547382510e-04,-5.374498330776946754e-03,5.722629900168365105e-03,2.071797141400305315e-03,-5.231121538701162706e-03,5.465525421257628005e-05,3.949103563369964209e-04,8.781469096374751847e-05,-4.483224853073391504e-04,-7.788280818117191036e-03,1.891152210542169964e-03,-3.406539449221806116e-03,1.320991038019231519e-03,-2.122041754604144436e-04,9.385332933496547559e-04,1.411449917931330072e-03,8.039223734244482777e-03,8.080977148993472026e-02,8.714632595589009989e-02,1.041687732855807874e-01,4.562978565040295281e-02,5.279382477649348371e-02,8.327114088728758412e-02,6.031892817285377378e-02,5.577310992220368968e-02,8.901693887507890202e-02,4.334032665370481097e-02,5.922159343400831832e-02,9.414412319337889246e-02,9.441161581069858200e-02,6.080142159712925709e-02,-5.524917094710933850e-05,-2.051530064765086283e-03,-9.647964396474648877e-04,-4.473907992060670866e-04,-8.794920239090795247e-04,1.503045730956949384e-02,-2.791040421037436527e-03,9.877602859365957819e-03,-1.928094825683490264e-04,-2.971744155776912758e-03,1.465578628321974461e-03,3.984509096894570991e-05,2.706018097452929979e-03,1.767090001414353901e-03,-7.749096185965205822e-05,1.077897494401802643e-04,-7.849748863373801888e-06,1.917496564585035495e-03
2.230064339877319782e-03,-3.035474587369422442e-04,-6.508939697620198632e-04,-1.261365418632691762e-02,4.109553032181627211e-04,-8.026614498766994343e-03,5.304563360537514137e-05,1.124526240786688589e-03,2.460125683209411426e-03,-6.105482053880922043e-04,2.108889518549352405e-03,2.900525254803987848e-04,-9.828873790723542322e-04,-3.049305282441857755e-04,-3.442213135696172571e-03,-8.834068604497243753e-04,-2.356535046930842339e-03,-6.079444714437270665e-04,5.198545230195678046e-02,1.069654039170657295e-01,6.489659511438986006e-02,8.609779095481823186e-02,4.376921615088611578e-02,7.759775386421642607e-02,-7.407365717892497141e-04,6.989694140724653226e-02,6.289593113797312118e-02,6.302129029378608638e-02,7.861274317719982307e-02,1.053643133745729016e-01,6.653703974257969833e-02,4.985179078277091058e-02,4.429143572062512130e-04,8.235317591422575871e-04,-1.396836499461866872e-03,-4.742123717772399674e-04,1.918930189298995593e-04,-6.672382305892513715e-03,3.784524633721066556e-03,-1.535888692987816447e-03,-2.293090352086733753e-04,5.047208749802160541e-04,-4.141519788625612486e-03,3.642963900996514713e-05,2.579741298440744752e-03,-7.769490740107689968e-03,-2.034962546644415303e-04,1.895801776311392467e-04,-1.006868030303012056e-05,-5.309897090701089055e-03
-1.042217624253426959e-03,7.476136875246646406e-04,-2.522195686919387770e-03,-1.159805187126761866e-03,-9.115921500777266363e-04,5.262902962669123094e-03,2.062365407692444560e-04,5.323425111163240624e-04,3.666915204698068149e-03,1.299804824678816879e-03,1.950605785905009965e-04,-4.329519375048263702e-03,1.264020013351927450e-03,-1.672226144438582464e-05,-6.330513612707421543e-03,8.772441534258205564e-04,-6.902698045446694665e-04,-2.147552005746740812e-03,4.727919704456363253e-02,8.523460378227182277e-02,7.662927687166873336e-02,9.610436807117268831e-02,8.666446672569057263e-02,6.127389708640097049e-02,6.723767936251724697e-02,6.405399872040457021e-02,1.130466639766713050e-01,6.229469131218428463e-02,4.863939716740075386e-02,5.938421916917960286e-02,8.845201288668050332e-02,2.655374645105385012e-02,-1.002523637349516869e-03,-1.521534504783090061e-03,7.490089334802285627e-04,1.464367471392719403e-03,-2.704803319862640804e-04,-3.774088010635054564e-03,1.961063832074677203e-04,-9.642904892373590922e-04,-3.052297026627245153e-04,1.784413064299079183e-03,-1.635315325570184776e-03,-1.207463253383622470e-04,8.889170662713180777e-05,6.175210030447545947e-03,-2.205495650111680524e-05,2.127979709389263806e-03,-3.544946247862478044e-06,1.165663111163124221e-03
-2.366532009735738441e-03,2.697872331169363556e-04,2.222482117166176029e-04,-2.548889792468188222e-04,1.452057087279868912e-04,-1.698735272630181497e-03,2.237864215834933367e-04,-3.813224294611094350e-04,-1.064045218143801208e-03,8.993583971824986459e-04,2.096082224450732015e-04,8.315992377542199892e-04,3.252423367636241274e-03,-2.947971897315830548e-04,-1.537798414878672809e-03,8.569004227396324284e-04,-7.107311446011144521e-03,-1.199661891385461580e-02,5.485038661921259884e-02,4.859048018438377053e-02,7.331358007048820180e-02,3.574990325984116896e-02,5.437259218489669949e-02,3.771598157948181235e-02,2.331718817254034917e-02,5.488695806341707673e-02,6.970576431317852817e-02,6.554021124348979876e-02,6.952388303858160479e-02,8.272777582237866856e-02,6.859939817821639196e-02,5.791617123396090860e-02,-3.398645657470394151e-03,-1.362021077337261530e-03,1.188960152608668948e-03,-8.590682074813267653e-04,-1.517512949200985548e-03,-5.308540196624555660e-03,-3.567269558596050140e-03,-3.018065794414616018e-03,2.857508189284419658e-04,1.622045839631554298e-03,6.860071413326212857e-05,9.361385818188682381e-06,-2.627334021533479259e-03,9.636435708338015466e-03,4.191089271927833930e-04,2.018778039596654612e-05,-1.514411227300463786e-06,-4.452942960734184580e-03
2.610914318705878190e-04,3.766845056081673812e-04,4.274266076847100387e-03,-9.948059580949037556e-03,-1.377763550886661973e-03,6.122208248108884643e-03,-1.781384364252194710e-04,-1.411027037591267583e-03,5.842583423893056441e-04,-1.386949674702441329e-04,2.687175863535584165e-03,3.601635597739935406e-03,-1.925094743691812204e-04,1.257135794942147743e-04,-4.252849325591707627e-03,-7.944719835278646640e-04,-4.019398405400414066e-04,5.458656140501380810e-04,1.082314070814948542e-01,9.575508830809260907e-02,8.016540466877442039e-02,4.809432948590251083e-02,8.417942921088637787e-02,9.124734936482675751e-02,1.029746733323869540e-01,8.570913744664099276e-02,4.872470509174698511e-02,5.881023562852558811e-02,7.027210994560065260e-02,5.811096875297397379e-02,6.536960120495456661e-02,6.572884777499346520e-02,2.404910187097299579e-03,-3.451056639912997246e-03,-2.920703505514040402e-05,6.694740420024230046e-04,-1.066673747353860625e-03,4.320197029092349636e-03,4.736188887546361609e-03,7.452717226668461106e-03,3.409421608237725421e-04,-2.252166865542566763e-03,8.763900876318259526e-04,9.981843157341834503e-05,-6.320222173772152823e-04,6.851560327152331729e-03,3.443396291252837944e-05,3.233040891172341068e-04,2.138766064787633381e-05,-7.038402672485437805e-04
-3.163390121122349862e-03,-1.382958469726343212e-03,-5.599450589055461266e-03,-1.916957795035281265e-03,8.855160316974499323e-04,-8.444636141351121719e-04,2.745545916946660154e-04,-3.196626719615784109e-04,-6.411404843260395644e-04,6.098726038636951771e-04,-3.619435629319054173e-03,-1.481863177309872661e-03,-1.828730579537302678e-03,-1.330201550827212929e-04,2.469033745993396214e-03,9.779010387798894432e-04,-5.838681412305557830e-03,-2.396186276598516191e-04,5.565862801301627721e-02,7.243899458267666347e-02,1.055246737268542151e-01,1.155637552432992876e-01,4.016505510018843206e-02,5.923120500410283124e-02,2.516507518353745115e-02,1.217739077332472136e-01,4.182113590291045013e-02,5.317422819156448349e-02,6.801914182731529090e-02,1.326104045046294366e-01,8.301763383248052242e-02,3.436606490693611127e-02,1.117866601003437684e-03,-5.078747953711764285e-04,1.036456651777470156e-03,3.422804251569823561e-04,2.550037774395923912e-03,1.776703455926736822e-03,2.665482409655711964e-04,7.189479629461269705e-04,-3.865388625667748063e-04,4.834562083733616109e-03,-1.446696143659949741e-03,1.479334764136910169e-04,-8.009313787692649280e-04,5.567624074885993424e-03,-1.114812216130270410e-04,4.248274919796598821e-04,-1.029411591186116575e-05,-1.993627440328595620e-03
2.367273918324535806e-03,5.246383080617383915e-05,3.792678180487943666e-04,3.529434708769846329e-03,-2.549821307603548069e-04,5.952082160426188859e-03,2.961260774789038980e-04,-2.327818199826609197e-04,-3.690771931618324123e-05,-2.235497307841389017e-04,1.354176674745151236e-02,2.369391010507226371e-03,4.474855082691133260e-03,-1.031887416586607653e-03,1.883396924337899805e-05,-1.757401901739195482e-03,-2.033491596710501007e-03,-2.097049563889165531e-03,5.055394410103971475e-02,7.029628618490768588e-02,1.060978926542062439e-01,7.974520068668125572e-02,3.160154251522690610e-02,4.837900631611410235e-02,7.496518540127211638e-02,5.061647402468859996e-02,1.009851615973916816e-01,9.073628526384340531e-02,8.973858539322368544e-02,7.339588041089498138e-02,7.201331298117388813e-02,7.792536198433078209e-02,8.649742975561548622e-04,1.433405628068222873e-03,-1.191391639910580638e-04,-3.977463031932537978e-04,-1.206767334453081632e-03,-6.022316639030237360e-03,3.208504130477767523e-03,1.845533469227423088e-03,5.912353947984392340e-04,-1.012126999423476614e-03,-6.014946186737175383e-03,6.915094796665553181e-05,-1.598100684158336188e-03,-3.131971134848414006e-03,-2.713015909810096839e-05,-4.193650123906841540e-03,4.933071672343068657e-06,-1.921430675648373417e-03
8.828347913775627491e-04,2.828425549333519833e-04,-4.984465973737787874e-03,1.355828731909407107e-03,-1.264134021946823410e-04,-2.533761159654942738e-03,-9.669907101714804432e-05,-9.221030875198903869e-04,1.294808497244830320e-03,-1.205154108455345346e-03,-6.247679098975841318e-03,-6.643100487034170462e-04,-1.207926954782768264e-03,1.240675104988926084e-03,-6.226138220676480546e-03,-1.217944810959207440e-03,1.569973980931837826e-03,-9.749390442911169685e-04,5.545110446193673992e-02,9.006162813461107697e-02,1.147371268557805524e-01,4.835224373046715513e-02,9.999167147425840063e-02,9.429549614616154762e-02,8.190367896508474188e-02,6.463311966569665334e-02,7.103994708957803161e-02,6.596610901540124472e-02,1.006191594035749787e-01,8.140222236854720295e-02,8.455116875576322577e-02,6.787336196328307147e-02,1.820569075056225087e-03,1.202075578275105467e-03,-2.986819926605885703e-04,-1.497306291037133418e-04,4.693498152835230523e-03,-5.001755278993327662e-03,3.472363286857622737e-03,-2.417044801769267326e-04,9.755831580603240797e-04,8.208803265755117379e-05,3.330686548777718176e-06,-3.400394633678907575e-05,4.431678340536652247e-04,-1.498382021534527559e-03,3.499965158928403569e-05,1.456568127070849547e-04,-1.717510292832047632e-05,4.020373404954866343e-03
-2.323138086592575757e-03,6.071413049562992197e-05,4.703097754931999559e-03,-8.041695213355893679e-05,2.008587370862022887e-04,-1.313909780902247854e-03,3.598277431267995260e-04,-1.033497368368062807e-04,-4.862193331584836850e-04,-4.211339280870645243e-04,7.125104860344942150e-03,3.593114400999398517e-04,1.640803139848980626e-03,6.237715132238000077e-04,-3.049214944670612746e-03,-2.016007409791727243e-03,-7.701591081041336655e-03,-3.413805498703904786e-03,4.109745007268211792e-02,5.932329234956344732e-02,3.367231964649239351e-02,5.731134800586465405e-02,7.988111337938658130e-02,6.946746882818308211e-02,5.101763240146573591e-02,8.839418308713617445e-02,6.578802400341846046e-02,9.180308117936196444e-02,8.951494701446841007e-02,3.552777759138282809e-02,8.873854806677679286e-02,7.562995232593006101e-02,1.857680832926029589e-03,-4.012870011595118399e-04,1.631914767011037083e-03,4.709696669131233147e-04,-6.102765529481757496e-03,-1.803856874433611189e-03,3.213636781342636066e-04,-3.171491687324418975e-03,-5.481591440037758035e-04,-4.391120183017931523e-04,-1.245484068571760727e-03,3.738305611184094038e-05,4.775867264495450328e-03,-3.958030414412202873e-03,-2.004823841937028754e-04,-5.584913659421078232e-04,4.393850660121547255e-07,-4.905618096540188648e-03
2.516228598236178605e-03,-6.091865287637058396e-04,-1.925571723522361272e-04,-1.625175351070232317e-03,-7.390284991078837924e-04,6.621216827544458387e-03,-1.225668772497148784e-04,5.080642011391296774e-04,-3.712981321001511577e-03,3.424190039813164725e-04,6.996653711726801006e-03,8.116951708074531154e-04,-4.251353494817470234e-04,1.131500088831931738e-03,2.668122123129238344e-03,-2.158756988830051651e-03,-2.507369584163812552e-03,6.882772505998032211e-03,6.900139479736967785e-02,8.095474834903246264e-02,7.349604771106724166e-02,5.496046887521831292e-02,3.958589180761618725e-02,7.717889990164496228e-02,3.977401354556529822e-02,7.147157782880241006e-02,7.274936640925797060e-02,7.711949682572000198e-02,8.613039042768062814e-02,4.209369652001652973e-02,9.516971166339467658e-02,8.045136183851972489e-02,-8.678463027095359569e-04,3.657470234393906099e-03,9.452608615586118469e-04,-8.559604816630066908e-04,-7.813438937808564119e-03,3.373346229871824423e-03,-8.924884581284063968e-04,-1.341816758849480838e-02,3.952308950655222374e-04,2.655578874626319304e-03,1.484719239431056157e-03,5.800574999834924399e-05,1.372710110011249535e-03,2.783899408585107857e-03,4.026919487945726365e-04,8.910821609982647051e-04,3.232319512896465117e-05,-2.224779795020218141e-03
3.995600846162970614e-03,1.532563526090138925e-03,-4.814504017118290125e-03,5.886027666217001110e-03,-1.164613633264437089e-03,-1.758474923185351186e-03,-4.255089263466478870e-04,-8.824561497470027709e-04,-9.534530719140340746e-06,4.018357989370959144e-04,-8.585123577892832605e-03,1.364925629153684785e-03,4.584763253653668762e-03,-3.954045708262662710e-04,-3.993727400582772549e-03,2.538058978429332500e-03,-4.243539720936656892e-03,-4.077929882454782960e-03,6.894755830621297765e-02,9.801723738001746900e-02,8.286506596215935383e-02,5.095049363243508989e-02,9.157235056923657135e-02,9.189247188538275657e-02,6.784270504951174507e-02,9.752389066692458697e-02,9.722876126873175595e-02,8.120056715382867329e-02,7.257075171442189943e-02,9.472073945812536921e-02,5.774516202619128791e-02,4.829331114101879929e-02,-6.600141312352448934e-04,-3.193307193159592317e-03,-8.800423181426216641e-04,2.283011112731169498e-04,-1.155801362242583506e-03,-1.775199684213642649e-03,-3.739389569561259782e-03,-2.850484694294695438e-03,-8.135741556800623018e-07,-1.708072151796634277e-04,-1.952838479329885605e-03,4.089573636271195663e-05,-3.025567442716732580e-04,-3.290974451550056790e-03,-2.678228362332036932e-04,1.431747002638307032e-03,-1.654650661086046429e-05,-4.814297861719569766e-04
8.334925850456235139e-04,-7.316910695773581148e-04,3.670930502868984826e-04,-1.459573221369120984e-03,-1.191260165818727214e-03,-1.239686273481443155e-04,-4.886975616022930582e-04,-1.149304666457718737e-03,2.149191698727331151e-04,2.352176816089063011e-05,-3.402360921302031733e-03,5.374702528669033762e-04,-1.722462447106153007e-03,-3.763543180345128641e-04,-2.348426445000608657e-03,6.504186477557451392e-04,1.865469403380634692e-03,3.734814633198533032e-03,1.053304652888932963e-01,8.368320657086779357e-02,7.481065360196548220e-02,6.513996256346020995e-03,7.291304235830516067e-02,6.671268808213576262e-02,5.473274652685928415e-02,7.524605775750815850e-02,5.105406242315956022e-02,6.148582733930999661e-02,9.901468931669188400e-02,7.699013782023877983e-02,6.882825671924092115e-02,9.364268049052158760e-02,-1.218980539526357985e-03,1.863773257099777224e-03,-1.777804159164472471e-04,1.139932826328365510e-03,8.824561588401793949e-04,4.796059227645522310e-03,-5.944958278408816804e-04,-1.294257451251006443e-03,-3.678742186936970172e-04,2.697653035848559741e-03,-5.865788152771813030e-04,-2.005225768889889603e-05,1.271257854637124120e-03,-3.461763560148900434e-03,7.052417535861943475e-05,2.214944175588275997e-05,1.765159275022273311e-05,3.311392491241324336e-03
-1.232677827848189253e-03,-1.499209076700813064e-03,1.990239163324159302e-03,1.391998442486138418e-03,3.019766051027896760e-04,-2.675725738891843869e-03,-6.175426264183905790e-04,1.408277613767190597e-03,1.336550262657438702e-03,3.965034578723212837e-05,-4.103986421481255718e-03,-1.510778090983192932e-03,-5.284271093943271888e-04,5.618264205503007173e-04,6.213841737108035529e-04,-3.924254893031139772e-03,-6.687395567975244585e-03,-2.337522881061254634e-03,4.945180808135219569e-02,8.766725788903748096e-02,9.508799175293536354e-02,8.117002450414124992e-02,6.431429353818424177e-02,7.527805290801448113e-02,5.912104947196515636e-02,5.138102286693429360e-02,5.164828268317452759e-02,6.900263054284791475e-02,9.193444696157274110e-02,9.758158445178748142e-02,9.601962504098411622e-02,8.312234647437073687e-02,-1.110591774256290774e-03,-4.537807502140372507e-04,-2.973563650814200414e-04,-7.722588128097054513e-04,1.415187733315318450e-03,-1.309617858231075169e-02,3.245278191331449694e-03,3.435377101053485062e-06,-3.597471772985945848e-04,-3.069957792553639690e-04,-4.815648027017080043e-03,4.673612829463872807e-05,-2.604750023997151349e-03,9.586695078647666183e-04,-2.794509729315052611e-04,-7.129763838052819748e-04,7.502340992250569905e-06,4.145333768877055951e-03
-8.746817217095210128e-04,1.466169001696239742e-03,-1.300759709579769798e-03,-3.109006890028183628e-03,2.086646878122303331e-03,-2.520231330781356246e-04,-1.148857264123526281e-04,-2.541280821985591066e-03,2.902419645611732744e-03,1.473438114215573885e-04,-4.728530832696483592e-04,8.077679240578688850e-04,2.736764952913403441e-05,-4.733848261402904341e-04,1.109414603900884188e-04,4.475963079355708973e-04,-3.364287482894689606e-03,3.270341858421923348e-03,3.758466178078841841e-02,9.419419498556037829e-02,9.185113958436744164e-02,7.903686161560312395e-02,7.178879335514910809e-02,6.401710289314045677e-02,4.886762254513619258e-02,3.228385345638438292e-02,5.030305977052135225e-02,6.617732019295480272e-02,5.612810831026963238e-02,9.883252131860101319e-02,1.114711570654175615e-01,5.723201635274851456e-02,1.493001668255880413e-03,3.764538052674695225e-04,-1.976597536469722007e-05,-9.149474184439772154e-04,-2.886662024565142363e-03,-1.016012870186137895e-02,-2.906079914903377122e-04,-2.555498780296185969e-03,1.069145129321217170e-04,-4.643512821757322701e-04,-1.459696912646335802e-03,8.931445390506886811e-06,-2.238878921664180061e-04,5.625806591520089543e-03,-1.342035920101345477e-04,-1.319656948116867837e-04,1.395848488045076177e-05,-3.835217106269529341e-03
-1.762411773363366154e-03,-1.098644169254640434e-03,-1.554707641957634627e-03,1.278419312611609165e-03,1.018766072799123443e-03,-1.231875961458499952e-03,-2.995858768766745690e-04,-1.444897205776237521e-03,1.259860440622933122e-03,8.638044002235882373e-04,1.873470003599161026e-03,-2.482471355909100352e-03,3.654154201071740590e-03,-4.048758996488327142e-04,-8.383901774976545420e-04,-1.955835254651090097e-03,-5.039883829769144230e-03,-4.403145143372800413e-04,4.281495510147001471e-02,9.317789109963124650e-02,6.900603361740337283e-02,5.943554096971875172e-02,9.351008766771426450e-02,6.844170156303115704e-02,5.817831682908366359e-02,4.725729637121633964e-02,7.737285600177588873e-02,4.711970322250827459e-02,6.462195366045699052e-02,4.929595786295765808e-02,6.438544396260310887e-02,8.379250230683579770e-02,-3.861758658914850057e-03,-2.059234947582006415e-03,-1.610284294009898913e-03,-6.461674223908502783e-04,4.302261837424319925e-03,-5.887668865145086194e-04,-4.348730684626006364e-03,-1.690990941492146252e-03,-2.561661151652243080e-04,-1.215567425810757610e-03,-3.656461628070260469e-03,-2.424475511672926039e-05,4.615885560645546716e-04,-7.958442279021675156e-03,-2.288976249915772505e-04,1.311703599500654632e-03,1.242687284024904137e-05,6.320622865248517498e-03
-1.160400732974703952e-03,-9.078491602477207611e-04,4.258893299675223579e-03,1.761457243542077474e-03,-2.786647082002939005e-04,2.460748089611227742e-03,6.393474671798512175e-05,-9.634081893295482575e-04,6.114328270799681761e-04,7.648283697338684162e-06,4.238747307818835483e-04,1.876427877286941399e-03,7.571638005657358155e-04,-1.233384982110825737e-03,-5.299422677222558661e-04,2.216105786505043987e-04,-4.435127476064844310e-03,-3.536201253117898270e-04,4.486448871628292284e-02,1.260523921414072497e-02,1.090218518846707701e-01,8.246460752395810834e-02,7.283241964518437361e-02,9.349924082759271393e-02,5.531440579010755976e-02,1.234309662178687539e-01,5.704287055208258350e-02,6.079394786406360635e-02,6.654191659523379931e-02,1.115349778957290677e-01,9.218268743574939417e-02,1.056308503738373344e-01,3.052520633748587436e-03,-1.397732041594075677e-03,-2.516273335801140227e-03,1.839728410594446790e-03,4.542212844921301659e-03,5.478261520443223595e-05,1.046182770895572522e-03,-1.417011783404808394e-03,1.560418189340170543e-04,-1.362967943926226763e-03,2.197075290790231081e-04,-2.087115670595952245e-05,-1.129987825278319690e-03,4.337207290748859058e-03,-1.744885370899952137e-04,-1.118051831758985802e-03,2.071676053458399596e-05,8.494690017863890108e-03
-8.271699928169270804e-04,1.812219508935924766e-03,-5.387644769822893392e-03,3.691579071024015182e-03,-3.506300690616711180e-05,-4.979194732595963215e-04,-2.135664538158303140e-04,-5.179601980507540001e-04,-1.909194544464769294e-04,3.025920712090893444e-05,-6.914711526818885859e-03,8.725217972634119901e-04,-5.897495870555215800e-04,-4.162760095068283590e-04,-8.213823062035366515e-04,6.084667040464869069e-04,1.230229530734861659e-03,1.134118354815122874e-02,8.492090918798828048e-02,7.779239307367682987e-02,8.978542484873021368e-02,6.616929309843193330e-02,6.978230526647206944e-02,8.936006547792957333e-02,3.988428538380349442e-02,1.050694484612016144e-01,7.900653297046288104e-02,4.176996306761067423e-02,7.324671168346488792e-02,9.628332139934955847e-02,8.263131743403852314e-02,3.832474712814827600e-02,3.243316672223966590e-03,-2.194235154643731523e-03,1.606433158111939279e-04,-7.717013935237311420e-04,1.916651189552251184e-03,-3.492934535379365463e-03,3.419886770016309849e-03,4.855077252912372646e-03,-2.217332454763543581e-04,1.403060813055083357e-03,-4.119466046183670183e-03,7.880466285132943440e-05,1.256748315148889213e-03,4.112658972991579606e-03,-1.981538790418276485e-04,-1.662558388239672143e-03,-1.895391660590483099e-06,4.116989952297532215e-03
1.615900031732843108e-03,2.692403377790259585e-04,-1.433908031001210510e-03,-3.113310587873167022e-03,6.254920818407951348e-05,4.185023647559127369e-03,-2.118232243811502241e-04,2.415691874507199758e-04,2.028173988421890590e-05,-1.480181970051771775e-04,-5.049912489803559841e-03,2.017769126231704329e-03,3.341635057890176078e-04,-2.532605558194192421e-04,1.070047685743023098e-03,-3.301611681861448249e-03,-8.475705725291699790e-04,1.239020604902932830e-04,5.979555347708391533e-02,2.968467401241223907e-02,7.208704526689249659e-02,7.183152311481882935e-02,6.625525252872385695e-02,8.317794836509073697e-02,2.952653429760784820e-02,1.044503044758610943e-01,4.497837041866197677e-02,5.420848853545367357e-02,7.088179345370343443e-02,7.966398723745983512e-02,8.712324112393175779e-02,5.361943403166011951e-02,-2.721538516406806331e-04,9.488643861660445633e-04,-1.343100308644302673e-03,-1.055140790472295026e-03,2.458148592031382529e-03,4.550330116846592297e-03,1.447749342306662093e-03,4.484114941585237712e-03,1.766188223705389036e-04,-6.851380657738276401e-04,-8.879218973443887483e-04,-1.356059648571931825e-05,-1.995042387787917919e-03,-3.107942364898402983e-03,1.479165044490015301e-04,-5.713255947730688181e-04,-2.153722658951172481e-05,-5.333848495689611294e-03
-2.764738307446570897e-03,-6.154401580711115144e-04,4.259420963089595794e-03,6.514170898368956165e-03,-7.644958561653208409e-04,-2.167996876037742507e-03,2.700254384067286352e-04,-1.959841880303371791e-03,1.804174174265695809e-03,2.423603645871109664e-04,6.785163615616554567e-03,-8.676139558848358461e-04,-2.226395263367076348e-03,1.207749150909657315e-03,2.141709988361670172e-03,-3.970696971700142671e-04,-6.634564366982782617e-03,6.788403249313503798e-04,7.644201212885794183e-02,6.733434240175023566e-02,9.375017863424030262e-02,8.303294826195860290e-02,7.594793268656216401e-02,8.659911720111505840e-02,2.356109175023994237e-02,8.256548783656626755e-02,5.718387500198878620e-02,5.372348596081021749e-02,6.670607340053601175e-02,7.358615558266809464e-02,5.143645181416014317e-02,7.934817012573952555e-02,2.128914535262708702e-03,-2.129170413821023997e-03,-8.749963844334030351e-04,4.024573680298512224e-04,1.138689891010719437e-03,-4.293926069685766699e-03,-7.901085463832334486e-04,-2.862862006411086378e-03,6.030522779827417234e-04,-2.488083537356155107e-03,2.178129851683877505e-03,-2.804030710369821423e-05,-2.248786652127732905e-03,8.369201309571697861e-03,1.209604753154362960e-05,-8.756016108821303569e-05,-1.830800364511177476e-05,-1.734605122258897625e-03
3.048776165308293099e-03,-1.445668932835264108e-04,-3.721071228676558432e-03,-9.471338290348411265e-03,-7.969732771704591927e-04,1.708275543085024419e-03,7.338517298282190365e-05,1.138993081929875166e-04,2.039884827494827923e-03,-8.771127098814220785e-04,-9.048871170950581813e-03,7.008808002456013092e-04,-4.370518648190427000e-03,1.992780504251651270e-04,-2.936584390237362719e-03,-1.861551969055938493e-03,-8.428749933294511039e-04,8.742017984770329014e-03,4.689062727399131991e-02,7.423981560580379668e-02,9.547019399298987963e-02,5.697567141459713991e-02,6.099502073359346077e-02,5.745749089379709879e-02,3.601370036962971144e-02,1.007052169456970209e-01,6.265948906762996984e-02,4.509844364908317804e-02,6.884707266031321604e-02,8.198006116333483861e-02,5.952743273135530783e-02,4.154241488419042200e-02,2.485893986377638184e-04,6.047189576302353835e-04,-1.637658910977827359e-04,-9.177651254385528479e-04,-5.601016574068671400e-04,-7.054494170085645784e-03,-1.288446904564781968e-03,6.471595898228472629e-03,-8.686646531547735422e-04,1.712734348529948436e-03,1.136128227118250560e-03,-3.855669142893305794e-05,-2.678530091170156532e-04,-2.951777976619903918e-03,3.470905457456330235e-05,1.232262970412457883e-03,-8.558370168689481721e-06,5.425243647367517831e-03
1.105810359208023392e-03,1.568119832941335242e-03,-3.693449477041888755e-03,3.947712589995208861e-03,-6.704392095145406951e-04,6.021803578259233951e-03,1.805837997227260861e-04,-1.014535682268009588e-04,8.345797552426568316e-04,4.679729336120629687e-04,-5.249507219016380163e-04,5.256124969552487163e-04,-2.190635792061652886e-04,6.761446340709576820e-04,-2.387389530299524956e-03,2.521600188303833607e-03,-3.643266349799365728e-03,2.049762919378579022e-03,5.567946483837638710e-02,5.722972052974696633e-02,6.411008961800188088e-02,5.912934536797638529e-02,5.471305958749720505e-02,8.853492453803832318e-02,4.834961976215448182e-02,1.044243758392064680e-01,5.365759614853286147e-02,5.991928030529082572e-02,6.066081989231153493e-02,9.530895986075306470e-02,1.015820759925637751e-01,8.293579742195146542e-02,-3.388202597589268098e-04,-1.509833383616707115e-03,-1.735893498313534821e-03,-7.505859875494457671e-04,9.824638922432875430e-04,-1.517621124725365917e-03,5.973938955491140020e-03,3.399242137053643843e-03,5.441732391108632799e-04,-2.184957473717262424e-03,9.200860185913715787e-04,2.523973175878222746e-05,-2.720186045982695509e-05,-8.349670866010846376e-03,3.583366915679935514e-05,1.882741591048653438e-03,3.441533981167988826e-05,-2.757919381346427695e-03
-1.085086239376383595e-03,5.931595856381181907e-04,4.353461227892515065e-03,-1.188217488331875897e-02,-2.312512475123074693e-04,-3.873051030028522930e-04,-4.177811802631249466e-04,2.131750601300547079e-03,-1.994790408843120141e-03,-3.303304175656037204e-04,4.103237674452847768e-03,5.362808192857484915e-04,-2.807392045508911877e-03,-7.089600077055427082e-04,7.502778204546557521e-04,1.563918927641499501e-03,4.135573632082785445e-03,-1.196687446083317735e-03,3.802199833469400297e-02,5.567266794837370109e-02,1.148639144188782907e-01,6.399325521314372378e-02,7.046454093859000345e-02,1.630136276699917577e-02,5.834812324952047546e-02,7.673092830144560839e-02,1.247466527870500913e-01,5.713048460494082187e-02,6.566215593105491355e-02,1.129411750935817027e-01,8.193510085084339256e-02,3.753111904605042903e-02,-2.429592794238193826e-03,1.294084876918910783e-03,-1.249796104798059403e-03,-9.045339887750432958e-04,-5.214889172872994895e-03,7.378732339925612657e-03,-1.056305393224176315e-03,-2.777586413243384681e-03,-2.095926141108343506e-04,2.559080279716136573e-03,3.250379321535468245e-03,6.770780794354692544e-06,1.131218728784576114e-03,3.952047562781024238e-03,1.103973412440524044e-04,1.941928222237908515e-03,-1.208181674901843543e-05,-4.261230043059440094e-03
-1.775278649721603484e-03,-1.377843933930144715e-03,-1.706885496771743749e-03,1.714536500991020599e-03,1.264988920218027956e-03,-5.768509084903207518e-03,4.037647992394054170e-05,-1.491515961808254033e-03,7.454988118890215447e-05,-3.662625717437329354e-04,-9.755259086852522202e-03,5.835088163863475327e-05,-7.827397944749010837e-04,-8.301739975894583280e-04,-7.467955374643909941e-04,-5.465783676269388028e-04,-7.511583012495337075e-05,1.026231694681147954e-03,5.680596469786716035e-02,8.650033956410430047e-02,9.579864166037321827e-02,9.736352281566777733e-02,6.847316557915393564e-02,9.599469767991343494e-02,6.656302731937323303e-02,4.166904823469122499e-02,7.476187317042357061e-02,5.617763708845555093e-02,4.081833095448750975e-02,7.181977882624937526e-02,1.316849052929688346e-01,9.120050897331570539e-02,1.012612931242057616e-03,2.858454097464442189e-03,-1.331537211566827033e-03,1.842400045004705805e-03,-2.839881269739653619e-03,7.391503655463723885e-03,2.910523893075836303e-03,2.552629001914932458e-03,-2.691238988558029583e-04,-2.250884672145959855e-03,1.542430146526524871e-03,-1.360095797277785100e-04,-2.956775554063331701e-04,1.917389570655136238e-03,-2.766593601231361814e-04,1.710734716759872804e-03,-7.122960891262827058e-07,-1.648560032024422696e-03
1.765603390112214371e-03,2.366272119876965986e-03,-1.403136072083156641e-03,4.388726482544403652e-03,1.266180919394417365e-03,-1.043184284869585988e-03,-3.571482037382882335e-05,4.952614653669655444e-04,3.556169848462595079e-04,8.609094731505600529e-04,6.864885306023418669e-03,-7.115526276041750169e-05,1.508566864758170700e-03,-1.281453246513452118e-03,-1.843953019414153833e-03,1.296130498707180959e-03,-1.009386211103930481e-03,-1.535807558146440885e-03,9.921105231388345491e-02,4.697218739526622805e-02,7.650598162598185037e-02,7.885491183632978296e-02,6.161534108489669093e-02,8.436736249271527266e-02,5.063976559562503171e-02,9.614898562506545010e-02,3.630217322236304472e-02,5.844772473504412230e-02,8.449385090129619968e-02,1.032844164513416346e-01,7.978032920487308777e-02,6.467159764499189056e-02,5.035852681242438062e-04,-1.409132350319497375e-03,-4.542780461807492372e-04,1.773059286830906689e-03,-5.946283263335289462e-03,-3.843753318093111413e-03,9.514908457877885870e-04,-5.992779576493915917e-04,8.058944322790522136e-05,-2.218458889799731592e-04,-1.308305837014829250e-03,1.616282118974186297e-05,-4.831051812070947973e-04,-2.311230742918375745e-03,-2.967630396241060435e-04,4.325009608009400253e-05,2.022843811261118374e-06,9.913915068064005527e-04
3.749007606031491430e-03,3.912953230420052010e-04,-2.569620157502275869e-03,9.463032244299047916e-04,1.520206357824436510e-05,-3.796627130205097798e-04,1.536369013269892720e-04,6.644051134222849842e-04,-3.158975814610248678e-03,-1.736210386003517799e-04,1.258436906823924561e-02,3.524514537297463324e-03,-2.343400484197510035e-03,-1.226387549518722850e-03,1.332282889724566328e-03,-1.678719393069131888e-03,4.998664754166969211e-03,-6.244378158757749216e-03,6.428564028730997248e-02,6.496250462288044591e-02,9.096910978918308632e-02,5.036293652551217248e-02,4.268487423714269896e-02,7.064543405398600318e-02,7.900417773827204948e-02,8.744043218367261727e-02,8.695529263416598709e-02,1.059772369500304873e-01,5.641314921994186604e-02,6.279566455433928385e-02,5.277247495637744923e-02,8.609072300989754900e-02,2.422991578174140499e-04,-4.388694190048978566e-03,2.052283549210711863e-03,4.084434857945519167e-04,-2.376557875784340076e-03,-6.248918035595847457e-03,-4.670577733755925813e-05,-2.120871445039696369e-03,-2.180491924191695725e-04,-2.862492120166972519e-04,4.201343682067623479e-03,9.011238704020188366e-05,7.809422111417708067e-04,-5.560589110006325560e-03,-5.843426579217269153e-05,-2.283751130193587778e-03,2.179847795012283547e-05,2.463003507713885758e-03
-2.712855561179610721e-03,-1.470603864844563600e-03,6.650495865594468689e-03,7.207993806266986547e-03,-8.878458300094218235e-04,-1.647433210190151973e-03,1.173519784386572117e-04,4.281236558105888114e-04,1.061339110914648028e-03,1.039443051833928780e-03,3.314087090726353362e-03,-5.510892519413425122e-04,-6.179348678836938356e-04,5.530462419014553184e-04,3.090796489215282689e-03,6.088555445835755519e-04,-5.042246033479688000e-03,9.860773215247337076e-03,7.620074712498163538e-02,2.956110439752742541e-02,4.586679917570492954e-02,5.081582035126595842e-02,5.905896516642749478e-02,4.918129487134009770e-02,1.020592909514229651e-01,8.675339354074737552e-02,1.016542416937656762e-01,9.024559490399679251e-02,3.233829920517503759e-02,6.100428489658624859e-02,6.336963951406536510e-02,8.344049318395657666e-02,-1.169760110340752914e-04,1.360472518233703937e-03,1.236698508608525789e-03,2.489782637942332053e-03,8.731823349608184301e-04,8.856069762036308454e-03,-1.040690575287826856e-03,2.533656390605126818e-03,8.385748310559018007e-05,1.680010962408147110e-03,-3.421558315419603521e-03,-1.053013676072282951e-04,6.663616885586637253e-04,4.533194467170026561e-03,8.284752384009811787e-05,1.294228483709111959e-04,1.073317946876431981e-05,3.477141232261705961e-03
-3.634753624922478329e-05,2.860778302585018475e-04,-5.947990530313019414e-03,-9.327784889354763867e-03,6.953008759699031002e-05,1.665653714283048736e-03,2.153198414201529839e-04,9.775251866717630383e-04,-1.547661143900549117e-03,4.981556478983107565e-04,8.248823200099696107e-03,-1.592238857578334027e-03,1.294492456671375255e-04,3.717761053779134123e-04,-8.628435333893167021e-05,-1.478476228467523815e-03,-6.341041508676589951e-04,-6.279118998029764066e-03,7.681852824640907074e-02,6.021969012536089461e-02,1.070579487833334675e-01,8.070658685482169636e-02,2.386699251935576332e-02,7.301489266839099324e-02,6.135359373301802616e-02,4.783046907549817761e-02,3.699772350091816431e-02,9.031095706405178891e-02,5.905646072485331438e-02,6.345541558374007129e-02,4.295638208643717815e-02,3.748519929366767034e-02,-1.150490865687746637e-03,1.701054590512233100e-03,-1.406086558322640692e-03,6.265968142869939419e-04,-5.603502481217507471e-03,5.639632494672965242e-03,5.004609107026849113e-04,1.781647573715720899e-03,-1.151499984600712649e-03,-1.076927295195253750e-03,-1.425083730042463279e-03,-4.398751887843735224e-06,2.095014761650500559e-03,-5.805511508111246832e-03,2.297204491273086566e-05,1.670052204696004499e-03,-1.846969808807446035e-05,2.534449209954687133e-03
-9.361820656062583030e-04,-1.298289218636359014e-03,2.545480348889991255e-03,5.616299795400299388e-03,-9.613822400688942262e-04,9.229245526618170149e-04,2.639753979356324634e-05,-6.477577232717709240e-04,-2.507099033110799305e-03,4.659973437844025339e-04,-5.021977186917568614e-03,-1.806655749396279299e-03,-3.334596037428311753e-03,7.760203070374933985e-04,9.721426328929666082e-04,5.796743496679157906e-04,-6.846149423774242418e-03,-7.821215448718227790e-04,4.669155655874463601e-02,6.668176815685576686e-02,9.295680897002979448e-02,6.691448198471243447e-02,7.540591813261582343e-02,4.890613139436019580e-02,7.211415032585240248e-02,9.855676262309716329e-02,7.370799178335474267e-02,6.187295806596587039e-02,6.687802288442253051e-02,5.681444216597096586e-02,9.100484435986760934e-02,5.359945014390918999e-02,-2.046907725568182079e-03,1.168915961390048488e-03,4.936569553623581033e-04,-6.397558598668573937e-04,-3.048563516821556157e-04,4.042061662056966112e-03,-1.891702487049557791e-05,7.546407157772622859e-03,-2.763626812837815540e-04,-1.473820705957367956e-04,-1.214768364626034628e-03,-1.285186839337518112e-05,9.146413854073178222e-04,1.748884376385047507e-03,2.417349257973004347e-04,6.508087418089841196e-05,-1.548218677803253610e-05,-6.180915975771574151e-03
1.348580286990070428e-03,9.297686225791057611e-04,3.294714495919860101e-03,-4.870735842176780739e-03,7.711959150022971478e-04,2.844788290250747920e-03,7.198699248317354683e-07,-1.571065131822620923e-03,-2.548595641862470146e-03,8.657134129819656250e-04,1.340483324531826061e-03,-3.984494652967342405e-03,4.766750519022817066e-04,2.065084797718638124e-03,-2.858766679742935982e-03,7.330657326471120075e-04,2.313344748879451237e-03,2.227569195165231622e-03,7.606492328102625045e-02,8.985810785739294093e-02,6.955435572655357945e-02,6.750761737902144510e-02,6.092877469174986377e-02,7.389288514866802771e-02,9.005616197348029206e-02,5.395690259936625210e-02,5.893623885112540123e-02,4.819605049764051630e-02,7.119806123343765114e-02,8.923201242774382591e-02,7.551020069817750147e-02,8.124684719844202374e-02,2.472084561599988562e-03,1.514379277143803725e-03,7.365979651670570300e-04,-1.031168544721552090e-05,2.480381133936819353e-03,8.552326645609002742e-03,1.858669630217035535e-03,-3.655984179311220095e-03,-5.275017743111903509e-04,-3.702944088437144440e-03,-1.983960987724119832e-03,3.501572560136588015e-05,-2.242540791247227792e-03,-1.799252751476430228e-03,1.623777825794764894e-04,-1.011242122368591475e-03,2.811397815552176653e-05,-3.877279002055834638e-03
2.066982983124404562e-03,3.045906743897778906e-04,3.143885185189162958e-03,1.149365171592616449e-05,-1.217250644196302871e-03,-6.480599023186273296e-03,6.553271954140472847e-04,-1.004528172662852306e-03,-1.258069584375792228e-03,4.039082263785684205e-04,-4.983020718510912557e-03,-1.308508969149863553e-03,-3.765902139529014869e-03,-7.556063028247696459e-07,4.160188254540355692e-04,8.411545677503123571e-04,-2.206200831562340429e-03,-7.450158963194154120e-04,5.030264057675386952e-02,3.193998627950812852e-02,8.813560687256669079e-02,6.182136603030950056e-02,5.245047346085186107e-02,4.440174776756664748e-02,2.839810574430787909e-02,6.111498249750266232e-02,9.231695415550308925e-02,6.830707423429409342e-02,4.861643314315083897e-02,8.891187822530791096e-02,9.844340483035197986e-02,5.780221618379545456e-02,1.469284079053792547e-03,1.293423962011692671e-03,1.998708538819843480e-04,1.877299694059660681e-04,1.676887956856176276e-03,-1.156936021280159481e-02,-2.749256077082151586e-04,3.107467491324320680e-03,2.310009901768310218e-04,1.924875035895456086e-04,2.901731155374730908e-05,-3.888333295361489473e-05,-1.306570777948488785e-03,-3.159506112506364327e-04,-4.419948880143016696e-05,7.895172473284303022e-04,-3.144708070298805682e-06,1.898724697005456461e-03
-1.776547045781408027e-03,-7.024528734847127311e-04,-6.594489637761691801e-03,-6.286415385360819268e-04,1.282194941900869321e-03,3.269680654326447260e-03,-2.003048425963127350e-04,9.747315178095458405e-04,-1.180464458450739169e-03,-6.085231934523690610e-05,5.996001016934941232e-03,2.436039139367844608e-03,5.016503334370305163e-03,2.975678755710437200e-04,-4.925725839746132595e-03,2.626188636923059219e-03,-3.438648324927674922e-03,-1.494030182992032042e-03,3.057093553628740731e-02,5.453088309569116554e-02,6.059138311372092717e-02,8.557282934891011217e-02,7.413302167576368840e-02,6.373279153174492284e-02,7.356864424939878189e-02,1.079755775313526039e-01,7.838304488733419118e-02,6.604113374994483032e-02,7.388352023591340800e-02,4.008129232662102637e-02,8.085418900382562724e-02,5.218761678547374772e-02,-5.921539528250255790e-04,-1.845740232733688235e-03,2.381295880155679095e-03,-2.111372663997278471e-04,3.031651031606779918e-03,-1.192364583949892358e-03,-4.696942187150063850e-04,2.831662001156709258e-03,-5.539300100171271328e-05,2.973058524968346782e-03,-3.787323275172768677e-03,-1.983926527750561099e-05,-3.994239118411487715e-05,-1.036915875089153066e-03,-3.588294194160385913e-04,-3.431563260635308904e-04,-5.933464782881383908e-06,-3.212812073075429608e-03
-1.977791745748928767e-03,1.776729020124706267e-03,3.848191495484093580e-04,1.006473988624948315e-03,6.401223078364353465e-05,1.489425844649655290e-03,1.734719956520190762e-04,1.617068078632890931e-03,1.369551842663869340e-03,1.448204836351010014e-04,-4.277610232633045038e-03,-6.495008297886455118e-03,-2.983741067068024569e-03,1.092017889738948998e-03,-9.696843140046799590e-04,-3.026135675028950706e-04,6.008151833233692750e-03,2.353896769172237908e-03,5.150815305537877892e-02,5.793040143816153426e-02,7.877516244286006386e-02,5.503006160085922166e-02,1.135890503650352767e-01,8.135307720897749784e-02,6.266978673108686282e-02,9.423824212792912547e-02,6.652177059594052699e-02,8.333315833198438882e-02,5.280294931431474964e-02,6.782411036732839682e-02,6.322758546958043291e-02,5.802372116165014498e-02,7.611454481021290427e-05,-9.468483440369374190e-04,4.155485532910783313e-04,-9.156525491816910976e-04,3.753712820461562599e-03,-5.526600580000680732e-03,2.835661219978200757e-03,-2.760181320485958958e-03,-7.027504400323074992e-04,3.221606767880910455e-03,-5.225236576838493277e-04,3.977297525560970014e-05,1.690358500571273979e-03,-9.221241464207705074e-03,-8.879420546547527190e-05,4.421706621409515281e-04,-3.710859511109848841e-06,-1.738423961285376666e-04
1.789412472382943950e-03,-2.776404563333947743e-03,6.739319254467139760e-03,-1.951331297398335718e-03,-2.145637439618443580e-04,-7.329347760458524222e-03,-4.230328203581747268e-04,-9.939222012231264339e-04,-9.560413333547192931e-04,-6.955975829717807139e-04,-4.615715896816857157e-03,1.769577558816127745e-04,2.796604255987372202e-03,3.922420093252504611e-06,-1.319894384317111180e-03,6.973587939344861068e-04,9.401725204283743016e-04,9.082596277689780964e-03,7.043215848775129240e-02,5.925196207583625918e-02,6.952898853540026569e-02,6.251429843224680372e-02,4.997239782172241407e-02,9.668963680402563321e-02,5.910590961582646435e-02,5.059672520248136712e-02,8.607272749345458440e-02,6.000250336997358519e-02,5.832582244136923222e-02,1.205376618218703538e-01,9.423925606376729047e-02,9.665742023609047440e-02,-7.518189677772434522e-04,-4.620956234601348233e-05,1.154363388287852574e-04,3.707354856554008439e-04,-3.130406307281534926e-03,-1.884171242126317499e-03,1.410334093027192136e-03,6.188614444146954725e-03,-5.174082787579503337e-04,1.690164970221206186e-03,-2.830250051682769909e-03,1.373480599342778744e-05,1.432594612259293536e-03,7.538725131470660340e-03,5.601395419360543802e-04,1.539073920558665497e-03,-1.661475638794865405e-05,-1.201947435676914118e-03
-1.979416987038292580e-03,-2.404710071683800396e-03,-2.502638565179316280e-03,-4.242093934372125411e-03,8.768311867717616930e-04,3.540878893783588281e-03,-8.247578298332970128e-05,-1.020905164393407427e-03,1.791605548742148050e-05,8.439871202936103951e-04,1.193558990112855538e-02,-1.823186263774538964e-03,1.076695871826053533e-03,4.229276224308489121e-04,3.149284367336695808e-03,-1.348594460956957768e-03,-3.803928659970635690e-03,-7.342776748581573108e-03,5.890701551410720133e-02,9.195799998868427194e-02,8.140641928789693615e-02,8.319886800459919129e-02,6.382894038617212273e-02,8.080361486818463113e-02,7.927293864534606938e-02,5.799163449425064065e-02,7.724904262073033212e-02,1.536190694219760622e-02,5.581861925359084264e-02,1.512755638707235506e-01,8.090445022592079871e-02,6.624971980411038797e-02,3.867695270594868982e-04,-4.250949772971131073e-03,-2.853525423119820416e-03,-1.841656200977760747e-04,-3.255495949233818461e-03,7.093622037161346865e-03,6.843989775175824113e-04,1.894066366296472560e-03,4.683341583758425297e-05,8.344554902272891071e-04,6.408631283294783168e-03,6.785605796699010366e-05,6.852886207483533700e-04,-8.388883151382727291e-03,-2.342917569038880602e-04,-1.358025444278881813e-03,-5.294769696586537156e-06,1.046179524646939120e-04
3.598094524655463637e-03,2.225817288442995994e-04,6.153937758518089000e-04,4.624693683097932419e-03,1.630063149197813564e-03,2.971241238683133053e-03,2.761009408973597967e-04,-6.904913266345964317e-04,1.658261283019062246e-03,-9.805232188399314909e-05,3.178067420736506530e-03,1.023934360026758405e-03,-4.739951912369189807e-03,2.084115802480857526e-04,-6.051732811956853954e-03,-1.947569925815700051e-03,-3.863716829142467904e-04,2.108984757618524719e-03,8.258340611002989995e-02,9.620347923479187491e-02,9.669477797923164974e-02,7.401588530453100112e-02,6.187264326809940873e-02,8.861347958203691366e-02,7.994803703368951603e-03,6.263709034361096550e-02,1.012739612788902954e-01,5.320157188988106772e-02,8.204455381273391412e-02,8.694978535307744394e-02,6.892500431337396372e-02,8.865909980992631167e-02,1.027287737840292111e-03,-1.190795070285364252e-03,1.473481837488961870e-03,7.088922176418069494e-04,-2.206095540313218143e-03,-7.390936747903997274e-03,2.516035331062256835e-03,-9.180148849443910781e-04,-2.604937295620433609e-04,3.214614568887566907e-04,-1.307842316327529958e-03,-7.250202450270600777e-05,-9.953314481647234193e-05,6.246086252915745290e-03,-8.727811323748202704e-05,-2.148771712497644058e-03,3.560043188900550705e-05,-3.279670100279095512e-03
