5.707352054935559311e-03,-1.408344820838955229e-02,-4.748297749752251017e-03,-6.332861751443714937e-02,-5.819250478808665056e-02,-6.548196274332290789e-02,-2.023388758151223321e-02,-3.406174682493460365e-02,4.874115703622623752e-03,-1.846975421212949985e-03
-1.413236318979274207e-03,8.503449025313360729e-04,1.247521752269536944e-03,-3.736782791020504951e-02,-9.465616312689957568e-02,-1.697268242878725575e-01,-4.077021531648358788e-02,4.387892780807107346e-03,4.465081497552566940e-03,-2.193907605792058593e-03
1.358774400426985066e-03,-1.290636168894389139e-02,-5.320711796713874231e-03,1.020064771278952030e-02,-1.323815746118542358e-01,-1.501287007422066611e-01,-4.976672975209822658e-02,-1.243108626673030889e-03,4.442080575138874186e-03,1.706514412040839937e-03
-3.367739147288632481e-03,-5.976506097685667200e-03,1.048732809462040068e-02,-3.731513015974318587e-02,-9.478195385791971309e-03,-1.209572763212233698e-01,-1.887996394284664203e-01,1.876405013471754701e-02,-3.160404509713329608e-03,1.966350660060956369e-03
-2.453051993553962123e-03,-7.951166163315028781e-04,7.636194754981911852e-03,-1.188334197193296610e-01,-1.105423611785424920e-01,-6.675910914846934496e-02,-1.262861807051220697e-01,8.928548517477088650e-03,2.052499877140393642e-02,-2.340814720148202011e-03
3.973616934614218610e-03,5.381326493670567611e-03,-1.052555481154199279e-02,-8.156703979166289240e-03,-7.999497537570575412e-02,-1.273739157820922008e-01,-1.046899015205023514e-01,-1.642479050781893782e-02,3.087292850231843858e-03,1.004724293190357868e-03
-6.927009066385694282e-04,-6.366552479101950102e-03,-1.417952197050222247e-02,-2.205369617239029412e-02,-3.747595520527829960e-02,-1.254305392575852662e-01,-1.093715827865074514e-01,-1.686330071011091225e-02,-2.441097550096056525e-03,2.772923535093757552e-03
-1.985905410137631371e-03,1.398286398221732472e-02,2.550080215290712396e-02,-2.788662338613745895e-03,-1.475048160456810808e-01,-1.931173464341372492e-01,-6.600445486201493572e-02,1.059479395339880080e-02,2.423039106439967352e-02,1.046605928063009013e-02
8.439430049426835390e-03,2.373262425372089576e-02,4.055224143803722731e-02,5.350463036732281408e-01,2.359477770668557892e-02,-1.445728583736643515e-02,1.010476108457378230e-03,-3.851644929814203918e-03,-4.211374969357869341e-02,-7.636771420988317655e-03
-7.410003788602549657e-03,2.158199892125076905e-03,1.583390977326865415e-02,-8.682289882534290071e-02,-1.200943215537452341e-01,-1.385202756182357942e-01,-6.819734881345750066e-02,4.503941824150516082e-04,5.700068361153790876e-03,4.004314534891605971e-03
-1.183934243891046796e-02,6.104547196686028890e-04,-8.758530098032514880e-03,-1.184469819415791790e-02,-7.749857361226769603e-03,-7.396592438432955663e-02,-1.336273855356653051e-01,-2.799300050535547760e-03,2.166515907682822067e-03,-2.213424886319671162e-03
-2.905498902613967466e-04,-3.239927164759910660e-03,-2.957450466727448712e-03,-3.566134371716214984e-03,-1.095078663935796920e-01,-1.960618078859967250e-01,-2.921035749953073204e-02,1.293970612920075777e-03,2.372020949002561288e-03,1.370061711050783899e-03
-2.916666446362627466e-03,-4.609933621402288219e-03,-2.045776779648149444e-03,-4.169990208135242876e-02,-6.729589599603479078e-02,-1.000610561765718498e-01,-1.351575094919148234e-01,7.906038659932645637e-03,1.061754856593975088e-02,1.672518866095159401e-02
3.609930251696355074e-03,-9.769180667348787914e-03,-7.046144355183434592e-03,-6.609131459249213691e-02,-7.827640447513732613e-02,-1.070298679391873259e-01,-7.889022397261281905e-02,-2.305007114783442221e-04,1.580635267536592906e-02,-2.882024997676348611e-03
-5.076129121968980459e-03,5.313781661405913605e-03,-1.091055891094688118e-03,1.800331501068938231e-02,-9.679751634272798499e-02,-1.925543129165433465e-01,-6.590607898549803723e-02,7.063573749402030956e-03,2.970104868320598904e-03,-3.544066794099744525e-03
-5.841110795363022891e-03,1.622471982756102521e-04,-5.997834127986570625e-03,-1.197448834100826691e-02,-6.460823946662032358e-02,-9.970105757066805019e-02,-1.433741864560834633e-01,2.381442120209339985e-03,6.280538870107883753e-03,-8.358286985253779097e-03
-2.629553662253546892e-03,-5.753548687985489581e-03,-2.388017108292343933e-03,-1.944207436921993951e-02,-7.763298695448968278e-02,-1.019404189250096571e-01,-6.633456814386838596e-02,7.957724318566734845e-03,7.022377254885223824e-03,-3.084505924637381824e-03
-1.128480837804536618e-02,-1.532148270475011675e-02,-2.324532993966340038e-03,6.298739112199919091e-04,-4.927865356859784801e-03,-1.930046746317659323e-01,-9.465661261040912711e-02,8.097228612991672764e-03,3.211574766660023686e-03,-3.596654500301920895e-03
-3.478083709002988133e-03,-1.680770420051109701e-02,-9.227615040999415444e-03,-3.969973477696247394e-02,-9.626352417215938706e-02,-8.881875044859542656e-02,-8.451665734680190167e-02,7.694356327703156563e-03,2.340869304817817884e-03,-3.844577383000607421e-03
9.339837705302781378e-04,-1.503162566055561309e-03,4.801568071617672712e-03,1.097644900998573370e-02,-6.598017408606506040e-02,-1.695644385475305604e-01,-1.242374672190350582e-01,3.182712980204892381e-03,1.131592116507704193e-02,-3.583524873291632409e-03
4.437921517117100062e-03,-1.032848094201699318e-02,8.295498381766670468e-03,-4.064885186216000285e-02,-1.177400834406465702e-01,-1.392426788982757124e-01,-2.375346472819453436e-02,-5.000439060796876833e-03,-5.142270173043138196e-04,-9.890309124928962914e-03
1.153679243018629341e-02,8.958755092984120941e-03,7.382008550985368241e-03,2.778683234095132709e-03,-3.184120492567566602e-02,-1.983808844107426417e-01,-1.048755094154574241e-01,1.889205149678812451e-03,5.472059136750948710e-03,-2.635111587333948194e-02
8.543541669372725633e-03,6.993030585352967392e-03,-3.715139964514184347e-03,1.645637897601204269e-02,-6.800250243666587646e-02,-2.089158098354158000e-01,-6.675259320253135176e-02,2.116073419770031147e-02,-3.835104575344402272e-02,-1.249281491796672974e-04
5.028080104498339545e-03,-5.844571060531836282e-06,-4.877727491510730766e-04,7.729048497710020414e-03,-3.998821642715053720e-02,-2.014799274765800285e-01,-2.076857190365185568e-01,-1.107289239890085243e-02,-7.192245714535795004e-03,-9.281833572023194187e-03
5.755044920721493797e-03,-1.537749817327307283e-02,-6.536596555791189533e-03,-3.280108140633093694e-02,-6.683607578152062079e-02,-9.858621581673426837e-02,-9.912483398284753500e-02,-1.006821037106288459e-02,-1.803274746472782351e-03,-7.856328449488527224e-03
4.944490651049282363e-03,5.941712627020347137e-03,-5.957734777789491787e-05,4.022345031853375059e-03,4.870444759769576061e-03,-2.481641117651363360e-01,-1.446859552340603872e-01,7.190072631004121827e-03,-2.172403013655040474e-02,-9.528251410021842602e-03
1.173698704939273203e-02,-1.581636207308705772e-02,-8.108719841069802689e-03,-2.272120922054845019e-02,-4.908662202438810601e-02,-1.425907625209935359e-01,-2.277610420450715267e-02,-1.105893400884973288e-02,1.973598841768889420e-03,-8.024939809357712825e-03
1.993765188703835751e-03,-2.199711329106930971e-02,3.186316651455615382e-03,-5.267778667153192457e-02,-2.679001939639604965e-02,-1.361292732484468693e-01,-1.116994426096457049e-01,2.072142653851957728e-02,-1.274349345957915582e-02,-4.638143124035939459e-03
1.102711710954497239e-03,-1.028200626862152585e-02,4.940422131580117331e-03,-2.063336582852343809e-02,-3.580012618689736026e-02,-1.194824555213764988e-01,-1.010847406021155165e-01,-1.613395450474462700e-02,-2.238295054860840391e-02,-1.356521415188912359e-02
-2.668398534853155032e-03,-7.592280193987760613e-03,4.279044500002108370e-03,-4.052208415647346601e-02,-8.685933106812093740e-02,-7.923445903375411770e-02,-1.009858488647804586e-01,-2.202389710881486398e-03,-7.557110456582468577e-03,-1.067896954570830143e-02
6.483937905404618847e-03,5.303175068912808869e-03,8.892161355774629581e-04,1.470632772835590678e-02,-1.639432897203366504e-02,-1.767402571116316601e-01,-1.333664457579023799e-01,-1.002598194673826222e-02,-1.799272920230870695e-02,-3.906337901784074675e-03
-1.866271029599180604e-03,-7.307055939054558739e-03,-1.354830635256166864e-02,-3.248288328518981333e-03,-1.399678730729224212e-03,-1.391341886957208063e-01,-1.271616227280858158e-01,-2.553768894492792693e-02,-1.172451067685643424e-02,-2.269036171504216094e-03
-7.745151165812778687e-04,-8.028397229608241759e-03,-1.592937640831125490e-02,9.693874898128307513e-04,-1.569603858331386770e-01,-9.148451971061426213e-02,-3.259023265077169024e-02,-3.252390601703239177e-04,-1.593313281157087910e-02,-1.344150664740866551e-02
-1.056690502132868375e-03,-1.652364623006951283e-03,1.021946246231852755e-02,6.493981732888368281e-03,-3.047942432558660777e-02,-1.312754838004943636e-01,-1.727387648170419787e-01,-1.415856020406612223e-03,2.398138554652280013e-03,-5.699970957034262119e-03
-2.269276855137210367e-03,-1.318541479703515436e-02,-4.188831878555205647e-03,1.261905133275992470e-02,-1.249222876377285157e-02,-1.707646667966429554e-01,-8.562297665206181074e-02,-2.662501066781994274e-02,-1.468849145985812177e-02,-1.648753415732927274e-02
1.605497320317840829e-02,-6.138619649676022721e-03,-1.952526716780515412e-02,4.772051034230740015e-03,2.436062266553430319e-02,-2.613560437564553252e-01,-3.921149490355200357e-02,-5.864183790038578203e-03,-2.554374403858754652e-02,-1.137489911514493780e-02
2.331533503223893328e-03,8.263024476192709286e-03,1.064555408715928998e-02,1.687953781171196502e-02,-8.973901375073346787e-02,-2.099874744758689904e-01,-1.315986480658998536e-01,5.902040114233466327e-03,8.080818483661404575e-04,-1.294281136019886404e-02
2.623294591005350101e-03,4.537563803483035847e-03,4.006934183997421656e-03,1.937650117168894515e-02,-7.017705672829210872e-02,-9.363159152165091703e-02,-1.796984935731877064e-01,-8.402239288507912587e-03,-1.029363953688917227e-02,1.639017616363244072e-03
1.793761715099650988e-03,1.143837020562707592e-02,1.096039705062702534e-02,-3.851389282663987904e-03,-4.876527691583384949e-02,-4.885824934789731455e-02,-2.025018809656030927e-01,-3.452811431651498647e-02,-5.700655400773149695e-03,-4.879570345582739249e-03
3.218681542067855159e-03,-1.658428399053704996e-03,-3.009344160184950975e-03,5.714448320296330701e-03,-9.895998193147671762e-02,-9.021925665305553788e-02,-5.053791497462326032e-02,-8.844340226982773737e-03,-1.067667184484460442e-02,-1.229860145877510226e-02
-5.091386876619896510e-04,-7.663511298872573846e-04,-1.321914682828131482e-03,-3.078947754128324998e-02,-1.444906261509077139e-01,-1.095822844143869434e-01,-6.212118491946178739e-02,-2.745410015806246714e-03,5.646338361611625938e-03,1.347727250419774973e-02
-3.010667575973966729e-03,1.865096427123398223e-02,2.002529358785143376e-02,-1.265951198543803329e-02,-1.133655895224056215e-01,-7.718465554748878132e-02,-1.307192694110994591e-01,-3.884858492784488276e-02,4.358502475703994634e-03,8.033036329036343653e-03
-5.098226983722398131e-02,-2.079448794401256642e-02,-5.930803055608104696e-02,7.432364453098688761e-02,-1.814865501884889041e-03,-7.153572564615268137e-02,9.248582452595292824e-02,-1.506135697055501210e-01,-5.178678439117610083e-02,1.779484482068646733e-04
-5.292375611387546697e-03,1.238636749514242068e-02,1.183533961742404446e-02,-4.308986544997456258e-02,-9.069759391880090338e-02,-1.151190651001935822e-01,-8.774074445709016679e-02,-2.560732834230365282e-02,1.821015385480060159e-02,7.640593238594509812e-03
-2.051463124666389956e-03,4.806705153815067112e-03,2.179407008431784309e-02,-7.920216185075832152e-03,-5.521513973720826307e-02,-1.149694353774132344e-01,-1.868586034889888892e-01,-2.287353806130848488e-03,4.710651047474193574e-03,4.881868352187432140e-03
-1.608933131998913427e-02,3.369216491578806705e-03,2.104719928863611408e-02,-8.819300706147545355e-03,-7.717597605554800400e-02,-1.548761045529410962e-01,-1.065118060666776917e-01,1.307779647060894855e-02,-4.314071525062223027e-04,-4.660063114063494639e-03
6.586419752259642206e-03,-3.214324319820095494e-03,2.481873508614694090e-03,1.057718550557757049e-02,-2.883836542202947162e-02,-1.231892144318424281e-01,-2.139468682018551560e-01,-1.166459920610827573e-02,1.473628539767170113e-02,1.241829558719893117e-02
1.253502602923349139e-03,-5.289948575493290221e-03,-5.860558448181511955e-03,-3.404655802469536835e-02,-9.461281523368181290e-02,-6.439206614870006395e-02,-4.477472245989994049e-02,-9.336797278656123328e-03,4.504736580373990690e-03,-1.509075769285305423e-02
-1.791318796389927389e-03,3.463279219242187870e-03,6.937324906811995207e-04,-1.950345599861200456e-03,1.363036507733013381e-03,-1.063431271411372919e-01,-1.744876824415519667e-01,-3.683974489983422775e-03,1.264419743354388247e-02,2.058784278798166979e-03
-1.684914811047403529e-03,-5.250631544253016314e-04,-1.219168199290027914e-03,9.324097966859593196e-04,2.402160350151864073e-03,-1.590887265053913813e-01,-1.695461256511407167e-01,3.048002788983641183e-03,-3.825157676673792556e-03,-5.128814214828725758e-03
4.219158907308226576e-03,2.715244632555787168e-03,1.729924817613505764e-02,2.743843200406572216e-02,-1.030757370475833545e-02,-1.515366761444029153e-01,-1.749975265486551634e-01,-3.038023865777371088e-02,-1.536773748369040828e-02,6.019087015015475196e-03
4.764107335118998587e-03,4.594528020362922960e-02,3.807051905257828606e-02,-2.038687005476203309e-02,-3.454655989465438282e-02,-1.409476491591217517e-01,-1.641473840445885068e-01,-6.844278902286816957e-02,1.966819620054402820e-02,-6.559098301864767742e-03
2.481181292148882181e-03,5.474438296808070183e-03,1.554505935287714413e-02,1.668508617607436517e-02,4.124372748861787424e-04,-1.229264112387184887e-01,-2.388419592269321046e-01,-2.781791145921293316e-03,4.141907610615612120e-03,-1.361897508367132525e-02
3.479063806879235856e-03,1.030307581580987633e-03,8.952131545186968811e-03,-4.970062722775362568e-02,-1.410466692145233292e-01,-6.682687736069922724e-02,-1.027546033859635249e-01,5.655485763399426165e-03,1.007594941988354705e-02,-6.808340208532889272e-03
2.201757586766833839e-03,1.034986686329275075e-02,1.647040261066816391e-02,1.591051997299021414e-02,-4.174112371408745387e-02,-1.038061434978373027e-01,-1.584472915506399404e-01,-1.798132253909692085e-02,9.629805345913568584e-03,-6.887928012887881710e-04
-9.137092197223454018e-03,-8.566788068289091923e-03,-4.329348826031939254e-03,-8.227130038513200475e-03,-4.670898991297069841e-02,-1.363625738362314044e-01,-7.917783708179249036e-02,-2.692684652431330886e-02,6.142535500903274770e-03,-6.451112851167530721e-03
-8.806819531617720784e-03,3.787736695547679663e-03,5.302458312377144461e-03,-4.812766402462423203e-03,-4.009188365087339861e-02,-1.867909887101113220e-01,-1.508472077506628206e-01,-5.079588659017988082e-03,-1.280081826031532512e-02,1.808443879447047540e-04
1.691359930762382363e-02,2.903897704936297605e-02,5.101405496328723609e-03,3.961736648528407616e-03,-4.121161923321445958e-02,-2.084319019580892496e-01,-1.389225843392625781e-01,8.586137552014597857e-04,1.507246970911479966e-03,4.601516049395435056e-04
1.101417500589203487e-03,1.264538041819067600e-02,9.693957361870080350e-03,-6.038786492621455587e-02,-1.494043007239601040e-01,-8.319197267511128924e-02,-1.188721271934745777e-01,-3.101398698813147975e-03,2.678929256024510652e-03,-3.435469068156662194e-03
1.178969877983142289e-02,2.030079745393459020e-02,4.812138484697058190e-03,-4.730702390513066152e-03,-1.277441636201097630e-01,-2.250558516500617834e-01,-7.407426491319732409e-02,-7.997121774063919997e-03,2.655633705697926002e-03,1.602670707693391134e-03
-3.901436126062949889e-03,-1.405183678376050599e-02,-3.061070954395432933e-02,-7.805803686118896467e-02,-5.766289201822543536e-02,-6.616619702667700387e-02,-4.308705781069332996e-02,-1.504521109851096779e-02,-1.319809097655663156e-02,-1.127278391109696500e-02
-1.992793151752223282e-03,-9.435824261699712889e-03,-1.845053905816410045e-02,-7.223558849926277337e-02,-6.891877923072338430e-02,-6.088811034793400329e-02,-6.168974523083044920e-02,-3.427277718696601638e-02,-5.098829069612836364e-03,6.244154041236738006e-03
4.466268758784835546e-04,-7.866139063935370310e-03,-1.867803963260393149e-02,-9.557680401268876802e-02,-6.767892356616944660e-02,-7.624560756260251315e-02,-3.715987780144864444e-02,-8.055425168676987047e-03,-1.456334698047673931e-02,-5.264289873147314121e-03
-1.563189879436407970e-02,-1.362951750674129244e-03,-9.584232318959070782e-03,-7.618405403673263188e-02,-7.364586488448997270e-02,-8.181678830190972085e-02,-6.109082701904994250e-02,-3.368970786240859522e-02,-9.569120752678055702e-03,3.811003075659305083e-03
-2.466063255612542526e-03,-1.085596644010129036e-02,-3.320441559057139835e-02,-7.111500561665157205e-02,-1.023950865908791474e-01,-7.506653106455039859e-02,-6.808642776635764893e-02,-9.630239919595417683e-03,-3.868456063497249710e-03,1.066173876682396070e-02
-3.608780392271255318e-04,-2.032505310907228510e-02,-2.422504465493609607e-02,-1.194447362636581328e-01,-1.596109340842762903e-01,-3.651202957710769637e-02,-3.250308154295142998e-02,-1.314340590617380823e-02,9.847379064173848381e-03,-3.933991007800094301e-03
-1.705765446919644450e-03,-1.818768182224246230e-02,-7.739839374837347019e-03,-6.063504842455458288e-02,-7.174437356287244327e-02,-8.356724624672982882e-02,-5.749435212582264948e-02,-1.985924319684217662e-02,-5.817604969123950885e-03,-3.433701223466993982e-03
-3.774832089016431913e-03,-1.738785433390835702e-02,2.333641065527466973e-02,-6.359003864825411856e-02,-1.424276994586269329e-01,-1.025443489023954435e-01,-3.841952723146977995e-04,4.821935674858792396e-03,7.608146321839438786e-02,-2.249391305650149612e-03
-2.666171007735095716e-04,-6.043069140806899865e-03,-1.245810968502475240e-02,-8.553683137918961787e-02,-9.909218557533611138e-02,-9.290195698902271870e-02,-3.573573932296082722e-02,-2.003483685509872478e-02,-4.743282620831486621e-03,-5.643981698048475097e-03
2.327309081173648594e-03,-3.544669798233881369e-02,-2.524598113021430182e-02,-4.048357633480919454e-02,-9.641886857946634082e-02,-1.182431706266579702e-01,-4.290557857476154369e-02,-2.613655238966414249e-03,5.085565922659304045e-02,-4.692010674377837358e-03
7.722823163457680521e-04,1.289943807325708014e-04,-4.762016740190117524e-03,-8.135284141746097764e-02,-5.819061255424570756e-02,-6.271144239869604065e-02,-3.931885353208822154e-02,-1.619974431268671189e-02,-9.674980621972806283e-03,-1.745252463041099475e-03
2.606461749119381565e-03,4.741731786639525117e-03,-2.120330408205447006e-02,-8.748408907708465909e-02,-9.080966820656956318e-02,-9.723940321779550588e-02,-4.306026642995591791e-02,-1.013156252983485849e-02,1.067641785450558793e-03,-4.083608358160039677e-03
-6.255699902546815912e-03,-2.466360999217353037e-02,1.398115390447763652e-02,-1.461035643809322632e-02,-1.330583652304359876e-01,-1.336714437182643933e-01,-3.531516384686760046e-02,2.241444597241016613e-03,1.981040246952140912e-02,-2.015337627886056807e-03
-9.894727515585616598e-03,-8.538843158698560323e-03,-3.025080133130025883e-02,-8.299913129225003350e-02,-8.812448029079272827e-02,-8.912683566680142111e-02,-4.605666844275863731e-02,-6.100600115855736756e-03,5.564783671984284419e-03,-6.155712144640100060e-03
-1.326377677534677606e-02,1.600503781596351177e-02,-1.684737914934389706e-03,-2.477166568232085087e-02,-1.228955582999703283e-01,-1.375467243000985107e-01,-5.178206913397224304e-02,-7.065992134348430924e-03,1.935002807254525975e-02,-7.792331044135045875e-03
1.338529382978432235e-02,-1.555626011866719470e-02,-1.762344006587327969e-02,-1.029072897743483761e-01,-1.044581857561675958e-01,-9.917771987957997581e-02,-5.064117651618516014e-02,-1.266649795354716189e-02,-7.283150366309801456e-03,-1.999874393091629135e-03
3.123761513085418842e-02,8.166231290499698092e-02,3.916898455122716505e-02,2.808677208540539053e-02,-1.719038543789306039e-01,-8.600505857350336514e-02,9.621434911796093725e-02,-1.408544853345184734e-02,1.490734306051443581e-01,2.265813096084776102e-02
-2.186429020292765882e-03,-1.305368992274528843e-02,-2.019738293052398409e-02,-9.044819899716137479e-02,-8.462210883317612675e-02,-8.423473276051389458e-02,-1.554036826322543856e-02,-2.006434830605555511e-02,-2.432726611472063160e-04,-2.366300243328759486e-03
-7.737309996077314754e-03,-7.844069523009427984e-05,-1.862273476853328752e-02,-2.633344628912612229e-02,-1.202707378661446030e-01,-1.165880579509762788e-01,-5.106693421465591937e-02,2.289325317736790044e-03,3.557048504700321186e-03,-4.596590022846182635e-03
7.165903256975219258e-03,1.299718454814879735e-02,5.010306153354269348e-03,-1.472019380887015227e-01,-1.514959786289115096e-01,-3.224865510644972511e-02,-2.599517857398334075e-02,-1.949033700568205893e-02,-9.219324653390233507e-03,7.822496268164724764e-04
-2.058986739423496887e-03,-2.238060931040475321e-02,-2.036629830933265814e-02,-5.245415300110977536e-02,-2.278826092494426192e-01,-4.712105775642810163e-02,-1.893408982416762074e-02,-2.243648662937831797e-03,8.351244677605578273e-03,3.539983923608869265e-02
2.854391613892879199e-03,-8.481665996782865660e-03,-1.527619956108633263e-03,-8.483608984498514083e-02,-9.744593823324664006e-02,-3.528564605396291437e-02,-5.037722229714048511e-02,-3.886195133818267505e-02,-1.467337639040107965e-02,1.303777458132945747e-04
2.990609867226226570e-03,1.045888474041977399e-02,5.719591897981206319e-03,-1.146169875910924424e-01,-1.386026384558495805e-01,-2.518379800932196710e-04,-2.170164034271513179e-02,-2.943421463800906853e-03,-1.678448374285409703e-02,1.244460916237090722e-03
9.952783907388927653e-03,-1.529413303465571548e-02,-1.541153902230770791e-02,-7.621640668439494393e-02,-2.368931427252279065e-01,-3.460166571928453838e-02,2.699714602360419116e-02,-4.715266313542548771e-03,4.245223113767655244e-03,7.957562500638518110e-03
5.849209137546056321e-03,5.101511316122784613e-03,2.720152972930274526e-03,-1.390589448803308537e-01,-1.403026314887221571e-01,9.164393231042717788e-03,-1.691328287851248321e-02,-8.739013868089827788e-03,-1.240593438961207912e-02,-1.145815791455297248e-03
1.062884257270182466e-02,-1.183638808614733730e-02,1.522261010631262594e-03,-3.466525437981758384e-01,-2.959109485142092169e-02,4.939219747951328378e-03,3.508930083046577636e-02,1.089774358509283496e-02,-2.353839784775921262e-03,-1.360640241708915019e-03
7.162981845379380770e-03,-8.791673764123782153e-02,1.239593650210880785e-03,1.811925160520417091e-02,-3.936620380225905325e-01,-1.897217640093610061e-02,1.055007808384036405e-01,3.174775933119081128e-02,-8.753223937217410530e-03,7.210590730129396407e-03
-5.518893931825846061e-03,-1.724684341774525981e-03,1.531589596548205146e-02,-1.079324536306493047e-02,-3.362564534142405415e-01,-3.011528826090050306e-02,6.455486366656348896e-02,-3.798401741977323193e-03,-1.513774021616319911e-03,-3.150375369187439264e-03
6.510544263749779015e-03,-1.168854494909220276e-02,-1.550723895001532814e-02,2.191172541961499895e-02,-1.812640388446118689e-01,-1.148587315125298575e-01,1.262260073761800605e-02,-3.563335745954162529e-03,-4.195432303153415893e-02,-3.861742223984679367e-03
7.019993776749074328e-03,2.018843539468011955e-02,-7.666616833226672784e-03,-1.101722851098676896e-02,-1.459147280438063687e-01,-9.127317561147958724e-02,9.074434993033934091e-04,-3.740903065472524908e-02,-3.317849572236231809e-02,-8.810186623682212878e-03
-8.891667893958685523e-03,-1.268716959327320648e-02,7.926424434513125450e-02,8.375970600920434883e-03,-2.098189103781697984e-01,9.201624680762715558e-02,4.250891855788393320e-02,3.306670881613271024e-02,7.868155243635449603e-02,2.113816265873755262e-02
6.302911704031489981e-02,-6.059437476431164121e-02,9.609646550649320051e-02,1.368041495988870093e-01,-1.033510685494507531e-01,-8.904601114952666319e-02,-3.584605316686008403e-02,-3.911047798976357431e-02,8.639179745260872414e-03,2.214387522265913802e-02
4.892349874699645877e-03,-6.566311796048885686e-03,-5.269324463824553995e-02,-1.615459942276667726e-01,-1.534356261919306574e-01,-1.099229047425937834e-02,8.085292516708529262e-03,-2.059575739137557704e-03,-2.491026303165070829e-02,-4.819571859346624167e-03
5.346599537409072594e-03,2.537056681225394184e-02,-7.163358613345872927e-02,1.786970659864652033e-02,-2.179138186324157400e-01,-5.011585612410518475e-02,1.506068403888714824e-01,3.322711033538668784e-02,2.780441492199544826e-02,1.529967686852796473e-02
8.434385280096851067e-03,8.191956101240019860e-04,-8.297292639045349139e-04,-1.096384946173444702e-01,-1.554823118803521920e-01,-3.862168725208826869e-02,9.808824617444274207e-05,-2.671733463741557055e-02,-1.127420718473381121e-02,-1.945667254097677894e-03
-4.134772660761929647e-03,-1.378936017310432478e-02,4.931919711102810203e-03,-6.193847853888911903e-02,-1.382688242277462232e-01,-2.543870401538912349e-02,2.715506813715287682e-02,-4.531765990465575628e-02,-1.335296402351972278e-02,3.986402628157677025e-04
-1.939892948734645885e-03,-1.362475360999856368e-02,-1.147450185770168031e-02,-8.899781631413840322e-02,-9.866179486470955107e-02,-7.226165603824465100e-02,-9.137254551334839797e-03,-2.764388446315853287e-02,-6.285619477101531127e-03,1.249784953174687060e-03
-2.299977925881244428e-03,-1.719657113498622783e-02,8.212913273815113449e-03,-1.006064432232369604e-01,-1.482659179474515587e-01,-1.179049783658149726e-02,-4.916459376266250772e-04,-2.534080517527414686e-02,-1.676666572633827429e-02,-1.570979187674816785e-03
-4.675544206697398140e-03,-7.319856110841596120e-04,-1.879616577586157647e-02,-9.605380749931884121e-02,-1.522457777825486913e-01,-2.135410537408048356e-02,-1.028233408819293447e-02,-4.787972844704018599e-02,-2.620462466507368290e-02,-2.124726387212767451e-03
-8.036181855651976236e-03,-9.606827361650100566e-03,2.004851662880132931e-02,8.735306226633212170e-03,2.846162475373151257e-02,-3.187312283832798854e-01,-8.565404064212219296e-03,1.111929003797777933e-02,-5.118892971775842321e-02,-1.899719051795865921e-02
-2.350566734791239253e-03,-1.991943828531769160e-03,-6.716163732549441066e-03,-8.352756284057587244e-02,-1.521719111809822500e-01,-6.074801140714928974e-04,6.766948109510675761e-03,-1.063054130663246798e-02,-1.905973555573640607e-02,1.378921907186733036e-03
9.607132407231966029e-03,9.199262190956984534e-04,-1.497765760333225928e-02,-1.682076209477226525e-01,-5.729632113793733939e-02,1.098705946319126874e-02,-7.282403928403678728e-02,-2.659348884760369749e-02,-1.708076950037297828e-02,5.210160142330604906e-03
-5.198870474975061419e-03,5.098959964850285085e-04,-4.829148623262875459e-03,-4.957966232969757830e-02,-7.126197719689836285e-02,-4.535777641328836429e-02,-4.805370850089449308e-02,-2.407229473080404678e-02,-1.106430183637174304e-02,5.644993245190440927e-03
5.839607179448995074e-04,1.492874476337716387e-03,2.091378717550815280e-03,-9.846839203723765921e-02,-1.086463768996663859e-01,-3.944948966931789008e-02,-5.555299616834139843e-03,-4.745476855455482701e-02,-2.543176359932322605e-02,-5.430117397519834471e-04
-1.569889239427028861e-03,-1.022452925862972310e-02,2.346759232542105274e-03,-1.762463394049316456e-01,-1.362900396090342137e-01,7.218527814889857605e-04,-3.018058313349432711e-02,1.229744415529705759e-03,-3.125915429823787617e-04,-2.502027983420672137e-03
-1.449240646255674919e-03,3.743510431461988339e-03,-7.813026812045384753e-03,-1.474793743774282795e-01,-1.524378525094275683e-01,-5.840594949728638565e-04,-4.221969338133252196e-03,-3.742166893252298759e-02,-1.053389517124610208e-02,1.239962268355548902e-02
-1.781391390260019317e-02,-3.820523961898274288e-03,-1.108801462367791334e-02,-7.428173821039919800e-02,-8.969893786270999314e-02,-5.890747718822575418e-02,-5.790095085065061209e-02,-7.514207324567625558e-03,-1.414885756508633095e-02,-6.487863322378942948e-03
5.300117878114009480e-03,-6.037129102508590611e-03,-9.079712465142124669e-03,-1.054614022962886005e-01,-1.275064102742856920e-01,-1.084236857508018466e-02,-1.394678698241000325e-02,-2.176635726124492506e-02,-2.907189273312979494e-02,-8.142885808298494857e-03
-2.693248130533825585e-03,-7.714166269939574765e-03,-1.093793595362273219e-02,-8.695766837816598649e-02,-9.442696279854985442e-02,-6.440180814287789490e-02,-2.622163393427985253e-02,-3.325551835118869398e-02,4.239132383550856063e-04,-1.090558469161011061e-02
3.604636362965135741e-04,-1.174541717142038979e-03,-4.872204295095747956e-03,-1.148971310522033940e-01,-8.813520106206318427e-02,4.659643465795449725e-03,-9.147268690977140848e-02,-1.362146594658915529e-02,-1.986757126268779566e-02,-6.221960417261907439e-04
2.249877852789761070e-03,-9.372441018974992169e-03,-1.292360310630163512e-03,-3.735519220582323996e-01,-2.935725293022346458e-02,2.559685624421256453e-02,1.791537383112034101e-02,1.784988347230256900e-02,2.393139918003641883e-02,-5.193292458083885238e-04
-3.655582381158627766e-03,1.701131377032558643e-04,-5.012047967320032611e-03,-9.707267923907879348e-02,-1.318604316756563644e-01,-8.731698616118530737e-03,-1.660592942531357794e-02,-4.432452753355371061e-02,-1.775487262077829129e-02,-6.074463219579394162e-03
5.575324833383957755e-03,-1.200673867669255039e-02,3.149098761399193175e-03,-2.237119767184266028e-01,-5.454071227697952079e-02,-1.005282375384972463e-02,-2.809741392205139521e-02,-1.177160005490850148e-02,3.430226673035721100e-03,-1.561907936089856203e-03
9.998080784959114536e-03,3.076600057040322980e-02,-1.573543539786937534e-02,-2.111246241234841781e-01,-9.307713118753312143e-02,1.212634508465199219e-02,4.142945181931287184e-03,-2.450565793017165858e-02,-2.374099006995943062e-02,-5.957379031500524037e-03
3.921382737517941849e-03,-9.864297563820888584e-03,-2.629365560796574283e-02,-9.913221552793501090e-02,-1.255404947392986525e-01,-5.115960954305905778e-02,-8.703401115875258887e-02,-2.502013981851115842e-02,-1.093897164877605764e-02,-2.892841274436243424e-03
-2.191560430960322933e-03,-3.966634789552757508e-03,3.899843341821456616e-03,-8.161928678277331761e-02,-9.645672514844400025e-02,-1.355301761231792086e-02,-8.468356452457699579e-02,-2.762007295574854873e-02,-8.428495948521590522e-03,-2.616408892724182960e-03
1.080493737963167432e-03,3.576485575796276017e-03,-1.400184900450982721e-03,-1.180916209431181474e-01,-1.538573359118655948e-01,-3.790724356506797871e-02,9.488563179251695290e-03,-2.385317417976849999e-02,-4.897687790768961297e-02,6.603688602787180333e-03
1.005046155331868922e-04,1.502028685126986958e-02,-2.805164822591337329e-02,-7.964152510919522698e-02,-8.710359255434256542e-02,-4.180753792360502458e-02,-1.886503816897925137e-02,-4.621583604990400773e-02,-2.904259868856416335e-02,5.617702100523894355e-03
-5.290158319955690948e-03,-2.954032204955505791e-03,-2.975252389937477118e-03,-1.148905545569190445e-01,-1.282122226715054214e-01,-2.615792173785316897e-03,-3.812518467558208973e-02,-2.649697154565953949e-02,-2.963385519457359309e-03,-5.744421412209002598e-03
3.663450746140364117e-02,-1.958926157743562727e-02,-7.497432056537964296e-02,-9.166019220239791931e-02,-3.588402701204727180e-02,-2.405366293991361981e-01,1.361491256535721402e-02,1.402174631501996484e-02,4.690665104629983956e-02,1.440986876075923441e-02
1.117550031411513288e-02,-1.979833199072961528e-02,-5.944839664931391571e-02,-7.342303158308631506e-02,-3.257461471548202536e-01,8.047272164907395831e-02,2.127159428316888201e-02,-3.646596607773311405e-02,9.672670566275866355e-02,6.529273193070213831e-03
2.759101105290509906e-02,-8.794507377203560072e-02,-5.377409043047930853e-02,-1.067728397339655633e-01,-1.828563857359127021e-01,-3.021701707002126883e-02,-1.884349515810140874e-02,-3.767611818555866715e-02,1.236102217768518391e-01,5.512842708966502608e-02
3.740168088830873178e-02,1.064948841915235728e-02,2.733085639469129760e-02,1.763040918460359206e-03,-4.370362626798098837e-01,1.928258930326559595e-02,-8.328252900933924216e-03,-1.968780863304397857e-03,3.169020254424122912e-02,1.427417573708159894e-02
8.893934647180880976e-03,-1.416856788115054312e-02,1.799242634303345120e-02,-4.403797041648232352e-02,-4.321123904929298765e-01,9.637058158374460504e-02,-1.213910825390502463e-02,-2.672438886056993645e-02,5.009232905489441334e-02,2.269943255099833926e-02
1.832040214612918813e-02,-3.455910963362963245e-02,-2.634967399948650105e-02,-2.820133875509384450e-02,-2.100757551134996570e-01,-9.689294598785569423e-02,-1.725903273635920332e-02,-2.926493933074179876e-02,4.749933743737446562e-02,1.203099852507012908e-02
4.569134012339400724e-02,-2.154594812491517422e-02,-4.372074995683814663e-02,-7.895888799757135035e-02,-9.123722159510566990e-03,-2.675045583152573792e-01,-1.967354113914160374e-02,-2.421165713853836929e-02,7.022247936416443903e-02,1.956736503236595343e-03
3.405887478033488291e-02,-2.394170448681379095e-03,-3.589672854232221072e-02,-1.045616859841142499e-01,-2.965289306689978741e-02,-2.552107435445611361e-01,-1.202263314248920361e-03,6.500317830008660140e-03,5.838533949111749527e-02,-1.781009237130231964e-03
3.665901049462907263e-02,-1.114033660608646642e-02,-1.150125463960276727e-02,-2.718178953607685092e-02,-1.738700890818238934e-02,-2.365129477190154039e-01,-4.600377198660417916e-02,9.886093376769286220e-03,1.432708445416230013e-02,-5.557207846280879347e-03
2.046370885541582557e-02,-1.544213003957102710e-02,-4.051655688720425669e-03,-2.749331961311498110e-02,-2.176459117478829197e-01,-3.946531931247588415e-02,-2.163736821458231430e-02,-2.483950653558484808e-02,2.175706330094591759e-02,-2.797799369735472566e-02
3.598414500027501822e-02,1.554995000700686199e-02,3.657189470434390327e-02,-1.000365781398129816e-01,-4.175630686236585926e-02,-7.679264131973581034e-04,2.550552707864768912e-02,1.406322828581859329e-02,-6.193581906530762349e-02,-4.889879952831626721e-03
1.703755932560535938e-02,-1.499471526504213975e-02,-2.050402082586015584e-02,-6.698069484473741231e-02,-1.590922493067510948e-02,-3.094797456980981631e-01,-8.555086662966100361e-03,-6.719586093112925838e-03,9.035358783431911289e-02,-5.060301140975359763e-05
1.615587586542472157e-02,-1.857002224910466945e-02,-4.600317023135194056e-02,-6.470595316385857609e-02,-6.738868548643690663e-03,-2.158041913587488148e-01,-9.258380710076933098e-03,-1.433446345905419091e-02,2.304049832964845390e-02,-2.988385965199236161e-03
2.904291269307647874e-02,8.315847602175128681e-03,-4.415194502499310975e-02,-3.404308033028646124e-02,1.535528607319846563e-02,-2.881618377873744197e-01,-1.093726167540176077e-02,-3.665362998073598555e-02,4.440294052303152966e-02,-1.709054009049859255e-02
2.562631720116262737e-02,2.657936659839469154e-03,-2.601610714635034516e-02,-2.592436310766416119e-02,-4.438730466228959365e-02,-1.656657699744684131e-01,-1.233024596127922368e-01,-1.755440301381288454e-03,4.937066604753850146e-02,-2.645583760316846337e-03
2.040533313739118643e-02,-1.816698590547306466e-02,-2.848960775639244533e-02,-5.094010930179302538e-02,-1.320433711634877161e-01,-1.455851278659207326e-01,-9.264769551131734823e-03,1.548888612962230074e-04,3.716113290108848111e-02,-7.647023194415716353e-03
4.379031473282644221e-02,-4.830018476581898756e-02,-4.748415228267762606e-02,-1.082101802048188177e-01,-2.736984530334949598e-03,-2.908194110631772689e-01,4.805682436892525639e-02,1.203022022109247191e-02,1.102671358773030102e-01,1.887892019971619192e-02
1.721511881969090343e-02,-5.682017324270110907e-03,-4.830980615537833200e-02,-8.089037720689599975e-02,-1.527442548421843183e-01,-1.274670753717434546e-01,-2.158246286765526031e-02,-9.936083243781796900e-03,4.685632103310475444e-02,-4.075116788458590239e-03
4.640726076221399904e-02,-2.644167570098075390e-02,-1.165093095563883158e-01,-2.047227129174594984e-01,-4.296303359996333365e-02,-4.096472728707926773e-03,-1.086064271432737351e-02,2.796105128337143808e-02,-4.711761392200415448e-03,-1.170203513048635345e-03
2.151231015710652547e-02,-2.828971065833001466e-02,-4.548154561966467196e-02,-4.038687219146514656e-02,-5.124591880039561231e-02,-2.089249433561540525e-01,-2.041914305481871625e-02,-2.375051103327798299e-02,2.689313988186306861e-02,-3.694039702252202659e-03
-1.625458952279562261e-02,-4.481686045906414090e-02,-1.070898988030450673e-02,-2.764752693791441840e-01,-3.689048039966847520e-02,9.460819867238115174e-03,-3.045595424546962415e-02,-1.601837809724286285e-02,3.293235316977554533e-02,1.641062431165807691e-03
-3.558862494475741479e-03,4.532503281466863931e-03,-1.565863955752743245e-02,-4.852386428860383516e-02,-3.719394158859472971e-02,-1.053711669132851858e-01,-7.834475681232395960e-02,-3.903509923580841812e-02,2.571460417847846406e-03,-1.282862550307260242e-02
7.323633677074849711e-03,-5.103386961802870020e-02,-4.047785737285272689e-03,-2.968913171491502356e-01,-5.523534585041691564e-02,4.184884811949333289e-02,1.582625110424034157e-02,-2.186619382821647015e-02,7.188204970179937203e-02,7.297033455904979211e-03
-1.106468266192724322e-03,-1.284190437100425804e-02,-1.714891640419369603e-02,-1.132409627919946371e-01,-5.535936284069214314e-02,-9.116860046986235977e-02,-6.511507179201070361e-02,-3.329447284336572218e-03,1.806564612577871154e-02,1.816614915069107543e-03
3.729696968764488561e-03,-1.576176660197776969e-02,5.716354960965674969e-03,1.178818452569846235e-02,-1.712795485690976963e-02,-3.752984301398174516e-01,7.545317500610174144e-03,-8.907724910740232038e-03,4.058797285473565025e-02,1.046498327941641944e-02
-9.459058169513532503e-05,3.415735216046965187e-04,-8.342276565957013057e-03,-8.284988448098283553e-02,-2.005210106871488721e-02,2.241056840469924163e-02,-3.252934327073215837e-01,5.316746211017252081e-03,6.566773836766821859e-02,7.880113267670902158e-03
-4.765926137367305221e-03,-8.608498658315743082e-03,-3.242720985887560109e-02,-8.245133008347882431e-02,-5.793813369480500103e-02,-4.206807324544988708e-02,-9.530388806361368703e-02,2.110550367883637715e-02,2.480110596784447508e-02,-1.288553673827689400e-02
-2.053305897674542399e-02,-2.153517439269073477e-02,-1.523964328511812592e-02,-5.396616199351383231e-02,-2.856043295433505769e-01,3.513773963066582628e-03,-5.816373822227188795e-03,-2.244627684192160300e-02,9.250315552450953660e-02,-4.439060936598559874e-03
5.617663558914892837e-03,6.070985915641701446e-03,-1.914430747284441570e-02,-6.967333771936166931e-02,-2.944723108942096448e-02,-1.906160195263355284e-02,-2.141187456058128158e-01,-2.353346054830110154e-03,3.902493078295467266e-02,-1.056914816217147807e-02
-4.759793231748691428e-03,-7.809084873371556490e-03,-4.709670683269082808e-02,-2.956339046468938955e-02,-5.606247441781139068e-02,-7.391405786664274717e-03,-2.056166520502913653e-01,-1.109957052855819332e-02,5.195482354607149772e-02,1.678108423857128202e-03
-1.856043238764863712e-03,-3.928009474781730959e-03,-2.472980836155348749e-02,-9.303928593566872240e-02,-5.265077278835932767e-02,-1.042909152147813018e-01,-7.488629203798755074e-02,-3.843037916305771379e-02,5.669783920190132193e-02,-1.187832976234002441e-02
-8.416724395615452284e-03,-1.594315813094919097e-03,8.038191180274767422e-03,-8.665679831089422025e-02,-8.730905861580105787e-02,1.479673133454380805e-02,-1.288412359112912908e-01,-3.617758195093991047e-02,3.930570086014487791e-02,-1.492069163150472333e-02
4.383838066621704825e-03,-1.456253629417618607e-02,1.661600566964314962e-03,-2.064651138532871619e-02,-3.104375835704961326e-02,-1.840747957917811817e-01,-6.649204859857753280e-02,1.449089805516273755e-02,1.514429516020937040e-02,-1.193908269597111077e-02
1.089397069242585168e-03,-2.532106232799752332e-02,-1.964762273254033395e-02,-6.027988985469397848e-02,-4.636848833343940740e-02,-1.325855095663652262e-02,-2.493424622086011511e-01,3.802021890013509986e-03,5.517196083101383319e-02,2.015490607511727979e-03
6.955895858089334964e-03,1.863417780698496673e-02,-1.199345970974161936e-02,-4.570833493859963875e-02,-3.132371213027318468e-02,-3.817578772927491815e-01,-2.649145382553991235e-02,-4.231226249543935253e-02,6.942949819876624573e-02,-5.296982561991167571e-03
3.241457983007447682e-03,-8.317414974787861945e-03,-2.696295387020710907e-02,-9.933607070654175419e-02,-6.316353084832639075e-02,1.746332255963109481e-02,-6.405736639197014137e-02,-7.208395979988112268e-02,2.863092808287059574e-02,-1.748868337940152895e-02
3.957777821089292040e-03,-3.798098309764569996e-02,-4.522800970659827252e-02,-4.577444989671169973e-02,-1.917380588326932436e-02,3.310953898309323268e-02,-2.301208594461943424e-01,1.036824085305910158e-02,8.145002322350058249e-03,-1.415847908043832426e-03
-1.453628439613839120e-02,-3.167655953401288943e-02,-4.355665863450301073e-02,-1.615107448015000169e-01,-5.034475786947514853e-02,-2.557150923706057177e-03,-5.971685031268322147e-02,-3.938246712094933127e-02,3.348020520143132200e-02,2.854903584878591086e-03
-4.282825069623113351e-03,-7.376971460810015542e-03,-1.715587348359495778e-02,-2.778588449355763948e-02,5.404617067320306896e-03,-6.911315219058254689e-02,-1.897762070274014723e-01,7.665467015506875759e-03,5.846458397090587011e-02,-1.811547687232864176e-02
3.055701821591603421e-03,-6.653972889422554715e-02,1.857596331058724431e-02,-2.404645114421400873e-02,-2.284041293591375643e-01,3.281386722941014716e-02,3.297945524161687621e-03,-3.072666106863727528e-02,1.820356246898910055e-02,8.802338253568545981e-04
3.144152553684888274e-02,-2.657620789266062697e-02,-4.363607460811216865e-02,-6.948474713220177852e-03,-6.553830126591374261e-02,-1.768909245488165249e-01,-2.307314175324792424e-02,-9.392820268726297149e-04,2.297964566400696393e-02,-4.722269289111190142e-03
1.206003027426980935e-02,-1.967875229642876769e-02,-6.638517269601356676e-04,-6.947596762218680166e-02,-3.899983219786935101e-02,-1.398617436190786878e-02,-2.372861418014228230e-01,3.550838452714392968e-02,4.126542270679194740e-02,-2.167880362246067324e-02
-4.022721152990045156e-04,-1.209931778627036658e-02,-4.555792089128515854e-02,-7.386414046095209074e-02,-4.541683727659864139e-02,-1.383462753787345345e-01,-2.984325052177550994e-02,6.298277637392516067e-03,3.670003119590189988e-03,-1.509811455804528461e-02
-1.665040494174244157e-02,-5.609018984628511700e-02,-3.253917539038797546e-02,-5.231223878998324944e-02,-1.429526612872800140e-01,-2.308962809634320431e-03,-7.277521302925919755e-02,-2.538006587945347212e-02,4.069308161082161451e-02,-9.020776725991426145e-03
6.657608746733436993e-03,-2.473212576505702531e-02,-3.980678962993877690e-02,-6.083671380460651396e-02,-3.355141563460359994e-02,-1.082369182352264092e-01,-3.631448760291448169e-02,1.677334072730412131e-03,1.791490823834247792e-02,-1.537377985223468925e-03
5.769146555599497135e-03,-1.426497016623472051e-02,-6.021112723316448395e-02,-9.003672592415558340e-02,-4.440427794543825440e-02,1.927505592167861118e-02,-1.541434152783621447e-01,3.031405204352912927e-02,3.096911149687725517e-02,-7.748975855974037270e-03
6.787287776850091554e-03,-1.510952160803913542e-02,-5.665727380756555714e-02,-1.353872480268998937e-03,-3.783695889189948175e-02,-2.191081602841297438e-01,-1.281926036113811840e-02,-3.379650602900857378e-03,3.216314716273444008e-02,3.982640192831989924e-03
9.327753846584718386e-03,-4.109593125720804874e-02,-2.644102745684580660e-02,-8.169226847701761829e-02,-6.032657548137592557e-02,-1.379621068370096848e-01,-1.921520875424665223e-02,2.205813948773047151e-02,-1.317658167372034832e-03,5.304083921924179594e-03
1.285001027941565406e-02,-5.842904168080943067e-02,-7.994433258754415905e-02,-9.176324695147358712e-02,-2.175913607070284125e-02,-4.960855881892752700e-02,-6.134170179998080924e-02,1.299503169309373062e-02,3.034441007525405867e-02,-1.403171827578323511e-02
1.537331641383911200e-02,-4.980717796911264365e-03,-7.923011780405901996e-03,-4.251205677965178009e-02,-7.510423979675984185e-02,-1.496311675838030986e-01,-5.509079785536832169e-02,-1.196274928913969304e-02,2.663420502825773750e-02,-2.095915958610435059e-02
-2.092540146465859952e-02,-2.125200402578472300e-02,-2.377033354004398635e-02,-7.405268103754066022e-02,-3.764532641930647128e-02,-1.526945656820856249e-02,-1.533295514872420051e-01,-9.282363300650960797e-03,1.450205374266836690e-02,-1.101600494940646428e-02
1.705412518071703493e-02,-1.857139774159711348e-02,-1.109452707341299083e-02,-4.995293989951887087e-02,-2.249545177354619549e-02,-3.677496569326039189e-01,2.127988867772834594e-02,1.357995424294073696e-02,3.265709216530397058e-02,-3.689107155274637829e-03
1.525636457754490742e-02,-3.770601561017245668e-02,-1.905423129769841240e-02,-4.009367054327858670e-02,-1.701054361597197362e-01,-8.061100671052198741e-02,1.426099115494343893e-02,-9.980204037115214880e-03,-4.797032497054349622e-03,-3.985343459352626815e-03
1.216275119208362794e-02,-4.218457275217999541e-02,-4.257947842825915430e-02,-7.685702161939032828e-02,-4.572099774053491744e-02,-1.048387321194569899e-01,-5.061266841341726525e-02,-2.176101962104073570e-02,2.507976207071679897e-02,-1.319784413942753053e-02
4.234581368970266949e-03,-2.180883082470183934e-02,-1.768748246025136917e-02,-5.521505190446046596e-02,-2.807335393561162171e-02,-1.920274223207552311e-01,-5.231840514360427269e-02,1.214244607776760777e-02,2.482719933083433680e-02,-6.890300126491062660e-03
2.529900120523076792e-02,-2.630833708638109433e-02,-1.040933154892408584e-02,-4.756483465357732969e-03,-5.287963643000533759e-02,-1.928442793623398044e-01,-4.752249368006178365e-02,-5.836762517558516557e-03,4.363137219725047450e-02,-4.910760698256661817e-03
-3.567883588739044921e-03,-2.660464584156637183e-02,-1.752616950901725312e-02,-1.051817460872314647e-01,-1.114407622769213006e-02,-8.668515420430712715e-02,-4.303404615633352887e-02,-1.996677337194267821e-02,-7.707778584281922522e-03,-1.451672161767923741e-02
6.997776735838734385e-03,-3.246378694163332829e-02,-3.862028909900087209e-02,-1.063544824452947041e-01,-2.869805679236899290e-02,-1.023506331602522662e-01,-7.327939653938815578e-02,4.744493952549794051e-03,2.880757467297719032e-02,2.169384698033547526e-03
-1.406972956402441355e-02,-2.817749090958079905e-02,-3.881403691462582267e-02,-3.836409691188765597e-02,-7.166115200953739051e-02,-1.101272564733170450e-01,-8.982024175508762642e-02,-3.493431632132030281e-03,4.479496100309638545e-02,4.153765998606284704e-03
-9.481686130768260390e-03,-1.793172371115450345e-02,-1.570719725848692891e-02,-9.488510831516143440e-02,-6.792223564436299099e-02,-2.252252471427292416e-02,-1.739785354434250364e-01,-4.053506570632904767e-03,1.876691913832239864e-02,-6.176894571330281310e-03
