-3.147719144821166992e+00,4.112545490264892578e+00,8.198608160018920898e-01,-5.218831062316894531e+00,1.087188434600830078e+01,1.536720275878906250e+00,7.174435615539550781e+00,-4.331474781036376953e+00,4.414364814758300781e+00,5.407080173492431641e+00,-1.579797029495239258e+00,-4.467576503753662109e+00,6.371851921081542969e+00,7.722092628479003906e+00,1.242279529571533203e+01,5.870353698730468750e+00,-1.285956382751464844e+01,-6.168515682220458984e+00,2.379848861694335938e+01,5.103035736083984375e+01,4.274954986572265625e+01,4.792723464965820312e+01,3.869512176513671875e+01,4.673610687255859375e+01,1.693639945983886719e+01,4.548010253906250000e+01,3.907640838623046875e+01,3.307210159301757812e+01,3.901381683349609375e+01,3.705648040771484375e+01,3.530304718017578125e+01,3.188585281372070312e+01,-3.221842527389526367e+00,-9.219471216201782227e-01,-1.003715515136718750e+01,-1.031577348709106445e+00,5.903573036193847656e+00,-5.736514091491699219e+00,7.338856697082519531e+00,-2.048596858978271484e+00,-5.330135345458984375e+00,-9.750798225402832031e+00,6.225089073181152344e+00,1.019915789365768433e-01,-2.405705213546752930e+00,-3.093319416046142578e+00,5.525778770446777344e+00,3.961451292037963867e+00,-2.762195587158203125e+00,4.401721000671386719e+00
-1.200454354286193848e+00,-2.075029373168945312e+00,-2.382003068923950195e+00,-1.032933354377746582e+00,2.916486978530883789e+00,-1.913238906860351562e+01,-1.084281444549560547e+00,-2.446793556213378906e+00,-8.860698699951171875e+00,-1.439532470703125000e+01,7.393820762634277344e+00,-7.963062286376953125e+00,-1.538110351562500000e+01,7.919857025146484375e+00,-4.852572441101074219e+00,1.429701232910156250e+01,1.267437648773193359e+01,-2.180653333663940430e+00,2.519531822204589844e+01,3.979944610595703125e+01,4.143639373779296875e+01,2.186010742187500000e+01,3.437506103515625000e+01,2.785239219665527344e+01,1.658016586303710938e+01,1.530129814147949219e+01,3.655383300781250000e+01,3.257281875610351562e+01,3.678012847900390625e+01,4.247100067138671875e+01,2.310259246826171875e+01,3.111510848999023438e+01,4.548090934753417969e+00,-3.538574934005737305e+00,8.087450861930847168e-01,3.740973711013793945e+00,-2.908661603927612305e+00,-6.597302436828613281e+00,-6.799174308776855469e+00,-3.478057384490966797e+00,4.519987106323242188e-01,5.981370925903320312e+00,2.756520748138427734e+00,7.965029716491699219e+00,8.796763420104980469e-01,4.398404598236083984e+00,3.224407672882080078e+00,-5.666071414947509766e+00,-1.361151933670043945e+00,9.419776797294616699e-01
2.540972828865051270e-01,-1.532131910324096680e+00,-1.709990262985229492e+00,2.227706432342529297e+00,3.659220933914184570e+00,2.784138917922973633e+00,-9.714412689208984375e-01,3.503936052322387695e+00,-3.622319698333740234e+00,-2.087585687637329102e+00,4.152356624603271484e+00,1.101888775825500488e+00,-4.922103881835937500e+00,4.504864692687988281e+00,-4.591004371643066406e+00,1.890825271606445312e+00,2.492555379867553711e+00,2.263525962829589844e+00,1.318587970733642578e+01,1.788521194458007812e+01,1.510620689392089844e+01,1.914635658264160156e+01,7.869393348693847656e+00,1.339211845397949219e+01,7.517365455627441406e+00,1.180378532409667969e+01,1.059337043762207031e+01,1.569602012634277344e+01,1.139751911163330078e+01,2.030036354064941406e+01,1.546069049835205078e+01,8.286315917968750000e+00,-8.728036880493164062e-01,2.599689960479736328e+00,-1.022894001007080078e+01,-1.091150951385498047e+01,-2.662707805633544922e+00,-1.073040294647216797e+01,-8.012631416320800781e+00,5.155942440032958984e-01,-1.121598625183105469e+01,9.046366691589355469e+00,-6.675612449645996094e+00,-1.460394859313964844e+01,4.821851253509521484e+00,-7.528599739074707031e+00,4.098444461822509766e+00,-4.136872887611389160e-01,1.846015930175781250e+00,-1.569439619779586792e-01
-2.970961093902587891e+00,-4.165423393249511719e+00,-5.065211057662963867e-01,-2.614021301269531250e+00,3.666157484054565430e+00,-1.624334692955017090e+00,-2.288684368133544922e+00,-5.688909530639648438e+00,3.142090082168579102e+00,-4.102442264556884766e+00,-6.376441121101379395e-01,-8.797010183334350586e-01,2.408377170562744141e+00,5.342976570129394531e+00,1.425957679748535156e-01,5.031315088272094727e-01,4.254111289978027344e+00,-8.743675947189331055e-01,1.356159496307373047e+01,1.146702384948730469e+01,1.751123619079589844e+01,1.790960121154785156e+01,1.304619407653808594e+01,1.750780677795410156e+01,7.944894313812255859e+00,1.962966537475585938e+01,1.549526691436767578e+01,6.916134834289550781e+00,1.463422203063964844e+01,2.342261695861816406e+01,1.477073097229003906e+01,1.758690261840820312e+01,1.599861145019531250e+00,-8.151368141174316406e+00,1.976096391677856445e+00,2.001551389694213867e+00,-7.663060188293457031e+00,1.600993752479553223e+00,-8.468822240829467773e-01,-3.268489837646484375e+00,-3.631266355514526367e+00,-1.410213828086853027e+00,-1.870264410972595215e+00,-5.187891960144042969e+00,-5.647273063659667969e-01,-8.857948303222656250e+00,-2.877622842788696289e+00,-8.750913739204406738e-01,3.510997295379638672e-01,-1.281493544578552246e+00
-1.466537237167358398e+00,-2.637608051300048828e+00,-2.571610212326049805e+00,-6.854812622070312500e+00,-1.652069985866546631e-01,-1.421840190887451172e+01,3.826207399368286133e+00,-1.436771601438522339e-01,-1.796045541763305664e+00,-7.493998050689697266e+00,8.772814750671386719e+00,2.335968494415283203e+00,8.173288345336914062e+00,-5.341197013854980469e+00,-8.494745254516601562e+00,4.121065616607666016e+00,-1.703613281250000000e+00,-1.271031284332275391e+01,4.309756469726562500e+01,2.347499084472656250e+01,3.058828353881835938e+01,3.243755340576171875e+01,4.158595657348632812e+01,2.239768791198730469e+01,2.141427040100097656e+01,2.630915260314941406e+01,3.934323883056640625e+01,4.753767013549804688e+01,3.033667945861816406e+01,3.059784507751464844e+01,3.465713119506835938e+01,3.480894088745117188e+01,-4.151274681091308594e+00,-2.333548927307128906e+01,-9.917427062988281250e+00,8.442838668823242188e+00,1.234454345703125000e+01,-1.922568321228027344e+01,3.499913692474365234e+00,4.681834220886230469e+00,5.291773796081542969e+00,6.226244449615478516e+00,-4.551554203033447266e+00,5.066337585449218750e+00,4.226186275482177734e+00,2.459582090377807617e+00,-6.706796169281005859e+00,-1.308931350708007812e+00,6.822012424468994141e+00,-4.297206878662109375e+00
-3.064468860626220703e+00,-5.008356571197509766e-01,1.925134360790252686e-01,-1.256700038909912109e+00,-8.002619743347167969e+00,4.943038940429687500e+00,-1.963197469711303711e+00,-1.643306732177734375e+00,-3.580320835113525391e+00,2.902790784835815430e+00,-5.475110530853271484e+00,-9.519302248954772949e-01,-6.728787899017333984e+00,6.935948371887207031e+00,-1.502807331085205078e+01,-1.297842884063720703e+01,4.980931282043457031e+00,-1.580909919738769531e+01,1.982715988159179688e+01,1.650799751281738281e+01,2.619485473632812500e+01,3.756414794921875000e+01,2.794763183593750000e+01,3.593630218505859375e+01,1.311618328094482422e+01,2.640076255798339844e+01,3.772508621215820312e+01,1.361146736145019531e+01,2.529184913635253906e+01,5.670692062377929688e+01,1.536566352844238281e+01,1.865348434448242188e+01,-6.938558816909790039e-02,-9.602837562561035156e+00,2.015876197814941406e+01,1.358996105194091797e+01,3.933536529541015625e+00,-1.113739460706710815e-01,3.683635711669921875e+00,-1.479377174377441406e+01,5.242847204208374023e-01,8.157030105590820312e+00,-1.315617084503173828e+01,3.720632553100585938e+00,7.590672969818115234e+00,-1.048634529113769531e+01,3.263825178146362305e+00,-1.994822502136230469e+00,-1.725367307662963867e+00,-9.313375353813171387e-01
-1.038515716791152954e-01,3.877594709396362305e+00,-4.141259670257568359e+00,-7.059309482574462891e+00,7.700553894042968750e+00,-6.648179531097412109e+00,2.725597381591796875e+00,-8.899848937988281250e+00,3.991509079933166504e-01,-1.508374023437500000e+01,-7.268950462341308594e+00,2.180276393890380859e+00,1.431881546974182129e+00,4.841406345367431641e+00,-4.501511096954345703e+00,9.924728393554687500e+00,-1.599355041980743408e-01,2.541386795043945312e+01,7.349142456054687500e+01,6.335462188720703125e+01,7.029849243164062500e+01,3.216103363037109375e+01,6.434925842285156250e+01,4.881095123291015625e+01,5.221984863281250000e+01,5.582332611083984375e+01,4.863167190551757812e+01,1.114358234405517578e+01,6.724628448486328125e+01,3.861032104492187500e+01,3.253011703491210938e+01,3.832685089111328125e+01,-1.423579597473144531e+01,1.517839336395263672e+01,-4.624361038208007812e+01,-6.865751743316650391e+00,8.307078853249549866e-03,3.140262126922607422e+00,-9.004693031311035156e+00,4.015497684478759766e+00,-1.273383331298828125e+01,7.643431186676025391e+00,8.115789413452148438e+00,-1.572772979736328125e+00,-1.663748741149902344e+01,3.185069561004638672e+00,8.395720481872558594e+00,-2.748803615570068359e+00,4.537345886230468750e+00,1.701680779457092285e+00
-5.789080858230590820e-01,5.278078913688659668e-01,1.066117286682128906e+00,7.519487142562866211e-01,1.809276938438415527e+00,2.781299352645874023e+00,1.292365431785583496e+00,1.377244479954242706e-02,3.132119894027709961e+00,-2.827885150909423828e-01,-5.053752660751342773e-01,-6.067943572998046875e-01,-9.070752859115600586e-01,-3.303602933883666992e+00,-5.088625431060791016e+00,-5.741750717163085938e+00,1.245852112770080566e+00,-2.621567249298095703e-01,9.113549232482910156e+00,8.656059265136718750e+00,1.381426715850830078e+01,1.428072166442871094e+01,1.810469245910644531e+01,9.579081535339355469e+00,2.244388580322265625e+01,1.863861274719238281e+01,1.725765609741210938e+01,1.661731719970703125e+01,1.487979412078857422e+01,1.350732135772705078e+01,1.239616680145263672e+01,1.322670936584472656e+01,-3.788220167160034180e+00,9.436298608779907227e-01,1.890689253807067871e+00,-3.910541236400604248e-01,-1.745789885520935059e+00,-4.971930503845214844e+00,4.936400413513183594e+00,-2.562453746795654297e+00,3.623612523078918457e-01,4.732615470886230469e+00,-6.660669445991516113e-01,-5.391268730163574219e+00,-3.824375152587890625e+00,3.725533962249755859e+00,4.994204044342041016e-01,-9.918797612190246582e-01,1.767688155174255371e+00,5.328956842422485352e-01
-1.635304689407348633e+00,-7.388499379158020020e-02,1.120696067810058594e+00,8.414989709854125977e-01,4.087442755699157715e-01,-6.495516777038574219e+00,-1.752597451210021973e+00,-3.898236036300659180e+00,8.094179153442382812e+00,-1.088282966613769531e+01,-7.967436313629150391e+00,-2.161998033523559570e+00,1.724690794944763184e+00,-8.243700027465820312e+00,-8.223166465759277344e+00,1.690502882003784180e+00,3.539464235305786133e+00,-1.346095442771911621e+00,1.657032585144042969e+01,1.407052326202392578e+01,5.418680667877197266e+00,2.294527626037597656e+01,2.069337081909179688e+01,1.398101997375488281e+01,3.056328201293945312e+01,9.667469978332519531e+00,1.109172439575195312e+01,1.697699737548828125e+01,1.536166667938232422e+01,1.109519958496093750e+01,2.042924499511718750e+01,1.707433509826660156e+01,8.339900016784667969e+00,1.824110746383666992e+00,7.416152954101562500e+00,-5.826703548431396484e+00,-1.131157875061035156e+01,6.741525173187255859e+00,-5.359510421752929688e+00,4.486850738525390625e+00,-9.697412490844726562e+00,-9.660608291625976562e+00,-2.333218097686767578e+00,-3.468664646148681641e+00,-1.327068090438842773e+00,-2.165175437927246094e+00,2.338892698287963867e+00,-6.058539390563964844e+00,1.327466368675231934e+00,-8.627700805664062500e-01
-5.039126798510551453e-02,4.898372292518615723e-01,-5.515168905258178711e-01,-8.805531263351440430e-01,-1.112210392951965332e+00,9.670647382736206055e-01,1.506492137908935547e+00,-1.775769829750061035e+00,6.710165739059448242e-01,-5.027777671813964844e+00,-1.268847227096557617e+00,-1.702820509672164917e-01,2.365219354629516602e+00,3.397045612335205078e+00,5.169855356216430664e-01,4.394531726837158203e+00,-3.663434505462646484e+00,5.884567499160766602e-01,1.620864486694335938e+01,9.986201286315917969e+00,1.143260192871093750e+01,1.759821128845214844e+01,2.037884902954101562e+01,1.020650577545166016e+01,1.742058753967285156e+01,2.048284339904785156e+01,1.867233657836914062e+01,9.839265823364257812e+00,5.613068103790283203e+00,1.445969867706298828e+01,2.050242805480957031e+01,1.737310409545898438e+01,8.527884483337402344e-01,-1.606218695640563965e+00,-3.925822019577026367e+00,-4.996602535247802734e+00,2.103397369384765625e+00,-2.524328470230102539e+00,-9.831529855728149414e-01,-2.050438374280929565e-01,6.831933259963989258e-01,1.790878891944885254e+00,1.307204008102416992e+00,2.884622514247894287e-01,-1.443128585815429688e-01,1.860852956771850586e+00,4.233026504516601562e-01,-7.978310585021972656e-01,-6.209093332290649414e-01,1.951999306678771973e+00
-1.205684304237365723e+00,8.149320483207702637e-01,-3.265525680035352707e-03,2.389367073774337769e-01,-1.775811910629272461e+00,4.345826625823974609e+00,1.486691951751708984e+00,-2.353946208953857422e+00,1.925077676773071289e+00,-4.395104408264160156e+00,-4.672923088073730469e+00,-4.532989978790283203e+00,5.962927341461181641e+00,6.692260742187500000e+00,-5.346949577331542969e+00,-1.467352628707885742e+00,9.508048892021179199e-01,7.467588186264038086e-01,1.816880035400390625e+01,1.546922492980957031e+01,2.094799613952636719e+01,1.547807884216308594e+01,1.787866592407226562e+01,1.506870841979980469e+01,1.941643905639648438e+01,1.161987495422363281e+01,1.941234207153320312e+01,1.545000934600830078e+01,2.684558105468750000e+01,1.895246124267578125e+01,3.428553009033203125e+01,2.246319961547851562e+01,-1.091186332702636719e+01,-1.245946884155273438e-01,-8.955599784851074219e+00,-5.732642650604248047e+00,-1.800457760691642761e-02,2.705571365356445312e+01,9.190401077270507812e+00,1.156783485412597656e+01,1.183936309814453125e+01,1.038591480255126953e+01,3.239313888549804688e+01,2.072629737854003906e+01,1.366403770446777344e+01,-3.293302536010742188e+00,9.670475125312805176e-01,5.638545751571655273e-01,4.989924907684326172e+00,5.996083617210388184e-01
-1.764712929725646973e+00,-1.816877961158752441e+00,8.066345453262329102e-01,-1.195927858352661133e+00,-8.871005058288574219e+00,1.219067811965942383e+00,3.355721712112426758e+00,-3.855311155319213867e+00,5.926274299621582031e+00,-8.810299873352050781e+00,-5.808331012725830078e+00,-3.021256208419799805e+00,3.567842006683349609e+00,-3.017210245132446289e+00,1.121923637390136719e+01,-2.749827146530151367e+00,1.450943565368652344e+01,7.579820156097412109e+00,5.622250556945800781e+00,3.814960479736328125e+01,4.282343292236328125e+01,3.797241973876953125e+01,2.481843948364257812e+01,1.614514350891113281e+01,3.162952232360839844e+01,4.814976882934570312e+01,3.465699386596679688e+01,2.714039993286132812e+01,1.988528442382812500e+01,1.572886085510253906e+01,4.122305297851562500e+01,3.113327407836914062e+01,1.020292854309082031e+01,-2.832734823226928711e+00,-1.524470043182373047e+01,-8.690526962280273438e+00,1.815334129333496094e+01,-1.005771446228027344e+01,-6.029893875122070312e+00,-8.277152180671691895e-01,5.825376987457275391e+00,7.051766514778137207e-01,1.921698808670043945e+00,-4.372516155242919922e+00,6.558382987976074219e+00,-5.742321968078613281e+00,3.768533706665039062e+00,6.219770386815071106e-02,2.813208103179931641e+00,1.360085248947143555e+00
-3.234314322471618652e-01,-3.549638032913208008e+00,-1.369305491447448730e+00,-1.679609715938568115e-01,-1.351704597473144531e+00,-4.483407139778137207e-01,4.613804817199707031e-01,-3.552884340286254883e+00,3.600868225097656250e+00,-6.533671617507934570e-01,2.091615438461303711e+00,2.410980939865112305e+00,-2.682166576385498047e+00,-2.608259677886962891e+00,-1.073886632919311523e+00,1.479520678520202637e+00,1.876441597938537598e+00,8.131000518798828125e+00,7.733570098876953125e+00,4.266076087951660156e+00,7.171614646911621094e+00,1.451829051971435547e+01,7.605823516845703125e+00,7.121427059173583984e+00,5.303360462188720703e+00,7.588404178619384766e+00,6.532095432281494141e+00,1.450214672088623047e+01,7.154881477355957031e+00,1.178865432739257812e+01,5.783039569854736328e+00,6.380759239196777344e+00,3.941359043121337891e+00,-6.956369876861572266e-01,3.324597597122192383e+00,1.468940377235412598e+00,-4.714996814727783203e+00,5.101704597473144531e-01,2.256536960601806641e+00,-6.979600191116333008e-01,1.455449163913726807e-01,-2.626402378082275391e+00,1.745012700557708740e-01,1.378699541091918945e+00,-4.030216634273529053e-01,1.810550332069396973e+00,7.358250021934509277e-01,-2.016527652740478516e+00,1.299804449081420898e+00,-4.019910693168640137e-01
-9.319227933883666992e-02,-1.415398240089416504e+00,-2.119344711303710938e+00,1.739841848611831665e-01,6.910265922546386719e+00,-3.083725452423095703e+00,9.437700271606445312e+00,-5.610010147094726562e+00,5.361998081207275391e+00,2.600363254547119141e+00,1.318394660949707031e+01,-1.636290359497070312e+01,-3.319443464279174805e+00,-7.199587345123291016e+00,5.733170509338378906e+00,5.396575927734375000e+00,1.540148639678955078e+01,-3.275946855545043945e+00,2.004906082153320312e+01,3.127136230468750000e+01,1.299998760223388672e+01,2.011828041076660156e+01,3.039535522460937500e+01,2.705717086791992188e+01,2.859705162048339844e+01,1.884363365173339844e+01,2.209409332275390625e+01,2.139089584350585938e+01,2.074815368652343750e+01,2.952531814575195312e+01,3.002358055114746094e+01,1.645486068725585938e+01,-1.337968444824218750e+01,-1.997658759355545044e-01,-1.859356307983398438e+01,3.452112913131713867e+00,4.039150238037109375e+00,3.254142105579376221e-01,-4.320771217346191406e+00,3.210979461669921875e+00,-5.528307437896728516e+00,4.843806743621826172e+00,-4.600462913513183594e+00,4.021529674530029297e+00,1.946360349655151367e+00,-3.520453214645385742e+00,-4.040890216827392578e+00,-5.209330558776855469e+00,2.434102058410644531e+00,-8.949955105781555176e-01
-8.668695688247680664e-01,-2.368592500686645508e+00,8.637419939041137695e-01,7.915233373641967773e-01,1.327169895172119141e+00,-4.996284544467926025e-01,1.034581422805786133e+00,-3.916293382644653320e+00,9.507373809814453125e+00,-7.756207466125488281e+00,-1.920196914672851562e+01,1.773322343826293945e+00,1.753614187240600586e+00,-4.464292049407958984e+00,-1.444629192352294922e+01,-2.036888837814331055e+00,7.556309700012207031e+00,5.684968948364257812e+00,5.108569335937500000e+01,4.912394332885742188e+01,3.628739166259765625e+01,3.320181655883789062e+01,4.608346939086914062e+01,4.467964172363281250e+01,3.622800445556640625e+01,2.931404685974121094e+01,3.504998779296875000e+01,2.479305648803710938e+01,5.126888275146484375e+01,2.649855613708496094e+01,3.103896522521972656e+01,5.787838745117187500e+01,-5.232281208038330078e+00,-1.800698661804199219e+01,-1.565362358093261719e+01,-1.691791534423828125e+01,-1.326026916503906250e+01,4.125938892364501953e+00,-1.383525252342224121e+00,3.411736965179443359e+00,-2.930281066894531250e+01,-7.553768157958984375e+00,1.091783761978149414e+00,3.858083248138427734e+00,-7.784971714019775391e+00,-2.485417842864990234e+00,-9.186907768249511719e+00,-3.394807100296020508e+00,-2.865853071212768555e+00,-1.485347986221313477e+00
2.252326250076293945e+00,7.160850763320922852e-01,-1.052240133285522461e-01,3.703698396682739258e+00,7.648198008537292480e-01,-2.593990325927734375e+00,-7.215990684926509857e-03,5.249940752983093262e-01,3.458593845367431641e+00,1.648910284042358398e+00,-1.447149634361267090e+00,-1.402699708938598633e+00,8.648660659790039062e+00,2.099788486957550049e-01,9.892013549804687500e+00,2.728119611740112305e+00,-2.968861103057861328e+00,1.151047706604003906e+01,1.315344238281250000e+01,6.846369743347167969e+00,1.629339218139648438e+01,7.509115695953369141e+00,1.235619163513183594e+01,1.849313735961914062e+01,1.273936653137207031e+01,1.591739463806152344e+01,2.376724624633789062e+01,2.161765480041503906e+01,7.708727836608886719e+00,1.471192932128906250e+01,1.057660198211669922e+01,1.430450630187988281e+01,5.150125026702880859e+00,3.438365936279296875e+00,1.140649437904357910e+00,2.251775979995727539e+00,-4.895842552185058594e+00,-4.219319343566894531e+00,4.749955177307128906e+00,7.350181579589843750e+00,-6.699395656585693359e+00,-4.358020305633544922e+00,6.347887516021728516e-01,-9.374799728393554688e+00,4.740071296691894531e+00,-2.525640185922384262e-03,4.621295928955078125e+00,3.730600833892822266e+00,3.756317853927612305e+00,2.876056194305419922e+00
7.641083598136901855e-01,-2.528705596923828125e+00,-4.756335735321044922e+00,3.859499096870422363e-01,-5.309123396873474121e-01,3.550240755081176758e+00,1.003475904464721680e+00,3.065444231033325195e+00,-3.204013109207153320e+00,6.824234962463378906e+00,1.404204070568084717e-01,-1.073272514343261719e+01,-1.626294898986816406e+01,-1.825141906738281250e+01,-1.085433006286621094e+01,-6.285529136657714844e+00,9.534349441528320312e+00,-1.552019214630126953e+01,2.095871353149414062e+01,2.929344749450683594e+01,2.415359115600585938e+01,3.333037567138671875e+01,4.741249465942382812e+01,2.149854660034179688e+01,2.304894638061523438e+01,3.596745300292968750e+01,2.223171615600585938e+01,2.153572082519531250e+01,3.933316802978515625e+01,2.463845062255859375e+01,2.195959091186523438e+01,4.204946136474609375e+01,-8.917652130126953125e+00,4.170922756195068359e+00,-2.440760850906372070e+00,-2.438622951507568359e+00,8.361824035644531250e+00,1.011287498474121094e+01,-6.396274566650390625e-01,1.633657455444335938e+00,-8.491300582885742188e+00,-3.924296617507934570e+00,6.313899040222167969e+00,1.998591184616088867e+00,-2.906445741653442383e+00,4.100021362304687500e+00,-4.596695423126220703e+00,2.144708633422851562e+00,-2.209962368011474609e+00,-3.198740005493164062e+00
-6.975336074829101562e-01,5.159894227981567383e-01,9.171519279479980469e-01,-1.893013715744018555e+00,-1.051265120506286621e+00,-4.556879103183746338e-01,4.749480247497558594e+00,-3.557233512401580811e-01,7.912495136260986328e-01,-2.045537948608398438e+00,5.875390052795410156e+00,2.583210945129394531e+00,2.701382875442504883e+00,1.065360784530639648e+00,4.622953414916992188e+00,-2.584965467453002930e+00,1.801756858825683594e+00,2.524502873420715332e-01,1.099586963653564453e+01,1.285010528564453125e+01,8.743293762207031250e+00,8.573593139648437500e+00,1.282435798645019531e+01,9.449785232543945312e+00,6.146863937377929688e+00,8.139688491821289062e+00,2.857269287109375000e+00,5.028340339660644531e+00,1.234457588195800781e+01,7.840886592864990234e+00,1.169012355804443359e+01,8.455720901489257812e+00,9.544989466667175293e-01,-4.705805778503417969e-01,2.877300977706909180e-01,-3.974454402923583984e+00,-2.600028753280639648e+00,-3.132648766040802002e-01,5.980780124664306641e-01,-6.474466919898986816e-01,-3.754805088043212891e+00,1.376363188028335571e-01,-2.060369998216629028e-01,2.052214860916137695e+00,-3.291581869125366211e-01,-3.626784086227416992e+00,-2.812305092811584473e-01,-1.606298610568046570e-02,-1.165389537811279297e+00,4.314447343349456787e-01
-6.532495021820068359e-01,-4.338808059692382812e-01,-1.050921082496643066e+00,-1.404436469078063965e+00,-4.439017772674560547e-01,-3.453424200415611267e-02,-1.872857511043548584e-01,2.399464607238769531e+00,-1.666184663772583008e+00,4.739886283874511719e+00,9.453948140144348145e-01,-3.247493743896484375e+00,1.779945373535156250e+00,1.968497872352600098e+00,1.011556029319763184e+00,2.701018571853637695e+00,-2.842835903167724609e+00,-3.607248663902282715e-01,1.610888838768005371e+00,7.035895347595214844e+00,5.234345436096191406e+00,8.563977241516113281e+00,5.076813220977783203e+00,1.119685554504394531e+01,7.484676361083984375e+00,8.589802742004394531e+00,9.284955978393554688e+00,6.912841796875000000e+00,5.747429847717285156e+00,7.414981842041015625e+00,5.040137290954589844e+00,9.499210357666015625e+00,-7.634499669075012207e-02,1.789449453353881836e+00,1.359428405761718750e+00,-1.995561957359313965e+00,6.897443532943725586e-01,9.978755712509155273e-01,3.386982679367065430e-01,4.784195870161056519e-02,-1.849766373634338379e+00,2.772578716278076172e+00,-6.869647502899169922e-01,4.571021199226379395e-01,-5.023097991943359375e+00,-1.514935255050659180e+00,-2.075463771820068359e+00,-1.087718844413757324e+00,-3.633614301681518555e+00,1.352362513542175293e+00
7.423654794692993164e-01,8.518670082092285156e+00,5.528434514999389648e-01,-9.438190460205078125e+00,6.554083824157714844e+00,-1.430938434600830078e+01,-4.730844497680664062e+00,6.179177761077880859e+00,-1.103350257873535156e+01,1.730676269531250000e+01,-6.231688499450683594e+00,-1.232924938201904297e+01,-1.624395751953125000e+01,-2.450775337219238281e+01,4.235590934753417969e+00,4.379705905914306641e+00,-2.838358640670776367e+00,-4.985024452209472656e+00,5.586944580078125000e+01,2.764701843261718750e+01,4.012511444091796875e+01,3.733952713012695312e+01,5.739443206787109375e+01,2.248550987243652344e+01,2.852706909179687500e+01,3.836635208129882812e+01,2.769598007202148438e+01,2.600178909301757812e+01,3.227797698974609375e+01,1.702344894409179688e+01,1.932570075988769531e+01,2.928078079223632812e+01,2.674961566925048828e+00,5.658534526824951172e+00,-2.053692579269409180e+00,2.020026922225952148e+00,-1.040720081329345703e+01,5.935110569000244141e+00,-1.245157432556152344e+01,-1.252641391754150391e+01,-4.013988971710205078e-01,5.585316181182861328e+00,-1.200555706024169922e+01,-6.604044914245605469e+00,1.473089408874511719e+01,2.097209930419921875e+00,-7.226533412933349609e+00,-8.172281265258789062e+00,-2.132984924316406250e+01,8.412028312683105469e+00
1.164442420005798340e+00,-7.063315510749816895e-01,4.400990962982177734e+00,-1.021916389465332031e+00,-1.549602627754211426e+00,4.169686794281005859e+00,3.446796417236328125e+00,-1.251478314399719238e+00,5.845084190368652344e-01,2.653918504714965820e+00,-2.373103380203247070e+00,9.984636306762695312e+00,-1.812802076339721680e+00,-1.635240316390991211e+00,1.831972360610961914e+00,6.936903476715087891e+00,-4.625078678131103516e+00,-2.013444185256958008e+00,7.645289421081542969e+00,9.318858146667480469e+00,1.195797538757324219e+01,1.299128437042236328e+01,1.654410934448242188e+01,1.618373680114746094e+01,1.888892555236816406e+01,1.820228576660156250e+01,1.796182060241699219e+01,1.893916702270507812e+01,1.271220111846923828e+01,1.092179679870605469e+01,1.149518394470214844e+01,2.163770675659179688e+01,1.506580114364624023e+00,1.527982473373413086e+00,-2.117670536041259766e+00,-1.618447601795196533e-01,-3.522582292556762695e+00,3.817661285400390625e+00,-3.039569377899169922e+00,8.459483146667480469e+00,-5.801033020019531250e+00,-1.508128196001052856e-01,-8.156407356262207031e+00,5.507433891296386719e+00,-2.302859783172607422e+00,4.225975990295410156e+00,1.522994995117187500e+00,-2.245368957519531250e+00,2.177618026733398438e+00,6.034488677978515625e-01
-3.886795639991760254e-01,1.427392102777957916e-02,-2.898792266845703125e+00,-3.550340652465820312e+00,-2.479804277420043945e+00,3.005414962768554688e+00,-6.718145847320556641e+00,-1.046586751937866211e+00,-1.032865643501281738e+00,-8.562199592590332031e+00,-7.999731540679931641e+00,5.756590366363525391e+00,4.300253391265869141e+00,2.655241727828979492e+00,3.637660980224609375e+00,5.924415588378906250e+00,1.733832955360412598e+00,-3.803843021392822266e+00,2.061542510986328125e+01,1.424646282196044922e+01,1.919655799865722656e+01,2.569326782226562500e+01,1.570986938476562500e+01,6.686490535736083984e+00,1.360833930969238281e+01,8.473767280578613281e+00,1.836880111694335938e+01,1.159539318084716797e+01,1.146334838867187500e+01,1.619786643981933594e+01,1.311441326141357422e+01,2.037820053100585938e+01,1.756585389375686646e-01,-1.028317451477050781e+01,-2.918128490447998047e+00,2.382797956466674805e+00,-3.111406803131103516e+00,-2.884728014469146729e-01,-3.522074937820434570e+00,1.283107280731201172e+01,-1.612493544816970825e-01,3.230891466140747070e+00,2.085834026336669922e+00,-3.133567571640014648e+00,-1.903095006942749023e+00,8.342107534408569336e-01,-1.200680732727050781e-01,-2.397405147552490234e+00,-1.493235588073730469e+00,-3.800255537033081055e+00
7.043623924255371094e-01,1.868375241756439209e-01,-9.959427714347839355e-01,1.745100378990173340e+00,3.977092027664184570e+00,4.425993919372558594e+00,-1.190397024154663086e+00,-8.091716766357421875e+00,2.920658111572265625e+00,-4.201244354248046875e+00,-7.874818325042724609e+00,-4.134802341461181641e+00,6.615889072418212891e+00,2.642794847488403320e+00,6.771779060363769531e+00,-1.778817892074584961e+00,1.745151877403259277e+00,3.440865993499755859e+00,3.884700393676757812e+01,3.566595458984375000e+01,2.613287925720214844e+01,3.863153076171875000e+01,1.975077819824218750e+01,2.577881431579589844e+01,1.922541427612304688e+01,1.301027870178222656e+01,2.929897499084472656e+01,2.885107421875000000e+01,2.619176101684570312e+01,3.115302467346191406e+01,3.392465972900390625e+01,2.549641036987304688e+01,-1.055823040008544922e+01,2.974018812179565430e+00,1.244676560163497925e-01,-2.027555704116821289e+00,5.580245256423950195e-01,5.553445339202880859e+00,-2.603931665420532227e+00,-9.987448453903198242e-01,5.959947109222412109e-01,-6.040398597717285156e+00,7.810634970664978027e-01,-2.535004377365112305e+00,-1.557286500930786133e+00,-2.610060214996337891e+00,1.219787001609802246e+00,3.680896043777465820e+00,-1.947061181068420410e+00,-1.041188597679138184e+00
-6.907514333724975586e-01,-2.397845536470413208e-01,1.713458061218261719e+00,-6.968998908996582031e+00,-2.569867372512817383e+00,4.472526073455810547e+00,5.259988307952880859e+00,5.154291391372680664e-01,-2.603937911987304688e+01,1.612420272827148438e+01,2.466919183731079102e+00,-6.617175102233886719e+00,-9.167060852050781250e+00,1.154153537750244141e+01,-1.249428033828735352e+00,1.028691291809082031e+01,1.825166893005371094e+01,1.533656597137451172e+00,5.024709701538085938e+01,5.008094024658203125e+01,3.776724243164062500e+01,2.157970809936523438e+01,4.398606109619140625e+01,4.331405639648437500e+01,1.256335067749023438e+01,2.040484046936035156e+01,4.412856674194335938e+01,3.953700637817382812e+01,6.315280914306640625e+01,5.823653411865234375e+01,4.586348342895507812e+01,5.404095458984375000e+01,-1.556771278381347656e+01,-1.124865722656250000e+01,7.652210235595703125e+00,4.340952873229980469e+00,-1.262528705596923828e+01,1.045423698425292969e+01,6.688945293426513672e-01,-3.468460845947265625e+01,7.030313014984130859e+00,-1.357171630859375000e+01,3.637907743453979492e+00,-7.009503364562988281e+00,-7.384105682373046875e+00,3.926562786102294922e+00,-7.753541469573974609e+00,2.018203735351562500e+00,2.565624237060546875e+00,7.717327028512954712e-02
1.972703933715820312e+00,-8.605913072824478149e-02,-5.747184276580810547e+00,-4.723169803619384766e+00,-1.317759752273559570e+00,-8.077200651168823242e-01,-4.561459064483642578e+00,1.980869650840759277e+00,4.475209712982177734e+00,1.742636322975158691e+00,2.718255996704101562e+00,-6.556112766265869141e+00,9.654310345649719238e-01,-2.294066810607910156e+01,-2.374549396336078644e-02,-8.978627204895019531e+00,-3.210090637207031250e+00,-1.123171043395996094e+01,2.903398513793945312e+01,2.408273506164550781e+01,3.418201065063476562e+01,1.635295486450195312e+01,2.684589004516601562e+01,2.567961692810058594e+01,2.385342788696289062e+01,1.990106582641601562e+01,2.568900680541992188e+01,1.886632156372070312e+01,2.983984375000000000e+01,2.114374351501464844e+01,3.562383270263671875e+01,2.321001052856445312e+01,1.589151978492736816e+00,3.840733766555786133e+00,-5.733439445495605469e+00,5.121406078338623047e+00,-7.858384609222412109e+00,-7.254350185394287109e+00,4.054584026336669922e+00,-1.246510791778564453e+01,-1.169379138946533203e+01,7.443307638168334961e-01,-5.930765151977539062e+00,1.033794975280761719e+01,-1.177413177490234375e+01,-1.541064262390136719e+00,-2.680504798889160156e+00,2.687666654586791992e+00,-3.201533079147338867e+00,2.024139404296875000e+00
-6.714287996292114258e-01,3.052718639373779297e-01,1.061496973037719727e+00,-2.442011833190917969e+00,-2.005095005035400391e+00,-4.190814971923828125e+00,-5.706646919250488281e+00,3.224841356277465820e+00,-1.343333625793457031e+01,-4.626277923583984375e+00,3.151854753494262695e+00,5.743442177772521973e-01,-1.004549121856689453e+01,-8.250635266304016113e-01,-9.915717691183090210e-02,7.508138179779052734e+00,2.183209896087646484e+00,1.550090551376342773e+00,3.518126296997070312e+01,3.487375640869140625e+01,4.704868316650390625e+01,6.449586486816406250e+01,2.611757850646972656e+01,4.018338775634765625e+01,2.356072807312011719e+01,1.642377281188964844e+01,1.460635375976562500e+01,1.976284217834472656e+01,2.092601203918457031e+01,2.189441680908203125e+01,1.496243858337402344e+01,4.224108123779296875e+01,1.956166839599609375e+01,3.564162492752075195e+00,5.780315399169921875e+00,-6.779105067253112793e-01,-9.471219778060913086e-02,-4.946280956268310547e+00,-1.635650444030761719e+01,6.308602333068847656e+00,2.771756649017333984e+00,-9.376281738281250000e+00,4.782979488372802734e+00,6.778611660003662109e+00,-3.516869544982910156e-01,6.000782251358032227e-01,2.305999994277954102e-01,-5.088754892349243164e-01,1.384533345699310303e-01,3.624029636383056641e+00
4.279162287712097168e-01,-4.940111041069030762e-01,1.972814917564392090e+00,1.053776144981384277e+00,-1.961639761924743652e+00,6.611926078796386719e+00,5.514304161071777344e+00,5.715735435485839844e+00,-3.659459352493286133e+00,-4.225071907043457031e+00,3.658381402492523193e-01,-1.282885789871215820e+00,3.131939649581909180e+00,-3.387941360473632812e+00,1.688962745666503906e+01,-3.674777507781982422e+00,1.395898151397705078e+01,-2.400872707366943359e+00,3.482044219970703125e+01,2.087053489685058594e+01,9.022297859191894531e+00,2.580388832092285156e+01,2.376845932006835938e+01,3.206647491455078125e+01,1.867636680603027344e+01,1.657921600341796875e+01,1.349273204803466797e+01,2.575688552856445312e+01,1.611750602722167969e+01,1.972771835327148438e+01,2.135563278198242188e+01,1.410263061523437500e+01,-4.464693069458007812e-01,9.779157638549804688e-01,-6.649916172027587891e+00,-9.713720321655273438e+00,1.314579200744628906e+01,3.850369930267333984e+00,-5.541248917579650879e-01,-4.531582832336425781e+00,-1.385099792480468750e+01,8.527729988098144531e+00,-7.738184928894042969e+00,-1.033624076843261719e+01,1.744556999206542969e+01,1.132248491048812866e-01,3.983121395111083984e+00,2.942812442779541016e+00,4.392676353454589844e+00,1.642364144325256348e+00
-4.587894976139068604e-01,-3.753348588943481445e+00,3.456019639968872070e+00,-1.451400995254516602e+00,9.401281356811523438e+00,4.538269042968750000e+00,2.055817544460296631e-01,-1.677612900733947754e+00,-1.674537658691406250e+00,-2.921359300613403320e+00,-1.340868949890136719e+00,-3.387995958328247070e+00,-3.770819902420043945e+00,-1.369435310363769531e+00,5.135256648063659668e-01,-1.937052369117736816e+00,2.438764572143554688e+00,3.278664350509643555e+00,1.417088031768798828e+01,2.220690917968750000e+01,1.887033081054687500e+01,1.484840965270996094e+01,1.283396625518798828e+01,1.964449119567871094e+01,1.718049049377441406e+01,1.292127990722656250e+01,6.184773921966552734e+00,6.174137115478515625e+00,1.391379356384277344e+01,1.243528175354003906e+01,1.415146350860595703e+01,2.483543014526367188e+01,-5.160102248191833496e-01,-1.639343202114105225e-01,6.922757148742675781e+00,-1.581263303756713867e+00,3.990744113922119141e+00,3.386021137237548828e+00,9.353874325752258301e-01,3.443997144699096680e+00,8.496028780937194824e-01,3.914750576019287109e+00,-3.775381565093994141e+00,-1.384350013732910156e+01,2.378585785627365112e-01,-1.016989231109619141e+00,3.231065273284912109e-01,-5.729809284210205078e+00,3.208705902099609375e+00,-3.063416719436645508e+00
1.300080418586730957e+00,5.576680660247802734e+00,-2.095512151718139648e+00,9.886195510625839233e-02,1.157040596008300781e+01,-4.398749351501464844e+00,-5.832499504089355469e+00,-1.673965454101562500e+01,6.485428810119628906e+00,-8.014146804809570312e+00,2.798060417175292969e+00,1.149229907989501953e+01,1.121367359161376953e+01,-1.552621173858642578e+01,-6.535302162170410156e+00,-1.525920104980468750e+01,3.336371898651123047e+00,3.109748601913452148e+00,4.969751739501953125e+01,5.745785522460937500e+01,4.109437179565429688e+01,4.325877380371093750e+01,4.315793991088867188e+01,3.500531768798828125e+01,5.840977096557617188e+01,4.259114074707031250e+01,4.325412368774414062e+01,3.480277633666992188e+01,4.562873077392578125e+01,4.087738037109375000e+01,5.402028274536132812e+01,4.786616897583007812e+01,2.422937601804733276e-01,-6.031003475189208984e+00,9.335240364074707031e+00,-6.790770053863525391e+00,-3.109028625488281250e+01,-5.940244197845458984e+00,-4.815939426422119141e+00,6.801841735839843750e+00,-1.127743911743164062e+01,6.443028926849365234e+00,-6.530077934265136719e+00,-2.653596878051757812e+00,-2.966223478317260742e+00,7.245935916900634766e+00,-8.223971366882324219e+00,-7.713587760925292969e+00,-3.089369297027587891e+00,2.124875068664550781e+00
-1.769605278968811035e-01,1.185591220855712891e-01,-1.172292470932006836e+00,-3.494775295257568359e+00,-2.939318895339965820e+00,3.540234088897705078e+00,2.071432828903198242e+00,-3.886690616607666016e+00,-1.939098358154296875e+00,4.165508270263671875e+00,7.441697597503662109e+00,-1.237014579772949219e+01,1.353271007537841797e+01,-1.628609085083007812e+01,-9.131692886352539062e+00,-1.191614437103271484e+01,7.219997406005859375e+00,-6.726368665695190430e-01,4.071136856079101562e+01,2.058924484252929688e+01,3.741155242919921875e+01,2.699692344665527344e+01,4.802891540527343750e+01,4.049784088134765625e+01,3.190007972717285156e+01,9.964680671691894531e+00,3.352797698974609375e+01,2.873699378967285156e+01,3.180200195312500000e+01,3.720149993896484375e+01,3.965316009521484375e+01,3.140133094787597656e+01,-7.573273658752441406e+00,-1.269805717468261719e+01,1.911186599731445312e+01,-5.184014797210693359e+00,1.911463975906372070e+00,-1.528775787353515625e+01,7.107654571533203125e+00,-4.792214393615722656e+00,9.668188095092773438e-01,-1.143259048461914062e+00,7.199536323547363281e+00,3.156065702438354492e+00,-5.497804164886474609e+00,9.073759078979492188e+00,8.865289688110351562e+00,-2.346046924591064453e+00,-6.714511871337890625e+00,-7.705994844436645508e-01
1.059046506881713867e+00,-1.213364362716674805e+00,-6.529642641544342041e-02,1.413272857666015625e+00,2.566158771514892578e+00,-1.370795488357543945e+00,-2.982358217239379883e+00,-6.967928886413574219e+00,-3.390722990036010742e+00,-3.830533504486083984e+00,8.346369743347167969e+00,3.535390377044677734e+00,6.555581092834472656e+00,5.509142398834228516e+00,5.573780536651611328e+00,-1.249792003631591797e+01,-5.460938453674316406e+00,-5.148026466369628906e+00,2.244680786132812500e+01,1.896228027343750000e+01,1.397680187225341797e+01,1.975771141052246094e+01,2.065151977539062500e+01,1.613651657104492188e+01,2.071716117858886719e+01,1.054282379150390625e+01,2.841777420043945312e+01,1.509558296203613281e+01,1.146695423126220703e+01,1.234857368469238281e+01,1.466693687438964844e+01,1.355478668212890625e+01,6.674341678619384766e+00,-5.205464363098144531e-01,-8.718357086181640625e-01,-3.736665248870849609e+00,-7.841135501861572266e+00,1.505602478981018066e+00,-7.307825088500976562e-01,-6.527215480804443359e+00,-6.821066856384277344e+00,8.630900382995605469e-01,2.728748798370361328e+00,5.183732509613037109e+00,3.803811550140380859e+00,1.731802701950073242e+00,-2.655266523361206055e+00,5.033191204071044922e+00,1.016908288002014160e-01,-1.496165037155151367e+00
-1.922783136367797852e+00,-1.631262063980102539e+00,-2.916013240814208984e+00,-5.529573917388916016e+00,4.724048674106597900e-01,4.817053794860839844e+00,1.051333904266357422e+01,1.167935132980346680e+00,-4.000257015228271484e+00,5.693078041076660156e+00,-1.286983251571655273e+00,-3.035328984260559082e-01,2.528509378433227539e+00,-9.732505083084106445e-01,1.807568192481994629e+00,1.428496718406677246e+00,6.003491282463073730e-01,4.691725730895996094e+00,1.919287681579589844e+01,2.046019935607910156e+01,1.167763996124267578e+01,1.571245098114013672e+01,9.141787528991699219e+00,1.498700428009033203e+01,2.244964218139648438e+01,1.271147918701171875e+01,6.296298980712890625e+00,2.483565902709960938e+01,8.074810028076171875e+00,1.164315795898437500e+01,1.348573589324951172e+01,2.628906822204589844e+01,6.316496133804321289e-01,-3.188534498214721680e+00,1.621204376220703125e+00,1.031397104263305664e+00,8.303871154785156250e+00,-1.663070321083068848e+00,5.635533332824707031e+00,-2.284009009599685669e-01,-1.861379295587539673e-01,-2.454759359359741211e+00,-3.351624965667724609e+00,4.731837272644042969e+00,-1.435729742050170898e+00,6.841101169586181641e+00,-1.173873186111450195e+00,8.420710563659667969e+00,2.186942577362060547e+00,1.636622190475463867e+00
2.203097820281982422e+00,5.063989639282226562e+00,7.922111749649047852e-01,1.312260913848876953e+01,6.880907535552978516e+00,-1.531082391738891602e+00,3.952599287033081055e+00,3.287146806716918945e+00,3.574413776397705078e+00,8.770084381103515625e+00,-9.206821322441101074e-01,1.776534652709960938e+01,5.277079582214355469e+00,-8.870888948440551758e-01,2.388047456741333008e+00,-9.160145759582519531e+00,8.252893447875976562e+00,1.394810199737548828e+01,2.643969154357910156e+01,4.809502029418945312e+01,2.378833580017089844e+01,1.926576042175292969e+01,2.365925598144531250e+01,3.411398315429687500e+01,2.108202171325683594e+01,1.527138805389404297e+01,4.178339004516601562e+01,3.507976531982421875e+01,3.768164443969726562e+01,3.901408004760742188e+01,2.693210983276367188e+01,3.730365753173828125e+01,9.030392646789550781e+00,2.424907684326171875e+00,6.312845230102539062e+00,-2.817487001419067383e+00,-1.976717758178710938e+01,1.285956144332885742e+00,-1.203991603851318359e+01,-3.339406585693359375e+01,1.164557743072509766e+01,-3.488027954101562500e+01,4.427807331085205078e+00,2.527834510803222656e+01,-2.753291702270507812e+01,-2.189729309082031250e+01,-4.174408721923828125e+01,8.715399742126464844e+00,-9.190595626831054688e+00,-4.856252193450927734e+00
1.318392038345336914e+00,3.335588574409484863e-01,-8.160379528999328613e-01,3.427440166473388672e+00,-3.952530384063720703e+00,7.791091918945312500e+00,-3.983392000198364258e+00,3.360650300979614258e+00,-8.375175595283508301e-01,6.441906929016113281e+00,2.943999528884887695e+00,3.766689598560333252e-01,6.003295898437500000e+00,-3.323328495025634766e+00,1.122765779495239258e+00,3.533093690872192383e+00,-8.050193786621093750e+00,4.964298248291015625e+00,7.154753208160400391e+00,1.018125534057617188e+01,1.128434276580810547e+01,1.236862421035766602e+00,9.755844116210937500e+00,6.990422725677490234e+00,3.104130983352661133e+00,7.881041049957275391e+00,6.736155509948730469e+00,2.630339145660400391e+00,8.257582664489746094e+00,1.122708320617675781e+01,8.752970695495605469e+00,9.461243629455566406e+00,-1.791338562965393066e+00,-2.565626204013824463e-01,-1.629253029823303223e+00,3.202909946441650391e+00,1.466872453689575195e+00,-5.753764152526855469e+00,-1.437243819236755371e+00,2.837464570999145508e+00,-2.601706981658935547e+00,-2.617133617401123047e+00,-5.784483551979064941e-01,-8.471575975418090820e-01,1.174522638320922852e+00,1.334485411643981934e-01,1.345161080360412598e+00,5.102018117904663086e-01,7.239944338798522949e-01,-4.132383763790130615e-01
3.451188564300537109e+00,2.370121002197265625e+00,5.061510562896728516e+00,-2.437905073165893555e+00,-1.234421849250793457e+00,5.570769309997558594e+00,-1.236129522323608398e+00,4.378852844238281250e+00,-1.214661359786987305e+00,-6.216554164886474609e+00,3.186204910278320312e+00,7.002965450286865234e+00,5.530395984649658203e+00,-3.994198560714721680e+00,5.550885200500488281e+00,7.139269828796386719e+00,-3.868877410888671875e+00,3.283170700073242188e+00,2.852002525329589844e+01,3.247169113159179688e+01,1.189436817169189453e+01,3.507955551147460938e+01,2.968367385864257812e+01,5.627710342407226562e+00,2.918871498107910156e+01,3.001652145385742188e+01,1.418101978302001953e+01,8.106205940246582031e+00,2.331815719604492188e+01,2.467775726318359375e+01,1.735816574096679688e+01,3.083787918090820312e+01,1.557724237442016602e+00,-9.719169616699218750e+00,-5.404463291168212891e+00,1.165023994445800781e+01,2.101228713989257812e+01,1.146307086944580078e+01,6.443567752838134766e+00,-3.193752098083496094e+01,-5.761723518371582031e-01,-2.448377227783203125e+01,-2.162807655334472656e+01,1.179781150817871094e+01,-3.568021774291992188e+01,-1.559152221679687500e+01,-1.546310710906982422e+01,8.772570610046386719e+00,1.926235580444335938e+01,-7.126467704772949219e+00
-1.709605753421783447e-01,1.147435307502746582e+00,4.657821059226989746e-01,-2.229824066162109375e+00,-1.362854242324829102e+00,-1.803708434104919434e+00,4.146574437618255615e-01,-7.666611671447753906e-01,-1.406289219856262207e+00,5.482807755470275879e-01,-6.095616817474365234e-01,1.322795271873474121e+00,-3.753107488155364990e-01,3.951311111450195312e+00,-2.057075738906860352e+00,4.306415915489196777e-01,3.492764949798583984e+00,2.397886753082275391e+00,8.211607933044433594e+00,6.074109077453613281e+00,5.797194004058837891e+00,8.290035247802734375e+00,4.913731098175048828e+00,9.232178688049316406e+00,8.950274467468261719e+00,9.192907333374023438e+00,9.308137893676757812e+00,1.022427082061767578e+01,4.884740352630615234e+00,8.687570571899414062e+00,4.342464923858642578e+00,1.480636596679687500e+01,-1.839487791061401367e+00,8.271928876638412476e-02,1.521841902285814285e-02,4.139123558998107910e-01,2.783278822898864746e-01,4.051406383514404297e+00,1.742229819297790527e+00,1.454768896102905273e+00,-1.535729646682739258e+00,-8.094484210014343262e-01,-6.032441854476928711e-01,6.173382401466369629e-01,2.963324189186096191e-01,-1.185885071754455566e+00,3.793662041425704956e-02,3.735106706619262695e+00,1.150480389595031738e+00,-7.878583073616027832e-01
4.372591972351074219e-01,-1.331808090209960938e+00,3.208146572113037109e+00,3.185957908630371094e+00,3.621292829513549805e+00,1.777213454246520996e+00,8.469606637954711914e-01,6.368742942810058594e+00,-4.316761970520019531e+00,2.060297489166259766e+00,6.976637840270996094e+00,5.277749061584472656e+00,5.881691932678222656e+00,-2.926148772239685059e-01,4.575466156005859375e+00,-1.114027261734008789e+00,-7.383328080177307129e-01,-1.893243074417114258e+00,1.409865093231201172e+01,9.354624748229980469e+00,8.561528205871582031e+00,1.654446411132812500e+01,1.130791187286376953e+01,8.977618217468261719e+00,1.757790184020996094e+01,1.015020942687988281e+01,2.032754516601562500e+01,1.073245620727539062e+01,1.714005279541015625e+01,1.904532814025878906e+01,2.672126388549804688e+01,2.178354454040527344e+01,5.616753578186035156e+00,-2.720581531524658203e+00,5.861201763153076172e+00,7.964347600936889648e-01,-1.568875551223754883e+00,-3.489336490631103516e+00,5.476715087890625000e+00,-2.673426628112792969e+00,1.022047424316406250e+01,4.633474826812744141e+00,8.400837898254394531e+00,4.342109203338623047e+00,-3.474720716476440430e+00,1.373909711837768555e-01,2.143901109695434570e+00,5.387774467468261719e+00,-1.801973104476928711e+00,-1.699357032775878906e+00
8.547167479991912842e-02,-1.508565783500671387e+00,2.901801347732543945e+00,-2.831991672515869141e+00,5.234704017639160156e+00,1.918457603454589844e+01,-1.696915984153747559e+00,5.207979679107666016e+00,-1.183554840087890625e+01,-2.313458442687988281e+00,-6.756722450256347656e+00,-5.258897781372070312e+00,-6.568669795989990234e+00,-1.834985923767089844e+01,1.263443851470947266e+01,1.486580085754394531e+01,-1.088177204132080078e+01,-3.302314043045043945e+00,3.282601928710937500e+01,3.141020202636718750e+01,2.722683143615722656e+01,1.761896133422851562e+01,4.691227340698242188e+01,3.977639389038085938e+01,1.588353252410888672e+01,3.656150054931640625e+01,2.401322174072265625e+01,3.587722396850585938e+01,3.280893325805664062e+01,3.455567169189453125e+01,3.198339271545410156e+01,2.679156112670898438e+01,1.986484289169311523e+00,-1.648469924926757812e+01,6.283732414245605469e+00,-6.870456695556640625e+00,-5.997445583343505859e+00,5.135834217071533203e+00,-2.037778377532958984e+00,4.075911521911621094e+00,8.540171623229980469e+00,-1.211874294281005859e+01,1.210056495666503906e+01,5.167026042938232422e+00,3.087891578674316406e+00,8.213462829589843750e+00,-6.726112365722656250e+00,-5.845274925231933594e+00,1.151979684829711914e+00,4.109509468078613281e+00
4.643295288085937500e+00,-3.053452730178833008e+00,-1.199026107788085938e+00,-5.076501846313476562e+00,-1.125561445951461792e-01,8.398921012878417969e+00,1.335823822021484375e+01,-5.260956287384033203e+00,-6.855947017669677734e+00,7.138659477233886719e+00,5.284746885299682617e-01,-6.178263425827026367e-01,-3.537285327911376953e+00,2.472198724746704102e+00,4.327476024627685547e+00,-5.368769645690917969e+00,-5.033079624176025391e+00,-8.732751846313476562e+00,3.107746887207031250e+01,2.928244018554687500e+01,2.610143089294433594e+01,1.686692047119140625e+01,3.794171524047851562e+01,2.672143936157226562e+01,1.601496505737304688e+01,2.793973731994628906e+01,4.585959243774414062e+01,4.949826812744140625e+01,2.809760665893554688e+01,3.336141204833984375e+01,1.725340843200683594e+01,3.584600830078125000e+01,-8.201570510864257812e+00,-2.540598511695861816e-01,-6.041076660156250000e+00,-1.311896514892578125e+01,2.569636583328247070e+00,1.306157875061035156e+01,1.037364959716796875e+01,-6.181963920593261719e+00,-1.046591377258300781e+01,7.914445400238037109e+00,-7.022984981536865234e+00,-9.502941370010375977e-01,8.932739496231079102e-01,1.538084697723388672e+01,1.557155966758728027e+00,-7.172850608825683594e+00,1.231975364685058594e+01,-2.362386465072631836e+00
3.361138701438903809e-01,-3.274972200393676758e+00,-1.278633356094360352e+00,1.765313506126403809e+00,-1.315917253494262695e+00,-2.651753902435302734e+00,1.520024895668029785e+00,8.347374200820922852e-01,-1.180160331726074219e+01,-7.749585151672363281e+00,-3.672668457031250000e+00,3.356862545013427734e+00,1.328111457824707031e+01,5.468499183654785156e+00,-9.922430038452148438e+00,2.008298158645629883e+00,-3.720390200614929199e-01,9.371229171752929688e+00,2.056209945678710938e+01,2.387149047851562500e+01,2.118560600280761719e+01,2.285309982299804688e+01,2.067399215698242188e+01,1.496484947204589844e+01,2.074152755737304688e+01,2.538378524780273438e+01,1.957841110229492188e+01,1.358213615417480469e+01,1.872073173522949219e+01,5.317011356353759766e+00,3.149101638793945312e+01,2.736802673339843750e+01,4.508509635925292969e+00,-3.145788908004760742e+00,1.117167377471923828e+01,-1.511323833465576172e+01,2.530611753463745117e+00,4.625548362731933594e+00,2.632698535919189453e+00,-4.317438602447509766e+00,-3.742371082305908203e+00,-6.059609651565551758e-01,-6.436529636383056641e+00,1.528191804885864258e+00,-5.284714698791503906e-01,-2.186022281646728516e+00,-4.661366939544677734e+00,7.225707173347473145e-01,1.546970009803771973e+00,-8.419939279556274414e-01
-4.768978655338287354e-01,2.764565229415893555e+00,4.635741233825683594e+00,-1.435740947723388672e+01,2.078677117824554443e-01,5.814413547515869141e+00,-4.473958492279052734e+00,-6.078009128570556641e+00,6.937038421630859375e+00,-4.505782127380371094e+00,-4.873576641082763672e+00,2.131511878967285156e+01,1.976637077331542969e+01,-6.597577929496765137e-01,-4.870394229888916016e+00,2.671292114257812500e+01,2.846626520156860352e+00,4.026112079620361328e+00,4.730393218994140625e+01,6.255614471435546875e+01,1.916304779052734375e+01,5.017744064331054688e+01,5.112776184082031250e+01,1.788893127441406250e+01,2.733560562133789062e+01,3.347569656372070312e+01,3.855947494506835938e+01,3.767590332031250000e+01,4.414622497558593750e+01,4.125451278686523438e+01,2.488764572143554688e+01,2.601125144958496094e+01,-2.470192670822143555e+00,9.857546806335449219e+00,-4.596453666687011719e+00,-2.437462234497070312e+01,-5.567774772644042969e+00,-2.819890737533569336e+00,1.964564895629882812e+01,-3.151021003723144531e+00,9.237515449523925781e+00,-1.342001914978027344e+01,4.908827781677246094e+00,-8.648023605346679688e+00,-1.421893119812011719e+01,-7.390083312988281250e+00,2.509676456451416016e+00,-4.256768703460693359e+00,-8.323539733886718750e+00,-4.817724704742431641e+00
1.632215738296508789e+00,-2.269996702671051025e-01,2.134994029998779297e+00,-3.169610500335693359e+00,-2.040652990341186523e+00,-4.439904212951660156e+00,-1.275108337402343750e+00,-5.746649265289306641e+00,1.071937274932861328e+01,-5.972527980804443359e+00,-1.225677132606506348e+00,-1.048259258270263672e+01,-3.795452833175659180e+00,2.070316886901855469e+01,6.195802211761474609e+00,-2.107656717300415039e+00,-1.107428455352783203e+01,1.131278991699218750e+01,3.015047073364257812e+01,3.643329238891601562e+01,2.696236228942871094e+01,2.329050636291503906e+01,2.086206054687500000e+01,3.062661743164062500e+01,4.287464904785156250e+01,1.694934654235839844e+01,1.488335704803466797e+01,1.815560531616210938e+01,1.224418163299560547e+01,4.049679183959960938e+01,4.107228469848632812e+01,3.633301544189453125e+01,-9.248106002807617188e+00,1.311547636985778809e+00,8.392376899719238281e+00,-6.449632167816162109e+00,5.435380458831787109e+00,-1.297512817382812500e+01,2.545991897583007812e+00,-2.603999376296997070e-01,3.137640476226806641e+00,5.040114879608154297e+00,5.052880764007568359e+00,9.676957130432128906e+00,1.158607769012451172e+01,-1.167016410827636719e+01,4.361861228942871094e+00,3.038239955902099609e+00,8.820768356323242188e+00,-3.126470327377319336e+00
-1.511997222900390625e+00,6.151774525642395020e-01,-3.663161754608154297e+00,3.717638552188873291e-01,-2.212218761444091797e+00,-2.260251522064208984e+00,1.800235547125339508e-02,1.025735735893249512e+00,2.869988679885864258e+00,6.816933631896972656e+00,7.845260620117187500e+00,-7.076226711273193359e+00,8.878953933715820312e+00,-1.537115573883056641e+00,4.471962928771972656e+00,7.145062446594238281e+00,3.351986408233642578e+00,6.699859619140625000e+00,3.205700302124023438e+01,1.325998115539550781e+01,2.140065574645996094e+01,1.888823509216308594e+01,1.838072586059570312e+01,2.247912979125976562e+01,1.684303092956542969e+01,2.022984695434570312e+01,1.921028518676757812e+01,1.942114639282226562e+01,3.919032669067382812e+01,3.144617652893066406e+01,2.623838806152343750e+01,8.304860115051269531e+00,5.194868564605712891e+00,1.161075401306152344e+01,-1.223265266418457031e+01,-6.958503723144531250e+00,-8.845811843872070312e+00,2.634178102016448975e-01,-6.218309402465820312e+00,9.753788948059082031e+00,-3.476914167404174805e-01,-2.525644302368164062e+00,-6.559059143066406250e+00,1.523926734924316406e+01,2.832127213478088379e-01,3.201592206954956055e+00,4.588845252990722656e+00,3.784290313720703125e+00,1.085371375083923340e+00,9.548975527286529541e-02
-9.916684031486511230e-01,-6.777675747871398926e-01,-1.245596051216125488e+00,-4.481713175773620605e-01,-2.199783802032470703e+00,-8.402074575424194336e-01,-7.169339179992675781e+00,-2.225614309310913086e+00,-9.016792178153991699e-01,3.459628224372863770e-01,-1.492286205291748047e+00,-3.730932712554931641e+00,-1.611504554748535156e+01,1.187544250488281250e+01,1.175939798355102539e+00,-3.964027404785156250e+00,-6.155601501464843750e+00,7.373853206634521484e+00,1.976607131958007812e+01,2.244884872436523438e+01,1.866131019592285156e+01,1.046607208251953125e+01,1.054029369354248047e+01,2.379191970825195312e+01,1.526299476623535156e+01,1.535721397399902344e+01,1.708730506896972656e+01,1.629848289489746094e+01,2.120307540893554688e+01,1.744989585876464844e+01,1.641475486755371094e+01,1.515796470642089844e+01,-1.123814225196838379e+00,-2.231470108032226562e+00,8.878710746765136719e+00,2.261346340179443359e+00,9.978288412094116211e-01,-3.874958038330078125e+00,-8.777444839477539062e+00,-8.585278511047363281e+00,-3.746641635894775391e+00,-5.272879123687744141e+00,-5.969923019409179688e+00,-1.057071447372436523e+00,2.906378269195556641e+00,7.712042927742004395e-01,-1.082859754562377930e+00,-5.416091084480285645e-01,-1.600109696388244629e+00,3.039753198623657227e+00
4.546753883361816406e+00,7.036038637161254883e-01,3.193889617919921875e+00,-4.148399353027343750e+00,-3.851356029510498047e+00,-1.106024932861328125e+01,1.223096561431884766e+01,2.834582138061523438e+01,6.592137813568115234e+00,-1.296568036079406738e+00,2.868294715881347656e-01,-6.777595281600952148e-01,1.193097114562988281e+01,1.796734809875488281e+01,-4.501376152038574219e+00,1.176414966583251953e+01,8.021246910095214844e+00,-2.292623996734619141e+00,2.070697784423828125e+01,2.529479598999023438e+01,3.156902313232421875e+00,2.798020553588867188e+01,3.434192276000976562e+01,1.846969223022460938e+01,2.941913414001464844e+01,1.526317882537841797e+01,1.909954261779785156e+01,2.462856101989746094e+01,1.384884357452392578e+01,2.409320831298828125e+01,1.480944633483886719e+01,3.443686676025390625e+01,1.357070350646972656e+01,6.190236568450927734e+00,-4.082150936126708984e+00,-6.411186218261718750e+00,-6.643424987792968750e+00,-1.467864418029785156e+01,3.163980484008789062e+00,-2.847845554351806641e+00,-5.022541046142578125e+00,-2.849911212921142578e+00,1.351261138916015625e+00,2.289248943328857422e+00,-1.838802337646484375e+00,8.084424585103988647e-02,-4.887364387512207031e+00,-1.937416315078735352e+00,2.067252844572067261e-01,7.264768481254577637e-01
1.296948790550231934e+00,1.017893075942993164e+00,2.279606342315673828e+00,3.019642591476440430e+00,3.586907982826232910e-01,3.200256824493408203e+00,-3.632198333740234375e+00,2.872510194778442383e+00,-6.706529140472412109e+00,-1.526410579681396484e+00,9.013776779174804688e+00,5.272814273834228516e+00,8.019063949584960938e+00,-9.936241149902343750e+00,-1.544365167617797852e+00,-8.019336700439453125e+00,-5.798257589340209961e-01,-1.206938934326171875e+01,2.573802566528320312e+01,2.172563743591308594e+01,1.354420471191406250e+01,1.931956291198730469e+01,1.314292144775390625e+01,1.633758163452148438e+01,2.737566566467285156e+01,2.456747055053710938e+01,1.938593101501464844e+01,2.062374496459960938e+01,1.399519634246826172e+01,1.740408706665039062e+01,2.441648292541503906e+01,2.771535110473632812e+01,1.103915786743164062e+01,-3.466804504394531250e+00,-1.614004135131835938e+00,-3.605593919754028320e+00,1.024006843566894531e+00,3.990260362625122070e+00,2.521971464157104492e+00,4.640197008848190308e-02,-3.241535186767578125e+00,8.034082412719726562e+00,2.063561677932739258e+00,-1.748420715332031250e+01,5.140268325805664062e+00,4.042074680328369141e+00,-2.573069095611572266e+00,4.956213951110839844e+00,-3.474842071533203125e+00,2.475798130035400391e+00
-6.410074234008789062e-01,2.058393001556396484e+00,9.666290283203125000e-01,1.627917861938476562e+01,-2.515268325805664062e-01,8.432482719421386719e+00,-9.982598423957824707e-01,5.536165237426757812e+00,1.431821918487548828e+01,7.183638095855712891e+00,1.708593940734863281e+01,1.180682182312011719e+00,1.658751296997070312e+01,2.236294269561767578e+00,5.035212039947509766e+00,1.098206520080566406e+00,3.168118000030517578e+00,-1.834056854248046875e+01,2.127317810058593750e+01,1.748498153686523438e+01,1.806293678283691406e+01,2.174865722656250000e+01,2.903217124938964844e+01,1.948828506469726562e+01,2.845961952209472656e+01,3.589192962646484375e+01,3.845129394531250000e+01,3.214067840576171875e+01,2.966592979431152344e+01,2.767655944824218750e+01,2.507798194885253906e+01,2.974035263061523438e+01,3.325417280197143555e+00,-3.333619356155395508e+00,3.222530841827392578e+00,3.002674877643585205e-01,-9.261054039001464844e+00,-3.397206068038940430e+00,2.872583866119384766e+00,7.840918540954589844e+00,3.349179506301879883e+00,2.495087146759033203e+00,3.206955671310424805e+00,6.949639320373535156e-01,-5.317317485809326172e+00,6.316701412200927734e+00,2.969897747039794922e+00,-2.439406812191009521e-01,2.698687314987182617e+00,-8.807579874992370605e-01
-3.558264374732971191e-01,6.277247071266174316e-01,3.344100117683410645e-01,1.826703399419784546e-01,-7.958906888961791992e-01,-5.728657245635986328e-01,-2.385542392730712891e+00,-8.822642564773559570e-01,-4.005428791046142578e+00,-1.442727446556091309e+00,4.168261051177978516e+00,3.568278074264526367e+00,5.481742620468139648e-01,4.545758247375488281e+00,2.140956401824951172e+00,-7.029917836189270020e-01,-1.396197319030761719e+01,-1.682042121887207031e+00,9.958723068237304688e+00,2.230659866333007812e+01,3.105143356323242188e+01,2.958297157287597656e+01,2.853290367126464844e+01,2.488570022583007812e+01,1.092068767547607422e+01,3.014704895019531250e+01,2.211810302734375000e+01,2.135573577880859375e+01,1.629265975952148438e+01,2.065266036987304688e+01,1.388775062561035156e+01,1.199755287170410156e+01,1.154057860374450684e+00,1.144131183624267578e+00,-5.914481878280639648e-01,3.003097534179687500e+00,2.572278261184692383e+00,7.161298274993896484e+00,4.273347377777099609e+00,4.234429836273193359e+00,2.753903567790985107e-01,-3.070081710815429688e+00,-1.617331743240356445e+00,7.324031591415405273e-01,3.313537240028381348e-01,-1.479037046432495117e+00,-1.488403081893920898e+00,1.975182890892028809e-01,9.066761136054992676e-01,3.505451977252960205e-01
0.000000000000000000e+00,0.000000000000000000e+00,0.000000000000000000e+00,0.000000000000000000e+00,0.000000000000000000e+00,0.000000000000000000e+00,0.000000000000000000e+00,0.000000000000000000e+00,0.000000000000000000e+00,0.000000000000000000e+00,0.000000000000000000e+00,0.000000000000000000e+00,0.000000000000000000e+00,0.000000000000000000e+00,0.000000000000000000e+00,0.000000000000000000e+00,0.000000000000000000e+00,0.000000000000000000e+00,0.000000000000000000e+00,0.000000000000000000e+00,0.000000000000000000e+00,0.000000000000000000e+00,0.000000000000000000e+00,0.000000000000000000e+00,0.000000000000000000e+00,0.000000000000000000e+00,0.000000000000000000e+00,0.000000000000000000e+00,0.000000000000000000e+00,0.000000000000000000e+00,0.000000000000000000e+00,0.000000000000000000e+00,0.000000000000000000e+00,0.000000000000000000e+00,0.000000000000000000e+00,0.000000000000000000e+00,0.000000000000000000e+00,0.000000000000000000e+00,0.000000000000000000e+00,0.000000000000000000e+00,0.000000000000000000e+00,0.000000000000000000e+00,0.000000000000000000e+00,0.000000000000000000e+00,0.000000000000000000e+00,0.000000000000000000e+00,0.000000000000000000e+00,0.000000000000000000e+00,0.000000000000000000e+00,0.000000000000000000e+00
-1.506453990936279297e+00,4.738450050354003906e-01,2.751826047897338867e+00,3.072383105754852295e-01,-2.020326375961303711e+00,-1.965188264846801758e+00,-3.352550029754638672e+00,6.193667650222778320e-01,2.125619173049926758e+00,5.696795463562011719e+00,1.667430639266967773e+00,6.006555557250976562e-01,-1.812977194786071777e+00,-4.561223506927490234e+00,9.230540275573730469e+00,8.128054618835449219e+00,-1.416686296463012695e+00,4.371254444122314453e+00,2.093675231933593750e+01,2.220304489135742188e+01,2.369296264648437500e+01,1.958700752258300781e+01,2.286817550659179688e+01,1.804092788696289062e+01,1.374135780334472656e+01,2.319999122619628906e+01,1.191533946990966797e+01,1.499109077453613281e+01,2.975540733337402344e+01,1.025285816192626953e+01,1.262486267089843750e+01,2.284871482849121094e+01,6.812586784362792969e-01,3.840402126312255859e+00,-9.060332551598548889e-03,4.491504669189453125e+00,2.350360393524169922e+00,-1.535176634788513184e+00,-2.168698549270629883e+00,-1.990464448928833008e+00,-3.484178066253662109e+00,4.246615469455718994e-01,-7.328879237174987793e-01,1.505153536796569824e+00,2.236772060394287109e+00,7.073642015457153320e-01,3.478208065032958984e+00,-5.283340930938720703e+00,1.226336121559143066e+00,4.848406910896301270e-01
1.192890882492065430e+00,-1.703815102577209473e+00,-4.340541839599609375e+00,-2.186185836791992188e+00,5.200289249420166016e+00,9.953716993331909180e-01,-7.479061126708984375e+00,-1.939022779464721680e+00,6.349630832672119141e+00,-1.522667980194091797e+01,-1.196316480636596680e+00,-1.872558593750000000e+01,4.153930664062500000e+00,1.100624275207519531e+01,1.094063758850097656e+01,1.003970146179199219e+01,2.885966300964355469e-01,2.940041780471801758e+00,3.823630523681640625e+01,4.483532333374023438e+01,4.473825836181640625e+01,2.439370346069335938e+01,2.466130638122558594e+01,3.655363082885742188e+01,4.933489227294921875e+01,2.724980735778808594e+01,1.107799243927001953e+01,4.179945755004882812e+01,4.056092071533203125e+01,2.573177146911621094e+01,1.333462238311767578e+01,4.419567489624023438e+01,1.198387527465820312e+01,-9.089540481567382812e+00,-5.875239372253417969e+00,-2.036713123321533203e+00,1.338215351104736328e+01,-8.628309249877929688e+00,-5.788143634796142578e+00,-8.043072819709777832e-01,1.168853378295898438e+01,-1.384869575500488281e+01,-4.029870510101318359e+00,-4.751193046569824219e+00,-6.012427806854248047e+00,1.450174999237060547e+01,-4.739890575408935547e+00,-5.083394646644592285e-01,-6.651868671178817749e-02,-3.539201021194458008e+00
-2.156989812850952148e+00,8.342542648315429688e-01,-1.333690524101257324e+00,-1.537389516830444336e+00,-6.947930335998535156e+00,-1.143658399581909180e+00,-3.357044935226440430e+00,-3.232732713222503662e-01,-6.267586231231689453e+00,2.180922269821166992e+00,9.165759086608886719e-01,6.626585483551025391e+00,-1.106199169158935547e+01,-7.113438606262207031e+00,-1.249832344055175781e+01,-1.048027706146240234e+01,5.004922389984130859e+00,-1.051454830169677734e+01,2.410317420959472656e+01,1.357728004455566406e+01,9.445903778076171875e+00,2.052182388305664062e+01,2.041788673400878906e+01,1.203993797302246094e+01,1.498440551757812500e+01,1.820571136474609375e+01,2.443949890136718750e+01,2.034946060180664062e+01,2.624457931518554688e+01,2.130299758911132812e+01,1.636936950683593750e+01,3.094058799743652344e+01,-6.419804573059082031e+00,-3.452845335006713867e+00,3.049919366836547852e+00,6.845812797546386719e+00,1.264028191566467285e+00,-2.790544509887695312e+00,-9.448232650756835938e+00,1.335670232772827148e+00,-2.763101100921630859e+00,6.252410411834716797e+00,6.065962791442871094e+00,9.877043776214122772e-03,5.084513664245605469e+00,-1.018021297454833984e+01,5.464154243469238281e+00,-4.735935688018798828e+00,2.662368774414062500e+00,-6.871063113212585449e-01
-3.810333967208862305e+00,3.343304395675659180e+00,-1.960224807262420654e-01,-2.208717823028564453e+00,-3.245811462402343750e+00,2.136176526546478271e-01,-5.888221740722656250e+00,-9.354154586791992188e+00,9.836692810058593750e-01,1.552338981628417969e+01,-2.248565673828125000e+00,-2.711040496826171875e+00,1.193396472930908203e+01,8.126914978027343750e+00,-9.690377116203308105e-02,2.953924179077148438e+00,7.745375156402587891e+00,5.209457397460937500e+00,8.673970222473144531e+00,1.328905487060546875e+01,1.933108139038085938e+01,2.818524742126464844e+01,1.792396926879882812e+01,2.593466186523437500e+01,1.179949188232421875e+01,2.117688369750976562e+01,9.194856643676757812e+00,2.298357772827148438e+01,3.744219207763671875e+01,2.465715026855468750e+01,1.361529254913330078e+01,1.182616424560546875e+01,5.634027957916259766e+00,-5.737442493438720703e+00,7.147888183593750000e+00,5.377729415893554688e+00,6.915926933288574219e+00,-3.422946453094482422e+00,-3.669579744338989258e+00,1.436786651611328125e+01,-7.245416939258575439e-02,-5.075640201568603516e+00,-1.085798740386962891e-01,6.101129531860351562e+00,9.445459365844726562e+00,7.688700675964355469e+00,7.768426418304443359e+00,-7.726475715637207031e+00,-4.879039764404296875e+00,-2.435503482818603516e+00
1.259603142738342285e+00,8.809881210327148438e-01,2.987816572189331055e+00,2.153468847274780273e+00,7.946564674377441406e+00,1.149782371520996094e+01,1.710465049743652344e+01,4.665168285369873047e+00,-3.250875473022460938e+00,-5.044153690338134766e+00,9.277999877929687500e+00,-6.514830589294433594e+00,6.531692504882812500e+00,5.546332597732543945e-01,-2.797303438186645508e+00,-2.373332500457763672e+00,-5.452738285064697266e+00,3.681317090988159180e+00,1.368031597137451172e+01,2.328156471252441406e+01,2.134170532226562500e+01,1.736034011840820312e+01,1.244356060028076172e+01,2.124370193481445312e+01,2.399914932250976562e+01,1.558183002471923828e+01,1.891419601440429688e+01,1.094514274597167969e+01,1.202906990051269531e+01,8.309450149536132812e+00,2.563231277465820312e+01,2.591330528259277344e+01,1.365334153175354004e+00,-5.666651248931884766e+00,5.416685104370117188e+00,-2.266754150390625000e+00,-6.879022121429443359e+00,1.039616107940673828e+01,-8.769203186035156250e+00,2.587006807327270508e+00,-4.845316886901855469e+00,7.881395220756530762e-01,1.806159019470214844e+00,8.651815652847290039e-01,-3.396168947219848633e+00,4.103717803955078125e+00,-7.072377204895019531e-01,-6.544262170791625977e-01,4.377211093902587891e+00,1.842535376548767090e+00
3.943656086921691895e-01,6.051094532012939453e-01,-2.467455863952636719e-01,9.821017384529113770e-01,2.631484568119049072e-01,6.849657297134399414e-01,9.178179502487182617e-01,-6.077958345413208008e-01,-5.029543638229370117e-01,5.249513387680053711e-01,-3.674410343170166016e+00,-2.158399522304534912e-01,5.846836417913436890e-02,-1.220325708389282227e+00,5.369063615798950195e-01,3.798220872879028320e+00,-1.308709859848022461e+00,2.795197486877441406e+00,1.938632965087890625e+01,1.879809188842773438e+01,8.477445602416992188e+00,2.053685951232910156e+01,1.553094291687011719e+01,1.277754783630371094e+01,2.316095924377441406e+01,2.685463905334472656e+01,3.554836654663085938e+01,3.009752273559570312e+01,2.258366966247558594e+01,1.568188285827636719e+01,3.064402389526367188e+01,1.998731803894042969e+01,5.197241783142089844e+00,3.978096008300781250e+00,1.895835518836975098e+00,-3.714568376541137695e+00,4.928330421447753906e+00,-1.279659867286682129e+00,-3.080474853515625000e+00,4.807044029235839844e+00,-1.852308988571166992e+00,-9.276731610298156738e-01,2.070609092712402344e+00,-1.441393792629241943e-01,-5.876434326171875000e+00,-1.644004464149475098e+00,9.704523086547851562e-01,-2.633575499057769775e-01,1.646853387355804443e-01,4.947746396064758301e-01
-6.978886723518371582e-01,3.996983289718627930e+00,-2.682967662811279297e+00,3.256557464599609375e+00,2.964979887008666992e+00,5.682359933853149414e-01,-8.450252532958984375e+00,9.264070510864257812e+00,3.512348651885986328e+00,-9.148283004760742188e-01,-1.354369068145751953e+01,1.713916778564453125e+01,1.484174823760986328e+01,2.585394859313964844e+01,-9.627812385559082031e+00,-2.448146343231201172e+00,-9.196783065795898438e+00,-6.200848579406738281e+00,4.721236801147460938e+01,4.057201004028320312e+01,2.656380653381347656e+01,5.047733688354492188e+01,1.414743328094482422e+01,3.231757354736328125e+01,3.367147445678710938e+01,4.496918487548828125e+01,3.794656372070312500e+01,2.189772033691406250e+01,3.277010345458984375e+01,4.182557296752929688e+01,4.756508255004882812e+01,3.662865066528320312e+01,-8.779132843017578125e+00,2.159156322479248047e+00,7.813378334045410156e+00,-5.556790351867675781e+00,-3.758726119995117188e+00,-2.105452060699462891e+00,-1.014884376525878906e+01,5.978281497955322266e-01,4.940073490142822266e+00,-1.378575682640075684e+00,8.193968772888183594e+00,5.604016304016113281e+00,5.145829200744628906e+00,-3.661801099777221680e+00,-8.342341184616088867e-01,4.129909723997116089e-02,-2.973153591156005859e+00,2.069014310836791992e-01
-1.838817238807678223e+00,-5.314645171165466309e-01,1.944494605064392090e+00,2.297229528427124023e+00,6.462141275405883789e-01,-3.108046948909759521e-01,-9.630430936813354492e-01,-3.896005153656005859e+00,5.032116174697875977e-01,-5.023308753967285156e+00,9.830920100212097168e-01,3.429257154464721680e+00,-4.816006660461425781e+00,1.292898893356323242e+00,-2.013358324766159058e-01,1.055535793304443359e+00,-1.206360697746276855e+00,-2.294177532196044922e+00,1.836797714233398438e+01,2.052201461791992188e+01,1.792435455322265625e+01,1.704231262207031250e+01,1.638066482543945312e+01,1.629325294494628906e+01,1.838259315490722656e+01,2.017096900939941406e+01,2.240180587768554688e+01,1.062260913848876953e+01,2.296795272827148438e+01,1.204460716247558594e+01,1.809828186035156250e+01,2.115925216674804688e+01,-7.395104885101318359e+00,4.033016681671142578e+00,-8.981623649597167969e+00,-1.105416297912597656e+01,8.797757148742675781e+00,-1.131694030761718750e+01,-8.424553871154785156e+00,5.513969421386718750e+00,1.041265726089477539e+00,3.617701768875122070e+00,-3.852196455001831055e+00,-1.189660310745239258e+00,-4.406117916107177734e+00,5.302759408950805664e-01,-1.923381447792053223e+00,7.301238775253295898e-01,-2.735961973667144775e-01,-2.068175792694091797e+00
0.000000000000000000e+00,0.000000000000000000e+00,0.000000000000000000e+00,0.000000000000000000e+00,0.000000000000000000e+00,0.000000000000000000e+00,0.000000000000000000e+00,0.000000000000000000e+00,0.000000000000000000e+00,0.000000000000000000e+00,0.000000000000000000e+00,0.000000000000000000e+00,0.000000000000000000e+00,0.000000000000000000e+00,0.000000000000000000e+00,0.000000000000000000e+00,0.000000000000000000e+00,0.000000000000000000e+00,0.000000000000000000e+00,0.000000000000000000e+00,0.000000000000000000e+00,0.000000000000000000e+00,0.000000000000000000e+00,0.000000000000000000e+00,0.000000000000000000e+00,0.000000000000000000e+00,0.000000000000000000e+00,0.000000000000000000e+00,0.000000000000000000e+00,0.000000000000000000e+00,0.000000000000000000e+00,0.000000000000000000e+00,0.000000000000000000e+00,0.000000000000000000e+00,0.000000000000000000e+00,0.000000000000000000e+00,0.000000000000000000e+00,0.000000000000000000e+00,0.000000000000000000e+00,0.000000000000000000e+00,0.000000000000000000e+00,0.000000000000000000e+00,0.000000000000000000e+00,0.000000000000000000e+00,0.000000000000000000e+00,0.000000000000000000e+00,0.000000000000000000e+00,0.000000000000000000e+00,0.000000000000000000e+00,0.000000000000000000e+00
-4.771789908409118652e-01,-8.146290481090545654e-02,-3.189739704132080078e+00,-5.181753635406494141e+00,4.107939600944519043e-01,-3.522284030914306641e+00,7.490022182464599609e+00,4.500348567962646484e+00,3.206373691558837891e+00,3.182300090789794922e+00,2.866580486297607422e+00,1.353448748588562012e+00,1.044774413108825684e+00,-1.291754364967346191e+00,9.960855484008789062e+00,1.547259235382080078e+01,-2.543843269348144531e+00,-5.000430107116699219e+00,2.450082778930664062e+01,3.688434600830078125e+01,2.708153915405273438e+01,1.876540756225585938e+01,1.839287567138671875e+01,3.230246353149414062e+01,2.225507164001464844e+01,2.060702896118164062e+01,3.605250167846679688e+01,3.895180130004882812e+01,3.072888755798339844e+01,1.381410217285156250e+01,1.953687667846679688e+01,1.379126548767089844e+01,6.803419589996337891e+00,8.367722511291503906e+00,-2.982469558715820312e+00,-2.322632551193237305e+00,1.258904457092285156e+01,-2.399016857147216797e+00,7.462212562561035156e+00,-1.135070514678955078e+01,1.958348631858825684e+00,3.316008806228637695e+00,8.944746255874633789e-01,-5.278240203857421875e+00,-8.610218048095703125e+00,6.662039279937744141e+00,9.213109970092773438e+00,7.687322139739990234e+00,5.262220859527587891e+00,1.484344244003295898e+00
1.927246302366256714e-01,-1.777994871139526367e+00,4.747884750366210938e+00,1.888718605041503906e+00,3.861180067062377930e+00,8.762518167495727539e-01,-8.956378936767578125e+00,-6.343167304992675781e+00,-7.043380737304687500e+00,1.072202205657958984e+01,-3.176195859909057617e+00,-5.706678390502929688e+00,-4.459700107574462891e+00,1.057428866624832153e-01,2.769838571548461914e+00,1.560380935668945312e+00,5.030487060546875000e+00,6.639793395996093750e+00,3.168763351440429688e+01,1.755732345581054688e+01,1.367441844940185547e+01,1.770664596557617188e+01,2.646060752868652344e+01,2.449646186828613281e+01,2.427162170410156250e+01,2.525832557678222656e+01,2.058539390563964844e+01,1.380715370178222656e+01,2.350218582153320312e+01,2.102685546875000000e+01,1.966769790649414062e+01,2.192703628540039062e+01,-2.421122550964355469e+00,2.776750549674034119e-02,1.554269695281982422e+01,3.246512174606323242e+00,-6.529981642961502075e-02,-1.293095684051513672e+01,-2.998801469802856445e+00,-2.592792272567749023e+00,6.661133766174316406e+00,-1.341853523254394531e+01,5.114952087402343750e+00,-3.067448377609252930e+00,6.571891784667968750e+00,7.455717563629150391e+00,3.415384769439697266e+00,-3.409121274948120117e+00,8.720165491104125977e-01,-5.026049017906188965e-01
-2.092964649200439453e+00,-1.374589562416076660e+00,5.436414480209350586e-01,3.254716992378234863e-01,-3.510991573333740234e+00,5.041956901550292969e+00,3.466432571411132812e+00,9.731552004814147949e-01,-1.293659687042236328e+01,-7.913241386413574219e+00,-3.895395100116729736e-01,7.951709032058715820e-01,3.994335889816284180e+00,-8.256532669067382812e+00,-1.290923023223876953e+01,-2.408881187438964844e+00,1.629593849182128906e+00,8.222529411315917969e+00,2.933531761169433594e+01,3.053360939025878906e+01,2.084016609191894531e+01,4.942267417907714844e+00,2.807057762145996094e+01,4.238023757934570312e+01,6.222507476806640625e+01,3.925996398925781250e+01,3.127587318420410156e+01,1.577421379089355469e+01,3.640882492065429688e+01,3.355277252197265625e+01,3.078934288024902344e+01,2.948480224609375000e+01,-5.044489860534667969e+00,-9.267686843872070312e+00,5.937435030937194824e-01,-5.155723094940185547e+00,-2.447430849075317383e+00,5.215667724609375000e+00,-1.877376556396484375e+00,-1.323871016502380371e+00,-1.378417611122131348e+00,8.790475845336914062e+00,8.411705970764160156e+00,-3.840040206909179688e+00,-2.458068132400512695e+00,-1.388559769839048386e-02,-2.902360200881958008e+00,1.652415990829467773e+00,-1.976887941360473633e+00,-1.933052062988281250e+00
5.142269283533096313e-02,5.310236454010009766e+00,-1.066198945045471191e+00,1.128545045852661133e+00,2.805673837661743164e+00,-2.658404827117919922e+00,-1.718757629394531250e+00,-5.133826136589050293e-01,-2.901135683059692383e+00,-5.142070770263671875e+00,2.769913434982299805e+00,8.037892341613769531e+00,2.851161479949951172e+00,6.853721141815185547e-01,1.288095235824584961e+00,3.892932176589965820e+00,5.221493721008300781e+00,-1.746802687644958496e+00,2.067512893676757812e+01,1.269600868225097656e+01,1.624587631225585938e+01,2.429070091247558594e+01,1.522130107879638672e+01,1.358034706115722656e+01,1.342045783996582031e+01,1.769179534912109375e+01,1.159975242614746094e+01,1.207242679595947266e+01,2.760808181762695312e+01,1.135740756988525391e+01,1.719678878784179688e+01,8.336771011352539062e+00,-1.389905571937561035e+00,-8.708580732345581055e-01,2.734388113021850586e+00,-6.442262172698974609e+00,-5.028935909271240234e+00,-7.586764097213745117e-01,2.177726268768310547e+00,2.919492483139038086e+00,1.764927864074707031e+00,-1.006119346618652344e+01,-7.824052333831787109e+00,-8.464273452758789062e+00,9.353420883417129517e-02,8.352053642272949219e+00,-7.160263061523437500e+00,-4.271277427673339844e+00,-3.834532797336578369e-01,1.583127975463867188e-01
-1.049240827560424805e+00,-1.711876094341278076e-01,1.852128028869628906e+00,2.994017601013183594e+00,-2.221328258514404297e+00,1.997969985008239746e+00,-5.030293941497802734e+00,-1.728569269180297852e+00,-2.096715688705444336e+00,-3.435028791427612305e+00,7.602232456207275391e+00,6.421325683593750000e+00,-3.433193922042846680e+00,2.641242742538452148e+00,5.644544124603271484e+00,-6.883513331413269043e-01,-1.133055567741394043e+00,-8.657811880111694336e-01,2.311265563964843750e+01,2.690700149536132812e+01,4.982697963714599609e+00,3.034794044494628906e+01,2.207456970214843750e+01,1.654374694824218750e+01,1.862039756774902344e+01,1.948772048950195312e+01,2.336750411987304688e+01,3.813428115844726562e+01,1.796756362915039062e+01,1.937815475463867188e+01,1.259350395202636719e+01,8.360497474670410156e+00,-1.766077727079391479e-01,2.640336513519287109e+00,-3.474438905715942383e+00,1.468127846717834473e+00,1.790270805358886719e+00,-6.406114101409912109e+00,3.699446439743041992e+00,-8.627934455871582031e-01,-4.213643550872802734e+00,-3.622763156890869141e+00,7.772004008293151855e-01,1.979501485824584961e+00,-5.714628219604492188e+00,6.849731445312500000e+00,7.803398132324218750e+00,-3.188534975051879883e+00,1.631879448890686035e+00,4.424048423767089844e+00
-5.801647901535034180e-01,2.176680088043212891e+00,1.225513815879821777e+00,-2.896073818206787109e+00,-1.888626098632812500e+00,6.024558067321777344e+00,6.413840293884277344e+00,-3.976375102996826172e+00,-3.544319152832031250e+00,1.720430135726928711e+00,3.006094694137573242e+00,-5.404732704162597656e+00,-1.819573163986206055e+00,-1.666586518287658691e+00,-1.195042610168457031e+01,-1.124975013732910156e+01,-2.353354215621948242e+00,1.106118202209472656e+01,3.500323486328125000e+01,2.798684692382812500e+01,1.674752998352050781e+01,5.122978210449218750e+00,1.829751968383789062e+01,2.527757263183593750e+01,1.864470100402832031e+01,1.556797599792480469e+01,1.736440467834472656e+01,2.048148727416992188e+01,2.874766159057617188e+01,2.950944137573242188e+01,2.732019615173339844e+01,2.635821151733398438e+01,-3.124429702758789062e+00,-2.674404144287109375e+00,-4.904229640960693359e+00,-6.082824707031250000e+00,1.377933788299560547e+01,-8.373284339904785156e+00,4.291749477386474609e+00,-6.220507621765136719e+00,9.398753166198730469e+00,-6.964439392089843750e+00,-4.755897521972656250e+00,-3.797074079513549805e+00,-1.108496427536010742e+00,-2.594076156616210938e+00,3.965703487396240234e+00,2.341786861419677734e+00,-1.357217073440551758e+00,-2.293886423110961914e+00
3.833934068679809570e+00,7.667845249176025391e+00,-9.214891433715820312e+00,8.347398638725280762e-01,4.310975074768066406e+00,-1.661028099060058594e+01,-1.310150337219238281e+01,-1.116472053527832031e+01,-5.420652866363525391e+00,1.346863365173339844e+01,-7.212444305419921875e+00,1.042422008514404297e+01,9.840456008911132812e+00,-4.912273406982421875e+00,-1.309797954559326172e+01,-1.498193645477294922e+01,-1.576434850692749023e+00,3.205948352813720703e+00,3.697612380981445312e+01,3.354491806030273438e+01,3.923978424072265625e+01,3.530912399291992188e+01,1.358724403381347656e+01,3.836887741088867188e+01,3.697484207153320312e+01,3.200325012207031250e+01,2.340645408630371094e+01,3.224310684204101562e+01,4.169961929321289062e+01,5.159283447265625000e+01,2.444899559020996094e+01,2.888629150390625000e+01,-2.333291053771972656e+00,1.951402306556701660e+00,-6.017516136169433594e+00,-1.798646926879882812e+01,-1.228342151641845703e+01,-2.333105087280273438e+00,1.534827613830566406e+01,-3.512828111648559570e+00,8.890824317932128906e+00,-1.599338054656982422e+01,-1.263518714904785156e+01,-1.090167999267578125e+01,5.879303932189941406e+00,-3.389430284500122070e+00,-7.873608589172363281e+00,5.421968698501586914e-01,-1.243978881835937500e+01,-7.760122776031494141e+00
3.159537911415100098e-01,2.323832988739013672e+00,3.136102199554443359e+00,-3.243357419967651367e+00,3.919197797775268555e+00,-6.077929496765136719e+00,3.666226625442504883e+00,-1.901663243770599365e-01,9.942284584045410156e+00,1.205617332458496094e+01,5.127469062805175781e+00,8.369834899902343750e+00,5.727559089660644531e+00,-2.748249053955078125e+00,-4.692997932434082031e+00,-5.965252876281738281e+00,-9.409349560737609863e-01,-5.583184242248535156e+00,2.476307296752929688e+01,2.171312332153320312e+01,3.091030311584472656e+01,1.551520347595214844e+01,1.418322753906250000e+01,2.110456466674804688e+01,1.323392200469970703e+01,2.968718338012695312e+01,1.495784282684326172e+01,8.385465621948242188e+00,2.979668807983398438e+01,2.202590560913085938e+01,1.725474166870117188e+01,1.457667732238769531e+01,2.240178585052490234e+00,-3.381087541580200195e+00,1.179144191741943359e+01,-4.086843967437744141e+00,1.238240528106689453e+01,2.873839855194091797e+00,-9.421104431152343750e+00,5.154281616210937500e+00,-2.989601135253906250e+00,-1.023733377456665039e+00,-7.499127864837646484e+00,-1.388162517547607422e+01,-9.195613861083984375e+00,9.649324417114257812e+00,-5.789969444274902344e+00,1.226498889923095703e+01,-8.602708816528320312e+00,3.227877020835876465e-01
-1.144800424575805664e+00,-2.174199581146240234e+00,-9.508022069931030273e-01,4.916172981262207031e+00,5.150385856628417969e+00,-9.219314455986022949e-01,-6.757174015045166016e+00,-7.075447082519531250e+00,9.216577410697937012e-01,4.921735286712646484e+00,-1.332872629165649414e+00,-4.779397010803222656e+00,-1.150525331497192383e+00,-1.420971602201461792e-01,6.564846992492675781e+00,-2.109943866729736328e+00,-3.173329234123229980e-01,1.699087142944335938e+00,1.300390052795410156e+01,9.484028816223144531e+00,1.675129318237304688e+01,1.928583908081054688e+01,1.511650371551513672e+01,1.853083229064941406e+01,1.973778724670410156e+01,9.870811462402343750e+00,1.253386402130126953e+01,2.038849830627441406e+01,1.979238891601562500e+01,7.991765022277832031e+00,1.007879829406738281e+01,2.644951820373535156e+01,-9.855594635009765625e-01,2.086524486541748047e+00,-2.073566913604736328e+00,1.790772676467895508e+00,3.342932224273681641e+00,-2.178173512220382690e-01,-2.286394387483596802e-01,-1.479696989059448242e+00,3.321554183959960938e+00,-2.857924461364746094e+00,6.783606529235839844e+00,-3.181383848190307617e+00,-4.958817481994628906e+00,-1.083030343055725098e+00,-1.453164339065551758e+00,1.650997519493103027e+00,6.042490959167480469e+00,-5.790613293647766113e-01
1.172902733087539673e-01,6.829229593276977539e-01,9.181229472160339355e-01,-1.457926988601684570e+00,-6.550868034362792969e+00,1.515731096267700195e+00,-1.194387340545654297e+01,3.440413713455200195e+00,7.362067222595214844e+00,-9.500495910644531250e+00,-1.432492542266845703e+01,-2.026224434375762939e-01,-1.770791053771972656e+00,4.274644374847412109e+00,-1.714962387084960938e+01,5.025022029876708984e+00,6.823982238769531250e+00,2.094031572341918945e+00,2.613371658325195312e+01,2.463881301879882812e+01,2.902787208557128906e+01,2.795267677307128906e+01,3.827262878417968750e+01,2.919048690795898438e+01,2.874597740173339844e+01,1.922870826721191406e+01,2.612327957153320312e+01,2.989737892150878906e+01,3.477191925048828125e+01,3.610996627807617188e+01,1.663116836547851562e+01,3.039701271057128906e+01,-3.134742259979248047e+00,5.747604370117187500e+00,-3.919005155563354492e+00,3.590254545211791992e+00,1.217290687561035156e+01,1.095500755310058594e+01,-1.370558500289916992e+00,4.508236885070800781e+00,-4.461491584777832031e+00,-2.924427032470703125e+00,-6.557172536849975586e-01,-7.068010807037353516e+00,-1.498575042933225632e-02,3.213444471359252930e+00,-1.529150247573852539e+00,-2.597748994827270508e+00,6.116888999938964844e+00,-1.658013701438903809e+00
6.041973084211349487e-02,1.223799467086791992e+00,4.702827036380767822e-01,-6.075600385665893555e-01,4.324632585048675537e-01,-7.774561643600463867e-01,-7.225854992866516113e-01,2.304928302764892578e+00,4.086392879486083984e+00,4.811708927154541016e+00,2.578182697296142578e+00,2.884984254837036133e+00,-4.828077256679534912e-01,-1.482560038566589355e+00,-2.891609370708465576e-01,-4.022282063961029053e-01,2.676803112030029297e+00,-1.073119640350341797e+00,6.752469539642333984e+00,9.543701171875000000e+00,1.002125930786132812e+01,4.700827121734619141e+00,5.895898818969726562e+00,6.470074653625488281e+00,6.655193328857421875e+00,3.786342620849609375e+00,9.550972938537597656e+00,1.218356990814208984e+01,7.810472011566162109e+00,1.079307079315185547e+01,7.573247432708740234e+00,8.253176689147949219e+00,3.497579991817474365e-01,-2.596281528472900391e+00,1.662932634353637695e+00,4.246802330017089844e+00,2.972475528717041016e+00,-2.101175546646118164e+00,-1.474602937698364258e+00,-2.353352546691894531e+00,-2.521497249603271484e+00,-2.250147104263305664e+00,2.235318869352340698e-01,4.925134658813476562e+00,-3.161407113075256348e-01,-4.426867485046386719e+00,1.099735617637634277e+00,4.091850757598876953e+00,-1.067225575447082520e+00,-2.107084512710571289e+00
7.848443090915679932e-02,1.092873811721801758e+00,-7.082560062408447266e+00,-2.577165961265563965e-01,2.533786773681640625e+00,-1.599324584007263184e+00,2.124716997146606445e+00,-3.073142051696777344e+00,-2.351907253265380859e+00,1.364987945556640625e+01,-9.890732765197753906e+00,-2.043721228837966919e-01,9.000303268432617188e+00,6.777189731597900391e+00,-4.068062305450439453e+00,-6.791321754455566406e+00,-1.019000530242919922e+01,-2.548773527145385742e+00,2.722427368164062500e+01,1.865351104736328125e+01,2.205721664428710938e+01,2.421834182739257812e+01,2.043537139892578125e+01,1.590131950378417969e+01,1.864847946166992188e+01,1.485145378112792969e+01,1.813662528991699219e+01,3.162828063964843750e+01,2.664050865173339844e+01,2.557116317749023438e+01,1.740475845336914062e+01,9.243726730346679688e+00,2.907759323716163635e-02,-5.984245538711547852e-01,-6.139247894287109375e+00,-8.510763168334960938e+00,-1.468565344810485840e+00,2.075838565826416016e+00,-1.269334435462951660e+00,-4.787403106689453125e+00,1.522551155090332031e+01,4.205489158630371094e-01,-4.319155693054199219e+00,1.626018142700195312e+01,9.283820390701293945e-01,-4.246713161468505859e+00,5.053042411804199219e+00,2.628752231597900391e+00,3.440409183502197266e+00,3.549477458000183105e-01
7.583042383193969727e-01,1.212493658065795898e+00,4.059374332427978516e+00,5.090855598449707031e+00,3.775888919830322266e+00,6.747791290283203125e+00,-3.493427991867065430e+00,6.568408966064453125e+00,2.736812233924865723e-01,4.196232795715332031e+00,-2.477819919586181641e+00,-2.990802288055419922e+00,-4.737925529479980469e+00,-4.789297580718994141e+00,4.695064425468444824e-01,-6.417580604553222656e+00,-1.298385977745056152e+00,-4.751213073730468750e+00,1.899272155761718750e+01,1.594016456604003906e+01,1.081610107421875000e+01,1.446030998229980469e+01,9.175662040710449219e+00,1.426728820800781250e+01,1.856585502624511719e+01,1.527683544158935547e+01,1.686849403381347656e+01,2.082703208923339844e+01,1.254438304901123047e+01,1.458053779602050781e+01,1.998214721679687500e+01,1.158727359771728516e+01,-6.353634595870971680e-01,-1.696259260177612305e+00,-2.523184537887573242e+00,6.816706657409667969e+00,-4.142150878906250000e-01,-3.942774295806884766e+00,6.996435642242431641e+00,-2.966830492019653320e+00,-2.250099897384643555e+00,1.090293884277343750e+01,-2.160993337631225586e+00,-3.895553588867187500e+00,-4.313281059265136719e+00,6.647273063659667969e+00,-4.737876892089843750e+00,5.156968116760253906e+00,2.446521043777465820e+00,1.053154468536376953e+00
-6.118839979171752930e-02,-1.058844804763793945e+00,9.663366079330444336e-01,3.582572221755981445e+00,1.813605546951293945e+00,-6.894116401672363281e-01,-2.733520984649658203e+00,3.660764694213867188e+00,3.632053375244140625e+00,4.761806011199951172e+00,-5.251238822937011719e+00,5.394298553466796875e+00,-4.512266635894775391e+00,-2.159605741500854492e+00,3.212749481201171875e+00,-2.236216068267822266e+00,1.661919057369232178e-01,-6.997061967849731445e-01,1.437612342834472656e+01,1.642357254028320312e+01,1.543423175811767578e+01,1.559403038024902344e+01,9.578645706176757812e+00,1.171318340301513672e+01,2.436781501770019531e+01,1.551734352111816406e+01,1.253429698944091797e+01,1.461927795410156250e+01,6.036149501800537109e+00,1.750318336486816406e+01,1.806130027770996094e+01,9.130132675170898438e+00,-2.071649312973022461e+00,-3.676488161087036133e+00,-3.309973955154418945e+00,2.836815595626831055e+00,1.375204086303710938e+00,1.905507683753967285e+00,8.484781265258789062e+00,-6.829367876052856445e-01,3.836261749267578125e+00,-3.974296569824218750e+00,3.571708679199218750e+00,-8.375714302062988281e+00,5.754340648651123047e+00,4.066281318664550781e+00,-3.704931139945983887e-01,4.408236980438232422e+00,1.425091385841369629e+00,6.295221447944641113e-01
-4.275458335876464844e+00,2.183439970016479492e+00,1.784041896462440491e-02,1.937706768512725830e-01,1.250037860870361328e+01,-1.217945814132690430e+00,-4.230614662170410156e+00,-6.509522438049316406e+00,8.706812858581542969e+00,-3.989941358566284180e+00,-1.159669303894042969e+01,4.624874591827392578e+00,8.414060592651367188e+00,-4.018054902553558350e-01,2.853256225585937500e+00,8.334693908691406250e+00,-6.012333869934082031e+00,8.162037849426269531e+00,2.243170166015625000e+01,1.849601364135742188e+01,2.626461410522460938e+01,3.229236602783203125e+01,1.104404735565185547e+01,1.504334735870361328e+01,2.759665870666503906e+01,3.005690383911132812e+01,1.884133720397949219e+01,1.288133239746093750e+01,2.869733238220214844e+01,3.004314613342285156e+01,2.620526123046875000e+01,1.944475173950195312e+01,-7.175737857818603516e+00,-4.799588203430175781e+00,-6.978498935699462891e+00,9.580544233322143555e-01,2.732432842254638672e+00,-1.023076623678207397e-01,1.999976730346679688e+01,5.268576145172119141e+00,2.229433774948120117e+00,-2.368633270263671875e+00,-1.159548759460449219e+00,1.147589874267578125e+01,6.215165615081787109e+00,4.325817227363586426e-01,-3.277193069458007812e+00,-2.799775600433349609e-01,-1.677900314331054688e+00,2.124173879623413086e+00
4.907943606376647949e-01,-1.620676398277282715e+00,-2.794236421585083008e+00,7.954809665679931641e+00,-4.383583068847656250e+00,-6.479876041412353516e+00,1.303872823715209961e+00,4.998578548431396484e+00,-1.013447403907775879e+00,9.729763865470886230e-01,5.295462608337402344e+00,1.110565066337585449e+00,-5.359019041061401367e-01,4.999552726745605469e+00,6.020945549011230469e+00,-5.601174831390380859e+00,7.859516739845275879e-01,-2.629741668701171875e+00,2.333146286010742188e+01,1.336320209503173828e+01,1.269941520690917969e+01,9.666952133178710938e+00,1.598608398437500000e+01,1.039741325378417969e+01,6.230299472808837891e+00,8.787160873413085938e+00,1.249012184143066406e+01,1.092207813262939453e+01,1.413462829589843750e+01,5.940867424011230469e+00,7.250520229339599609e+00,2.399639511108398438e+01,-5.148766636848449707e-01,-4.631090641021728516e+00,7.159869194030761719e+00,-5.016755580902099609e+00,5.524384975433349609e+00,-3.505840301513671875e+00,-3.968905925750732422e+00,-7.680043697357177734e+00,6.333737850189208984e+00,7.137956142425537109e+00,-1.269129157066345215e+00,-2.456413984298706055e+00,-1.064735651016235352e-01,9.041811227798461914e-01,1.674264907836914062e+00,5.101073980331420898e-01,2.041934281587600708e-01,-2.703965663909912109e+00
8.282625675201416016e-02,-2.191868543624877930e+00,-7.704317569732666016e-01,1.252728939056396484e+00,-8.961168527603149414e-01,1.105995178222656250e+00,2.953169584274291992e+00,1.876807808876037598e+00,5.474244952201843262e-01,2.013153314590454102e+00,3.171435832977294922e+00,1.386645078659057617e+00,-5.671084880828857422e+00,-6.726295471191406250e+00,2.295369625091552734e+00,-7.100474834442138672e-01,-2.756142616271972656e+00,-3.924147129058837891e+00,1.774445343017578125e+01,1.902315902709960938e+01,1.775717353820800781e+01,1.330008888244628906e+01,1.179305648803710938e+01,1.525551795959472656e+01,2.970338439941406250e+01,3.176707839965820312e+01,1.309623432159423828e+01,1.829146194458007812e+01,2.367819213867187500e+01,1.776825141906738281e+01,2.172828483581542969e+01,1.793447303771972656e+01,-4.257522583007812500e+00,-4.269180893898010254e-01,-2.034182548522949219e+00,6.946886539459228516e+00,4.801434516906738281e+00,-1.343246817588806152e+00,-2.038711309432983398e+00,4.303055286407470703e+00,-1.484945654869079590e+00,9.251310229301452637e-01,1.510413169860839844e+00,-3.044756650924682617e-01,1.391610860824584961e+00,1.135042428970336914e+00,-3.610281646251678467e-01,1.453672945499420166e-01,3.272032141685485840e-01,-4.729580283164978027e-01
2.881723880767822266e+00,-3.128427267074584961e+00,8.146560937166213989e-02,-3.274527788162231445e+00,-6.311792373657226562e+00,-1.887215852737426758e+00,2.529688596725463867e+00,-2.181289196014404297e-01,-8.427436828613281250e+00,-5.767020225524902344e+00,-5.150030136108398438e+00,3.201212644577026367e+00,-6.759108543395996094e+00,6.592365503311157227e-01,-9.867454528808593750e+00,2.356999874114990234e+00,1.162245082855224609e+01,7.341032505035400391e+00,3.091618347167968750e+01,6.080329132080078125e+01,7.708170318603515625e+01,5.243766021728515625e+01,7.480778503417968750e+01,5.230313110351562500e+01,1.002149658203125000e+02,4.361042022705078125e+01,6.885444641113281250e+01,4.905559539794921875e+01,6.565496826171875000e+01,5.488510894775390625e+01,9.485219573974609375e+01,7.336978149414062500e+01,-1.740903282165527344e+01,2.144145584106445312e+01,-2.914995670318603516e+00,3.528922557830810547e+00,-2.128253555297851562e+01,1.906690979003906250e+01,3.327110290527343750e+00,1.558137685060501099e-02,-5.221652984619140625e+00,3.546525955200195312e+00,-2.167605876922607422e+00,-7.093840122222900391e+00,8.842143058776855469e+00,-6.470338344573974609e+00,1.170552253723144531e+01,1.263547182083129883e+00,-4.929287433624267578e+00,3.266523838043212891e+00
0.000000000000000000e+00,0.000000000000000000e+00,0.000000000000000000e+00,0.000000000000000000e+00,0.000000000000000000e+00,0.000000000000000000e+00,0.000000000000000000e+00,0.000000000000000000e+00,0.000000000000000000e+00,0.000000000000000000e+00,0.000000000000000000e+00,0.000000000000000000e+00,0.000000000000000000e+00,0.000000000000000000e+00,0.000000000000000000e+00,0.000000000000000000e+00,0.000000000000000000e+00,0.000000000000000000e+00,0.000000000000000000e+00,0.000000000000000000e+00,0.000000000000000000e+00,0.000000000000000000e+00,0.000000000000000000e+00,0.000000000000000000e+00,0.000000000000000000e+00,0.000000000000000000e+00,0.000000000000000000e+00,0.000000000000000000e+00,0.000000000000000000e+00,0.000000000000000000e+00,0.000000000000000000e+00,0.000000000000000000e+00,0.000000000000000000e+00,0.000000000000000000e+00,0.000000000000000000e+00,0.000000000000000000e+00,0.000000000000000000e+00,0.000000000000000000e+00,0.000000000000000000e+00,0.000000000000000000e+00,0.000000000000000000e+00,0.000000000000000000e+00,0.000000000000000000e+00,0.000000000000000000e+00,0.000000000000000000e+00,0.000000000000000000e+00,0.000000000000000000e+00,0.000000000000000000e+00,0.000000000000000000e+00,0.000000000000000000e+00
1.638999283313751221e-01,-1.795360922813415527e+00,9.638401031494140625e+00,-1.504272937774658203e+01,-2.160716819763183594e+01,-2.783258676528930664e+00,-1.460396528244018555e+00,-6.834321498870849609e+00,-4.337608337402343750e+00,-1.421386432647705078e+01,6.032206535339355469e+00,-3.151694774627685547e+00,-1.545829772949218750e+00,2.002089500427246094e+00,2.114474058151245117e+00,2.655660152435302734e+00,1.666523694992065430e+00,-2.664510250091552734e+00,1.015760135650634766e+01,2.330379295349121094e+01,9.152573585510253906e+00,1.957619476318359375e+01,2.236486244201660156e+01,1.898408508300781250e+01,2.079333496093750000e+01,1.772558403015136719e+01,1.850614738464355469e+01,1.171669101715087891e+01,1.836395835876464844e+01,2.269994735717773438e+01,1.513657569885253906e+01,5.473667144775390625e+00,3.020667076110839844e+00,1.094863533973693848e+00,-5.250933647155761719e+00,3.979363679885864258e+00,-5.648551940917968750e+00,8.831022977828979492e-01,-7.732487678527832031e+00,2.044511079788208008e+00,2.806200027465820312e+00,1.141028404235839844e+01,-8.745698928833007812e+00,-8.251042366027832031e+00,-1.645253181457519531e+00,-1.484779953956604004e+00,-7.332679629325866699e-01,1.004528284072875977e+00,-5.255781650543212891e+00,-2.774260006844997406e-02
