-2.764815872069448233e-04,-6.193015724420547485e-04,-8.463492849841713905e-04,-1.443293294869363308e-03,-2.810121746733784676e-03,-4.362742416560649872e-03,-5.481404718011617661e-03,-6.051269359886646271e-03,-6.705877836793661118e-03,-7.224882487207651138e-03,-7.528734393417835236e-03,-7.357703056186437607e-03,-7.148976437747478485e-03,-7.087563164532184601e-03,-7.672616280615329742e-03,-8.481120690703392029e-03,-8.741696365177631378e-03,-8.885370567440986633e-03,-8.727828972041606903e-03,-8.621322922408580780e-03,-8.839108049869537354e-03,-8.947427384555339813e-03,-8.978923782706260681e-03,-9.217141196131706238e-03,-9.195752441883087158e-03,-8.965985849499702454e-03,-8.651872165501117706e-03,-8.433723822236061096e-03,-8.492763154208660126e-03,-8.509507402777671814e-03,-8.646121248602867126e-03,-8.820772171020507812e-03,-8.785016834735870361e-03,-8.627103641629219055e-03,-8.360049687325954437e-03,-8.252923376858234406e-03,-8.019304834306240082e-03,-7.287642452865839005e-03,-7.139601744711399078e-03,-6.785957608371973038e-03,-6.084880325943231583e-03,-5.758018232882022858e-03,-5.382777657359838486e-03,-4.567100666463375092e-03,-3.925804048776626587e-03,-3.503392683342099190e-03,-3.337825881317257881e-03,-3.440141677856445312e-03,-3.381567541509866714e-03,-2.903944347053766251e-03,-2.601095242425799370e-03,-2.679919125512242317e-03,-2.430759370326995850e-03,-1.833302667364478111e-03,-1.450281357392668724e-03,-1.128675881773233414e-03,3.614327943068929017e-05,1.165753812529146671e-03,1.753491698764264584e-03,2.542703179642558098e-03,2.571894088760018349e-03,2.352206967771053314e-03,2.558025298640131950e-03,2.460635034367442131e-03,2.331622177734971046e-03,2.762264106422662735e-03,3.559956792742013931e-03,4.770327359437942505e-03,5.171171855181455612e-03,4.746437538415193558e-03,4.890871234238147736e-03,5.057002417743206024e-03,5.524548236280679703e-03,5.538374185562133789e-03,5.141109228134155273e-03,4.991299472749233246e-03,4.686153493821620941e-03,4.406822379678487778e-03,4.272514022886753082e-03,4.393517505377531052e-03,4.729431122541427612e-03,5.224217660725116730e-03,5.309662781655788422e-03,4.948307760059833527e-03,4.467222373932600021e-03,3.853286849334836006e-03,3.601604374125599861e-03,3.319516777992248535e-03,3.668849822133779526e-03,4.760080017149448395e-03,4.783683922141790390e-03,4.947825334966182709e-03,4.594594240188598633e-03,4.083396866917610168e-03,3.967562690377235413e-03,3.527243854478001595e-03,3.927090670913457870e-03,4.138316959142684937e-03,4.114757291972637177e-03,4.274077713489532471e-03,3.508330788463354111e-03,3.221434773877263069e-03,3.246859414502978325e-03,2.794088795781135559e-03,2.634262433275580406e-03,2.426526509225368500e-03,2.481709467247128487e-03,2.353806979954242706e-03,1.922839554026722908e-03,2.140076365321874619e-03,2.873801626265048981e-03,3.479515668004751205e-03,3.548564855009317398e-03,3.764543682336807251e-03,3.750420641154050827e-03,3.926810808479785919e-03,4.200772382318973541e-03,4.428023938089609146e-03,4.558210726827383041e-03,4.816523753106594086e-03,5.544252693653106689e-03,5.505291279405355453e-03,5.604817532002925873e-03,6.147253327071666718e-03,6.040039472281932831e-03,5.562641657888889313e-03,5.336211528629064560e-03,4.809572361409664154e-03,4.526151809841394424e-03,4.076034761965274811e-03,3.464298788458108902e-03,3.145654452964663506e-03,3.215488744899630547e-03,3.127638250589370728e-03,2.770278137177228928e-03,2.677684184163808823e-03,2.969451248645782471e-03,3.138138446956872940e-03,2.819954184815287590e-03,3.066096454858779907e-03,3.305020974949002266e-03,3.099247347563505173e-03,3.391589270904660225e-03,3.873749868944287300e-03,4.108117427676916122e-03,4.877231083810329437e-03,5.624689627438783646e-03,5.634528119117021561e-03,5.557174328714609146e-03,5.316591821610927582e-03,5.886512808501720428e-03,6.317166145890951157e-03,6.534945219755172729e-03,6.788218859583139420e-03,6.546081043779850006e-03,6.775161717087030411e-03,7.311742752790451050e-03,6.809428334236145020e-03,6.393992807716131210e-03,6.556010805070400238e-03,7.045343518257141113e-03,6.854956038296222687e-03,5.752867553383111954e-03,5.434649996459484100e-03,5.330550484359264374e-03,5.193692632019519806e-03,4.676765762269496918e-03,4.466093610972166061e-03,4.261156078428030014e-03,4.199535120278596878e-03,3.388766897842288017e-03,2.160656033083796501e-03,1.060300623066723347e-03,1.212063361890614033e-04,-8.343296358361840248e-04,-1.367019955068826675e-03,-1.512385322712361813e-03,-2.129781525582075119e-03,-2.185117918998003006e-03,-2.125425264239311218e-03,-2.181529765948653221e-03,-1.238792901858687401e-03,-3.398320113774389029e-04,1.354340492980554700e-04,-2.324630040675401688e-04,-6.718464283039793372e-05,3.933353291358798742e-04,-5.690360558219254017e-05,-9.813875658437609673e-04,-1.156870508566498756e-03,-6.605367525480687618e-05,3.526458167470991611e-04,1.154035795480012894e-03,1.504061627201735973e-03,1.842389232479035854e-03,2.823741408064961433e-03,3.168644849210977554e-03,3.641525749117136002e-03,4.237578250467777252e-03,5.298392847180366516e-03,5.676434375345706940e-03,5.999733693897724152e-03,6.255476269870996475e-03,6.738234311342239380e-03,7.176193408668041229e-03,7.215243764221668243e-03,7.881399244070053101e-03,9.228483773767948151e-03,1.009074412286281586e-02,9.783913381397724152e-03,9.195786900818347931e-03,8.191891014575958252e-03,7.657589856535196304e-03,8.098552003502845764e-03,9.579734876751899719e-03,1.024683471769094467e-02,9.761646389961242676e-03,8.884866721928119659e-03,9.070342406630516052e-03,1.039609219878911972e-02,1.035884022712707520e-02,9.659172035753726959e-03,8.285786025226116180e-03,6.748883519321680069e-03,6.589475087821483612e-03,6.434628274291753769e-03,6.593364290893077850e-03,6.423979997634887695e-03,6.658865604549646378e-03,6.670135073363780975e-03,6.513523403555154800e-03,6.913212593644857407e-03,6.788359023630619049e-03,5.736324004828929901e-03,5.857028532773256302e-03,5.011470988392829895e-03,3.260620404034852982e-03,2.298652427271008492e-03,2.058198733720928431e-04,-2.299337182193994522e-03,-4.535895772278308868e-03,-5.951904691755771637e-03,-7.642703596502542496e-03,-8.991494774818420410e-03,-1.084422133862972260e-02,-1.148033887147903442e-02,-1.206977758556604385e-02,-1.278437953442335129e-02,-1.356704533100128174e-02,-1.436646748334169388e-02,-1.512139849364757538e-02,-1.590356975793838501e-02,-1.732823625206947327e-02,-1.897646486759185791e-02,-2.092598006129264832e-02,-2.349964715540409088e-02,-2.602142095565795898e-02,-2.897132560610771179e-02,-3.151556849479675293e-02,-3.370492160320281982e-02,-3.548853844404220581e-02,-3.681285306811332703e-02,-3.829810395836830139e-02,-3.929286450147628784e-02,-4.049582034349441528e-02,-4.139629006385803223e-02,-4.195200279355049133e-02,-4.240105301141738892e-02,-4.282905906438827515e-02,-4.317693039774894714e-02,-4.340384155511856079e-02,-4.365790635347366333e-02,-4.399601742625236511e-02,-4.434457793831825256e-02,-4.469490051269531250e-02,-4.519530385732650757e-02,-4.564718902111053467e-02,-4.594310373067855835e-02,-4.584692418575286865e-02,-4.545231536030769348e-02,-4.561871662735939026e-02,-4.269016534090042114e-02,-3.978416696190834045e-02,-3.624993562698364258e-02,-3.159144520759582520e-02,-2.607617899775505066e-02
-1.227776519954204559e-04,-3.108449163846671581e-04,-5.531188216991722584e-04,-1.012453460134565830e-03,-1.739696017466485500e-03,-2.465209690853953362e-03,-3.225967986509203911e-03,-3.434702288359403610e-03,-3.723374800756573677e-03,-3.991976380348205566e-03,-4.154707305133342743e-03,-4.205620847642421722e-03,-4.248585551977157593e-03,-4.280055873095989227e-03,-4.297004546970129013e-03,-4.357121419161558151e-03,-4.374927841126918793e-03,-4.358788486570119858e-03,-4.338263068348169327e-03,-4.293299280107021332e-03,-4.362854640930891037e-03,-4.403679631650447845e-03,-4.425856284797191620e-03,-4.535024985671043396e-03,-4.565836396068334579e-03,-4.564845468848943710e-03,-4.521602299064397812e-03,-4.563349299132823944e-03,-4.635185934603214264e-03,-4.779008682817220688e-03,-4.879091866314411163e-03,-4.811001475900411606e-03,-4.620562307536602020e-03,-4.534666426479816437e-03,-4.478744231164455414e-03,-4.312135279178619385e-03,-4.145274404436349869e-03,-3.960817586630582809e-03,-3.737444756552577019e-03,-3.624452743679285049e-03,-3.496088087558746338e-03,-3.436567960307002068e-03,-3.171727061271667480e-03,-2.752824686467647552e-03,-2.601027023047208786e-03,-2.650224603712558746e-03,-2.479428425431251526e-03,-2.200740855187177658e-03,-2.128890249878168106e-03,-2.114711562171578407e-03,-2.026679227128624916e-03,-1.744091860018670559e-03,-1.301619806326925755e-03,-9.411303326487541199e-04,-7.041264325380325317e-04,-2.385558036621659994e-04,4.140025994274765253e-04,7.124495459720492363e-04,1.216748496517539024e-03,1.433567376807332039e-03,1.303852885030210018e-03,1.496569719165563583e-03,1.768743619322776794e-03,2.043043728917837143e-03,2.074947115033864975e-03,2.123567508533596992e-03,2.089789602905511856e-03,2.153127687051892281e-03,2.235282678157091141e-03,2.300154417753219604e-03,2.521516289561986923e-03,2.511445898562669754e-03,2.785477787256240845e-03,3.053429769352078438e-03,3.165632486343383789e-03,2.925464184954762459e-03,2.696095732972025871e-03,2.486333949491381645e-03,2.325179288163781166e-03,2.186588244512677193e-03,2.222440671175718307e-03,2.369002671912312508e-03,2.586121438071131706e-03,2.441855613142251968e-03,2.144180471077561378e-03,2.241074573248624802e-03,2.133398782461881638e-03,2.027405425906181335e-03,2.210425678640604019e-03,2.326433081179857254e-03,2.252234145998954773e-03,2.106513129547238350e-03,2.086085034534335136e-03,1.962917856872081757e-03,1.764919958077371120e-03,1.699552871286869049e-03,1.600428484380245209e-03,1.627203077077865601e-03,1.543267862871289253e-03,1.387265045195817947e-03,1.182717503979802132e-03,9.568211389705538750e-04,9.195532766170799732e-04,9.472311357967555523e-04,1.015807618387043476e-03,9.623214718885719776e-04,8.434082265011966228e-04,8.791958098299801350e-04,9.052910027094185352e-04,1.049372716806828976e-03,1.295761438086628914e-03,1.442081993445754051e-03,1.537274336442351341e-03,1.562620745971798897e-03,1.656420528888702393e-03,1.755801960825920105e-03,1.907422556541860104e-03,2.006121678277850151e-03,2.135864226147532463e-03,2.116935327649116516e-03,1.967760268598794937e-03,2.046314999461174011e-03,2.149378880858421326e-03,2.238205401226878166e-03,2.278011757880449295e-03,2.174743916839361191e-03,2.024480141699314117e-03,1.927250646986067295e-03,1.780905178748071194e-03,1.571889733895659447e-03,1.385082839988172054e-03,1.238272292539477348e-03,1.107297139242291451e-03,9.720126399770379066e-04,1.025448902510106564e-03,1.072887680493295193e-03,1.076216227374970913e-03,1.111346296966075897e-03,1.046005752868950367e-03,1.120628789067268372e-03,1.310330582782626152e-03,1.446111360564827919e-03,1.696852967143058777e-03,1.977789681404829025e-03,2.107130829244852066e-03,2.270829398185014725e-03,2.330698072910308838e-03,2.319891005754470825e-03,2.316103084012866020e-03,2.406709361821413040e-03,2.563042566180229187e-03,2.702260855585336685e-03,2.875536913052201271e-03,2.942212624475359917e-03,3.095552790910005569e-03,3.318617120385169983e-03,3.284123959019780159e-03,3.116668667644262314e-03,3.001369070261716843e-03,2.841647947207093239e-03,2.790524391457438469e-03,2.520619425922632217e-03,2.419374417513608932e-03,2.378599252551794052e-03,2.268469659611582756e-03,2.134931040927767754e-03,1.953142462298274040e-03,1.898207934573292732e-03,1.775210024788975716e-03,1.521872123703360558e-03,1.205486827529966831e-03,7.230128394439816475e-04,1.614023931324481964e-04,-3.910599625669419765e-04,-9.124263888224959373e-04,-1.393185462802648544e-03,-1.308980165049433708e-03,-1.279440475627779961e-03,-1.473086187615990639e-03,-1.436762744560837746e-03,-1.340461312793195248e-03,-9.337834781035780907e-04,-7.114654290489852428e-04,-4.627292510122060776e-04,-2.220633032266050577e-04,-1.758012658683583140e-04,-2.907000598497688770e-04,-3.825612948276102543e-04,-3.509889938868582249e-04,-2.705530205275863409e-04,1.474923046771436930e-04,3.241149825043976307e-04,6.939930026419460773e-04,1.084795803762972355e-03,1.247687498107552528e-03,1.589458435773849487e-03,1.717691891826689243e-03,1.963025657460093498e-03,2.195252105593681335e-03,2.670891582965850830e-03,2.988173393532633781e-03,3.299050033092498779e-03,3.374415682628750801e-03,3.431274322792887688e-03,3.713666694238781929e-03,3.817594842985272408e-03,3.941480070352554321e-03,4.282301757484674454e-03,4.376730881631374359e-03,4.229316953569650650e-03,4.256810061633586884e-03,4.037698265165090561e-03,3.907137550413608551e-03,3.857259405776858330e-03,3.679123474285006523e-03,3.783210413530468941e-03,3.736204002052545547e-03,3.744018729776144028e-03,3.898994997143745422e-03,4.302743822336196899e-03,4.278644453734159470e-03,3.813738469034433365e-03,3.450094256550073624e-03,3.221741644665598869e-03,3.286379156634211540e-03,3.248973283916711807e-03,3.238915000110864639e-03,2.983722137287259102e-03,2.924247877672314644e-03,2.806629985570907593e-03,2.845356939360499382e-03,2.800809917971491814e-03,2.847242169082164764e-03,2.830563578754663467e-03,2.669560955837368965e-03,2.534562023356556892e-03,1.824593171477317810e-03,1.263358863070607185e-03,2.962715807370841503e-04,-8.801819640211760998e-04,-1.562785007990896702e-03,-2.058569807559251785e-03,-2.869147341698408127e-03,-3.478683531284332275e-03,-3.978670574724674225e-03,-4.080145154148340225e-03,-4.299635067582130432e-03,-4.258466418832540512e-03,-4.101591650396585464e-03,-3.993647638708353043e-03,-3.859025193378329277e-03,-4.110509995371103287e-03,-4.421630874276161194e-03,-5.063818302005529404e-03,-6.014985498040914536e-03,-7.238091435283422470e-03,-8.355187252163887024e-03,-9.671172127127647400e-03,-1.064403075724840164e-02,-1.171706337481737137e-02,-1.254575699567794800e-02,-1.336911320686340332e-02,-1.434826850891113281e-02,-1.454948354512453079e-02,-1.508801896125078201e-02,-1.530371326953172684e-02,-1.538103260099887848e-02,-1.537870150059461594e-02,-1.545679289847612381e-02,-1.554397679865360260e-02,-1.557315886020660400e-02,-1.560392789542675018e-02,-1.562949083745479584e-02,-1.565129496157169342e-02,-1.568210497498512268e-02,-1.565815880894660950e-02,-1.572635211050510406e-02,-1.574458740651607513e-02,-1.572423614561557770e-02,-1.587071269750595093e-02,-1.628476381301879883e-02,-1.509930379688739777e-02,-1.442659087479114532e-02,-1.365387998521327972e-02,-1.269697211682796478e-02,-1.086054462939500809e-02
-3.809569752775132656e-04,-8.008610457181930542e-04,-1.074347994290292263e-03,-2.104080282151699066e-03,-3.957775421440601349e-03,-5.463989917188882828e-03,-6.923551671206951141e-03,-8.181316778063774109e-03,-9.190990589559078217e-03,-1.023970451205968857e-02,-1.051142532378435135e-02,-1.104931998997926712e-02,-1.136715523898601532e-02,-1.086402684450149536e-02,-1.120551116764545441e-02,-1.111876405775547028e-02,-1.107106544077396393e-02,-1.127268932759761810e-02,-1.109908800572156906e-02,-1.112787146121263504e-02,-1.114554051309823990e-02,-1.120814308524131775e-02,-1.143332105129957199e-02,-1.183237787336111069e-02,-1.234557945281267166e-02,-1.259849686175584793e-02,-1.256818510591983795e-02,-1.258029323071241379e-02,-1.302496530115604401e-02,-1.343877613544464111e-02,-1.337931118905544281e-02,-1.328815985471010208e-02,-1.308748126029968262e-02,-1.256954669952392578e-02,-1.176448166370391846e-02,-1.129749882966279984e-02,-1.070365123450756073e-02,-9.767005220055580139e-03,-8.913803845643997192e-03,-8.065267466008663177e-03,-7.499025668948888779e-03,-6.915278732776641846e-03,-6.479130592197179794e-03,-5.698100663721561432e-03,-4.684566054493188858e-03,-4.365886561572551727e-03,-4.838515538722276688e-03,-4.515607375651597977e-03,-4.014647100120782852e-03,-3.928730264306068420e-03,-3.646146506071090698e-03,-3.013687208294868469e-03,-2.304200781509280205e-03,-1.844582380726933479e-03,-1.038155285641551018e-03,-1.641304988879710436e-04,5.808552959933876991e-04,1.671444973908364773e-03,2.143335063010454178e-03,2.115263370797038078e-03,2.274668542668223381e-03,2.672974485903978348e-03,2.957078861072659492e-03,2.775224624201655388e-03,2.808033721521496773e-03,3.165495814755558968e-03,3.875595983117818832e-03,4.396779462695121765e-03,4.049264825880527496e-03,3.991876263171434402e-03,4.211617633700370789e-03,4.302739165723323822e-03,4.265654366463422775e-03,4.688088782131671906e-03,4.771829582750797272e-03,4.692979622632265091e-03,4.375753458589315414e-03,4.315982107073068619e-03,4.282071255147457123e-03,4.677950870245695114e-03,4.885766655206680298e-03,4.647352267056703568e-03,4.335532896220684052e-03,4.250091500580310822e-03,4.055610392242670059e-03,3.665202762931585312e-03,3.559119533747434616e-03,3.935267217457294464e-03,3.974838647991418839e-03,3.540985286235809326e-03,3.683908376842737198e-03,4.124614410102367401e-03,4.086202941834926605e-03,3.603723365813493729e-03,3.688718657940626144e-03,4.103851504623889923e-03,3.768173512071371078e-03,3.137626452371478081e-03,3.099696245044469833e-03,2.863366622477769852e-03,2.461511641740798950e-03,2.380893332883715630e-03,2.193858614191412926e-03,2.174841705709695816e-03,2.284175716340541840e-03,2.481079893186688423e-03,2.627677517011761665e-03,2.227425808086991310e-03,1.829605898819863796e-03,2.036121208220720291e-03,2.761331852525472641e-03,3.385928925126791000e-03,3.199188737198710442e-03,3.041221527382731438e-03,3.290283028036355972e-03,3.290699794888496399e-03,3.358487505465745926e-03,3.786199493333697319e-03,4.040686413645744324e-03,4.135598428547382355e-03,4.104617983102798462e-03,3.908016718924045563e-03,4.221974872052669525e-03,4.439114127308130264e-03,4.566994030028581619e-03,4.429606255143880844e-03,3.891931381076574326e-03,3.552020061761140823e-03,3.458279650658369064e-03,3.321095136925578117e-03,3.203136147931218147e-03,3.088248893618583679e-03,2.986800624057650566e-03,2.575379563495516777e-03,2.459124429151415825e-03,2.498271875083446503e-03,2.368262503296136856e-03,2.073555951938033104e-03,1.882718177512288094e-03,2.143377438187599182e-03,2.385923871770501137e-03,2.860263688489794731e-03,3.302352037280797958e-03,3.628404811024665833e-03,4.176434129476547241e-03,4.408971872180700302e-03,4.463334102183580399e-03,4.957058466970920563e-03,4.808665253221988678e-03,4.288182593882083893e-03,4.803949967026710510e-03,4.978162236511707306e-03,5.163806024938821793e-03,5.493791308254003525e-03,5.603103898465633392e-03,5.503830499947071075e-03,5.461249034851789474e-03,5.566074512898921967e-03,5.436777137219905853e-03,5.370390601456165314e-03,5.001333076506853104e-03,4.750399850308895111e-03,4.768962506204843521e-03,4.483283963054418564e-03,4.071103408932685852e-03,4.093127790838479996e-03,3.857895033434033394e-03,3.528925357386469841e-03,3.283891826868057251e-03,2.987989690154790878e-03,2.651119604706764221e-03,1.682788133621215820e-03,5.087119643576443195e-04,-1.040893266690545715e-06,-7.236250676214694977e-04,-1.534585724584758282e-03,-1.849387423135340214e-03,-1.880994066596031189e-03,-1.924562500789761543e-03,-2.209624741226434708e-03,-1.949063269421458244e-03,-1.271737855859100819e-03,-1.106261159293353558e-03,-3.787243622355163097e-04,-4.288972559152171016e-05,-2.509335754439234734e-04,-1.286225888179615140e-04,1.157811493612825871e-04,-1.253623340744525194e-04,-2.610383671708405018e-04,6.386862951330840588e-04,7.395352004095911980e-04,9.190347045660018921e-04,1.554431160911917686e-03,2.141389530152082443e-03,3.087563905864953995e-03,3.678628709167242050e-03,3.780923085287213326e-03,4.104780964553356171e-03,4.759078379720449448e-03,4.996028263121843338e-03,5.381202325224876404e-03,5.872787907719612122e-03,6.346793379634618759e-03,6.971987430006265640e-03,7.926175370812416077e-03,9.411932900547981262e-03,1.092484593391418457e-02,1.193607412278652191e-02,1.251028943806886673e-02,1.256399787962436676e-02,1.224770955741405487e-02,1.120296865701675415e-02,1.053548511117696762e-02,1.020730845630168915e-02,9.633340872824192047e-03,1.033444423228502274e-02,1.174275204539299011e-02,1.275232154875993729e-02,1.458218973129987717e-02,1.311350148171186447e-02,1.117572188377380371e-02,9.583866223692893982e-03,7.296365685760974884e-03,6.667351815849542618e-03,6.451008375734090805e-03,5.658358801156282425e-03,5.389661528170108795e-03,5.671871826052665710e-03,6.328438874334096909e-03,7.290161214768886566e-03,8.392369374632835388e-03,8.972235955297946930e-03,7.728009484708309174e-03,6.193301640450954437e-03,5.273929797112941742e-03,3.664236050099134445e-03,2.645683940500020981e-03,1.290028216317296028e-03,-4.458946059457957745e-04,-2.440716605633497238e-03,-4.306505434215068817e-03,-6.361179053783416748e-03,-8.088155649602413177e-03,-1.027886383235454559e-02,-1.182383671402931213e-02,-1.261984836310148239e-02,-1.339797861874103546e-02,-1.403281558305025101e-02,-1.448139548301696777e-02,-1.429783366620540619e-02,-1.415314711630344391e-02,-1.416243333369493484e-02,-1.374929118901491165e-02,-1.280963420867919922e-02,-1.096608489751815796e-02,-8.912549354135990143e-03,-7.173048797994852066e-03,-5.250277929008007050e-03,-4.904604516923427582e-03,-5.190834868699312210e-03,-6.119620986282825470e-03,-8.670523762702941895e-03,-1.054559461772441864e-02,-1.316185574978590012e-02,-1.535703241825103760e-02,-1.781264320015907288e-02,-1.975951343774795532e-02,-2.135609090328216553e-02,-2.274466864764690399e-02,-2.380723133683204651e-02,-2.476280368864536285e-02,-2.553136274218559265e-02,-2.620154246687889099e-02,-2.677844092249870300e-02,-2.727855183184146881e-02,-2.757669053971767426e-02,-2.747427299618721008e-02,-2.741749025881290436e-02,-2.635405026376247406e-02,-2.662313543260097504e-02,-2.369349263608455658e-02,-2.092400565743446350e-02,-1.898539811372756958e-02,-1.566033624112606049e-02,-1.176139991730451584e-02
-2.790394064504653215e-04,-5.641711177304387093e-04,-9.424363379366695881e-04,-1.778893754817545414e-03,-3.075858112424612045e-03,-4.252723418176174164e-03,-5.115366075187921524e-03,-5.946668796241283417e-03,-6.642608437687158585e-03,-7.102884352207183838e-03,-7.331367582082748413e-03,-7.503008004277944565e-03,-7.593632675707340240e-03,-7.728287018835544586e-03,-7.806510664522647858e-03,-8.028405718505382538e-03,-8.196813054382801056e-03,-8.217001333832740784e-03,-8.103268221020698547e-03,-8.051826618611812592e-03,-7.970960810780525208e-03,-8.105173707008361816e-03,-8.419730700552463531e-03,-8.637935854494571686e-03,-8.766459301114082336e-03,-8.753943257033824921e-03,-8.673592470586299896e-03,-8.539887145161628723e-03,-8.513031527400016785e-03,-8.700367063283920288e-03,-8.882015943527221680e-03,-8.734790608286857605e-03,-8.508028462529182434e-03,-8.433526381850242615e-03,-8.225345984101295471e-03,-7.871016860008239746e-03,-7.472983095794916153e-03,-7.005018647760152817e-03,-6.599205546081066132e-03,-6.159423850476741791e-03,-5.807936191558837891e-03,-5.289257969707250595e-03,-4.881910048425197601e-03,-4.466314334422349930e-03,-4.099456593394279480e-03,-3.803259227424860001e-03,-3.526243614032864571e-03,-3.416390391066670418e-03,-3.309241030365228653e-03,-3.107720986008644104e-03,-2.954019699245691299e-03,-2.570057986304163933e-03,-2.140523865818977356e-03,-1.416177488863468170e-03,-5.565680330619215965e-04,1.500991929788142443e-04,1.151242293417453766e-03,1.908147707581520081e-03,2.013721037656068802e-03,2.247162163257598877e-03,2.564964117482304573e-03,3.072720486670732498e-03,3.641190472990274429e-03,3.705655457451939583e-03,3.615385387092828751e-03,3.528484608978033066e-03,3.661309601739048958e-03,4.206156823784112930e-03,4.369992762804031372e-03,4.314810037612915039e-03,4.412061534821987152e-03,4.940290004014968872e-03,5.586721003055572510e-03,5.490227136760950089e-03,5.056688096374273300e-03,4.779035691171884537e-03,4.261343739926815033e-03,3.271092893555760384e-03,3.250906709581613541e-03,3.757092403247952461e-03,3.552724840119481087e-03,3.802730236202478409e-03,4.194916691631078720e-03,3.806274849921464920e-03,3.391691250726580620e-03,3.280083881691098213e-03,3.346120472997426987e-03,3.307537641376256943e-03,3.508323803544044495e-03,3.676757682114839554e-03,3.672999097034335136e-03,3.898522350937128067e-03,3.842887934297323227e-03,3.550368826836347580e-03,3.451796248555183411e-03,3.234615549445152283e-03,2.750791143625974655e-03,2.756823319941759109e-03,2.615948440507054329e-03,2.165626967325806618e-03,1.747164642438292503e-03,1.529645523987710476e-03,1.539196120575070381e-03,1.469719223678112030e-03,1.458316110074520111e-03,1.403967966325581074e-03,1.147958450019359589e-03,9.893376845866441727e-04,1.042884425260126591e-03,1.354814157821238041e-03,2.056804951280355453e-03,2.257031854242086411e-03,2.328990027308464050e-03,2.727385144680738449e-03,3.014111192896962166e-03,3.107350319623947144e-03,3.239132929593324661e-03,3.507165703922510147e-03,3.506443696096539497e-03,3.513705683872103691e-03,3.773200558498501778e-03,3.745366353541612625e-03,4.119182005524635315e-03,4.458768758922815323e-03,4.211489111185073853e-03,3.739228937774896622e-03,3.153816564008593559e-03,2.852013334631919861e-03,2.600083360448479652e-03,2.580050844699144363e-03,2.543223556131124496e-03,2.127737738192081451e-03,1.686042756773531437e-03,1.464483560994267464e-03,1.388641423545777798e-03,1.329987891949713230e-03,1.398946857079863548e-03,1.296876231208443642e-03,1.171156764030456543e-03,1.304936362430453300e-03,1.618429319933056831e-03,2.066568704321980476e-03,2.547711133956909180e-03,2.982556121423840523e-03,3.394393250346183777e-03,3.907505422830581665e-03,4.297091625630855560e-03,4.726067185401916504e-03,4.808980040252208710e-03,4.682161845266819000e-03,4.816393367946147919e-03,4.767902195453643799e-03,4.950971342623233795e-03,4.825392272323369980e-03,4.609576426446437836e-03,4.787856712937355042e-03,4.857050720602273941e-03,4.639613442122936249e-03,4.222837276756763458e-03,4.192612133920192719e-03,3.977892454713582993e-03,3.618240356445312500e-03,3.315027337521314621e-03,3.079911693930625916e-03,2.784975338727235794e-03,2.619042992591857910e-03,2.510940190404653549e-03,2.566020004451274872e-03,2.269514137879014015e-03,1.395020168274641037e-03,4.902413929812610149e-04,-3.184704110026359558e-04,-1.173746539279818535e-03,-1.988189760595560074e-03,-2.615364734083414078e-03,-2.994183218106627464e-03,-2.891885582357645035e-03,-2.835979918017983437e-03,-2.955956850200891495e-03,-2.996230497956275940e-03,-3.007813356816768646e-03,-2.319615567103028297e-03,-1.820504083298146725e-03,-1.572593464516103268e-03,-1.361870788969099522e-03,-1.231886213645339012e-03,-1.196021214127540588e-03,-1.389803597703576088e-03,-1.602745032869279385e-03,-1.491086091846227646e-03,-6.331033073365688324e-04,-6.729446613462641835e-05,6.120231118984520435e-04,1.317858230322599411e-03,1.699691987596452236e-03,2.219347283244132996e-03,2.554445527493953705e-03,3.148957388475537300e-03,3.968928940594196320e-03,4.821122158318758011e-03,5.404020659625530243e-03,5.729366093873977661e-03,6.473373621702194214e-03,7.407419383525848389e-03,8.588625118136405945e-03,9.836371056735515594e-03,1.136206835508346558e-02,1.275425404310226440e-02,1.187610905617475510e-02,1.075671985745429993e-02,9.641808457672595978e-03,8.099521510303020477e-03,6.738802883774042130e-03,6.105876527726650238e-03,6.681110709905624390e-03,7.651473395526409149e-03,8.361938409507274628e-03,9.214027784764766693e-03,9.628967382013797760e-03,1.004397775977849960e-02,9.308231063187122345e-03,7.323002908378839493e-03,5.392204970121383667e-03,4.590778611600399017e-03,4.078810103237628937e-03,3.773919539526104927e-03,3.944612108170986176e-03,4.239252302795648575e-03,4.105746746063232422e-03,4.586288705468177795e-03,4.669580142945051193e-03,5.081653594970703125e-03,4.818538669496774673e-03,4.413074813783168793e-03,3.391270060092210770e-03,2.669727895408868790e-03,1.357304863631725311e-03,-2.205141790909692645e-04,-1.765473512932658195e-03,-3.293026238679885864e-03,-4.846143536269664764e-03,-5.892439279705286026e-03,-7.236647419631481171e-03,-8.596593514084815979e-03,-9.820513427257537842e-03,-1.056135352700948715e-02,-1.135745178908109665e-02,-1.203946303576231003e-02,-1.252959482371807098e-02,-1.293595414608716965e-02,-1.358768902719020844e-02,-1.449052058160305023e-02,-1.584512367844581604e-02,-1.748370192945003510e-02,-1.886544749140739441e-02,-1.925293169915676117e-02,-1.838430389761924744e-02,-1.575461030006408691e-02,-1.154447812587022781e-02,-6.467395462095737457e-03,-5.731962737627327442e-04,4.785714205354452133e-03,9.655441157519817352e-03,1.340106409043073654e-02,1.622921600937843323e-02,1.831530779600143433e-02,1.975265331566333771e-02,2.051568403840065002e-02,2.091094106435775757e-02,2.106884680688381195e-02,2.112631313502788544e-02,2.115116640925407410e-02,2.115332335233688354e-02,2.112892642617225647e-02,2.117478474974632263e-02,2.120676264166831970e-02,2.106857672333717346e-02,2.076446637511253357e-02,2.030758932232856750e-02,1.909016445279121399e-02,1.823290996253490448e-02,1.671334356069564819e-02,1.496864855289459229e-02,1.207372080534696579e-02,9.504510089755058289e-03,7.875691168010234833e-03
-1.973216421902179718e-04,-5.213605472818017006e-04,-7.891430286690592766e-04,-1.397172221913933754e-03,-2.429263899102807045e-03,-3.493040800094604492e-03,-4.593589343130588531e-03,-5.140966735780239105e-03,-5.670848302543163300e-03,-6.112978328019380569e-03,-6.448891945183277130e-03,-6.435370538383722305e-03,-6.456623319536447525e-03,-6.520330905914306641e-03,-6.427490618079900742e-03,-6.411737296730279922e-03,-6.467911414802074432e-03,-6.512723863124847412e-03,-6.486049387603998184e-03,-6.475991103798151016e-03,-6.433424539864063263e-03,-6.484815385192632675e-03,-6.594646722078323364e-03,-6.787005811929702759e-03,-6.942965090274810791e-03,-7.160057313740253448e-03,-7.147957570850849152e-03,-7.045650389045476913e-03,-7.114296313375234604e-03,-7.330348249524831772e-03,-7.436156272888183594e-03,-7.265919353812932968e-03,-7.189483847469091415e-03,-7.030175533145666122e-03,-6.847207900136709213e-03,-6.541579961776733398e-03,-6.351889111101627350e-03,-6.051043979823589325e-03,-5.615474190562963486e-03,-5.228801164776086807e-03,-5.081278737634420395e-03,-4.857091698795557022e-03,-4.545719362795352936e-03,-4.303553141653537750e-03,-4.025708884000778198e-03,-3.741962369531393051e-03,-3.563439473509788513e-03,-3.578494535759091377e-03,-3.482627216726541519e-03,-3.300946671515703201e-03,-3.036097390577197075e-03,-2.644090214744210243e-03,-2.100631128996610641e-03,-1.530452165752649307e-03,-9.999262401834130287e-04,-3.772317140828818083e-04,5.539041012525558472e-04,1.298659830354154110e-03,1.672529266215860844e-03,2.112461254000663757e-03,2.580971457064151764e-03,2.797681372612714767e-03,2.714325906708836555e-03,2.883854787796735764e-03,2.904220717027783394e-03,3.189880400896072388e-03,3.620375646278262138e-03,3.788475645706057549e-03,3.848039312288165092e-03,3.873725188896059990e-03,3.893032204359769821e-03,4.046769347041845322e-03,4.341305233538150787e-03,4.675113130360841751e-03,4.459544084966182709e-03,4.069971386343240738e-03,3.653853433206677437e-03,3.212312934920191765e-03,3.362069372087717056e-03,3.540045348927378654e-03,3.778269048780202866e-03,3.736475482583045959e-03,3.485775785520672798e-03,3.279919270426034927e-03,2.950840163975954056e-03,2.769534243270754814e-03,2.607491565868258476e-03,2.882937667891383171e-03,3.258718177676200867e-03,3.155842889100313187e-03,3.366472898051142693e-03,3.300152020528912544e-03,3.097067354246973991e-03,3.370440797880291939e-03,3.207511035725474358e-03,2.866686554625630379e-03,2.924232510849833488e-03,2.814766718074679375e-03,2.530906582251191139e-03,2.091194735839962959e-03,1.738440827466547489e-03,1.614006934687495232e-03,1.522575039416551590e-03,1.305483165197074413e-03,1.546968938782811165e-03,2.021118067204952240e-03,1.774830045178532600e-03,1.498427474871277809e-03,1.562713645398616791e-03,1.846540137194097042e-03,1.994034042581915855e-03,2.211650367826223373e-03,2.594230230897665024e-03,2.557473257184028625e-03,2.685565967112779617e-03,2.971656154841184616e-03,3.119890112429857254e-03,3.187626600265502930e-03,3.123466391116380692e-03,3.375912550836801529e-03,3.474929602816700935e-03,3.745684400200843811e-03,3.913347609341144562e-03,3.795017022639513016e-03,3.714163554832339287e-03,3.526839893311262131e-03,3.399671521037817001e-03,3.189325332641601562e-03,3.031679196283221245e-03,2.749745734035968781e-03,2.379486570134758949e-03,2.083930652588605881e-03,1.810855581425130367e-03,1.803537248633801937e-03,1.694080652669072151e-03,1.580840675160288811e-03,1.617336878553032875e-03,1.571852131746709347e-03,1.461047679185867310e-03,1.595892361365258694e-03,2.083010971546173096e-03,2.087785163894295692e-03,2.289896132424473763e-03,2.889753552153706551e-03,3.323797136545181274e-03,3.760054707527160645e-03,4.138894379138946533e-03,4.140481352806091309e-03,3.816217882558703423e-03,3.588606836274266243e-03,3.906934056431055069e-03,4.320295993238687515e-03,4.381726495921611786e-03,4.278971347957849503e-03,4.343247506767511368e-03,4.398082382977008820e-03,4.605504684150218964e-03,4.558723419904708862e-03,4.375815391540527344e-03,4.056245554238557816e-03,3.705189330503344536e-03,3.620142582803964615e-03,3.423918737098574638e-03,3.212139708921313286e-03,2.977484371513128281e-03,3.030115272849798203e-03,2.915777964517474174e-03,2.711109351366758347e-03,2.325731795281171799e-03,1.943014562129974365e-03,1.195986871607601643e-03,3.460927691776305437e-04,-5.334360757842659950e-04,-1.371818361803889275e-03,-2.028041053563356400e-03,-2.436545910313725471e-03,-2.561850938946008682e-03,-2.690656343474984169e-03,-2.603403525426983833e-03,-2.662163693457841873e-03,-2.743573859333992004e-03,-2.067332621663808823e-03,-1.609879778698086739e-03,-1.421466120518743992e-03,-1.346534932963550091e-03,-9.088435908779501915e-04,-1.019762479700148106e-03,-1.495457021519541740e-03,-1.586901955306529999e-03,-1.454854151234030724e-03,-6.189009873196482658e-04,-1.262146834051236510e-04,1.313242391915991902e-04,6.107100052759051323e-04,1.241969177499413490e-03,2.035569632425904274e-03,2.169781597331166267e-03,2.434695838019251823e-03,3.058352740481495857e-03,3.995413891971111298e-03,4.529192578047513962e-03,4.802999552339315414e-03,4.981596954166889191e-03,5.307062529027462006e-03,5.600575357675552368e-03,6.176192313432693481e-03,6.795109249651432037e-03,7.473268546164035797e-03,8.194920606911182404e-03,8.220338262617588043e-03,7.482086308300495148e-03,6.940844468772411346e-03,6.474101450294256210e-03,5.896685644984245300e-03,5.768099334090948105e-03,6.752921734005212784e-03,6.922674365341663361e-03,7.110910955816507339e-03,7.412801031023263931e-03,7.683530449867248535e-03,6.986548192799091339e-03,6.232723593711853027e-03,5.532898008823394775e-03,5.032160785049200058e-03,4.999933298677206039e-03,4.758267197757959366e-03,4.403241444379091263e-03,4.386651795357465744e-03,4.155057948082685471e-03,4.145878367125988007e-03,4.261931870132684708e-03,4.648824222385883331e-03,3.727180883288383484e-03,3.519676625728607178e-03,3.780135884881019592e-03,3.619613125920295715e-03,2.661556471139192581e-03,1.744318753480911255e-03,5.378649220801889896e-04,-1.151132164523005486e-03,-2.965419786050915718e-03,-3.805861575528979301e-03,-4.812826402485370636e-03,-5.917632486671209335e-03,-6.898303981870412827e-03,-7.274901960045099258e-03,-7.687697652727365494e-03,-8.186686784029006958e-03,-8.504623547196388245e-03,-8.767853491008281708e-03,-9.153371676802635193e-03,-9.568615816533565521e-03,-1.046907249838113785e-02,-1.168196834623813629e-02,-1.316926162689924240e-02,-1.494112424552440643e-02,-1.694071292877197266e-02,-1.879629865288734436e-02,-2.064465358853340149e-02,-2.224540524184703827e-02,-2.389908209443092346e-02,-2.485270239412784576e-02,-2.560201846063137054e-02,-2.646172977983951569e-02,-2.722512744367122650e-02,-2.806060574948787689e-02,-2.853357419371604919e-02,-2.925295569002628326e-02,-2.956216968595981598e-02,-2.975431457161903381e-02,-2.987749315798282623e-02,-2.999664284288883209e-02,-3.001794219017028809e-02,-3.015658631920814514e-02,-3.030775859951972961e-02,-3.044080734252929688e-02,-3.072099760174751282e-02,-3.074759244918823242e-02,-3.060363233089447021e-02,-3.067781403660774231e-02,-3.117838501930236816e-02,-2.879301831126213074e-02,-2.685097232460975647e-02,-2.460766956210136414e-02,-2.159344218671321869e-02,-1.824153214693069458e-02
-1.658254186622798443e-04,-3.954573185183107853e-04,-6.229249411262571812e-04,-1.068950048647820950e-03,-1.970506971701979637e-03,-2.618851838633418083e-03,-3.206273075193166733e-03,-3.643102245405316353e-03,-3.966826014220714569e-03,-4.118086304515600204e-03,-4.290625452995300293e-03,-4.364346619695425034e-03,-4.373242612928152084e-03,-4.599560052156448364e-03,-4.628446884453296661e-03,-4.741333425045013428e-03,-4.922824911773204803e-03,-4.975708667188882828e-03,-4.975803196430206299e-03,-4.828989505767822266e-03,-4.780386574566364288e-03,-4.889688454568386078e-03,-4.965507425367832184e-03,-5.007533822208642960e-03,-5.029188003391027451e-03,-5.027891602367162704e-03,-4.909413401037454605e-03,-4.787414334714412689e-03,-4.815360996872186661e-03,-4.995844326913356781e-03,-4.978360608220100403e-03,-5.034507252275943756e-03,-5.018954630941152573e-03,-4.918719641864299774e-03,-4.795351997017860413e-03,-4.574436694383621216e-03,-4.340204410254955292e-03,-4.120291210711002350e-03,-3.812906797975301743e-03,-3.498102072626352310e-03,-3.291615750640630722e-03,-3.082626732066273689e-03,-2.805573865771293640e-03,-2.500014845281839371e-03,-2.064182888716459274e-03,-1.916482346132397652e-03,-1.958257751539349556e-03,-1.794353825971484184e-03,-1.641054404899477959e-03,-1.529244706034660339e-03,-1.555003807879984379e-03,-1.347440876998007298e-03,-9.213305893354117870e-04,-7.097334018908441067e-04,-1.808367233024910092e-04,3.572483547031879425e-04,6.456824485212564468e-04,1.015501678921282291e-03,1.377723878249526024e-03,1.642636954784393311e-03,1.656763954088091850e-03,1.778247999027371407e-03,1.872326596640050411e-03,1.881561591289937496e-03,2.247716533020138741e-03,2.413679379969835281e-03,2.257293788716197014e-03,2.285282826051115990e-03,2.447863342240452766e-03,2.385588828474283218e-03,2.319213002920150757e-03,2.399620832875370979e-03,2.608357463032007217e-03,2.954096533358097076e-03,2.711284207180142403e-03,2.463841112330555916e-03,2.464735414832830429e-03,2.333932323381304741e-03,2.213030587881803513e-03,2.299045678228139877e-03,2.336506964638829231e-03,2.212278544902801514e-03,2.200050745159387589e-03,2.314280951395630836e-03,2.232301980257034302e-03,2.242423593997955322e-03,2.233147155493497849e-03,2.046976704150438309e-03,1.968326512724161148e-03,2.088745357468724251e-03,2.249512588605284691e-03,2.377190627157688141e-03,2.270450349897146225e-03,2.115962328389286995e-03,2.037378726527094841e-03,1.906952587887644768e-03,1.748068258166313171e-03,1.602833392098546028e-03,1.434700912795960903e-03,1.289580948650836945e-03,1.255691284313797951e-03,1.267683692276477814e-03,1.296738395467400551e-03,1.355020562186837196e-03,1.185440691187977791e-03,1.104330294765532017e-03,1.082842471078038216e-03,9.576592710800468922e-04,1.041434006765484810e-03,1.157453632913529873e-03,1.372625352814793587e-03,1.580102369189262390e-03,1.737973419949412346e-03,1.950103207491338253e-03,1.871200976893305779e-03,1.896999427117407322e-03,1.928460551425814629e-03,1.934885396622121334e-03,2.148157916963100433e-03,2.318022307008504868e-03,2.417726907879114151e-03,2.460027579218149185e-03,2.598780440166592598e-03,2.590583870187401772e-03,2.483586780726909637e-03,2.336943289265036583e-03,2.109099877998232841e-03,2.057473408058285713e-03,1.906551071442663670e-03,1.797713339328765869e-03,1.642096438445150852e-03,1.485754037275910378e-03,1.232264214195311069e-03,1.064247800968587399e-03,1.134361838921904564e-03,1.026576617732644081e-03,9.285036358051002026e-04,9.956202702596783638e-04,1.092262915335595608e-03,1.118291169404983521e-03,1.176459365524351597e-03,1.219104276970028877e-03,1.519709243439137936e-03,2.022817730903625488e-03,2.227371558547019958e-03,2.328724134713411331e-03,2.486214740201830864e-03,2.511302009224891663e-03,2.480689901858568192e-03,2.503816736862063408e-03,2.628712682053446770e-03,2.604469656944274902e-03,2.684206003323197365e-03,2.669734414666891098e-03,2.658996265381574631e-03,2.815087093040347099e-03,2.827186137437820435e-03,2.759020077064633369e-03,2.723899204283952713e-03,2.705631311982870102e-03,2.506118733435869217e-03,2.287044655531644821e-03,2.212124411016702652e-03,2.167175989598035812e-03,2.132118912413716316e-03,1.980365253984928131e-03,1.954594627022743225e-03,1.929985708557069302e-03,1.560460776090621948e-03,1.268432475626468658e-03,8.273495477624237537e-04,3.299333038739860058e-04,-2.443132107146084309e-04,-9.371599298901855946e-04,-1.333807012997567654e-03,-1.551124500110745430e-03,-1.833828166127204895e-03,-1.829223008826375008e-03,-1.693302998319268227e-03,-1.803408144041895866e-03,-1.954167149960994720e-03,-1.440936117433011532e-03,-1.064163865521550179e-03,-8.988214540295302868e-04,-7.400938193313777447e-04,-5.475009093061089516e-04,-5.856197676621377468e-04,-8.720022742636501789e-04,-9.776921942830085754e-04,-8.077872917056083679e-04,-6.910556112416088581e-04,-4.057498590555042028e-04,5.739148400607518852e-05,5.012320470996201038e-04,8.342540822923183441e-04,1.191994873806834221e-03,1.528396853245794773e-03,1.765471650287508965e-03,1.905485987663269043e-03,2.469935687258839607e-03,2.938332036137580872e-03,2.799761947244405746e-03,2.949490211904048920e-03,3.271232591941952705e-03,3.540951758623123169e-03,3.632081672549247742e-03,3.948264755308628082e-03,4.085752181708812714e-03,4.201696254312992096e-03,4.143381491303443909e-03,4.181444644927978516e-03,4.433845635503530502e-03,4.351807292550802231e-03,4.066155292093753815e-03,3.733890596777200699e-03,3.617617767304182053e-03,3.875446738675236702e-03,4.701104946434497833e-03,5.130430217832326889e-03,4.916057456284761429e-03,4.269094672054052353e-03,3.813546616584062576e-03,3.485511988401412964e-03,3.026500809937715530e-03,2.911604242399334908e-03,2.969985362142324448e-03,2.797742141410708427e-03,2.675395924597978592e-03,2.642598003149032593e-03,2.495141467079520226e-03,2.331906231120228767e-03,2.476418856531381607e-03,2.033594530075788498e-03,1.107583520933985710e-03,1.516202464699745178e-03,1.790178241208195686e-03,1.496569137088954449e-03,5.196047713980078697e-04,-6.413587834686040878e-04,-1.965386094525456429e-03,-2.959515200927853584e-03,-3.341597272083163261e-03,-4.016430117189884186e-03,-4.859212785959243774e-03,-5.275058560073375702e-03,-5.844524130225181580e-03,-6.174277514219284058e-03,-6.613081786781549454e-03,-6.983587983995676041e-03,-7.413712330162525177e-03,-7.802105043083429337e-03,-8.384752087295055389e-03,-9.046616032719612122e-03,-9.735560044646263123e-03,-1.062262617051601410e-02,-1.188911031931638718e-02,-1.314544118940830231e-02,-1.453807763755321503e-02,-1.556772738695144653e-02,-1.640536449849605560e-02,-1.713980175554752350e-02,-1.744539849460124969e-02,-1.771632581949234009e-02,-1.797957159578800201e-02,-1.821413263678550720e-02,-1.841906830668449402e-02,-1.860770210623741150e-02,-1.882511936128139496e-02,-1.899574138224124908e-02,-1.917293295264244080e-02,-1.931245066225528717e-02,-1.943780854344367981e-02,-1.947647891938686371e-02,-1.952452212572097778e-02,-1.955435797572135925e-02,-1.954392530024051666e-02,-1.956762187182903290e-02,-1.961208879947662354e-02,-1.948746107518672943e-02,-1.953932829201221466e-02,-1.979279704391956329e-02,-1.834917441010475159e-02,-1.725158467888832092e-02,-1.606862246990203857e-02,-1.459948718547821045e-02,-1.221635751426219940e-02
8.246778452303260565e-05,1.647956378292292356e-04,2.700139593798667192e-04,5.321057396940886974e-04,9.912040550261735916e-04,1.469969050958752632e-03,1.786720007658004761e-03,2.011793199926614761e-03,2.247710479423403740e-03,2.396223833784461021e-03,2.508530160412192345e-03,2.459482988342642784e-03,2.358259633183479309e-03,2.378296107053756714e-03,2.613775897771120071e-03,2.693902235478162766e-03,2.716143149882555008e-03,2.623834880068898201e-03,2.787171397358179092e-03,2.864874899387359619e-03,2.879854990169405937e-03,3.015541937202215195e-03,3.068585414439439774e-03,3.156677586957812309e-03,3.117367858067154884e-03,2.950767287984490395e-03,2.839027903974056244e-03,2.799760550260543823e-03,2.799314679577946663e-03,3.025573911145329475e-03,3.140241606160998344e-03,3.162752371281385422e-03,3.072285559028387070e-03,3.012505592778325081e-03,2.720794174820184708e-03,2.597584156319499016e-03,2.610191935673356056e-03,2.429686021059751511e-03,2.156696049496531487e-03,1.990086166188120842e-03,1.829846994951367378e-03,1.624800614081323147e-03,1.452259020879864693e-03,1.280993223190307617e-03,1.138245686888694763e-03,1.029988052323460579e-03,1.000572228804230690e-03,9.627265972085297108e-04,9.238158236257731915e-04,9.125267388299107552e-04,8.482414414174854755e-04,7.002616766840219498e-04,6.196262547746300697e-04,5.157444975338876247e-04,2.922286512330174446e-04,6.814936932642012835e-05,-6.402244616765528917e-05,-3.315705398563295603e-04,-6.198452319949865341e-04,-6.462045712396502495e-04,-7.090293220244348049e-04,-7.250112830661237240e-04,-7.885958766564726830e-04,-8.113705553114414215e-04,-7.917642360553145409e-04,-8.708051173016428947e-04,-8.628675714135169983e-04,-9.441367583349347115e-04,-9.732414036989212036e-04,-1.056859735399484634e-03,-1.101048430427908897e-03,-1.071772770956158638e-03,-1.179834594950079918e-03,-1.285199075937271118e-03,-1.266190549358725548e-03,-1.175478217191994190e-03,-1.103601651266217232e-03,-1.078785979188978672e-03,-1.094163046218454838e-03,-1.084895804524421692e-03,-1.224587438628077507e-03,-1.197289791889488697e-03,-1.081184251233935356e-03,-1.145003130659461021e-03,-1.086204312741756439e-03,-9.578685276210308075e-04,-1.020305906422436237e-03,-1.022224780172109604e-03,-1.107337186112999916e-03,-1.041518873535096645e-03,-9.974821005016565323e-04,-9.855906246230006218e-04,-9.897497948259115219e-04,-1.104230526834726334e-03,-1.085144584067165852e-03,-9.915635455399751663e-04,-1.026094192638993263e-03,-1.198129728436470032e-03,-1.093351398594677448e-03,-8.872129837982356548e-04,-8.599908906035125256e-04,-7.340820156969130039e-04,-5.772131262347102165e-04,-5.914677749387919903e-04,-6.666510016657412052e-04,-6.788676837459206581e-04,-6.627193070016801357e-04,-6.263238028623163700e-04,-5.953413201496005058e-04,-5.919290706515312195e-04,-6.894442485645413399e-04,-8.546030148863792419e-04,-1.015154412016272545e-03,-9.197042090818285942e-04,-8.342348737642168999e-04,-9.356325608678162098e-04,-1.008025021292269230e-03,-9.707353892736136913e-04,-1.020287862047553062e-03,-1.138835097663104534e-03,-1.219494268298149109e-03,-1.161732478067278862e-03,-1.182266976684331894e-03,-1.252871705219149590e-03,-1.265969127416610718e-03,-1.194286276586353779e-03,-1.168545568361878395e-03,-1.151217264123260975e-03,-1.126667833887040615e-03,-1.074843108654022217e-03,-9.638913907110691071e-04,-8.892255136743187904e-04,-8.331824210472404957e-04,-7.684773881919682026e-04,-6.919016595929861069e-04,-7.127305143512785435e-04,-7.354296976700425148e-04,-5.823504179716110229e-04,-6.173061556182801723e-04,-7.279084529727697372e-04,-7.319255964830517769e-04,-6.788437021896243095e-04,-7.350124651566147804e-04,-9.745259885676205158e-04,-1.232279231771826744e-03,-1.306169433519244194e-03,-1.210632384754717350e-03,-1.311771105974912643e-03,-1.292736385948956013e-03,-1.286047743633389473e-03,-1.341858878731727600e-03,-1.250021276064217091e-03,-1.349469996057450771e-03,-1.379872439429163933e-03,-1.340538379736244678e-03,-1.431407872587442398e-03,-1.537419855594635010e-03,-1.459502847865223885e-03,-1.463243039324879646e-03,-1.509018009528517723e-03,-1.380084780976176262e-03,-1.186052802950143814e-03,-1.028389553539454937e-03,-1.042292336933314800e-03,-9.561158949509263039e-04,-9.422162547707557678e-04,-9.200391359627246857e-04,-9.048901265487074852e-04,-9.613875299692153931e-04,-8.954569930210709572e-04,-6.497417925857007504e-04,-4.666908062063157558e-04,-2.208981604781001806e-04,7.407671364489942789e-05,2.406830462859943509e-04,5.229125963523983955e-04,6.595300510525703430e-04,5.893463385291397572e-04,6.678085774183273315e-04,7.261141436174511909e-04,5.555307725444436073e-04,1.696017861831933260e-04,3.601636126404628158e-05,2.728398249018937349e-05,-7.678680049139074981e-06,-1.331618550466373563e-04,-1.168606249848380685e-04,-2.400539597147144377e-05,1.423870999133214355e-04,2.061919803963974118e-04,-9.223162487614899874e-05,-2.105336607201024890e-04,-2.666756336111575365e-04,-4.132612666580826044e-04,-5.152471130713820457e-04,-6.827906472608447075e-04,-8.306261152029037476e-04,-1.055663102306425571e-03,-1.127344090491533279e-03,-1.185549073852598667e-03,-1.424829009920358658e-03,-1.443989807739853859e-03,-1.504610409028828144e-03,-1.522043719887733459e-03,-1.559984637424349785e-03,-1.706813811324536800e-03,-2.079166006296873093e-03,-2.524155657738447189e-03,-2.718489617109298706e-03,-2.984075807034969330e-03,-2.844322007149457932e-03,-2.538074972108006477e-03,-2.295096870511770248e-03,-1.979876775294542313e-03,-2.190934959799051285e-03,-2.759134862571954727e-03,-3.220248501747846603e-03,-3.808970795944333076e-03,-3.878015326336026192e-03,-3.467311384156346321e-03,-3.160913940519094467e-03,-2.375130075961351395e-03,-1.839919597841799259e-03,-1.809101901017129421e-03,-1.773806638084352016e-03,-1.811364665627479553e-03,-1.669839373789727688e-03,-1.818577526137232780e-03,-1.599217066541314125e-03,-1.808987930417060852e-03,-2.240483183413743973e-03,-3.043916309252381325e-03,-2.992903348058462143e-03,-2.693957183510065079e-03,-1.622357638552784920e-03,-1.365045434795320034e-03,-1.088710967451334000e-03,-7.866389350965619087e-04,-4.088790155947208405e-04,1.489621208747848868e-04,9.943491313606500626e-04,1.802675193175673485e-03,2.192939398810267448e-03,2.531360369175672531e-03,3.060578601434826851e-03,3.595152404159307480e-03,3.773835953325033188e-03,4.188054706901311874e-03,4.493129439651966095e-03,4.738464951515197754e-03,5.137856584042310715e-03,5.774692632257938385e-03,6.620195694267749786e-03,7.564522325992584229e-03,9.066666476428508759e-03,1.145491935312747955e-02,1.411739736795425415e-02,1.771873608231544495e-02,2.153152786195278168e-02,2.541973814368247986e-02,2.965457178652286530e-02,3.378731757402420044e-02,3.804098442196846008e-02,4.192053154110908508e-02,4.616418480873107910e-02,4.975067079067230225e-02,5.278480798006057739e-02,5.525880306959152222e-02,5.711726099252700806e-02,5.866447836160659790e-02,5.968319252133369446e-02,5.996208265423774719e-02,5.993006378412246704e-02,5.976732820272445679e-02,5.942075699567794800e-02,5.931444093585014343e-02,5.920917540788650513e-02,5.869426205754280090e-02,5.796129629015922546e-02,5.592342093586921692e-02,5.509697645902633667e-02,5.015120655298233032e-02,4.570309817790985107e-02,3.959809243679046631e-02,3.230082988739013672e-02,2.585661411285400391e-02
-1.486991823185235262e-04,-3.431392833590507507e-04,-5.734949372708797455e-04,-1.007884973660111427e-03,-1.854311907663941383e-03,-2.572165103629231453e-03,-3.244944382458925247e-03,-3.694892628118395805e-03,-4.062517546117305756e-03,-4.357157740741968155e-03,-4.379849880933761597e-03,-4.385718144476413727e-03,-4.416488576680421829e-03,-4.398805554956197739e-03,-4.533553961664438248e-03,-4.680746234953403473e-03,-4.620057065039873123e-03,-4.574683494865894318e-03,-4.520616959780454636e-03,-4.526934586465358734e-03,-4.533289931714534760e-03,-4.515135195106267929e-03,-4.628713708370923996e-03,-4.745419602841138840e-03,-4.757401999086141586e-03,-4.752772394567728043e-03,-4.707172047346830368e-03,-4.666711203753948212e-03,-4.766786005347967148e-03,-4.855837672948837280e-03,-4.885170608758926392e-03,-4.836623556911945343e-03,-4.773961845785379410e-03,-4.712170921266078949e-03,-4.675784613937139511e-03,-4.575583152472972870e-03,-4.456072580069303513e-03,-4.309133626520633698e-03,-4.063758999109268188e-03,-3.793077077716588974e-03,-3.513877512887120247e-03,-3.375466214492917061e-03,-3.142559900879859924e-03,-2.824836177751421928e-03,-2.627292182296514511e-03,-2.494368702173233032e-03,-2.578772138804197311e-03,-2.524187555536627769e-03,-2.421178389340639114e-03,-2.206623554229736328e-03,-1.986640039831399918e-03,-1.797446981072425842e-03,-1.508453860878944397e-03,-9.385148878209292889e-04,-4.490085993893444538e-04,9.176930689136497676e-06,6.889157812111079693e-04,1.052998704835772514e-03,1.183457905426621437e-03,1.393663929775357246e-03,1.492670737206935883e-03,1.640558009967207909e-03,1.953389961272478104e-03,2.185319084674119949e-03,2.736553084105253220e-03,2.943788655102252960e-03,2.838223706930875778e-03,2.868745010346174240e-03,3.016124479472637177e-03,3.385302377864718437e-03,3.478229511529207230e-03,3.609354840591549873e-03,3.815363394096493721e-03,3.767309244722127914e-03,3.487278474494814873e-03,3.326461417600512505e-03,3.306437283754348755e-03,2.695525763556361198e-03,2.468304941430687904e-03,2.798692090436816216e-03,3.108172910287976265e-03,2.924303291365504265e-03,2.833403646945953369e-03,2.578201936557888985e-03,2.013172488659620285e-03,1.863673329353332520e-03,1.983162015676498413e-03,2.200503135100007057e-03,2.342448104172945023e-03,2.547712065279483795e-03,2.622657688334584236e-03,2.647881861776113510e-03,2.711400622501969337e-03,2.444657031446695328e-03,2.211117418482899666e-03,2.091590780764818192e-03,2.041706349700689316e-03,2.040308434516191483e-03,1.826350810006260872e-03,1.523008686490356922e-03,1.398457447066903114e-03,1.151991658844053745e-03,1.083398936316370964e-03,1.210083486512303352e-03,1.063502742908895016e-03,1.077875727787613869e-03,1.171620329841971397e-03,1.047665369696915150e-03,9.837575489655137062e-04,1.230532885529100895e-03,1.460804953239858150e-03,1.588680432178080082e-03,1.788527122698724270e-03,2.131387591361999512e-03,2.379684476181864738e-03,2.312693046405911446e-03,2.412749454379081726e-03,2.704003127291798592e-03,3.031476866453886032e-03,3.071068087592720985e-03,3.031044499948620796e-03,2.905275207012891769e-03,2.921040635555982590e-03,3.162335604429244995e-03,3.263007849454879761e-03,3.075850894674658775e-03,2.627880545333027840e-03,2.299821469932794571e-03,2.045874949544668198e-03,1.903156517073512077e-03,1.690523698925971985e-03,1.590819680131971836e-03,1.513605122454464436e-03,1.319643692113459110e-03,1.224650535732507706e-03,1.204654807224869728e-03,1.021713367663323879e-03,1.035141991451382637e-03,1.261178986169397831e-03,1.307849190197885036e-03,1.444453140720725060e-03,1.650218502618372440e-03,1.883914694190025330e-03,2.280023181810975075e-03,2.907447516918182373e-03,3.262425307184457779e-03,3.157607512548565865e-03,3.220291109755635262e-03,3.430265933275222778e-03,3.392443759366869926e-03,3.688057186082005501e-03,4.042607732117176056e-03,4.062362946569919586e-03,4.007996059954166412e-03,4.033332690596580505e-03,3.976383712142705917e-03,3.832314861938357353e-03,3.766775829717516899e-03,3.859266638755798340e-03,3.604751778766512871e-03,3.161025466397404671e-03,2.883986337110400200e-03,2.567891962826251984e-03,2.610119292512536049e-03,2.569910371676087379e-03,2.515019848942756653e-03,2.258580178022384644e-03,1.872229157015681267e-03,1.510627917014062405e-03,1.150157419033348560e-03,6.505874916911125183e-04,1.378702436340972781e-04,-4.248362965881824493e-04,-9.420287096872925758e-04,-1.359524787403643131e-03,-1.718477578833699226e-03,-1.916141947731375694e-03,-1.838492229580879211e-03,-1.780157559551298618e-03,-1.861326396465301514e-03,-1.751070492900907993e-03,-1.237741438671946526e-03,-9.159479523077607155e-04,-6.833956576883792877e-04,-5.800473736599087715e-04,-5.048197926953434944e-04,-6.701580714434385300e-04,-8.572082733735442162e-04,-9.111959370784461498e-04,-8.735628798604011536e-04,-6.245952099561691284e-04,-3.456338890828192234e-04,2.702077908907085657e-04,8.012754842638969421e-04,1.145650632679462433e-03,1.722646178677678108e-03,2.011795993894338608e-03,2.273366553708910942e-03,2.689257264137268066e-03,3.426921088248491287e-03,3.968623466789722443e-03,4.557480104267597198e-03,5.004083272069692612e-03,5.130943842232227325e-03,5.256287753582000732e-03,5.524328909814357758e-03,5.823255050927400589e-03,6.058432161808013916e-03,6.074814591556787491e-03,6.052642129361629486e-03,5.995851941406726837e-03,5.736830644309520721e-03,5.516634322702884674e-03,5.403044167906045914e-03,5.450832657516002655e-03,5.610977299511432648e-03,5.363916978240013123e-03,5.378699861466884613e-03,5.672390572726726532e-03,5.687254946678876877e-03,5.648735444992780685e-03,5.229139700531959534e-03,4.493820481002330780e-03,3.818014170974493027e-03,3.447741270065307617e-03,3.094781655818223953e-03,2.903043059632182121e-03,2.955841133370995522e-03,3.392418147996068001e-03,3.986064344644546509e-03,4.609018564224243164e-03,4.941543098539113998e-03,4.979903344064950943e-03,4.623027984052896500e-03,3.822282655164599419e-03,2.846294548362493515e-03,1.950181089341640472e-03,8.641848107799887657e-04,-2.509556652512401342e-04,-1.261829049326479435e-03,-2.229374367743730545e-03,-2.839444205164909363e-03,-3.616954432800412178e-03,-4.121749196201562881e-03,-4.516235552728176117e-03,-4.837765824049711227e-03,-5.087324883788824081e-03,-5.091032944619655609e-03,-5.091637372970581055e-03,-5.044102668762207031e-03,-5.075242370367050171e-03,-5.116745829582214355e-03,-5.267835222184658051e-03,-5.580025259405374527e-03,-6.005357950925827026e-03,-6.525085773319005966e-03,-6.949427071958780289e-03,-7.342590484768152237e-03,-7.606841623783111572e-03,-7.866859436035156250e-03,-8.032928220927715302e-03,-8.027987554669380188e-03,-8.186290971934795380e-03,-8.255968801677227020e-03,-8.342114277184009552e-03,-8.399338461458683014e-03,-8.445170708000659943e-03,-8.494457229971885681e-03,-8.491133339703083038e-03,-8.510140702128410339e-03,-8.519167080521583557e-03,-8.528175763785839081e-03,-8.540022186934947968e-03,-8.553382940590381622e-03,-8.564543910324573517e-03,-8.573576807975769043e-03,-8.637663908302783966e-03,-8.623638190329074860e-03,-8.658744394779205322e-03,-8.771495893597602844e-03,-9.104070253670215607e-03,-9.239693172276020050e-03,-9.100045077502727509e-03,-9.045103564858436584e-03,-8.545165881514549255e-03,-7.375959306955337524e-03
-3.609039704315364361e-04,-8.116040262393653393e-04,-1.353140338324010372e-03,-2.464417833834886551e-03,-4.380737431347370148e-03,-5.781050771474838257e-03,-6.976619362831115723e-03,-8.081811480224132538e-03,-8.809436112642288208e-03,-9.359938092529773712e-03,-9.770201519131660461e-03,-9.937745518982410431e-03,-9.903666563332080841e-03,-1.001650374382734299e-02,-1.047203782945871353e-02,-1.059605367481708527e-02,-1.066734734922647476e-02,-1.066559273749589920e-02,-1.064676512032747269e-02,-1.059973053634166718e-02,-1.053692400455474854e-02,-1.065604202449321747e-02,-1.085883751511573792e-02,-1.104870811104774475e-02,-1.135677006095647812e-02,-1.141552347689867020e-02,-1.115590240806341171e-02,-1.090821251273155212e-02,-1.095460820943117142e-02,-1.127401553094387054e-02,-1.139836199581623077e-02,-1.132591813802719116e-02,-1.121670939028263092e-02,-1.110330037772655487e-02,-1.090252678841352463e-02,-1.058272458612918854e-02,-1.020578201860189438e-02,-9.750958532094955444e-03,-8.870874531567096710e-03,-8.273308165371417999e-03,-7.732209749519824982e-03,-7.224962115287780762e-03,-6.742735393345355988e-03,-6.034425459802150726e-03,-5.082984920591115952e-03,-4.458597861230373383e-03,-4.365776665508747101e-03,-4.392107948660850525e-03,-4.317645449191331863e-03,-4.093463532626628876e-03,-3.705764655023813248e-03,-3.150089178234338760e-03,-2.333365846425294876e-03,-1.566948019899427891e-03,-4.744151665363460779e-04,8.505320874974131584e-04,1.887893304228782654e-03,2.744720317423343658e-03,3.336407709866762161e-03,3.706279443576931953e-03,3.949311561882495880e-03,4.226206801831722260e-03,4.382053390145301819e-03,4.955570679157972336e-03,5.738609470427036285e-03,5.768099334090948105e-03,5.851113703101873398e-03,6.407754961401224136e-03,7.333143614232540131e-03,8.182143792510032654e-03,8.827571757137775421e-03,9.110447950661182404e-03,8.398598060011863708e-03,7.860546931624412537e-03,7.140243891626596451e-03,6.303369998931884766e-03,5.611172877252101898e-03,5.637225694954395294e-03,6.200723815709352493e-03,6.568393204361200333e-03,6.751901004463434219e-03,6.332817487418651581e-03,5.719476379454135895e-03,5.513199605047702789e-03,4.936748649924993515e-03,3.932753112167119980e-03,3.848048392683267593e-03,4.486167803406715393e-03,4.870644770562648773e-03,5.207476206123828888e-03,5.586322862654924393e-03,5.377538967877626419e-03,4.775022156536579132e-03,4.147517494857311249e-03,4.011466167867183685e-03,4.025294911116361618e-03,3.913591615855693817e-03,3.742152824997901917e-03,3.519096178933978081e-03,3.035396337509155273e-03,2.576579339802265167e-03,2.395562129095196724e-03,2.131775720044970512e-03,1.926360302604734898e-03,1.923162490129470825e-03,1.884186989627778530e-03,1.907193451188504696e-03,2.021443331614136696e-03,2.133221831172704697e-03,2.311130519956350327e-03,2.711578039452433586e-03,3.549010725691914558e-03,4.055517725646495819e-03,4.118778742849826813e-03,4.418443888425827026e-03,4.627857357263565063e-03,5.015202797949314117e-03,5.501995794475078583e-03,5.687112919986248016e-03,6.129037588834762573e-03,6.404443178325891495e-03,6.358560174703598022e-03,6.226514931768178940e-03,6.276069674640893936e-03,6.067710928618907928e-03,5.525630433112382889e-03,4.639619030058383942e-03,3.705857787281274796e-03,3.596656024456024170e-03,3.758047474548220634e-03,3.212479175999760628e-03,2.573602600023150444e-03,2.264877781271934509e-03,2.428130712360143661e-03,2.161971060559153557e-03,1.673540100455284119e-03,1.614199252799153328e-03,1.618609996512532234e-03,1.693148748017847538e-03,1.927712000906467438e-03,2.320423256605863571e-03,2.968892920762300491e-03,3.931734245270490646e-03,4.423383623361587524e-03,5.123387090861797333e-03,6.125900894403457642e-03,6.539917550981044769e-03,6.754834204912185669e-03,6.890419870615005493e-03,6.955768913030624390e-03,7.581848651170730591e-03,7.855981588363647461e-03,7.619104348123073578e-03,7.306023035198450089e-03,7.110485341399908066e-03,7.269463501870632172e-03,7.401097565889358521e-03,7.613611407577991486e-03,7.291202899068593979e-03,6.111589260399341583e-03,4.859427921473979950e-03,4.510294180363416672e-03,4.299265332520008087e-03,4.119304940104484558e-03,3.985154442489147186e-03,3.839734941720962524e-03,3.553581889718770981e-03,3.197184996679425240e-03,2.485740231350064278e-03,1.281264238059520721e-03,1.522979873698204756e-04,-6.918009603396058083e-04,-2.038385486230254173e-03,-3.367180470377206802e-03,-4.256670828908681870e-03,-4.809400532394647598e-03,-4.906129091978073120e-03,-4.700442310422658920e-03,-4.608300514519214630e-03,-4.815049469470977783e-03,-4.966304637491703033e-03,-4.164423327893018723e-03,-3.413317259401082993e-03,-2.977786120027303696e-03,-2.738199662417173386e-03,-2.647807123139500618e-03,-2.913129981607198715e-03,-3.345062956213951111e-03,-3.647363977506756783e-03,-3.547071246430277824e-03,-2.573927631601691246e-03,-1.905647339299321175e-03,-1.239806530065834522e-03,-5.998315173201262951e-04,5.289120017550885677e-04,1.822243793867528439e-03,2.388872206211090088e-03,3.399681299924850464e-03,4.411606583744287491e-03,6.416191812604665756e-03,7.845642045140266418e-03,8.927619084715843201e-03,1.035904325544834137e-02,1.151509862393140793e-02,1.206669211387634277e-02,1.244211383163928986e-02,1.298531424254179001e-02,1.382968761026859283e-02,1.493296958506107330e-02,1.518161594867706299e-02,1.426954753696918488e-02,1.354962587356567383e-02,1.215525250881910324e-02,1.085202675312757492e-02,1.045617647469043732e-02,1.175566017627716064e-02,1.301215309649705887e-02,1.355630904436111450e-02,1.356459129601716995e-02,1.263526640832424164e-02,1.015326473861932755e-02,7.983999326825141907e-03,6.448963191360235214e-03,5.307403393089771271e-03,4.311733413487672806e-03,3.945100121200084686e-03,3.874320536851882935e-03,4.501014482229948044e-03,5.261621903628110886e-03,6.095705088227987289e-03,6.795977707952260971e-03,7.044868078082799911e-03,6.773771252483129501e-03,6.370913237333297729e-03,5.065332166850566864e-03,3.554885741323232651e-03,1.808269647881388664e-03,-3.952505066990852356e-04,-2.623286563903093338e-03,-4.502188414335250854e-03,-6.267524324357509613e-03,-7.838571444153785706e-03,-9.833017364144325256e-03,-1.175031810998916626e-02,-1.358557678759098053e-02,-1.505894400179386139e-02,-1.679690182209014893e-02,-1.865025982260704041e-02,-2.012761868536472321e-02,-2.117970958352088928e-02,-2.172225713729858398e-02,-2.171784639358520508e-02,-2.080903761088848114e-02,-1.894638873636722565e-02,-1.584272086620330811e-02,-1.163255702704191208e-02,-6.450451910495758057e-03,-1.016405993141233921e-03,4.041672684252262115e-03,8.651574142277240753e-03,1.217486802488565445e-02,1.453622709959745407e-02,1.622209697961807251e-02,1.711567491292953491e-02,1.764789596199989319e-02,1.790496148169040680e-02,1.795353554189205170e-02,1.801285706460475922e-02,1.798024773597717285e-02,1.801684498786926270e-02,1.805853471159934998e-02,1.809553429484367371e-02,1.816719397902488708e-02,1.827498897910118103e-02,1.838074252009391785e-02,1.849963888525962830e-02,1.839587464928627014e-02,1.830139756202697754e-02,1.807815209031105042e-02,1.728809066116809845e-02,1.702926680445671082e-02,1.521285437047481537e-02,1.382219046354293823e-02,1.072594802826642990e-02,8.077414706349372864e-03,6.811566650867462158e-03
-3.866516926791518927e-04,-6.755484500899910927e-04,-1.026640296913683414e-03,-1.947832060977816582e-03,-3.670881269499659538e-03,-5.122365895658731461e-03,-6.385159678757190704e-03,-7.558566983789205551e-03,-8.567356504499912262e-03,-9.327167645096778870e-03,-9.759617969393730164e-03,-1.006348617374897003e-02,-1.024904474616050720e-02,-1.037586852908134460e-02,-1.033233571797609329e-02,-1.020336337387561798e-02,-1.017652172595262527e-02,-1.019410230219364166e-02,-1.027729269117116928e-02,-1.023698039352893829e-02,-1.032006274908781052e-02,-1.044909469783306122e-02,-1.076447777450084686e-02,-1.126499287784099579e-02,-1.160593330860137939e-02,-1.180729176849126816e-02,-1.180769968777894974e-02,-1.177933998405933380e-02,-1.227132696658372879e-02,-1.241826079785823822e-02,-1.248473674058914185e-02,-1.214752905070781708e-02,-1.139639783650636673e-02,-1.099368929862976074e-02,-1.046321075409650803e-02,-9.901998564600944519e-03,-9.091109037399291992e-03,-8.395181968808174133e-03,-7.413750980049371719e-03,-6.506106350570917130e-03,-5.689184181392192841e-03,-5.008345469832420349e-03,-4.529657773673534393e-03,-3.938522189855575562e-03,-3.537997603416442871e-03,-3.085586708039045334e-03,-2.787031233310699463e-03,-2.654726617038249969e-03,-2.493023173883557320e-03,-2.316936850547790527e-03,-2.056960482150316238e-03,-1.466023619286715984e-03,-8.828245336189866066e-04,-5.494670476764440536e-04,-9.896662231767550111e-05,2.983204612974077463e-04,6.036289269104599953e-04,9.370388579554855824e-04,1.272112596780061722e-03,1.446740236133337021e-03,1.519214129075407982e-03,1.742544816806912422e-03,1.818523160181939602e-03,1.947548938915133476e-03,2.145965816453099251e-03,2.181627321988344193e-03,2.365313936024904251e-03,2.532563870772719383e-03,2.973959548398852348e-03,3.698732005432248116e-03,4.757189191877841949e-03,6.091959774494171143e-03,6.844441406428813934e-03,6.352307740598917007e-03,5.133531056344509125e-03,3.891834989190101624e-03,2.740585478022694588e-03,2.248556120321154594e-03,2.089541405439376831e-03,2.256984589621424675e-03,2.534684492275118828e-03,2.765135141089558601e-03,2.500943373888731003e-03,2.246015472337603569e-03,2.148403553292155266e-03,1.779424608685076237e-03,1.751546980813145638e-03,1.675883657298982143e-03,1.640556147322058678e-03,1.913524465635418892e-03,1.963822869583964348e-03,1.878840499557554722e-03,1.742318272590637207e-03,1.512828515842556953e-03,1.417794846929609776e-03,1.429880969226360321e-03,1.455808640457689762e-03,1.473263022489845753e-03,1.510391128249466419e-03,1.365747186355292797e-03,1.086751697584986687e-03,9.688503923825919628e-04,9.478174033574759960e-04,9.830512572079896927e-04,1.063423813320696354e-03,1.054553897120058537e-03,9.664649260230362415e-04,8.173396927304565907e-04,8.698994060978293419e-04,1.056840410456061363e-03,1.220269477926194668e-03,1.323746633715927601e-03,1.380812958814203739e-03,1.531374990008771420e-03,1.601292169652879238e-03,1.648344099521636963e-03,1.696574268862605095e-03,1.677573891356587410e-03,1.678608125075697899e-03,1.657935092225670815e-03,1.670874306000769138e-03,1.628767000511288643e-03,1.739982166327536106e-03,1.783844316378235817e-03,1.704218797385692596e-03,1.503527513705193996e-03,1.358687179163098335e-03,1.361117116175591946e-03,1.431443961337208748e-03,1.441436237655580044e-03,1.417497522197663784e-03,1.379652880132198334e-03,1.190430717542767525e-03,9.711924940347671509e-04,8.870064048096537590e-04,9.071340900845825672e-04,9.369435720145702362e-04,9.672368178144097328e-04,9.381778654642403126e-04,8.833181927911937237e-04,1.072136452421545982e-03,1.183443004265427589e-03,1.326807076111435890e-03,1.624817028641700745e-03,1.771931885741651058e-03,1.920269103720784187e-03,2.061575651168823242e-03,2.442148048430681229e-03,2.435531700029969215e-03,2.395804272964596748e-03,2.765196375548839569e-03,2.968304324895143509e-03,2.920124679803848267e-03,3.214383963495492935e-03,3.504862543195486069e-03,3.705546958371996880e-03,3.624926554039120674e-03,3.268980188295245171e-03,2.680149395018815994e-03,2.208793302997946739e-03,1.853343332186341286e-03,1.770322793163359165e-03,1.583535806275904179e-03,1.423775567673146725e-03,1.317768590524792671e-03,1.328689279034733772e-03,1.221249345690011978e-03,1.213647192344069481e-03,1.184151158668100834e-03,1.036173081956803799e-03,6.270040757954120636e-04,1.725723559502512217e-04,-5.569962086156010628e-04,-1.088307355530560017e-03,-1.381021924316883087e-03,-1.601873664185404778e-03,-1.544214203022420406e-03,-1.688503427430987358e-03,-1.646819291636347771e-03,-1.631463645026087761e-03,-1.644074218347668648e-03,-1.306727295741438866e-03,-1.070146216079592705e-03,-1.036058645695447922e-03,-9.952500695362687111e-04,-8.982634171843528748e-04,-8.466141298413276672e-04,-8.606279152445495129e-04,-1.014241483062505722e-03,-1.066729775629937649e-03,-6.417061085812747478e-04,-3.084672498516738415e-04,1.532692986074835062e-04,4.476068424992263317e-04,8.811310981400310993e-04,1.263658865354955196e-03,1.214007148519158363e-03,1.434681238606572151e-03,1.841124845668673515e-03,2.305926755070686340e-03,2.838511951267719269e-03,3.542361082509160042e-03,4.931285977363586426e-03,6.021114531904459000e-03,7.027688436210155487e-03,8.145669475197792053e-03,9.573182091116905212e-03,1.071950513869524002e-02,1.188175845891237259e-02,1.176596712321043015e-02,1.038727629929780960e-02,8.999058976769447327e-03,8.045915514230728149e-03,7.305561099201440811e-03,7.267200853675603867e-03,8.884394541382789612e-03,9.847452864050865173e-03,9.427649900317192078e-03,9.248626418411731720e-03,9.887630119919776917e-03,9.856194257736206055e-03,7.919269613921642303e-03,5.745270289480686188e-03,4.110988229513168335e-03,2.906550187617540359e-03,2.419651253148913383e-03,2.121698111295700073e-03,2.453145803883671761e-03,2.868693321943283081e-03,3.952209837734699249e-03,5.398650653660297394e-03,6.098902784287929535e-03,6.656826939433813095e-03,5.041095428168773651e-03,3.531709313392639160e-03,2.200943650677800179e-03,1.297233044169843197e-03,8.813923923298716545e-04,4.114452167414128780e-06,-1.075877109542489052e-03,-2.637864556163549423e-03,-3.778720274567604065e-03,-5.085472017526626587e-03,-7.004181388765573502e-03,-9.000437334179878235e-03,-1.062429044395685196e-02,-1.186942867934703827e-02,-1.257492601871490479e-02,-1.272241957485675812e-02,-1.227745972573757172e-02,-1.084706187248229980e-02,-8.636358194053173065e-03,-5.590855609625577927e-03,-8.080322295427322388e-04,5.576399620622396469e-03,1.413245778530836105e-02,2.374031767249107361e-02,3.343283385038375854e-02,4.276533052325248718e-02,4.995552822947502136e-02,5.520295351743698120e-02,5.921651050448417664e-02,6.149054691195487976e-02,6.314937025308609009e-02,6.362505257129669189e-02,6.372545659542083740e-02,6.375376135110855103e-02,6.360407173633575439e-02,6.332819163799285889e-02,6.322254240512847900e-02,6.340325623750686646e-02,6.348109245300292969e-02,6.350513547658920288e-02,6.343486160039901733e-02,6.341110169887542725e-02,6.344626843929290771e-02,6.339196115732192993e-02,6.368326395750045776e-02,6.327220797538757324e-02,6.244530156254768372e-02,6.133769825100898743e-02,5.704060196876525879e-02,5.401434749364852905e-02,4.706484451889991760e-02,4.081848263740539551e-02,3.472466394305229187e-02
-2.818688517436385155e-04,-5.890932516194880009e-04,-9.901288431137800217e-04,-1.736827543936669827e-03,-3.005246631801128387e-03,-4.133455455303192139e-03,-4.931740462779998779e-03,-5.465961061418056488e-03,-6.107620894908905029e-03,-6.436749361455440521e-03,-6.560009904205799103e-03,-6.660523824393749237e-03,-6.693585310131311417e-03,-6.788622587919235229e-03,-6.832032464444637299e-03,-6.948198191821575165e-03,-6.988427136093378067e-03,-7.096187677234411240e-03,-7.153041660785675049e-03,-7.124195806682109833e-03,-7.198838982731103897e-03,-7.280819118022918701e-03,-7.260007318109273911e-03,-7.311663124710321426e-03,-7.411491125822067261e-03,-7.469576783478260040e-03,-7.410364691168069839e-03,-7.362178061157464981e-03,-7.302881684154272079e-03,-7.346387021243572235e-03,-7.370671723037958145e-03,-7.348294369876384735e-03,-7.369967643171548843e-03,-7.335534784942865372e-03,-7.219471037387847900e-03,-7.088332436978816986e-03,-6.773946341127157211e-03,-6.347986869513988495e-03,-6.005783565342426300e-03,-5.654430948197841644e-03,-5.333478096872568130e-03,-4.904790781438350677e-03,-4.494560416787862778e-03,-4.042721353471279144e-03,-3.495195182040333748e-03,-3.220120444893836975e-03,-3.265590872615575790e-03,-3.212600247934460640e-03,-2.873848425224423409e-03,-2.527361037209630013e-03,-2.636437769979238510e-03,-2.521202433854341507e-03,-1.973648322746157646e-03,-1.419591833837330341e-03,-7.908518309704959393e-04,2.023977722274139524e-04,9.339835378341376781e-04,1.730905845761299133e-03,2.454250352457165718e-03,2.344108885154128075e-03,2.494293730705976486e-03,2.875417470932006836e-03,2.937433077022433281e-03,3.000280121341347694e-03,3.531055059283971786e-03,3.835270879790186882e-03,3.784189466387033463e-03,3.896261099725961685e-03,4.129221197217702866e-03,4.292641766369342804e-03,4.382734186947345734e-03,4.664679523557424545e-03,4.868946038186550140e-03,4.822876770049333572e-03,4.362029023468494415e-03,3.883122000843286514e-03,3.676638007164001465e-03,3.637041198089718819e-03,3.708429634571075439e-03,3.927552141249179840e-03,4.220372065901756287e-03,4.460940603166818619e-03,4.155535250902175903e-03,3.750743810087442398e-03,3.587734652683138847e-03,3.320849034935235977e-03,3.162867156788706779e-03,3.238533856347203255e-03,3.384495154023170471e-03,3.405690891668200493e-03,3.289276268333196640e-03,3.655873937532305717e-03,3.841657657176256180e-03,3.501541912555694580e-03,3.359942231327295303e-03,3.253809409216046333e-03,3.035673871636390686e-03,2.876512240618467331e-03,2.536945976316928864e-03,2.106729429215192795e-03,1.918058842420578003e-03,1.801643171347677708e-03,1.639289082959294319e-03,1.425359630957245827e-03,1.413925550878047943e-03,1.713697798550128937e-03,1.875184825621545315e-03,1.754114055074751377e-03,1.664381125010550022e-03,1.613332191482186317e-03,1.858331845141947269e-03,2.322289859876036644e-03,2.604152774438261986e-03,2.726868260651826859e-03,2.865319838747382164e-03,3.033230081200599670e-03,3.134120954200625420e-03,3.403009846806526184e-03,3.708683652803301811e-03,3.861506935209035873e-03,3.931650891900062561e-03,4.171955864876508713e-03,4.319468513131141663e-03,4.312054254114627838e-03,4.081361927092075348e-03,3.741515334695577621e-03,3.340720431879162788e-03,3.079557092860341072e-03,2.831069286912679672e-03,2.650012960657477379e-03,2.422310877591371536e-03,2.077205572277307510e-03,1.818175194784998894e-03,1.646568998694419861e-03,1.447580638341605663e-03,1.343325711786746979e-03,1.302774762734770775e-03,1.365939853712916374e-03,1.367975375615060329e-03,1.424632035195827484e-03,1.575144357047975063e-03,1.772349351085722446e-03,2.362968865782022476e-03,2.985535888001322746e-03,3.631694242358207703e-03,4.117981530725955963e-03,4.311441909521818161e-03,4.390309564769268036e-03,4.179057199507951736e-03,4.247021861374378204e-03,4.673852119594812393e-03,4.936578683555126190e-03,5.128297489136457443e-03,5.458384752273559570e-03,5.450776778161525726e-03,5.003878846764564514e-03,4.864852875471115112e-03,4.697678145021200180e-03,4.266972653567790985e-03,3.953662700951099396e-03,3.762110369279980659e-03,3.832245944067835808e-03,3.507338464260101318e-03,3.317803842946887016e-03,3.302051220089197159e-03,3.095194697380065918e-03,2.906191395595669746e-03,2.622552681714296341e-03,2.302295994013547897e-03,1.666631316766142845e-03,7.387688965536653996e-04,-9.454994869884103537e-05,-9.979635942727327347e-04,-1.807501772418618202e-03,-2.398674609139561653e-03,-2.879028674215078354e-03,-2.952071372419595718e-03,-2.806431613862514496e-03,-2.741829957813024521e-03,-2.879136707633733749e-03,-3.075655549764633179e-03,-2.435758709907531738e-03,-1.680798828601837158e-03,-1.357885659672319889e-03,-1.275810180231928825e-03,-1.187752699479460716e-03,-1.346775679849088192e-03,-1.584007637575268745e-03,-1.780934398993849754e-03,-1.822290243580937386e-03,-1.239442382939159870e-03,-7.363302865996956825e-04,9.938787115970626473e-05,5.754947196692228317e-04,1.075749984011054039e-03,1.961233094334602356e-03,2.378977369517087936e-03,2.957520540803670883e-03,3.602892160415649414e-03,4.286980256438255310e-03,4.770274274051189423e-03,5.400649271905422211e-03,5.743666552007198334e-03,5.949762649834156036e-03,6.326938979327678680e-03,7.031545042991638184e-03,7.947742938995361328e-03,9.103688411414623260e-03,9.966400451958179474e-03,9.914180263876914978e-03,9.169172495603561401e-03,7.799176964908838272e-03,7.368554361164569855e-03,7.012179587036371231e-03,6.812131498008966446e-03,7.855412550270557404e-03,8.349468931555747986e-03,8.488215506076812744e-03,8.130858652293682098e-03,7.813936099410057068e-03,6.920939777046442032e-03,5.896409507840871811e-03,5.386239849030971527e-03,4.558446817100048065e-03,4.320665262639522552e-03,4.492468200623989105e-03,3.954153507947921753e-03,3.750625997781753540e-03,4.167514853179454803e-03,4.271810408681631088e-03,4.746823571622371674e-03,4.660050850361585617e-03,3.628587815910577774e-03,3.833781462162733078e-03,3.220125334337353706e-03,2.961274236440658569e-03,2.050745999440550804e-03,6.959073944017291069e-04,-1.264317543245851994e-03,-3.076986875385046005e-03,-4.695492330938577652e-03,-5.480926018208265305e-03,-6.442087702453136444e-03,-7.667688187211751938e-03,-8.271854370832443237e-03,-8.426040410995483398e-03,-9.080971591174602509e-03,-9.188951924443244934e-03,-9.824256412684917450e-03,-1.033887546509504318e-02,-1.072329282760620117e-02,-1.145678665488958359e-02,-1.224820408970117569e-02,-1.315610576421022415e-02,-1.429793238639831543e-02,-1.581614837050437927e-02,-1.756410859525203705e-02,-1.913339458405971527e-02,-2.061070129275321960e-02,-2.197624742984771729e-02,-2.317394874989986420e-02,-2.367362193763256073e-02,-2.427704632282257080e-02,-2.473253570497035980e-02,-2.512973546981811523e-02,-2.534055151045322418e-02,-2.556144073605537415e-02,-2.573859132826328278e-02,-2.592068538069725037e-02,-2.610465884208679199e-02,-2.622495032846927643e-02,-2.633915282785892487e-02,-2.641127631068229675e-02,-2.651144191622734070e-02,-2.665420435369014740e-02,-2.663877233862876892e-02,-2.667025849223136902e-02,-2.684946730732917786e-02,-2.676748856902122498e-02,-2.688216790556907654e-02,-2.738423086702823639e-02,-2.570512890815734863e-02,-2.450194023549556732e-02,-2.291479893028736115e-02,-2.067082375288009644e-02,-1.727051474153995514e-02
-2.048969035968184471e-04,-5.763070657849311829e-04,-9.836317040026187897e-04,-1.878895098343491554e-03,-3.096770029515028000e-03,-4.546715877950191498e-03,-5.740006919950246811e-03,-6.399968173354864120e-03,-7.108761463314294815e-03,-7.891008630394935608e-03,-8.538085035979747772e-03,-8.928793482482433319e-03,-9.033572860062122345e-03,-9.135654196143150330e-03,-9.116275236010551453e-03,-8.986134082078933716e-03,-8.992826566100120544e-03,-8.896502666175365448e-03,-8.879999630153179169e-03,-8.642468601465225220e-03,-8.610599674284458160e-03,-8.971867151558399200e-03,-9.601084515452384949e-03,-9.988518431782722473e-03,-1.019835751503705978e-02,-1.012520957738161087e-02,-9.937684983015060425e-03,-9.961652569472789764e-03,-1.002419926226139069e-02,-1.047912985086441040e-02,-1.068743318319320679e-02,-1.056755706667900085e-02,-1.029677875339984894e-02,-9.898042306303977966e-03,-9.502576664090156555e-03,-8.984516374766826630e-03,-8.455035276710987091e-03,-7.947553880512714386e-03,-7.303251419216394424e-03,-6.472405046224594116e-03,-5.874937865883111954e-03,-5.667953286319971085e-03,-5.331379827111959457e-03,-4.856306128203868866e-03,-4.339006729423999786e-03,-4.175686277449131012e-03,-4.034659359604120255e-03,-3.928470890969038010e-03,-3.907086793333292007e-03,-3.495038952678442001e-03,-3.108282806351780891e-03,-2.991457935422658920e-03,-2.492702333256602287e-03,-1.612158841453492641e-03,-9.972552070394158363e-04,-2.686167717911303043e-04,7.113540777936577797e-04,1.453062519431114197e-03,2.070992952212691307e-03,2.527410164475440979e-03,2.625160617753863335e-03,2.754218410700559616e-03,2.905479166656732559e-03,2.964288694784045219e-03,3.106345888227224350e-03,3.761920612305402756e-03,3.894086228683590889e-03,4.047659225761890411e-03,4.118201322853565216e-03,4.171571694314479828e-03,4.743350204080343246e-03,4.864666610956192017e-03,5.061370320618152618e-03,5.280573386698961258e-03,4.569931887090206146e-03,4.136539995670318604e-03,3.868389176204800606e-03,3.266624407842755318e-03,3.218242200091481209e-03,3.656883956864476204e-03,3.801866667345166206e-03,3.704964648932218552e-03,3.411940531805157661e-03,3.179521765559911728e-03,3.090936690568923950e-03,2.916811499744653702e-03,2.643094630911946297e-03,2.895011333748698235e-03,3.049109596759080887e-03,3.189344424754381180e-03,3.308182582259178162e-03,3.072559833526611328e-03,2.693491755053400993e-03,2.401448786258697510e-03,2.301605185493826866e-03,2.218358218669891357e-03,1.932985847815871239e-03,1.716495724394917488e-03,1.501346006989479065e-03,1.382145448587834835e-03,1.249199616722762585e-03,9.801094420254230499e-04,8.764998055994510651e-04,9.904043981805443764e-04,1.082541537471115589e-03,1.208954490721225739e-03,1.212165690958499908e-03,1.085026655346155167e-03,1.224091975018382072e-03,1.510346541181206703e-03,1.854046946391463280e-03,2.130694221705198288e-03,2.232422120869159698e-03,2.426752354949712753e-03,2.648056251928210258e-03,2.676159609109163284e-03,2.786753699183464050e-03,3.036270383745431900e-03,3.126546740531921387e-03,3.031820291653275490e-03,3.118874505162239075e-03,3.182194428518414497e-03,3.042463678866624832e-03,3.224342362955212593e-03,3.196167293936014175e-03,3.084966214373707771e-03,2.858139574527740479e-03,2.501636743545532227e-03,2.185671124607324600e-03,2.009908203035593033e-03,1.983859343454241753e-03,1.760923070833086967e-03,1.529110711999237537e-03,1.568016828969120979e-03,1.656667562201619148e-03,1.617384143173694611e-03,1.524902647361159325e-03,1.508184475824236870e-03,1.496170647442340851e-03,1.552964909933507442e-03,1.835586735978722572e-03,2.251225989311933517e-03,2.664897590875625610e-03,3.142611589282751083e-03,3.571053268387913704e-03,3.845467464998364449e-03,4.181458149105310440e-03,4.299475345760583878e-03,4.143347498029470444e-03,3.953743726015090942e-03,4.364220891147851944e-03,4.625966306775808334e-03,4.967431537806987762e-03,5.462559871375560760e-03,5.422686226665973663e-03,5.375090986490249634e-03,5.025552120059728622e-03,4.476085305213928223e-03,4.027514252811670303e-03,3.795659635215997696e-03,3.519323421642184258e-03,3.414879785850644112e-03,3.355271415784955025e-03,3.316831542178988457e-03,3.105043899267911911e-03,2.940987469628453255e-03,2.795708831399679184e-03,2.809011843055486679e-03,2.415311289951205254e-03,1.698690117336809635e-03,1.059944392181932926e-03,5.432000034488737583e-04,-4.341460880823433399e-04,-1.242257421836256981e-03,-1.707563875243067741e-03,-2.092030830681324005e-03,-2.362152095884084702e-03,-2.293781144544482231e-03,-2.128274645656347275e-03,-2.213548636063933372e-03,-2.308311173692345619e-03,-1.968876924365758896e-03,-1.597233465872704983e-03,-1.396466395817697048e-03,-1.021980890072882175e-03,-7.196450605988502502e-04,-1.004292163997888565e-03,-1.347086858004331589e-03,-1.279804739169776440e-03,-8.409613510593771935e-04,-8.358072955161333084e-05,3.658279892988502979e-04,7.768316427245736122e-04,1.161182066425681114e-03,1.716033904813230038e-03,2.193606924265623093e-03,2.773507032543420792e-03,3.490563482046127319e-03,3.973235376179218292e-03,4.634248558431863785e-03,5.266193300485610962e-03,6.354586221277713776e-03,7.534326519817113876e-03,8.862736634910106659e-03,1.049585267901420593e-02,1.264966744929552078e-02,1.511707343161106110e-02,1.647937297821044922e-02,1.753524318337440491e-02,1.816169358789920807e-02,1.646006666123867035e-02,1.296287216246128082e-02,9.946490637958049774e-03,7.644341327250003815e-03,6.566870026290416718e-03,7.223749067634344101e-03,8.194598369300365448e-03,1.058063097298145294e-02,1.245570369064807892e-02,1.309502124786376953e-02,1.470778882503509521e-02,1.288047991693019867e-02,9.559760801494121552e-03,6.689974106848239899e-03,4.738139454275369644e-03,4.285290371626615524e-03,3.907115198671817780e-03,3.895206842571496964e-03,4.284210968762636185e-03,5.475461948662996292e-03,6.781267933547496796e-03,7.840441539883613586e-03,7.611895911395549774e-03,5.990554578602313995e-03,4.936015699058771133e-03,3.155383514240384102e-03,2.180279931053519249e-03,1.050906954333186150e-03,-2.955125819426029921e-04,-1.620658906176686287e-03,-3.455391852185130119e-03,-4.765917547047138214e-03,-6.318810395896434784e-03,-8.186724968254566193e-03,-9.907545521855354309e-03,-1.105009485036134720e-02,-1.191919110715389252e-02,-1.321575604379177094e-02,-1.447737216949462891e-02,-1.535548828542232513e-02,-1.637988165020942688e-02,-1.837937906384468079e-02,-2.123828232288360596e-02,-2.549386397004127502e-02,-3.114882670342922211e-02,-3.676895424723625183e-02,-4.157960787415504456e-02,-4.470240697264671326e-02,-4.466717690229415894e-02,-4.092135652899742126e-02,-3.459982201457023621e-02,-2.501063607633113861e-02,-1.428963989019393921e-02,-2.742619020864367485e-03,8.330188691616058350e-03,1.821392029523849487e-02,2.656411565840244293e-02,3.323268517851829529e-02,3.834605216979980469e-02,4.209803417325019836e-02,4.477141052484512329e-02,4.672019928693771362e-02,4.807016253471374512e-02,4.887976497411727905e-02,4.900323599576950073e-02,4.819331318140029907e-02,4.621201381087303162e-02,4.305187240242958069e-02,3.873286768794059753e-02,3.289074450731277466e-02,2.668896690011024475e-02,1.996076479554176331e-02,1.409082859754562378e-02,8.372293785214424133e-03,4.322436638176441193e-03,1.350059756077826023e-03
-2.473346830811351538e-04,-5.800870130769908428e-04,-9.604919468984007835e-04,-1.832487410865724087e-03,-3.293958958238363266e-03,-4.560578614473342896e-03,-5.610657390207052231e-03,-6.443763617426156998e-03,-7.280958350747823715e-03,-7.823843508958816528e-03,-7.973754778504371643e-03,-8.164548315107822418e-03,-8.083585649728775024e-03,-8.108561858534812927e-03,-8.265895769000053406e-03,-8.275007829070091248e-03,-8.218176662921905518e-03,-8.151123300194740295e-03,-8.059822022914886475e-03,-8.010031655430793762e-03,-7.884539663791656494e-03,-8.066609501838684082e-03,-8.192021399736404419e-03,-8.465750142931938171e-03,-8.682927116751670837e-03,-8.864037692546844482e-03,-8.617522194981575012e-03,-8.508183062076568604e-03,-8.583107963204383850e-03,-8.747498504817485809e-03,-8.932134136557579041e-03,-8.679278194904327393e-03,-8.389944210648536682e-03,-8.302221074700355530e-03,-8.272169157862663269e-03,-8.071534335613250732e-03,-7.603402249515056610e-03,-7.208681199699640274e-03,-6.704698316752910614e-03,-6.340646650642156601e-03,-6.029684562236070633e-03,-5.735366605222225189e-03,-5.232405848801136017e-03,-4.816732369363307953e-03,-4.190521780401468277e-03,-3.996549174189567566e-03,-4.126453306525945663e-03,-3.977229818701744080e-03,-3.771334188058972359e-03,-3.667311044409871101e-03,-3.427167888730764389e-03,-2.745698671787977219e-03,-1.873248489573597908e-03,-1.184781780466437340e-03,-4.405209911055862904e-04,2.007018338190391660e-04,1.229409826919436455e-03,1.755859004333615303e-03,2.108103130012750626e-03,2.582186600193381310e-03,2.955763367936015129e-03,3.105374518781900406e-03,3.154821228235960007e-03,3.329968545585870743e-03,3.537479788064956665e-03,3.759928513318300247e-03,3.715817583724856377e-03,3.492631483823060989e-03,3.849393222481012344e-03,4.130371846258640289e-03,4.151351749897003174e-03,4.538490436971187592e-03,4.687313456088304520e-03,4.832129925489425659e-03,4.799340851604938507e-03,4.417001735419034958e-03,4.025549162179231644e-03,3.632283536717295647e-03,3.397075925022363663e-03,3.688425989821553230e-03,3.799696918576955795e-03,3.770881798118352890e-03,3.814178286120295525e-03,3.456857521086931229e-03,3.193033160641789436e-03,2.974960487335920334e-03,2.660064259544014931e-03,2.798039000481367111e-03,3.196439938619732857e-03,3.587435465306043625e-03,3.588349791243672371e-03,3.276605857536196709e-03,3.064915537834167480e-03,2.767033874988555908e-03,2.679667901247739792e-03,2.526912372559309006e-03,2.494449494406580925e-03,2.434566384181380272e-03,2.045840024948120117e-03,1.910477876663208008e-03,1.549277803860604763e-03,1.201018225401639938e-03,1.158287632279098034e-03,1.405522460117936134e-03,1.546547166071832180e-03,1.359763788059353828e-03,1.237189397215843201e-03,1.078575383871793747e-03,1.318011200055480003e-03,1.624132739380002022e-03,1.761566498316824436e-03,1.998509746044874191e-03,2.214137231931090355e-03,2.526550088077783585e-03,2.717053750529885292e-03,2.872991841286420822e-03,2.770228777080774307e-03,2.738184528425335884e-03,2.969723893329501152e-03,3.144688205793499947e-03,3.431403310969471931e-03,3.512830007821321487e-03,3.329558297991752625e-03,3.478165017440915108e-03,3.472854150459170341e-03,3.212659852579236031e-03,2.882816828787326813e-03,2.499099588021636009e-03,2.412842120975255966e-03,2.399144927039742470e-03,2.099358011037111282e-03,1.763588981702923775e-03,1.526040374301373959e-03,1.321650925092399120e-03,1.346926554106175900e-03,1.121873850934207439e-03,1.048559090122580528e-03,1.177769619971513748e-03,1.303337165154516697e-03,1.496892771683633327e-03,1.672099926508963108e-03,1.961547415703535080e-03,2.379102632403373718e-03,2.765949117019772530e-03,3.404007060453295708e-03,4.187437705695629120e-03,4.564817063510417938e-03,4.457545466721057892e-03,4.319839179515838623e-03,4.330233205109834671e-03,4.515868611633777618e-03,4.547717981040477753e-03,4.624945577234029770e-03,5.123498849570751190e-03,5.331831518560647964e-03,5.314335692673921585e-03,5.085945129394531250e-03,4.851913545280694962e-03,4.403411876410245895e-03,3.821203485131263733e-03,3.648832440376281738e-03,3.447568509727716446e-03,3.043401287868618965e-03,2.878982108086347580e-03,2.893491415306925774e-03,2.846445888280868530e-03,2.671841997653245926e-03,2.325220266357064247e-03,1.983493799343705177e-03,1.638235524296760559e-03,8.995340904220938683e-04,1.820469187805429101e-04,-7.241962593980133533e-04,-1.481980085372924805e-03,-2.092535141855478287e-03,-2.641979604959487915e-03,-2.549283672124147415e-03,-2.468903083354234695e-03,-2.595067024230957031e-03,-2.715539885684847832e-03,-2.863904694095253944e-03,-2.239908790215849876e-03,-1.628789352253079414e-03,-1.479075173847377300e-03,-1.420670887455344200e-03,-1.443725777789950371e-03,-1.694462262094020844e-03,-1.682330854237079620e-03,-1.572553417645394802e-03,-1.726374379359185696e-03,-1.193894306197762489e-03,-1.676810643402859569e-04,5.653894622810184956e-04,1.084609772078692913e-03,1.685413881205022335e-03,2.258280059322714806e-03,2.573254285380244255e-03,3.133120480924844742e-03,3.629647195339202881e-03,4.582421854138374329e-03,5.162817426025867462e-03,5.738767329603433609e-03,6.787946913391351700e-03,7.839833386242389679e-03,8.742426522076129913e-03,9.696993045508861542e-03,1.053885556757450104e-02,1.183342840522527695e-02,1.212803740054368973e-02,1.229474972933530807e-02,1.168248988687992096e-02,1.047034375369548798e-02,9.465171024203300476e-03,8.415682241320610046e-03,8.305501192808151245e-03,8.421545848250389099e-03,8.996812626719474792e-03,9.461740031838417053e-03,1.007373444736003876e-02,1.086252368986606598e-02,1.022872608155012131e-02,8.180577307939529419e-03,6.760400719940662384e-03,5.369518883526325226e-03,4.394753370434045792e-03,4.023525863885879517e-03,3.988077864050865173e-03,3.675624262541532516e-03,3.798539517447352409e-03,4.544049501419067383e-03,4.970927722752094269e-03,5.703858565539121628e-03,5.309477448463439941e-03,5.130842328071594238e-03,4.188487771898508072e-03,3.066962119191884995e-03,1.983146416023373604e-03,7.451943820342421532e-04,-8.546194294467568398e-04,-2.357207005843520164e-03,-3.888416569679975510e-03,-4.935763776302337646e-03,-6.107600871473550797e-03,-7.085815072059631348e-03,-8.077865466475486755e-03,-8.472352288663387299e-03,-9.006452746689319611e-03,-9.244645014405250549e-03,-9.144522249698638916e-03,-9.296547621488571167e-03,-9.533626027405261993e-03,-1.021704636514186859e-02,-1.160779874771833420e-02,-1.294188480824232101e-02,-1.457522343844175339e-02,-1.594604551792144775e-02,-1.576180383563041687e-02,-1.412225514650344849e-02,-1.048966497182846069e-02,-5.919173359870910645e-03,-3.640473005361855030e-04,5.360342562198638916e-03,1.053165737539529800e-02,1.489360351115465164e-02,1.817205920815467834e-02,2.043155953288078308e-02,2.197950892150402069e-02,2.276151813566684723e-02,2.308959141373634338e-02,2.326090261340141296e-02,2.322966791689395905e-02,2.307796664535999298e-02,2.295029535889625549e-02,2.285608835518360138e-02,2.280861139297485352e-02,2.282422408461570740e-02,2.268361859023571014e-02,2.264240570366382599e-02,2.249934710562229156e-02,2.156247571110725403e-02,2.138851396739482880e-02,1.975764334201812744e-02,1.854386553168296814e-02,1.557730697095394135e-02,1.265692431479692459e-02,1.068001985549926758e-02
