-2.511928721866303897e-05,-4.443472149899759666e-03,4.088522650828215789e-03,-6.016880949114375432e-02,-7.090706926099532570e-03,-1.708307797702932618e-01,-7.044309814259057390e-02,-4.440244348604460711e-03,-3.923772846676993470e-02,1.925819542513844754e-02
-4.267739997292996877e-03,-5.754635838106724778e-03,-2.944299624223434709e-03,-4.301059223553100469e-02,-3.938264808672582024e-02,-1.598345672712092602e-01,-3.331151126558407755e-02,-5.040937902422916714e-06,-7.280460865881839549e-02,2.798193735655932213e-02
-1.114889778250851117e-03,-2.089741609511002862e-03,-1.771081402701353905e-03,2.857454212012004244e-06,-5.776830247526832524e-02,-9.133390081063873234e-02,-1.153190559438487806e-01,-3.144416361987612679e-02,-3.696919926287538932e-02,4.473695507260104336e-03
-7.501749819915695498e-03,1.835366181564997796e-03,-2.518453860916757946e-03,9.267883965887532480e-03,-1.363544650947607489e-02,-2.475626278496305954e-01,-7.070786287161444361e-02,1.475643305247109930e-03,-5.072979960392687282e-02,2.456377054510842928e-02
-2.360319062107241270e-03,-3.686846376312787488e-03,-4.756683860643236630e-03,2.612881762819885007e-03,-3.496359872842094013e-02,-9.716384525607274503e-02,-1.454546075570642971e-01,-3.780850491188977175e-02,-1.435165022472643069e-02,4.599362442238685844e-03
-6.163381758883865365e-03,-7.905584446696829271e-04,-4.054973715603582378e-03,1.278415464949694390e-03,-1.282007535494545519e-02,-1.337349331946552644e-01,-1.064969884085755075e-01,-2.444090616901528883e-03,-1.002452771013227079e-01,-6.633132907319860654e-03
-5.011108557993707892e-03,-3.582751317088470836e-03,-9.893891900845207601e-03,-1.777311522205361066e-02,-1.026264381235195561e-01,-1.910878007630716080e-01,-4.429008270278312481e-02,5.717143778401232411e-03,-2.330057240412922170e-02,1.229578499981735795e-02
-8.506909641958422834e-04,-6.631206665243406101e-03,-5.182515748646044848e-03,-5.036582259572725678e-02,-5.258353178079499396e-02,-1.173444879704507865e-01,-3.473408132367597489e-02,9.805026277855439718e-03,-7.303393167196854663e-02,-2.410931389519178469e-03
1.298953169957305608e-02,2.988019917937166994e-02,4.010655098125490842e-02,1.857272735483163073e-01,-8.240788221525792434e-02,-1.294498267538955472e-01,-9.817604007949175260e-02,3.647266549959622683e-03,1.627762513830363633e-02,-2.223948114371868401e-01
-1.353094094033043156e-02,-1.132294517789221057e-02,-2.287393726882379352e-03,-6.852017772889903990e-02,-2.241148232804881721e-02,-1.021082611352250175e-01,-9.662327374219907561e-02,1.481743920353762378e-03,-5.913578709701061698e-02,2.345461821544917672e-03
-2.336081664134529324e-03,-3.083594324903100783e-03,-2.633905207943037976e-04,-1.797270267375244458e-03,3.858261133966471362e-05,-2.184789915477134414e-01,-1.104381907661586976e-01,-1.857598258816258374e-03,-6.990291840923094219e-03,1.185585754556051259e-02
-8.212805033077688046e-04,1.598668239689677965e-03,-1.489980094192958461e-03,4.737633450257254866e-03,-3.532428549615945854e-03,-1.280691589169860312e-01,-1.835290690405124436e-01,-8.607285033728540036e-03,-1.625858642462470541e-02,2.637949190604451603e-03
-1.931055646184448929e-03,-4.743547523368695472e-03,-1.684327593493000408e-03,-5.062699938891830967e-03,-9.458241102882704310e-02,-9.991976041256937779e-02,-1.010441648861015729e-01,-3.221405880381111864e-02,-1.813011685965519636e-03,2.205751207849172488e-03
-2.103015387275002611e-03,-1.386535679865193811e-03,-2.513465367094794550e-03,-3.650113920855294763e-02,2.044181484921675301e-04,-1.276091437538429130e-01,-1.646029685823833799e-01,-4.209400283832715438e-03,-3.043412017376228781e-02,2.836643685689692676e-02
1.375516915998146279e-03,-3.051239786248719638e-03,-5.015751637882836546e-03,1.072771689890086518e-05,-3.407649393941473287e-02,-1.316525547078473968e-01,-1.377365849448239088e-01,-4.228787865611528113e-04,-3.074181841608657553e-02,1.074535851479750843e-02
-2.198672843375658673e-02,-1.324528380361744175e-02,-4.969222419365340766e-04,-1.167775187189398984e-03,-2.754412380254556494e-02,-1.228315204877145767e-01,-8.472872190038342743e-02,-8.390881394777017707e-03,-7.633383172188686061e-02,5.109290886452381303e-02
-5.284445339410736957e-03,-6.598721440781927768e-04,-1.107149477571589893e-03,2.793740467724841348e-03,-6.518578214684918326e-02,-1.397838850703742031e-01,-9.919691374250766414e-02,-8.596366278311191184e-04,-3.245551952576729987e-02,8.405538660746572632e-03
-5.516409995244712927e-03,-7.416852637420398402e-03,3.237642722764822595e-03,-1.001819522346191794e-02,-8.818414774872528061e-02,-1.721387277632921708e-01,-8.711664370684645345e-03,-6.192119221717346141e-03,-6.653471383921154281e-02,8.730462326345059948e-03
2.261626796589585181e-03,3.207790615250049552e-03,-2.530979513539715568e-03,7.612684175253022585e-04,-3.562155359589116305e-03,-1.224474174293781609e-01,-2.289690169462922364e-01,-5.902791195226223844e-06,-8.816661321451034483e-02,3.941741389871056961e-02
-6.461002256019318137e-04,-1.549120912124275545e-04,-1.922975553971895482e-04,-2.131397965997832279e-04,-1.032485108265527307e-01,-1.148784914376037580e-01,-7.650668355729096926e-02,-2.342144488390951538e-04,-3.460722317930125386e-02,-2.652051837583437825e-03
-2.059433174728932982e-03,-2.460647738672566958e-03,-5.756643839008161213e-04,-4.779270937945354764e-02,-7.190412063932385967e-02,-1.360942116223256282e-01,-6.723633878096159366e-02,5.634696343636255537e-03,-1.377430735268765118e-02,2.899196571630779321e-03
7.655398415813063830e-05,-7.913694120485728796e-04,-2.979498691081961751e-03,-1.943770878473920606e-03,-3.079199489512625745e-02,-1.318730871302384311e-01,-1.321599627215603034e-01,-2.731872465591775410e-03,-5.454028610003144872e-02,2.440182796778339602e-02
-8.215892439307028935e-03,1.129780167535151077e-04,-9.490100281408787899e-06,-5.145308917172977670e-03,-1.073029601246025949e-01,-1.596124918156069661e-01,-2.449493700542242774e-03,5.711609859495821173e-03,4.694962013198834827e-03,5.485496963672223912e-03
-1.228717917400337818e-02,-1.977923878937488944e-02,-1.038983302813956035e-03,-3.669657881331719190e-03,-3.257764124387240584e-02,-1.727703891956972326e-01,-2.433478521325134480e-02,3.132970759184448058e-03,-3.283446286951920839e-02,2.916570182813589540e-02
-1.260093081701609170e-02,6.200553475736030355e-04,-5.278062081612756732e-04,-2.786773521118089095e-04,-7.678373538703837931e-02,-1.680311647931506114e-01,-1.027507141475332980e-01,-8.288003094615951092e-04,-1.986099445497616425e-02,8.942332436942148147e-03
-1.365537018786231903e-03,-6.525709440469781722e-04,-4.390605014484841502e-04,2.440775615193653894e-03,-2.539807972792337484e-02,-2.295046789449674274e-01,-5.866071038594256742e-02,-5.895352672621207400e-03,-2.158114837881671896e-02,7.709115472063501895e-03
2.632771587114821066e-03,-1.863299500896884201e-03,-1.486339113960915073e-03,-2.731173374518342054e-03,-6.452362772372748079e-02,-8.062165660845009574e-02,-1.309684305015275940e-01,-9.438743620693633082e-03,-6.100179811474695790e-02,1.666447430376935199e-02
1.998757285135649778e-04,6.026395541623267866e-04,-6.331812490671634430e-03,8.192698412842503450e-04,4.064137350743011784e-04,-1.820601671304395708e-01,-6.009534711697847587e-02,-4.299304109851427753e-03,-2.050259295056590034e-02,4.580432898133614088e-03
-1.004325483637365062e-02,-7.386455773726141420e-03,-7.943485603467368220e-03,-3.864577186066668613e-02,-9.283163841430841501e-02,-1.675481052773450108e-01,-1.629887292339302768e-02,3.497724584399310426e-03,-2.888970849961801021e-02,-6.155522816108430044e-03
-5.099982929516492722e-03,-4.863408788689544716e-03,-6.254122182291411113e-03,-7.020542221660741600e-02,-1.828118453182639783e-02,-1.671274281436314624e-01,-8.042603362365748076e-02,-1.339610897846116170e-04,-2.214953647760990740e-02,3.375277074373874558e-02
-2.204465665355705931e-03,1.259779264020086109e-03,8.166531217940775980e-03,-6.335356912340041509e-03,-1.617512954656992810e-02,-2.067213149501742897e-01,-1.775984603546406915e-01,-1.578312863685611342e-02,-3.893317331301532954e-03,1.945176110122096014e-02
-1.026530889353354369e-06,3.060903656866026650e-03,1.746871624076230358e-06,6.805311245571725970e-06,-7.006688272013768780e-03,-2.008362658573147053e-01,-1.184603534394079866e-01,-2.713565977459286935e-03,-1.851569076394016938e-02,1.113051507864557498e-02
2.101029556383414085e-03,-1.760665283665993055e-03,-4.758766069485896415e-03,-3.862289456477546040e-02,-2.707199834845667660e-02,-1.537505024621104444e-01,-1.068692944833131570e-01,-2.060013113379385169e-03,-1.034363441155697338e-02,9.803467828515733187e-03
-5.077567427963664568e-04,4.975958397488154314e-03,4.193655769516979079e-06,3.971787664630682148e-03,-3.082089484341539454e-02,-9.476628831894133576e-02,-6.594171625216561916e-02,5.759940818724847318e-04,-2.099584482112596198e-02,3.504572073366224189e-03
-8.292491091931561463e-04,-5.623097854232534396e-04,-3.294414763688832074e-03,-3.044754520209738344e-04,-2.050171649638001664e-02,-1.345429911669445977e-01,-1.145748900189187264e-01,-7.884237831107711314e-02,-4.367714424458476324e-02,-2.702195615276972718e-03
5.236936003331963373e-03,-2.384693737121963957e-03,-1.691956329213531104e-03,-2.902376718960287486e-03,-1.265514721783631835e-01,-1.030679698462808463e-01,-9.689403220036602038e-02,6.061734468384907538e-05,-2.674529855181275329e-03,-2.626159302429146702e-03
-7.002171411718639609e-04,-4.752368758076371078e-04,-5.904378117166086785e-03,-3.018020916762674836e-04,-4.554107310158516525e-02,-1.339421175546162968e-01,-7.367593906880430532e-02,-8.480602904000074079e-04,-2.626076541079879270e-02,2.375034327299940448e-02
-1.080325093887754030e-02,-4.747880093255254000e-04,-4.457605325544329242e-03,8.265238956419226207e-04,-1.363057969707097417e-02,-2.405744740323840503e-01,-5.349714822575982881e-02,-6.717661627404451080e-03,-3.181888416906639150e-02,-1.108985025225212029e-02
-5.333916531521316721e-03,-3.033797647738482504e-04,1.821526178018777035e-04,6.641851679002420093e-03,-1.214333193577869958e-02,-1.735979636530891324e-01,-1.258144760620521774e-01,5.174149467924749578e-03,-3.899905016786221063e-02,-1.131894858894855714e-02
-5.555870111344021756e-03,-7.520526922434157087e-04,-2.104830791837633466e-03,7.934249132618803298e-04,-3.307382790457270155e-02,-1.918451791363725845e-01,-9.827527079060388582e-02,2.213262990052919550e-03,-8.855090039426619444e-03,4.121869165124364930e-03
-3.636850026351296644e-03,-1.101863868631071386e-02,-7.428481824223462718e-04,1.186749924394568494e-02,-1.135274245336290594e-01,-6.003355605764350983e-02,-7.305401359109560400e-02,-2.917986611809199674e-02,-4.719013978563621481e-02,-1.281231238521314975e-03
-5.547151500110333302e-04,-3.282077512709847232e-04,-1.491625311711541890e-03,-3.761881028149625331e-03,-1.649504783273515046e-03,-3.038933846237033554e-01,-1.597926221204588534e-02,4.012133178987970471e-03,-1.533802899976299296e-02,5.651140884068960209e-03
3.463323587817716733e-03,-2.353004981718818595e-05,-1.495320306616104320e-03,1.546110027477931061e-02,5.799122703225872803e-03,2.892929169540906734e-03,1.988035461834050388e-01,3.378798943240835517e-01,9.947324611777062786e-02,1.927587525110842749e-03
-2.531637404664914635e-03,-4.978114336339126318e-03,-3.474638181195538553e-03,-3.963021013992402562e-04,-1.972923490320233411e-02,-1.904771260290390733e-01,-1.012342908438421674e-01,1.402632287111615743e-03,-2.357306817495301299e-02,1.163619989956012936e-02
-5.429219676210389652e-03,6.905060491211954116e-04,-3.702765663601849042e-03,2.071023558262868620e-04,-3.277344427339386884e-02,-1.567944309104891409e-01,-1.039240861034506497e-01,1.443802222989143966e-03,-4.323498990994362190e-02,1.018931209801370898e-02
-7.683284943989647270e-05,-6.540546079814657868e-04,-1.906059496154976140e-03,-2.730966545489758434e-03,2.442768436775158251e-03,-2.005227225514946143e-01,-1.177427038115979735e-01,-9.525087464114812561e-04,-1.539854685688718701e-02,4.193468145312851704e-03
-6.441755924287000633e-03,7.707445120349519464e-04,-3.117764629406827737e-03,4.475484149951721238e-03,-1.321657336320595511e-01,-3.549511617140716554e-03,-6.367485697906517805e-02,-2.819172511030006070e-03,-9.608864638146632706e-03,1.593522810443032470e-02
-1.592528398964688499e-03,-1.232786709545621271e-05,-6.238790752582555003e-04,2.205646728626808740e-05,-3.878434426780433264e-02,-1.688828075447670607e-01,-1.035272640335214850e-01,-4.379092263182491652e-03,-2.672484296954423175e-02,1.117134521495417865e-02
-6.581765211808664195e-03,-1.046353759857276446e-02,-8.335966813583756130e-03,-1.974518859118210706e-02,-7.585015277206606787e-02,-1.045250493328715308e-01,-1.151608575287429298e-02,6.033597930788774398e-05,-4.532003683908022995e-02,1.565975855441889206e-02
3.797121308092756692e-04,-3.290519322848014377e-03,2.377320825274861511e-03,6.909678889379863853e-04,-3.173391021848731564e-02,-1.760081449232897555e-01,-9.475305852542810492e-02,-2.891845809788836860e-02,-5.750004543064473998e-03,3.845254831826123380e-03
-1.262480153034697440e-02,2.547213333017471124e-04,1.629553907945327377e-03,5.606901229698299516e-03,-8.389941530623828969e-02,-2.328759171155796726e-01,-2.235872447518201175e-02,7.869754723377716740e-03,-3.023359223437594237e-02,1.110851743799693044e-02
-5.158647565141370912e-03,-3.339509964468662215e-04,1.463350178057482368e-03,-9.236672683704620071e-04,-1.721668702567837744e-02,-2.461739802616068340e-01,-2.756561859965124539e-02,8.323810895325952980e-04,-4.911959740225680521e-02,1.086312273394489901e-02
-5.507785982742881281e-03,3.729635932132619597e-05,-1.633910784897481781e-03,5.067158660224456261e-03,-1.618415631532285626e-02,-1.805874023019101438e-01,-8.850788577136114998e-02,1.208886050468914149e-03,-5.292184908083532452e-02,5.686756193573437070e-03
-1.388807588530458837e-04,1.121070231744631784e-03,-1.138746986423749699e-03,9.280184408059964640e-03,-6.769223798192499503e-03,-2.059184035635899523e-01,-1.159551380231633594e-01,3.465310943046675564e-04,-1.453578794939327894e-02,3.748323885404373644e-04
-1.059240756146444425e-03,-7.535802849282388638e-03,1.037866453744600405e-03,-1.290284377429076930e-02,-5.217538186359512581e-02,-8.805763229304831852e-02,-7.697907004944308518e-02,8.027575354027779650e-03,-3.185792517250899542e-02,-5.136222576898818830e-03
1.521677609968686814e-03,4.175670094876164439e-05,-5.250929475213735216e-03,-4.626577874727539480e-02,-1.453722391362592958e-01,-1.376615610890654651e-01,-3.199411837562911309e-02,-2.936109924047868285e-03,-3.060510426893218658e-02,-1.485154159779957959e-03
-2.080592618425941998e-03,-3.939185007528337758e-03,-1.174548495769591047e-03,-7.173989855073815980e-03,-6.162891911064912603e-02,-1.037565944630160081e-01,-1.736179442762254277e-01,-2.952703257848708282e-02,-2.726189829595405609e-02,1.034076599294968431e-02
3.868689200988590163e-03,-8.246891192655048932e-04,-3.100064824856411938e-03,-4.509531142743442717e-03,-9.629569630989968758e-04,-1.963744257048546105e-01,-1.222572219406243138e-01,3.175706081157306498e-03,-1.872766467659342168e-02,6.378716459996072036e-03
8.226338542374395969e-04,4.198190122868312828e-03,3.041119297342652458e-04,-4.009370001710684493e-03,-2.537060194600738658e-02,-1.669261235558004985e-01,-1.072310264646336858e-01,3.095835654289574249e-03,-4.963744968188502082e-02,1.142052167236085741e-02
-8.665012901205684445e-03,-4.510798323161746386e-03,-1.941447950774803513e-03,3.481350171647964748e-03,-3.242510025222552356e-02,-2.405432202548336840e-01,-3.895209125626693247e-02,2.766432330330650404e-04,-1.650433099127437270e-02,6.450681416713135996e-03
3.247691823585795862e-02,2.200593468996460064e-02,1.228462570356570784e-02,-1.364278074341299385e-01,-1.860487220424690002e-01,-3.900152578032954620e-02,8.770415527809584388e-02,-6.394976048500224108e-02,-8.952367527678638248e-02,3.402275722869240598e-02
3.207581267719861184e-03,6.862721833103245690e-03,9.066325459592241079e-03,-1.870431077276394072e-01,-2.450893183153762533e-01,5.463313107312550015e-02,9.700585478017027807e-02,-8.967194510483376957e-02,3.900465841893240720e-02,-3.013863931691465603e-02
-6.054697327938344392e-03,1.294638142240636452e-03,1.422132073158979652e-02,-1.244838464550021701e-01,-1.961868341472849109e-01,9.375192802587471383e-03,4.877842881743762321e-02,-1.187366356809674978e-01,-1.034233052738180170e-02,-1.811836304556709368e-02
-8.514535179156290656e-03,4.059180478827694415e-03,9.458088377512129325e-04,-7.750158971076635817e-02,-1.515714365158448429e-01,-5.387930232445346107e-02,5.251736147994057191e-02,-6.209137755160810263e-02,-1.001719614551421778e-01,-3.766567046061994567e-04
-3.662083002389123626e-03,4.443743705220365610e-03,1.402209735676428594e-03,-1.359192082405193402e-01,-1.438680668657992545e-01,-9.229891940877062509e-03,5.241562929089543799e-02,-9.821036702156847598e-02,-4.468103887794113577e-02,-2.294918554077805470e-02
-1.781665520228972385e-02,4.666909367395643757e-03,1.796706114667269731e-03,-1.301175075569462602e-01,-2.021420612267265937e-01,1.276135512059430044e-02,1.031070535367230034e-01,-5.973355302218370105e-02,-7.568771089802764362e-02,-1.985988406645477350e-02
-1.108743176620866772e-02,8.965085923776284008e-03,9.840820020035860247e-03,-8.276351563675792000e-02,-2.492291533680907056e-01,-4.153767258365881343e-02,8.341490368193589522e-02,-4.623350704937480987e-02,-8.856234551246246200e-02,2.118519827273932996e-02
-7.781326878159705585e-02,3.551852580930914272e-02,5.256984610802936664e-02,-1.446822073696509559e-01,-2.838052569168036388e-01,2.354969236553201561e-01,1.270569149567126466e-01,-5.368761218707287369e-02,2.428939759704226153e-01,8.355467047269267422e-02
-6.687628723063273467e-03,6.866570300850741030e-04,4.136638537968066569e-03,-1.156480021415823844e-01,-2.098825230034724598e-01,-4.483467089738765732e-02,6.750384385562598066e-02,-3.639619441064046584e-02,-1.007757125388445687e-03,-5.445596560054266622e-02
-4.514325791842589003e-02,-2.725687603233120648e-03,-4.721541215607152030e-03,-3.517495375603609670e-02,-9.009048777422380694e-02,6.601157143062999499e-02,3.347449940827928322e-03,-1.867579643948426293e-02,-1.525186121303238607e-01,-5.363966523623889260e-02
-6.589149650059744623e-03,1.005285400471114636e-02,1.973067421852251965e-02,-1.531612635572914827e-01,-2.785384518982782498e-01,-1.001150865509036619e-02,5.603001135657913884e-02,-7.878669642240958282e-02,3.909109099702202245e-03,1.657317157884869233e-02
-4.190290058298603085e-03,-2.140198079409329646e-03,6.501967606317630261e-05,-6.426109389648282377e-02,-1.189128941854736693e-01,-6.342949503258028809e-02,3.392106675014829736e-02,-5.037286060886139033e-02,-1.303234763542890640e-01,-3.474995252064875411e-04
-5.761009966849766489e-02,2.182931806754899451e-02,2.307701272046401922e-02,1.229485516412048840e-02,-2.114984852031130957e-01,-1.413011173353247163e-02,1.301399069633945305e-01,-1.624475132304198932e-01,1.911919464906471078e-01,-1.192246924601887831e-01
-1.819529234291429945e-02,9.265182820370259850e-03,-1.129210446641443211e-02,-1.431135167079890802e-01,-1.807888713041961859e-01,-3.395277541419181033e-02,9.623129808527834672e-02,-1.230623435696749923e-01,7.293939443690419799e-02,-3.985512029391663491e-02
-7.240504451489178372e-02,-4.396170884697143261e-03,9.046717934580459156e-03,-2.333811284682775142e-02,-2.592638443000449544e-01,6.501273892264484988e-02,2.593775840732059912e-03,-6.464639054297141585e-02,-3.848108824299156794e-02,1.891036989703618774e-03
-9.928872830352142992e-03,5.672469603933548432e-03,1.431073002722269829e-03,-1.172698810295984134e-01,-1.864352807025851655e-01,-5.523552414999870902e-02,9.764243494731912609e-02,-3.688038116410436579e-02,-4.517885270013433097e-02,-4.354098108794949434e-03
-1.731382748451174361e-02,-6.644440766595221919e-03,-6.122102984951172631e-03,-5.018282017860135197e-02,-2.325896787577581282e-01,2.317829976475127216e-02,3.742616294222914086e-03,-4.225673203570531888e-02,-7.500711668111530173e-02,-4.435610260889139012e-02
-6.391719381697445052e-03,9.120190168498387359e-03,-8.967039278241225415e-04,-1.406559186692466490e-01,-2.156419987049917886e-01,2.649023738590004437e-02,2.715932185434293336e-02,-4.051825067494992799e-02,1.632060252880852477e-02,-8.320389094234869123e-03
-4.349254843749802285e-02,4.435151525210019596e-03,-6.152480488856157913e-03,-8.797699471058360041e-04,-2.177004219554934394e-01,-1.781567113451545600e-02,6.157173833187486872e-02,-1.391232480491380041e-01,-3.996983821029109069e-02,-1.397420613933981039e-03
-5.160783055626458338e-02,2.299551305027642059e-02,3.872046202601887172e-02,-2.214650347299071953e-01,-2.026906229232543488e-01,1.470834883091842460e-01,3.643923555553756771e-02,-1.835629438533767643e-01,-1.761400671772346202e-02,1.955493908659056979e-01
2.671516928163505944e-02,-2.601014662151997312e-03,2.010399147797946665e-02,-3.410464038713374724e-03,6.640406365353135332e-02,1.952394940491180009e-01,-3.478261417238678876e-02,6.473500150504200856e-02,1.383505494048556661e-01,1.287369160741656804e-01
2.223907708920125348e-02,2.944781759563484466e-02,-6.530933478957352996e-03,-1.527735814525180980e-01,-2.613453963440992567e-01,2.728173029270374028e-02,9.515635548835703339e-02,-8.096068615883786346e-02,-5.942529903601075775e-02,-2.750165784010034573e-02
3.888408459734206402e-02,9.260401456486138522e-03,5.012620249415170558e-03,-2.474430133921210750e-01,-2.317925399984912538e-01,7.836956562192222420e-02,5.444986485091607431e-02,-1.173125661623012662e-02,-5.673370692306623636e-02,2.963100289922410494e-02
3.292414564757157464e-02,9.490463247623927637e-03,-3.323216421555168307e-03,6.597498134449442109e-02,-8.291712774714617151e-02,1.623459763509736142e-01,4.729713172323990467e-02,5.159068847178471806e-02,2.129159518779864257e-01,1.700967496278651681e-01
4.994821091801779356e-02,7.263937188748200054e-03,1.661844472860350003e-02,-1.486737442089323402e-01,-1.340721327547808595e-02,1.396299903090889583e-01,1.073366112118253196e-01,1.316154806376262400e-02,1.676974708756788779e-01,2.804323022234525009e-01
9.063743838765393052e-03,7.283929998633704994e-03,-5.115551669117997420e-03,-9.250499966103088723e-02,3.831619058350552859e-02,1.733909089201393916e-01,1.096892508644523034e-01,5.462727689446695428e-02,1.743977283783210153e-01,4.967554963857787748e-02
2.668499275974611784e-02,-1.424928972417559281e-02,1.736164574842742744e-03,-2.374907486422962732e-02,-1.927742140880781829e-01,7.934659742627044043e-02,1.788198048639727880e-02,3.293291626285533430e-02,-1.273753213294324393e-01,-1.216354708579118898e-01
1.715259447099400439e-02,-1.608116999627151600e-02,3.416761482903506869e-02,-3.219226561088881639e-02,-3.138170362641645728e-01,1.032246037647657072e-01,4.721253874190134425e-02,8.004854837984153038e-03,-1.720526272280242519e-01,-4.950509354063177504e-04
1.247335326541690187e-01,2.528772700186144792e-02,1.396337969738576691e-02,5.896710908320398209e-02,-2.909430099541459591e-01,4.616826421830346611e-02,-3.643131066129392300e-03,5.984068075894923705e-02,-1.455796923597946768e-01,-8.809651404402608563e-03
6.547128004476189533e-02,-9.937211741186448635e-03,9.323224817086360125e-03,-1.136695971351326696e-02,-2.233593593448754688e-01,6.587125662708320784e-02,1.079124563092781486e-01,-1.052773997026985736e-01,-1.592461926832249852e-01,-6.783178164875908189e-02
-2.362916194211825069e-02,-8.570430692503565318e-03,1.054174091733161428e-02,1.158754595398700377e-01,9.719933601232573495e-02,7.777727443990986589e-02,1.585831167148802137e-02,3.508223004557909502e-02,2.125616872887411690e-01,6.717796784205753990e-02
1.834660095029672922e-01,3.904933064972206797e-02,1.895134668271513875e-02,3.789111419462964231e-02,8.472585458758563615e-02,1.287470316246373814e-02,1.034509114354042886e-01,3.313496885825135269e-02,5.307211056755865164e-05,1.370086077686310799e-01
2.009374255570405346e-02,3.282011527891412483e-02,6.962784002299098052e-02,-1.849700550740658034e-01,1.305015566349877754e-02,2.317213787919694956e-01,1.302277796506909058e-01,1.178594176409566117e-02,7.391302418069885249e-02,2.169467738997643558e-01
-7.023727705356373578e-03,7.405369862455192520e-03,-1.787087383696331008e-02,5.001509409078497975e-02,2.945861162598449948e-02,1.701010846986254210e-01,6.080872175869220936e-02,1.348949880652166103e-03,2.086680900145171380e-01,8.154948529293576387e-02
4.232631663397115607e-02,-2.796620792742121608e-03,5.315438883321198758e-03,-1.829732084093602662e-01,-3.982668464552767684e-01,4.536220024556105596e-02,-2.425985766150144315e-02,-4.714255095189845424e-02,4.116176525856875962e-02,1.274564113362801898e-01
2.321340665662567984e-02,1.111156158951240314e-02,-5.424753271772178587e-03,-1.114610552593106180e-01,-2.304042266795153504e-01,6.968913017999127379e-02,4.642727521196329116e-02,-8.450372054450600023e-02,-7.574648555277729844e-02,2.401757162407498758e-02
1.069882305716204039e-02,-5.770105101990693867e-03,-1.362987296717702024e-03,-7.044565454056950227e-02,-1.703473753408065727e-01,1.063322089294322812e-03,8.702039357538739195e-02,-5.952698021277098156e-02,-1.107199599835235193e-01,3.810849765601202060e-02
1.141851060013504977e-04,3.301772215546570216e-02,2.654677769202170527e-03,-1.113685761206277131e-01,-2.782145100723646958e-01,2.594023821229740276e-02,1.902552516348802666e-02,-2.346593358884983826e-02,-6.478719717386495491e-02,-4.017693349708437861e-02
2.229800799215791648e-02,-2.891582917282850117e-03,-1.106301532768307234e-02,-5.111785715941963293e-02,-2.775471247812299480e-01,5.528117253274430348e-02,3.595348324355478187e-02,-1.730963227959049847e-02,-7.733857923167279658e-02,-9.650402282715932895e-03
2.921091940926836758e-02,9.286573072424367942e-03,1.185168220523941454e-03,3.600245811529125331e-03,2.129245241675726055e-02,-3.082069533705190101e-01,-8.221075321943292769e-03,9.279230834963434621e-03,2.142981739033287050e-02,-1.645159619860710187e-01
-2.271498961788979629e-02,4.683812197795941823e-03,6.800205848619424003e-03,-7.869350047380151147e-02,-2.323465527940656028e-01,5.244270084569854079e-02,-1.092800533213030001e-02,2.267049539471839223e-02,-9.939039690157792928e-02,2.396229319160212909e-02
1.597355647819377056e-01,9.781868531838174008e-02,5.804061697349521820e-02,-3.117186566565000594e-01,-1.269027421352573182e-01,9.643004008193932497e-02,1.153918985564248573e-01,-1.383052964329510581e-01,-1.755995266707476576e-01,1.080753176705828190e-02
1.048104769190994108e-02,2.535810708759488920e-03,2.111519680565220047e-02,-2.011927224971913342e-01,-3.049978153115224244e-01,5.992484702375629885e-02,1.353851183827123883e-01,-3.307631057163776950e-02,-2.861552098763059729e-02,-2.498304655976836541e-02
1.528413469265717771e-02,-5.940524015946202670e-03,6.280286891022801056e-03,-8.358974207030751835e-02,-2.131994369895402197e-01,2.316598831192070648e-02,7.605543468931302842e-03,-2.115088116177100963e-02,-1.256795937740666225e-01,-2.753812914579902276e-03
2.468272901926747698e-02,1.526642763581682015e-02,1.889816274414828773e-02,-4.248192503047302782e-01,-6.509846052750968559e-02,9.534162395108580768e-02,9.779740253257045157e-02,-3.258188069360380690e-02,-1.122402774229785821e-01,-3.353031128150870538e-02
-7.917471083833014026e-03,-2.319653288304419480e-03,8.447590434028354536e-03,-8.185126772342118939e-02,-1.452805052173099798e-01,-3.297083320577300081e-03,3.231365481185081295e-02,-2.531709609088159466e-02,-1.074860118871808351e-01,-6.567530270699091510e-02
-1.152138578559088432e-02,5.295492968267230018e-03,-5.685567969263894718e-03,-1.730995052458359496e-01,-1.931971434035063828e-01,4.481227495178705805e-02,6.902684305601121395e-02,-7.942600446032198336e-02,-2.300027145218599967e-02,-1.743208367040255391e-02
2.706083464772613897e-02,1.064626759505107358e-02,8.084574472800792194e-03,-1.002878225928282990e-01,-2.454186724184293789e-01,1.902186246607656672e-02,6.398773116356035184e-02,-5.757902624851863466e-03,-1.211898665844004658e-01,-1.020331724476542488e-02
-6.905683803082030697e-03,-4.472419823156913339e-03,-1.046780641424200319e-02,-1.591332587413544497e-01,-2.183406870690703661e-01,9.512450378359788364e-03,5.755907907805738605e-02,-2.493516677355372621e-03,-1.402275097647333324e-01,-9.023168947444511548e-03
2.518808169963230800e-02,2.928240536653027928e-02,2.529637610657710020e-02,-3.586349639568868208e-01,-1.027067107610165203e-01,3.530033517931099180e-02,1.891222490984589832e-01,4.772808137288257063e-03,-2.070182643643377618e-01,2.503645246761862508e-02
8.863852201518816754e-02,-1.990306255350591733e-02,-1.178249935486130710e-02,-3.482645868905971664e-02,1.410477485921475260e-01,1.822923835285491789e-01,7.087303381626088028e-02,1.234986256518683101e-01,-6.384018339946707921e-02,6.713984370521104694e-02
2.729851568885628341e-02,9.009101789371440003e-03,-2.866985548179601818e-03,-1.216817637437090788e-01,-1.694785294485083860e-01,-3.148825440716104731e-03,-1.728335894376703237e-03,-2.426159331070938327e-02,-1.554057724506373306e-01,-1.737971279890433360e-02
-1.500914229417449168e-02,-1.439528135572516569e-02,-2.365406574228449618e-02,-2.531738336649242971e-01,4.019406342840129570e-02,2.635815366560275916e-02,1.183622925546005122e-01,4.497740550482564117e-03,-1.807834984176329984e-01,-7.280205799715590287e-02
2.015308483744383816e-02,9.199187226771895695e-03,1.561906007315817108e-02,-1.268628530621398187e-01,-6.093165594384813977e-02,5.136138579167595641e-02,7.124575511134460803e-02,-7.719867248426708940e-03,-2.725724506003560643e-01,-3.294663114859017194e-02
1.096778084673215477e-02,1.294631799124822992e-02,1.129279351365205207e-02,-1.965039748150386456e-01,-1.687505642585423182e-01,2.436265075684018733e-02,1.401772173526128484e-01,-3.658752463031259700e-02,-1.764205951233683844e-01,-8.483746988914886433e-02
3.399480062335328429e-02,-1.699738915771316318e-03,-1.553756601649600860e-02,-1.224828607853197804e-01,-1.661559324643142321e-01,1.938846203233650714e-02,9.718193431057502163e-02,-4.487170577028194024e-02,-8.918192263930664609e-02,-8.200691071439354662e-02
5.073442278928748210e-03,-1.430674208450657785e-02,-1.677637584670907053e-02,-1.810830630847934941e-01,-3.030674311680289779e-01,8.455070194109177983e-02,-2.050158079366296363e-02,-2.440752849891740864e-02,9.476598357077863077e-02,6.083085692868322840e-03
3.156764088390059259e-02,2.314036374812825092e-02,1.383893651027973994e-02,-1.436721667447197481e-01,-1.561052706252882005e-01,2.504415582372565563e-02,4.288352589565838646e-02,-2.641865139595081166e-02,-1.288416533301834643e-01,-1.544612424341510089e-02
7.326165927146347477e-03,-8.095649993280802995e-03,9.191399018630889636e-03,-1.221895767946789696e-01,-1.149698757093865625e-01,4.566359976283082545e-02,6.639683080048185138e-02,-1.244109862560514000e-02,-5.190320409712256833e-02,-5.065175476495039492e-02
2.027764439848925640e-02,-1.926463210039250753e-03,-2.694490585477644570e-03,-8.580824249324435493e-02,-4.900593479124346064e-02,-4.365951761018771471e-02,-1.188004205967389815e-02,-9.336186434958577626e-03,-7.935544791948716259e-02,2.701523254937588173e-02
-1.143752649310855740e-02,1.056227419039871239e-03,-1.657866329828830074e-02,-8.167940812588862787e-02,7.078388958288247927e-03,-1.205073168800164934e-01,1.126193157136925853e-02,-1.731354494955108028e-02,-1.860637679646165721e-01,1.011494906042934988e-01
6.767310400803187853e-03,1.375789107137910527e-01,5.274025767079491139e-02,-4.321018407744514622e-03,-2.824861855761713614e-02,1.144206308455761184e-01,8.537975533878494616e-02,-1.460834910015943290e-03,-5.681175358414397580e-02,4.943246038837125766e-01
-1.647852994772994184e-02,-2.574529367352172346e-02,-1.256557951900223735e-03,-7.193843987282753927e-02,1.017817959513089426e-01,-1.402561092865522441e-01,2.357442069634995904e-02,1.432237366452230286e-02,-3.030963375359285172e-01,9.912823186930264097e-02
-1.077606593012145515e-02,-6.697920547030115912e-02,-4.762647221933318659e-02,-1.331860163088133542e-01,9.113546044918734157e-02,-1.226974487862074990e-02,-5.846815235005832501e-04,-9.736411438477738864e-03,-2.562412423860641053e-01,9.584076628630723571e-02
2.262510678792825636e-02,-1.526486662123513471e-02,-6.396039837953660517e-03,-7.334736701629619715e-02,-1.563407639490583534e-01,6.277259143247073368e-03,-6.607890504532067978e-03,-7.807254238639583371e-03,-1.988447691893651392e-01,4.327219174747626296e-02
3.409806701299410853e-02,-8.564217469134332780e-03,-1.817756139263258450e-02,-3.523378348955202854e-02,-1.149194326625711665e-01,-7.231095550453009446e-02,-4.309583051194210146e-02,-3.990636803869337945e-03,-2.616451533617599953e-02,8.902199095672824747e-02
1.735675103684783047e-02,-2.353350876268295051e-03,4.436075621957516132e-03,-3.218177420187465915e-02,-5.259531406294920552e-02,-1.007171469251696011e-01,-4.792696572243384384e-02,-9.814940805016646522e-03,-5.508527916883967229e-02,1.287598059354263559e-02
1.892093390715127513e-02,-8.003987507136269344e-03,-7.787015781790672560e-03,-2.901249269140413964e-02,-7.997898315271072256e-02,-3.477634714916275765e-02,-9.864246448391948696e-02,2.816011527223742650e-02,-8.858397352898807198e-02,3.451938034418813167e-02
5.561513734259076851e-03,-1.995476711841503645e-02,3.219015893011145917e-03,-5.802006478018431612e-02,1.740993180521072936e-01,-1.834715522718207426e-01,2.794297789877624519e-02,-4.907597363583401972e-04,-1.607308861810920197e-01,7.848542062036444056e-02
2.849054595248503782e-02,-6.658785741734295910e-03,8.892266216024489328e-03,-1.218224052700508375e-01,-9.236187225932063205e-02,1.981530727411935384e-03,1.906633051393674672e-02,-2.160086139309290443e-02,-7.900351539971360582e-02,-3.670750454001423229e-03
3.779069023359176924e-04,-3.656664173841379234e-03,-9.696156470341344910e-03,-3.317878790016395157e-02,-1.722641816269962767e-01,-2.626693790801113912e-02,-1.367724730388695555e-03,-3.148656644729944457e-03,-6.348597660161574285e-02,-2.002663852576620773e-02
9.773301391233840327e-03,-1.713012619699657776e-02,-1.243208816390437878e-02,-4.421863957501735026e-02,-1.029414531843812902e-01,-1.346000199820069493e-02,-2.288555576096948721e-02,7.542053905005514924e-03,-2.156251212523928595e-01,6.767236385803067356e-02
2.242371263213175162e-02,-3.087524931630038216e-03,-9.903901945379260663e-03,-5.237458011645945710e-02,-5.661551731774644436e-02,-8.205226987329790334e-02,-7.276737028100609649e-03,-9.056652429365532816e-03,-4.792153980672751029e-02,1.891240878954427232e-02
4.422970432212553621e-02,-2.315278448811913890e-03,-7.021841768365507308e-04,-1.923901367171272983e-02,-2.406585943935065849e-02,-7.210987622326402169e-02,-5.714054146803117934e-02,1.725539089086518653e-03,-2.442083075091372804e-02,6.422453730501821202e-03
2.792340853039209508e-03,-1.318357222117482429e-02,-1.988367833655041439e-02,-7.257778542380045883e-02,-1.024939774595202552e-01,-7.498713194934210867e-03,1.346991685002993204e-02,-6.348948954530578802e-03,-1.342370269464982779e-01,6.627869678823246520e-03
1.797073303437631345e-02,-3.811609918661858915e-03,1.020435513680401909e-03,-4.478436567291105980e-02,-9.975816497183510878e-02,-9.280404209199727417e-02,-5.927550338896987042e-02,-5.416998853167240974e-03,-2.731951600260984839e-02,-2.098396205427922531e-02
1.507541612474941166e-02,-5.528656887442552452e-03,-1.079646644267590223e-02,-3.367883297170690821e-02,-1.259846347084180029e-01,1.449802101545977218e-02,2.032671974913035935e-03,-7.735574555933801000e-03,-2.449653512004951461e-01,8.272938572531451928e-02
1.224053978503791829e-01,3.049827651958979258e-02,-2.530186063449052503e-02,-1.194820816120074070e-01,-9.502296032412095583e-02,1.246021675026192212e-03,1.059545080978648857e-01,2.851887221466342659e-02,2.518784374347066701e-01,-3.516048736988778844e-01
2.465973594132939151e-02,-3.275401852536434510e-02,-5.908295816420671559e-03,-6.550404198314765947e-02,-9.137451076527601523e-02,-1.090332147430211340e-01,-3.540391560053179551e-03,3.504164442065502844e-02,-1.215150748639824002e-01,3.653369303000349871e-02
1.574487336454937284e-02,-3.200943331350156185e-02,-6.885258513584155415e-02,8.163148575816166208e-02,-1.438899031224934733e-01,4.056029848314633007e-02,2.845274534693209220e-02,-7.907954718574672012e-03,-1.880976284293750522e-01,6.772974123610593644e-02
1.904385389978171736e-02,1.213973909261398948e-03,7.612186199656450179e-03,-3.591908131429064066e-02,-1.452752477051356787e-02,-1.209464919433705238e-01,-7.183324366336595046e-02,-6.737011677292112366e-03,-4.876009500498044297e-02,8.312429151957559381e-02
-1.513714415030134770e-02,-3.484051689148263357e-03,-3.036807058381292904e-02,-1.761185478782010538e-01,6.892972342714767837e-03,-1.216800846959113362e-04,-8.510716692587358759e-03,-1.684972310478058399e-02,-1.248353751967543196e-01,1.584393071523867713e-01
-3.804073041428621214e-03,-5.317424928774072690e-03,-1.024871255699207409e-02,-1.874766331967762586e-02,-3.815024373013178177e-02,-1.034169539309090502e-01,-7.500228537793561523e-02,-9.419005515687474536e-04,-2.915501876789946753e-02,1.806567530576546135e-02
-1.344314238100912696e-02,-8.749243477499024993e-03,-3.176911261875061277e-03,-3.888123650849763940e-02,-9.079045875189284409e-02,-8.634315033764790315e-02,2.020538097925564727e-02,-8.916023283142568770e-03,-6.893015156148463163e-02,1.178649958221122951e-01
1.695383991952693773e-03,3.392550443826861800e-03,-3.194328366081606186e-03,-4.139554701712216261e-02,-4.188698222623461059e-02,-4.157809900702697480e-03,-1.720977313290082689e-01,-6.762527213962820499e-03,-1.282613225464005087e-02,1.055811697502402093e-02
-8.324137071473108147e-04,4.757101303278742956e-03,2.537568026322278587e-03,-3.033687684592395808e-02,-3.697137333510076146e-02,-1.117199783841973521e-01,-1.103147863850634097e-01,7.902396865048687963e-03,-5.923628558994788879e-02,2.166689784223626083e-02
1.996198888876448210e-02,2.413450883442006326e-03,-6.202055067787426434e-03,-2.455378437364267794e-02,-3.008925415428279071e-01,6.613414718620007869e-03,2.023396701068581535e-02,-1.445143476626850783e-02,-1.691462632772295915e-01,1.327399968932652663e-01
-7.160295763698060201e-04,5.583460618604728365e-03,5.327760005669648739e-03,-5.427785459424392528e-02,-6.661156105187246435e-02,2.180094571715508744e-02,-1.507991489252150652e-01,1.210433995458683361e-02,-6.373775096239986393e-02,7.462802069116018788e-02
-1.878000092163344473e-02,-1.251620872630795044e-03,-4.188057583219121673e-03,-5.746781135839206661e-02,-2.833947794143431079e-02,2.025363507272217364e-03,-1.833811200565401978e-01,-1.214295936478878950e-02,-3.401428501646667352e-02,6.809580985968922973e-02
3.514944079713872428e-04,-1.323060506213064903e-02,-1.294844620559672255e-02,-4.683232060285297954e-02,-5.376138733506117401e-02,-1.393830120757626745e-01,-6.944426320878828440e-02,8.022565343451604561e-03,-1.044611074834799758e-01,1.081006354483932119e-02
3.902260585065233436e-05,2.121764547758869888e-03,-2.245590661968059360e-03,-3.225170215067949681e-02,-2.696810760100703044e-02,-1.071829882090039217e-02,-1.363721483635099430e-01,-1.914898748392460451e-02,-2.129800913112073549e-02,-1.982584521782849996e-02
-1.006420901551212908e-02,1.190924039829493845e-02,-5.121581300619690649e-03,-2.525883296636098965e-02,-8.149959184650541755e-02,-9.633674331732877683e-02,-2.623666952309351361e-02,2.056639709786341544e-02,-5.915231166051449635e-02,7.069165595900873955e-02
4.135065747508165010e-03,6.405953656310335760e-03,-9.604551470132479188e-03,-4.772169159324914783e-02,-2.678467470202021763e-02,-1.697509643937473653e-02,-1.763553385547809160e-01,-8.188571993968233632e-04,-3.541848479447271686e-02,-2.914071186411175060e-02
1.444261460467774309e-02,6.620216239753233707e-03,1.428787109115764974e-02,-4.888549997559400034e-02,-2.797359003133672098e-02,-1.203015732502478868e-01,5.303498625740871684e-03,1.352525231743613963e-02,-5.971550844775155853e-02,3.891979564379715456e-02
2.137499994451850030e-03,-1.663938574461679837e-03,-4.829885605096270740e-03,-3.810290884825343755e-02,-3.180168056799485832e-02,-4.352932265927226749e-03,-7.930483186598809298e-02,-8.956135849943284988e-02,-2.335989189889809900e-02,4.157057189014303801e-03
-1.190822131921584655e-02,-8.610322574295068213e-03,1.385294092805798604e-04,-4.247669181798665455e-02,-6.675843490174220018e-02,1.145336077239612893e-02,-2.083914207336681479e-01,3.904768498147567074e-02,-5.084709496469733137e-02,1.269408825699522942e-03
-7.074111051329128562e-03,6.665852705926834237e-03,-9.959190461185330953e-03,-2.488702556641022301e-01,-3.187898775666003076e-02,-1.824026253006373957e-02,-1.792387956075282285e-02,-1.085814356638524969e-03,-1.111926424552542869e-01,1.087319499633968706e-01
1.700502507394112753e-02,-8.115067646083573907e-03,-1.210552059795342271e-02,-3.259680128637196250e-02,-4.459136190920621329e-02,-1.130575279831885216e-01,-1.070098090199988333e-01,-2.000156918173326415e-02,-4.366787329536810786e-02,-5.917932566137988799e-03
2.904954676163697125e-02,-2.188304780541674988e-03,2.786250657117676430e-02,-9.953923787346432780e-03,-3.817848724732039734e-01,-4.433788817968291329e-03,7.364960826373367561e-04,9.936072047726373854e-03,-7.008235366263222688e-02,1.265049751295366232e-01
1.752610106583432290e-02,-1.442255690472699558e-03,-7.430969112297240893e-03,-4.921408135122325861e-02,-2.489756556807060442e-02,-9.557836234204786230e-02,-2.807331727684428749e-02,5.100661676004020900e-02,-1.451165183612115883e-02,6.366958300919861764e-03
1.173820607202938349e-02,-4.450506832175173404e-04,-8.096071109905742316e-03,-4.666698332675243283e-02,-2.920448926691492433e-02,-5.820720098494652772e-02,-1.127600000958122739e-01,5.629592767944574527e-02,-5.685653134879697229e-02,2.234803326585731512e-02
1.529374377428716764e-02,9.835913174294312871e-04,1.965948257185275595e-03,-5.289603573752799104e-02,-7.958555219557506000e-02,-1.273159805647941789e-01,-6.572982534692889400e-02,-1.401158852219692996e-02,-2.046605861635911877e-02,3.028635199099062245e-02
1.446349322398559310e-02,-1.510037147708977005e-02,2.865003399737992788e-03,-4.568478202217193807e-02,-8.489263841112111575e-02,-5.906001050449842353e-03,-9.130322795947115599e-02,-2.668204384192411974e-02,-4.736423031860965277e-02,4.110570497967622194e-02
-3.281882982361846671e-03,-6.558532635273648520e-03,2.831798801795713111e-03,-4.262709311052863964e-02,-3.919872029426727661e-02,-1.370967126266879610e-01,-6.413770254689717121e-02,2.417993256807113300e-02,-7.396091813031265005e-02,4.480342355463823312e-02
8.930637029996654416e-03,-1.709147696921408657e-03,4.783288176389682497e-03,-4.511100715430817892e-02,-5.673470672067224690e-02,-8.915237451766916746e-03,-2.328399158727927631e-01,2.778895188268820649e-02,-8.904125772373290559e-02,6.343572394244130497e-02
6.103068526575959607e-03,-1.569094494619520039e-02,-5.328107355777328283e-04,-4.423525840968994122e-02,-8.062652283336493864e-02,-8.949081808681023931e-02,-2.909706786469528142e-02,1.805619272808814055e-02,-1.434577972241743160e-01,4.406161609323886591e-02
-4.932308182433640074e-03,-5.111430251519346289e-03,-4.854643373573461727e-04,-2.077959999331755944e-02,-5.284015325056479889e-02,-1.613439676818437252e-01,-4.494348286078111987e-02,2.385152629609331790e-02,-2.075287960249675660e-03,1.969516826348027914e-03
9.915892936484451553e-04,-5.214687243004125471e-03,-7.430357053031325923e-04,-3.714343266338598210e-02,-4.727357020746766197e-02,-1.090328779975481416e-01,-8.350656214772127217e-02,-6.639160900864284065e-04,-4.748415557968021367e-02,1.209210082337009405e-02
1.593139859684634257e-02,-2.939614177802234857e-03,1.283125894534281044e-03,-2.737185967645458518e-02,-5.697369944858859947e-02,-2.834928776036234332e-02,-1.439147981290865574e-02,-1.473001744026631622e-02,-1.946855632702347919e-02,1.367489962867240137e-02
-2.562686994863038956e-02,-2.049073287639275893e-03,1.393466596577781595e-02,-5.882645399105573825e-02,-5.868481445813616276e-02,-5.610498131718530401e-03,-1.883342462494945468e-01,4.738154573797546433e-03,-8.426516923984585239e-02,4.118329454778254378e-02
1.636525077333750300e-02,-2.364179034287025583e-03,-1.021155644204478109e-03,-5.410196206082878989e-02,3.316555112797756055e-03,-9.839322922148535655e-02,-8.745860567329616711e-03,2.548635581361831381e-02,-1.916424461377788935e-01,1.076074022818167414e-01
2.919315919555273697e-02,-5.188637866024932606e-03,-1.517833693363962629e-02,-4.677063811936347376e-02,-2.656909970876177307e-01,-3.503835596997656888e-03,-1.998290894145836327e-02,8.220140836626317615e-03,2.378226996195506593e-02,-3.832295408857248203e-02
-1.890988443011802774e-04,1.374111868819237470e-02,-7.968905190008266151e-03,-2.807866167278730632e-02,-3.115515360999515995e-02,-6.790133517868114643e-02,-7.214215029658767320e-02,4.245376089918465393e-03,-6.012498927821219308e-02,8.732925697394229581e-02
7.666335278073547511e-03,-5.343647155738102950e-03,-6.851385945768410403e-03,-4.559791527597693156e-02,-5.091847734423255584e-02,-1.368469504732022779e-01,-5.536689278913786705e-02,-2.979896193654810177e-04,-1.339139036824991136e-01,6.473465406347302109e-02
2.651569249617595839e-02,-5.378299200985152580e-03,-1.047888321169584275e-02,-3.081107189810152261e-02,-5.282733732221934347e-02,-9.529359846201179707e-02,-7.076903737320204557e-02,2.522062892908327400e-02,-6.620150619882464449e-02,7.346108499079613552e-02
2.656694937605915199e-02,2.368867904260385081e-03,1.177646233046537871e-05,-3.407841114886425021e-02,-5.301004368904824876e-02,-1.450097535260126136e-01,-1.172719271294013210e-01,-3.319943158904557160e-03,-3.202002015827299514e-02,2.154658431545739081e-03
7.611662717012639308e-03,-8.960752702429658489e-03,5.035248197922211587e-03,-3.851642203884256266e-02,-3.724335210220210135e-02,-1.255844664257215471e-01,-4.716681007308143325e-02,5.966646382007633788e-03,-7.298500921621788040e-02,4.512352305715929685e-02
2.345606213521582006e-03,-9.111503358978289766e-03,8.207888556763231211e-04,-3.694175730345579389e-02,-4.930177466992134022e-02,-1.113759194159958249e-01,-3.602725968575475751e-02,-3.565502791526607620e-03,-4.288533610591246242e-02,1.937434357723988310e-02
-1.783708540985917690e-02,1.069246581439294019e-02,5.661800475835444650e-03,-3.781752095927953111e-02,-4.477624825381924106e-02,8.570397925298404301e-03,-8.681488306749519934e-02,1.064754354653609132e-02,-5.249935832312913747e-02,5.941475431897200177e-02
