0.000000000000000000e+00,0.000000000000000000e+00,0.000000000000000000e+00,0.000000000000000000e+00,0.000000000000000000e+00,0.000000000000000000e+00,0.000000000000000000e+00,0.000000000000000000e+00,0.000000000000000000e+00,0.000000000000000000e+00,0.000000000000000000e+00,0.000000000000000000e+00,0.000000000000000000e+00,0.000000000000000000e+00,0.000000000000000000e+00,0.000000000000000000e+00,0.000000000000000000e+00,0.000000000000000000e+00,0.000000000000000000e+00,0.000000000000000000e+00,0.000000000000000000e+00,0.000000000000000000e+00,0.000000000000000000e+00,0.000000000000000000e+00,0.000000000000000000e+00,0.000000000000000000e+00,0.000000000000000000e+00,0.000000000000000000e+00,0.000000000000000000e+00,0.000000000000000000e+00,0.000000000000000000e+00,0.000000000000000000e+00,0.000000000000000000e+00,0.000000000000000000e+00,0.000000000000000000e+00,0.000000000000000000e+00,0.000000000000000000e+00,0.000000000000000000e+00,0.000000000000000000e+00,0.000000000000000000e+00,0.000000000000000000e+00,0.000000000000000000e+00,0.000000000000000000e+00,0.000000000000000000e+00,0.000000000000000000e+00,0.000000000000000000e+00,0.000000000000000000e+00,0.000000000000000000e+00,0.000000000000000000e+00,0.000000000000000000e+00,0.000000000000000000e+00,0.000000000000000000e+00,0.000000000000000000e+00,0.000000000000000000e+00,0.000000000000000000e+00,0.000000000000000000e+00,0.000000000000000000e+00,0.000000000000000000e+00,0.000000000000000000e+00,0.000000000000000000e+00,0.000000000000000000e+00,0.000000000000000000e+00,0.000000000000000000e+00,0.000000000000000000e+00,0.000000000000000000e+00,0.000000000000000000e+00,0.000000000000000000e+00,0.000000000000000000e+00,0.000000000000000000e+00,0.000000000000000000e+00,0.000000000000000000e+00,0.000000000000000000e+00,0.000000000000000000e+00,0.000000000000000000e+00,0.000000000000000000e+00,0.000000000000000000e+00,0.000000000000000000e+00,0.000000000000000000e+00,0.000000000000000000e+00,0.000000000000000000e+00,0.000000000000000000e+00,0.000000000000000000e+00,0.000000000000000000e+00,0.000000000000000000e+00,0.000000000000000000e+00,0.000000000000000000e+00,0.000000000000000000e+00,0.000000000000000000e+00,0.000000000000000000e+00,0.000000000000000000e+00,0.000000000000000000e+00,0.000000000000000000e+00,0.000000000000000000e+00,0.000000000000000000e+00,0.000000000000000000e+00,0.000000000000000000e+00,0.000000000000000000e+00,0.000000000000000000e+00,0.000000000000000000e+00,0.000000000000000000e+00,0.000000000000000000e+00,0.000000000000000000e+00,0.000000000000000000e+00,0.000000000000000000e+00,0.000000000000000000e+00,0.000000000000000000e+00,0.000000000000000000e+00,0.000000000000000000e+00,0.000000000000000000e+00,0.000000000000000000e+00,0.000000000000000000e+00,0.000000000000000000e+00,0.000000000000000000e+00,0.000000000000000000e+00,0.000000000000000000e+00,0.000000000000000000e+00,0.000000000000000000e+00,0.000000000000000000e+00,0.000000000000000000e+00,0.000000000000000000e+00,0.000000000000000000e+00,0.000000000000000000e+00,0.000000000000000000e+00,0.000000000000000000e+00,0.000000000000000000e+00,0.000000000000000000e+00,0.000000000000000000e+00,0.000000000000000000e+00,0.000000000000000000e+00,0.000000000000000000e+00,0.000000000000000000e+00,0.000000000000000000e+00,0.000000000000000000e+00,0.000000000000000000e+00,0.000000000000000000e+00,0.000000000000000000e+00,0.000000000000000000e+00,0.000000000000000000e+00,0.000000000000000000e+00,0.000000000000000000e+00,0.000000000000000000e+00,0.000000000000000000e+00,0.000000000000000000e+00,0.000000000000000000e+00,0.000000000000000000e+00,0.000000000000000000e+00,0.000000000000000000e+00,0.000000000000000000e+00,0.000000000000000000e+00,0.000000000000000000e+00,0.000000000000000000e+00,0.000000000000000000e+00,0.000000000000000000e+00,0.000000000000000000e+00,0.000000000000000000e+00,0.000000000000000000e+00,0.000000000000000000e+00,0.000000000000000000e+00,0.000000000000000000e+00,0.000000000000000000e+00,0.000000000000000000e+00,0.000000000000000000e+00,0.000000000000000000e+00,0.000000000000000000e+00,0.000000000000000000e+00,0.000000000000000000e+00,0.000000000000000000e+00,0.000000000000000000e+00,0.000000000000000000e+00,0.000000000000000000e+00,0.000000000000000000e+00,0.000000000000000000e+00,0.000000000000000000e+00,0.000000000000000000e+00,0.000000000000000000e+00,0.000000000000000000e+00,0.000000000000000000e+00,0.000000000000000000e+00,0.000000000000000000e+00,0.000000000000000000e+00,0.000000000000000000e+00,0.000000000000000000e+00,0.000000000000000000e+00,0.000000000000000000e+00,0.000000000000000000e+00,0.000000000000000000e+00,0.000000000000000000e+00,0.000000000000000000e+00,0.000000000000000000e+00,0.000000000000000000e+00,0.000000000000000000e+00,0.000000000000000000e+00,0.000000000000000000e+00,0.000000000000000000e+00,0.000000000000000000e+00,0.000000000000000000e+00,0.000000000000000000e+00,0.000000000000000000e+00,0.000000000000000000e+00,0.000000000000000000e+00,0.000000000000000000e+00,0.000000000000000000e+00,0.000000000000000000e+00,0.000000000000000000e+00,0.000000000000000000e+00,0.000000000000000000e+00,0.000000000000000000e+00,0.000000000000000000e+00,0.000000000000000000e+00,0.000000000000000000e+00,0.000000000000000000e+00,0.000000000000000000e+00,0.000000000000000000e+00,0.000000000000000000e+00,0.000000000000000000e+00,0.000000000000000000e+00,0.000000000000000000e+00,0.000000000000000000e+00,0.000000000000000000e+00,0.000000000000000000e+00,0.000000000000000000e+00,0.000000000000000000e+00,0.000000000000000000e+00,0.000000000000000000e+00,0.000000000000000000e+00,0.000000000000000000e+00,0.000000000000000000e+00,0.000000000000000000e+00,0.000000000000000000e+00,0.000000000000000000e+00,0.000000000000000000e+00,0.000000000000000000e+00,0.000000000000000000e+00,0.000000000000000000e+00,0.000000000000000000e+00,0.000000000000000000e+00,0.000000000000000000e+00,0.000000000000000000e+00,0.000000000000000000e+00,0.000000000000000000e+00,0.000000000000000000e+00,0.000000000000000000e+00,0.000000000000000000e+00,0.000000000000000000e+00,0.000000000000000000e+00,0.000000000000000000e+00,0.000000000000000000e+00,0.000000000000000000e+00,0.000000000000000000e+00,0.000000000000000000e+00,0.000000000000000000e+00,0.000000000000000000e+00,0.000000000000000000e+00,0.000000000000000000e+00,0.000000000000000000e+00,0.000000000000000000e+00,0.000000000000000000e+00,0.000000000000000000e+00,0.000000000000000000e+00,0.000000000000000000e+00,0.000000000000000000e+00,0.000000000000000000e+00,0.000000000000000000e+00,0.000000000000000000e+00,0.000000000000000000e+00,0.000000000000000000e+00,0.000000000000000000e+00,0.000000000000000000e+00,0.000000000000000000e+00,0.000000000000000000e+00,0.000000000000000000e+00,0.000000000000000000e+00,0.000000000000000000e+00,0.000000000000000000e+00,0.000000000000000000e+00,0.000000000000000000e+00,0.000000000000000000e+00,0.000000000000000000e+00,0.000000000000000000e+00,0.000000000000000000e+00,0.000000000000000000e+00,0.000000000000000000e+00,0.000000000000000000e+00,0.000000000000000000e+00,0.000000000000000000e+00,0.000000000000000000e+00,0.000000000000000000e+00,0.000000000000000000e+00,0.000000000000000000e+00,0.000000000000000000e+00,0.000000000000000000e+00,0.000000000000000000e+00,0.000000000000000000e+00,0.000000000000000000e+00,0.000000000000000000e+00,0.000000000000000000e+00,0.000000000000000000e+00,0.000000000000000000e+00,0.000000000000000000e+00,0.000000000000000000e+00,0.000000000000000000e+00,0.000000000000000000e+00,0.000000000000000000e+00,0.000000000000000000e+00,0.000000000000000000e+00,0.000000000000000000e+00,0.000000000000000000e+00,0.000000000000000000e+00,0.000000000000000000e+00,0.000000000000000000e+00,0.000000000000000000e+00,0.000000000000000000e+00,0.000000000000000000e+00,0.000000000000000000e+00,0.000000000000000000e+00,0.000000000000000000e+00,0.000000000000000000e+00,0.000000000000000000e+00,0.000000000000000000e+00,0.000000000000000000e+00,0.000000000000000000e+00,0.000000000000000000e+00,0.000000000000000000e+00,0.000000000000000000e+00,0.000000000000000000e+00,0.000000000000000000e+00,0.000000000000000000e+00,0.000000000000000000e+00,0.000000000000000000e+00,0.000000000000000000e+00,0.000000000000000000e+00,0.000000000000000000e+00,0.000000000000000000e+00,0.000000000000000000e+00,0.000000000000000000e+00,0.000000000000000000e+00,0.000000000000000000e+00,0.000000000000000000e+00,0.000000000000000000e+00,0.000000000000000000e+00,0.000000000000000000e+00,0.000000000000000000e+00,0.000000000000000000e+00,0.000000000000000000e+00,0.000000000000000000e+00,0.000000000000000000e+00,0.000000000000000000e+00,0.000000000000000000e+00,0.000000000000000000e+00,0.000000000000000000e+00,0.000000000000000000e+00,0.000000000000000000e+00,0.000000000000000000e+00,0.000000000000000000e+00,0.000000000000000000e+00,0.000000000000000000e+00,0.000000000000000000e+00,0.000000000000000000e+00,0.000000000000000000e+00,0.000000000000000000e+00,0.000000000000000000e+00,0.000000000000000000e+00,0.000000000000000000e+00,0.000000000000000000e+00,0.000000000000000000e+00,0.000000000000000000e+00,0.000000000000000000e+00,0.000000000000000000e+00,0.000000000000000000e+00,0.000000000000000000e+00,0.000000000000000000e+00,0.000000000000000000e+00,0.000000000000000000e+00,0.000000000000000000e+00,0.000000000000000000e+00,0.000000000000000000e+00,0.000000000000000000e+00,0.000000000000000000e+00,0.000000000000000000e+00,0.000000000000000000e+00,0.000000000000000000e+00,0.000000000000000000e+00,0.000000000000000000e+00,0.000000000000000000e+00,0.000000000000000000e+00,0.000000000000000000e+00,0.000000000000000000e+00,0.000000000000000000e+00,0.000000000000000000e+00,0.000000000000000000e+00,0.000000000000000000e+00,0.000000000000000000e+00,0.000000000000000000e+00,0.000000000000000000e+00,0.000000000000000000e+00,0.000000000000000000e+00,0.000000000000000000e+00,0.000000000000000000e+00,0.000000000000000000e+00,0.000000000000000000e+00,0.000000000000000000e+00,0.000000000000000000e+00,0.000000000000000000e+00,0.000000000000000000e+00,0.000000000000000000e+00,0.000000000000000000e+00,0.000000000000000000e+00,0.000000000000000000e+00,0.000000000000000000e+00,0.000000000000000000e+00,0.000000000000000000e+00,0.000000000000000000e+00,0.000000000000000000e+00,0.000000000000000000e+00,0.000000000000000000e+00,0.000000000000000000e+00,0.000000000000000000e+00,0.000000000000000000e+00,0.000000000000000000e+00,0.000000000000000000e+00,0.000000000000000000e+00,0.000000000000000000e+00,0.000000000000000000e+00,0.000000000000000000e+00,0.000000000000000000e+00,0.000000000000000000e+00,0.000000000000000000e+00,0.000000000000000000e+00,0.000000000000000000e+00,0.000000000000000000e+00,0.000000000000000000e+00,0.000000000000000000e+00,0.000000000000000000e+00,0.000000000000000000e+00,0.000000000000000000e+00,0.000000000000000000e+00,0.000000000000000000e+00,0.000000000000000000e+00,0.000000000000000000e+00,0.000000000000000000e+00,0.000000000000000000e+00,0.000000000000000000e+00,0.000000000000000000e+00,0.000000000000000000e+00,0.000000000000000000e+00,0.000000000000000000e+00,0.000000000000000000e+00,0.000000000000000000e+00,0.000000000000000000e+00,0.000000000000000000e+00,0.000000000000000000e+00,0.000000000000000000e+00,0.000000000000000000e+00,0.000000000000000000e+00,0.000000000000000000e+00,0.000000000000000000e+00,0.000000000000000000e+00,0.000000000000000000e+00,0.000000000000000000e+00,0.000000000000000000e+00,0.000000000000000000e+00,0.000000000000000000e+00,0.000000000000000000e+00,0.000000000000000000e+00,0.000000000000000000e+00,0.000000000000000000e+00,0.000000000000000000e+00,0.000000000000000000e+00,0.000000000000000000e+00,0.000000000000000000e+00,0.000000000000000000e+00,0.000000000000000000e+00,0.000000000000000000e+00,0.000000000000000000e+00,0.000000000000000000e+00,0.000000000000000000e+00,0.000000000000000000e+00,0.000000000000000000e+00,0.000000000000000000e+00,0.000000000000000000e+00,0.000000000000000000e+00,0.000000000000000000e+00,0.000000000000000000e+00,0.000000000000000000e+00,0.000000000000000000e+00,0.000000000000000000e+00,0.000000000000000000e+00,0.000000000000000000e+00,0.000000000000000000e+00,0.000000000000000000e+00,0.000000000000000000e+00,0.000000000000000000e+00,0.000000000000000000e+00,0.000000000000000000e+00,0.000000000000000000e+00,0.000000000000000000e+00,0.000000000000000000e+00,0.000000000000000000e+00,0.000000000000000000e+00,0.000000000000000000e+00
4.513408930506557226e-04,7.076296024024486542e-04,1.017459318973124027e-03,1.238715369254350662e-03,1.473794807679951191e-03,1.739427447319030762e-03,1.631681574508547783e-03,1.338852336630225182e-03,8.305100491270422935e-04,4.930511349812150002e-04,3.700849483720958233e-04,3.269836015533655882e-04,3.378062683623284101e-04,7.557470235042273998e-04,1.114469370804727077e-03,1.423009787686169147e-03,1.488135312683880329e-03,1.439142506569623947e-03,1.363242510706186295e-03,1.216630684211850166e-03,9.440814028494060040e-04,6.752111949026584625e-04,5.828955909237265587e-04,4.651198978535830975e-04,3.716032369993627071e-04,3.323757846374064684e-04,3.208895795978605747e-04,2.891333133447915316e-04,2.831791061908006668e-04,3.672517486847937107e-04,6.724185077473521233e-04,1.069583464413881302e-03,1.187904621474444866e-03,1.114958431571722031e-03,8.307283860631287098e-04,4.889747360721230507e-04,2.158705901820212603e-04,-1.060724753187969327e-04,-4.077442863490432501e-04,-6.720781093463301659e-04,-7.476226892322301865e-04,-6.971460534259676933e-04,-6.351684569381177425e-04,-4.316040431149303913e-04,-1.420537882950156927e-04,2.726163656916469336e-04,8.106239838525652885e-04,1.232077018357813358e-03,1.463176682591438293e-03,1.511349575594067574e-03,1.801149337552487850e-03,2.460226183757185936e-03,2.518434543162584305e-03,2.320036292076110840e-03,1.818292774260044098e-03,1.173593802377581596e-03,3.784802684094756842e-04,-3.990609548054635525e-04,-1.297787763178348541e-03,-2.269286429509520531e-03,-3.057015594094991684e-03,-3.539924276992678642e-03,-3.530588699504733086e-03,-3.173254895955324173e-03,-2.459445269778370857e-03,-1.758648082613945007e-03,-1.069876481778919697e-03,-5.593511741608381271e-04,-2.869879826903343201e-04,-1.274647802347317338e-04,-3.917360299965366721e-05,-5.957018402114044875e-06,1.056376390806690324e-06,2.025798039539949968e-06,1.180655544885667041e-06,-5.430884812085423619e-06,-1.887293365143705159e-05,-3.758196180569939315e-05,-6.529648089781403542e-05,-9.366124140797182918e-05,-1.298337010666728020e-04,-1.845002698246389627e-04,-2.200917806476354599e-04,-2.515542437322437763e-04,-2.787079138215631247e-04,-3.108211385551840067e-04,-3.213829477317631245e-04,-3.236627671867609024e-04,-3.090428072027862072e-04,-2.897357917390763760e-04,-2.746703685261309147e-04,-2.617723075672984123e-04,-2.419914089841768146e-04,-2.297829632880166173e-04,-2.226711076218634844e-04,-2.138258423656225204e-04,-2.121322759194299579e-04,-2.040388499153777957e-04,-2.040870458586141467e-04,-1.990403688978403807e-04,-1.991861936403438449e-04,-1.933614403242245317e-04,-1.873914443422108889e-04,-1.947051641764119267e-04,-1.915333850774914026e-04,-1.956712512765079737e-04,-1.903672964544966817e-04,-1.828580716392025352e-04,-1.864635996753349900e-04,-1.854199945228174329e-04,-1.856346789281815290e-04,-1.838058378780260682e-04,-1.822416088543832302e-04,-1.815636351238936186e-04,-1.801543257897719741e-04,-1.809176319511607289e-04,-1.796279975678771734e-04,-1.773108087945729494e-04,-1.764990447554737329e-04,-1.741259620757773519e-04,-1.710427750367671251e-04,-1.667245378484949470e-04,-1.619286049390211701e-04,-1.586407597642391920e-04,-1.546679122839123011e-04,-1.525813859188929200e-04,-1.464760571252554655e-04,-1.459337509004399180e-04,-1.427340612281113863e-04,-1.406002265866845846e-04,-1.408047246513888240e-04,-1.325695920968428254e-04,-1.308764331042766571e-04,-1.275886024814099073e-04,-1.244378363480791450e-04,-1.181655243271961808e-04,-1.071012084139510989e-04,-9.640053031034767628e-05,-8.442913531325757504e-05,-7.010027184151113033e-05,-5.225875793257728219e-05,-3.357734385645017028e-05,-1.287876330025028437e-05,1.142245127994101495e-05,4.344547778600826859e-05,8.252708357758820057e-05,1.333120453637093306e-04,2.080118283629417419e-04,3.022909804712980986e-04,4.131152236368507147e-04,5.379240610636770725e-04,7.647988968528807163e-04,9.809467010200023651e-04,1.122481888160109520e-03,1.215518219396471977e-03,1.337865949608385563e-03,1.469583716243505478e-03,1.516582677140831947e-03,1.535600516945123672e-03,1.304103992879390717e-03,1.370129059068858624e-03,1.291538472287356853e-03,1.300391042605042458e-03,1.712950528599321842e-03,9.621583158150315285e-04,8.358429186046123505e-04,6.946785142645239830e-04,5.270584952086210251e-04,3.977674059569835663e-04,2.785648684948682785e-04,1.975425111595541239e-04,1.455525052733719349e-04,9.567429515300318599e-05,5.111183418193832040e-05,1.576356771693099290e-05,-1.677174077485688031e-05,-4.131247987970709801e-05,-7.587784784846007824e-05,-8.925329893827438354e-05,-1.003199140541255474e-04,-1.154467827291227877e-04,-1.209771580761298537e-04,-1.295645488426089287e-04,-1.312566018896177411e-04,-1.347313227597624063e-04,-1.355018175672739744e-04,-1.366609794786199927e-04,-1.356102438876405358e-04,-1.366115757264196873e-04,-1.394381542922928929e-04,-1.410775148542597890e-04,-1.408926909789443016e-04,-1.446805254090577364e-04,-1.492812734795734286e-04,-1.502544182585552335e-04,-1.517098862677812576e-04,-1.505497784819453955e-04,-1.516998599981889129e-04,-1.532486348878592253e-04,-1.555783965159207582e-04,-1.572001929162070155e-04,-1.557234209030866623e-04,-1.578094670549035072e-04,-1.579773233970627189e-04,-1.605425204616039991e-04,-1.620807452127337456e-04,-1.586474390933290124e-04,-1.621736300876364112e-04,-1.608133898116648197e-04,-1.643075665924698114e-04,-1.624240539968013763e-04,-1.573205518070608377e-04,-1.558015646878629923e-04,-1.511352165834978223e-04,-1.504641550127416849e-04,-1.518651843070983887e-04,-1.491451403126120567e-04,-1.461777428630739450e-04,-1.448187103960663080e-04,-1.416811282979324460e-04,-1.343052281299605966e-04,-1.306418707827106118e-04,-1.281230652239173651e-04,-1.231669011758640409e-04,-1.171415424323640764e-04,-1.094729668693616986e-04,-1.011966596706770360e-04,-8.941853593569248915e-05,-7.724596071057021618e-05,-6.789462349843233824e-05,-6.002416557748802006e-05,-5.209176379139535129e-05,-4.325748159317299724e-05,-3.800182457780465484e-05,-3.424963142606429756e-05,-3.109563476755283773e-05,-2.948658584500662982e-05,-2.781653529382310808e-05,-2.755783134489320219e-05,-2.801726805046200752e-05,-2.872479672078043222e-05,-2.982828664244152606e-05,-3.137134626740589738e-05,-3.221803126507438719e-05,-3.268108412157744169e-05,-3.196848047082312405e-05,-3.205557732144370675e-05,-3.194859164068475366e-05,-3.117740197922103107e-05,-3.189922063029371202e-05,-3.205637040082365274e-05,-3.033840584976132959e-05,-2.865300666599068791e-05,-2.715281152632087469e-05,-2.384968502155970782e-05,-2.003791087190620601e-05,-1.583878474775701761e-05,-1.028742372000124305e-05,-4.098962108400883153e-06,2.792955001496011391e-06,9.910169865179341286e-06,1.731900374579709023e-05,2.524665069358889014e-05,3.195806857547722757e-05,3.875442416756413877e-05,4.573481419356539845e-05,5.248618617770262063e-05,5.681615584762766957e-05,6.345499423332512379e-05,7.185780850704759359e-05,8.527298632543534040e-05,9.647912520449608564e-05,1.078122440958395600e-04,1.216055825352668762e-04,1.350856618955731392e-04,1.470266870455816388e-04,1.582523254910483956e-04,1.648612960707396269e-04,1.708038907963782549e-04,1.849907130235806108e-04,1.777082070475444198e-04,1.958040811587125063e-04,2.084844018099829555e-04,2.228796511190012097e-04,2.250816178275272250e-04,2.258476306451484561e-04,2.340384526178240776e-04,2.421261306153610349e-04,2.577024861238896847e-04,2.734681766014546156e-04,2.957236429210752249e-04,3.092998522333800793e-04,3.613432345446199179e-04,3.772111958824098110e-04,4.505660035647451878e-04,5.269158282317221165e-04,6.070430390536785126e-04,6.796811358071863651e-04,8.486841106787323952e-04,9.800730040296912193e-04,1.216978533193469048e-03,1.469853566959500313e-03,1.697558676823973656e-03,1.928679412230849266e-03,2.177119022235274315e-03,2.737463451921939850e-03,2.826252253726124763e-03,2.792061073705554008e-03,2.882946049794554710e-03,2.833386883139610291e-03,2.606805646792054176e-03,2.208850579336285591e-03,1.972185913473367691e-03,1.751527539454400539e-03,1.794880256056785583e-03,1.893633976578712463e-03,1.589900464750826359e-03,1.547267660498619080e-03,1.399472821503877640e-03,1.045794459059834480e-03,7.974955369718372822e-04,5.075783701613545418e-04,2.784774987958371639e-04,1.169570023193955421e-04,9.177609172184020281e-06,-6.264076364459469914e-05,-1.070103025995194912e-04,-1.317097048740833998e-04,-1.447967370040714741e-04,-1.512260496383532882e-04,-1.545296108815819025e-04,-1.572169421706348658e-04,-1.619752292754128575e-04,-1.613500935491174459e-04,-1.643111754674464464e-04,-1.675335370237007737e-04,-1.680189307080581784e-04,-1.596581714693456888e-04,-1.487853442085906863e-04,-1.160820611403323710e-04,-6.784404104109853506e-05,3.396868805793928914e-06,9.917448915075510740e-05,2.274175640195608139e-04,3.952179977204650640e-04,5.652476102113723755e-04,5.939191905781626701e-04,5.859753582626581192e-04,6.009802455082535744e-04,4.331192467361688614e-04,3.632905136328190565e-04,4.522423841990530491e-04,4.389203677419573069e-04,5.810239235870540142e-04,7.030670531094074249e-04,5.574667593464255333e-04,4.505688848439604044e-04,3.241439699195325375e-04,1.898861228255555034e-04,8.450030873063951731e-05,6.741478046023985371e-06,-5.438270818558521569e-05,-9.287174907512962818e-05,-1.139375381171703339e-04,-1.226885651703923941e-04,-1.220709091285243630e-04,-1.214869553223252296e-04,-1.166980000562034547e-04,-1.026635291054844856e-04,-9.332778427051380277e-05,-8.367736154468730092e-05,-7.478205952793359756e-05,-7.157817162806168199e-05,-6.910166848683729768e-05,-6.838738045189529657e-05,-7.300070865312591195e-05,-7.622632983839139342e-05,-8.260730828624218702e-05,-9.523624612484127283e-05,-1.024084485834464431e-04,-1.122020330512896180e-04,-1.184889260912314057e-04,-1.350410166196525097e-04,-1.445192901883274317e-04,-1.494161406299099326e-04,-1.609879691386595368e-04,-1.669725461397320032e-04,-1.716583792585879564e-04,-1.744362234603613615e-04,-1.805260108085349202e-04,-1.834630529629066586e-04,-1.797661243472248316e-04,-1.817434385884553194e-04,-1.798587327357381582e-04,-1.753383548930287361e-04,-1.740712759783491492e-04,-1.699460699455812573e-04,-1.625116856303066015e-04,-1.582072582095861435e-04,-1.549958979012444615e-04,-1.511052832938730717e-04,-1.504804968135431409e-04,-1.434615405742079020e-04,-1.385151990689337254e-04,-1.334917033091187477e-04,-1.287822233280166984e-04,-1.170218820334412158e-04,-9.794114157557487488e-05,-8.116670505842193961e-05,-5.394460822572000325e-05,-1.907833211589604616e-05,2.523565490264445543e-05,7.465435919584706426e-05,1.228419423568993807e-04,1.565728452987968922e-04,1.827300147851929069e-04,2.033226628554984927e-04,2.025744179263710976e-04,1.603828713996335864e-04,1.235701638506725430e-04,9.961501928046345711e-05,5.144650276633910835e-05,6.833313818788155913e-05,6.565913645317777991e-05,1.147130169556476176e-04,9.817480167839676142e-05,9.618162584956735373e-05,3.804210791713558137e-05,6.322361296042799950e-04,2.664632163941860199e-03,3.586725099012255669e-03,4.268591292202472687e-03,4.498867783695459366e-03,4.231040365993976593e-03,4.268448799848556519e-03,2.985844388604164124e-03,1.857184572145342827e-03,1.590720610693097115e-03,1.718770014122128487e-03,2.060358412563800812e-03,1.589654595591127872e-03,1.496073789894580841e-03,1.733082346618175507e-03,1.755931181833148003e-03,1.750860712490975857e-03,1.766743836924433708e-03,1.855519949458539486e-03,1.730202697217464447e-03,1.712161349132657051e-03,9.994937572628259659e-04,4.768620710819959641e-04,1.239528995938599110e-03,2.078054007142782211e-03,3.050916595384478569e-03,3.534965682774782181e-03,4.003506619483232498e-03,3.570998553186655045e-03,1.259622862562537193e-03,5.250243120826780796e-04,3.645269898697733879e-04,8.571106009185314178e-04,1.241414342075586319e-03,1.308957464061677456e-03,1.211879309266805649e-03,5.205437773838639259e-04,9.617159957997500896e-05,-1.407681847922503948e-04,-1.580817333888262510e-04,1.066259665094548836e-05,3.926774952560663223e-04,7.224761648103594780e-04,3.071388928219676018e-04,1.210805858136154711e-04,4.502912051975727081e-04,9.102692129090428352e-04,1.277526724152266979e-03,1.048739301040768623e-03,5.453537451103329659e-04,-1.718632120173424482e-04,-5.272506969049572945e-04,-7.488463306799530983e-04,-7.438080501742660999e-04,-7.853981223888695240e-04,-9.665071847848594189e-04,-1.044370816089212894e-03,-9.398430702276527882e-04,-5.711563862860202789e-04,5.604842954198829830e-05,6.974600255489349365e-04,9.931514505296945572e-04,7.421156042255461216e-04,3.579627955332398415e-04,2.477855014149099588e-04,2.942722640000283718e-04,2.980143181048333645e-04,4.419297038111835718e-04,2.987681946251541376e-04,2.336139732506126165e-04,1.436551829101517797e-04,8.850883023114874959e-05
-9.394374501425772905e-05,-7.501766231143847108e-05,4.921806976199150085e-06,9.873721137410029769e-05,2.539732377044856548e-04,3.687334829010069370e-04,3.197482728864997625e-04,2.640503807924687862e-04,1.593002525623887777e-04,3.862513767671771348e-05,-1.170444447780027986e-04,-2.916349912993609905e-04,-4.595952632371336222e-04,-4.526394477579742670e-04,-3.361801791470497847e-04,-2.362138620810583234e-04,-1.560606324346736073e-04,-1.429469557479023933e-04,-1.226630265591666102e-04,-1.573245972394943237e-04,-1.706321199890226126e-04,-1.754085242282599211e-04,-2.008303563343361020e-04,-2.282706554979085922e-04,-2.612425596453249454e-04,-3.027128987014293671e-04,-3.484160115476697683e-04,-3.989592078141868114e-04,-4.759663715958595276e-04,-5.529264453798532486e-04,-6.290526362136006355e-04,-6.684274412691593170e-04,-5.922925192862749100e-04,-3.451778029557317495e-04,-6.946572830202057958e-05,2.077186945825815201e-04,4.633921780623495579e-04,6.718818331137299538e-04,6.451209774240851402e-04,6.289124721661210060e-04,6.396007956936955452e-04,6.683337851427495480e-04,5.905451253056526184e-04,4.249248304404318333e-04,1.511763402959331870e-04,-5.374719694373197854e-05,-2.663840423338115215e-04,-3.184166853316128254e-04,-2.719635376706719398e-04,-2.242484188172966242e-04,-2.407249121461063623e-04,-2.868238952942192554e-04,-3.418691339902579784e-04,-4.250598722137510777e-04,-4.222269635647535324e-04,-3.755075449589639902e-04,-3.263330145273357630e-04,-3.092288970947265625e-04,-3.107414522673934698e-04,-3.248118737246841192e-04,-2.992318477481603622e-04,-3.064255288336426020e-04,-3.721928223967552185e-04,-4.042519722133874893e-04,-4.291702643968164921e-04,-4.201449337415397167e-04,-3.900608571711927652e-04,-4.298041458241641521e-04,-4.807160585187375546e-04,-4.941876977682113647e-04,-5.076440866105258465e-04,-4.543500836007297039e-04,-3.838804841507226229e-04,-3.486528876237571239e-04,-3.312210028525441885e-04,-3.402028232812881470e-04,-3.821582649834454060e-04,-4.136705247219651937e-04,-4.100243677385151386e-04,-4.269758646842092276e-04,-4.256236425135284662e-04,-4.307740309741348028e-04,-4.551190068013966084e-04,-4.609181487467139959e-04,-4.673471557907760143e-04,-4.705002938862890005e-04,-4.561535024549812078e-04,-4.519633948802947998e-04,-4.484456148929893970e-04,-4.362186300568282604e-04,-4.312680684961378574e-04,-4.233192594256252050e-04,-4.212648491375148296e-04,-4.114368057344108820e-04,-3.944026248063892126e-04,-3.762608394026756287e-04,-3.574900911189615726e-04,-3.322768607176840305e-04,-3.126827650703489780e-04,-3.117078449577093124e-04,-3.172802389599382877e-04,-3.322606789879500866e-04,-3.479563165456056595e-04,-3.683215472847223282e-04,-3.804356674663722515e-04,-4.031146818306297064e-04,-4.253647348377853632e-04,-4.380502214189618826e-04,-4.484822566155344248e-04,-4.555441555567085743e-04,-4.610645992215722799e-04,-4.557681386359035969e-04,-4.558416549116373062e-04,-4.575273487716913223e-04,-4.505613760557025671e-04,-4.501688235905021429e-04,-4.580610548146069050e-04,-4.677889519371092319e-04,-4.755043482873588800e-04,-4.774082335643470287e-04,-4.900171188637614250e-04,-5.000279052183032036e-04,-5.063518183305859566e-04,-5.179426516406238079e-04,-5.324243102222681046e-04,-5.527873290702700615e-04,-5.647923680953681469e-04,-5.827079876326024532e-04,-5.947183235548436642e-04,-5.704884533770382404e-04,-5.196362035349011421e-04,-4.523977695498615503e-04,-3.886077029164880514e-04,-3.501667524687945843e-04,-3.275272320024669170e-04,-3.142123750876635313e-04,-2.945358864963054657e-04,-3.036556881852447987e-04,-3.613695444073528051e-04,-4.591273027472198009e-04,-5.483236163854598999e-04,-5.908268503844738007e-04,-6.292244070209562778e-04,-6.168306572362780571e-04,-5.635182606056332588e-04,-4.881685017608106136e-04,-3.707230498548597097e-04,-2.199735026806592941e-04,-3.757241574930958450e-05,1.315030531259253621e-04,2.817133208736777306e-04,3.783982247114181519e-04,4.471647553145885468e-04,4.872527788393199444e-04,4.900761996395885944e-04,4.349426308181136847e-04,3.665486001409590244e-04,3.450524236541241407e-04,3.356912056915462017e-04,4.251050413586199284e-04,4.404304490890353918e-04,5.651934188790619373e-04,7.192658376879990101e-04,6.503062322735786438e-04,6.426898762583732605e-04,5.975157255306839943e-04,5.498506361618638039e-04,4.759692237712442875e-04,3.601985517889261246e-04,1.941877999342978001e-04,4.062870721099898219e-05,-1.014738008962012827e-04,-2.396035415586084127e-04,-3.853204834740608931e-04,-5.055907531641423702e-04,-6.009308272041380405e-04,-6.890802178531885147e-04,-7.831663824617862701e-04,-8.726019295863807201e-04,-8.976612007245421410e-04,-9.284778498113155365e-04,-9.307918953709304333e-04,-8.989836787804961205e-04,-8.807486738078296185e-04,-8.376862970180809498e-04,-8.128772606141865253e-04,-7.833050331100821495e-04,-7.704180898144841194e-04,-7.774333353154361248e-04,-8.015923085622489452e-04,-8.335437742061913013e-04,-8.932912605814635754e-04,-9.190601413138210773e-04,-9.574851137585937977e-04,-9.814307559281587601e-04,-1.003081677481532097e-03,-9.911300148814916611e-04,-1.002745470032095909e-03,-8.993512019515037537e-04,-8.427990833297371864e-04,-8.726801606826484203e-04,-7.893818547017872334e-04,-7.160009699873626232e-04,-6.392559735104441643e-04,-5.762794171459972858e-04,-5.099975969642400742e-04,-4.484471282921731472e-04,-3.702121612150222063e-04,-3.307047300040721893e-04,-2.896252262871712446e-04,-2.510538615752011538e-04,-2.289358963025733829e-04,-2.086863823933526874e-04,-1.830756955314427614e-04,-1.401584013365209103e-04,-9.696915367385372519e-05,-4.616858132067136467e-05,1.498344317951705307e-05,8.550970233045518398e-05,1.648952602408826351e-04,2.452561166137456894e-04,3.303616249468177557e-04,4.119736258871853352e-04,4.887217073701322079e-04,5.634006811305880547e-04,5.961115239188075066e-04,6.785629084333777428e-04,7.371690007857978344e-04,7.668348844163119793e-04,7.829757523722946644e-04,8.184271864593029022e-04,8.635241538286209106e-04,8.828548598103225231e-04,8.738376200199127197e-04,9.285904234275221825e-04,8.894160273484885693e-04,8.381696534343063831e-04,8.565631578676402569e-04,8.602180751040577888e-04,8.488154271617531776e-04,8.257362060248851776e-04,7.922026561573147774e-04,7.388574304059147835e-04,6.824965821579098701e-04,6.454518297687172890e-04,6.195591995492577553e-04,6.173377623781561852e-04,6.097957375459372997e-04,5.899085081182420254e-04,5.987971089780330658e-04,5.744706722907721996e-04,5.833842442370951176e-04,5.829667788930237293e-04,5.885040154680609703e-04,5.903975688852369785e-04,5.748143885284662247e-04,5.735067534260451794e-04,5.573650123551487923e-04,5.388264544308185577e-04,5.271327099762856960e-04,4.700258432421833277e-04,4.277555854059755802e-04,3.828697954304516315e-04,3.316839574836194515e-04,2.680312900338321924e-04,2.035910292761400342e-04,1.427102397428825498e-04,6.791869236622005701e-05,2.841668901965022087e-06,-5.834116745973005891e-05,-1.095273182727396488e-04,-1.546683197375386953e-04,-1.910791615955531597e-04,-2.138697018381208181e-04,-2.343057713005691767e-04,-2.371196460444480181e-04,-2.436976938042789698e-04,-2.456872025504708290e-04,-2.456681977491825819e-04,-2.394043840467929840e-04,-2.246297226520255208e-04,-2.010574098676443100e-04,-1.619617396499961615e-04,-1.039299531839787960e-04,-2.389609835518058389e-05,7.555312913609668612e-05,1.952818856807425618e-04,3.168242692481726408e-04,4.144795238971710205e-04,5.488320020958781242e-04,6.404290907084941864e-04,6.533982814289629459e-04,7.000693585723638535e-04,6.629029521718621254e-04,6.807612953707575798e-04,6.173900328576564789e-04,5.872173933312296867e-04,6.319400854408740997e-04,6.214018794707953930e-04,6.560287438333034515e-04,6.953500560484826565e-04,6.835827371105551720e-04,6.950804963707923889e-04,6.693144096061587334e-04,5.743015790358185768e-04,4.987346474081277847e-04,3.889985091518610716e-04,2.416575589450076222e-04,9.847385808825492859e-05,-3.662038216134533286e-05,-1.747772621456533670e-04,-2.982298901770263910e-04,-4.168050363659858704e-04,-5.511072231456637383e-04,-6.496988935396075249e-04,-7.557722274214029312e-04,-8.451293106190860271e-04,-9.160397457890212536e-04,-9.878262644633650780e-04,-1.021717092953622341e-03,-1.043391181156039238e-03,-1.048459438607096672e-03,-1.045946730300784111e-03,-1.021568314172327518e-03,-9.652058361098170280e-04,-8.731120033189654350e-04,-7.717023254372179508e-04,-6.230710423551499844e-04,-4.276265390217304230e-04,-2.458947419654577971e-04,-6.852329534012824297e-05,9.377977403346449137e-05,1.992962788790464401e-04,2.722979988902807236e-04,2.999154385179281235e-04,2.261416520923376083e-04,2.201605529990047216e-04,2.418494259472936392e-04,2.513367799110710621e-04,2.823201357387006283e-04,2.412524336250498891e-04,1.240183628397062421e-04,-1.575166788825299591e-05,-1.926521508721634746e-04,-3.567589737940579653e-04,-5.004978738725185394e-04,-6.431372603401541710e-04,-7.604887359775602818e-04,-7.947461563162505627e-04,-8.517518872395157814e-04,-8.951608906500041485e-04,-8.803688106127083302e-04,-8.713981951586902142e-04,-8.551854407414793968e-04,-7.942224619910120964e-04,-7.541052182205021381e-04,-6.874221144244074821e-04,-5.727749667130410671e-04,-4.666702880058437586e-04,-3.410100180190056562e-04,-2.216091088484972715e-04,-9.428417251911014318e-05,1.041348423314047977e-05,1.002772260108031332e-04,1.537584612378850579e-04,1.886105455923825502e-04,2.135189715772867203e-04,2.158907300326973200e-04,2.055662189377471805e-04,1.826257503125816584e-04,1.367025834042578936e-04,8.245062781497836113e-05,1.304183933825697750e-05,-9.187405521515756845e-05,-2.144769823644310236e-04,-3.308393352199345827e-04,-4.518202913459390402e-04,-5.200130399316549301e-04,-5.370704457163810730e-04,-5.317555624060332775e-04,-4.449913394637405872e-04,-3.388831974007189274e-04,-2.348036068724468350e-04,-1.734304532874375582e-04,-1.619846589164808393e-04,-2.101112622767686844e-04,-3.063971234951168299e-04,-4.224691947456449270e-04,-5.367150297388434410e-04,-6.214916938915848732e-04,-6.555119762197136879e-04,-5.965888267382979393e-04,-5.723588401451706886e-04,-5.063853459432721138e-04,-4.274045932106673717e-04,-3.737570950761437416e-04,-3.170443524140864611e-04,-2.615692501422017813e-04,-2.062741841655224562e-04,-1.482335646869614720e-04,-7.789273513481020927e-05,1.137098252002033405e-06,9.032199886860325933e-05,1.822180638555437326e-04,2.837394713424146175e-04,3.636002948042005301e-04,4.369695088826119900e-04,5.446790019050240517e-04,5.975265521556138992e-04,6.810886552557349205e-04,7.974383188411593437e-04,8.456163341179490089e-04,8.732336573302745819e-04,8.972628857009112835e-04,9.426842443645000458e-04,9.500030428171157837e-04,8.452397887594997883e-04,8.030853932723402977e-04,7.462535868398845196e-04,6.665128166787326336e-04,5.333165754564106464e-04,4.133276524953544140e-04,3.410440986044704914e-04,2.257847663713619113e-04,1.763567561283707619e-04,1.306617050431668758e-04,6.241552910069003701e-05,2.037987542280461639e-05,-7.239201659103855491e-05,-1.734823599690571427e-04,-2.828958386089652777e-04,-3.687352000270038843e-04,-3.168894618283957243e-04,1.984184636967256665e-04,1.064397045411169529e-03,2.682377351447939873e-03,3.865850623697042465e-03,4.994510207325220108e-03,4.328682553023099899e-03,3.396493149921298027e-03,2.508703619241714478e-03,1.576923183165490627e-03,6.907295319251716137e-04,-8.686728542670607567e-04,-2.329247538000345230e-03,-3.727288451045751572e-03,-4.684214945882558823e-03,-5.348494742065668106e-03,-5.419584922492504120e-03,-4.450555425137281418e-03,-3.348249942064285278e-03,-2.210035920143127441e-03,-1.619805349037051201e-03,-3.069571219384670258e-03,-5.926152225583791733e-03,-9.115325286984443665e-03,-1.071940641850233078e-02,-9.170380420982837677e-03,-6.343656219542026520e-03,-3.194251563400030136e-03,-7.218151004053652287e-04,-1.467484107706695795e-04,-2.881847904063761234e-04,-2.367856213822960854e-04,-5.238662561168894172e-05,2.444923447910696268e-04,5.609734216704964638e-04,5.865567363798618317e-04,5.475573707371950150e-04,6.760379765182733536e-04,6.860385765321552753e-04,1.219625817611813545e-03,1.811389112845063210e-03,1.599814975634217262e-03,9.312269394285976887e-04,2.091338392347097397e-04,-1.428449468221515417e-04,-2.599147555883973837e-04,-3.179698251187801361e-04,-4.425144288688898087e-04,-5.243779160082340240e-04,-5.759348860010504723e-04,-6.028208881616592407e-04,-6.281072273850440979e-04,-6.201667711138725281e-04,-5.951138446107506752e-04,-5.251370603218674660e-04,-4.673157236538827419e-04,-4.251533246133476496e-04,-4.368232912383973598e-04,-4.647150635719299316e-04,-4.642997810151427984e-04,-4.563207621686160564e-04,-4.156726354267448187e-04,-3.407116746529936790e-04,-2.857079671230167150e-04,-3.094128915108740330e-04,-2.234135754406452179e-04,-1.617864181753247976e-04,-9.668974962551146746e-05
1.069484627805650234e-03,1.729112351313233376e-03,2.311281859874725342e-03,3.142056521028280258e-03,4.428711719810962677e-03,5.200342740863561630e-03,5.074521526694297791e-03,5.191846285015344620e-03,4.674599040299654007e-03,4.489420913159847260e-03,4.982617218047380447e-03,6.271952297538518906e-03,8.486625738441944122e-03,1.015231478959321976e-02,1.153228152543306351e-02,1.353916246443986893e-02,1.460633426904678345e-02,1.495823264122009277e-02,1.481194607913494110e-02,1.417842973023653030e-02,1.310629863291978836e-02,1.195309869945049286e-02,1.091801002621650696e-02,1.030173245817422867e-02,1.019166130572557449e-02,1.035908050835132599e-02,1.109367888420820236e-02,1.192918233573436737e-02,1.245201565325260162e-02,1.278436742722988129e-02,1.268633641302585602e-02,1.168295461684465408e-02,9.781429544091224670e-03,8.000643923878669739e-03,6.061433814465999603e-03,4.999226890504360199e-03,4.257908556610345840e-03,3.425999078899621964e-03,3.733775112777948380e-03,3.768126713111996651e-03,3.619540482759475708e-03,2.026255009695887566e-03,8.592248195782303810e-04,7.627569139003753662e-04,1.197423553094267845e-03,2.602838678285479546e-03,3.010058775544166565e-03,2.744740573689341545e-03,2.280396874994039536e-03,2.410749671980738640e-03,2.988925669342279434e-03,4.451166838407516479e-03,5.409969016909599304e-03,5.813887808471918106e-03,6.049867719411849976e-03,6.296977400779724121e-03,5.019928794354200363e-03,2.911402843892574310e-03,1.021226635202765465e-03,-1.235104864463210106e-03,-3.106167074292898178e-03,-4.889388568699359894e-03,-6.705886218696832657e-03,-8.877160027623176575e-03,-1.119442936033010483e-02,-1.320715434849262238e-02,-1.471919752657413483e-02,-1.546474732458591461e-02,-1.518515311181545258e-02,-1.395657192915678024e-02,-1.255564950406551361e-02,-1.073582936078310013e-02,-9.085433557629585266e-03,-7.978795096278190613e-03,-6.245626602321863174e-03,-4.398250021040439606e-03,-3.547552507370710373e-03,-3.212284995242953300e-03,-3.255412448197603226e-03,-3.306487575173377991e-03,-3.637380432337522507e-03,-3.846650943160057068e-03,-3.743134904652833939e-03,-3.862144425511360168e-03,-3.892168868333101273e-03,-3.690375480800867081e-03,-3.472020383924245834e-03,-3.405425697565078735e-03,-3.194699063897132874e-03,-3.212239127606153488e-03,-3.258043900132179260e-03,-3.335565328598022461e-03,-3.859067335724830627e-03,-4.663174040615558624e-03,-5.794945638626813889e-03,-6.922441069036722183e-03,-7.856753654778003693e-03,-8.744946680963039398e-03,-9.407755918800830841e-03,-9.924156591296195984e-03,-1.026483811438083649e-02,-1.047260686755180359e-02,-1.077384222298860550e-02,-1.104944664984941483e-02,-1.120940409600734711e-02,-1.132409460842609406e-02,-1.144497282803058624e-02,-1.142070069909095764e-02,-1.143901329487562180e-02,-1.132520008832216263e-02,-1.100697834044694901e-02,-1.079252269119024277e-02,-1.051441766321659088e-02,-1.013749558478593826e-02,-9.589749388396739960e-03,-9.115861728787422180e-03,-8.434792980551719666e-03,-7.692195475101470947e-03,-7.068874780088663101e-03,-6.352256983518600464e-03,-5.573303438723087311e-03,-4.858023021370172501e-03,-4.156825132668018341e-03,-3.363154362887144089e-03,-2.627809997648000717e-03,-1.973589882254600525e-03,-1.410565106198191643e-03,-9.005736792460083961e-04,-5.572281079366803169e-04,-4.773080872837454081e-04,-7.056231843307614326e-04,-1.211780123412609100e-03,-1.896589645184576511e-03,-2.701980760321021080e-03,-3.511292859911918640e-03,-4.332497715950012207e-03,-4.985644482076168060e-03,-5.415078718215227127e-03,-5.481076426804065704e-03,-5.240640603005886078e-03,-4.957714583724737167e-03,-4.387644585222005844e-03,-3.882264019921422005e-03,-3.452071920037269592e-03,-3.070398466661572456e-03,-2.842437010258436203e-03,-2.557177329435944557e-03,-2.357461722567677498e-03,-2.253930550068616867e-03,-2.152778673917055130e-03,-2.133505418896675110e-03,-2.087448723614215851e-03,-2.014712663367390633e-03,-2.005175221711397171e-03,-1.933798426762223244e-03,-1.847065403126180172e-03,-1.775656593963503838e-03,-1.697120838798582554e-03,-1.589562511071562767e-03,-1.462851651012897491e-03,-1.364515163004398346e-03,-1.250754925422370434e-03,-1.149370800703763962e-03,-9.897664422169327736e-04,-8.064194698818027973e-04,-6.426922045648097992e-04,-4.299275169614702463e-04,-2.104477462125942111e-04,2.336663965252228081e-05,2.379680081503465772e-04,3.920097369700670242e-04,3.967794182244688272e-04,2.460062969475984573e-04,-8.696224540472030640e-06,-3.483176114968955517e-04,-7.058646879158914089e-04,-1.086795702576637268e-03,-1.371405785903334618e-03,-1.564418547786772251e-03,-1.635472872294485569e-03,-1.474910997785627842e-03,-1.176997553557157516e-03,-8.605247130617499352e-04,-4.982728278264403343e-04,-1.471160940127447248e-04,1.792891853256151080e-04,4.567046999000012875e-04,6.591112469322979450e-04,8.845372358337044716e-04,1.075624604709446430e-03,1.236660638824105263e-03,1.399084227159619331e-03,1.473461044952273369e-03,1.460573519580066204e-03,1.400786219164729118e-03,1.426895731128752232e-03,1.441568136215209961e-03,1.500600948929786682e-03,1.498510828241705894e-03,1.480170874856412411e-03,1.510106259956955910e-03,1.515024458058178425e-03,1.568095176480710506e-03,1.507382141426205635e-03,1.516023185104131699e-03,1.659082481637597084e-03,1.546969404444098473e-03,1.480495906434953213e-03,1.518290024250745773e-03,1.386340474709868431e-03,1.350012025795876980e-03,1.293456181883811951e-03,1.188707188703119755e-03,1.101817004382610321e-03,9.976337896659970284e-04,8.593075908720493317e-04,7.804966298863291740e-04,6.877159466966986656e-04,5.550443311221897602e-04,4.389880341477692127e-04,3.289973537903279066e-04,2.166326594306156039e-04,1.045961398631334305e-04,-5.775690169684821740e-06,-1.190521725220605731e-04,-2.469251048751175404e-04,-3.779640828724950552e-04,-5.554184899665415287e-04,-7.234587101265788078e-04,-9.087493526749312878e-04,-1.085269614122807980e-03,-1.264963299036026001e-03,-1.481938525103032589e-03,-1.547880005091428757e-03,-1.553571200929582119e-03,-1.541342586278915405e-03,-1.480778679251670837e-03,-1.360499416477978230e-03,-1.189583563245832920e-03,-1.016434282064437866e-03,-8.231665706261992455e-04,-6.271256133913993835e-04,-4.437669122125953436e-04,-2.642605977598577738e-04,-1.023911390802823007e-04,4.066037945449352264e-05,1.692895748419687152e-04,2.787564590107649565e-04,3.802924766205251217e-04,4.443365032784640789e-04,5.394560284912586212e-04,6.228949641808867455e-04,6.346912123262882233e-04,6.975277210585772991e-04,7.523413514718413353e-04,7.582012331113219261e-04,7.839050958864390850e-04,8.148598717525601387e-04,8.490478503517806530e-04,8.581485599279403687e-04,9.015328250825405121e-04,9.661847725510597229e-04,1.018102862872183323e-03,1.042791642248630524e-03,1.101069501601159573e-03,1.183461397886276245e-03,1.199301565065979958e-03,1.189387287013232708e-03,1.206874265335500240e-03,1.289560575969517231e-03,1.370134181343019009e-03,1.394921564497053623e-03,1.340643968433141708e-03,1.277830451726913452e-03,1.426560455001890659e-03,1.510764821432530880e-03,1.410517492331564426e-03,1.396996551193296909e-03,1.504975953139364719e-03,1.515861251391470432e-03,1.468539470806717873e-03,1.529668341390788555e-03,1.644000061787664890e-03,1.570488908328115940e-03,1.564598642289638519e-03,1.728738658130168915e-03,1.704750815406441689e-03,1.879734219983220100e-03,1.955913379788398743e-03,1.654749037697911263e-03,1.686575240455567837e-03,1.687193987891077995e-03,1.643333933316171169e-03,1.687643700279295444e-03,1.723995083011686802e-03,1.686049276031553745e-03,1.732904114760458469e-03,1.686594448983669281e-03,1.759947277605533600e-03,1.808878732845187187e-03,1.634605228900909424e-03,1.616240711882710457e-03,1.615693559870123863e-03,1.647196477279067039e-03,1.686019822955131531e-03,1.673898426815867424e-03,1.667297678068280220e-03,1.551328809000551701e-03,1.469309441745281219e-03,1.524117309600114822e-03,1.506959437392652035e-03,1.527462154626846313e-03,1.407055766321718693e-03,1.399499597027897835e-03,1.475381548516452312e-03,1.408861484378576279e-03,1.295904628932476044e-03,1.309468061663210392e-03,1.188108930364251137e-03,1.260191434994339943e-03,1.430433243513107300e-03,1.104784663766622543e-03,1.081629889085888863e-03,1.028543920256197453e-03,9.348487365059554577e-04,8.057104423642158508e-04,5.883489502593874931e-04,3.225389227736741304e-04,7.118903886293992400e-05,-1.660320849623531103e-04,-3.353987412992864847e-04,-4.577924846671521664e-04,-5.770743009634315968e-04,-5.959346890449523926e-04,-6.674050237052142620e-04,-6.738230003975331783e-04,-5.235780263319611549e-04,-5.802785744890570641e-04,-7.566668791696429253e-04,-1.082852948457002640e-03,-1.461759791709482670e-03,-1.859685406088829041e-03,-2.240662463009357452e-03,-2.721804194152355194e-03,-3.193126991391181946e-03,-3.656275104731321335e-03,-4.118048585951328278e-03,-4.372301511466503143e-03,-4.607144743204116821e-03,-4.820723086595535278e-03,-4.879232030361890793e-03,-4.686870612204074860e-03,-4.458875395357608795e-03,-4.075977019965648651e-03,-3.605606500059366226e-03,-3.222526982426643372e-03,-2.806056989356875420e-03,-2.429207321256399155e-03,-2.139327581971883774e-03,-1.884809928014874458e-03,-1.703759306110441685e-03,-1.569063169881701469e-03,-1.429002732038497925e-03,-1.333007821813225746e-03,-1.224149251356720924e-03,-1.117271021939814091e-03,-1.040759147144854069e-03,-9.682402014732360840e-04,-9.481262532062828541e-04,-9.480247390456497669e-04,-9.525933419354259968e-04,-9.758796659298241138e-04,-9.800298139452934265e-04,-1.070437021553516388e-03,-1.217202981933951378e-03,-1.352143590338528156e-03,-1.513578114099800587e-03,-1.681479974649846554e-03,-1.809737412258982658e-03,-1.971247605979442596e-03,-2.123345620930194855e-03,-2.211042214184999466e-03,-2.323206281289458275e-03,-2.411450957879424095e-03,-2.526686992496252060e-03,-2.642703475430607796e-03,-2.799676265567541122e-03,-3.058968344703316689e-03,-3.323889803141355515e-03,-3.694667015224695206e-03,-4.025298170745372772e-03,-4.366672597825527191e-03,-4.728264175355434418e-03,-5.201208870857954025e-03,-5.576632451266050339e-03,-5.873323418200016022e-03,-6.190628279000520706e-03,-6.232073996216058731e-03,-6.308103445917367935e-03,-6.281656213104724884e-03,-5.908081773668527603e-03,-5.390846170485019684e-03,-4.697090946137905121e-03,-3.755272831767797470e-03,-2.735458547249436378e-03,-1.867571845650672913e-03,-1.213860581628978252e-03,-1.178862294182181358e-03,-1.647379598580300808e-03,-2.494329353794455528e-03,-3.261646721512079239e-03,-3.590828506276011467e-03,-3.584569320082664490e-03,-4.932640586048364639e-03,-7.544860243797302246e-03,-8.000645786523818970e-03,-5.644036922603845596e-03,-9.917438728734850883e-04,7.744332542642951012e-04,3.878135699778795242e-03,5.603210069239139557e-03,1.174445636570453644e-02,1.426312141120433807e-02,1.568189449608325958e-02,1.747464016079902649e-02,1.622826233506202698e-02,1.285048760473728180e-02,8.871746249496936798e-03,4.017396830022335052e-03,6.904881447553634644e-04,-8.078817045316100121e-04,-1.333497464656829834e-03,-5.456268554553389549e-04,9.113535052165389061e-04,4.627001471817493439e-03,8.275151252746582031e-03,1.164835039526224136e-02,1.460119802504777908e-02,1.602737233042716980e-02,1.246311794966459274e-02,8.259860798716545105e-03,5.409384611994028091e-03,5.564081016927957535e-03,1.180779188871383667e-02,1.410578750073909760e-02,1.371794659644365311e-02,1.231079734861850739e-02,7.585442159324884415e-03,6.165196653455495834e-03,4.718421958386898041e-03,3.965232521295547485e-03,3.383825765922665596e-03,2.875142963603138924e-03,7.758176070638000965e-04,-4.622833803296089172e-04,-1.307565136812627316e-03,-1.890682033263146877e-03,-2.148015657439827919e-03,-2.200114075094461441e-03,-2.239635447040200233e-03,-2.442423021420836449e-03,-2.994829323142766953e-03,-3.474976168945431709e-03,-3.154157893732190132e-03,-2.660288941115140915e-03,-2.618023194372653961e-03,-2.956590615212917328e-03,-3.196903970092535019e-03,-3.297538962215185165e-03,-3.143609967082738876e-03,-3.107135649770498276e-03,-3.418138949200510979e-03,-4.318733699619770050e-03,-4.919271916151046753e-03,-5.171505268663167953e-03,-5.731652490794658661e-03,-6.126434542238712311e-03,-6.555466447025537491e-03,-7.212299853563308716e-03,-8.583707734942436218e-03,-1.106536388397216797e-02,-1.264535915106534958e-02,-1.158775202929973602e-02,-9.519760496914386749e-03,-5.743769928812980652e-03,-4.512494429945945740e-03,-4.003821406513452530e-03,-3.370228456333279610e-03,-2.372161019593477249e-03,-8.846581913530826569e-04,4.595057980623096228e-04,2.201215364038944244e-03,3.982482943683862686e-03,4.966330714523792267e-03,5.715921986848115921e-03,5.151769146323204041e-03,4.838098771870136261e-03,3.532284405082464218e-03,2.319727092981338501e-03,9.989223908632993698e-04
-6.296887993812561035e-03,-7.460337132215499878e-03,-7.624329067766666412e-03,-7.750307209789752960e-03,-7.360024843364953995e-03,-5.103898700326681137e-03,-3.113651182502508163e-03,-8.058139937929809093e-04,2.916814992204308510e-03,5.741852335631847382e-03,9.738001972436904907e-03,1.261625625193119049e-02,1.429977826774120331e-02,1.527414284646511078e-02,1.622564345598220825e-02,1.696792244911193848e-02,1.696702279150485992e-02,1.674819737672805786e-02,1.611577533185482025e-02,1.564002409577369690e-02,1.516544260084629059e-02,1.479252148419618607e-02,1.400334667414426804e-02,1.341786980628967285e-02,1.283599715679883957e-02,1.215436216443777084e-02,1.183136086910963058e-02,1.164511777460575104e-02,1.161263324320316315e-02,1.142524648457765579e-02,1.093913428485393524e-02,1.015367731451988220e-02,9.629530832171440125e-03,9.431863203644752502e-03,7.162751164287328720e-03,2.935783239081501961e-03,-9.989530080929398537e-04,-5.958616267889738083e-03,-7.778233382850885391e-03,-8.394317701458930969e-03,-7.927909493446350098e-03,-7.676211185753345490e-03,-8.694646880030632019e-03,-7.683301810175180435e-03,-6.757057271897792816e-03,-5.200271960347890854e-03,-3.150770906358957291e-03,1.103612943552434444e-03,5.539045669138431549e-03,7.601923309266567230e-03,8.454388007521629333e-03,7.650636136531829834e-03,4.535208456218242645e-03,4.713945090770721436e-04,-3.493997501209378242e-03,-6.308251526206731796e-03,-8.161405101418495178e-03,-9.334942325949668884e-03,-9.943932294845581055e-03,-9.872992523014545441e-03,-1.027282141149044037e-02,-1.044517569243907928e-02,-1.064200606197118759e-02,-1.083868462592363358e-02,-1.064487639814615250e-02,-1.113144867122173309e-02,-1.250104326754808426e-02,-1.423293631523847580e-02,-1.608359254896640778e-02,-1.800062879920005798e-02,-1.884218677878379822e-02,-1.972497068345546722e-02,-2.009557187557220459e-02,-1.996473968029022217e-02,-1.865823939442634583e-02,-1.809164509177207947e-02,-1.823069714009761810e-02,-1.888814568519592285e-02,-1.959490403532981873e-02,-2.023237571120262146e-02,-2.101447805762290955e-02,-2.214964106678962708e-02,-2.297134138643741608e-02,-2.278824150562286377e-02,-2.241137437522411346e-02,-2.191645838320255280e-02,-2.026613801717758179e-02,-1.869618333876132965e-02,-1.723438687622547150e-02,-1.469719596207141876e-02,-1.323173008859157562e-02,-1.276390720158815384e-02,-1.326283812522888184e-02,-1.483204774558544159e-02,-1.698423922061920166e-02,-1.905912719666957855e-02,-2.082177065312862396e-02,-2.216405235230922699e-02,-2.353796362876892090e-02,-2.382111549377441406e-02,-2.329589985311031342e-02,-2.294782921671867371e-02,-2.204687520861625671e-02,-2.085050381720066071e-02,-1.937854103744029999e-02,-1.862419024109840393e-02,-1.777799800038337708e-02,-1.675964891910552979e-02,-1.613773964345455170e-02,-1.526095904409885406e-02,-1.337354164570569992e-02,-1.307451445609331131e-02,-1.292487047612667084e-02,-1.252806372940540314e-02,-1.260710693895816803e-02,-1.269282959401607513e-02,-1.341164670884609222e-02,-1.419547386467456818e-02,-1.489713229238986969e-02,-1.549105346202850342e-02,-1.605018042027950287e-02,-1.637082919478416443e-02,-1.607724651694297791e-02,-1.567337289452552795e-02,-1.522691268473863602e-02,-1.407957542687654495e-02,-1.304826606065034866e-02,-1.229878515005111694e-02,-1.166033092886209488e-02,-1.078574173152446747e-02,-1.012850459665060043e-02,-1.010377146303653717e-02,-9.536614641547203064e-03,-9.469574317336082458e-03,-9.570671245455741882e-03,-9.396328590810298920e-03,-9.526289068162441254e-03,-9.143913164734840393e-03,-9.058833122253417969e-03,-8.546365424990653992e-03,-7.724843919277191162e-03,-7.100911345332860947e-03,-6.027243100106716156e-03,-4.763661418110132217e-03,-3.011757973581552505e-03,-1.107542775571346283e-03,1.080386573448777199e-03,3.397886175662279129e-03,5.724669899791479111e-03,7.594018243253231049e-03,9.741251356899738312e-03,1.130845397710800171e-02,1.263098884373903275e-02,1.367795187979936600e-02,1.460340339690446854e-02,1.540311239659786224e-02,1.465245522558689117e-02,1.551724411547183990e-02,1.492369174957275391e-02,1.485921721905469894e-02,1.526143960654735565e-02,1.515723764896392822e-02,2.152495086193084717e-02,1.523146312683820724e-02,1.413259189575910568e-02,1.706430502235889435e-02,1.544127799570560455e-02,1.587409898638725281e-02,1.522952876985073090e-02,1.551418565213680267e-02,1.616342738270759583e-02,1.480230968445539474e-02,1.396315358579158783e-02,1.376139186322689056e-02,1.321806479245424271e-02,1.217174436897039413e-02,1.102316752076148987e-02,9.765146300196647644e-03,7.196283433586359024e-03,4.645928740501403809e-03,2.149898558855056763e-03,-3.289846354164183140e-04,-2.636621473357081413e-03,-4.554730840027332306e-03,-6.199398543685674667e-03,-7.117794360965490341e-03,-8.048252202570438385e-03,-8.717523887753486633e-03,-9.331954643130302429e-03,-1.004194188863039017e-02,-9.821563959121704102e-03,-1.015920471400022507e-02,-1.046464033424854279e-02,-1.022374257445335388e-02,-1.022898219525814056e-02,-1.008208468556404114e-02,-1.031356118619441986e-02,-1.042828988283872604e-02,-1.071707345545291901e-02,-1.138683222234249115e-02,-1.199424732476472855e-02,-1.236082054674625397e-02,-1.309966482222080231e-02,-1.381625793874263763e-02,-1.473017781972885132e-02,-1.528352685272693634e-02,-1.593275740742683411e-02,-1.705171167850494385e-02,-1.746653392910957336e-02,-1.803177036345005035e-02,-1.855669543147087097e-02,-1.858750544488430023e-02,-1.866474188864231110e-02,-1.886124163866043091e-02,-1.869804784655570984e-02,-1.876519806683063507e-02,-1.886849291622638702e-02,-1.871215924620628357e-02,-1.886250264942646027e-02,-1.894178055226802826e-02,-1.893747411668300629e-02,-1.864967495203018188e-02,-1.862304471433162689e-02,-1.863042637705802917e-02,-1.856046169996261597e-02,-1.845639944076538086e-02,-1.775280013680458069e-02,-1.735614426434040070e-02,-1.684354804456233978e-02,-1.624301448464393616e-02,-1.569121517241001129e-02,-1.486394274979829788e-02,-1.422052364796400070e-02,-1.334302127361297607e-02,-1.275332551449537277e-02,-1.198098435997962952e-02,-1.123326551169157028e-02,-1.068699918687343597e-02,-1.058475673198699951e-02,-1.059176493436098099e-02,-1.019129343330860138e-02,-9.920316748321056366e-03,-1.005997322499752045e-02,-9.882917627692222595e-03,-9.376479312777519226e-03,-9.322206489741802216e-03,-9.364775381982326508e-03,-9.217632003128528595e-03,-8.723294362425804138e-03,-8.103278465569019318e-03,-7.512801792472600937e-03,-6.218558643013238907e-03,-4.971781279891729355e-03,-3.273667767643928528e-03,-1.351971877738833427e-03,7.513334276154637337e-04,3.076557070016860962e-03,5.622297525405883789e-03,7.442113012075424194e-03,9.118437767028808594e-03,1.124403066933155060e-02,1.273352652788162231e-02,1.348979212343692780e-02,1.362668443471193314e-02,1.392988115549087524e-02,1.437658071517944336e-02,1.471615396440029144e-02,1.521544717252254486e-02,1.492178160697221756e-02,1.497167162597179413e-02,1.483761053532361984e-02,1.529715023934841156e-02,1.462311763316392899e-02,1.433084625750780106e-02,1.473050378262996674e-02,1.544316392391920090e-02,1.638273894786834717e-02,1.645266637206077576e-02,1.629861071705818176e-02,1.567978784441947937e-02,1.462695281952619553e-02,1.424393523484468460e-02,1.509858947247266769e-02,1.528971455991268158e-02,1.463973335921764374e-02,1.488497294485569000e-02,1.438462734222412109e-02,1.305540092289447784e-02,1.183992438018321991e-02,1.040804386138916016e-02,9.104163385927677155e-03,7.682813797146081924e-03,6.140511948615312576e-03,4.471228457987308502e-03,2.889786381274461746e-03,1.257767202332615852e-03,-2.546344476286321878e-04,-1.531064044684171677e-03,-3.080066293478012085e-03,-4.799321293830871582e-03,-4.754726774990558624e-03,-5.644044373184442520e-03,-6.067859940230846405e-03,-6.720603909343481064e-03,-7.209221366792917252e-03,-7.450451608747243881e-03,-7.418467197567224503e-03,-7.723616901785135269e-03,-7.826657965779304504e-03,-8.077739737927913666e-03,-8.642345666885375977e-03,-8.763043209910392761e-03,-8.726598694920539856e-03,-8.748884312808513641e-03,-9.041245095431804657e-03,-9.034335613250732422e-03,-8.998109027743339539e-03,-8.965508081018924713e-03,-8.488546125590801239e-03,-8.404299616813659668e-03,-7.912818342447280884e-03,-7.079074624925851822e-03,-6.278273649513721466e-03,-4.927115514874458313e-03,-3.141708672046661377e-03,-8.692591218277812004e-04,1.549209118820726871e-03,4.217539913952350616e-03,6.649198476225137711e-03,8.856956847012042999e-03,1.145551819354295731e-02,1.390190981328487396e-02,1.512890588492155075e-02,1.606425084173679352e-02,1.746615394949913025e-02,1.698910631239414215e-02,1.648212410509586334e-02,1.693889126181602478e-02,1.492419373244047165e-02,1.404430251568555832e-02,1.240563672035932541e-02,1.325976103544235229e-02,1.281427592039108276e-02,1.421342231333255768e-02,1.533128134906291962e-02,1.427866797894239426e-02,1.167168281972408295e-02,9.645046666264533997e-03,7.325331680476665497e-03,3.589720698073506355e-03,1.854708389146253467e-04,-3.083980176597833633e-03,-5.796799901872873306e-03,-7.582643534988164902e-03,-8.727496489882469177e-03,-9.994814172387123108e-03,-1.075630076229572296e-02,-1.149480324238538742e-02,-1.260243542492389679e-02,-1.351353339850902557e-02,-1.437271572649478912e-02,-1.529601495712995529e-02,-1.611673645675182343e-02,-1.710802689194679260e-02,-1.730846799910068512e-02,-1.753536611795425415e-02,-1.763953454792499542e-02,-1.763450168073177338e-02,-1.724224351346492767e-02,-1.665283367037773132e-02,-1.647395454347133636e-02,-1.631760224699974060e-02,-1.643457636237144470e-02,-1.624050363898277283e-02,-1.682843826711177826e-02,-1.720018498599529266e-02,-1.746882125735282898e-02,-1.783880963921546936e-02,-1.802632957696914673e-02,-1.797835715115070343e-02,-1.865071430802345276e-02,-1.815075241029262543e-02,-1.771483942866325378e-02,-1.777703128755092621e-02,-1.745403371751308441e-02,-1.796922460198402405e-02,-1.742689311504364014e-02,-1.819010637700557709e-02,-1.863157004117965698e-02,-1.702638156712055206e-02,-1.714519970118999481e-02,-1.673214137554168701e-02,-1.600095629692077637e-02,-1.544234436005353928e-02,-1.484871190041303635e-02,-1.257041376084089279e-02,-1.260812859982252121e-02,-1.228597480803728104e-02,-1.160253118723630905e-02,-1.121689938008785248e-02,-1.085988525301218033e-02,-1.077271811664104462e-02,-9.894232265651226044e-03,-9.316856972873210907e-03,-8.738645352423191071e-03,-8.298989385366439819e-03,-7.893206551671028137e-03,-8.210472762584686279e-03,-9.812230244278907776e-03,-1.181076653301715851e-02,-1.456707715988159180e-02,-1.231571938842535019e-02,-1.118169259279966354e-02,-1.133419293910264969e-02,-3.240051912143826485e-03,-3.109035547822713852e-03,1.987645169720053673e-03,4.748052731156349182e-02,1.082160323858261108e-01,1.333626806735992432e-01,1.690777540206909180e-01,1.915147900581359863e-01,2.052927315235137939e-01,2.110722810029983521e-01,1.799504756927490234e-01,1.171363145112991333e-01,9.278956800699234009e-02,7.010237127542495728e-02,5.529981106519699097e-02,4.584276676177978516e-02,3.495094552636146545e-02,2.520678006112575531e-02,1.390273123979568481e-02,4.897280130535364151e-03,-4.130071494728326797e-03,-9.149946272373199463e-03,-4.326401744037866592e-03,3.256206866353750229e-03,7.439544890075922012e-03,7.267564535140991211e-03,8.859519846737384796e-03,5.570224020630121231e-03,-6.292462348937988281e-03,-4.921359010040760040e-03,5.519473459571599960e-03,1.545789092779159546e-02,2.067061699926853180e-02,1.099921204149723053e-02,6.307153496891260147e-03,7.873064023442566395e-04,-4.450296517461538315e-03,-9.688015095889568329e-03,-1.178866904228925705e-02,-1.280137430876493454e-02,-1.129110623151063919e-02,-1.199242286384105682e-02,-1.644840836524963379e-02,-1.984496600925922394e-02,-2.150641940534114838e-02,-2.183282747864723206e-02,-1.950482279062271118e-02,-1.734626293182373047e-02,-1.637927442789077759e-02,-1.484701782464981079e-02,-1.344588678330183029e-02,-1.271236501634120941e-02,-1.214551739394664764e-02,-1.261197589337825775e-02,-1.397596858441829681e-02,-1.504017692059278488e-02,-1.631245389580726624e-02,-1.805700175464153290e-02,-1.959460787475109100e-02,-1.958638988435268402e-02,-1.942519471049308777e-02,-1.992888376116752625e-02,-2.123923227190971375e-02,-2.408802509307861328e-02,-2.539503015577793121e-02,-2.720210328698158264e-02,-2.973295748233795166e-02,-3.086292184889316559e-02,-2.880348265171051025e-02,-2.489225007593631744e-02,-1.358326245099306107e-02,-1.285496633499860764e-02,-1.573803834617137909e-02,-1.494074426591396332e-02,-1.358133088797330856e-02,-9.722403250634670258e-03,-6.669152528047561646e-03,-4.023187328130006790e-03,-2.070282120257616043e-03,-9.558441233821213245e-04,-5.541238933801651001e-04,-1.468646572902798653e-03,-2.904487308114767075e-03,-3.653944237157702446e-03,-4.753114655613899231e-03,-3.762568579986691475e-03
3.225487598683685064e-04,5.302352947182953358e-04,7.866545347496867180e-04,1.106357551179826260e-03,1.468685921281576157e-03,1.602061442099511623e-03,1.583245350047945976e-03,1.756776473484933376e-03,1.907262601889669895e-03,2.228732686489820480e-03,2.524650422856211662e-03,3.107261611148715019e-03,3.590095089748501778e-03,3.733500838279724121e-03,4.170394036918878555e-03,4.163519479334354401e-03,3.899366129189729691e-03,3.478327300399541855e-03,3.122926922515034676e-03,2.863138215616345406e-03,2.565886592492461205e-03,2.404001541435718536e-03,2.242852468043565750e-03,2.216029446572065353e-03,2.229588106274604797e-03,2.236684318631887436e-03,2.284585498273372650e-03,2.370602218434214592e-03,2.499327529221773148e-03,2.633621450513601303e-03,2.829565899446606636e-03,3.121052635833621025e-03,3.430696669965982437e-03,3.677258966490626335e-03,3.910643048584461212e-03,4.078253172338008881e-03,4.091585986316204071e-03,4.355589859187602997e-03,4.402813501656055450e-03,4.151982720941305161e-03,2.928955480456352234e-03,1.840842538513243198e-03,1.033708686009049416e-03,3.750285541173070669e-04,2.011292672250419855e-04,2.480414696037769318e-04,4.091118462383747101e-04,1.040422124788165092e-03,1.858632429502904415e-03,2.512295497581362724e-03,3.580420510843396187e-03,4.291974939405918121e-03,4.656783305108547211e-03,4.988149739801883698e-03,4.747900646179914474e-03,4.293221980333328247e-03,3.925391472876071930e-03,3.154536010697484016e-03,2.391374204307794571e-03,2.119789831340312958e-03,1.844762242399156094e-03,1.727776834741234779e-03,1.663540839217603207e-03,1.687644049525260925e-03,1.740271574817597866e-03,1.867888495326042175e-03,1.888186438009142876e-03,1.851704670116305351e-03,1.767089590430259705e-03,1.520104007795453072e-03,1.310593448579311371e-03,9.937852155417203903e-04,4.877287428826093674e-04,7.204534631455317140e-05,-3.781402483582496643e-04,-8.235626155510544777e-04,-1.068780198693275452e-03,-1.361506758257746696e-03,-1.719414489343762398e-03,-1.963906455785036087e-03,-2.276790561154484749e-03,-2.358200959861278534e-03,-2.250236924737691879e-03,-2.055342774838209152e-03,-1.675911247730255127e-03,-1.127106603235006332e-03,-5.659605376422405243e-04,4.787119178217835724e-05,6.156853633001446724e-04,9.939912706613540649e-04,1.209915848448872566e-03,1.238547614775598049e-03,1.131219556555151939e-03,1.007677288725972176e-03,9.276471100747585297e-04,9.324105340056121349e-04,1.021441188640892506e-03,1.148967770859599113e-03,1.276967115700244904e-03,1.486262539401650429e-03,1.735978759825229645e-03,1.969403121620416641e-03,2.234849613159894943e-03,2.436152426525950432e-03,2.502523362636566162e-03,2.329304814338684082e-03,2.082692226395010948e-03,1.638079411350190639e-03,1.058757654391229153e-03,4.617076483555138111e-04,-1.262638688785955310e-04,-6.502558244392275810e-04,-1.033772947266697884e-03,-1.278572017326951027e-03,-1.391599304042756557e-03,-1.399217173457145691e-03,-1.420137472450733185e-03,-1.553969224914908409e-03,-1.798200188204646111e-03,-2.125024329870939255e-03,-2.564762253314256668e-03,-3.006815677508711815e-03,-3.410914447158575058e-03,-3.831708803772926331e-03,-3.980199340730905533e-03,-4.139500670135021210e-03,-4.165246151387691498e-03,-3.912345040589570999e-03,-3.706363262608647346e-03,-3.372131614014506340e-03,-2.979968907311558723e-03,-2.651701215654611588e-03,-2.341019455343484879e-03,-1.992027973756194115e-03,-1.699649379588663578e-03,-1.465008594095706940e-03,-1.245016232132911682e-03,-1.069909427314996719e-03,-9.260503575205802917e-04,-8.431529859080910683e-04,-7.701002759858965874e-04,-6.937456200830638409e-04,-6.696656346321105957e-04,-6.167065585032105446e-04,-5.565846222452819347e-04,-5.143884336575865746e-04,-4.696825926657766104e-04,-4.299609863664954901e-04,-3.886804915964603424e-04,-3.633797459769994020e-04,-3.437582927290350199e-04,-3.221400547772645950e-04,-3.003804595209658146e-04,-2.797374618239700794e-04,-2.665046195033937693e-04,-2.466311270836740732e-04,-2.337288606213405728e-04,-2.277755702380090952e-04,-2.077247190754860640e-04,-1.959147921297699213e-04,-1.894194574560970068e-04,-1.816931908251717687e-04,-1.757078571245074272e-04,-1.693987578619271517e-04,-1.676584797678515315e-04,-1.659459230722859502e-04,-1.645546726649627090e-04,-1.570517924847081304e-04,-1.466078101657330990e-04,-1.368361263303086162e-04,-1.118315849453210831e-04,-7.819199527148157358e-05,-3.533747076289728284e-05,2.694824979698751122e-05,1.095755869755521417e-04,2.187949576182290912e-04,3.472203970886766911e-04,4.697354452218860388e-04,6.299688247963786125e-04,7.659337716177105904e-04,8.986871689558029175e-04,1.043429831042885780e-03,1.182059873826801777e-03,1.175767043605446815e-03,1.207760884426534176e-03,1.202566316351294518e-03,1.056438777595758438e-03,9.747684816829860210e-04,8.596998522989451885e-04,6.521639297716319561e-04,5.457397783175110817e-04,4.269889032002538443e-04,2.932579373009502888e-04,1.723598834360018373e-04,8.029016316868364811e-05,1.071286078513367102e-05,-4.320122388890013099e-05,-8.261699986178427935e-05,-1.135260827140882611e-04,-1.346849603578448296e-04,-1.419249456375837326e-04,-1.528782740933820605e-04,-1.541709789307788014e-04,-1.572416804265230894e-04,-1.702683803159743547e-04,-1.725486945360898972e-04,-1.894376036943867803e-04,-1.916015462484210730e-04,-1.924179232446476817e-04,-1.868504623416811228e-04,-1.959725777851417661e-04,-1.913450687425211072e-04,-1.554448390379548073e-04,-1.797494478523731232e-04,-1.694021048024296761e-04,-1.734094403218477964e-04,-1.890793355414643884e-04,-1.926177210407331586e-04,-1.907808182295411825e-04,-2.343578526051715016e-04,-2.171486848965287209e-04,-2.009446470765396953e-04,-2.129953791154548526e-04,-2.111046633217483759e-04,-2.127515181200578809e-04,-2.124598249793052673e-04,-2.063456486212089658e-04,-2.028365852311253548e-04,-1.982130779651924968e-04,-1.964967668754979968e-04,-1.903979282360523939e-04,-1.864109653979539871e-04,-1.887327089207246900e-04,-1.861163909779861569e-04,-1.867785758804529905e-04,-1.811710681067779660e-04,-1.789900852600112557e-04,-1.790962705854326487e-04,-1.763920590747147799e-04,-1.861959462985396385e-04,-1.854121801443397999e-04,-1.832684502005577087e-04,-1.865348604042083025e-04,-1.866024977061897516e-04,-1.924126845551654696e-04,-1.878677867352962494e-04,-1.832085690693929791e-04,-1.757612481014803052e-04,-1.796363358153030276e-04,-1.844790822360664606e-04,-1.836921146605163813e-04,-1.832397683756425977e-04,-1.873727451311424375e-04,-1.860455231508240104e-04,-1.878583861980587244e-04,-1.847962557803839445e-04,-1.787914516171440482e-04,-1.802671904442831874e-04,-1.774491101969033480e-04,-1.765042106853798032e-04,-1.800837781047448516e-04,-1.880443014670163393e-04,-1.840729673858731985e-04,-1.841958437580615282e-04,-1.917889749165624380e-04,-1.880088530015200377e-04,-1.825851941248401999e-04,-1.839705801103264093e-04,-1.881174539448693395e-04,-1.801957259885966778e-04,-1.797059376258403063e-04,-1.832988782553002238e-04,-1.812978007365018129e-04,-1.756616402417421341e-04,-1.651291822781786323e-04,-1.618093083379790187e-04,-1.493008603574708104e-04,-1.353659172309562564e-04,-1.202648491016589105e-04,-9.780864638742059469e-05,-7.192498014774173498e-05,-3.924843986169435084e-05,8.401199238505796529e-07,4.567210999084636569e-05,8.560522837797179818e-05,1.266982581000775099e-04,1.716237311484292150e-04,2.017646329477429390e-04,2.073971263598650694e-04,2.203332260251045227e-04,2.125193132087588310e-04,2.342204970773309469e-04,2.301636850461363792e-04,2.107034670189023018e-04,1.970268349396064878e-04,1.833993737818673253e-04,1.788445079000666738e-04,1.657094253459945321e-04,1.566772989463061094e-04,1.614783395780250430e-04,1.961712550837546587e-04,2.283863723278045654e-04,2.776227775029838085e-04,3.528645611368119717e-04,3.995523438788950443e-04,4.864486982114613056e-04,5.575396935455501080e-04,6.473974790424108505e-04,7.570154848508536816e-04,8.010042947717010975e-04,8.196338312700390816e-04,8.546295575797557831e-04,9.418344125151634216e-04,9.770813630893826485e-04,9.187982650473713875e-04,8.687581866979598999e-04,9.257965721189975739e-04,9.446510230191051960e-04,8.418023353442549706e-04,8.752649882808327675e-04,8.685907232575118542e-04,8.535102824680507183e-04,8.389388094656169415e-04,7.239211699925363064e-04,6.800488918088376522e-04,6.273739854805171490e-04,5.083748255856335163e-04,4.512878949753940105e-04,4.273061058484017849e-04,3.764925349969416857e-04,3.144330985378473997e-04,2.541235589887946844e-04,2.114389062626287341e-04,1.664504525251686573e-04,1.503278326708823442e-04,1.365651551168411970e-04,1.237880933331325650e-04,1.196870143758133054e-04,1.092953607439994812e-04,1.111496239900588989e-04,1.246836909558624029e-04,1.398621534463018179e-04,1.594344794284552336e-04,1.777866273187100887e-04,1.830127439461648464e-04,1.843434874899685383e-04,1.942165108630433679e-04,1.999936066567897797e-04,2.016990038100630045e-04,2.125403116224333644e-04,2.114696253556758165e-04,1.912044244818389416e-04,1.919836795423179865e-04,1.800300378818064928e-04,1.458977785659953952e-04,1.257808035006746650e-04,1.037933398038148880e-04,7.553632894996553659e-05,4.759118382935412228e-05,2.024169589276425540e-05,-8.428347427980042994e-06,-3.508707595756277442e-05,-5.994173261569812894e-05,-8.872033504303544760e-05,-1.078717323252931237e-04,-1.300088624702766538e-04,-1.408963871654123068e-04,-1.484624081058427691e-04,-1.609972387086600065e-04,-1.549437874928116798e-04,-1.645556185394525528e-04,-1.679135893937200308e-04,-1.703573943814262748e-04,-1.737573475111275911e-04,-1.745584595482796431e-04,-1.818709279177710414e-04,-1.779402664396911860e-04,-1.832299167290329933e-04,-1.862867502495646477e-04,-1.849086256697773933e-04,-1.868417894002050161e-04,-1.798923622118309140e-04,-1.733179378788918257e-04,-1.608565216884016991e-04,-1.543395483167842031e-04,-1.627474557608366013e-04,-1.606864971108734608e-04,-1.524808758404105902e-04,-1.505128602730110288e-04,-1.550279266666620970e-04,-1.586348516866564751e-04,-1.610766339581459761e-04,-1.552139001432806253e-04,-1.439297047909349203e-04,-1.323952747043222189e-04,-1.236186653841286898e-04,-1.059559435816481709e-04,-8.551696373615413904e-05,-6.697652861475944519e-05,-5.145227623870596290e-05,-3.676319101941771805e-05,-2.901551852119155228e-05,-2.671624315553344786e-05,-2.888947165047284216e-05,-3.728214869624935091e-05,-4.815997817786410451e-05,-8.048134623095393181e-05,-1.237209944520145655e-04,-1.344440679531544447e-04,-1.738340070005506277e-04,-2.120789140462875366e-04,-3.005832841154187918e-04,-5.647133220918476582e-04,-5.243407795205712318e-04,-1.307915197685360909e-03,-1.602065167389810085e-03,1.528255641460418701e-03,1.074679382145404816e-02,1.217441074550151825e-02,1.745094172656536102e-02,1.892999373376369476e-02,1.895305141806602478e-02,7.713657803833484650e-03,-5.823633167892694473e-03,-1.539165340363979340e-02,-2.488200366497039795e-02,-3.435377776622772217e-02,-4.320497065782546997e-02,-4.923002794384956360e-02,-5.316980555653572083e-02,-5.548038333654403687e-02,-5.358444899320602417e-02,-4.839203506708145142e-02,-3.966373205184936523e-02,-3.305646032094955444e-02,-2.052176371216773987e-02,-2.039358764886856079e-02,-3.684609755873680115e-02,-6.701806932687759399e-02,-8.146333694458007812e-02,-6.832560151815414429e-02,-5.036250501871109009e-02,-2.274310216307640076e-02,-7.586526684463024139e-03,-1.917997142300009727e-03,2.440662647131830454e-04,2.097812481224536896e-03,2.443532925099134445e-03,2.246064366772770882e-03,9.392157080583274364e-04,1.170796822407282889e-04,-5.268465884000761434e-06,1.547499559819698334e-04,6.127442466095089912e-04,7.138430955819785595e-04,9.101747418753802776e-04,1.033352804370224476e-03,1.301470911130309105e-03,1.473927637562155724e-03,1.670098281465470791e-03,1.732622855342924595e-03,1.557909883558750153e-03,1.302442396990954876e-03,9.607814135961234570e-04,4.777551221195608377e-04,5.791809962829574943e-05,-3.347008605487644672e-04,-6.053111283108592033e-04,-7.019450422376394272e-04,-6.801412091590464115e-04,-6.055461126379668713e-04,-2.022102707996964455e-04,-2.549164346419274807e-04,-5.454102647490799427e-04,-1.061165123246610165e-03,-1.576890470460057259e-03,-1.906374818645417690e-03,-2.261909190565347672e-03,-1.173855038359761238e-03,-4.428173997439444065e-04,-5.714116850867867470e-04,-1.046278397552669048e-03,-1.240998739376664162e-03,-9.605196537449955940e-04,-5.113097140565514565e-04,3.043490287382155657e-04,1.541688572615385056e-03,2.600545296445488930e-03,3.882081480696797371e-03,5.093497689813375473e-03,5.247930530458688736e-03,5.390430800616741180e-03,5.368048325181007385e-03,5.274745635688304901e-03,5.226972978562116623e-03,4.947747103869915009e-03,4.148808307945728302e-03,3.017001319676637650e-03,1.891092979349195957e-03,9.904734324663877487e-04
-1.332771207671612501e-04,-1.733348035486415029e-04,-2.046227455139160156e-04,-2.542925649322569370e-04,-2.782958035822957754e-04,-2.494708460289984941e-04,-2.024392306338995695e-04,-1.520531077403575182e-04,-8.934622746892273426e-05,-3.137414023512974381e-05,2.232153383374679834e-05,4.146403080085292459e-05,2.923408101196400821e-05,1.651144702918827534e-05,4.583429927151883021e-06,-1.425371192453894764e-05,-1.490079466748284176e-05,2.668635033842292614e-06,-5.079514721728628501e-06,-3.731302058440633118e-05,-5.396783672040328383e-05,-6.722821854054927826e-05,-7.360705785686150193e-05,-6.407311593648046255e-05,-6.209554703673347831e-05,-5.877230432815849781e-05,-5.084789154352620244e-05,-3.383327202755026519e-05,-1.362400053039891645e-05,1.573669214849360287e-05,4.073102172696962953e-05,5.369943028199486434e-05,5.833860632264986634e-05,5.638245420414023101e-05,7.224952423712238669e-05,9.789290197659283876e-05,1.179726677946746349e-04,9.808276081457734108e-05,3.798520629061385989e-05,-7.120347436284646392e-05,-1.665092568146064878e-04,-2.030055911745876074e-04,-1.927276898641139269e-04,-1.924029347719624639e-04,-2.097800897900015116e-04,-2.210744423791766167e-04,-2.045145083684474230e-04,-1.627510355319827795e-04,-6.066347123123705387e-05,4.296568658901378512e-05,1.197273013531230390e-04,1.648132456466555595e-04,1.504201936768367887e-04,1.119514563470147550e-04,8.294991857837885618e-05,5.394519394030794501e-05,4.384127532830461860e-05,3.491274765110574663e-05,1.693934973445720971e-05,1.685021015873644501e-05,6.162573299661744386e-06,-6.365974059008294716e-06,-2.711102206376381218e-05,-4.276887193555012345e-05,-6.557030428666621447e-05,-9.536826837575063109e-05,-1.340440940111875534e-04,-1.833007409004494548e-04,-2.338756748940795660e-04,-2.325794484931975603e-04,-2.142554149031639099e-04,-1.923797099152579904e-04,-1.728330098558217287e-04,-1.590539031894877553e-04,-1.420875487383455038e-04,-1.101397210732102394e-04,-7.756975537631660700e-05,-6.528956873808056116e-05,-7.897677278378978372e-05,-9.603502257959917188e-05,-1.142538385465741158e-04,-1.113716280087828636e-04,-9.732657053973525763e-05,-8.925098518375307322e-05,-9.062171739060431719e-05,-7.886189996497705579e-05,-5.720240369555540383e-05,-6.351362389978021383e-05,-9.275371849071234465e-05,-1.336315181106328964e-04,-1.885832753032445908e-04,-2.402258396614342928e-04,-2.874250640161335468e-04,-3.402520087547600269e-04,-4.021051281597465277e-04,-4.391071270219981670e-04,-4.527445416897535324e-04,-4.708370543085038662e-04,-4.811497929040342569e-04,-4.714524256996810436e-04,-4.429298569448292255e-04,-3.720648237504065037e-04,-2.594863181002438068e-04,-1.311418600380420685e-04,-1.765985507518053055e-05,6.871497316751629114e-05,1.041967407218180597e-04,9.548505477141588926e-05,4.042706132167950273e-05,-4.235687811160460114e-05,-1.322106400039047003e-04,-1.894416054710745811e-04,-2.108313346980139613e-04,-1.942879898706451058e-04,-1.455227611586451530e-04,-8.638268627692013979e-05,-2.099279117828700691e-05,2.249729550385382026e-05,3.324635326862335205e-05,-2.138822992492350750e-06,-6.280639354372397065e-05,-1.285425387322902679e-04,-1.820749894250184298e-04,-2.143458259524777532e-04,-2.177929563913494349e-04,-2.052250492852181196e-04,-1.818166929297149181e-04,-1.533253525849431753e-04,-1.276320981560274959e-04,-1.042309304466471076e-04,-8.993931987788528204e-05,-7.920929056126624346e-05,-7.298689888557419181e-05,-7.041298522381111979e-05,-6.754548667231574655e-05,-6.488404324045404792e-05,-6.070228482712991536e-05,-5.934953151154331863e-05,-5.817821511300280690e-05,-5.757705730502493680e-05,-5.920064359088428319e-05,-6.506104546133428812e-05,-7.632758934050798416e-05,-8.691805123817175627e-05,-1.050231367116793990e-04,-1.319193106610327959e-04,-1.567695871926844120e-04,-1.777849101927131414e-04,-1.919050700962543488e-04,-1.942932576639577746e-04,-1.587285369168967009e-04,-9.413620864506810904e-05,2.801429900500806980e-06,1.368787197861820459e-04,2.831943565979599953e-04,4.811488615814596415e-04,6.713826442137360573e-04,8.465337450616061687e-04,9.620304335840046406e-04,1.096143154427409172e-03,1.150246476754546165e-03,1.109851757064461708e-03,1.228415640071034431e-03,1.196137280203402042e-03,1.343699172139167786e-03,1.381348818540573120e-03,1.216245000250637531e-03,1.150098396465182304e-03,1.118299784138798714e-03,9.129947284236550331e-04,7.316954433917999268e-04,5.807564011774957180e-04,4.150608438067138195e-04,2.497078967280685902e-04,8.012865146156400442e-05,-3.786744855460710824e-05,-1.255416136700659990e-04,-1.710062351776286960e-04,-1.930112484842538834e-04,-1.945324474945664406e-04,-1.859490148490294814e-04,-1.586483995197340846e-04,-1.302618184126913548e-04,-1.114300248445942998e-04,-9.144486102741211653e-05,-7.772257959004491568e-05,-6.809127808082848787e-05,-6.266140553634613752e-05,-6.058827784727327526e-05,-5.917415182921104133e-05,-6.027686322340741754e-05,-6.286955613177269697e-05,-6.566333468072116375e-05,-6.780943658668547869e-05,-7.034360896795988083e-05,-7.370297680608928204e-05,-7.477348844986408949e-05,-7.585285493405535817e-05,-7.776387792546302080e-05,-7.854587602196261287e-05,-7.951959560159593821e-05,-8.063788118306547403e-05,-8.207976497942581773e-05,-8.190861262846738100e-05,-8.150428766384720802e-05,-8.207540668081492186e-05,-8.221992902690544724e-05,-8.137842087307944894e-05,-8.102853462332859635e-05,-8.076683297986164689e-05,-7.942053343867883086e-05,-7.981541421031579375e-05,-7.955740147735923529e-05,-7.816498691681772470e-05,-7.740607543382793665e-05,-7.724335591774433851e-05,-7.657145761186257005e-05,-7.388385711237788200e-05,-7.224865839816629887e-05,-7.011445995885878801e-05,-6.804659642511978745e-05,-6.547234079334884882e-05,-6.246547127375379205e-05,-5.993852391839027405e-05,-5.945013253949582577e-05,-5.757880717283114791e-05,-5.852397225680761039e-05,-5.994801176711916924e-05,-6.287631549639627337e-05,-6.691129237879067659e-05,-7.235992961796000600e-05,-7.874084258219227195e-05,-8.299831824842840433e-05,-9.287630382459610701e-05,-1.029559498419985175e-04,-1.104943439713679254e-04,-1.207394088851287961e-04,-1.319221482845023274e-04,-1.425853697583079338e-04,-1.529522705823183060e-04,-1.684309681877493858e-04,-1.932524755829945207e-04,-2.165473706554621458e-04,-2.538182307034730911e-04,-2.808276040013879538e-04,-3.641883959062397480e-04,-3.816750249825417995e-04,-3.925433848053216934e-04,-4.315897240303456783e-04,-4.482133372221142054e-04,-5.002600955776870251e-04,-4.983671824447810650e-04,-5.077729583717882633e-04,-5.017766961827874184e-04,-4.907714901491999626e-04,-4.990653833374381065e-04,-4.999052034690976143e-04,-5.367078701965510845e-04,-5.487489397637546062e-04,-5.421458627097308636e-04,-5.511830677278339863e-04,-5.574678652919828892e-04,-5.470106261782348156e-04,-5.478332750499248505e-04,-5.476324004121124744e-04,-5.448118317872285843e-04,-5.387671990320086479e-04,-5.401704693213105202e-04,-5.485606379806995392e-04,-5.393645842559635639e-04,-5.216068821027874947e-04,-5.104256561025977135e-04,-4.728886415250599384e-04,-4.288759664632380009e-04,-3.775181248784065247e-04,-3.291846078354865313e-04,-2.983070735353976488e-04,-2.613632532302290201e-04,-2.373626193730160594e-04,-2.036568912444636226e-04,-1.789458619896322489e-04,-1.446230162400752306e-04,-9.533149568596854806e-05,-3.975519211962819099e-05,2.096313983201980591e-05,8.483028796035796404e-05,1.471718715038150549e-04,1.951906306203454733e-04,2.095866220770403743e-04,2.088970504701137543e-04,1.895894820336252451e-04,1.622364798095077276e-04,1.288288622163236141e-04,7.369140803348273039e-05,1.521058129583252594e-05,-4.081315273651853204e-05,-8.888151205610483885e-05,-1.291816879529505968e-04,-1.564483100082725286e-04,-1.771604147506877780e-04,-2.012050244957208633e-04,-2.246102085337042809e-04,-2.496507368050515652e-04,-2.808137214742600918e-04,-3.171149874106049538e-04,-3.432863450143486261e-04,-3.753079799935221672e-04,-3.916410787496715784e-04,-3.806782478932291269e-04,-3.825790772680193186e-04,-3.809343616012483835e-04,-3.442352463025599718e-04,-3.136995655950158834e-04,-2.831575984600931406e-04,-2.499463735148310661e-04,-2.326932735741138458e-04,-2.096818498102948070e-04,-1.830411056289449334e-04,-1.481495855841785669e-04,-1.001593409455381334e-04,-3.087221557507291436e-05,5.515422526514157653e-05,1.642959832679480314e-04,2.818777866195887327e-04,4.308579373173415661e-04,5.939911352470517159e-04,7.415873697027564049e-04,8.586833137087523937e-04,9.564446518197655678e-04,1.022367505356669426e-03,1.093867584131658077e-03,1.246070372872054577e-03,1.268585678189992905e-03,1.319870119914412498e-03,1.434118719771504402e-03,1.416784478351473808e-03,1.432525226846337318e-03,1.336376415565609932e-03,1.275896094739437103e-03,1.281887758523225784e-03,1.263309619389474392e-03,1.358391018584370613e-03,1.184520660899579525e-03,1.029557781293988228e-03,9.750200551934540272e-04,9.267184068448841572e-04,8.065736037679016590e-04,6.465186597779393196e-04,5.264980136416852474e-04,4.027868562843650579e-04,2.741114294622093439e-04,1.481595099903643131e-04,4.474662637221626937e-05,-3.900313822668977082e-05,-9.816500823944807053e-05,-1.344172778772190213e-04,-1.524444232927635312e-04,-1.510753936599940062e-04,-1.394272985635325313e-04,-1.250184286618605256e-04,-1.121342065744102001e-04,-1.042750300257466733e-04,-1.074606698239222169e-04,-1.144563575508072972e-04,-1.241930294781923294e-04,-1.426798262400552630e-04,-1.585450809216126800e-04,-1.613486529095098376e-04,-1.602542615728452802e-04,-1.542479294585064054e-04,-1.392272970406338573e-04,-1.231002097483724356e-04,-1.131990429712459445e-04,-1.119083390221931040e-04,-1.165223802672699094e-04,-1.249905908480286598e-04,-1.325324992649257183e-04,-1.324254117207601666e-04,-1.182204723590984941e-04,-8.695661381352692842e-05,-3.787762398133054376e-05,3.114239007118158042e-05,1.064363314071670175e-04,1.906840625451877713e-04,2.453237539157271385e-04,2.541112771723419428e-04,2.589328796602785587e-04,2.630956587381660938e-04,2.383235550951212645e-04,1.984138507395982742e-04,1.453430159017443657e-04,7.701433787588030100e-05,8.390599759877659380e-06,-6.097166988183744252e-05,-1.068307537934742868e-04,-1.397787418682128191e-04,-1.481792860431596637e-04,-1.114745173254050314e-04,-8.874747436493635178e-05,-1.019419141812250018e-04,-1.564098929520696402e-04,-1.523997198091819882e-04,-1.199180260300636292e-04,-8.023668488021939993e-05,-3.038209979422390461e-05,-7.146819552872329950e-05,-1.956590422196313739e-04,-5.029861931689083576e-04,-8.530687773600220680e-04,-1.418899861164391041e-03,-2.521464135497808456e-03,-4.676215350627899170e-03,-6.855136714875698090e-03,-7.784024812281131744e-03,-8.299579843878746033e-03,-7.885093800723552704e-03,-7.082204334437847137e-03,-7.005673833191394806e-03,-6.864068098366260529e-03,-5.655215121805667877e-03,-4.478106740862131119e-03,-3.541434649378061295e-03,-2.958578523248434067e-03,-2.423227531835436821e-03,-1.844166428782045841e-03,-1.282850513234734535e-03,-7.893362198956310749e-04,-5.853992770425975323e-04,-5.980510613881051540e-04,-7.407095981761813164e-04,-8.752535795792937279e-04,-1.392023754306137562e-03,-2.417412819340825081e-03,-4.160648677498102188e-03,-5.179650150239467621e-03,-4.631596151739358902e-03,-3.191574010998010635e-03,-1.414844300597906113e-03,-6.564903305843472481e-04,-1.856756571214646101e-04,-3.686177660711109638e-05,-7.049035048112273216e-06,-1.705267459328752011e-05,-1.834630347730126232e-05,-6.281974492594599724e-06,9.208248229697346687e-06,2.652552097970328759e-07,-5.192908065509982407e-05,-1.099341461667791009e-04,-1.638944813748821616e-04,-1.853604189818724990e-04,-2.455382491461932659e-04,-3.242501989006996155e-04,-3.126256633549928665e-04,-2.304343070136383176e-04,-1.973404723685234785e-04,-2.097270189551636577e-04,-2.209642843808978796e-04,-1.876776077551767230e-04,-1.330979284830391407e-04,-1.177432495751418173e-04,-1.448798575438559055e-04,-2.077775570796802640e-04,-2.828571887221187353e-04,-2.856095670722424984e-04,-2.631258103065192699e-04,-1.643772702664136887e-04,-8.079122198978438973e-05,-3.506159919197671115e-05,-5.194663390284404159e-05,-1.166222500614821911e-04,-1.443188230041414499e-04,-1.473392767366021872e-04,-1.450549752917140722e-04,-1.679001579759642482e-04,-2.338334743399173021e-04,-3.319120150990784168e-04,-3.847659681923687458e-04,-3.618819173425436020e-04,-3.056540153920650482e-04,-2.526514290366321802e-04,-2.162267483072355390e-04,-2.022792614297941327e-04,-1.733333774609491229e-04,-1.490471913712099195e-04,-1.312371023232117295e-04,-1.240559795405715704e-04,-1.355646090814843774e-04,-1.668915938353165984e-04,-1.628266909392550588e-04,-9.645946556702256203e-05,1.143247391155455261e-05,1.221177808474749327e-04,1.859943877207115293e-04,1.956946216523647308e-04,1.175644792965613306e-04,-5.489989234774839133e-06,-3.155518061248585582e-05,-5.312603752827271819e-05,-5.507993046194314957e-05
